-0.8195900616180627,0.3417049928731751,0.22173182604102115,0.5363739314298869,0.3546555168295164,0.20212607832491986,0.48175461745286813,-1.2113058728936514,0.6022954062539306,-0.10185665046045994,-0.19316825499884233,-0.7694501520005788,0.3511136616702879,-0.3936641470688006,0.020221184592694414,-0.2674588746110474,-0.08127611109876914,-0.45385523828521734,-0.008884862980415275,0.8083060720634696,0.11364699572128192,0.39367967135846454,0.24268528436051814,-1.1139673309440257,0.10464853532655287,0.21547884420418614,0.14877214722895338,-0.017202799561313646,-0.14325249383856378,0.22447172707226198,0.2599768274302367,0.4522597735611842,-0.004362398869238981,0.3331180634962944,0.021400799036298226,0.35623007544894947,-1.3779386334047012,0.46540071117702686,-1.2661748708365168,-0.2571378737641162,-1.2820221499835536,0.43706285611036144,0.5459048573245154,-0.8758153007569673,0.7480842667329619,0.09053873579529173,-0.8432667357961795,-0.16318847157041153,0.13749989095426937,-1.317640392240788,-0.008738341197581071,-0.15867371076881928,0.2803613315146099,-0.21142282497417672,0.32801820127654235,-0.15654890362891757,-0.848894783026101,-0.8183608796266049,-0.804354152331631,-0.17450217523876246,-0.2753522145682038,0.12343998630309255,-0.9761999275810308,-1.5129869746581721,-0.11047780514222391,-0.17792080503409857,0.6060664216273369,0.5798610220227152,-0.18135993557601088,-0.09958603663953934,0.16864166376049672,-0.7994583646093678,-0.06407767073873537,-1.582448463936366,0.39238034476631395,0.09340387113695893,0.5658806121635972,0.06325872089343687,-0.18032650180858992,0.5336615868295472,-0.13638568969945036,0.1834469250397832,0.27551998803603134,-0.2518484918493433,-0.397200242354658,-0.24153272387376054,0.17412276744876,-0.41270721201087385,-1.132507034014692,0.10951126237635865,-0.9991099419248989,-0.25857000188480106,-0.8080050831608808,0.028134942839933876,0.015583135185217334,-0.2605272875254015,-1.1771586517309192,-1.2437570775430749,-1.299714242809511,0.4125207864722878
-0.4235228707049425
-1.7740933001690875,1.1783788914592985,-0.2115804246139252,-1.2677054930326808,-0.22020849890727037,-1.016051032860322,0.6171430817033502,1.1643652428650373,-0.5738223671096901,0.31109021685872645,-0.41979878355886696,-2.3005755241901364,0.812362929987583,-0.2839661299693096,0.3739729608194247,-0.39782309751981576,-0.21774238191544518,-0.8013693569146287,0.8754372663243307,0.3183957609303282,0.5125042972406801,0.45557814114321465,-0.11870058822891928,1.282866965237884,0.9778173642624732,-0.031999001778813825,-0.2939069963761624,-0.25183198810582386,-0.13500090923213437,-0.2276212850299994,-0.2741021823799607,0.10683155910491447,0.023782545188558626,-0.1751378180444136,-2.0505084364752477,-0.1600540706289685,1.3194889523915776,-1.1653970152808737,-0.06987924744430596,-0.3233841309112792,-0.7345202292998028,-1.4311283848083118,-0.1256593154398285,-0.18468774150490172,-1.200982824990273,0.07916017678846776,-0.8426153199132308,-0.29050337314378405,0.4694964024719291,-1.4333641335480387,-1.3656890682836047,-0.3349278446884652,0.18791525958866445,-0.15753842459064507,-0.2262876879329735,-0.5940665922455329,-0.5802552461189554,-1.5493985347878865,-1.1228381953910767,-2.058314631746655,0.3611542549726524,-0.2173889757246308,0.030869925584000712,0.799192208319355,-0.3724191681770159,-0.26324246830956083,0.41748173115688514,-1.3793332953666275,-0.35846861919230943,0.8800939116619806,0.09416581098634515,-0.8103298316090923,0.23721577939070929,-0.9990995810775775,0.5621122642348888,-0.2468881694257146,0.08130321702660727,-0.40726010253476636,-0.09576959265911009,0.6891154033016808,-0.2934331535241278,0.6628006844017622,0.705131068385489,-0.24853920647439964,0.08728907739510419,0.7570624712650922,0.20656201783305334,-0.38061616237398954,0.9168828687566213,-0.8136466505794069,0.24187428786673879,-0.365210646392988,-0.7763437015099822,-0.35964280400616,-0.24400494695845992,0.9853992227327366,-0.004132580376262567,1.3271461500132324,0.6321984697406992,-0.48144670205058765
-0.36494317553768113
0.170591612659406,-0.6323900777569214,-0.19819754407887955,0.3640607988880072,-0.08240031447949361,0.1884704498717609,0.1709653410625471,0.27997660469536695,-0.7744724014906038,0.244267386676848,-0.18352985329003266,0.5496039432831831,0.031963364610733125,-0.2827934466872416,-0.08080799893328411,-0.23746166401524993,0.04802983158398207,-0.24193677021847615,-0.11300222045107974,-1.341990530718118,-2.005812064456096,0.42456438050617445,-0.1948916961300109,-0.1857832797046617,-1.8246061210598368,0.8119552303908729,-0.09345385543797817,0.03506356258692262,-0.015285295156596239,-0.23304031779696943,-0.1807338505214998,0.331799165528248,0.07959416881334518,-1.3031306978402428,0.2536937645917395,-0.1778090850658392,0.6415426307201163,0.7457153106572098,-0.9673872696096335,-0.1777244033883733,0.27598691247787294,-0.2965339192050544,0.1509536801485369,-0.627413071077697,-0.35209760014229635,-0.28059072496092025,0.6823236397168083,-0.030938946613487672,-0.5587861579157613,0.4232198636600598,0.4552668596198823,0.07657193378918793,-1.9219470203052789,-0.3354435521142059,-0.22007744001160945,0.9103632394570954,0.14727671176732438,-0.6666631465313084,0.321981130779788,0.5361699251881151,0.07034730927105051,-0.16092327782120788,-0.6277141341227677,-0.039705977865444116,-0.22179312078304003,-0.18329970046426708,0.25572016457500835,-0.8519536680895278,-0.17779463574635773,-1.3454407905600179,0.5599801287823429,0.1890197385830762,-0.7029478148135122,0.27989545892903794,-1.2421607995884383,-0.20998468115291613,0.7700857626536143,0.0168373743492368,-0.18775515211814695,0.9819076713334086,0.0025039066465502896,0.3244917573279993,-0.7642528705326072,-0.25008919396916635,-1.1369029865542246,-0.7432474281223063,-1.1620146978092059,0.6316857751801184,-1.246352214320768,-0.2378010576226391,0.2917315428786848,-0.15884696538412224,-0.021502682860313163,0.0494881018113171,-0.1900946404036222,-1.150435047475365,0.18487347477561625,-0.105797339753534,0.6251897090149772,-1.0474034001694934
-0.32863187721940773
-0.4267270661417711,-1.5919032787787535,0.6031508972415364,-0.33683542651407095,-0.035899120709260136,0.027713013984666683,0.2626505387825028,0.5222118426724033,-0.8149930500143646,-1.4611658905843998,-0.23195017233973775,-0.6475728051369264,0.5557696574997623,-0.1875421230593936,0.0015443712812930463,-0.2191125510512598,-0.2762648939023678,-0.6152185218751313,-0.39572633546284247,1.2103010754089356,-0.4991222647141742,0.27646657241098116,-0.17749910355743567,0.24005039566840744,-1.106279748008993,-0.03908165532225578,-0.4786800427410526,0.576261399217517,-0.24207530239874397,-0.2618736208416359,-0.11239902056563236,0.4848999654863421,0.3130674187749271,0.7397790527222966,0.524056959025054,-0.25895667833997005,0.5010466080381905,0.8570309881940849,-1.1052440282470541,-0.14885745869575295,2.860900344282321E-4,-0.6798225016168119,-0.2237046102475739,0.47474319818548316,0.42357097162205704,-0.5628716565541484,-1.8397948471526753,-0.42873412637842473,-0.7437962374054932,-0.4848609964475708,-1.1665729916514338,-0.4549307025338799,0.6524582070826328,-0.22120818383513477,-0.19678379940040494,-0.812222465972711,-0.33439814121948164,1.13108793718007,-0.27475697195533555,-1.3141290283657585,0.030792062800216635,-0.23542723600923007,-0.3793588050312612,-0.18238093114278256,-0.2845691754258324,-0.14494053775378526,-0.36477618773653275,2.2446612257377088,-0.29531313395449577,0.6832882945110228,0.11547057848496516,-0.911914622587595,-0.5124199679624762,-0.6307598904956562,-0.02852078652895574,-0.29262412477573496,0.28359874657689443,0.3476124779358591,-0.11923344752030361,-1.6541789079395335,-0.0413177236913401,0.7135507083499231,-0.2973784536500388,-0.21807972707171952,0.33557348175468155,-1.3672361789654952,-0.10379065019203679,1.4289195023046277,0.8072868597406472,-0.7454921383965478,0.14221014873495602,-0.36682166299380037,-0.14060758438441062,0.8720242429350379,-0.012689275785570931,0.7176064567113148,-0.5228907617741196,0.31224878552220064,0.8152663210469462,-0.3820787518496559
-0.2554953239762025
0.9631030096735672,-0.3249273014092414,0.1151682323613107,-0.41129932464866725,-0.3427813408022697,0.1939377821285163,-0.9942146197816644,1.564040332782589,-0.8344108199143035,0.20001798067142965,-0.24149837754914133,1.4190456445172592,0.658617882399024,-0.2660838911222873,-0.04574527235899283,-0.35616994775149596,-0.08174009299176421,0.4564436178720171,0.419635359864307,-1.073379369389946,0.6463253905211268,0.6358138854431985,-0.23809169549250275,0.9927699044425224,1.3881854959133897,-0.07172538475730637,-0.2360116160004061,-0.30377828145880686,-0.13916581854046806,-0.23501892182918863,-0.3376761241503411,-0.14702897274606147,-0.022260757535957305,-1.7448944028073496,0.017620281272660045,-0.28753414525241133,0.46894465488308107,-2.669654897774703,-0.8155532569271876,-0.2797082965706079,0.546709017691378,-0.49420180341996245,-0.16638609940931498,-0.7542388887131447,-0.7963850331315331,-0.5574847133474568,-2.2898922291857504,-0.23624788945559771,0.6616566726250861,0.31611585150017735,-1.2071709731913327,-0.2613227438969233,0.5866910574915399,-0.612198597634669,-0.3437269023427508,0.25874678987971755,-0.7686391842763208,-1.2051351067619136,0.5772482923433563,-1.2502128533091696,-0.06051455227239569,-0.25544360128488597,-0.20154061906071655,0.112949880357809,-0.2505167719899664,-0.22735725681770128,0.3538555347137153,-1.2320343811634704,-0.3543158470681978,1.618981541428644,0.6298057390305938,0.36306751145136906,0.026322590149960672,-0.029537091528329576,-0.6749479093715589,-0.31258729634697024,0.3377168049246434,-0.3330746065192368,-0.11368535323739849,0.06478414367879347,-0.24123888589899664,0.10120624502162133,1.0699236282706466,-0.3016582358892102,-1.0600476805583587,-0.07372133241169214,0.3079401867724496,0.30145227804556723,-1.5968279585004796,-0.45619516217353995,-0.3522016975396133,-0.351239491610505,0.4680851727633895,-0.4153491307448114,-0.2468464528600539,-2.235550717342297,-0.21055497958217348,0.19013380372976343,0.9402261150135816,-0.5724226354038556
-0.3595890403853548
1.1836435516083617,1.740004499042873,-0.0075592968429323585,0.5438858579965198,-0.2866257242132568,0.7749948367889552,0.4688479459353713,-1.3974916550478098,0.13212798785841823,-0.14421454330135863,-0.2433443504253572,0.7174962141389862,0.2593069479951618,-0.42345385762320503,0.17585107276627135,-0.35170460783048185,0.32299850198807434,0.8194226729302467,-0.8363755343832943,0.07916519147989141,0.2102966678333114,0.5169848601040511,-0.24216918901000203,-0.40799644253178063,0.3988054462093819,0.26347916892729134,-0.14580077412680428,-0.05792778230130927,0.16596079726749502,-0.19845546390278665,-0.3218264758674623,-0.08893530173467523,-0.20526653771725406,-1.5458300234193139,0.5822421612476791,-0.21413216284374137,-1.3167088516630954,-1.4607258800607819,-0.7241286943554723,-0.28691654536418504,-0.012133215059929283,-1.0061650798543693,-0.09943047957377697,-2.4306502884692285,0.7976570565263487,-0.5738417894815868,-1.0467653500979914,-0.19438566308008468,0.26895829060567955,-1.8827673288910145,0.07927095275245573,-0.19613007165147286,0.372930125325219,-0.28941254781078973,-0.2558892486400673,0.4086741070126087,-2.0948250399536485,0.2647827856651495,0.64183081477432,0.5410694273307569,0.16499350037516658,-0.29800878935677677,-0.382039665882308,0.1062012711487654,-0.32106099440753516,-0.21094041087867135,0.33704008191593887,-2.0177703006002505,-0.30963875884941094,-1.968144335193697,0.299588062672921,0.5663135973968283,1.2309123698042115,0.985910928650788,-0.664434435794249,-0.22023963092925147,-0.5108053120761954,-0.19450257245888386,-0.27703889354557343,0.16691427218879085,-0.028259067682299837,0.7442143361017326,-1.4441177482259113,-0.2144402437495653,0.6314170232319741,0.41132176834574186,0.08925171084610427,0.4811886280655924,-1.2281038421726274,-1.0137048125755084,-0.4256064259912791,-0.28912093176485093,0.3094010645246577,0.21154155137573538,-0.3050926641579635,-0.1325966101103216,0.10194910324041899,-0.6705126770995572,-1.8425696712250188,-0.055852567599772224
-0.4231218943407074
0.25507152451233117,-0.9893355750927733,0.7671001282628666,0.45028210001095625,0.07490629588386381,-0.1477008613361646,0.020244642862797847,-0.7555030945843325,-0.9864017804836267,0.6177886608761024,-0.33797500348141524,-1.3527533899992659,0.1519318999914204,-0.30559697777995964,0.17812768571691534,-0.4050039710947797,-0.151744058354762,0.05203348941232799,0.2613449105758122,-0.6309851281837726,-1.997437535045819,0.8792598843286031,-0.19461866566363775,-0.2714801066382133,1.6578594771736817,0.44397927079748895,-0.06627614091692761,-0.03427830435079525,-0.4411749539865083,-0.09337303940974855,-0.36657983803819166,0.7397671685039492,-0.3494237886489825,0.8199873280812064,-0.29170917267871127,0.030182719185695112,0.645186065829604,0.9941520254001449,0.1306332008719496,-0.35518649470307295,-1.5585438297129826,0.07364018649626318,0.34275950449423404,-1.7468956577719896,-0.12215633359126113,-0.5152662830789633,0.08987233154797561,-0.0996200654264959,-0.9661868302963765,-0.8938127499087517,-0.3681015943669518,-0.03358676948111197,0.5219948475782794,-0.8238861671609213,-0.12111766312653895,-0.1374791334910376,-0.9515773235130218,-1.661076068443477,-0.08996781538873858,0.6088952777526319,0.02015529981537701,-0.12191193815889259,-0.5677659464967578,-0.03278546522759938,-0.2795489846385657,-0.25969873608795263,1.0254244043298046,-0.6901411200063792,-0.39357970126457703,0.3461977719850849,-1.2083798465997555,0.32841320436296023,0.7036546590522393,0.8365428228178237,1.0882559577692739,-0.24671234482955767,0.4432218693861103,0.2535661100155885,-0.4126471985367108,0.8724292367452984,-0.22047066334233856,0.30779036891050005,-0.45991249841669807,-0.2516719606099245,-1.094632204913671,-1.2717114587502967,-0.36273408855444067,-1.158762902812385,0.05590406657845738,-0.7869863353911024,0.33499225602176935,-0.4143689673094808,-0.17117080331295734,-0.3578838399300474,-0.07091965715249661,-1.6105693718188843,0.48709361551919933,0.2488630021675641,0.4259362145058288,0.22261295799519448
-0.5306565357400063
0.18644147252955431,1.2600577573327914,0.44775631090614787,-0.700406699852831,-0.06346513366515356,0.42879740954765205,0.08951667614253848,-0.7727489156531965,-1.149866723609606,-0.6709906401294431,9.378275121525028E-4,-0.28676505206205893,0.24668114286141174,-0.2794856628839087,-0.41251486315116925,0.01081532665157607,0.5062733538647698,0.15894170061296287,-1.7598738306214403,0.2783422995118737,0.6598771915167937,-0.6274710807533913,-0.12941773535401804,0.7653393015861932,0.8650046047332589,0.6162222127834736,-0.047592037257498165,-0.38860353198597747,0.08781896475623661,-0.15841626087991664,-0.24761380001100755,0.11782200601303143,0.12035264563431883,0.12646811747766618,-1.4291254094712504,0.1971385859744047,0.004061549117079853,-0.5390272684617957,0.23899944972449547,-0.2880772009821913,0.2505297575116279,-0.3793302139316409,0.19157801590569176,-1.7005594377615068,0.0765217740863745,0.18787600183659645,-1.5242033426376604,-0.1490273177203557,0.3350575338068008,-1.0212697365485994,-0.1773756270069582,-0.22628650405133174,0.14047764782955258,-0.8822911089011414,-0.19361821978417842,-0.8620407929924762,-0.3338811610248342,0.3278318446254556,0.372877796805406,-0.15048793050274817,-1.049341215888495,-0.07624063604872074,-0.6512827296605266,-0.023140026998934846,-0.20672631237360017,-0.20347548068049834,0.6405639130195593,-0.8426326284790127,-0.18029501066018788,0.37909610219123113,-1.500356254424574,0.7226498857827675,0.2857027111758184,-1.1052326859680046,0.06628802966074165,-0.17307273384320493,0.145488770408725,-0.20667930699018422,0.14848960767769678,-1.47956782510767,0.347161927286928,-1.3859657753312553,0.2153846201580112,-0.16962526724738206,-0.051913764363988556,0.5818933092953266,0.46257555818025603,-0.8780708785232869,0.47952828073763065,-0.18737678270287167,0.45601649766872404,-0.20065000732055824,0.10007467081748679,-1.405566558079511,0.22099825031472164,0.04276342026508866,0.06206616101919472,-1.471242158024454,0.16726322965844592,0.12718882160503564
-0.42833417775696936
1.9020357207746252,-1.6788256884189594,-0.7885854397510521,0.27659103417807246,-0.29419553119217173,0.017164410170740746,-0.04770877948755776,0.7504032554216711,0.7143186766022738,1.0963181250131477,-0.17606345580039534,-0.7439952620186104,-1.5546265450971308,-0.2615398091363185,-0.09802883201156086,-0.26645722391925675,1.325395760939252,-0.022677738874770904,0.8102243403181244,-0.8124398049135635,0.6757179658074864,1.0129220963140662,-0.22799051254939923,-0.7223469110035106,0.5666504586986323,-0.8727548383446154,-0.1850061652333674,0.00543028499770852,1.7357795115433745,-0.2835184305219343,-0.12652046322311383,-0.07091804778108302,0.12314353427059588,-0.6785242518600444,0.08304494832665611,-0.1522043240086643,-1.16758586054468,0.9733322188606834,-0.4160102773824466,-0.2539568488214576,-1.9879373346663096,-0.7544409665581605,-0.13459097952810586,0.9992422343631281,0.6598759661512509,1.0034503375714525,1.3362748283910582,-0.3766970727116204,0.5594521325418419,0.5924323557674164,-0.16088605822208135,-0.38277137627844887,-1.2678160154610416,-0.1649744898076102,-0.1566898395218099,0.10653389080519618,-1.6406517243787544,-1.172470648556976,-1.3627934482298072,-1.0578781689392913,-0.12067872412004843,-0.191036909394954,-0.3082248776807426,-0.7173112087877839,-0.27078240389485986,-0.31941015364048514,-0.0553013098684835,-0.8334200549989592,-0.22767270494650316,-0.23945676505940203,0.17602645720486834,-0.8041626725097631,-1.6691390477039796,0.126292517214054,-1.5732133426995398,-0.3152867991088258,-1.5855815508421307,-0.16365893520544603,-0.17335560366565933,0.010806676020412933,-0.6860178545328105,0.3928980779147391,1.2492669555334286,-0.354855977834689,-1.5129387139518555,-0.949474811697055,0.1975299407391107,0.07258911405360549,-0.6984727637946663,1.074950172210398,-1.517033780316763,-0.2907488874729311,0.04856037783601175,-0.034737212883615844,-0.18153272240287335,0.8871446351957506,-1.110255492084588,0.09927300360328865,-0.749215747163477,0.2987962914055215
-0.357014327422302
-2.237392414564698,-0.2273809513218134,-1.2935297810319077,0.1751855713515019,-0.0368804640223515,-0.08855939920706994,0.3140531152698103,-1.8781235986882654,0.5199266914330102,-1.3871426386140249,-0.0631625871124465,-1.282540047099489,0.41128079190427536,-0.09470004199374303,0.1833015982582828,-0.07671113789483806,0.5634821972110166,0.26011095999129336,-0.9963228384851406,-0.41577202781497424,0.3409010438834549,-0.7767149246225082,0.039258485117482304,-0.5753335917112167,0.3285882167192256,-1.5423118436778156,0.07164347775112173,0.06520834508166133,0.14518569364158035,-0.008971920549840237,0.016650749236880202,0.16513791242529777,-0.3588200655846054,-1.104103751532672,0.3295205516522635,-0.019978926459136213,-1.023316012718787,-0.13155385901599295,-0.7541654623857253,-0.10448469608935777,-1.7055400230961641,-0.25336865194667185,0.26520384869407176,1.0431617357653622,-0.7676835674840229,-0.5715985714638572,0.525551510209829,-0.18100411164423438,-1.7203074365084465,0.146265179563335,-0.559170399477083,0.17627937754840853,-0.8004719994535443,-0.00842092571936619,-0.048715318428195924,0.14238709192360516,0.9794051645706331,-0.760585155014737,-1.3641424182354471,0.35478793562217203,0.224133770625782,0.038963411565504036,-0.8656523493354197,0.37083325898711994,0.009279415305651408,-0.18460744436304705,0.5782658596709125,0.5344677382936466,-0.20856459167029523,-0.2721038496252722,0.15820717042378085,-0.8982759213919774,1.2952356950004407,-0.7833713664027222,1.1203733156849793,-0.1240747757666401,-1.1213867233679775,-0.028685173186925376,-0.04804823682584182,0.3325061040655481,0.10380270455738012,0.7927347633074714,-1.5032018573876558,-0.21979896925872897,0.6227454711194572,-1.0726851154524353,-1.8258871814160063,0.5899312570831348,0.39884920963227394,0.34901174430854764,-0.4300706449394268,-0.2831612438721638,-0.28838255039479643,0.24130650183355,-0.015610906940634724,-0.08561079902085557,-0.3129045483600201,0.41907645893357415,0.647732443373103,0.05814417051273763
-0.24319286748754793
0.9472942796546271,-0.40339277402694695,0.39415894102395815,-0.2807450223745028,-0.31446917568248417,-0.01788700580352682,-1.4385210027657689,0.13116838967572086,0.7498184034453554,0.5732417995217707,-0.2100886079120283,0.4322286501819858,0.7402941470057739,-0.3804487020973383,-0.1653364165748991,-0.28313194173548567,0.3302563600347746,0.013480313091039543,0.002406552009713205,-1.604744685436206,0.22871601080176185,-0.5634233802610963,-0.416900477566706,-1.2763872728153574,0.26101229725903646,0.6473449409820144,-0.6308434187282793,0.03744570353211385,0.02785241672311638,-0.4581600353525254,-0.19836160528029928,-0.2503893030132592,-0.10604224055486494,0.9359800666635296,0.05547609320869744,-0.31543431966933083,1.0281323493712162,0.2970734655017738,-0.8407164379821962,-0.3381602102115974,0.15465616987339326,0.15388914601002887,0.6548573220403274,-1.1497828778359542,-0.155531584822402,0.3391792423700245,0.49764225855240146,-0.35175743678590926,0.03443593017415165,0.5402995933080175,0.8822926952938478,-0.450482964500784,0.24072401251318593,-0.09755186262291007,-0.32683079696675704,0.5152293744405355,-0.19918206385792214,0.2590758438928232,0.8414142792595106,-0.08108691153418633,-0.6563118862540165,-0.2758287353573097,-0.46553588763477727,-0.7115890664437831,-0.2758584351923896,-0.26091484035806817,0.34401496354793965,-0.9547428394916166,-0.23897852354548088,-1.0290135247499812,0.25799083314422994,0.33844798478139354,-1.2716841076095349,-1.1411611656852343,0.6381665392578534,-0.3316589175056896,1.7897015985515412,-0.29170087404142425,-0.09425694157585306,0.23775509813466583,-0.09271867913034236,-1.6137879625979585,0.24511243902466326,-0.4402359676382145,-0.3329452353989021,0.6320530264635749,0.015193836889506672,0.34866563454868343,-1.447109493960485,-1.3790441472264319,0.24643787580996362,-0.24317397031515664,-0.9810683485327055,-0.23774962708990807,-0.3272677125569174,-0.03562956063286265,1.59053115184162,-1.7405402986044498,-0.8228361127584957,-0.7125028507624013
-0.4352471691226209
0.3834116121270446,-1.4066452223047599,0.8913472398043004,0.24558805773604958,-0.1878434375172082,0.19526107103623824,0.3711018816100418,0.3213134511830123,-1.5828574390355783,-0.7593542333684022,-0.20383797040982327,-0.5316437583531302,0.1500811248554756,-0.2480499107471574,0.1060911067375452,-0.32893686869945343,0.023139057754571368,-0.08287377759462997,-0.5915911213827018,0.7121292607054991,1.207947457082317,-1.1327264424638865,-0.3444132028152614,0.22210236944724865,-0.8386709368300299,-0.348362461955099,-0.2507307962318628,-0.1281016549592759,-0.09112452329431811,-0.3097103217633388,-0.34768481645694765,0.12333007220123125,-0.8241286288924085,-1.1312562268284405,0.715983678956808,-0.1531890832617244,-1.0045153217641605,1.0941076338401161,-1.0102467779697542,-0.3625531447562802,-0.519629703433696,-1.1738918798610494,-0.032293756291862714,-1.393081701296231,-1.1973961279760288,0.6771504838603498,0.8944376264964293,-0.261015255632727,0.4222073300607583,0.4500631897607713,1.1217891732572245,-0.16621825615262692,0.7943733660011868,0.07035728294475005,-0.3444465826585055,0.5160978715631104,-1.389473659366117,1.2026872747808877,0.052381398349718,0.36599599669811356,0.2194055984558536,-0.2525135698794456,-0.3007920571209326,0.0501002447788057,-0.3224954723513444,-0.2832105383855059,-0.02445091644030726,-1.2415459845398502,-0.3177815307707504,1.0902497358371468,0.33519661024230796,-0.43299941893568294,-0.9524718618810508,-0.2859771559423358,-1.2411602908110686,-0.32228548798047596,0.23706777014771607,-0.17524986729538064,-0.12193756419642283,0.3539679499932294,-0.15374000783352962,0.2661553655047677,0.9486922358277037,-0.34075887224563917,0.010162847871412953,-0.3079296578010855,0.6447838673170364,0.30374904753099397,-1.1645058157778814,0.38213381776568384,-0.42406252563717317,-0.3104501264955844,-0.5154078980140565,-0.05009443254238413,-0.24462703600190672,-1.6878160840684522,-0.3249327892185993,0.28049700398638283,-0.8054220607622279,0.36972832156037794
-0.4587748106204474
-0.487597085193724,0.8359449609849791,-0.44961875836383985,-0.607347440474952,0.22003369841675074,-0.8916895186791238,-0.6026206763944623,0.2627094691895609,-0.4009882462199567,0.3103562265255113,-1.0929226769927363,0.2770438698610531,0.454242404621031,0.009355205101292856,-0.5002719891224712,-0.9753927210997377,-0.777409079521238,-0.923358182369751,-0.02921979344408709,0.42997888404297663,0.3161686683187566,-0.462328193429251,0.08343375811051543,0.4222622237587824,-0.703742219760346,-0.5286726656740597,0.16015983671293924,-1.2552393478191135,-0.4512712051474565,0.33700252407129694,-0.2895774685004714,-0.43821163924816875,-0.25509091374705684,0.9630704805938537,-0.680087428919051,-0.6309975136303142,0.34928237342367957,0.0717029301296928,0.9998670382234951,-0.2774944240526047,-0.20496236666772338,-0.02582863765837663,-0.08156937584802025,0.9373549168880729,0.6788453618206371,0.36533706300610935,0.3801544085322251,0.019653423204996436,0.18049508210677026,-0.36301262529657163,-0.2857610016667719,0.13358814012439763,0.5340619732039551,0.026207681089175473,-0.025889218584771084,-0.5978533938512289,0.27489296763163124,0.34304315030962834,0.22615323119125533,-0.29259062589148765,-0.8233164130460572,-0.2735037097205974,0.8690372940897956,-0.06850826866441462,-0.1337917236936346,-0.3829276232382189,-0.2980271955817017,0.3513991336265899,-0.28432555672373583,-0.37697074230503336,0.5064757584598294,-0.47608142451986063,0.18003084005719183,0.060249525057356264,0.18256062393045133,-0.1350605247770147,0.27023243755241305,-0.06569244401932978,-0.5967774814276694,-0.02785941724444953,-1.3212863019802739,0.00205114371271092,-0.028616616143475767,-0.03892436205674534,0.12038711138247493,0.5264631097898322,0.1594917647463902,-1.0133265578006219,0.3534923318548708,0.32471139297825413,-1.011668098135823,-0.09704050998888984,-0.11477438248876388,-0.7819466802028178,-1.421050231667889,0.41906462204309375,-0.32638260166760097,0.33382153082887095,0.26233349295019154,0.4671708568366589
0.07860287903623529
0.41157244151137684,-0.6322618998709385,0.04837751117995708,-0.2850591536678733,0.020762566178751506,0.11111694028033905,0.3254571227595188,-0.38023050926838503,0.8092012771644431,0.5397198131249418,0.036789594282141166,-1.118091951266352,-1.1268260185456203,-0.2014040347529639,-0.34391499367710904,0.008647102599506852,-0.23101206185671966,-0.09192727179524077,0.7093358488044934,0.5898294051287508,-0.7513932073254631,0.44418861705745566,-0.1417499266569737,-0.8234222035478397,0.4487257481991428,0.24965771768822115,-0.7154939118614098,-0.8019633134334182,-0.23463021931694308,0.0816452399444602,0.12363118773772654,0.31413330065636574,0.07423764541199301,0.40466185424065537,1.0358196405216722,0.3338934587812963,0.5467977745628069,0.5468263402772029,0.5798180468171517,-0.209249172370967,-0.1439540367998474,0.4852319793071121,-0.8511303970425427,-0.9811930489281635,-0.26780553540491087,0.07836623054943716,0.42214000540725816,-0.22808538304398238,0.4855836152153936,-0.48478517826029693,0.09614404071912751,-0.3314075489565803,0.39375563769286437,0.024830825417129554,0.203210952823623,-1.5212454235989654,-0.40323351917356176,0.5273711987849329,0.27189296450433925,0.10745629441805364,-0.8043153772203598,-0.15496765667478732,0.09390736466217511,-1.090412601461685,-0.024346417348280237,-0.12418535193435003,-1.4696702394755992,0.23594713682267915,-0.0722167394564363,0.176455521454845,-1.414513939832018,-0.5708646352910222,-0.7671069434734267,-0.0029807277530932244,0.18301980579813001,-0.020680592952736436,0.030689947357891816,-0.16558803322883098,-0.43744219578205495,-0.8992515585298654,-0.25810859089494015,-1.1101972815100891,-0.14064022045813,-0.04276043178927207,0.1570556277872214,-0.1764989527303753,-0.4012302037174318,-1.0610471062226512,0.3678616540943155,-0.8995145509951447,0.057749821868130366,-0.19179377134144163,0.017354289301041142,0.4709793906698342,0.3208214293878953,0.14221143015951038,-1.0585265593395785,-1.3561949282373942,0.3920712645880825,-0.02127192662442227
-0.3061005000102267
0.14662671231480226,-0.691988484543922,-1.2504489646593315,1.1806888459548963,-0.4736998486591038,-1.1197572032961043,0.03431572509745478,0.3985362834349137,-1.0193819633516028,1.282176950574088,-0.23711890165954194,-0.04374510651813472,-0.977826659255471,-0.09321561219081619,0.05227051284383315,-0.06838561241644749,0.16726389637948424,0.11254943088703973,-0.4527393202783868,-1.0634470536938554,-0.8500048075775685,0.7881584529910998,-0.05096287326157229,-0.5917509632483126,-1.742186206477568,0.5655409058866112,-0.19917053399806905,-0.5512089329745042,-0.3306906708714067,-0.06924867035004897,-0.23585118142027306,-1.5765963646257075,0.18437629995038807,0.42119543380692515,-0.9342411564427738,-0.0783169638614174,0.4241825902491196,0.16033283840119208,0.6684147954890671,-0.152006454066632,-0.5284267960110207,-1.276327062007039,0.07881573504476803,1.3940750386660807,0.583333058789171,0.5088314426953624,1.087559760596612,0.3698999015485422,-1.053298035096558,0.12209999732158774,-1.0965375954821373,0.9124935470523203,-1.2408085350075178,-0.3060842333093761,-0.039076670734933885,-1.0301714094130103,0.1042401155807418,-0.6907215772353158,0.31701836644502507,-0.1725370861591213,0.663558322280418,-0.008437398112240757,0.5672522915598349,0.07845770768505574,-0.10291499770894506,0.029271350620604878,-0.72905436868739,-0.9309072638131862,-0.21280992318014808,-0.05385665744273053,-1.093024518125585,-0.6159092595567152,0.42776401465332897,0.6198270210463032,-0.930978092185179,-0.07104539982438428,0.10537974056087697,-1.2823746085240026,-0.007373440290869607,-1.2533668273962577,-0.19780270010089412,0.6512147170116858,-2.1809737797556026,-0.138855639803301,0.5678672495730525,-0.7582906342615127,-0.9639531046152641,-0.8928617743426978,0.4779293601792762,0.17895050837727355,-0.09829555126868084,-0.23988686384857877,0.41189666784002826,0.051359815756070924,-0.035005610560381505,1.1351059088722018,-0.28242027208601694,0.193920558183974,0.29135724408767016,-0.8939775772122104
-0.3095525506985594
-0.9585459795933896,0.8612248715560867,-0.5679770788173228,-0.1720014364983858,-0.20316345034559932,-1.5733158750599583,-0.545198434954322,-0.755122071360571,-1.1601615939241232,-0.5468930918728228,-0.09877553063372287,0.8576662174120447,0.09470984561330856,-0.3144646073187431,-0.18111865446179554,-0.2102373117239328,0.226289614894364,-1.0944529326497436,-1.387739210332471,0.32433318878231016,-0.030003395843241285,-0.3719441414792116,-0.12743702265745277,0.2084090841650094,-1.2812485928066113,0.23461347911145705,-0.11079254601087822,-0.16284491094875528,-0.17612307659634757,-0.03788236006907929,-0.09777056519491827,-0.045807632558367624,0.5046295880744691,0.29959212977632804,-1.2097774928187717,-0.09469156217072862,-1.2081927271600437,-0.5762322047790447,-0.2550278529305549,-0.17502010051795366,-0.0742673683556137,-0.932252090286018,-0.06070335554627869,1.934077829802497,0.9151648252284816,0.47259091209650306,-1.0909629707570792,-0.12331388169335938,0.15647863936250336,-0.997694540976916,-1.125298833497933,-0.08961862167321755,0.17307999529873277,-0.5835566385654443,-0.22772070916405251,-0.43970467930154683,0.1890966176591486,0.5659616239984158,0.7036716444754932,-0.3483057648504933,0.7004652656747378,-0.07050959639106587,0.2327723910400197,0.33188033145055834,-0.2984045276602882,-0.06609449410730693,0.1757390001105343,0.6286625044552507,-0.27917631714419383,-1.154606329102733,0.3435800905304151,-0.3328484136631408,0.34593365170576584,-0.6607829268535488,-0.06381107923015862,-0.16495086771569503,-0.5786826694860325,-0.36698987224299023,0.4024894479015464,0.49166155432455916,0.14931081994803097,0.5712290351710677,-1.993403069616616,-0.21234381749745684,0.32064421462262604,0.551345431110353,0.24466157824787146,-0.1781022782771123,-0.48172425736436547,0.1357191949187957,0.20978908343320485,-0.24125716139648612,0.13968602610293224,-0.030512320003471583,-0.16171143835762464,1.0568083526449774,0.045714263053382116,0.2835668139392957,-1.3570995164037452,0.16360974993336158
-0.3209105083938914
0.13814167016127,-0.5893335488665034,0.4271456662709282,-1.2282112003894958,0.0950080274115635,-0.42295644885123435,0.2124630005246829,0.16468474968535093,0.9096777003049674,-0.3220318128333452,0.14979250430859878,0.006075282377033584,0.7673071690390594,-0.015356410842894812,-0.4357800351242364,0.13946822525185715,-1.4877271958478062,-0.03113774260477687,1.0459304078236755,-0.8230315595143133,-0.9475432844403696,0.10979712322448922,-0.24461998662086773,0.7682771808817863,-0.5861754874100559,-1.3651669254779892,-0.3847804776390805,0.3076801479864445,0.2735427790073718,-0.4125232892403795,0.07413032570959376,-0.620239242799493,-0.703054690756647,0.7176913462455972,-0.44805906160713577,0.18866946189265613,0.24606698745600333,0.28699453322036317,0.9651721430414075,-0.0359980982215802,0.06419209724681424,1.242281732925842,-0.41131906533171697,0.07098688971937747,0.10840993153905605,-1.779658805844401,0.6377589338473015,-0.9939025875644599,-0.4378271667641065,0.035844692615192186,-0.13321276460048317,-1.5928884928873013,-1.3946973271341756,0.02289103432096339,-0.06035266762015139,-1.2016314461151718,0.14840824891235285,-1.212279574780939,-0.5878229543658586,-0.18159858683639654,-0.6327495458307377,0.148120829369357,1.075089281655869,-0.17845767852649475,-0.07287530496657105,-0.24591576128408377,0.09333553973181588,0.5083397186564733,-0.24419170512674077,0.18662007966587563,-0.16934818269898322,0.08895336816441493,-0.9972184091287529,0.25140854995037576,-0.9434228817112565,-0.09228520864901003,-0.23339666977301282,-0.17755107285547897,-0.12429464665291508,-0.5466147734837203,0.3188885152372674,0.146059588695913,0.7906681905839408,-0.020846604438310067,-1.5747890942309375,-0.33138647936767274,0.3085759024716115,-0.031199763337815607,0.361881292932482,0.5326300396790061,0.31926842140128303,-0.26894987956598376,-0.955809109331463,0.6119551833212002,0.36983190177953035,-1.4115007608856753,0.10185695924210068,0.1334226077885563,0.13163308189957465,0.42150951383724944
-0.2541099655767616
-1.0236235545357484,0.05390514691884008,0.4087012923232466,-1.420988144824238,-0.22142061662835097,0.025636639740751227,-0.9615473703144027,-1.3602674353956203,0.693385192351192,-1.1534942377657778,-0.21589258338709252,0.6353080959351172,0.3626041724346251,-0.337230375977599,-1.1489025654247187,-0.29194256033911503,0.08540460839219835,-0.873470828218267,0.1559717748998269,-1.3835703119901892,-0.5373893082817467,-0.39667344370663915,-0.19022534934491295,1.2778968992735191,0.6667702434318833,0.10849004178966742,-0.24485182780743217,0.20801714840304578,-0.366254064902103,-0.13988731225716858,-0.21265807844643012,-0.07890585787101144,-0.13825634957655944,0.8077876017647821,1.363031554499904,-0.14128239943060208,1.7090416079232356,-0.020051076029548785,-0.06410610073286967,-0.2715858891972087,0.8633580472026708,1.650265947870293,-0.14698489811415572,-0.552128418161197,0.07954711512156164,-1.6173837434988352,-0.9330143799504055,-0.46955927223612587,-0.13979550523120057,-1.7556258786070518,-1.1205877701058138,-0.3683424570105867,-0.022772863994150856,-0.6959371336010104,-0.18017125975422021,-1.1181507244352684,1.0270013383233294,0.028807230773207106,-1.6341173517622198,0.3062688354093769,0.07951191930563584,-0.15032651383885864,0.08662410320570935,-0.34532792700851167,-0.32635452726837794,-0.22989235110598627,-0.17040647814501259,0.7190815702076044,-0.3944746899761945,0.3791840161342874,0.18719811905353953,-0.4447616871071212,0.10022172762134324,-0.42689493646321397,0.14578131301453556,-0.31127398344398916,0.6722864649681972,-0.3175279416254454,-0.07734246302273472,0.443382497844287,-0.047839867618301925,1.8626273713334072,0.8178972576699369,-0.43043169074653265,-0.38776653292030383,0.0684929000299436,-0.3697643721763067,0.6215232939618455,-0.66546137656045,-1.308448659105228,0.824325845752488,-0.4211354731566102,0.7558643140776128,0.4337058234483914,0.04130207334003551,0.5322808618228447,1.3268872166646177,-2.5621026110168867,-0.6059809452918917,-0.6555129112325347
-0.41600053375266327
0.7294136743520129,-1.208907108843301,-0.5935348855662287,0.2759649173917872,-0.06261134546540878,-0.014674337755680823,0.23403970566959267,-1.222638539688507,0.6402848225417485,0.40616294674690623,-0.18073590036541426,-1.369104185146225,-2.047795794068557,-0.21243199934896528,-0.061326434506475985,-0.21730606785450327,0.12003486185441066,0.22947776864983976,0.33034131123226823,0.14186440049636156,0.813014153936824,0.7781916686146847,-0.1740908847751594,-1.5611701758369432,0.5201038947537165,0.42078730085604676,-0.18481116160606081,-0.14820048828252433,-0.08526061779265644,-0.12196316100551353,-0.2706048500840358,0.07388218858813676,-0.1505315710909363,-1.238388388393787,0.020902804363036587,-0.02960969009942577,0.5921029485142913,-1.3533038937330948,-0.6850963446113226,-0.15887356773261999,-0.9277509468829584,-0.5995814782735034,0.057798449568485094,-0.9609232430449994,-0.9735139816311495,-0.27783686406679886,-0.06457014591719704,-0.12599711153351192,0.6497336829279919,0.7275547814643434,-0.9504204929501402,-0.1693808969473759,0.46950679426727504,-0.04242285826323275,-0.1674540296369143,-0.20752107445231252,-1.0118261468447325,-0.7694629704069281,-1.2009058730963194,-0.043836196817136804,-0.020698122583642606,-0.08700097277502086,-0.5445951475718113,-0.1839075940269362,-0.12056733963766643,-0.11104803278023684,-1.3491788195244647,-0.5325679974920791,-0.22207759325760137,0.4076497471034502,-0.37373409983142,0.3155947062937681,0.21176115974690624,0.4531692144439769,0.03652344076551216,-0.17647844708071253,0.3339273324595937,-0.22333118567975888,-0.1648978607918494,0.43552249368199636,0.013141759620042803,0.4580145516275616,-0.07972510690666242,-0.11505320743061721,0.8588956321647766,-0.1988496996167488,0.6308159857604413,0.2639077267864344,0.08124724935431762,-1.2125848674356068,0.17091743551534208,-0.29450004726788376,0.11892743752385528,-0.13524351976231025,-0.09247365482210895,0.08905668652521312,0.08587376603777183,0.11538322711454714,0.6207288203876968,-0.9682770980554397
-0.34071399325763624
0.7874424331913135,-0.10949391544898007,-0.9500436149248478,1.0714760854528436,-0.22295770079596783,-0.17214241784267245,0.5471834870987995,0.2193274721541571,0.5473514531882782,-0.2574413282849106,-0.01865374556599597,0.8965606232051708,-0.344821646026177,-0.436206853997583,0.12871500164955682,-0.14296580347635113,-1.0199210505696221,-0.10440710343571635,0.11693643314531885,-1.1477613395427009,-1.2281012498688417,0.8396012917200805,-0.182790329075625,-0.9060960960988189,-0.13166211486303545,-0.4728367605968023,-0.15556025325119305,-0.05742627742798954,-1.8351494120916545,-0.13277872395979004,-0.12277524067239702,-0.10598159053798603,0.3851886524855491,-0.6562394073381561,0.5453432344736934,-0.06367196754352906,-0.5632609164761039,-0.5297683404692832,-0.4704512696789091,-0.18535857456817548,1.8635508568232553,0.37593999203164813,0.0052328204964859305,0.6062237327512864,0.5856844686738317,-1.0421401052896029,-1.3515790658769586,-0.17832827859434333,1.4707388041660578,0.17612975489957303,-0.34980190030842984,-0.5414856636438355,-1.7417900609469341,-0.23775583775990447,-0.2174084794658786,0.007767006120183847,-0.44605931492776807,0.3808238602746869,0.9757530023427733,0.47227516345324344,0.19372825194508353,-0.15516574024752366,-0.2867779278357703,0.12718733639369187,-0.16293180802239718,-0.214751557052727,-0.2928167750272911,0.871300053718859,-0.2408228274980052,-1.6043079738591055,0.04557709374079694,0.7226374955903548,-0.7478901041443854,0.26068908597730794,-1.095787041244113,-0.1886754385841805,-1.088279666618249,-0.1945824361990729,-0.005213734274776584,0.08299903839062117,-0.07708642788646115,-1.3748224994785698,-0.7059021309792051,-0.21926438635455678,-1.532352536892353,-1.6758807104855706,-0.30027123793699456,0.03916191925128246,0.18213589947946357,-0.2872220935595315,1.0971610599634576,-0.25481547064301113,0.46750872252186804,-0.10972705948880855,-0.09296564383349072,0.37026862995404786,0.966872444165325,-0.04489239989238193,-0.7283647205698977,-0.186069953576909
-0.2320565555658866
0.22091556062654527,-1.4454775032591716,0.047722513131391975,-0.7740465032314281,-0.05382423158150519,0.22557800970086353,0.013618658825847786,-0.12587045225371446,-1.0058657266693354,-1.266837864897978,-0.04208935516993924,-0.23643203116939157,-0.9860130119013815,-0.06998235911288628,-0.4077328838710988,-0.019430030461754056,0.5091690216319528,0.4056062747609966,-1.285918690033839,0.5742336443306533,-1.557880535511839,-1.4428244153756726,-0.1601009594846325,0.27531745063456026,-1.0769033173839613,0.7254977143496103,-0.265148122355948,0.1610567834408365,-0.053766519075474944,-0.20367900847247236,-0.08307552280692938,-0.3876353100105519,-0.29471769544590204,0.48310935258070226,-0.8492020462249795,0.06825085361232465,0.1853297180228423,0.36248590642416595,0.5218458894951492,-0.15408306694275062,-0.2219268088812838,-0.9741638748090009,0.27078631010582094,0.31323779232031246,-1.7683197758595057,0.04368971439590506,1.1460000258394898,0.06459941148218287,0.21223639923338475,-0.07971316738407526,0.5164038610198658,-0.04080215527323202,0.9469230722676545,0.015087313620423412,-0.16945822875135222,-0.5300490135808925,0.393752226846351,0.7091266228210673,0.19535962858323164,0.7792735135077584,-1.0106126320945856,-0.13312972404551313,-1.061684782653623,0.47234976601617457,-0.1292235235510338,-0.1968735567301433,0.08903997080087044,-1.6474437600239262,-0.11799866495434207,-0.17809832708022164,-1.3743502798639922,0.35580169657141497,-0.24880228417892197,-0.11340913181868167,0.3850990460297064,-0.14609426280828552,0.20481192698612338,0.07707948153270874,0.13025178331271667,-1.1054406276879547,0.06739253287966315,-1.3088473872037083,-0.174267929564418,-0.12747969190158592,0.13846619148318678,-1.0976751088532457,-1.017623707759577,0.0472285578203576,0.12058357460485507,-0.4691524602858137,0.499925301350006,-0.24781917768241818,0.14102473176198496,-0.5659649685850212,0.08112628359663487,-0.9828399177215079,0.21112900906879326,0.45489163370663016,0.26537254072047095,-0.8850723590916566
-0.3915076816082381
0.1277167189580714,0.9015393664606107,-1.1454345622824151,-0.6869022098532813,-0.045883688977662075,0.3489404550746721,0.08734314919129534,-0.025499700305107793,0.22274288069852108,-0.9742060828173189,-0.02642133092663105,0.25632870490239845,0.9756471832407311,-0.2816231266267827,-0.8591765936980319,0.10061042119817479,-1.2160062061302443,0.18811125535413395,-0.6717686867031964,-0.1892304721977186,0.45307438197854155,-0.8051073621028672,-0.10398131076212001,0.8576009478537556,-0.4970547175946475,-1.375594730102743,-0.18268480937020945,0.71006474755245,0.17196310657144195,-0.14529898236285382,0.18514971176167616,0.4100307263459407,-1.238975018601452,-1.1906595470083121,-0.6897527673634563,0.32021283538248296,-0.21127603202752707,0.9552914652991528,-0.837909266702647,-0.10588735627709012,-0.09283897128842175,0.2816027231774763,0.17351785604965675,0.19876322689410963,-0.6198186659236126,-0.7801404477331817,0.749277730568919,-0.12877955264054275,-0.37829528289631115,-1.4324676221230546,0.6830153870213322,-0.02398946962185268,0.05642471995942479,-0.1718646131421151,-0.16009301579995053,0.9756209092068666,-0.680394494624143,-0.004280226142303911,0.15578181901087237,-0.03570557862610493,-0.7820605313666328,0.12748448891389186,-1.133869852034061,-0.31353629634930585,-0.11363513273246147,-0.06269028897871379,0.8184878159117994,0.5518847089494934,-0.13139861345772125,-1.011609793212713,-0.16404114002131243,0.07690516714670324,0.10008451808572373,-0.4811359518270205,0.6337280443172832,-0.030152537757092972,-1.4277709438208923,-0.0837593805694402,-1.5002187037315045,0.5939217258985305,0.9483494735975412,-0.8817573508456732,-0.02754341099448032,-0.21521842998666613,0.1875204955314954,0.1611833768850662,-0.9611581234282203,0.4886995129760306,-1.1871151676604854,-0.3142315840873547,-1.040913473856441,-0.29110112471185495,-0.021654933239952757,0.38990081283044536,0.4266955471916155,-1.0376160542375583,0.13118227018151174,-0.03284592976321506,-0.38593449029888655,-0.09548929212263711
-0.5075169940096275
-1.003823702208162,-0.07525940559255666,0.11744582210371288,0.18570670936466835,-1.1525748056839658,0.1213248784155953,0.3398892817996512,-0.5616810337972297,0.14695851643141647,-0.2658063307712782,0.12215846330725554,-0.5689327091741613,0.26224809875188587,0.019361140563332248,-0.21001428901731936,0.03560825203442902,0.4129777842088558,0.0017399993880793975,-0.21551862238922861,-0.7380406100083583,0.5433284191328235,-0.3244735642025269,-0.6456742474672518,-0.05783461059943237,0.5263662479594307,0.06467878752206427,-0.5025511871838526,0.19465187615521107,0.25408175286655577,-0.8312822482820454,-0.6697810029139454,-0.48395377506737525,0.1409589007972952,0.26870893568681864,0.6416160364440133,-1.0449282187461275,0.15549831750485532,-0.04280114183131531,1.2955834538097146,-0.3186111035611628,-0.28351439112491383,0.02370647383983417,-1.304773665425833,-0.2918296819577136,-0.4624888201214717,0.3137097236091836,0.32427253882985174,-0.1454973417019017,-0.5100003777452774,0.03260850254813247,0.49971191003675064,0.030820643994463656,-0.09692035522564772,0.048436678405501,-0.8190505334964356,0.9571758329441794,0.06607879467103114,-0.7689449502338076,-0.7101333809460305,-0.06970189834255187,-0.07606181151359769,-0.6259671926781916,0.9741226838252344,-0.4131796924540706,-0.48715151137558593,-0.20307515841844834,0.41113234038693697,-0.7357666814999114,-0.11411066260072081,0.38564905437422536,0.5263582302643007,-0.4405122328043674,-0.20935699298309374,0.021139337135606978,0.30840855012166696,-0.49638298056814906,0.3366160821649046,-0.15736843495010885,0.0019145606201150793,-0.19573257206549963,0.011966786925608265,-0.13981537237033217,-0.02876395517986617,-0.24599748116266185,0.14891380739680773,0.4988628733426859,-0.07735408022179494,-0.5365757520094618,0.7572012775960821,0.4765624517304914,0.5289257457904416,-0.14347153295708634,-0.8456395792669095,-0.817716101060102,-0.4290177636931492,0.15101646536245752,-0.6214618612381301,0.4102815343716306,-0.1822548659955239,0.5694614329350823
0.11229006987171852
-1.044553838012835,-0.2578201808860391,0.6061609434097311,-0.16165031173559335,-0.19037072200875946,0.06951314047107235,-1.20927853046148,-0.008581526553870343,0.2809350620186437,0.254272147855105,-0.11818506327429784,0.022427248118674113,-0.9598106110429536,-0.35103451889907394,0.08227935689940985,-0.13115139690228916,0.5938431154643106,0.1244287245020761,0.1229011887186067,0.3735691661233925,0.11907275706200227,-0.6019616719581717,-0.06532868048472142,-0.44631299891320225,0.2766922126864441,-0.2114421330369707,-0.15691641678252927,-0.009948878613015463,-0.020506577077884322,-0.03820227028685925,-0.13805570259066285,-0.009131770816834693,0.26220281720299404,0.7281168613741801,0.8349759048628117,-0.06279170050981285,-1.3764185614967026,-1.3650852724170408,-0.6047724902329916,-0.08770466409688359,0.7395217941119806,0.6444631725211334,-0.7107974792753092,-0.9925823499384798,-1.0130145839986617,0.011015344251116211,-1.1445524958477602,-0.07319790899825714,0.4226137182596136,0.8660758237101923,0.1737549716850639,-0.07426001756696972,0.12599029673953246,-0.014199864778737095,-0.04807208170027568,0.18337003240342584,0.11067104379945361,0.6498160865172634,-0.5815751343948413,-0.11444595959497902,0.4308916065421506,-0.1467542382899468,-0.1271226003174015,-1.3429339642735307,-0.17572883568503173,-0.10008075125014902,-1.7080194597844927,-0.09500002063450953,-0.08422795367795814,0.40016885349219344,0.3353922314464497,-0.4792549918602532,-0.8528753387184604,-0.6446267569447047,1.0025002024479046,-0.14737749215148585,-1.9203111566256488,-0.07005915910279537,0.010844215826088492,0.457584471496279,-0.18187824073993272,-1.1732438830246985,0.4300329235392732,-0.1832854834626375,-0.07635507180704652,0.6536766910238202,0.12506568574909252,0.2950173562389794,-0.07694035684134877,0.09930403297607543,-1.2186936525874514,-0.09278195282315595,0.4175233199539297,0.034704262506698266,-0.07482837361601392,0.13654094975571446,-1.9246440686221054,-1.898455037042869,-0.9657054408565414,0.5519802614558046
-0.2188195895291957
0.6101220825693275,-0.0678815870916641,-1.1458399565240762,-1.0451589717571532,-0.06980142608626574,0.05337470676429786,-1.6619724335884707,0.32890614761802384,0.35845225647374945,0.35954634478258984,-0.08261821082490402,0.31752817961214475,-1.9271843239432374,-0.46281652376159654,0.5249374354511908,0.10262211889056774,-0.5673909173310108,0.16619150084825554,0.37692446338708996,0.4023198171084734,0.44702503268010035,-1.2152082433392304,-0.09734216255748826,-1.1569894781288228,-0.37225298814886965,-0.9817040012091095,-0.13730780962509825,-0.41647537964659676,-0.2468048289487654,-0.15262777868289223,0.0648205545358039,0.12377311668512851,-0.8318203038151707,-1.4877812509629127,-1.0240516708127732,0.12431942834748212,-0.5099577079478297,-1.4620405631433693,-0.5297788542078857,-0.18860519911485252,0.02040969385733256,-0.9922449946451007,0.3316069189534555,-0.33640019378805625,-0.510857413397307,0.498824488910604,0.2403928427763866,-0.12608485807442713,0.2379438402293403,0.654094345555527,-0.1603567025656448,-0.15770612669386028,0.7776328152649359,0.04830236479937599,-0.03920602587245466,0.19557989407770168,0.37785868965164016,0.38736073135981847,0.4283856837263212,0.13868820685782737,0.5855063499255324,-0.019737950960903985,-0.7506474509470019,0.5166406116566943,-0.10580501542995115,-0.15797745795592552,-1.2066374891307299,-1.103029394626424,-0.14581940689734565,-1.0834356931023488,-0.010318100179254639,0.2355187337527607,-0.07296380541139341,0.6396069184456571,-1.2236295450355892,-0.03526860034583119,-0.9670575110154715,-0.17466748369010937,0.26968306292941036,0.16861062188760326,-1.0879596989770657,-1.174286957214206,0.30817189404212986,-0.1281749428821111,0.9157226519638225,0.8088304693010206,0.08317036001343894,0.23430039561314353,-0.3711040284317765,-0.01615582578287504,-1.1377364400011987,-0.1757810933593182,0.1865380685338904,0.06741475290900757,-0.0015707817146057342,0.06219527626664557,-0.158080898899297,0.3357226939170413,0.09076957622735524,-1.4692410057357064
-0.3019130527438153
-1.782906602424401,-0.36484562889547567,0.8641403500621763,0.17823031810873807,-0.16423112977580634,-0.09737442599003648,-1.1707743299019584,0.9901833686154432,-0.31734849984765645,-0.31682908031113177,-0.060976325576189774,0.39687797705422645,0.4778074556085276,-0.18811480684645698,0.08941107915614105,-0.03645265372739322,0.26563494042854574,-0.12723310069836663,0.12195131310186243,-1.0426406890079687,0.26178685494289533,-1.4888037606461964,0.036154701402860825,-0.8139702099069763,0.2242579529285719,0.17636403605470424,-0.007845847415857926,-0.013367240800770732,-0.08393479434153256,-0.2330520373742293,-0.044718583742623864,-0.05784827047426532,-0.0741620485022132,-0.41798832949348397,-0.1814129777685741,0.01972030273591329,-0.9148049083201435,-1.0288274416265693,-0.38998187232530074,-0.08038305726150237,0.6736395615633455,-0.660641423031999,0.0924220150325178,0.3809400579180254,-0.3338214061359369,-0.11253180768505822,-1.2183623531233523,-0.017531953128224,-1.3802827829778779,0.9672928523003644,-0.6823715028462126,0.029823207636619782,-1.3197847877817594,0.06776074103557986,-0.10801624356091329,0.15147238982992034,1.015381427426522,-0.20922675465505194,-0.502671994035237,-1.1313455807819364,0.04326807558569376,0.03296613374510033,-0.298488968650735,0.34702428375902905,-0.09477281454385227,-0.003611371877759021,0.40892006161474465,-0.9065006478476202,-0.1359168068473798,0.9298321046515174,0.2221684744794702,-0.023045585031359724,-0.6014881290952142,-1.1492887591081338,-1.1224780630321127,-0.09487073840260235,-0.7005276548942814,-0.1184662934825513,0.0940267497033875,0.04167653965617681,-0.02149017153504767,0.2707896337695021,0.6019230459658033,-0.2828683722645329,-1.2295291129848067,0.0016985546987166357,0.2723294596849274,0.027587802848737825,0.1236957421668307,0.7313673896507753,0.24628263237986583,-0.045271075444765614,-0.4050643060024623,-0.28098050372690536,-0.009050159390045057,0.02715750377648292,0.4231496301185735,0.017367077939458617,-0.8469032524341955,0.026723273175702545
-0.17566751399328526
