-0.30632941606519254,0.28351093314491704,-0.9756936795691155,-1.3736826691865887,0.06815448729378315,-0.4688525293638152,-1.6275925215839981,-1.2542418530931174,-0.46111526116016954,-0.7438944387818316,1.4154982315360762E-4,0.2309746543581324,-0.016667103049374195,0.40143439614137744,0.3378311730046075,-0.3689847403063978,-1.9668420771915516,-1.6639422488872506,-1.3928785093405056,-0.9585708232124216,0.20930870540336807,0.20405222837456152,0.4863565019590028,-0.44154137035374985,-0.28704462100169753,0.5710045195074869,0.3020676950370869,0.6482317803206106,0.29164972791417204,0.19001506861825898,-0.5037860026336868,-2.3519717652176495,0.2701531778273196,0.3194273501361302,-0.33024156339142713,0.31216538817454836,0.19958000238181453,0.824961102578276,-0.9338011279145141,-0.7367272257475858,-1.0768651151037838,1.186471743478795,-0.9362882460026792,0.20162344121506026,0.21079939577771878,-0.20087141535508685,-0.5517005847233147,0.5231843468421076,0.2712953172033808,-0.07534843135250976,0.2222306069944803,-0.23433035984548048,0.33874409244193354,1.250360354080117,-1.1198311729585946,0.3972965267937185,-0.8771174681438295,-0.8704172731315296,-0.7945281877013151,0.332854024937725
-0.5517405546306073
-1.4318724887661056,-0.052501748161793774,-1.481057510051435,0.7929227098973267,-0.2722417926066164,-0.3362890174515104,-0.5385441460643892,0.4339804077989145,-0.7560704835325209,0.8404531164647857,-0.39565253301980613,0.37036670448787584,0.0181305193902552,-0.19219423113453027,-0.9127097026347352,-0.5755314006118064,0.25588428736909036,1.2995295590275113,-0.38226164793455125,0.14001152435105468,0.21398950260850058,0.8530537965140925,0.37144275940465304,0.615315269369534,-1.9884087850697414,-0.7301891333028067,1.4439546548284976,-1.6185619247323568,0.6982375836220195,-0.2445680836912271,1.056473979167759,-0.16130049908409688,-1.0628896217063935,0.7389967476273747,-1.4559459017200727,0.5419874847645153,-2.5559705591009925,0.31054825562118904,-0.942779455676197,-0.8108041012215126,-1.119690883000045,0.4104307536738803,-0.37068122777702467,-1.6048143742657868,0.6227079357114413,-1.430468099878702,0.19564784804949592,-0.45724920742012365,0.1872242891199612,0.7165188278255586,-2.1874941244538064,-1.8055762235930615,-0.010807323780551287,-1.1976186912399291,0.1411037845842517,-0.10426297236546164,-0.835631284022528,-0.552022419414273,-0.500602681527646,0.6376261783427095
-0.5591977639314327
1.0567399075864057,0.3159751993608681,0.48057797009696934,-0.8250067748257598,0.22851565381124714,0.2141296027100815,-0.488482437292887,-0.8114993277998185,-0.7191357408729728,0.2187890427738978,-0.42920530435422516,-0.008534680606049712,-1.1100139843418675,-0.31490526696636023,-1.3377684719317653,-1.2283782850953577,0.30560278959732523,0.5077595671098418,0.35723753726123375,-1.3273206335839252,-1.3143340432624855,0.3809122528883514,0.28009247465318954,0.03446277634129875,0.5580966919657709,-0.4658184881813757,0.3380806675353593,0.6825393288158604,-1.6165868815960898,0.4449855223779324,-0.0205298551031821,-0.9418854151060434,0.14267558666263222,-0.14341455683861412,0.20849257123367484,0.32926493554585956,0.30231598996935766,-1.425376219932337,-0.4370405890961559,1.021109809301419,0.5377415424241134,-1.577934425033036,-1.1390853089275008,-0.7089520183893537,-1.162211739128911,0.9667497068464899,0.18031948819085802,0.25655243542483175,0.05968621340653708,-1.3550210525540303,-0.8861916090904715,0.2545825023961228,-1.0181373720122602,-2.296315774020441,0.3770934608983663,-0.9468727603813922,-0.08486975668861464,0.23059640978055337,-1.5091425634744233,-0.9704834062185383
-0.5399031283173402
-1.5591903064683148,-0.03518061183429591,-0.21542047767746159,-2.0496302730637828,1.3653729876610698,0.18651791709100218,-0.7786788356466571,-0.11467460993578549,-0.003562132904932912,-0.24645450461946114,-0.011803169722658968,-1.8207694054678163,0.12298302433720608,-0.11611635871704992,0.5173631771033789,-0.23017249967172201,-0.10558837995571076,0.47847724574852396,-0.3828186719922324,0.5406439085802657,-0.6285905473349253,-0.10053217753792672,0.534064307355524,-0.9194697882270496,-0.7840423616285578,1.3706208991292768,0.19689479495078316,-1.1755464291586788,-1.4982140105673571,-1.3071911900438768,0.3660798419906726,-0.6626272288046886,-1.2516965994291827,-0.047425651186065135,-0.2247149823474519,1.0135233045165255,0.7556132949012783,0.2005585976362544,-0.78661539013099,0.6054954549468259,0.6618207338276186,-1.465517175707459,-1.6373652451531981,-1.4708672206874427,0.9374446164030056,-1.0358787022719709,-0.4202509863517334,0.5170862046844379,-0.4670859481059383,-1.1524604380902814,-1.1997114765964214,-0.7675383066785497,0.8068558751594482,0.8574242042889193,-0.6430214850703599,0.9605685754672321,0.6800443268125068,-2.1413486388932004,0.40681022635790554,-0.9283866090461663
-0.5584267941690594
-0.9830098320495652,-0.08505114317915285,0.01888929378051407,1.423664005726139,-0.20288140877527122,0.6177822231289101,-0.0052465034378227655,-1.0100597712166848,-1.1219063253930672,0.9598399546401317,-0.5026438305791302,-0.21628837321134026,-1.949910199256179,-0.48148377507012385,-1.620439613915665,-0.7402813072446298,-0.2882409895455315,2.1423207166146434,0.0354078589584917,0.12161530708347881,0.7236378299063821,-1.1359458784895629,-0.1393133623779737,1.24536290282223,0.14493705535318394,-0.1215072736674375,-1.8262177287077626,1.413139871044972,0.8884974367177999,-0.007348618083915621,-0.6359816149005986,0.7802548251274565,0.3851181446206168,0.213678372441885,-0.6884819977599864,-0.3642240692142445,-1.1244334063766672,0.09634475761150071,-1.1243156134375838,-1.7488239189797286,0.39290414506464755,-0.9091750683191719,-0.5872904823034638,0.009103630169051734,-2.470608059254407,0.3209909657167211,0.55318730126456,-0.4807432842337562,-0.36340366737369534,0.5536702129967392,-2.366085912389152,-1.7158755478871066,-0.6810366495984989,-0.9239552310290703,0.5135736730278229,-0.13447400475444107,-0.13321638026553992,-1.313181843165636,-1.8193275935569138,0.26833476745982277
-0.6311654704133981
-0.19077662885161042,0.6851341795167909,-0.8696998547367216,0.6196678813332943,-0.1966552317780298,-0.1284372937325686,0.4654416402961755,-2.244418910857892,-1.5221109248792248,-2.2857555060982766,-0.3019997978996961,-0.334385332376396,0.5431762864183685,-0.08031250688348174,0.2536132542084023,-0.9446439716225526,0.16909968805513728,-2.01409497025842,-0.14969952905618422,-0.6136889100733249,0.5796281049881858,-0.979478102186219,9.454118370422214E-4,0.20930614597758193,0.9529045521515662,0.3538885823833999,-2.06985794095753,-0.5246683475555408,0.006886649412364741,1.1774882787068763,0.37109414816907965,0.8927015841681205,0.07649941192477167,-2.649375616653416,0.5619039326233823,-0.39721416301473883,-0.4980767600622366,-1.8377387119102493,-0.8584944462678135,-1.1065585922990637,-0.28065280312763624,-0.18769533392848262,-1.4630657590555567,0.12367461070294233,-1.3286200424806431,1.2612434956166807,-0.6950706279950869,-0.051875142245718826,0.8106031886994252,-0.22789352654973946,2.1292019127175505,-0.14894537079707695,-0.014349357086659869,-0.9863677754991123,-0.5202849111025618,-0.028336728728870934,0.7282844947584391,-1.4409914921041933,-2.290072401527353,-0.01205382146724909
-0.6046943062178095
-0.9782202451282308,0.44028788481548037,-1.4263772557316166,0.2910609272226745,-0.7090961889392579,0.08643365249087036,-0.4326115000400759,-0.13047707258347113,-0.7483171481624771,0.04062055137074681,-0.80315534813807,0.46945483639501245,-0.4595410974136637,-0.49448127317994844,-0.6348702822387328,-0.6412826025629086,0.40364111173164746,0.3612982715231444,0.24137405716707572,-1.4186413505110071,-0.3663119611890042,0.8801074236358853,0.5621696525827106,0.08549613769105345,0.05624202053028625,-0.8097508533594874,0.18848018086888904,0.5540373131716697,-1.7857118755343215,0.548831270184076,0.12027315140674336,-0.3034825683447281,-0.2943163060533716,0.31114092716539715,-0.045265495893043586,-1.3664227584770372,0.16449049704981816,0.21469120998611535,-0.6878775402005736,-1.1100640378805107,-2.601735158141412,0.9562114826644041,-0.9561367128346102,0.996452500143371,0.5640861902031493,0.9280678515931439,0.4637064771366175,-0.10001209628725141,-0.09046780227403298,-1.7756915066272714,-1.3951105033091844,-0.9724618123097182,-0.8699640585735596,1.8352080975205454,0.6054913778084726,0.7037331286712434,-0.22742501730734724,-0.9107146614860415,-2.04201029151698,-0.7899157127988533
-0.6680494388133976
-2.492244238393776,0.1163975749841416,-1.1319945930925683,0.4161256361644262,-1.1603189706722088,0.36111621889336465,0.6063627178377942,-0.6361704918602706,-1.1009759640340275,-1.4296836242217452,-0.37283151076069676,-0.5064657803929301,-0.2768198036236382,1.2446310564354603,-0.7864351001908166,-0.7979963999837641,0.28479742066136476,0.39432851892978665,-0.9266399886377983,0.017709086753319878,0.21450409664769113,-0.1098427010771122,-1.2802065754252496,-0.9931344731419154,-1.4005800647866444,0.2757463243540948,-0.13028708667245123,-0.5975161023202653,0.8419933697016454,-0.6065584639836124,-1.106993618902743,-0.0025705252798243856,-0.6439267267246629,-0.4552693992993289,0.505093487236795,-0.6966686080692417,0.6398543998465641,0.7634129481272895,-0.8101216265269019,-1.2361920557387542,-0.636695228427397,-0.21031575986833093,1.13494770618325,0.8658419359341384,-0.9149833047762398,-1.5883182080644758,-0.16630095031842745,0.5213012983512089,0.2489265110141904,-1.49495298833907,0.8139766482819528,-0.3089170194145081,0.11156307850785818,0.2018944243809663,0.6056258233417829,0.521169610698726,-1.2618020825967968,-1.3402462299350912,0.08334244907362674,0.8360896626681694
-0.43603812154231464
0.1942720091996683,-2.3030922180246933,0.25734992109488236,-1.303422460692181,-0.40915947912527006,-0.04246514318628866,-1.8343191321481036,-1.6927667424772326,0.7085203645757043,1.0942038997767993,-0.11894622559128012,-0.7275573537847857,-0.967537294994292,-0.08238847300103441,0.4468988459424579,0.7430958826878514,-0.8507294576818732,-0.4985238470212785,-0.647071241226504,-1.6720271670369025,1.385904257000336,-0.883126663930314,0.060792394645958536,0.469496295280639,0.10915578171936659,-2.382847963641409,0.3688877322730437,0.6819580366967143,-0.2867673004369959,0.10281357525449279,-1.0177389408841309,-2.1394208438880757,0.15535805417767076,-0.3048283452986071,1.0508687445041431,-0.7528688833855511,0.1298380376432462,-1.336901969330589,1.5144358620338336,0.09806572048346147,0.5278946589123554,2.147915098858093,-1.2521907311752896,-0.8424937074687222,1.3023376573261605,0.8313138506910573,0.02548206439205431,-0.7208172951150642,-1.985651067081968,0.4367400490541926,-1.5456796121240353,-0.16457175527875262,-1.1193504494548392,-0.44545265027618364,-2.075106746166976,-1.0309415878216721,-0.22372151892291586,0.33660768364548727,-0.09536720096807609,-0.4184540542977902
-0.3852888386654278
-0.4897316227539281,1.6385883486231494,0.0010222907822819234,-1.8097175602949107,0.4827856381156509,-1.1652111354765116,-1.8417152860579273,1.1386680202684962,1.4710884276681513,-0.16704132218955775,-0.20856388444604446,0.661595592294041,0.06089579756579533,0.13727081868754146,-0.14059763849708318,0.7500101354350656,-0.5393879480480024,-0.856587717959397,-1.207924243424633,-0.18637168130081255,0.14357644716596413,-0.7362345547131385,0.32577731142316024,0.016756926847394084,-0.9969347926567881,-0.6835632268240599,1.1443589472869915,0.4808762597977316,-0.2853663868662358,-0.33502100843931737,0.8445854341181906,0.8881759584029685,-0.3677648765324495,-0.1095532287943653,-1.2956098809412369,-0.21762837133029983,0.6019266315585186,-1.4248084588399559,-1.283303458260057,-1.8591870113455369,-0.7670918150964325,-1.2625826670422196,-0.7362873931751823,0.5038563817035526,-0.3452642928553797,-0.5400798801938844,-0.6668355973792637,0.5157332196913988,-0.21505219351259827,-0.09283817707964137,1.8130950323234458,-0.9282182169446395,-1.6455732153329632,-1.0481952373518975,-1.1708866078303335,-0.9197215818597472,0.4799662511927659,0.2074533884065548,-0.8044641614254744,-1.8361783209695675
-0.3870719668638616
0.8078838804522084,-1.011494175488121,-1.5997354394011907,0.26084316884151065,-0.15193529981233506,-0.3069723285690326,-0.17627775225949385,-0.43263166426530236,-2.000716869851931,0.21325133051352332,-0.4927104376196381,-1.0025260218308907,-1.6002200281144778,0.48847896394546797,-2.118822777424215,-2.1008288863599325,-1.355626194219296,-0.8927808279055706,0.5876965202237969,-0.8523468513115183,0.41390336216939694,0.27267446994965744,0.11059227029587844,0.7842485466811111,0.15835361546614807,-0.02428121017503061,0.9774209868237285,0.5834065289329992,-0.6434740599393384,0.4600485367925005,-1.754248006347671,-1.5087212173282807,-1.4954168435547046,-1.2314602508431045,0.2751417432385923,-0.08542962762986031,0.4543331041010353,0.7149487934638346,-0.7797400244133277,-0.6254717503338172,0.46454701158362843,-1.0057884658963965,0.895851856381845,-0.7202832021093369,-0.8109768149621217,0.007230446878437762,-1.0657074121283712,-0.307130181056373,0.1504015242369304,0.31951178578411393,0.31625205320694405,0.7902963475231942,-0.1263859727256608,-0.657384513230997,1.6033698320022343,-0.11220645353609324,0.28519819758645437,0.10195187467133862,0.7717782135501531,-0.09559994949087744
-0.5809160535297727
-1.2341432878552208,-0.9821912968254938,0.2848775613182513,-1.1395832581067729,0.2888955106944926,0.3936545724592167,-0.44654000124552157,-1.5658867143641806,0.09222865147489664,0.5544900332715307,-0.21503949060747135,-0.5469166266414274,-0.01719046337590812,-0.020907132369008742,-0.9438656660419418,-0.6172687162061172,0.10854232654264762,0.8862187391145825,-0.8741569663667925,0.39848458466936837,0.806816851192575,-0.6760473741056591,0.026518948053931252,-2.2146243584168155,0.634521355526159,-0.8537033248017898,0.9618946338209551,0.693494965923162,-0.005134826240164857,-0.13185012654681358,0.30179589729900763,-1.4526224774298835,-0.6601656492887774,-0.9604708620406534,-0.16518306448425357,-1.106165267986283,-1.303464358020781,-0.199169130543068,-0.8692111225113667,1.8325107718217784,-0.060945086268363376,0.7196455903622261,1.2189251525429363,0.08554927859025997,-1.551432580724364,-0.40528223311981315,-1.9514217884689882,0.24357454823774052,0.3273286932749037,0.765037790522847,-1.1637109291069834,0.27425322679370545,0.05569809066049596,-1.1634995422608387,-0.3450178235304956,0.21787532096852413,0.19255657494991435,-0.08195484180108271,-1.7725683977988338,0.7523268567105684
-0.7054635640902414
0.8169728152990062,-0.40054491437361633,-0.05882687067981345,0.3341107632941614,-1.7361597863026774,-2.1813743451131247,-0.27947028199798074,-0.34007538728570214,0.18683907170540268,-0.7569630447256793,-0.04009810831913719,0.6830345038938471,-0.3603841201312927,-1.743262780671268,0.7420655078327467,0.26869457836591065,-0.7212173419749021,0.20453268289207208,-0.610900124617689,0.294280021009814,-0.2593500640583914,0.6077071644025266,-1.5101751636329452,-0.6274280508219847,-0.7082595235323966,0.04630339880238645,-0.0013089124372066968,-0.5612787962998221,0.26218295474607667,-1.1191570508191422,-0.7916815959090222,0.015129379507014554,-0.2467924478743564,0.19678139800127636,-0.7450288654369085,0.5899752532275186,-2.431085786731458,0.9998680473082451,0.03580911834368274,0.48942192749542157,0.4555200763195434,0.684792500404635,0.4593956924122767,-1.1514300608161523,0.16017275560132394,-0.6904471903375956,-0.07542833593838727,-1.4269657798690885,0.3672310367244914,-0.9874501772769133,0.9096907130205487,-0.14189567989821167,0.2665799354394781,1.1130348121224987,0.09548995319131189,-1.2013382583056798,-1.270742234442435,-0.4681617325823402,0.5419027022892423,-0.34223114243136576
-0.10443463326805856
-0.6345442792302697,-0.06068070684704005,-0.6293447760808166,0.32786196272285567,-0.8360108086296324,0.4450433860968149,-0.2509218373319139,0.15903450464242175,-0.24677144448502364,1.1579527232001299,-0.8834258857219232,-1.3698378331492582,0.35365911764638674,-1.9913161178937817,0.9004964263697988,-0.5320459053125943,-1.2916339943114987,-0.6069315931285878,0.2087739480529156,-0.02150976517656232,-1.2243521877079173,0.15880089635187603,-1.243533142602047,-0.8056233635598432,0.9167207043513427,0.48471083994179676,-0.11127225794005106,-0.9880651325165412,-2.1999175348611653,-0.14573897578398964,-0.7024941703148697,-0.018804889268100144,-1.3992342774299291,-0.6041214190796791,0.7267071676389297,-0.6133978611571503,0.6255811235364555,0.42523997318606255,0.24888035189590266,-0.7503292738857441,-0.9095128679001946,0.11630571252624067,0.1583924406748853,0.17398452352901336,0.6857858419225847,1.2355165531816512,-0.7398618063444884,-0.578064030047138,-0.20050927460902107,-0.8570127660924023,-0.35422088059407364,-0.10265534876681484,0.6046253426221363,0.701442914186362,-1.197717175228079,0.30312887100840863,-0.9481605542278989,0.33130046119181383,0.4976277272796497,-0.5472678637270756
-0.5149900882033881
-0.005065000262145413,-0.5764633359319499,0.4559608199753016,-1.3245134541619656,-0.8449639151094664,-0.161310698323895,-0.5495987748659393,0.3264505720974472,-1.2703103713045634,-0.23726356149421252,-0.043391248045455445,1.726626367039637,0.6899367922690962,-0.15607119364990266,0.7169839060305881,-0.7585794267359297,0.20901854189166236,0.2806184968057126,0.17337159460265858,-0.12076798826261172,-1.2020851411681237,-0.18091292057359631,-0.5917835454154825,-1.286116215776816,-1.4662229826929944,-2.1859629114865293,0.11779943873551188,-2.101299284086939,-0.8943730120836667,0.6277850611131406,0.2540928843538309,0.6252649103343417,-0.6469110316522824,0.14055525473627833,0.25971387988490335,-0.39247116856833353,-0.11629106161551762,-2.239924309544686,0.42783815125034486,0.7527139989543218,0.3788895829178521,0.7670925094068849,-1.6405759316023596,-2.1498627733601174,1.0147650713236571,0.5529435176395104,0.10041466866024064,-1.5166927673327188,0.3750056448890698,-1.0379178554265955,-0.7055546491706944,0.08930709960628146,-2.1756715195180973,0.7924957514484028,0.6802557812978306,-1.4937532154324467,-0.6547578640318303,0.44502470971171826,0.32028454948268287,-1.6970539331272825
-0.31868914849353985
0.11009172315274794,0.14342607294246187,0.6300162509083024,-0.15201781971079859,0.35675419920238544,-1.7442571796886956,-0.597470778330591,-0.03195799322535436,-0.8856216857372982,-1.4055568562293286,-0.062085150053496886,0.6534783253437825,0.1526009787686806,0.1899880514477986,0.685974532333326,-0.7104087817339628,0.7266511315075562,-1.3074824533817138,-0.7522413739342196,0.158422600290437,-1.0854297623054645,0.6817507714984823,0.25176123640116005,0.17726355591402787,-0.8088041072710694,0.1431679731493395,-1.5567208065268658,-1.7890573738259445,0.4070390088656231,-1.4868981804112007,-0.16367788519866897,0.2698159995182567,0.37670833059519876,1.3007546852377245,-0.6474065472817471,0.08536600569639222,-0.6021096240076016,-1.7047952633715613,-0.8966972818831631,-0.40382178641026806,0.7042025978587805,-0.3271549950845255,-1.3549402170687659,-1.9316911045519582,-1.3657090220528763,-1.004534572290398,-0.23288087407441221,0.06870819992707494,0.03684306432810834,-0.44987973982592494,0.7780303975030741,0.2857355275176663,0.18413725136571713,-0.6612360356643613,0.4016235790577868,0.1101005367561081,-1.2579283525926035,-1.5437917898671334,0.9778898084385432,-0.9305608510195919
-0.356837751050657
0.4379538614060097,-0.6947204961798743,0.08921567489569929,-1.4852213411035056,-0.5105412046154741,-0.25445891703247336,0.35615698315177247,-0.01677998250836778,1.3917576246135457,-0.6423224362530361,-0.7372383409603094,-1.5358760661083148,-0.6969759002063332,-0.13978190427506879,-1.331029109513831,-0.2514868584546042,0.3665918806063513,-0.8090809448973908,-0.05793860560727884,-1.9391484801369232,-1.353523246218217,0.5861372521851296,0.324210864512924,0.3754447358798828,-0.20574237585743044,-1.0916478000185093,-0.01862562313691995,1.8125564445063593,-1.1546878695787848,-2.137526300165254,0.2441238197558292,0.2338333457815719,0.21989335031711613,-0.12493186863876433,0.3274656278343816,-0.48896481996616753,0.15259263159307515,1.0976355707723306,0.6484838041607577,1.0055938488949532,-0.6036356178850195,0.009779900284480426,0.6268864117333851,-0.17591603291909283,0.9862690171880958,-1.008047324115847,0.11766354198788719,-2.2765062587193623,-2.4665930016731976,0.0346119699827094,-0.8928395019206101,-0.26316389079103364,0.2515624536708295,0.9308795563714094,0.2604229151891112,-0.9918095467214739,-0.04142224500906816,0.6908076442684534,-0.44737273890330254,0.7155199427295872
-0.46748900302355934
0.11491143774269555,0.4235220871752833,-1.445872900339838,-1.1637562045127947,0.23390848716508636,0.3109459961786183,-0.9264273980694794,0.6284442334987289,-0.48919946735018033,-1.8624843541709013,-0.5222995307804349,-1.3981987477955509,-0.3469179503572194,0.16099965709578093,-0.9375438385515259,-0.8553667603760486,0.49673045724665094,-1.3740975857797206,0.5502901910834964,-0.2067548691910571,-0.8932349318243452,0.09796461851180253,0.5294007244856505,0.3041567397354877,0.9751533515508019,-0.26645788681491606,-0.6490380409263203,-1.4342651209014488,-0.5248109447969409,-1.7320749292934534,-2.0994600758457067,0.8998109820139498,0.5351498075348307,0.19293466089617092,-1.7552250845781467,0.057300938697623184,0.09414746266912877,1.7533872920752251,-0.9636463540147642,-0.6833326894052311,-0.9412409506067431,-1.8230218418020987,-1.5875511761124075,0.30907149625103236,1.4864967056192195,0.1636343451621579,0.23385556488186082,-1.0887158671268824,-0.09183536405636027,0.5124394350051489,0.6579850692096894,-1.6665813985630595,0.23370701838740562,-0.4172184272933413,1.152740917504631,0.020868370604161482,0.2226100438453566,0.8451628858728705,-0.07169524069688811,0.2875242885095857
-0.579545702629407
-0.6439249221093215,0.07470671143532902,-1.12835743570693,0.809537618949772,0.31318215958858314,0.21684668769864196,-0.48398017943405186,-0.3316726826532314,-1.6905496891044065,0.5735502735199576,-0.19058666426662146,-0.5094755686019526,0.587915859598879,-0.022422388975228386,0.1625047436699245,-1.1533897380211207,-0.4830538012687771,0.38965332054763974,0.5646942514416279,0.5480190106339674,0.18974960013056977,-2.6118953615189087,0.49064837407474887,-0.03887879947780718,-0.6411009807622703,0.16066448271987532,-0.42527276415741366,-1.2107384271077413,-0.674714306609728,0.5697382678731976,-0.41486984575242863,0.28343935851912994,-0.8504566523078657,-1.7959949119086451,-0.41182350491888814,-1.6540896553080333,0.5259553148716399,-0.5704057690534838,1.2697222525520564,-0.9009328769381075,-0.7389839770522252,0.8890670777528322,-0.9419900557308,0.0857868047141525,0.6082925696301815,0.6867146048779322,0.2037216353791017,0.11737426271388543,-0.6440252922592433,0.6320512298638128,-1.3973228997038944,-1.5125131795721622,-0.9432911944344041,-1.488158282956814,-1.9296970370698197,0.08971114087771588,0.2986661949382865,0.6849926412813171,-0.0464161943973205,0.11640551825102707
-0.5026801328914673
0.36126768279621796,-1.0091576708993786,0.6404752894423726,0.9318653304807445,-0.11744422832757223,0.836695916421381,1.3428526777872987,-0.8960544667764558,0.500090180202118,-1.3898252700915923,-0.21216685890000017,-0.37381168092932965,0.14001038823142425,0.2695180602716785,-0.30733193051807045,0.32212582757873276,-0.5713459867274779,-1.2476875117318451,0.3931463882875869,-1.7787322641782217,-1.6086983237746288,-0.8302503014003809,-0.03338358939845762,0.056552168250791304,-0.0881212415263221,1.6790861020409245,-2.845412452978873,-0.23870526488832725,0.031478933716771434,-0.055441901464676896,1.0307737272105713,-0.5939549330563048,-0.15100701837543767,-1.0262659471090976,0.34446445202401477,0.4065257507300121,1.2805515739295483,-0.7398050784700595,0.13927460863589952,-0.3621974620931771,0.20448658788145366,-1.9115219549313447,-1.8262807033136115,-0.04248181899185228,-0.16178226636960016,0.7470097882925458,0.20515694006531834,-0.2986047188953771,-1.3158969647956058,-0.5289002095686652,-1.6455938699226622,-0.09368930016979034,-1.070532547794361,-0.3110974246650514,-0.36170533725402776,-1.3076801173355375,0.27329190039920737,-0.8957361047982916,0.08882464254477417,-1.07196830235775
-0.39488491956452726
-1.4511749823967859,0.3207770506373586,0.5824597445393979,1.278203965048615,-0.6890902549419368,-0.1844458769101504,0.0547647285082842,0.3683053323874971,0.15283515518552027,0.481434558009635,-0.7845506644823269,-0.7951575923284695,-0.4887636230352288,0.056904473863082644,-1.3324353040633643,-0.814068562943885,0.4085846581266088,-0.07694610850726315,-0.3240807783895079,0.19742192993779395,-1.132064266668357,0.04954123873167447,-1.6360950696007783,-0.7873832382454522,-1.4328469729933677,0.41190563318473855,-0.12340059140873261,-0.8106724840916223,-1.8280008227386346,-0.3776569794129101,0.37525175001202116,0.12691215371831596,-1.4743032084776027,0.033551348960325064,0.13983470694474015,-0.9994440080722233,-0.1261957016395457,-1.2994912627658413,0.7863390626028991,0.017810401622330906,-0.1756915269868771,-0.6906984600217879,1.6767683693352453,0.40307890552980424,-1.3860849009082763,-0.9056706247601677,0.09964462638841316,0.6623238879934042,0.5092676856105085,-1.2722518160200937,-1.784847119684852,0.12905181387439188,0.8638062009644975,0.25047559313746126,-0.1743207943394544,0.16841972982344872,0.1488788675941085,1.015215689998675,-1.7181889044955265,-1.6638400701449199
-0.5197137839434786
-0.4075866233905475,1.0911353040901672,0.128137963901582,0.044683415120417354,-0.25045489953381694,-1.4057531928967613,-0.6342438747020921,-0.6101357933499406,1.1098260456847495,-1.4580950299115711,-0.04087043150927342,-0.3851893791696232,-0.3875821176139474,0.6753440028843729,-1.4038290008056813,-0.8477661820864352,-1.7527958128507903,-1.166697412250137,-0.14373696129989527,-0.5793566087138939,-1.7362683183200227,1.4181977127377392,0.20699222943403997,-0.439346123279367,0.09716855138098247,-0.20816688674437828,-0.3949812022405271,1.4863426425128436,0.4280236395183802,-1.8546168488244543,-0.603593979717888,0.16748111417411526,0.18910191932796167,-0.5887404670380417,0.018105917417625295,-0.14625149520475333,-1.1302040230922066,-1.107445863734825,0.18128619219161363,0.8702019940600761,-0.32370195087421033,-0.9652570896904924,0.8725233471184182,0.5173238938383895,-1.113487404232328,-0.5218631197091904,-0.6540549705211974,0.5506854328394771,0.32448435576533086,-0.1103493372416628,1.1238061624112627,0.14204643124355704,0.13261535736186417,-1.7253228595220653,0.3137146703463807,-1.3626987437924785,-0.014282415457905488,0.4898288782542371,-1.637377439658509,-0.7239265171277384
-0.4940560019586098
0.680412639014291,-0.19235244201883295,-0.7586011970254712,-0.49276313855840054,-0.3230965690934642,-0.5900808218386332,-0.11663567314194238,-0.29426674525948443,-1.1679135110587673,-0.20318479430509231,-1.1402442517360944,-0.5009227096564576,-0.418932952570149,0.23802765247562052,0.34445159151425125,0.4153171386182215,1.3439040337919073,0.9993197591289982,-0.8313744260266888,-0.6763598393636692,0.20050028737319497,0.21465598386526522,-1.3301142858161183,-0.7227565290502248,0.265883202394203,-1.8588226995221233,-0.04771777712934185,-0.8171311324247618,0.6735144464101932,0.3320740487767655,-0.11631096964374808,0.988261803835507,-0.18343183346112765,-0.33606421538364084,-1.7385421078692198,-1.5785281791879389,0.6378902394971239,0.49796256054083193,-0.54441465684039,-0.34090448117680966,-0.6492364802873398,-0.058380468861256044,0.6966657812480497,-0.10059952283214389,-0.509572194511237,0.12080625516130283,-1.4571343231895457,-1.3305956297526904,-0.2409174979001083,0.7841067751751072,0.714243358196061,0.11032316107848313,-0.6096765907799478,0.5166008135880688,-1.062662901548389,0.023042060776905696,0.6857307946299634,-0.24638771220393438,0.4571992799432965,-0.21181191048793283
-0.11731360731944482
-0.08135854180409925,-0.7258154406210764,-0.3855852636601966,1.0988413240306636,0.2611896226686304,-0.6394920634593733,0.49622262546166146,-0.18094074554619347,0.7943727036508688,0.32485038206825,-0.3842389806265796,-1.5166380541566753,-0.8181488111032544,-1.5776731013744827,0.901105611176663,1.1987200491032328,-1.0476276699350269,-0.6419083334388502,-1.6914347341441416,0.37816495825031077,0.32304376688632397,-1.376228691570569,-0.326436320486744,-0.23635855091381933,0.4185906208292705,-0.2455777037198625,-1.6849384188718157,0.1392381139878268,0.2751504897762103,0.3525744086578004,-0.740689237326164,-1.727460845190668,0.38803140672078507,-0.9450129652740976,-0.6798521418581137,-0.1707996229308352,-0.4697971831628209,1.809550245966483,-1.771316228354073,-0.8911866684617157,-0.8207564399875577,-0.1891263218409448,0.3972631974648165,0.27573924952823586,0.18293333026729322,-0.19049594986298787,-1.0791132346906132,-0.04825034716926286,-0.8705286533150441,0.24408571818598634,0.1966105409440082,-0.6096451084490123,0.3254697541059112,-1.5094475357762056,-1.6626159790930088,1.2663843306017575,-0.5217355173135914,0.17190242233927852,0.5119474561104572,-0.03725435708579366
-0.38445803934794576
0.15885236230811997,-1.7586151229400302,0.7614335733956737,0.4406961823044192,-0.156698752797325,-1.2377383688735304,0.10900822771985523,-0.13210602900078464,0.07367365477763839,0.1081859833269376,-0.3481157028727308,0.35720148981427113,-0.05578552657815612,-1.7267787331264242,-1.048316775151419,0.4359395352415003,-0.4761615279477832,-0.418490142052876,0.49730891824770906,1.050242816073273,0.8818831623976408,-2.6978603696021493,0.20134570651499378,0.5728913690118512,-0.8685616285996263,0.3960179295262211,-1.4517457288973201,-0.6581350511082134,-0.36519830372746354,0.6590164671987303,-1.0868098553066243,0.288444168755508,-0.2791457341742311,-1.206663997710505,-0.21728483725888637,-0.20141391213121201,-1.859881382981885,-1.8343692005403411,1.3239539799466307,-0.3086055318240222,-0.09803884052131855,-0.7001998258795881,1.0020251324110616,-0.3495861094573569,-1.6885126017939238,-0.726717634146679,0.7345339898014871,-0.35246204813101967,-1.8326342729557694,0.2863413122150114,0.04116118212521732,-0.3982915034246986,0.8465455634742494,-0.6139253894010652,-0.8907144492536211,-1.5430489355664423,0.07356144999991929,-0.220446173301874,0.9543817691029728,0.2434319543461507
-0.5473722563794673
0.04611916832297228,-1.4004147304107517,0.4952550868638429,-1.4348017779626543,-0.0019154347008702272,0.08529842390406253,0.4886995786798705,0.8786908942276227,0.7579356485654472,-0.10602914025215796,-0.17419382246418982,-0.16076000150318476,-1.8835048969362118,-0.17305996975619378,-0.8050046017217174,0.8025539883089784,0.7402488696857378,0.21327219520058163,-0.8890916294144317,0.8071109160837272,0.3219418298405857,-1.5942826666699133,-0.059985700373956806,-0.041865742724960006,-0.7205823983200794,-0.9793591859581003,0.02643299511276026,0.20575556412013535,0.3857515260905791,0.2133388987957751,0.24640410917998587,-1.4360599815798851,0.19163661036002658,0.9288752423988933,-0.7002716340477168,0.2249577557794782,-0.27978404551236347,-0.42708115707568495,-1.1638656862672359,-0.9451257915429746,0.28570271894297006,-1.0793273538900865,-0.9522315110305493,-0.7820226005493572,-0.6278590414347797,-1.9791653903313946,-0.1210890671791419,-0.053475561483199034,-1.1949426033286632,0.020237258821186547,-1.1312057199859318,0.12503214861050665,-1.3535375708132669,-0.6612025428468437,1.159203993996463,0.8807823113133081,-0.2353816315887378,-1.3018243620974723,0.8001287755439294,0.3919109939890166
-0.3758193260528997
