0.043602236289091954,-0.05367695139241583,0.05722290218593069,0.36055962367015487,-0.020868132153494777,1.077958399417838,-0.1815389435141833,-0.27897399101945936,-0.6583750851354506,-0.5322424936608914,-0.2360463556908534,-0.033612809901236336,0.15895033320994287,0.1228174848505087,-0.26538792452633736,-0.029178551149275818,-0.640293736684588,0.5741800378351145,0.6224743351683071,-0.30898569744767707,-0.6861358165967333,-0.27498340819130235,0.0461719036385063,0.09597118226813553,0.13769463323512474,-0.043735878633081614,-0.6101581986211484,-0.5279600563880782,-0.558839394370725,0.013068754067332664,0.16161209190334055,0.08741851599526873,0.007501378608680523,0.1408302634628861,0.15793099233085697,0.02875133616589904,0.07214303286767748,-0.1439541697497638,-0.7663956338741809,-0.9770257704845757,-0.6763230782557164,0.1950716775252336,0.6819162555776166,1.4818206813204213,0.9583141119163201,0.14938738158696233,0.15773463512240923,0.035195211430103825,-0.046756985294927465,-0.2262603914640334,-0.6381181551835498,-0.9934966653187061,-0.5265306975592012,-0.143326757073136,0.782156501702234,0.560620105907877,0.3532564823499083,-0.0185779194329969,0.01514870427464193,0.016538914508197423,0.006697572352934112,-0.20058667809629668,-0.32042983034921174,-0.13879349422156848,0.02307730881501837,-0.2694554684234101,1.002244317422593,0.06960288092503805,-0.06096271415770684,-0.2022742277916457,0.023999004447146553,0.0028952282902936586,0.028490499628074928,-0.29531956130050213,0.2690052332523554,0.8152289765098835,0.47981010147828057,0.2338407529852913,-0.12058849726790336,-0.08143930224129867,0.27933905188295555,0.08724111384567704,-0.0034440400715172875,-0.058439858548005215,7.366371087641671E-4,-0.06179251113394373,0.4769510210613452,0.942768624075798,0.3682944157031876,-1.0332102556706841,0.24295393431894213,0.30018977645921613,0.2343559654204744,0.3452852503789153,-0.02010635411528116,0.028509856315096234,0.1795468367585865,0.852320195433691,0.8965210680774769,1.1891498185120004,-0.35829506211335244,-0.4618204067388367,-0.33375270657742767,-0.11768665131331454,0.06691287639576554,0.15093319598678798,-0.10646778236614846,-0.024230535874762496,0.2312742016140932,0.6348259240138185,0.6968927501247435,0.9618048949112379,0.002850347551489779,-0.25317326222596676,-0.9567313370245614,0.4108370857667795,-0.5723754532842749,-0.39230624040634715,0.06342951150619566,0.0325354502941694
-0.04547207165781544
0.08442763197268091,0.27300694209190385,-0.1772913099126484,0.009506705741896557,0.12755053030434588,-0.0784488694019336,0.15149149310343119,0.15975618925597734,-0.002810221104472847,-0.011043973410577298,0.031228565172927502,0.13211349003560618,0.052383213581645244,-0.3510762880885894,-0.5100106460751297,-0.5107681905870745,0.009934555770293224,-0.3075024007041796,-0.0639315131185581,0.2779361501947279,-0.4025491974624355,-0.5242449978776513,-0.27751274183565494,0.1491823884507173,0.07017887004516019,-0.20750526506859884,0.23557759255390348,-0.36531540198228446,0.4185957488754081,-0.9746338747778818,-0.061331253285861864,-0.15023257361269188,-0.19920706406916266,-0.46235098971982286,-0.21734886914371204,0.12267033757142964,0.09274268777143688,-0.013389334752049528,0.27730188652591475,0.26620515279591545,0.34080032909718566,-0.23063757910771382,-0.4443793123797261,-1.048961446259867,-0.7343400019630026,-0.4289857502421232,-0.2221434331885484,0.2151048908361448,0.1942656444002402,-0.029631446177814366,0.11089494097550517,0.009499066041879918,-0.48862661293921233,-0.3831286998584908,-1.5614883686592385,-0.6891473108495798,-0.33399595421840195,0.020215816039051204,-0.01743911637087482,0.2198601325704646,0.11864969242585205,0.023057844146922482,0.11232359011876364,-0.39443331671836074,-0.9800672947786189,0.014101480757816543,-0.7511898005518147,-0.8786337950001477,-0.042437218041032024,0.17631012727391915,0.09660970004079941,0.2615348810970299,0.1253601197569012,-0.004687939739551048,-0.055003290899849566,-0.5038814175458955,-0.6825197947542065,-0.3235132662553117,-0.2280408063446167,-0.1393552959005867,-0.2510212128367863,0.24616067291348986,0.04402535276822085,0.24295053444572484,0.1786351077820778,0.04506071855279804,0.14777870025645778,-0.08958005098171845,-0.5924023898093718,-0.05510059267672711,0.09253737159368297,0.5115727195882649,0.25626373143593706,-0.08004540268061397,0.028902112155008174,0.2733467258957571,0.07762864446798293,-0.04079164700696289,0.06752020636691566,0.18535643344949726,0.3908557212554194,0.7994129058634427,0.4516686748418826,0.5864853550013556,0.16887605929317134,-0.12273236181292929,0.015495840893936439,0.24628265945789424,0.12381151280773661,-0.25135389067289204,-0.1829624763980332,-0.2940778709268563,0.15116356506367495,0.04382471632550637,0.8762973326778327,0.6628724417951097,0.22038217747037114,-0.01665508088324784,0.032657750190343574,0.18093587817128493
0.18713062521530743
-0.08222277095763385,-0.028628250562270016,0.03214164378543278,-0.15225045056875208,-0.2726569968341439,-0.24499725127808214,0.29078511157213294,-0.14904510124926823,0.2911031560232651,0.1608363467502668,0.12758399265058706,0.059667788917813276,0.01679994449070612,0.02847241824011678,-0.23557050205486924,0.034486124106544315,-0.11213012819823744,-0.19283498293158358,0.3726030217462767,0.34806816092088444,0.1988052221577623,0.4883579243270124,0.01976334539182434,-0.0158463588841927,0.0430133077775326,0.08352509748328955,-6.442526123285591E-4,0.008416267048854929,0.2062778730009317,0.5253343902100264,0.4699015679843115,0.2065467849545911,4.3319615571695447E-4,0.5609801571769578,0.1791450776020695,0.05836201936423977,0.0913071308050057,-0.13796168920869145,-0.21712229494881508,0.12386715896752466,0.0014104059114560346,-0.06490020602994946,0.08514414920975481,0.3685139964214733,0.05198646112979136,0.4660031351591051,0.10672106893011367,0.08883772090931998,0.0631576522622939,0.25032928036941815,0.09746951503491712,0.26500050288560323,0.050536631018132,-0.028830882041558203,-0.03811829877662331,0.03326725482219119,0.11638183911119983,0.29403413773933496,-0.04993552439577966,0.12117359432682458,0.0669227940310088,0.055139942713408295,-0.15927417236997704,-0.3118511993108095,-0.16241811631071806,0.12499839081401844,0.06609311065763483,0.22791857897329038,-0.2945145578491202,-0.038497857499628606,-0.006965505898006373,0.11303508264211236,0.08931469514208927,0.1253801648539664,-0.202427997284629,-0.7186943180969908,-0.8575585709479859,-0.1364615364207552,0.23559181785456246,-0.12880142609403572,-0.4710840014461548,0.299657052696222,0.23943447486034053,0.13403487035732659,0.15947210611509588,-0.09923408677234781,-0.2894359030471999,-0.2807702406398389,-0.19752994044121264,0.14702731220146548,0.24795952891666667,-0.314669061333673,-0.1782258948335444,0.4236629639087399,0.185372678514102,0.1537162145799985,-0.12064180591590608,-0.7961597874430898,-0.6337826939457311,-0.01161902252257823,0.23794420376750652,0.1280779752328045,-0.05932479383220734,-0.2458583354052335,-0.5826980042185245,-0.37477219409224805,0.14179274612130177,0.07483803141604133,0.015417637661228435,-0.18299453242122432,-0.5533152430158291,-0.2704236254640481,0.3895482456358482,0.5617950350829249,-0.31749290654699625,-1.1601108080103593,-1.1891039066875917,-0.3648899773869001,0.1262477173493255,0.14233251530628743
0.11481675195169185
0.015457036720568987,0.24396146986564074,0.5069897670260027,0.5913125096818562,-0.24379025758232123,-0.4958102168946664,-0.1396403212181546,0.2198263013937298,-0.1037195743538478,-0.07770862742643736,-0.013749917474211686,-0.1570427967440637,-0.17785849119726102,-0.022464063787533527,0.6220987651504654,0.47311743489209657,-0.32194850253599827,-0.9275153392932919,-0.189547893882463,-0.34516884325658015,0.10125260235493608,0.24504874948398594,0.21463159420575742,-0.15817459043504875,-0.18374252643811453,-0.1070677274943764,0.41173819792531274,0.5974452332935217,-0.20308738956235742,-0.8194195208928853,-0.4883203192858542,0.21444623830273832,-0.0200078900659125,0.19973432592538623,0.2586789884314269,-0.18238842070490993,-0.3823318248713662,0.03792084061756629,0.06848843131548737,0.27960203579967324,-0.3915675691795343,-0.3626835413742997,-0.34213403812180054,0.9246050148624779,1.1528590187908885,0.4228562682181616,0.3161100447491605,-0.07789511587084175,-0.3041958778232632,-0.275738133871378,0.005593316631299937,0.2700739095616246,0.13200562063717677,0.35806544929969586,0.34485781401871796,0.2423595616330573,0.5157493894487936,0.2797168203978956,0.23641869600533513,-0.13107962005897986,-0.3921258362412664,-0.1191723475245774,0.1849452724195846,0.33341838003378965,0.4469258903310406,0.29826207875959776,-0.09309027556637861,-0.06387164643956272,-0.06857617304087427,0.03351304906942815,0.12253267229317724,-0.0837447948931695,-0.15543445282189575,-0.2421694621685115,0.04253004661397894,0.21436818787026843,0.1363912004524653,0.09551021753927894,0.15683881736828972,-0.19500699401277474,0.014049333185066905,-0.32557008696956025,-0.022035150282546583,-0.13988620653223502,-0.10534581938349388,-0.3532272658597194,-0.5851042699547181,-0.4099408700510041,0.2524424716686966,0.2743906152122563,0.4909222246933147,0.49728911929009456,-0.5031236099838022,-0.1618406069793105,-0.06835826254628127,-0.1400125567674436,0.010531757785973641,-0.1517017859058167,-0.2934115725435299,-0.24222130498886787,0.27821853766468785,0.08911171907580978,0.12390071701319524,0.22781230918516202,0.4762568214123699,0.40757268178669226,-0.04561571219993446,-0.08812069539956771,-0.20723266832565881,-0.04441452525889926,-0.08420216537454467,0.12365265819045182,-0.09532029889533838,-0.07475233267705941,0.18395311929262323,0.16443413467586074,0.5197938349404275,0.5210902214188388,0.04131687964080734,-0.12050023639266338
-0.09838719016469646
0.011874004069255003,-0.027267915666375896,-0.10953264066045469,-0.15850837328310444,-0.19597836079902595,-0.11946983686137848,-0.098378948326642,-0.19967525628592667,-0.05503765996478978,-0.10902518555026104,0.009672256178643751,0.14621567756504947,0.28215246301951663,0.15147150289241632,-0.2719123633175435,-0.14016980224511502,-0.047822808924624996,0.09049626274603138,0.02911271832047444,-0.10034840857162743,-0.16977352051478464,0.01702916714050083,0.0709158653816936,0.19686625371210528,0.26210152804138714,0.259036610517596,-0.07005834863770741,0.1126879223782407,-0.03730956485927721,0.09532755713779566,0.15735217790492625,0.043151782721550375,0.04181179066639315,0.014431584537990776,0.105987727441313,0.10245688452549732,0.15796591596905304,0.12730349618716427,-0.06147923515750353,-0.12023030579607442,-0.012153910126932068,0.08335565969718976,0.02401815133807926,-0.1384825668335772,0.0805180658096848,0.10192524590119383,0.13210775669349753,0.08969432376046364,0.11587735482540416,0.1570888561288877,0.07626389242691668,-0.22376886376039043,0.11656166717987541,0.35146106375381075,0.05973894140096145,-0.16557584390952598,0.22704870302201843,0.09778202071397245,0.06168285598065182,0.016862537350457014,0.025337080834221058,0.20789728462047144,0.05028083738415952,-0.0038598191126484444,0.06452051601945931,0.04672809757483623,-8.465099885960497E-4,-0.1183774007525192,0.09253461351650812,0.16232413912584628,0.09703961791565237,0.009676832159546895,0.02059374949539529,0.09338413847140799,0.10042774983366905,-0.045104067047587515,0.19676810496952954,-0.2425555912036698,0.12726236016924466,0.01580065856500471,-0.2766316824524702,-0.03334856065832749,-0.016482835107110013,-0.005991963082425192,0.08665445331335396,0.027147702622679397,0.19003274682165924,0.03740495300369,0.19267777414547124,-0.3136000320867656,0.05955954437886539,0.03907389384113129,-0.10576449454810212,0.11823467233033934,-0.028699837371488214,0.06238796395333227,-0.03987015188620793,-0.10683939330558088,0.1186646966094118,0.209964837434132,-0.1361571798116308,-0.2580646937157551,0.11567742904015878,0.04311953509414579,-0.1139385913649451,-0.05742801260802752,-0.06346780326796347,0.061273758892216465,0.031373840776696096,-0.1662802105699874,-0.12971016115990688,0.022919035325327297,0.08024499832667947,-0.10940773870135416,0.1427633203004929,0.1291276791638083,-0.22222030612316204,-0.1821019657644962,-0.0565511276451649,0.030498762090764592
0.054445210139637976
-0.1449678881532578,-0.2010853628079329,-0.10201376588263465,0.004106444896070813,0.12921776726014214,0.12112104605128689,0.02273790108152221,0.14980002847645488,-0.17848957682077024,-0.3614469742837037,-0.04459322083512368,-0.09062304256258004,0.08085767603158232,-0.20700957517663818,-0.33554775514199436,-0.1743332489108699,-0.009138855188360264,0.45414018594964417,0.0419878105725463,0.22523042197505913,-0.1675033057890237,-0.2848723734636233,0.004516695923606388,-0.0023012699740692795,0.1264769900384937,0.06524680566562759,-0.2553196699665436,-0.06955631508162284,0.48245115318788484,-0.06496759086830546,0.08382440106435769,0.5954458469291817,0.24484763061455397,0.1016902813885721,0.3526304101234216,0.04474941283646239,0.08142934230155431,-0.013244781232526695,-0.11930874815045163,0.24402736424108848,-0.028370067577734928,-0.2932103172370654,-0.05177348643132641,0.9575259414195576,1.0416593242141237,0.63569745274573,0.1890484831696734,0.010797106401820427,-0.06163242467208721,0.10839663282080315,0.10446067397586166,0.07352961917707836,-0.15034753779373786,-0.04417609787391938,-0.06923483259583359,0.0146390016633517,0.5149364119657214,0.3134354217962943,0.14024617077111665,0.0765167829768253,0.05405543927525254,0.061996360181980174,0.18686369611423756,-0.012170008791950624,0.08129393469908759,-0.29377424345558284,-0.17741610254528353,0.06575941165513456,0.046239544929031595,0.35477554298909203,0.12391235683155802,0.042707798444494516,0.06796107719070867,0.21729270505289847,0.07395422082142912,0.029823053610598192,0.14781854636885425,0.4216747878448512,-0.11284836114337173,-0.3537593666430591,0.03918433870825887,0.463136517581947,0.17648483235103993,0.07896179671225194,0.11705983149652739,0.004760643082467716,0.11267465625109825,0.10888049606487253,-0.25349114666481015,0.09312900025732614,-0.4593627977136507,-0.3624201220838617,0.2537308664811912,0.31892463746662,0.021682877189167338,0.019293628875695412,-0.029842029884976994,-0.15710519102576684,-0.09632259391409696,-0.08528402275880569,-0.25990457984082915,0.0463332559563262,-0.2559961628482527,0.1430764188154581,-0.44122240263747864,-0.3839342299508373,0.049935174475613284,0.07610939405642426,0.07537838790686051,-0.026190083792373295,0.041010490756173454,0.04407649289374363,-0.05668149523060516,0.1389496355536883,-0.08139149033007308,-0.08119483523055386,-0.5082258142451135,-0.4006168594367369,0.04391881501793703,0.02170149415899386
0.07936721755338493
0.001183913510288488,0.27621387210762693,0.21053664731712032,-0.096247327881171,-0.08879916798420308,-0.0031299709846390805,0.04724409817267908,0.4190814812515484,0.003962475594883498,-0.05109108650834211,-0.049201358366005754,0.12411141033051513,0.04396793225217531,-0.04967141886841639,0.45203559264666615,-0.31467460691661,-0.42894957041469783,-0.6389711379158386,-0.17512133745022165,0.48345858812120357,0.3056876373538102,-0.18734711158405762,0.02944040023492572,0.11907568344910936,0.09222476026089622,-0.19034489203104146,-0.18696229708199166,0.10725144574433586,0.18436343933064273,-0.27283998881296057,0.08414376175544717,0.7358019525141569,0.09105143566282765,-0.16163925802204246,-0.026526835226199103,0.07366985326613147,0.08881286046790653,-0.03707266109148748,0.0017170847324110127,0.248371815396451,-0.05483977856660997,0.20137663988360358,0.41313060577537963,0.2560017957443722,-0.07318424300334349,-0.2133372998620718,0.015726332144936694,0.10088442199384744,0.06973829517021153,-0.05924916001947925,-0.15004505310931912,0.0831230019094744,0.42319293370097244,0.061904127747202164,0.40543091593973235,0.5760636350059133,-0.46931685398908085,-0.21064817365416108,-0.01855970947533019,0.1559559908858099,0.10270410667874942,-0.006534925532403356,-0.11385304752564483,0.024168687254616957,0.1423338242585476,0.6885759925754903,0.552511574125007,-0.7821500091450985,-0.7561282846455325,-0.2361698194171766,-0.0027368868599963,0.17556565123590037,0.07406825632775547,-0.015576647982393842,-0.14885830989603385,-0.1562073767922327,0.4356400337776355,0.3649725828636312,-0.3958541211592974,-0.6990952077933147,-0.8425764007681958,-0.3153025617130111,0.06367945264407097,0.1291625342923328,0.12573108021870058,-0.05370431141204467,0.02231400016501665,0.3200776780266712,-0.08407365595594958,-0.34220293302823246,-0.1393685440031638,-0.2061816179404987,0.05098288499669047,-0.06283891658867333,0.045329210880683146,0.2100648483617721,0.08557258723113391,0.34879814035127266,-0.10663467093410732,0.11884795166277189,0.11371240215501886,-0.3509761249557094,0.0029087549965978853,0.5898776288215771,0.32121651956213704,0.17728291732287046,0.2936242781762306,0.1655442732813626,0.07862825457046395,0.1680415551993689,-0.002548093065049128,-0.24270577639130617,0.05817861259068517,-0.7987589038727351,-0.021357398466146895,0.6900607973929694,0.2903980180639897,0.3828340520114668,0.17754316742227458,0.16279572913993637
0.2085335130647836
0.10740978730327816,-0.24600332277641085,-0.29639472981666815,-0.22523980744177002,0.1724728015127831,0.6961681086499802,0.4555971880403057,-0.032634416677978166,-0.10558440974266639,-0.28112919262580716,-0.1549216977229918,0.0327785456572719,0.09161214951194427,-0.0816040154646171,-0.7930082710600199,-0.29936099806753624,0.11981047356444272,0.319109636091228,0.22793317625697568,-0.5236186484474199,-0.6362148860828294,-0.6968646235111193,-0.034493147398763795,0.15672303930678366,0.043515113543559324,-0.15793308289940317,-0.0722108230084717,-0.4770971435039547,0.060180686145611915,0.3436216791099562,0.020255380001263798,-0.31631015329974177,-0.15844174965585006,0.09296710448519502,-0.03779346020101106,0.0819495055606913,0.11746036143860619,-0.0011773916459080463,0.07932349187798474,-0.42046996390255975,0.06489580838731773,-0.3069203522926267,-0.5154562903730733,-0.23340161485076716,-0.5851186724852828,-0.06905165447349126,-0.07791722877085674,0.13799501359090988,0.17396109770812207,0.0942580707882266,-0.13255226629151667,0.027401942853019938,0.4967333111942126,-0.7138959707859969,0.4240922529740365,0.6282227190396545,-0.1262860795248467,0.07158344814776171,0.04827176699924631,0.14471734899042554,0.1699135000001732,0.10739249911861429,-0.0940639817441011,-0.1835026622733713,-0.27058460074360635,-0.05650711418758516,0.5663361570609013,1.1848137429525027,0.46303460832576293,0.03919114082883663,-0.01628033586060742,0.1398593247593703,0.11252311169693796,0.08260769549677899,0.16435842660517308,-0.6753105078605854,-0.1109673752659057,0.3697817915970778,0.8087270125591868,1.0382843895858926,0.12379307325716798,0.07749190458690741,0.052923514774863546,0.06480038441583769,0.05268380789606985,0.13995018891844363,0.4497046099029586,-0.1464196962010078,0.3032648245532239,-0.5263002364042069,0.6301871613380414,0.3727523065337377,8.722236826405372E-4,-0.14939164789421278,0.09078038141417938,0.10938369463084269,0.10574736584800193,-0.06294492593057777,0.3465528084428059,0.34448382947397793,-0.6878032098636939,-1.37988784078812,-0.9621324996129248,-0.43287024151741327,-0.015449753915417093,-0.05587458601804463,0.06959773850860904,0.04951588555471318,0.07292858162265037,0.10098998467158551,0.30388175375883497,0.7168127696219528,0.26391490342531077,-1.4062224860903298,-1.5989642057528144,-0.6572451086656121,-0.28704022905657955,0.21485426965642518,0.1241779678555727,0.1436555321995729
0.15093376652153884
0.11669796709499161,0.15060194961731457,0.04020099053027523,-0.051985038149275783,0.3695326768114098,-0.07793125499226039,-0.37623740923096227,-0.30232932788890177,-0.6150379002770083,-0.16791049842234088,-0.010929906486661114,0.1299650037477965,0.0802691421571329,0.01734519004371443,0.04097480515918385,-0.24846870950746217,0.18447543635595912,0.29222102154591567,-0.28786934678795695,-0.22227625218224442,-0.09084023214544149,-0.3081340436649941,0.024649361625721164,0.16786182688567472,0.15596880124682375,-0.04318369011762195,-0.15885536807135683,-0.01128977402586396,0.3841135454024118,0.15258881439571895,-0.03891728881599263,0.05616131211666084,0.2020693193719915,-0.11921552032890198,0.23933563742351657,0.19292774977916463,0.15440958257750673,0.04555438935655515,-0.11613566502270412,-0.02971571827259282,0.1119340677081879,-0.6371229058802794,-0.7259771803301469,0.019125821244913445,0.37046948271509894,0.10036270732713898,0.051020486557246225,0.14903978472743648,0.1882022322236446,0.23483441645648698,0.254049856710024,0.015364404844885642,-0.1443855011908928,-0.8119693101417544,-0.1314147257762094,0.17735532045667127,0.36687752970200627,-0.09916082535800883,-0.1854841361354547,0.21022010298841484,0.15550879808393572,0.21505846315822338,0.6704314138235563,0.3051047809019183,-0.041995811491302076,-0.2594939654647439,-0.42563942278733313,0.021916169731885343,0.36913588890197546,0.08697475922355599,-0.09455592460301926,0.16746146736004927,0.02203013775538506,0.31548894060182764,0.6771137288122191,0.19628822718169744,0.3241368852046608,0.1248038452715186,-0.6767291014422065,-0.7315396676713974,-0.06967606163996806,-0.055639240791114514,0.15638566494612952,0.17873002326435908,0.06263820668093115,0.15180179457741436,0.49111759393271004,-0.04161640197107683,-0.3050291680909706,-0.8399492007467795,-1.4027208682376344,-0.5244228161414723,0.017670258034554513,0.06072644624335338,0.0765255634115467,0.14052005941074905,-0.03352060807923675,0.15109601185552365,-0.14006471934141304,0.2923477364967668,0.6018769980978551,0.28761608344584155,-0.2567756775485096,-0.11861775769007182,-0.36794296522926495,0.19982258612458384,0.12286729340757985,0.1427495793152078,-0.01141149930506212,-0.005205223220071109,-0.21358939009916164,0.024369975219862276,0.4379099668017665,0.0779185186026182,-0.02019114222140868,0.3556740835122174,-0.10623616929932722,-0.7457210405807062,-0.05719233011260143,0.18813190760692902
0.18939553872534218
0.36101099876142984,0.3692238278241796,0.33348019262461137,0.4468521745107191,-0.01266636832352819,-0.3074837429543119,-0.38506436099700203,-0.24489338489186907,-0.14383899166485292,-0.012434188087427784,0.10314278611437065,0.1453542675902218,0.04578272535346195,0.14892771401142718,0.645051529119339,0.11753880422297412,0.32586486067859977,-0.21348350899699914,0.19854101657568934,-0.2992129975171266,-0.26496369822006305,0.30371615609401736,-0.08673637698927704,0.12330078024134805,0.13913220478634536,-0.3144885234741136,0.17767177355149172,-0.5525340807137151,-0.6158932065663085,-0.1919952868655,-0.04946664455730297,-0.4294230618502418,-0.032308307384314144,0.32093941226270306,-0.02338661349345099,0.1927648744549142,-0.002900526044328258,-0.2427340218559873,0.011949690571761413,-0.579952818610324,-0.5918448977400557,-0.5426972030480923,-0.013673740232471676,0.3102389291409261,0.4600471748849104,0.333887594805761,0.08339049650697804,0.23648465678708264,-0.04099071111118943,-0.3559123894392068,-0.06874808720374342,-0.1091534893243045,-0.7514460164425045,-1.164802812695172,-0.45766972486807356,0.14732178208589158,0.7549029692571785,0.20120854120102655,0.007550038228860779,0.224344286197583,-0.15973648108144273,-0.2460330901949514,-0.2806974484959074,0.5724710376344,-0.4476399201027129,-0.4161257021609034,-0.02004836697367514,-0.11514896448593838,-0.12484803243042356,-0.24940250053893498,0.1631388244953038,0.20897032199785232,0.1857418721679726,-0.2679071277683114,-0.1017506274804953,0.5913860271831883,0.09690638913223647,-0.30378660740677044,-0.1774824156981903,-0.20343137900085795,-0.5715933819848771,-0.5911533203935857,0.07365613108751769,0.22966540382242628,0.15320668951031347,-0.29269904732710705,-0.18265061826696405,-0.17934060250708256,0.2934547012082662,-0.2520666477692042,0.2119990416661564,-0.07925733583297807,-0.7495187361888902,-0.36429920194288634,0.0014562831199379884,0.19181934919354032,0.26143873544292684,0.5378515372846067,0.8801797716062076,0.7787502707574498,0.17631482505660007,-0.07126163261002046,-0.019663741669903763,-0.26760674036403886,0.1549970520684007,-0.4640437250529177,0.2248451147461592,0.19578926826438647,0.07058498915010959,0.09933994202653111,0.30961451571838994,0.24675012331561208,-0.09758688417685331,-0.20485360995166607,-0.24288663981208053,-0.5616567924846725,0.1442323566624339,-0.23055570983786788,0.056202031332154456,0.2195775692412852
0.2531498544444072
-0.04678690483294104,-0.06795268783690601,0.004521501708264287,-0.04633151109371236,-0.02145663895315564,-0.1760397498680874,-0.06875572204891185,0.02531511272485824,0.05708887419414102,0.01316068176464068,-0.011459749771361287,0.013384450822914352,-0.0016755931406468394,0.04177934705350747,0.0565138471692352,-0.12257877907007181,0.05724197976403911,-0.22203796291180217,-0.07247672709816291,0.003413785694218548,-0.16556469859216855,0.21293013913503805,0.08041916599054091,0.026681812638991786,0.021533970677805634,0.03418410155418071,0.060841162742081636,-0.022163295123540438,0.11470986796348151,-0.09525884828212158,0.04499811883955103,0.09829154468133991,0.11915396767162567,0.2502187621893024,0.14124104584919678,0.051025682658245974,-0.02967002861384069,0.0476387582037147,0.06864720196758427,0.24607740103258968,0.06362344158520901,-0.16163755330611096,0.04297813531697439,0.25281057520770034,0.2867899750273945,0.1404102430792658,0.09828625461339607,0.058080585507951824,0.017062479344416143,0.03891957340780676,0.058824865498605244,0.09170738775710463,0.10283096879927531,-0.08516346473599151,0.07614355013434645,0.2958467250175379,0.1264018061402994,0.12273091252310038,0.11129842428381073,0.03153665611359589,0.08663089955110895,0.09719723653638124,0.052521838744478036,0.03145685756968923,0.2711063655036227,0.11014950127600914,-0.0372846355288584,0.0311976793409077,0.028564239484950873,0.06235937401018244,0.15334031775750978,0.10465432499892435,0.04240467311294485,0.06018140014178548,0.09034848547584481,-0.008150424889615667,0.037077442621216275,0.30104526347210364,-0.14108793838156264,-0.08282722465211206,0.01946524515929991,0.035689709382891885,0.1613557720544187,0.07630426973850593,0.04223950541950111,0.06927896147953538,0.047086195507600126,-0.045186462781414694,0.051688698016169626,0.3074595459429638,0.03214141911789638,-0.1252007177365637,-0.025840259906589485,0.15079661714018805,0.21897909803765025,0.07178414672740208,0.1539087982041673,0.16969097846644648,0.05921368271768088,-0.10951457346890991,-0.07321139394446698,0.21616089247676384,-0.02850435380440249,-0.1040692844306072,0.02998177478533665,0.180515360087675,0.16899980322552438,0.12514773221730324,0.019180284088412335,0.15291785055082668,0.07278784305280286,0.0795507075851136,-0.03690117290728727,0.22769034758313367,-0.06200526657999281,0.02045188109748815,-0.16498451754130034,0.07196432654400955,0.20934736970029222,0.040294695891948173
0.09387087546941486
0.06364819433748499,-0.06896159882667893,-0.1302458409165808,-0.14445385299571412,-0.4663051593009369,0.11242266448346597,-0.2188284021947171,-0.5315551058292802,-0.582205551947871,-0.25775749244393836,-0.06509930316743498,0.11000606975775612,0.08368702395320474,-0.09192583139259058,-0.21385770913115948,-0.1641940605485917,-0.12133072206477802,0.3112098624943822,-0.13003393801658877,-0.4418161965017454,-0.6460684121520244,-0.6119825382995612,-0.04936696780565571,0.10707312492991058,0.08964690946106102,-0.09810966923749356,-0.32325946452553356,-0.26482472316858613,-0.3130940714202328,-0.3089899099708936,-0.12901667525728838,-0.46358190440031155,-0.6362007356741792,-0.41704311756639234,-0.06566968208235108,0.12536508929235154,0.02211715743029981,-0.029643937906972128,-0.2299155166459223,-0.24203568421047095,-0.090606657047239,0.05090695491716742,-0.17518367681139702,0.15991331674266657,0.04458701954483924,-0.4232936169350713,-0.015371316222242476,0.14308353028364695,0.1392879356207789,-0.09472028909514246,-0.21537869085856015,-0.39597462661590876,-0.42443594783957517,1.3221415370227039,0.248664615227925,-1.1628105126097608,0.16724265684728568,-0.42552475314683924,0.07992808488655945,0.15164897692528373,0.14809642344468493,-0.021667990672905927,-0.08536177749050547,-0.4572205100614909,-0.8020214229933962,-0.39695583220303243,-0.14978006727747195,0.41399484902440253,0.7637459351480922,0.16130968481535107,0.08439349958496775,0.08478252387635593,0.12125701369937969,0.00400183130067937,-0.1473281613211217,-0.1875037566183333,-0.9142940074745682,-0.7414916035731121,-0.2095342034807388,1.1178543978775526,1.760131143760728,0.6175091297778115,0.08567274399527047,0.0863773699831433,0.0983068086035076,-0.013363569841279477,0.14800718196698742,0.01944793734557187,-0.4894389269592409,-0.22484943922103817,0.12425617427526328,0.8377924672743442,0.6469185009073457,0.91097140674569,0.02780927000468073,0.1473993904415713,0.08971388190043697,0.04412875868835784,0.7675274273097803,0.40023820217816997,0.0369981062382039,0.3099739166673443,0.3029451399014482,0.6185982962272414,0.057018253384466956,0.04881025144933939,-0.10398603236443707,0.07650618457600133,0.1487455263607581,-0.07247998497366798,0.4845081681156502,0.6235843334949012,0.2354197191666445,1.5659025009733485,0.09275908617383777,0.17595146801165595,-0.3121174662417767,-0.5637831505124244,-0.029664662577251904,0.12518597276518753
0.11086590425254342
-0.06563644990346823,-0.045413570190229374,0.02950355800714541,-0.4555951216563551,-0.5836832659200282,-0.38403038495810726,-0.04020094609893857,-0.3468122744766855,-0.22948970802216195,0.14623219937727816,0.1256465035313449,0.17537023243944816,0.055764344067058574,0.21506891473705514,0.672720467792858,0.5302639422323513,-0.05759652936850408,-0.709541211007962,-0.08380942699623065,0.3353211885005085,-0.09991074210880249,0.2791208384297572,0.054193569823130755,0.1982591624481736,0.0160669906433323,0.06895274458233236,0.5822667038979319,0.6505186083815206,-0.025140496512382406,0.06102915369245699,-0.2281961591394605,0.6928905296930539,0.40931020828379927,0.008618356407323653,0.00291550429490487,0.23838193045380185,0.2541975678560296,-0.2767434479127737,0.028670264593455473,0.4359336254110425,0.35343508593629047,0.4391593770722805,0.1366750992589345,-0.3670387347318712,-0.29758538681946467,-0.04502872755422069,-0.1281456611971588,0.2812432007124498,0.2730594048915469,0.009340381872228435,-0.09211297798261012,-0.2685740173712625,0.07251128352260175,0.9813060071290902,-0.21134860745134798,-0.7169850313738164,-0.04715812206037173,-0.01719063969517054,-0.044894655700762676,0.27525648832643834,0.3153370250350094,-0.2728709583496899,-0.47908180640761644,-0.7385714765532394,-0.4633080213686863,0.5262221376523974,0.20815853462317652,-0.9210371174848688,0.24552500277021805,0.16633813691736354,0.07046068016897777,0.27539222199568913,0.18137591011495813,-0.09084332681666898,-0.5058585677748041,-1.259836234081331,-0.697016540395162,-0.1256652495979009,-0.07274924898523344,0.23659127617093784,0.3278357202862535,0.2899028077945346,0.28869607007751896,0.3268744285090476,0.22455182214820701,0.1446752599242357,-0.09442617201364775,-0.6406626636223294,-0.9326931984794182,-0.1285335405459801,-0.18047055061839562,0.27391461184642896,0.47331712113389535,0.3185360696856252,0.21816281315165853,0.29982771440546696,0.09547521330884964,-0.2730370315435532,-0.38889831226899085,-0.690362613388342,-0.020749075948325486,-0.24986421607317716,-0.0077435330648844445,0.490033963395318,-0.008627031640837448,-0.19425600965861,0.13087806133492208,0.27394905381757706,0.10164424793202159,-0.1720535787090064,-0.28589375376393134,0.05919825732111032,0.5273155584538024,0.24733863014715668,0.06676982127326034,-0.2675913734983377,-0.9420038674601752,-0.2411607307250821,0.1408873601928305,0.3315708893251804
0.2978844977014289
0.08182516036607321,0.11934339301543526,0.0859013819682832,0.0846087835945764,0.12135049491540817,0.10696826178089186,0.03659163349355731,0.17328825771460485,0.1393373292527245,0.08870413038967123,0.0977024823030459,0.1412157982346253,0.022187920679983892,0.04112157182452187,0.06444577388319464,-0.03213400819407409,-0.009237721641605781,0.0037359828063753867,-0.005763004962565215,0.10242163836605012,0.044743597760867775,0.1580701642457157,0.11041819661937302,0.17555770406349572,0.07132871581341349,-0.02350826055108379,-0.039152248941436645,-0.010411777644508275,0.05099077578386351,0.118575688567264,0.10435343066004088,0.01827542085909391,0.06552568473602574,-0.014769768868701596,0.07287442008940534,0.218829033967088,0.13220323137218534,0.0024711609155537296,0.02402055869975583,0.036093162960048504,0.08137069166365629,0.06730172979515191,0.08400752408639453,-0.02275324692117851,0.0443947190810785,0.031866994233713065,7.775970448063802E-4,0.23893121516581303,0.1614063623159747,-0.032836012744188806,0.026317556712701844,-0.02420953927679718,0.0010236764098114429,0.10367043525497818,0.06941072411328869,0.05556279819834372,0.0647804783038115,-0.08779800712738531,0.05001179004744396,0.2545420131684964,0.10090237867875188,-0.01136311836108562,0.04348029734925445,-0.01041483767369747,-0.043845828626374726,0.12270921167890711,0.06655316408027118,-0.03659699405984681,-9.39182360863343E-4,-0.03723033194841476,0.1334865959963363,0.1991145508514853,0.1527288192578399,-0.05555485067460927,-0.005622931544171662,2.542371656377473E-4,0.00223635202036278,0.14926841163179885,-0.09417960678639048,0.03175487180414715,0.029701770236785514,-0.09804845422748881,0.10394509249928488,0.23618780713847146,0.19303736074644876,0.03641492237956028,-0.024472652451358528,-0.051812507740087145,-0.04067398424295091,0.010325144077104713,-0.03807626160778629,-0.033588303440750845,-0.01835908267637219,-0.02776485555571193,0.18983305852738516,0.241138444616297,0.09376762316896331,0.005650840519073641,0.02997861264383579,-0.13220949516511862,0.05630066659699235,-0.06219548958593473,-0.027914448398577128,-0.006994817691376757,-0.00416401238780256,0.10499747034934415,0.11951906764103704,0.19930072029705906,0.10021188388604998,0.09214959630258363,0.08673858930327205,-0.03492816178953737,0.021949356177441735,0.006354905179331408,-0.09511069002834008,0.0063212228339335486,0.08859337953736277,-0.006136980350004942,0.19119029149915748,0.27844462245430607
0.281060780102732
-0.02482040734054695,0.11206509114598258,0.07348016317516357,-0.010640982884066067,-0.10838035562228757,-0.33382260668957225,-0.20906733761017932,-0.14573735382520409,0.08186956630086839,-0.07199974366098952,0.029348359730449355,-0.016681008419012818,-0.10152871266342228,0.28692029479936604,0.13535396952460604,0.1320738080607993,0.14071394801130838,-0.0921888992495366,-0.06554958555002594,-0.11172957296736913,-0.11639507047057482,0.2651613917381503,0.12016859971804951,-0.02956690238578021,-0.03256059072930329,0.12394553100197579,0.24427921282736942,0.07053288053238733,0.013465919262038065,-0.2909730048427788,-0.16044489779946974,0.06610535741756404,0.08735688409088974,0.2886851215220057,0.10818457806421125,0.01439417217927871,-0.01198549662092736,-0.01803727931333317,0.39906526753420796,0.25551222290003645,-0.4077882413185763,-0.39048688783783164,-0.16616862401592647,0.46838612034974686,0.3983470150869238,0.2919135176283146,0.07574283950319799,0.07685556145548728,-0.046401008407023984,-0.00983009715512093,0.24366534068686602,0.2317679121500485,-0.3929197193030553,-0.5760688203083186,-0.05327662723654444,0.1686789403476473,0.4248115911208254,0.22104080319385416,0.06453828894206068,0.0681034451257368,0.019098937095052875,0.014679018846796808,0.10617789648395029,0.4824150786596993,-0.003964206766344679,-0.15803873213086916,0.09609896512866972,0.2605746065043331,-0.20595094996209273,-0.024094150539221825,0.01056157258909789,0.07466174718552082,0.03317135932517482,-0.034653717113360266,-0.11674198113388251,0.22630026605512066,0.01251829512522045,0.02333678476761451,0.45404550521743764,-0.013426777884250639,-0.3910316800644201,-0.11662813211446255,0.10501547762700239,0.07732603762624751,0.05151628622912623,-0.007477052574175451,-0.11909792675801276,-0.020760262110176318,0.07579150251911462,0.36842833235802447,0.3933197619224101,0.19083320129691433,-0.05912694157540268,0.04338878123932117,0.053713531990565534,0.01814591831054203,0.04426398805543546,0.11089576969037532,-0.2855148547070942,-0.16562730447918694,-8.956189118826258E-4,0.02269409368161557,-0.15969246729939207,0.04165447910918909,0.29545745744603474,0.34369492458897716,0.2139416402025075,0.08265593201610907,-0.013594089812573193,0.10658655596144212,-0.08006084819467252,-0.2816103958801956,-0.3551458465643676,-0.3320805222976218,-0.3706707853824614,-0.0195922979787484,0.30577730993654534,0.09829207213583746,0.07541947501539337,0.022034715998429013
0.09799116929601945
0.016235834806099896,1.456827544307527E-4,0.006719418225459416,0.002557500107063786,0.014637004118146313,-0.13931150399992004,0.016272160428792173,0.0832309595337133,0.05852446212147811,0.030338629323333515,0.007916837155852412,-0.028251920149998482,-0.011901294247769105,0.04265248829672894,0.06465781464640631,-0.013739668150631818,0.11148058575081209,-0.15233637337693645,-0.04851003098321554,0.017617260412202063,-0.022339820367401033,0.1660562673307257,0.13148640951250545,0.03255266640043384,-0.011153834440640798,0.040884042280129505,0.06712746238823666,-0.08653667633162153,0.14316675297079784,-0.03756594169997796,0.03751948796518601,0.0630571612533201,0.016865553445634906,0.2327785574724312,0.15274251459693206,0.029751288705482118,-0.020626137942636884,0.10547001320942291,0.06140297331914348,0.1537277055869517,0.03643601974850386,-0.12092518770140089,0.019334357825143294,0.07599528530273512,0.25061726776088267,0.17481190403578123,0.0856756016591783,0.11065689395939947,-0.02343548038747684,0.10509558531633313,-0.02991537330520658,0.12785464379881817,0.08865920653273741,-0.049279575134783156,-0.025922971687870795,0.16877947730928944,0.16605846201429886,0.11283495548361085,0.11546082102737719,0.0768628798912838,0.04370552579118526,0.12121674818384613,0.03727600012914448,0.10935276152984472,0.25672634430322233,0.0803769988204734,0.003378609627046759,0.03627120017206135,0.13478992788578856,0.03149480396285754,0.11044839402412522,0.04715560885274641,0.08372974684262204,0.03347997530774038,0.015930344443097245,0.02824882060485107,0.06746936913960129,0.22331990214587238,-0.06451556458351432,-0.05367168794394905,0.0016331417091060554,0.033137017896532,0.20245919143038787,0.10898921878876187,0.12701056197619165,0.1162553332683842,0.016508856810149217,-0.02015695369630242,0.11298597306705029,0.312381684428229,0.034046232372964856,-0.19225420659800402,-0.08675860873903772,0.19799642590210076,0.12544127854917309,0.0665053594532884,0.10399201870976728,0.22777006295735241,0.011767262845833704,-0.08232939028307272,-0.07200575759382002,0.26568999556679507,0.050910053494796194,-0.1847171772506297,-0.0648774834286645,0.22132296708521332,0.23210697049072837,0.09559092653175176,0.05421294628282718,0.21913625880226284,0.03445252856135698,0.03601803758848265,-0.005869458924956546,0.15806775713453514,0.002170681150185478,-0.04463487649960073,-0.05719925464994947,0.08477086096520854,0.2169086490018745,0.09842819410902524
0.11520334908846051
-0.05362513632606571,0.12486620857720344,0.09694560079701567,0.3944137523341374,0.30938575566388066,0.2540037158454244,-0.13543198858785546,0.2560788806892464,0.4514255938020835,0.1345896014752768,0.12838261151969413,0.02955653545053565,-0.08154208884865452,0.4080656988029708,0.8519729793313583,0.4232597628286175,-0.07476387569370968,-0.19571823804587926,-0.49075515757409544,0.028192103938307077,0.4955102817327464,0.31814482895606605,0.2415621178406165,-0.025836171338896086,-0.061101722235152166,0.37233256687306576,0.6644230517351403,0.147374247785279,0.055929972417084035,0.18129365681830392,-0.2480985948252631,0.15489426791820585,0.4588339412563643,0.3591873287619018,0.1291220048266337,-0.006876276599982434,-0.10097516910833668,0.18149623498464515,0.379223983875524,0.04811368657766286,0.01478471121690279,-0.1139629287200942,-0.2343436195650195,0.4112002970638446,0.27596621193463994,0.36593841645980046,0.17453229322574118,0.028907123241003616,-0.030927738507961097,0.10856365038851029,0.22046880449577208,-0.05236409881552618,0.034594247036812346,-0.19476783071849155,-0.11248730471642557,0.18904492821343258,-0.06916035296973716,0.39073730050309047,0.12082733541323329,-0.01401969241347014,-0.06297039016695276,-0.046058086667722785,-0.21366839797009154,-0.30138783049497514,-0.05762448819270976,-0.002951767532213176,0.0941354010297917,-0.33419700684041437,-0.40222485537226155,0.17122391955530922,0.15050798126824647,-0.02094911583972842,-0.005175920848522973,-0.05959604069445528,-0.5835997234993605,-0.320609666582971,-0.050352249807305675,0.20562887100174818,0.23299565894151805,-0.38094977970160077,-0.03630296338924687,0.12698344918449164,0.04694562757952594,-0.0032502042958123243,0.043216636206130025,-0.11800826966284919,-0.9252859065433702,-0.18882902740099497,0.36637837148664826,0.8647426749953658,0.5386434907684596,-0.1216817990831511,-0.06717985373156704,-0.12877707016169218,0.10662120107689829,-0.0028375643345842534,-0.01343814890676464,-0.24915228694622618,-0.6756956272172846,-0.874024310677607,-0.10167351133680821,0.39810201041566645,-0.09806968707274707,-0.3987379839208148,-0.38234475428890197,-0.03540396311262544,0.010361820683916514,0.012128506044423382,-0.025067499489041977,-0.09071255052902269,-0.32912499559180247,-0.7005021911616022,-0.028190853226163864,0.7058844949454995,-0.05502141024423609,-0.018348554438787756,-0.14414727101513744,0.4031453779787056,0.08185871152842583,0.019662446148763727
0.020533861490053523
-0.013071251857727013,0.04382021910247552,-0.04837738199844886,0.29229835363313733,0.2188488327890952,0.34219825909112206,0.16305884526203426,-0.014732406139800872,-0.29171252908123085,-0.3664823566374961,-0.1165004863229699,-0.012785104354628214,-0.02447557238545412,0.06851987453940418,-0.09065763319100482,-0.17899999638022782,0.2619379061861246,0.5513690817877126,0.3763839631989218,0.20521728415486215,-0.24359769203763162,-0.37183884054740285,0.09329426825481142,-0.04105574114338256,-9.131436591263298E-4,0.14470604189690764,-0.12113993281084141,-0.2810139892470547,0.19635427038054673,-0.00987056015513774,0.11905436585593103,0.5281210397788894,0.27810955732368386,0.1705390433002055,0.15721590102818675,-0.00893149083475971,-0.029664292661742406,-0.048436494002994546,-0.15402884728471608,-0.0597868527189286,-0.13278755071614903,-0.16659517103978863,-0.019270455098371816,0.9203643309244497,0.8301202991706641,0.37681192903298716,0.15476733835513576,0.004874099020091985,-0.03695924094949089,-0.09408872012806353,-0.32671116298141417,-0.0203610282567033,-0.014587470293951764,-0.0027380541745705986,0.10805211136907063,4.4702787501798706E-4,0.3775492674688377,0.2448896012035722,-0.017086492362603227,0.027368889837943923,-0.010407604477497872,-0.08601287858784536,-0.08179035802752406,0.3019794372077928,0.06433665996364192,-0.1981618134379208,0.07737963863052445,-0.2159004101880365,-0.1716440735829852,-0.08621451763389233,0.05390187730638818,0.04129672643460948,0.004465643548216058,-0.14256048337752567,-0.020407222064986318,0.2590251104261339,0.16141008916455044,0.2540920494181305,0.09574571750592219,-0.0609360162017977,0.17567321352006934,-0.025731194624794944,0.1192877290292071,0.04475922848446463,0.08521392672686019,-0.2794305172033602,-0.18418484881161598,0.08951508200820914,-0.21234873862478884,-0.10361239234105209,-0.10658717044464051,0.022421028736042646,0.08046766460912684,0.1967831196412487,0.030124353376842584,-0.015447860310808791,0.11321079409298403,0.2927000692750525,0.11124324779547616,-0.1635393141402173,-0.20077725465391713,-0.27270705378968463,0.03324966178725036,0.17883532037030223,0.09746052300947598,0.04720076332755954,0.027541066225783832,0.016633780821062337,0.042826462122158626,0.14845838560499072,0.10051269983006379,0.13306681615121874,-0.09212327299200114,-0.044007849025228876,-0.17786199487628898,-0.06294719459324216,-0.30068703985608,-0.334592893436434,0.14247252465159496,0.013022841668705567
0.07351011845835244
0.24787912417546326,0.234710106986795,0.2930199638991324,-0.10626690827592811,-0.1086016027974808,-0.618740016361775,-0.532406025103712,-0.3368784080671647,0.07339039138125567,0.36836432551448534,0.09444867072788421,0.1328444620649169,0.10847367083115556,0.3796291964677206,-0.10406760684812003,-0.4490388807267814,0.10465414432838016,-0.524846803961902,-0.26771464996120403,-0.2451700872456023,-0.18724702503837054,0.14720594923373564,0.1187449751402985,0.14842104675030132,0.15367607863923577,-0.0765949573469965,0.02689000357691851,-0.011965120243409936,-0.24035651456759483,-0.16221554525579196,-0.010576994918487606,-0.07045897595025213,0.15100412455171158,0.38946989692773576,0.37139837866255304,0.17431033746905666,0.2390199501770856,-0.0939233431911822,-0.1331785912991041,-0.4525805426891664,-0.37456700269775073,-0.6925498599643148,-0.23811295497941526,0.10183188953072844,0.5929278890948385,0.13485542731405292,0.11194688381387838,0.13644618198606184,0.19695403375852727,-0.03797825073025482,0.0542968914212929,-0.059476251079116416,-0.16873232818280592,-1.202835936770632,-0.3233236660142354,0.0613053038347884,0.45600794362379066,-0.06585961562477657,-0.07487739614844913,0.14141878199306057,0.20982280013862425,0.012224483476668041,-0.19559790734105942,0.4582344830379598,-0.06740078926255133,-0.6389648966100395,-0.440873628532968,0.1486852513001558,0.32155465736419825,0.06252145738744397,0.01462696201143948,0.140977554794816,0.1731829009224985,0.046563093328176014,0.16619138764354713,0.3748900117315786,0.14825850558966702,0.09031173090804975,-0.44782661901668747,-0.3688882228383165,-0.03494094193064812,-0.16691606540788295,0.15867491495995423,0.1811888908992595,0.144152855340489,0.03129651533933688,0.15006629125518584,0.015948685429295437,0.06042711721977678,-0.6194858075589668,-0.3661532148061582,-0.5182478132851411,-0.32748269111017164,-0.4943418456024084,0.09257868609219927,0.15170296609961031,0.23898940211929737,0.19805526151386382,0.30047162908812736,0.22510118393311057,0.19906289158919155,-0.14651693101405489,-0.15895751041906536,-0.6097317572865993,-0.5535692667247737,-0.5899137688026151,0.1957497902248595,0.13341810410214489,0.14287274158860613,0.03753069018476163,0.03049681041101006,0.014333249333728091,-0.10154416770873645,-0.5296329313972009,-1.0405626583503453,-0.6948295555682654,-0.04721431301880616,0.001951007249391708,0.05683726838004555,0.14626748460942873
0.17107224255162856
-0.08691544780420023,-0.2838464107293434,-0.9672776721827089,-0.471695778152,-0.40364697970493907,0.2900322862453612,0.5664328371636885,0.23811835407155343,0.6472549500514201,-0.016274196587979694,0.024600993041860263,0.14301222675116784,0.26366884670981,-0.16084055963892271,-0.7521217981355511,-0.48872836338669995,-0.008927427408401935,0.4371470756285774,0.31117289275436594,0.6923533511739836,0.6508193780483972,0.3251572831752985,0.023286273997032824,0.14677037042319666,0.28105598914626134,0.2516645565892159,-0.24174105897090195,-0.11280034361546303,0.15996023331866613,0.2764881900290374,0.6897700979265308,0.26563529505779176,0.5331768884803195,-0.3430898492103967,0.029781620270147868,0.10133003465060607,0.21106906989396043,0.24787355291718752,0.1227050937025611,-0.017639184330903012,-1.0233002623647682,0.09957078637655085,-0.45741622596626114,-0.16060051962855873,-0.07024456371298164,-0.2269309182001689,-0.05889683702624556,0.05767726952001694,0.18064342691347726,0.49909290415527147,0.23661706324533013,0.01182905042001817,-0.4295299388493838,0.38594212154630364,0.00494659040749937,-0.33528892390339543,-0.11725324201898053,-0.09464652171679828,-0.04411200386413212,0.06738797911945864,0.09450638562856938,0.547534516345291,0.43978365432066263,0.0497034842547868,-0.41365781537245455,0.4518910654401203,0.07976894890284182,-0.10875816263370004,-0.430081056436834,-0.040033044506231984,-0.19253602935142064,0.004539416225226462,0.006063274530748874,0.5503104040876908,-0.08368330677714246,-0.36306715126994754,0.017674466823855636,-0.07194840357003941,0.03572980821655342,-0.5316122323137851,-1.0987525586334528,-0.3175775068356555,-0.16452257324573163,0.012785213697836525,0.05226334926429451,-0.036330256242265484,0.12683620599617731,0.34461355654611064,0.23238716339968327,0.23931981694561824,-0.141030134095222,-0.41608403381363873,-0.11181404978548289,-0.3315011582197522,0.035835574102523186,0.0704638495543151,-0.510488375222686,-0.5073144319995886,-0.5808619994834535,0.41152088170695683,-0.10288131088782386,0.17467600779849105,0.4028076434911349,0.640379471506945,0.2849189952894909,0.190553776166604,0.23349377843131122,-0.010186737411126356,-0.20555109499241161,-0.40218485859086267,-0.6686458606698303,-0.3854604345528317,-0.06748761329978788,-0.7618087932486501,0.2001569549885374,0.6317711724079859,0.5591491761522277,0.26158440660789145,-0.06232544395115273,0.04939552313180554
-0.0036335114047525256
-0.09375644022413086,-0.01058044405385304,-0.08012274153706027,0.11211092038913602,-0.13340083886015056,-0.007374077571112628,0.3308538111467296,0.31275410493821754,0.6396750608054614,0.03996918643944528,0.07849099241966813,0.05033004228938955,-0.10087165515610676,-0.2926652588647065,0.22659277182667584,0.12780249144843847,0.46403833111831627,0.42103428170229784,0.14025736424861676,0.6667998629936669,0.6832334437100178,0.1368232562885445,-0.004531381374071652,0.029580700751740074,-0.016194558689742018,-0.0681068091417605,0.20452867503549274,-0.19386727067400353,0.5104907317130805,0.5256664034113606,0.13154948524864876,0.34436140406426297,0.4989646580946743,0.27834883617308337,-0.052807764365173794,0.059463068724354855,0.0049746016995765585,0.030197387426829207,-0.00867766031062849,0.2852983647001657,0.3284213808281309,0.10206983732421902,-0.4426562770888236,-0.3133838082516721,-0.01106196610733847,0.1866838686545109,-0.15178772324062365,0.15620049861888127,0.032406154078037396,0.08986789716621864,0.1812814867087745,0.033805903947204084,-1.004789559235935,-0.7373325096581078,-0.9244970328757685,-0.8354291084959473,0.07867503110068154,0.36830127737492613,-0.10386840302558235,0.1392849524110786,0.02316977018636876,0.27222860979408225,0.4830185604153935,-0.18385421342518768,-0.5930287265762773,-0.685688829279719,-0.32558514893406587,-0.45823031801398595,0.257749629506069,0.3239556896463063,0.02008924125398274,0.19401382043846196,0.021740112783932217,0.3579123495874208,0.25898332284092973,-0.2071230046393083,-0.053509456267032095,-0.37697914758632867,0.2501913367075226,0.15959063674602444,0.11040005379098032,-0.18296301191795963,0.10524929673424284,0.12437843506822319,0.06877442626200149,0.09092809041228701,0.049507100874009606,0.07367871920526771,-0.09668780830216357,0.011211328123347524,0.12021756772029353,0.37931964433634113,0.061309934048922404,-0.15059624687822162,0.08839105624065195,0.1264094403169322,-0.16114879567177107,-0.4075305758944473,-0.7775476400783059,-0.3869372434861337,-0.20515316682065957,-0.029018350601464182,-0.3412053660604568,-0.11181266541663944,-0.10837027892521921,0.203787250812591,-0.027414049347910807,0.21926204861112872,-0.0415661511166324,-0.4319798731629998,-0.6378988301657222,-0.5987940400920273,-0.1068026358144676,0.3152810441525966,0.08841486530090469,-0.33392062834790925,-0.31786918816403387,-0.0312207706106026,0.007157229872800264,0.1899889079516485
0.13695400834022967
0.18360094738529564,0.41837426649533593,0.7317918817192574,0.42058943982141916,-0.13101526200632377,-0.5574670156720248,-0.6875019508875616,-0.16082447816529244,-0.2577106384868989,0.22484907708046842,0.1397873575497735,0.1587797486666122,0.06519543083837796,0.01603714029082166,0.21004939428609815,0.09692633232127522,0.0027806536510820595,-1.0173600005585253,-0.42557341315251207,-0.4993637502008572,-0.016128595156813624,0.2867538321463452,0.10905610765767772,0.12946970752767106,0.1204365541085662,-0.15578610687161382,-0.15930874946489193,0.13043122660615855,-0.5223100139665046,-0.9485868864148485,-0.606471056479495,0.1838162888419338,0.10122273274528386,0.1974669356180342,-0.036661831488581535,0.1010898111557789,0.1078677791712943,-0.22742446560932456,-0.3606273314350008,-0.22445484987260245,-0.5024206367670734,0.14850632207840841,0.5316105733294912,0.9019665521479946,0.5369095634153193,0.09143619498220594,-0.10749678160689892,0.15239511044746323,0.11024721063783817,-0.25521923155123794,-0.24126171522824874,-0.33449545725032437,0.09361081285677007,-0.6284402717437946,-0.3437955427692452,0.36155225534978497,0.09138189158932049,-0.12147225542250141,-0.09279594613034804,0.1500024531901542,0.11600036503498763,-0.16803685166997434,-0.4179989826071967,-0.13708982572564182,0.4472487283932558,-0.2627899784308685,-0.3022410054135235,-0.4514664863565907,-0.3243597518655261,-0.011637143901363676,-0.10432347559053422,0.21320427253106822,0.10213757318105564,-0.2866975638959782,-0.2352196859121528,0.19297111460851407,0.7269396085945484,0.43966350588441405,-0.5704772058998698,-0.19218308840510173,-0.24656785202203668,-0.4050437386477439,0.008123240616126836,0.13441178334455928,0.12359439431813048,-0.2695598158129572,-0.10148443738223174,0.1567454082421776,0.20724070990734117,-0.22198657445249198,0.21442674502844106,0.0951887105092744,-0.09573697329423823,-0.3367079833663953,0.018343225101746425,0.15756154094861335,0.15736079123637337,-0.055657290560706375,0.06666043090624356,0.513250219601595,0.31380638889056234,-0.2417187116882501,0.035806227343579834,0.5447704664265386,0.10684866180953477,-0.2475247706769974,0.18303685967329464,0.1858359038631357,0.0546100834350105,-0.1026969730104663,-0.2926692226416352,0.09822109101060868,0.31927374215026294,-0.7649862388573437,-0.25898885505855096,0.11436478860320147,0.20782346899121906,-0.0705783159179368,0.10057566063975472,0.21627252126010382
0.19685517575607087
0.11425230865639573,0.0808262518839276,0.03471680340804367,0.012706699361208235,-0.015538907965859956,0.022645021412186148,0.022851706946536494,-0.009887619824928386,0.04236552029248997,0.027111314888237585,0.04054222949210404,0.10114028924948483,0.250226660974245,0.1482947683979568,-0.036266818029230985,-0.12063435177193453,0.01877492091232774,0.04696281993230121,0.017543595872996857,-0.07699428696220913,-0.15593143643080393,0.011731116890931505,0.19150351085222495,0.1950817669017827,0.23174793193391902,0.2232333245294995,-0.007460624189075873,-0.08534579830554624,0.043597008475418836,0.09326140353699676,0.12934122968777,-0.07599415622696377,-0.14555141419899875,0.018630595984683078,0.13880105873505472,0.1653063765531454,0.0949403832711379,0.14607403273209524,0.019754084805670355,-0.13233320332588955,0.1289041609114732,0.17135029690008602,0.07294175527258893,-0.10025512382288405,-0.034084008699921245,0.037285349288235944,0.1649645441234704,0.17315520019868413,0.08912307200192464,0.19548108842633244,0.11987994081377833,-0.12088024564105555,0.09099372810502547,0.09312700274596826,-0.011212642142103813,-0.04951650220961448,-0.033790030467292675,0.043797556086500836,0.10997527353976196,0.15436180232360291,0.09065560058845666,0.18986346887283634,0.11452449346309525,-0.012444245083568714,0.006188860426692719,-0.018334913303729328,0.07327183106043493,0.03602140837698731,0.030806855830869277,0.053942286942270004,0.10981442474812804,0.1466641147596423,0.11432983110310492,0.08631843697642809,0.013876956885287301,0.01121219721789916,-0.04510937511607016,-0.05901516015586357,0.042219402408853815,0.12969019474725357,0.016735910249116727,0.06885535730867938,0.023495395070469258,0.09119147741393534,0.051410404156197353,0.07064393010952653,0.05285754657567075,0.04643297143361698,-0.025355863622290725,-0.03928894966077007,0.0986221357550116,0.11425261855600881,0.011761699040323745,-0.02114172789721873,0.009738178695163219,0.13644427877694476,0.02084392568243241,0.014837515062805291,0.07736550009065728,-0.03302668396975264,-0.08276765272814197,-0.14158475705827633,0.018011088647110145,0.06253918206583249,0.01871882017944835,-0.0055829927362207555,0.043121153508556845,0.11012270812166229,0.020002117668702975,-0.049960397277839574,-0.0056019115195320756,-0.02093167299265169,-0.01876748667140321,-0.10792863289408751,0.01852532511677775,0.07770201959449809,0.08910530673856366,0.05074048950236271,0.014451946269741417,0.09667188201845266
0.0894830633045116
-0.05849031390168631,0.009221541751152725,-0.23210590507643544,-0.42879496583633886,-0.25922791646104876,-0.15068081070560038,0.07834548505934219,-0.12822225313467372,-0.008013734867243024,0.20453971791066036,-0.05064162589048478,0.05345435326685494,0.043436100290674184,-0.14296073163640569,-0.2760724460814648,-0.2700597452940811,-0.08097757685192913,-0.14381956645134866,-0.2412394530380089,0.18239995140321533,-0.29303773531642147,0.21893622360891493,-0.15222090047494194,0.018138627363760398,0.013188283702979637,-0.022926068506272008,0.014154283580110486,0.03783699919994746,-0.1958908912281486,0.1403733452244614,0.3775391666112882,0.428043902862197,0.08480890415253517,-0.2046133601617717,-0.30372074653211084,0.09276624799680275,0.01504352549958513,-0.053039671479036946,-0.22302210767871158,0.12982732079336864,0.277054222393655,0.9272916525921775,0.8447911409343754,-0.6961337844952853,-0.8202699119422732,-0.275918503183946,-0.3442758301815188,0.06397115016936805,0.04623182330880958,0.033328777816909974,-0.20000439751673613,-0.0918222721402139,0.10748949106241734,1.0959473252390783,-0.3221985202162046,-0.8822934961207036,-0.5934632992157967,-0.09857999884713545,-0.07948169682758974,0.043527093001182224,0.09121064044712829,-0.013358017200044986,-0.3717438279189857,-0.6737220521950311,-0.5971756242674715,0.3707370346124366,0.09718475938878723,-0.9986402152331796,0.05611025033970368,-0.033203595553391516,-0.05589903261208663,0.07726918825774798,0.11052763457763143,0.03462458867302058,-0.17768229623987006,-0.8638573263542884,-0.3282368628119457,0.5368591622723196,0.25946075988542044,0.4333447027313691,0.366068777568005,0.1661241062716667,0.031459436050074924,0.047430257432667,0.0477519837358142,0.17673346607037962,0.4566931639122513,-0.22885037110667436,-0.15279867979092351,0.25784160253101923,-0.06030545586655811,-0.007899326192323983,0.4583377291662409,0.0752787424201565,0.05369975783493332,0.06067574177194045,0.003734198132555053,0.15515239469753736,0.9249104080096042,0.09149437477413863,-0.2883483218780714,-0.25126834402682946,-0.5065753139955587,0.24412901576057397,0.40386902214644044,-0.0022612565344823444,0.013664014247162263,0.09968835974299542,0.2879936541280557,0.12359687828678448,0.3008858287411709,-0.1860284143842533,0.09743039201818524,-0.07850251711789788,0.13055738887709248,-0.11955446691004121,-0.2094024300136951,-0.19960069984797404,-0.012736926339465536,0.12737976342176602
0.14085050786283224
0.04250317408635219,0.21193622136706883,0.12218510272041615,0.010384056807722067,0.46200027193499626,0.1563245756691096,-0.04931932287606596,-0.0955162704986895,-0.19798940380762461,-0.2528239173743572,0.14213440134821895,0.08858369486081923,0.017315827801229984,0.25988409422005176,0.19744343996094013,-0.19167019570897278,0.07505976227851478,-0.058656395441784755,-0.18670080894268107,0.1563521177861322,0.03484491332849341,0.023888389157707662,0.09848255400680882,0.0172717260486177,0.113542159855981,0.285062290130226,0.334700467339044,-0.04205756222068437,0.32977105474987356,-0.11519325621485195,-0.025046141531099422,-0.09565014631190079,0.29340578584347254,0.25596971228830534,0.2750053658425038,0.10019050719766119,0.06856985219889485,0.025930515023290142,0.15774117772243987,0.33719241165375713,0.2491368868513145,-0.36636357982856216,0.4340930688993748,0.8884048684537018,0.8192187554881121,0.29406668571071237,0.20467607223050618,0.06966019871765809,-0.04078321218919271,0.020476154521307202,0.36446998241208506,0.3257392866058213,-0.37666392999489984,-1.4417320162218288,-1.098656331279729,-0.47576720812257545,0.6378571483319846,0.18423307462342728,-0.04558320864610762,0.11111335040774577,-0.09301385717359194,0.04465864763389326,0.027420715053735285,0.19947758660817913,-0.011665800940445921,-0.8802067057073897,-1.0506820192141038,-0.8871091935470252,-0.1265658474719389,0.12188343345365042,0.0712388125527353,0.16759962770439554,0.12388831962334249,0.04234366909439805,0.1702198406637415,-0.012339871002701222,0.17641377081622964,-0.3333948599735804,-0.7923470075422767,-0.6244010351626399,-0.7091295399398381,-0.22278576746928533,0.18290053508305884,0.14757892721276214,0.07631520065097368,-0.04830902283699425,-0.2989160275067916,-0.3423519892752248,0.38717171292637975,0.3931060613248748,0.005741347350080314,-0.23103100966221427,-0.07140915722276213,-0.1659928454794051,0.15657855659017642,0.1048551678923318,0.09664155471935211,-0.10647202698623577,-0.23213902998407562,-0.16486574655693462,-0.00404168279349009,0.06823093861540887,-0.3149337264655371,-0.4196134045473332,-0.6144138522211693,-0.3881333233548928,0.1557374423228647,0.10476537594495135,0.09932712056458802,0.06201427632574532,-0.26049048187433466,-0.3459288584546044,0.18553425680286736,0.37286222105980626,0.3409672980248316,-0.782757815466701,-0.5725589672706675,-0.31710313438793314,0.17101475274103647,0.1371337133079942
0.1677948270919631
-0.017450234813908973,-0.03820145482994246,0.07625023183504147,0.14090610959925665,-0.11890946438917681,-0.07526335133472294,0.2054992782143546,0.30345314718077265,0.23083433023999822,0.13750923920459612,-0.07605360266206264,0.06677404960326953,-0.005690386783742202,-0.06297678328339915,0.08159650818926721,0.013606370359999741,-0.4106598763775742,-0.4471576857548719,-0.13127632470663003,-0.053368977625431135,-0.0948413989078682,0.17666449440931392,0.16748610291854138,0.01657344848415349,0.061748269571798936,-0.18430715178782164,0.07092917550896378,-0.2307673695165242,-0.6422047121209312,-0.15009959860634875,0.02409844939759689,-0.06669633616871591,-0.2360683611913415,0.02170731823384248,0.19981504691445473,0.005686258716242716,-0.055655477152406735,-0.02559961304307416,0.08561881756395258,-0.12215001806766267,-0.5174265536799355,0.18338415057666124,0.3943834802247985,0.37216800959094865,0.37290002229875885,0.29985010015675473,0.20407535512166763,0.06453141516463125,-0.1316663829440905,-0.07864114401727947,0.05922452809163728,-0.3520375933999408,-0.28790245452530316,0.01558146859394672,0.0489695061845862,0.12749342935932345,0.07386574744872763,0.4769490591631036,0.20267770298957022,-0.030824622446095164,-0.20679187236895025,-0.129783477103592,-0.4387530223165711,-0.6154286566150743,0.0063376555563957205,0.1411648935626003,-0.0931584507322777,-0.3858334218095517,-0.25668529467634926,0.25651086742685936,0.22847491372513856,0.005164139239555282,-0.02722925831351365,-0.3569832666558005,-0.2235138352284468,-0.32444401413312773,-0.10701260933932953,0.40356391285196214,0.36579360449591247,-0.3210619879568575,-0.09196873832801304,-0.10521576908979245,0.021074790175120626,0.05340716953706991,-0.031062195392425725,-0.25455536743318286,-0.569837463147988,-0.4138570209128718,0.4349941391094354,0.9313060269597363,0.5740138747761957,-0.06031883230362116,-0.3723720659709624,-0.19777975667502945,-0.012778279568151429,-0.033237531614734306,0.06494904423590737,-0.05836231588518116,-0.30033882681478474,-0.5320846405903427,0.11438257251812213,0.20670638254836665,0.2140420931239792,-0.586801630657931,-0.38822214700088986,-0.2014879581894074,-0.006771139981448824,0.019958779031072443,-0.15056658215237767,-0.030867751426651664,-0.10100126956755838,-0.07186957461759387,-0.07410834993104988,0.3892621706649194,0.6624401014340765,-0.06988040401405539,-0.052050760109700986,0.599771125875184,0.09900141657865606,4.371068638601601E-4
-0.005739761674236987
0.08471401241938392,0.10319255606913236,0.07033428888251758,0.10597844591889857,0.01577516468570071,-0.005515865640195983,0.0021323016594435393,0.15843168649650236,0.10848597619236669,0.057651427455993,0.09623627588668657,0.056804069895120005,0.05899490051309057,0.033901575263845574,-0.04304362395376059,0.059491826600687386,0.011395384724872566,-0.12770560040669432,-0.19980933830071335,-0.15528650137423872,-0.1524650302161777,0.044147307579571485,0.08189602516020106,0.1319286078897321,0.09368042716119321,0.03574691758743108,0.11642553867048513,0.08728035604819931,0.08035444066108227,0.11672430707774023,0.08081141071125283,-0.008868715613884748,-0.15274944242491156,0.05414355360415926,0.09709664975861745,0.14598289155864647,0.04767265123792365,-0.04613452809075534,0.16579819579726174,0.07566910026339357,0.028623195770476437,0.29684560725910497,0.06238635795458898,-0.07547490902177001,-0.023965456682092524,0.005342188496635581,0.04285679371123147,0.09117251238606539,0.006401452951515386,-0.02279715221496372,0.23042338028580428,0.01106668954950369,-0.03427174174226112,0.38842870397434665,-0.15924407327969753,-0.22102897859668869,0.04591724348496058,0.08332322814837168,0.11004608106130068,0.10554496720368212,0.007857317935303098,-0.08319851165659667,0.269807759053814,0.08300438002346297,-0.12841623037868874,0.030328338301624035,-0.022117331877692742,0.07338696919354012,0.09260179730786147,0.021604609725266892,0.0999206986670372,0.1424479697536304,-0.015366768674600798,-0.08703073910397988,0.09511065977508709,0.0029014688157267703,-0.12139015913073686,-0.01919257860178667,0.18154591740729709,0.22127253706639166,0.04488878263072468,0.030853156499507435,0.09205602972458163,0.12904968000590733,0.02145174367461658,-0.10624517613180098,0.07143888317597852,0.18791946383285757,0.052745504789911454,-0.18260864626529377,0.1837025212832853,0.2480540671691996,0.11683176587637523,0.05027535006171012,0.007553119048566394,0.12037658861769926,-0.067508590399766,0.00637484093699593,0.05837007145455535,0.11771172732988769,0.001164830456816784,-0.21760327825590353,0.17817976805727564,0.13693354681005027,-0.010800946169316615,0.07263331810430793,0.04795931506260584,0.07450828651814817,-0.020840011184020138,-0.1525327451743721,-0.08278129961597722,0.05987182541555794,0.011704937401945996,-0.11604649488499655,0.04498612110496067,0.050666755904974506,-0.0397142703758432,-0.082335020696611,0.04696086823840939,0.07894512803832793
0.06388726684128207
-0.11977934548332926,-0.05051874378947772,-0.08357931760498015,-0.16345380533519066,-0.2326627227398268,-0.42406396849152367,-0.32167398039207834,-0.24221633784205993,-0.10125152508341918,0.08959672700305953,0.07496408280255572,-0.008381980424215769,-0.09783279759548276,0.06859724202304661,-0.07720886989593793,-0.23962150768841334,-0.11692020350982534,-0.27512818104519515,-0.2775554893838641,-0.13867108697243175,-0.15756577610789774,0.209995493988949,0.13273130125283644,-0.04766220683548963,-0.09886186252449868,-0.019933892999651898,0.01600503223560895,0.13081990468219667,0.36630884770580535,-0.1291659238511148,-0.04917586353250895,0.2676144931605541,0.11577327504240449,0.07204544619330107,0.1222135923510579,-0.03473526262999393,-0.03622349410921035,-0.005578586327393941,0.0768035084290306,0.4275557617371208,0.4560947364062619,0.021736518046989513,-0.03395283187956203,0.3168980250447872,0.47714082968802624,0.16180915447474598,0.010766598753793025,-0.013055160712981713,-0.016510960072410548,0.1038987810804967,0.2516253177287197,0.020905467574162333,0.1067548018183788,0.23022673426559065,0.22552962166692592,0.15230692832353127,0.39670531566408146,0.12342038185890576,0.06821748199587481,0.004215619233354146,0.01720850770046515,0.08386184090112354,0.2673596641855795,-0.35805670920950067,-0.007527209782104781,0.2029359396528606,0.09899062867686913,0.061532542916214426,0.23846839604979053,0.20831722289755372,0.15205765025954443,0.029244107088310385,0.07552635832128239,0.11840323366313797,0.12382649523102411,-0.37284420726738704,-0.17555504770022878,0.1735333966089121,0.0034794453757224517,-0.20573522989348686,0.20561296730238598,0.06939562068935122,0.1828039383782707,0.073455838350492,0.016248974160074717,0.13832719518555053,0.05846956593392914,-0.14332950382573417,-0.053689971185991454,0.1998387034693268,-0.18090886447549964,-0.044677989241019435,0.26459745031077336,0.2711368582676769,0.1999677445346401,0.06636996899893148,0.11747503920276399,0.2033127829343223,-0.08663506240293269,-0.08595946676825382,-0.056899591357970035,-0.1830883391846848,-0.31595281940341075,-0.13429064328097917,0.07458636757153699,0.22929468217012383,0.16219102748489306,0.039507593672692444,0.04488770707445979,0.1462031916011633,-0.13186652088025275,-0.13381568600501126,0.07269878110565987,0.17961202883058813,-0.1312450526909884,0.09852515336162403,0.0075911733924920715,0.0723175409536486,0.13506254314641147,0.0212476530122723
0.022546613542170843
-0.05628454481011682,0.2151380436460837,0.21365129576885822,0.587626455531434,0.43169240555807775,0.38412438136277827,0.09493185009150884,0.3035610172426918,0.4926392748707494,0.24026437170617593,0.24526595147510682,0.02418683636700151,0.001997706663004443,0.10620008607278328,0.9789299647515555,0.5469549323499928,0.18021072909362335,0.3928752705837901,0.1962192625335356,0.16450530929683257,0.5120601110610044,0.5513385374295126,0.09541784675779638,0.018592932672014097,0.052596247940940706,0.02534228742234653,0.2987393363195402,-0.33681678080026045,-0.25582911102558875,0.7550193752628682,0.009582697591912165,-0.1954905307876707,0.2932885440372144,0.20588339285010765,0.03208670858080392,0.025216495711328155,0.04973609634242201,0.05944617074003163,-0.11570271041171781,-0.23532480347541962,-0.1687359497001228,0.3449183256774878,-0.25314085610756515,-0.06987376699661257,-0.12178938783864954,0.11253336825289881,0.10112305426705548,0.11482915696970736,0.11531823947734354,0.056717000614159525,-0.05393055872375909,-0.30918209999995094,-0.16346616464590227,0.08854496369529383,-0.023984628405685653,-0.19775788787876503,-0.09127817456740478,0.129642748890035,0.08793267109970834,0.06605744860736759,0.15214185514843875,0.0026603588971074637,-0.07048074024067294,-0.17995399676733392,0.007097068805019054,0.23422107392489058,0.6345846877836643,-0.45899819968336875,0.027680358502891286,0.05575635854707076,0.12558889255531,0.08566122975156401,0.1266793444950755,0.0925350085194345,-0.09914327558860397,-0.2830184061878429,-0.03653369529176007,0.16546274454690962,-0.028935082831154105,-0.193979784211325,-0.03230897709636891,0.0842060120726823,0.05987310163046181,0.12265196279503228,0.04903277401572525,0.018626958665154743,-0.2559530962780132,-0.20330312782689436,-0.3194070088608414,-0.04837421438575051,-0.10392621109452119,-0.3391509113691149,-0.06745579459810383,0.15755400045881085,0.140376055495874,0.1435269588492158,0.016065583071632417,-0.029212954926825477,-0.2825506866526166,-0.5815741027793759,-0.23529077649882818,-0.30927005775148764,-0.5156527646782394,-0.4576192447274391,-0.005858715442827104,0.17911031550079753,0.12113243522492531,0.11655100582918401,0.039397612884162235,0.04175925422355289,-0.1321855780632699,-0.11386698764017228,0.17202043679213447,0.4562048484829475,-0.4265274408234381,-0.22282545997763026,-0.1539965049251632,0.14637148662051852,0.05562469276097314,0.10227039823760903
0.07066370676060565
0.1631459252499875,0.07744149511054237,-0.04587475871294661,0.0349126443671972,-0.03746978938023567,0.03417837793634367,0.048991562907783136,-0.02449792793238089,0.034601910379688454,-0.050642669622780474,0.048459876959686586,0.16051945863872008,0.2999640793993178,0.11219760862782795,-0.1532065072371465,-0.12787210127860021,-0.09825310688981483,0.051181642686356145,-0.017956442512837893,-0.002723497803318762,-0.1259397222590754,0.05538489783270956,0.11494718340646544,0.2766860920869707,0.19976790097006109,0.20024232360912647,-0.009505844673564792,-0.14949443703741006,-0.13126318089940234,0.09106689155283766,0.19475195870116635,-0.002472122568100751,-0.14434355076824312,0.03491685503961862,0.18794577279171754,0.1430297087622845,0.1518555084723433,0.18249242082376443,-0.012571639266686729,-0.18908679194046113,0.06392448722794485,0.19178013263119303,0.10979498607315509,-0.11508091823629903,-0.02462794557574216,0.13703696109112667,0.10144472997617461,0.16884096096004048,0.026163771598418546,0.16306509271380676,0.11283616638973275,-0.2248518508346865,0.16393633163607998,0.20165110426859922,0.011064615734465653,-0.12502105691665732,-0.0020614602095688837,-0.01277445153639461,0.11915122243803143,0.1313287111900724,-0.02116519604040648,0.18510512380849464,0.1025978534268198,0.036295380007828414,0.03705125013397296,-0.0445896922278887,0.007293611410509987,-0.09215669286631213,0.030660544712452806,0.08575408479182549,0.11104429968749217,0.0688697655144873,0.02177093824012239,0.12459670664394844,0.08020069881421012,0.10166289351415413,-0.01705200724806957,-0.11925382898738822,0.022092764499145157,0.14631933992294438,-2.8080839851659327E-4,0.0273822627455914,0.07642638263170275,0.08275318590771034,0.06066702541295899,0.023311616117587683,0.1295723197617965,0.040961667466039624,0.033069955452986625,-0.16659607331224036,0.06999426644052519,0.22621855203703306,-0.020504456779748513,0.03750816050054482,0.020372897389127884,0.09884143444602585,0.06318148359445731,-0.013423257529585843,0.15300309164728224,0.04091418906126338,-0.06665160333375673,-0.13773900842182363,0.1449335678224553,0.11115016204271162,-0.024137678728729663,-0.018049891141493767,-0.016539045382110866,0.08563833044741696,0.012093456508378281,-0.02582936726891881,-0.03554640117005851,0.07511162801388173,-0.0711157041299987,-0.13926908099389862,0.12443758110977758,0.20810551856318077,0.06609349951796666,0.01288973533256745,-0.01271596929900381,0.06594197327714753
0.09777431516688968
0.0581786819911748,-0.015850697136637643,-0.11374850804028773,-0.08600287297664601,-0.0840194281778661,-0.12230412016188265,-0.0808496856186784,-0.03568023329493681,-0.026531459178780605,-0.005747711237788231,0.04039036366707966,0.05626311482849466,0.22553506913695043,0.1521671942939704,-0.07890577154377927,-0.1354304714706305,-0.06216734203183246,0.05939939510859966,-0.06056185402423311,-0.0881773939754766,-0.060771715058845675,0.08408303216079606,0.18758545035851737,0.09413866181562093,0.18752997637852292,0.2058711403283815,-0.0710264611446799,-0.08076240122810018,0.019626860097892326,0.10759337523093652,-0.02179431278399119,-0.06544217503106804,0.01496275765094183,0.10751708928125343,0.1409788313739065,0.10471312863418251,0.13620161720258112,0.14304776459971202,-0.12131743509286917,-0.038700170111362044,0.06943904792809817,-0.056267946548793475,-0.12081879172158584,-0.1000409045992346,-0.05757667585175965,0.028176538456233736,0.10203258325747143,0.08942602344289823,0.08678356530573443,0.2601723651306572,-0.110676301175004,-0.08576480411743163,0.03439272649780437,0.027029303116548612,0.03095774562949435,-0.09656099871360045,-0.04010218233588977,-0.00655432531066189,0.14341760942441234,0.07035083926999348,0.019024213557182566,0.28051824610473575,-0.0424233708769635,-0.06026541234312736,0.16514244529838407,-0.0828050426068511,0.06627180685027957,0.13029566502395007,0.04617003316618442,0.004223513105168365,0.07242457889590743,0.07707849149809666,0.08158599741308144,0.22342370528986022,-0.0818814250255371,-0.014499284808832386,0.062430317525631655,-0.026086328627981905,0.005443942165440717,0.12496839006413951,-0.02831080254833882,0.04431269450252825,0.085208611967952,0.07379861613201104,0.05235430845972298,0.10955306571842514,0.040177344950534925,-0.052189233663824976,0.08740659686814399,-0.0903757055138363,-0.10049662750001233,0.006218719503343493,-0.0809903146496246,0.07591781832280707,0.08793812232838542,-0.0032044917491015597,0.07678773474840901,0.06415368626399574,0.09433886765434975,0.009293589085115862,-0.035286623611969235,-0.11412893007721871,0.04028335846828867,-0.0722882691015266,0.0016380553943537775,0.09072603460353611,0.08987679731879623,0.08414158165046733,0.015621917176409348,-0.003407143495716484,0.002169764440934074,0.06778457645982229,0.03541643033382633,0.03314524114273613,0.05308906309069066,0.12654603793391067,-0.1428220148946565,-0.034258531358496,0.018167738798012475,0.06466567602261193
0.07756981680290394
0.05401615816615057,-0.012899928562737374,-0.18676774355182924,-0.3550381233296402,-0.11293716423376778,-0.04047864082307117,0.09898516049870386,-0.2861673799661469,-0.2000681984922929,-0.22662671581884458,0.08949933059882902,0.050640369840888315,0.2036033356841997,0.06163848262189435,-0.4674053682634662,-0.22467789322841775,-0.5276497774554051,-0.17671042535604242,-0.17262536623464964,-0.1520094897136665,-0.3422807265012588,0.10440610413604144,0.17058897891780872,0.16444541939361296,0.14732087240470965,0.2563758926413143,-0.11937485863888934,-0.07208898612291866,-0.17904365318193716,-0.10886871231182209,0.13082286291946482,0.15844995003628204,0.038495413629567106,0.20134113107850532,0.31125564444108006,0.0029124006687163717,0.12428335017939368,0.2634243565108583,-0.07865443609791696,0.23405284161430917,-0.19022257119329905,-0.09300462034640215,0.07955031973321612,0.1757568861401858,0.2234424458547602,0.545424266068279,0.2646423502956245,-0.018740126302249943,0.025260374641960223,0.3425605840851918,0.24367006785217876,-0.11921845147382072,-0.07310830947387185,-0.13498357198646727,-0.05323040190868603,0.036563602516997286,0.5308061026811154,0.3086411957399739,0.28420116247319543,0.0010253869845427916,-0.06213646851846855,0.2605468841582884,0.17821698021449034,-0.12640963116744613,0.025947390983075136,-0.11470065997974911,-0.39691499540649694,-0.10445677987469516,0.11865219179648763,0.4553652065974633,0.12401290789536448,-0.029050538605461737,0.028779921775540777,0.2465360526671173,0.09384002402630019,-0.26674543843958753,0.16653796974035778,0.012763410256960596,-0.3620781130589435,-0.04517335270392566,-0.14724718261763914,0.1431984885744469,0.14227409563124277,-0.06844998419058161,-0.01956361720689917,0.22440430398918332,0.2845065411744547,0.2136528171128697,-0.025207689332960095,0.18719096604250124,0.13431294292555251,-0.00908715951996262,0.2671071325097159,-0.07080089786263015,-0.013409136873068708,-0.010466700023026103,0.07244138721522568,-0.1714957123384831,-0.37353837915927895,0.059119856354297194,-0.17395519901724843,-0.014229359674762172,-0.028241943117414424,0.21653783414479333,-0.29354099446888776,-0.3281576436810077,0.017936335226134262,0.011219821607305268,-0.017386186757682318,-0.16006246644972333,-0.7980233400471445,-0.3678651993917544,-0.20556974390922256,-0.21395023081250536,0.10868948980926572,0.3949413506379999,-0.17336663944222191,-0.04134340021940256,0.023196418281494054,-0.015769513636761632
-0.03689183051732726
0.07805617354950208,0.1351585254866765,0.19251293648891427,-0.17442529568927528,-0.14069763774245964,-0.12364417416552613,-0.3857713963440561,-0.10430808017547476,0.17005171507419253,0.13983157729969203,0.008282217390276408,0.07901601702311188,-0.02935674376547596,0.01144299457065026,0.09331849222275056,0.13528805484163653,-0.25403464274790033,-0.38475987531482125,-0.5831083730020011,-0.3606788221773858,-0.11115834911810855,0.14514680521069662,0.04244125640589845,0.06907443119060382,0.06080524782985927,0.21920478735840843,0.15705403289458336,0.08557523055463344,-0.22510847224628244,-0.4636908661974575,-0.49532069976215753,-0.37281514601596777,-0.12293699243823956,0.06998053328953753,0.09487198006265325,0.056528002022109614,0.06754778945119501,0.0826696365262342,0.33809491146968507,0.18106342861749325,-0.047683910798224274,-0.22112876367581547,-0.3030875700883996,0.35908157260212914,-0.03836890085713619,-0.04028178020657695,0.11362073699628948,0.07901272966163349,0.12033878228472993,-0.02628088776528056,0.11182481512164973,0.007896516923022217,0.14975205998807578,-0.5791690945816493,-0.05723524459246536,0.3086534744975675,-0.1963126918094968,-0.046004532093969666,0.16475249061173003,0.058245039783788866,0.05596689882219852,0.04168468299492163,-0.282537524923383,-0.08454824086116285,0.2431072808634328,-0.2377345407551395,-0.022948546992675064,-0.028418369327056246,-0.24689404380590957,0.008981667763922696,0.10461532584066953,0.09081243837190546,0.03608723737824418,0.04066128350609986,-0.3154477251793105,-0.2314086431567156,-0.001400788566370744,-0.055923755168247644,-0.09171762085521841,0.06797551393494718,-0.18004623375365858,-0.10049882595993558,0.0667014785913037,0.10094075456422201,0.05511015315165302,0.005168575848527205,-0.3266417635983352,-0.15786046114328056,0.27043018602298186,0.7535985630334826,0.32261592151103113,-0.007923281709820361,-0.0754019242966149,-0.10121831781044889,0.10255610004326284,0.06170127988183413,0.05088055716367258,-0.2081421461903455,-0.2789064926254974,-0.1269014245415309,0.3689220606402892,0.35862598282102975,0.07363313173269372,-0.1433887985107068,-0.004789442033633153,0.03948182082606308,0.04725689100553525,0.05616701715835816,-0.0402889665783793,-0.06416225945284895,-0.12780311750481155,-0.13641313525042703,0.057325719998482016,0.19321077543465986,-0.01111516249126429,-0.09159988407088236,-0.03581810989143004,0.2191733764576414,0.12527836176228835,0.05876858160310776
0.11527290838716307
0.24911133158601828,0.18585883349044358,0.13997642032609636,-0.18952746052827912,-0.059435776969379836,0.3021532665486438,-0.14364992998208292,0.37074895018969894,0.39107334564097246,0.3121099019958405,0.1604760080691327,0.23584819887882907,0.21531465334596617,0.0582579912852671,0.16125992589168492,0.09764752511019577,0.17685215627467554,0.1473906913133501,0.00210472041805712,-0.16296547878358092,0.1729349718050298,0.3171094910811623,0.021545018536852246,0.2263555523289813,0.2570931728994232,-0.057486198218755155,-0.16382869913899195,0.06207127488089251,-0.24924560213388203,0.42994691652215894,0.12114619278097967,-0.3353464429751644,-0.11706379524495004,-0.09590808398852914,-0.21927257335611522,0.27895549609013465,0.2585737945929601,-0.10843769410269787,-0.007187184225095464,-0.21265652389226242,-0.2686971681217712,-0.2662728544858745,-0.47633356219759854,-0.569479062945114,-0.6413474909423792,-0.44635833628310667,-0.13652233233374117,0.24656838745421966,0.2959231662510012,-0.14103052569384056,0.04115615809692527,0.16209247272857868,0.2508717388562986,0.07194191012181168,0.2530410715494977,0.022068953221297104,-0.6262675635167901,-0.7413546113574186,-0.15415138385101163,0.26850659658016723,0.24688964777193623,-0.17554419474102145,-0.2893592966587924,0.02984573194328968,0.026276085935118366,-0.05130575519806517,-0.11696540486207911,-0.06453200843000048,-0.617028281392268,-0.7216058909705162,-0.15220385701720607,0.2929911228025222,0.21820072950912034,-0.31579021961308434,-0.1283483838239261,-0.3385809441431797,-0.46412502692863417,-0.11469587102561625,-0.2944512642081792,-0.21163301697086617,-0.9453086995396901,-0.11350801590237579,-0.030207387764038623,0.3001277052360672,0.24838531021881094,-0.30406349453857345,-0.8876182733989407,-0.4789539812036449,0.30657996516743075,0.15677443749214298,-0.08615723516917496,-0.7573970922672436,-0.30066449083449726,-0.08671813882678721,0.07142824489353784,0.3213136647264197,0.1478498911708681,-0.22569725206737334,-0.08664924073567327,0.1492154102233707,0.6323701614594347,0.5817474350200998,0.053230532835463806,-0.29792171748763424,-0.40952085065302607,-0.09515270232280139,0.07784020789132705,0.25224334483946237,0.11883044476357384,0.010894440352990998,-0.12850097569031355,0.38289711863554937,0.7764656003640179,1.0743240032952237,0.2586294425872863,-0.4107837612941854,-0.5672773052685179,-0.1710669333538793,0.05514581798926431,0.3388356058435216
0.32209180619841443
-0.062346289353049145,0.04400918067231267,0.24628211118137916,-0.10858244224407108,-0.15880990731831146,-0.3990717366607101,0.08669604574706476,0.1520602192553437,0.030692743822647153,0.11727778151328504,-0.039945205226771266,7.374643151006783E-4,-0.09913699160158078,0.13465781195241477,-0.10909036095223008,-0.11177150917738309,-0.1633920876483796,-0.7138423675940596,0.01410966217301865,0.14798298059219822,-0.08102756715602695,0.1398239984374105,0.284493740740655,-0.10303745316815442,-0.012047024471873207,-0.05416850464631423,-0.0050157851358342605,0.02587236973218196,-0.18725438459977162,-0.6487888976480783,-0.14897458195085067,0.5268373229621243,0.20205275224346808,0.41373647018794385,0.622071714744309,0.013416843440869401,-0.016624141959089428,0.05079554203666893,0.028338527322060533,0.08868753881948148,-0.38067718276310997,-0.49600800137320583,-0.24224553617092298,0.8303562709228015,1.185447881170811,0.4789746613852916,0.4001917054188911,0.01582749020177554,-0.02696498491106846,0.08475954944500928,0.1110418580299924,-0.0015070962981884267,0.1541498599588278,-0.6206973174605973,0.12267554925676967,0.7698220114928583,0.6743394953551084,0.01451928244425479,0.0839108631854429,0.03791071040621018,0.0609634725342921,0.053630856266208796,0.05665505123616654,0.04755647103061558,0.38575174984701593,-0.150655211613472,-0.33238727765489234,0.453962992177848,0.349460096508408,0.4745886475581946,-0.0018015567303211013,0.08197207784043821,0.02092702825925271,0.1438484970775032,0.12467310171094134,-0.035753457502101973,0.2696145491708047,0.11707742457519073,-0.7911036839127109,-0.5299094172055789,0.5801122409794989,0.09491072628644397,0.10893898165293651,0.052389379668558056,-6.636733226228037E-4,-0.12329751741609225,-0.31781247254587125,-0.26016954704984924,-0.003281030922238575,0.3129972007346446,-0.6472185660041524,-0.8004695126624356,-0.020245509094028953,0.08471862299509712,-0.007492120104002015,0.01270973559357422,-0.02494780557907786,-0.5037712639717121,-0.5935056777440838,-0.6020660398177923,0.353795542944558,0.28126113310679407,-0.07872727339845913,-0.5713202833528811,-0.7286411183490841,-0.2647822107849341,-0.13220598452255228,0.09276656383552591,-0.10448388880370914,-0.19681433879683718,-0.2829855072339355,-0.6212007978655929,-0.06499903534283875,-0.15032114896598586,0.03566057188243728,0.02993089948204166,-0.4001728109249229,-0.20710333434743472,0.05747414949883618,0.03433775664653163
0.04528790902555488
0.08925437836897443,-0.055028030679290074,-0.115118653390342,-0.26679441099551365,-0.14153730750264204,-0.19383320511224938,-0.0998404548253157,-0.1678772860469427,-0.12135836260492161,-0.09030482256453046,0.010636935824858355,0.06761130960710904,0.30876561464416713,0.23829314439982574,-0.175702275585299,-0.21665187003941028,-0.1009621744507716,-0.04248737007127773,-0.06050377507345037,-0.147046308854288,-0.20951996463206357,0.16133854953840593,0.21646248567729098,0.10779789233790893,0.18118171485359408,0.2773318771741263,-0.07250032875652243,-0.09440596408396099,-0.12597475290617044,-0.07419811901972323,0.10554415351839336,0.04699315660799863,0.05728142656659142,0.20336389499996332,0.22342537482458513,0.012247981982810886,0.16155021342565395,0.20366848387283026,-0.03427815849850449,0.051060726590845595,0.028374973648777183,0.014903267407478799,0.09361238249675916,0.07154938440375716,0.24736050061894116,0.16567620014638496,0.20405314781986256,0.04132076326407862,-0.012535894440626642,0.257755476428627,-0.055275740650301025,0.021532229065098787,0.1103234576866799,0.028690790885678143,0.19676535801783707,0.08032502117830823,0.1723621606587331,0.14491617349013763,0.16504016630308005,-0.02138754115792388,-0.0357583371711203,0.22812042259152676,-0.05696216875736848,0.1539912091665931,0.2551172201627027,-0.04398349108551816,0.10971780096546627,-0.0776717764133141,0.09090497265781719,0.1281105450087356,0.04271878153631582,0.009243101113386797,0.04147002188173281,0.15592754173419276,0.14732153941499931,0.08732652624781298,0.22182936781104223,0.009204791256615209,0.07573066247991056,0.09051133807322437,-0.20033548984820176,0.07780256221136905,-0.020413159964737547,-0.07416950199662503,0.0619184279773253,0.057808481342459236,0.13086905637992324,0.04551162674600037,0.161465506636582,0.10770767091024161,0.1414683333072695,-0.02998481482708358,-0.10483580770555495,0.06363702994729556,0.048329896671611236,-0.07241727918118185,0.09432532140657762,0.08613821480550454,0.140715782703691,0.07363605864091152,-0.16395712700154025,0.010867372580976697,0.1655181642061911,-0.07148638442712948,-0.15423472061660104,0.0791869789241339,0.025124452539166037,-0.05386207650099338,0.03747405590342327,0.08699675400508908,-0.05272201077766675,0.03141793180371128,-0.096111035139686,-0.10904706268493117,-0.03910887027691848,-0.006206655942909727,-0.2443430248080436,-0.011375024323295305,0.0033688761576741244,-0.015824562286490495
-0.01822874849721879
0.01756086663424532,-0.03893786669797773,0.5084468266165719,0.4530910433789757,0.559409407301643,0.40707143719385946,0.3486707825262548,0.3472655948353613,-0.17442885934259336,0.19787044320647487,-0.17674987999637062,0.15278595482000576,0.061664776915099445,-0.1678389699408295,0.02151173756426938,0.20569707289751968,0.15155322661026563,0.1400285520817691,0.06689265756092316,-0.15023100400270292,-0.568361180653325,-0.41005836445625937,0.06688713812267605,0.11353246774380915,0.10556902319727171,-0.14707903987055856,-0.7739667790347345,-0.23773919760494863,-0.12546686882640207,0.21857483434471767,-0.12120404904724263,0.01679146573391633,-0.0765176988403819,0.039934220442883556,-0.017242200715490246,0.11232926338555704,0.09799050131176087,-0.24802549903510804,-0.47456386585295357,-0.745162128648052,0.22822002771875352,0.30948918913342877,1.148081390061046,-0.38052128009180936,-0.23546858808681861,-0.18130376802094503,-0.040428929963125276,0.11109423214969619,0.11392604136104068,-0.2917002277472773,-0.42273941367560036,-0.6702386242873016,-0.05172717607944213,-1.1563008557875285,0.10951970294479874,0.7496978467466829,-0.18805320296494674,-0.23958847865631003,-0.0011978926657355339,0.10994448488449488,0.10083703467192531,-0.2681909336111286,-0.5197020396708557,-0.36721173508770927,0.12242244416370085,0.06659216274177665,0.06719203496801948,-0.16544149675368144,0.0656892067028943,-0.2872828572909318,-0.018896695247705316,0.13807714195474566,0.1462052990080769,-0.28630442237861237,0.05057044033438243,0.28327952642739557,0.28393474904899846,0.44162627558242146,0.2386433204929633,-0.22899545711957528,-0.27465053829254077,-0.26636967089302804,0.04960173064203738,0.20041355247957524,0.08578934229501517,0.2124637294371197,0.04109232763932841,-0.1922623059770354,0.4999761877523088,0.09557888669424489,-0.1953703735052076,-0.525336156394666,-0.26855809926792956,-0.4367748890980672,0.08919400815887715,0.11487889205110235,0.44640752122007804,0.5118030690712193,0.5351218147585005,-0.08060054689261956,-0.18161715289081645,-0.6654354527522445,-0.4251588007213177,-1.1436290734179368,-0.3059086586022522,-0.20876945092727237,0.11653791168283037,0.18567009792936803,0.3124690677192375,0.5102195887147366,0.5262910614806907,0.43356539689899415,-0.15957960090786158,-0.19855604124596912,-0.09420526089803363,-0.7831181047308441,-0.635149404784051,-0.1949888758984156,0.08701080778057821,0.11497679743005998
0.13951818871243257
0.0555120360689196,0.00952146818183699,0.375119960205595,-0.06792397995297561,-0.18064562375967616,0.1307521279143746,-0.16414698840239492,0.7534303271877426,0.22490999329862502,0.13480938330383666,-0.008244459939058578,0.15810211554254286,0.24084872115643755,-0.1686134898817737,0.30391229476567194,0.15609131173262844,-0.061241168258573356,0.01950042526662181,0.45220168163542607,0.12334368668181517,0.10031279068893792,-0.11281836641789891,0.22993266116128994,0.16313147142611642,0.21208215928756216,-0.24409728345252993,-0.4814474738437895,0.21361732507994366,0.035190112910160574,-0.1720361688371084,0.05921262285796628,0.4919278754782791,0.028936358715027567,-0.04769402889334901,0.11251479999482866,0.15202089399768268,0.2376098519995223,-0.06399051590226279,-0.3297991629903465,0.06970595997752246,-0.1619299661221182,-0.3549311305263573,-0.2525068537406603,-0.12775149513270914,0.06633304485022923,0.04057087813593798,0.1473680411023607,0.07729914185878553,0.19872332098058978,-0.1681397232270895,-0.48384819542502555,-0.07249817113642315,0.7253947245779556,1.7993689787452605,1.0616462987294768,0.3916360722676553,-0.27295284219045135,-0.1454627667247508,0.040697878907340314,0.13661683689436913,0.12156956220986978,-0.12299587500277043,-0.3065532594526018,-0.13552267435021545,0.4467793604674748,1.1212755417598717,1.3370003110568207,0.2977508525830813,-0.11697328815293703,-0.2594466993112059,0.010213272205797352,0.1368931624511612,0.12167775589736943,-0.24794844949870673,-0.22729188415496435,-0.3099630892354571,-0.2511779891802933,-0.5189781971244617,-0.8115414182619379,-0.22519623464548486,-0.23755373199855026,-0.09475123131369817,0.04914105820293722,0.13251537796006288,0.19639846400739128,-0.06312965248765197,0.047993104078750855,-0.2786044651099918,-0.503867610681961,-1.5007196189314074,-0.7762257552370216,-0.6203931956522609,-0.16353844232723488,0.09734443401009477,0.08416136998760343,0.071695764367853,0.14946556340252684,0.25297421761764904,0.22736512329067574,0.15519187875028825,-0.2283206155073043,-0.32196738646340506,-0.04931039270572809,-0.6383908210548964,-0.20026830108862223,-0.13212410429934937,0.05323961702367793,0.10229011553119388,0.0056073623087306845,0.26224903448538095,0.12632992224722558,-0.135745621909891,-0.11995953346533494,0.6274461525399014,-0.49019954955327116,-0.053147557544698874,-0.6444009409225465,0.051720418565354635,0.1329292715564113,0.11436354938608242
0.0791226137259527
-0.03566901320905296,0.04999521183378241,0.12847105779441223,0.026710048864343944,-0.03462599879816012,0.1469194513377097,-0.18808353970792394,0.17888539711652882,0.2109357605943333,0.11758372130920673,-0.08347432419495869,-0.0532798060775665,-0.22288012444363733,-0.03766104705646824,0.16882088366553924,0.14448163185814608,0.3295163643827196,0.25104060863619926,-0.06395951036542456,0.07415099782361216,0.09104663900610872,-0.06007300772869458,-0.1818602331754772,-0.18438920531475125,-0.2071615038851586,-0.32997943480723546,-0.06877655070037413,0.08037170621257282,-0.22310761001833965,0.3996903707672158,0.521909949021714,0.026797516919750783,-0.03514992933397513,-0.09658580421528369,-0.2890252147038236,0.039328427737654374,-0.11632848876871223,-0.30265425397591794,-0.18697231068093526,-0.4226541736751541,-0.23728979849287976,0.19639956874810652,0.5856237605362437,0.0994442951530737,-0.3672568239678602,-0.4302267419100636,-0.24793073457514747,0.1234176282943837,-0.03997036425528624,-0.3703652580031894,-0.44918805658729966,-0.09602017358718075,0.10068616308729687,-0.06885043797419384,-0.10534796871823339,-0.009687260019535751,-0.5934376179329973,-0.3246186053524327,-0.14288335438497993,0.1943921501482163,0.11206120222714373,-0.2821326278697812,-0.39248855908514346,0.03376580337163348,0.06175034693145357,-0.017329577977445235,-0.21992747709457125,-0.5683231134457324,-0.6179238814775269,-0.467047639548012,0.012143583385926447,0.14636332689872608,0.06305819532213038,-0.407829565503524,-0.22750971275100484,0.19398765515142682,0.09895731335772988,0.4029655069720902,-0.06858316743883149,-0.4676298699609748,-0.28381343556241256,-0.3687933978578747,0.10829429928521798,0.15455182179150892,0.06822623746319521,-0.2185148612161729,-0.4046390187581971,-0.17362442322964175,-0.03850916286794626,-0.06353068308748001,-0.15658407039371083,-0.23598049650601025,-0.10370459217093007,4.350043177736733E-4,0.11476353547546052,0.21231214052065508,0.14000117456727226,0.2395752435588153,0.5883974416446919,0.04686193323666212,0.060246672174504905,0.11647860499675662,0.15522417418080267,0.05007480846641451,0.17506660460097276,0.007611580916342256,0.191493252257082,0.1590488974968867,0.1152533159727986,0.21349381361811362,0.5447717193198428,0.3041815619533076,0.6017469115041284,0.30154562796878426,0.056178294897776614,-0.6065913696326138,-0.1559339148876531,-0.14524956895857474,0.039521232936972996,0.22228266649838932
0.2059969928176689
0.04106707205936713,0.04156480089357363,0.045834649909983566,0.04060442879416305,0.08326907329082912,-0.024337921515978134,3.549814816951931E-4,0.04245140230476062,0.04797776201989705,0.04950016203942509,0.10269346069422343,0.12497466298650893,0.09997684916752596,0.09214603956861915,0.00584485127334154,-0.06816964278982719,0.06742559714118718,-0.0023694469343299145,-0.023898232130984284,0.0155763885271296,-0.06321055300893798,0.11611075891371557,0.13345421158736306,0.13574158494700775,0.046568636874905936,0.056079605279124894,0.0400357809355643,-0.07004915046608466,0.06086506475854858,0.03159482224472042,0.04190266022003196,0.03157695638126759,0.016458278648593408,0.04767277307338426,0.09288620314631914,0.1543646677410743,0.12688351340923246,0.08317377052492066,0.07380742402373262,-0.016082791681902346,0.027990492056556474,0.06266487811190867,0.06568803312958642,0.03945008084111487,0.03746056243658211,0.07800940332763721,0.06089409346773676,0.23666979726728185,0.09096797454646428,0.02982249047267569,0.03275917676949426,-0.028712415333429095,0.049105235508050155,0.1066549438714365,0.07659634317628543,0.08943130515119437,0.0672717045944425,-0.049416898761094064,0.07155548146867281,0.13844660338878667,0.10543646382339274,0.036212601615016105,0.13315567965271835,0.022765677485464805,0.014000570669741341,0.06291123350178394,0.012790494523052615,0.02743057169351447,0.0813481353108619,-0.04582646074585303,0.09933888749924212,0.2266544729207172,0.13002419830268827,-0.01793668760574131,0.010577798934136823,0.0281818202539977,0.004831821513136178,0.14007676010493064,-0.06067984393141557,0.016150449885830802,0.037960952480275534,0.00664387377262707,0.17348744636238186,0.17768602322497576,0.1510137155032544,-8.834292343731369E-4,0.06958520416603768,-0.03837087461570339,0.04963546284890229,0.11805242009193011,0.012055378944248962,-0.020412698344002465,0.027448601480505125,0.022847982849214563,0.1250048091347191,0.19913128593604304,0.11302091310911506,0.039774362490586995,-0.00811174163847345,-0.04661901747937011,0.027074946055178697,-0.03314629120517712,-0.028183513280174745,-0.003980019520726628,-0.06065500914312065,0.12112054210466712,0.16319971906176908,0.21512639757830984,0.12720037984476465,0.0412674188190298,0.08325184616585672,-0.009294784850256716,0.09342264876584715,0.054756778464761485,-0.019490475333464395,0.07463951530741643,0.04361590253371171,0.09963441688417941,0.12636730369272983,0.21383972300910056
0.19715022712850747
