0.3064191276573669,0.3493054486694814,-0.050554519567155155,0.019528031720145857,-0.11524637589729547,0.012821384961910244,-0.13584664434920954,0.203312795867024,-0.26389888110270343,-0.04362682451710111,0.18559605372828564,0.03471359076518558,-0.18486693134960738,-0.1264982290831704,-0.21048226028253586,0.09604448576918306,0.039224268159582555,0.10577768020113112,0.08344636650275972,-0.06813797625735206,-0.11447065675631511,-0.19752109969723147,0.15312296579857307,0.2299481767287959,0.07171013907501537,0.23312366285346525,-0.007552597608778295,0.08650439176676425,-0.20799992413275675,0.2583669349877231,0.281673107981553,0.13072320696583317,0.2516554163297807,0.020075728740619105,0.063547410398682,-0.18493102507557035,0.30168035362469225,0.06506023054634429,0.21522097382488803,0.10571459175271941,0.15521889827955035,0.11616725801295728,-0.07550171841941895,0.18829088351399975,0.08583107768958355,0.01739428727197979,0.10857703344382014,0.0402710785159583,-0.05043306365177942,0.2293779765849999,-0.23296987859911372,0.035213741512111665,0.0211381613678034,0.004461661022196216,-0.06021585954640171,-0.005438198160506495,0.4201525694385945,0.5415090690923494,-0.10113492514590694,-0.11420015571418615,-0.09499121020735639,0.26335772368075094,0.2663696232270726,0.13659772260020595,0.03636423177243596,-0.359417564872288,0.07811986269502265,0.10605766266193604,-0.01898469443654349,0.04668499501376516
0.10212184001845703
-0.4825127554768402,-0.4716543977429701,0.10308081680238845,0.38216485005110334,0.029215127862626186,-0.08210130477175603,-0.1818098386046469,-0.18547138153811077,0.18382513581808577,-0.0295531079620872,0.31182799465548094,-0.07717222499729044,-0.3625281923136184,0.5465081319031839,0.17325838652177575,-0.2036320774318943,0.10420600441798886,0.06989921951671306,-0.05296227433825595,-0.15817716247193583,0.1131872836262223,0.2678761280219981,-0.21208826297599057,0.27480078699651994,0.0033908766560275293,0.40067407360316876,-0.05139923275956763,-0.333978008530588,0.26090692777224933,-0.1125037198106345,0.13066157041880122,0.1800249632644081,0.2853564687238365,0.08111169463233092,-0.3375535213143171,0.2535950970196108,0.0673951926879853,0.21594286107513652,-0.06932724067452858,0.20441727215769434,0.1219315458619713,-0.15017133760898768,0.3581117437368444,-0.14397494475964068,0.11925305817993062,0.07302414588460626,-0.12492994777227426,-0.03515676684693428,0.22065017233125991,-0.14619088583005563,0.2132839095138396,0.04568153480105984,0.012670662175942843,-0.00962772820553108,-0.37123804404409827,0.4148209007533078,-0.2818103821995513,-0.15734049491845084,-0.10929301391187152,-0.011781287156038319,0.1240332374145848,0.45449689059276965,-0.12309760907478545,0.2615253079830954,0.313584837049926,0.4152403386178208,-0.4761041812657347,-0.08196455587495967,-0.230919583810033,-0.2269010187833393
0.05947885455542363
0.09094615594492152,0.07583339127497975,0.17136820439165162,0.017443850879246565,-0.1521119846566493,-0.34295915675707345,-9.48195038111613E-4,0.014655595603796718,0.11424698604712244,-0.03653635025939561,0.14499845159120367,0.08008510247222506,0.1447825192084848,-0.31080149929135614,0.0587582553722523,0.04809628326737937,-0.006905267622287891,0.1589190416046927,0.11915474710623401,-0.21979850047632066,-0.10863539872671242,0.07433098822234568,0.09747381922221937,0.06477837024574838,-0.003395588277006928,-0.017099446388519606,-0.3396681904988681,0.08128606806475236,0.023707688075989455,0.053355650653047065,0.002869469219380455,-0.15582081063454933,-0.10380414805808684,-0.40400925133541493,0.14769148526523834,0.008388435302279257,0.24208552107528758,0.10962776868880658,0.2581295614282164,0.07491936879575298,-0.08929837374507463,-0.08193577113217461,0.12410790542997875,0.012589906994822566,0.052106106208920235,0.04648049507191466,0.19658123679829403,-0.1320698283997979,-0.06775910326192237,0.07407265483177422,0.031109641730602756,-0.015876241621858043,-0.034067568377891044,0.03046796416224211,0.21180570772467258,-0.24920382123738186,0.21592925171636734,0.24003533770723118,-0.0111331343097844,-0.14116365954693375,-0.1942568409402435,-0.04319099972978488,0.281012887394669,0.08372238206648557,-0.37793510767832333,7.619250847833807E-4,0.22221764352470946,0.0323430268214955,-0.1674998186003711,0.18408586811803176
0.032324805349842646
-0.26836338668346577,-0.22549509826390132,0.02817210106984311,0.0724816128913324,0.13447213235801164,-0.3589074936822089,-0.0037729294860078776,-0.20639063449671977,0.19634489031013197,-0.016859205750218945,-0.021040570756112997,-0.025972055963690295,0.7541349723365817,-0.2619964393926901,0.0817515417916702,-0.1329589662845438,-0.007530457964127641,0.0061784801948892454,-0.10513048633971984,0.19801138404270108,0.23498560698087165,0.08980771416330448,-0.07445723591065745,-0.27297219260280553,-0.38197737396642073,-0.23132317446118722,-0.008013894522247326,0.28205119257448663,0.10928361052020809,-0.3577021625124319,-0.44667087166379804,-0.4285254574082621,-0.5242517129624059,-0.025251525634265536,0.2923370781596515,0.16194244982496123,-0.055209582516044284,0.011697970111042517,-0.09321524318183401,0.018528335010904014,0.1661611640505149,0.09448904375367656,0.1225837246353655,-0.07047073015907769,-0.021403198233872576,0.021454083687991066,-0.0031421373009273496,0.11071547374477476,0.27950762362636555,-0.11165188143056591,0.3078410605070749,-0.027670672882666295,0.007444802320152391,-0.012173918405747407,0.7586174791063555,-0.35355348013275645,-0.28141881340269803,-0.2704305954271276,0.20733496011440514,0.17942437702256298,0.1262756332284717,-0.502623399590568,-0.40302857815132387,-0.00941708393518754,-0.29378791407448795,0.27566109610238787,0.47994129327652874,-0.4442907889699879,0.1948554068248095,0.08717715282995941
0.24800804704379623
0.13435584081668356,0.07181142559594184,-0.008311618562824879,0.025490712086143646,-0.19407090445325306,-0.38974422768424133,-0.6534926054447312,0.06447553754036314,-0.11542118776978005,-0.038497726962015914,0.1416756013861292,-0.04319485962375552,-1.5979777008927028E-4,-0.09680261152635605,-0.02666086534487758,-0.008851444385657452,0.0562710357512917,0.07950508147112655,-0.09716268315236012,-0.18356110160178882,0.44652343598646754,-0.06348913581573258,-0.01741294050666214,0.11644865327930781,-0.193573636582735,0.12302430647274981,-0.1413160497150497,0.4874777884754431,-0.06249300175978559,0.0037471891704504456,0.02643496390428158,-0.13808618058909078,-0.015088498111697742,0.10995493910417746,0.3618051272626766,-0.02728648187017903,0.22154209341965292,0.14307321230313907,0.007589433457428792,0.1237137657096157,-0.00701295858957986,0.5497498513982374,-0.0016361346585461788,0.08585165237465647,0.08740239505113644,0.08299414368183149,0.059185818670024135,-0.02871349182634893,0.5003549169998491,0.08627853886117864,-0.11996260010044879,-0.025741194998517892,-0.0029854113196962975,0.034766747468772605,0.05572364511067276,-0.016643449944351726,0.23895348235814362,0.32281295905791213,-0.1358294598057997,-0.21099143430199277,-0.1301844265642825,-0.009857741539898891,-0.282075602969736,0.14460764818592242,0.3186801938949106,-0.13181762626769988,0.191527232846462,-0.45018185682963024,-0.22180728442604128,0.0371345343565923
-0.029143096111628464
0.36545177535798967,0.3614392034487484,0.26546879418570074,-0.031062218476919756,0.4726279159973247,0.3149585959774536,0.28521964504277547,0.12746625000334305,0.3248532980870337,0.010261173979207686,-0.4797456275249948,0.01734557023539869,0.20008549755193109,0.27334787500182345,0.11641488929810821,0.19110990643885126,-0.15165113718391493,-0.21314364005370195,-0.10250463188048393,0.12036002001697277,0.2667296060017575,0.16331646143950676,0.24723529929653768,-0.2690378618941543,0.1437392094756099,-0.3569729991656455,0.08159106044718985,0.1417644991927771,0.11616608706132191,0.12629565342877183,-0.08059947708732391,0.16950352238541375,-0.17471938144570967,-0.021626417043605035,0.15418325694172128,0.19601589088742746,-0.24864848974799433,-0.3215982639369299,-0.2564739331160427,-0.2631953434393474,-0.411864648559848,0.2075462916499892,0.06330258371900682,-0.024637444581819844,-0.14007498627352072,-0.12803089082727478,-0.15022018603502393,-0.20880424493588767,0.12515414199830988,-0.08501122419895864,0.06285825302888225,-0.04682714819319959,-0.04003694179982014,-0.014955890863531489,-0.1139460192133557,0.07117129648886276,-0.03194296134038013,-0.09650984801558707,0.3412199401173739,0.40421610366239435,0.2714345675606895,-0.13569998284212786,-0.14464720531657912,-0.44201610556323584,0.1513447500981481,0.06442769333538943,0.0209934932176796,0.09857460089841015,0.10719119042524637,0.06196863546212175
0.026099040412267557
0.16908881721270852,0.20111534623904798,-0.2361358492471354,-0.004675521805379508,-0.10643602476121919,0.32601528354047266,-0.09214525847297032,0.1668496619259716,-0.46528253956178545,-0.01913540992969276,0.1749024392347683,0.055358854753500185,-0.0906656860504275,-0.11721442528833603,-0.32842764347467274,-0.013049117503589036,0.020647544723128637,0.1861357732188228,0.12768893886549484,0.19031271101158484,-0.1704001212857494,-0.32057846861729417,-0.03652300228745761,0.22164685199897854,0.06412280185294526,0.29520950330094187,0.2993944983970457,0.07350927614879678,-0.3006881811927308,0.19211658442845853,0.3442118476098552,0.19869254272529246,0.32550563299883817,0.44851835915858396,-0.014526455704582851,-0.27888452899570304,0.1377122398256513,0.09795881214325287,0.16956802560975345,0.10246907026109123,0.4739614674440974,0.11447596192935203,-0.16968434867036994,0.16550837618160216,0.045435838649054705,0.06536412899690987,0.14785199725659964,0.39158379008037353,-0.06479657875023133,0.2492811098128175,-0.1722589146748895,-0.03621829276003907,0.012836866932224383,-0.012163770412429498,0.03091621680338756,0.12040777820394696,0.3316813223970511,0.4079829469798535,0.01752507322475274,-0.06985361319754882,-0.026039910029164122,0.29438193232708487,0.196061136797655,0.18501379953426006,0.2450201742234955,-0.5084261528190017,-0.09454034321528682,-0.022772201906510917,0.27576628469967435,0.03499048592460021
0.13325657769388807
0.26037098970958356,0.2585935015069412,0.3563146491659325,0.0608191137992446,0.261925073176719,0.06686563850145083,0.0589730972067998,0.04732243904769237,0.3337936570075774,0.003386348906468342,-0.331830790431256,0.003443940084667335,-0.2853556430093484,0.36261173185919676,0.2229417066567238,0.20026415858109564,-0.08949585254880997,-0.23675543875609978,-0.07390084017813885,-0.2716518971108873,0.2430222419792179,0.3174816202866942,0.15011605974994763,-0.2306316594193195,0.15896850849128072,-0.16829387910073892,-0.23398911004066333,0.03739595328363105,0.306744715316741,0.1256733814237329,-0.08781018797526488,0.24688887170448287,-0.03765460401698251,-0.2799443671526416,-0.039505453561055705,0.2987091777912672,-0.23048958984050638,-0.27520973361405965,-0.22419473952380262,-0.2117985655821685,-0.6567805023652236,0.12662157636396773,0.09417728801505093,-0.19373692713293428,-0.0696918127568949,-0.08410654502497167,-0.14835088478605918,-0.5334663978693739,0.11831440662391907,-0.10426936248384949,-0.07133983177859295,-0.011239584005669476,-0.014906260881470103,0.0037554946462558733,-0.48820316156162114,0.20762454675734096,-0.019489446161009873,-0.16502573644162202,0.0347574875452782,0.2606381724687278,0.08878711768723613,0.02511240332376329,-0.06125877278628543,-0.3784135224313408,0.10112999198095407,0.23619212301085113,-0.04998628019147713,0.18301177444140074,-0.2256415531996837,-0.07438383441518197
-0.20918574636066706
-0.2224990623278785,-0.2732420310585378,-0.08775308577570382,0.07845984348296045,0.21525635251790282,0.40865436421954243,0.7458939287364504,-0.11946007514422963,0.074710391234024,-0.028567356758029495,-0.044746309018200404,-0.03775103987511835,-0.06185138867843544,0.10899543193842724,0.06937873752779851,-0.11117823185756322,-0.014272939050595936,-0.08893065883826454,0.1598737330025999,0.17990074962991887,-0.4723237910335204,0.08065702429638985,-0.1270451809525648,0.002910400063920001,0.2478858012550912,0.0705112864916451,0.16971297463564783,-0.67010574829532,0.10470806116970877,-0.07149565771996705,0.06240503090052543,0.10141616881095561,0.06435634245895197,0.047703735099199465,-0.5243939628374361,0.10319368118220953,-0.23796901445891405,-0.07918348319938424,0.12647193223258685,-0.0851223525704707,0.10217258542826298,-0.7205200528507857,0.05760834513912051,-0.11522892811973735,-0.020882038902539694,-0.06383065308843265,-0.006559998991943422,0.13984821664833766,-0.489029595299991,-0.08005120407411316,0.22843381508875707,0.02923870452376033,0.015252989060984184,-0.037186074052604705,-0.14987651053682582,0.09340492087725276,-0.2805498657512412,-0.29943485711938445,0.11551064205581371,0.24621758329999655,0.19460293877384816,0.13355126352292082,0.3721398779139258,-0.05703560416308818,-0.2574769538995645,0.17477747317228348,-0.491762096730668,0.5021186896594072,0.19328034200366312,0.0020184171046736957
0.07123154027303025
-0.3053464570261079,-0.3447650343609478,0.11585633513577032,0.20531675113226894,-0.13023566047741053,-0.25199514685079355,0.1964996531210444,-0.23736772976762543,0.23017842558722834,-0.012771367941851422,0.2558859939761271,0.017035077217359453,0.3514610045832184,-0.17658127135069618,0.1495635486125579,-0.09116585657261222,0.13312782775560172,0.22500343707130696,0.13450054298721448,0.025049156851629315,-0.12361942418479034,0.09965082525742686,-0.12264409697029012,0.1354970436142073,-0.1217965661993315,0.04301357830052432,-0.13946251076583352,-0.15808263926480653,0.12575584229344175,-0.22309029374520606,-0.09027985890900075,-0.33572607854378084,-0.21399550314962154,-0.07454054647279519,-0.10520419530676968,0.10671430977065327,0.11461882647041992,0.1748567565522912,0.24037310811678575,0.139189258325524,0.24304510395754383,-0.23738575650811714,0.26693750484933004,0.011541495708487325,0.08243995166444436,0.03588793457345152,0.17580090538509638,0.13074168333671582,-0.025512457899371677,-0.07089933009714237,0.3682724239123014,-0.038859863190793764,0.034900826788115166,-0.01574654777935386,0.5452898282933928,-0.2209449620789624,-0.15042301241580364,-0.06877716708036832,0.049521336369395264,-0.14369092688002413,-0.0639945958549166,0.033795416486814764,0.09583669422262474,0.2781888665358565,-0.3957518972258563,0.30116107842846357,0.0914252429992151,-0.16635628912372788,0.0468559171503216,0.1363560585467895
0.3239741049623104
