0.04250829981213929,0.33999929819177477,0.22218859225304896,-0.05108767234436171,0.11927855116096944,0.29852125957998776,-0.1189754387638047,0.13968432166316405,0.27940196951900964,0.331405428205619,0.05882292756708966,0.16276187742115342,0.04294032037410734,0.11015926772359322,0.19858072298266968,-0.02283872894094786,0.052942961289473824,-0.3651635030457153,-0.30602133647974794,-0.0017624913038291402,0.24237015043793572,0.4640148829129941,0.04452063467643987,0.1454107162165897,0.010855198893533247,-0.17934146660309233,-0.09084343103685832,0.24911729098488503,0.2605618846364304,0.15027708456967628,0.0947302881122333,-0.13534293372203135,0.15687043242858975,0.027329998245739794,-0.3090501237476594,0.1961023208211383,0.08327961141171092,-0.2041350592413335,0.30471857984151673,0.20483382285723692,0.17993392739994699,0.40326886728685984,0.012232929987645174,-0.9437184600105888,-0.7938441946530117,-0.601326466634587,-0.1241222205158079,0.20859778406600796,0.12677575687036194,-0.3034524322795161,-0.02866878778348775,0.07065511744620187,0.5205822423992217,0.09517142993954344,-0.2800820151872693,-0.1963465707789803,-0.7089745155696603,-0.554848664830085,-0.08213122848774715,0.2535264540891432,0.18114327719685944,-0.2694914409790298,-0.43166672967536046,-0.10066157794209171,0.04244544728058346,0.49636478422421393,-0.2796319400649808,-0.3939582448092802,-0.687198061753086,-0.8760916065110698,-0.0782066404146339,0.24481715548031077,0.09064910163289824,-0.5015052119532002,-0.38611663060681245,-0.5116956549641665,-0.21154315821209932,0.27607889183582335,-0.38339099900685203,-0.6225548017178415,-0.9999276555362829,-0.2571902414113555,0.020924793645702485,0.25403654531795095,0.13566550292230076,-0.07252159326620236,-0.2998981079675693,-0.46632540599111694,0.2241408084112884,0.36347389585899104,-0.05728234025280312,-0.8318282145751743,-0.15990186386335134,-0.39176054363672175,0.0573579228358864,0.29718662967443243,0.10652912452602092,0.17648448883584247,-0.008064988533476394,0.32808634525811053,0.27159040830833814,0.25096329597998723,-0.0749582875055807,-0.270393498429895,-0.10190350653554986,-0.2471809227111708,0.3001930000755929,0.2498905044035356,0.06102565658859282,-0.003232382612098535,0.11911754956761864,0.19347182379041702,0.5264287529625657,-0.025637362897888014,0.6043948547874113,-0.740951545225012,-0.3134996098908701,-0.028696137071497648,0.0017598125744605153,0.2396967590662399
0.278102400085268
-0.13804882882120942,-0.13608157243118132,-0.0286096530986637,-0.1568436856796447,0.15030054486385655,0.00707043895625701,-0.145325394763383,0.08174996273842537,-0.06771850315234708,0.3234160992634353,-0.02017889979037344,-0.0927372947418399,-0.34636935665827717,0.003041882704524109,0.04504662321960788,-0.06616642727994786,0.571682763528351,-0.30930536140958975,-0.2954235878489163,0.25917982814547336,0.250223918182954,0.17693978644083005,0.04978052791725661,-0.13689445156402238,-0.2291879643026772,-0.20151458813064413,-0.44359097531479075,0.10560370943553025,0.09881751851124877,-0.011203779543101571,-0.01722514995894643,0.1753126965669818,0.35827696916537133,0.1020473636973347,-0.22546730740548085,0.06858844034480811,-0.18479487076222914,-0.14433611687104583,-0.03716078669161167,-0.3743526865908713,-0.0638123385650518,-0.10325272427694006,-0.46691946252555383,-0.49907570145215163,-0.16397282775614017,-0.42695640265698753,-0.1432676152348751,0.18297513320684924,0.04983492696293698,-0.20641914844092227,-0.11615577680190918,0.26460420413390373,0.8316144198518418,0.3499014089082605,0.159868822169242,0.014343404993348755,-0.9373622270508251,-1.000966624728097,-0.3469685722991579,0.18292610856022892,0.1786403656929272,-0.0872869892754742,-0.17355728702524556,0.3211944861678028,0.6729839364243366,0.14981013262522744,0.1517596074592085,0.3971094129513939,-0.7429555820250329,-0.7375757823510862,-0.2754933281117994,0.21430590693700566,0.12228935384242716,-0.0985035466160074,-0.026053306865388225,0.4320121080821915,0.2736401404410846,0.24826800851581768,-0.4406717021753792,-0.08814257960239978,0.12380697777877188,-0.20938510840625216,-0.019599011308334816,0.22162787849053797,0.13308486569885045,-0.010139687013347103,-0.1323502708083001,-0.21023777836942595,0.2432568080856953,-0.15338906513083103,-1.1188298354593686,-0.4430694287578484,0.16343261772161774,-0.4114298060855609,0.11503279850850089,0.22005268578191137,0.18810499782307885,0.15197833130930646,0.17523729629134308,-0.4811230086490673,0.2876881208721046,-0.33651994814339825,-0.5494853471426797,-0.043955746119770836,0.09939252892378893,0.18312591844000878,0.22719126148408883,0.272213504846541,0.12049846264700552,0.172144641805384,0.24689685749719567,-0.21554315853279607,-0.16461345302230165,0.28996673844226034,0.2845368341486806,-0.18017435650170702,0.14982496011061794,-0.005463328357643162,0.12225928222858844,0.25427276748037736
0.3042439578547024
-0.0038123475814317567,-0.24960180896175488,-0.20227738321397398,-0.4136068331041228,-0.38287869130301183,0.19059492283754775,0.11901847742630349,0.19998843823234846,-0.24947142318759957,-0.1583026405483311,-0.16986560355733643,0.017646938857755052,0.06475262848823822,-0.21817315100737017,-0.3783530798424432,-0.429057354584854,0.012770161569374508,-0.10832659722529529,-0.07517746861232204,-0.10068699338180849,-0.3715149225147624,-0.19334925937345399,0.011028940658400575,0.005689979875934606,0.06475680345193045,-0.08454104846593492,-0.31936364393060807,-0.09669085962031217,-0.21389333355436618,-0.40552744535634183,0.06313031207847884,0.25140430404495867,-0.09399866317009663,0.01902501081424224,0.03616289944213399,-0.009550998245010631,-0.004676409560007734,-0.16463345636343246,-0.1301652398698105,-0.1799268733121599,-0.016890776490265828,0.5956106990709856,-0.010661208368542417,-0.07140197282007092,0.013733748332474559,-0.19766173967500178,0.0039843692692931474,-0.05745795098582102,0.005275952112251641,-0.05505109874775826,-0.3450934236527647,-0.17077444652373092,0.09189027488327937,1.1201568094304881,0.008251853700977804,-0.524369920621211,-0.8338219258294984,-0.4157455502552862,-0.024417317239977972,-0.008377341518188017,-0.02368759707426619,0.014803493120839013,-0.15798941426243301,-0.16472798153952378,0.2997920503707719,0.3789412067598142,0.5736687045329408,0.4202074635146819,-0.09861588679297605,-0.11393378801268221,-0.014320248419927815,0.002057417247631007,0.003319178646359519,-0.1571936756498138,-0.045348261635495025,0.05749429498381101,-0.2836950441860023,0.1282507711803812,0.03514486243955751,0.9033376498722147,0.9225871874465464,0.30464714432048573,-0.06343275903051608,-0.0068881926127591295,-0.07663850541670426,0.12303849456635389,0.6277558722394599,0.45976756092756615,-0.16371071145144483,-0.04303667847834471,0.22321616398976912,0.6960206892536406,0.334580490255794,0.5911711967040775,-0.08818161994900146,-0.013696268395490055,0.008784479579079327,0.2875441691551745,0.42204084815715986,0.15740270356637243,-0.6108069137186832,-0.7578050870049532,0.044016709328866914,0.43073180637276326,0.5626736208981139,0.36028684620724755,-0.037390581101058966,-0.014223804874823134,0.1618176134128665,0.18410759557865758,0.2887261846996884,0.011150222817893608,-0.5599668259929432,-0.6788531859645398,-0.35084943945179065,0.7685966669862107,0.5883371394274001,0.1129495762750335,-0.08977188401283846,0.001136135189654013
-0.018995316769760146
-0.10491074372222152,-0.1296961897465574,-0.1236444393164126,-0.38785202487322573,0.40732809728047475,-0.05718082449047566,-0.5745909907659789,0.22679111048148637,0.05295989901964331,0.06961815572356915,-0.0735052909006625,-0.11240022318763669,-0.40822928034280265,-0.3722965687857505,-0.964088667938335,-0.45431451542819573,0.48688660049420834,-0.028435301380999062,-0.6303822181799273,0.42934713176870326,0.12018963183206714,-0.3023793687681808,-0.32933544463548897,-0.21408228510795924,-0.24580582307139454,-0.2404332407296092,0.042772251958107944,0.1850744054004162,0.5275840238310981,-0.17029620521350974,0.08786688721538936,-0.6233130257276619,-0.12045275878037563,-0.378108484703592,-0.3575031081487828,0.12252926628494766,-0.14896288079975933,-0.30864397061878196,0.537312917241689,0.1422208998244049,0.27858255492945266,-0.38152946272008065,-0.9959274757322646,-0.1545557679793893,-0.10621914367117606,-0.4234586707436407,-0.2837171988677735,0.11929874350395432,-0.02729501983012638,-0.2894379012656845,0.6525453780986049,1.1750041384019572,0.27884945976241343,-0.6036640035625626,-0.027557000729054835,0.20127491604358022,0.49623314478964803,-0.3911872980970404,-0.16675930167690356,0.15957662995946842,0.1950923722200773,-0.12749509923856317,0.6480098552024537,1.054244919592743,0.5076965493061448,-0.5740693026730818,-0.5020025277443567,1.2351756985316735,0.46423733380654014,-0.5524626063976364,-0.21353699858192332,0.2061463539655714,0.07857029809851522,-0.007313392765976592,0.2062564284867413,0.6214919316059456,0.15395155840622693,-0.31377496310215663,0.12095509517148502,0.7516413106879681,0.3838668209122848,-0.33740450655930704,0.14140876572000566,0.1793654428562384,0.08012578836189689,-0.0900566771220787,-0.09110400334199277,0.5326141503985794,0.18857778612493797,0.0570007250670826,-0.07784294751127728,-0.046130991527213526,-0.1884173954581404,-0.1393791695047606,0.09575541374127543,0.2626326378870551,-0.15058471499375242,-0.38499677154059336,-0.3140465748473574,0.0248261999371946,0.11862931886155033,0.1660017488456405,-0.13777452326672662,-0.08620812302698626,-0.2225215003615122,-0.009704070690489064,0.07707511980637179,0.17685464738400603,0.0931193255207091,0.0659974109561935,0.11999897656224824,-0.17276417792037896,-0.08409927187704232,-0.228416984662822,0.37338759069352084,0.2835699803965725,0.4332008723890251,0.24241627283759365,-0.0038599980436432773,0.18828944847511536
0.21796271666077882
0.011281899238384487,-0.12770060644118209,-0.3636185245115739,0.11652338809396988,0.2004408819343712,0.2047667139354401,0.4757244229735233,0.40355464379903533,-0.018837133543164433,-0.20625389923173532,-0.007423713023400715,-0.06543700069635737,-0.011756543072923762,-0.17346521707121398,-0.08420616328993248,0.1622246637194114,-0.02864547253522178,-0.21457663564742208,-0.3092852180724444,0.01939432151797722,-0.2074352708450773,-0.018740524886157125,0.04022259899306279,-0.05802934435291141,-0.0695880904507641,0.21805667788164956,-0.01850459217905293,-0.07987561110689027,0.1646364994113934,-0.25401865348861136,-0.11499978970552634,0.35685835905964874,0.0016092605334905748,0.023798512700264087,0.3133304181941741,-0.06394199728682835,-0.12154078064408418,0.2975133947591709,0.09103100179245459,0.0470643586482014,0.12942580762965256,-0.24013376415788218,-0.050321328451284224,0.20241986602469525,0.45093003135976767,0.4195013255190064,0.2546666337906763,0.07732883403671918,-0.13520342556565068,-0.0027028559542873996,0.006288645761985525,-0.12827244811236727,-0.05920278489308727,-0.22459908479601948,0.033803208483079626,-0.004701239375114691,0.15149856917527,0.38234218715026086,0.24670015947228102,0.07442027664289887,-0.11010399084065899,0.10653197494671181,-0.13542366428095848,-0.09874284061515952,0.18161012266272109,-0.24981227505095543,-0.24669508904752657,-0.2699003861911425,0.06183614215397317,0.17691913699019157,0.028067013549000246,0.07278723632312221,0.07993208624728491,0.04919983096311605,-0.29653771102213017,-0.03490948488963589,0.06472221318072917,-0.13141094620665933,0.0473663311668743,-0.018325252507436583,-0.18248555994193194,0.17912048601451463,0.09098975022506918,0.02878995327465444,0.015196636134698894,0.05927532355073594,-0.2926797398070288,-0.21690535059161214,0.3485174481913205,0.6293640408067799,0.2811441254759938,0.22125859768397693,0.030647705454011468,-0.062455469977784304,0.10715004471795862,0.011998128949350786,0.09304325059040315,-0.2100884126758097,-0.3773962879809692,-0.41376273893583565,-0.09206435176609014,0.36206905639511683,-0.03883878326513492,-0.29441027650193924,0.35530173791269365,0.7369735396510505,0.15379172057953905,0.057502810264082375,0.009231648728117277,0.0072638632063349645,-0.23272702096857184,-0.18097161057955324,-0.5967069184939319,-0.05997338093562612,0.4448341547799322,0.5042989273707135,0.28822797163508046,0.5051672947634278,0.14875810621580338,0.06833138859393904
0.0012601968375853649
0.19151440051903032,0.05513759361947307,0.018195951498467394,-0.06261357816572881,0.02221657617032473,0.18160710553816997,0.09878056088979041,-0.10109136644808263,-0.06149271985688935,-0.052084789091589825,0.044015126241089594,0.1620601389228122,0.42954860283033913,0.12165291791494086,-0.10990433985449531,-0.032709779877531694,-0.06114862946974904,-0.005345968111155549,-0.034724275141285524,-0.20360420726371,-0.27453412342669836,0.04423564701576713,0.17743305498553155,0.3294703227282366,0.3965100845297903,0.2998854217578487,-0.0361935858889946,0.01225288621319809,-0.27827313527164776,0.004036669621828881,0.14820066311022542,0.09788933720811245,-0.05124061142108356,0.07131832600005193,0.1899127858142978,0.12453737117192219,0.2347334694076574,0.15660791392989917,0.030970094947591273,-0.07023625630939397,-0.029588152238622913,-0.058360384672869664,0.04431527328971531,0.033608804556555225,0.05560786509953619,-0.047595445963288505,0.20801676848223974,0.0931401598176149,0.16157301639100038,0.1729031796664627,0.051244753352529135,-0.04870809404157378,0.11058618266072705,0.5588320512541041,0.06700626982776793,-0.35643437108393383,0.16605904919979278,0.05876711268504706,0.1427631808570737,0.046350745538929386,0.006725247882903033,0.18328415227395692,0.07458703539289648,0.1255592842500131,-0.025518760631690694,-0.014623835750220667,0.276786516803877,0.09399510393795561,0.04810089653817701,0.11495296236131682,0.05273155445612049,0.10641900722374566,-0.008121193761878852,0.08515737005443132,0.17350776587267983,0.23421186910471434,0.24690533586870025,-0.19398158124101603,0.20189425805808373,0.29752042296564796,-0.16066901535630237,-0.002272198446676962,8.9366225192347E-4,0.030011388425795357,0.032987199773040335,0.053344068461174024,0.22733404732117032,0.18278341814581797,0.29409496013995684,-0.43277247359710624,0.2960983154918202,0.1793245886743232,-0.09047327676936064,-0.005331637636646278,-0.06404600178103288,0.0473842605978823,0.05068110082069284,-0.06368769928332448,0.19846300405635517,0.23014765837899112,0.07166272778719741,-0.3009664300375048,0.2959016713788275,0.03704461334082382,-0.10019475721929703,-0.08280224213497549,-0.07527722164866575,0.09511164536130771,-0.03132866074346706,-0.21835430133736214,-0.22994402065440303,0.03825102432606668,0.11164634215647175,-0.18938403503061593,0.017747084028926087,0.21951272037815986,-0.08315228250398031,-0.109082166270754,-0.06429301851589696,0.09508430181897483
0.04752515498382223
0.24264168621275417,0.18471930497420946,-0.15324113906969755,-0.894490030992253,-0.3013807093368408,-1.008614187330574,-0.271682012461378,-0.10582233151591673,-0.2622174226305951,0.39210068792890107,0.04748077223147225,0.25039799084251263,0.2930921616047616,-0.3234473208370995,-0.5839200819181041,-0.21381923207430414,-0.05439325567272103,-1.011044632169837,-0.6675418923926382,-0.1242789934202339,-0.294754592880176,-0.392214262351156,0.29275618317549645,0.3008420437383118,0.2534074505870729,0.058249374061114176,0.060563360778653805,-0.03610059072101701,-0.2651897277858949,-0.5682832974883498,-0.5949723408615455,-0.3547484855991312,-0.2553174467168674,-0.0957355852655344,-0.07391986274100508,0.16518620121855576,0.23640468799635267,0.24904641860833715,0.26331443727427506,0.2194840894315661,0.2255929005261622,-0.2537116959781939,-1.1749030929247337,-1.193418456319638,-1.3005738727966927,-0.469711237866289,-0.02660820546165767,0.11381768544409994,0.16355016104913117,0.46408941429171646,0.4218102976431509,0.9179002923167934,1.2479718973293248,0.6294297543362171,0.9767507213271103,-0.05567610555670552,-0.6761677909008519,-1.0110928162453447,-0.16432681738526778,0.16411081627624868,0.10819946368883711,0.3894155542724965,0.7835466901155621,0.37039285834373425,0.49142693033671714,0.5521215383836662,0.0675995354178592,0.8736717338813511,0.5754738043121934,-0.26762050590500486,-0.09088315766482864,0.07056221839974046,0.0863257807792794,0.7573794627638173,0.16196925391012623,-0.23461599665527844,-0.18393594081854853,-0.4768957376862861,-0.09078075919019206,0.4279292279757553,0.5634196184218627,0.07264064560400578,-0.09409369341026104,0.11068179719222467,0.030657724701251794,0.30194342602540336,0.14482307265421884,-0.00460367813022064,-0.1748181435234109,-0.07234729562930424,-0.5446335327435827,-0.45911561914251775,-0.10071175408870393,-0.11381274784461522,0.060584308569850726,0.14420981398546828,-0.15821593683187118,-0.6539731866861684,0.12056423815873922,0.36743472199235316,0.2614490768390275,0.5009460767583618,0.6129937749256185,0.2223641391667041,-0.3260584338752305,-0.32553927920703096,0.004190634055716878,0.1279730962030029,-0.09890386764986185,-0.15164382615120553,-0.42945824032714575,-0.06469768239158537,0.6423181622034291,0.9540367868137134,-0.2815163321939831,0.7173077765229028,0.3135285468711744,0.2766301336512451,-0.04451693226558988,0.08067465317268745
0.09625884721808285
-0.07268419337810472,-0.22298635991336915,-0.03696696814273873,0.06549220604867953,0.03673519171810056,0.09172096949138997,-0.12363215149324461,0.25607058081580286,0.40998013740590117,0.1610676188030358,-0.06182390350291076,-0.024550057876492937,0.009046059228305741,-0.05480761892046359,-0.25544297623445406,0.3181018665922059,-0.052079233951955524,-0.20151266927631775,-0.37820058345622126,0.10459804327911118,0.14896935786139529,0.1831919361655198,0.10851990489788646,-0.06613002190837641,0.017208045911366054,0.29981255276870006,0.05936232242892308,-0.24114098144705978,-0.23982756651166046,-0.45855784275100814,-0.0020140076456467673,-0.17310961210263295,-0.19837749253298956,0.16760134478225688,0.18441991225214935,-0.04096077248472214,-0.14938302208786133,0.24877875772835964,0.182648832341104,-0.10655663379096514,-0.3097063077642142,-0.42936150437049364,0.11006418820347294,0.2754391358694575,0.26445020513317935,0.338908912230479,0.13587683277273868,0.05500874719722899,-0.06627599944282164,0.08042351117816493,0.12440092420670362,-0.08143085024191646,-0.22040631977818345,-0.5455613243578634,-0.263195082888164,0.006963979759485624,0.08429072811469515,0.22293631142768186,0.1711618615482439,0.038822442449217585,-0.1042403277353536,0.1949254955171182,-0.29876212813626074,-0.10862351920312693,0.39416147266895024,-0.7003760363591187,-0.10729700784746554,0.60335171954137,-0.057857082203190045,0.2158245290790309,0.10025223367012717,0.003708057925473731,0.00979316237828062,-0.006182568824120646,-0.3065114967806833,0.15591394864370492,0.1290909362666118,-0.22847704444101916,0.5901423923045597,0.009992550986051434,-0.11566650267843887,-0.023220064993044878,0.13581897276457208,0.009716074592760672,0.05255037787239774,0.047800422535980526,-0.46067682852230735,0.10458882765736624,0.4380172747337298,0.8352098617099502,0.4983822799705722,0.17210158711029924,-0.07205115890844804,-0.01073237773604684,0.0848484165802543,0.08271326503930529,3.9315331605105824E-4,-0.2758221805649534,-0.5980934348190319,-0.16281623172322915,-0.23998169548097723,0.7691045092353666,0.5926901437285146,-0.38499759517973003,0.2578097817975886,0.5096937294582448,0.015713972547259394,0.027866570335841386,0.020760207177457964,0.02874589795217247,-0.1087650631898947,-0.0204686795357289,-0.2091544219255286,-0.06988804152208555,0.31018096564489334,0.12727263841275113,0.17256318016021296,0.6255770803233331,0.15433377407953283,0.056092553620874376
0.028952765393014456
0.10398520923186909,0.4197478507101389,0.345310551186858,0.8316069219235365,-9.215099876750415E-4,-0.05342760095355486,-0.2215831033078664,0.4702860374245765,0.7749672713229332,0.44056373526999343,0.31873702976781354,-0.08429624934523473,-0.1218068374032893,0.19183014500509332,0.8427103294444176,0.28264367361564185,0.08400243005387224,-0.3179028896547927,0.004299987044678726,0.20165767660214307,0.5761213306318087,0.7885932530832735,0.03124079518455917,-0.11890511631480753,-0.05839178976135697,-0.3017388198063074,0.4412304155320264,0.2705679021395407,-0.19934261747992643,0.21034194604337214,0.3596146339787792,0.43410752041018147,0.5804524148542565,0.3490710414281338,0.15094488212353668,-0.057574945813128366,-0.1851647137258811,-0.09089586323126435,0.1988308075306573,-0.04863939801798201,-0.43610275169590623,-0.17144735744294187,-0.08852753867505676,0.06785643508728899,0.8313590737182344,0.02507291725208403,0.15967075611015846,-0.03475700469966713,-0.207516749153562,-0.2955226435808052,0.20915666496360602,0.3667619184070913,0.07820210640615598,-0.7089474460639114,-0.7925134600589363,-0.2316052144103925,0.263277789548749,0.02938646433482092,0.06510166804338789,-0.007418686908119594,-0.24221115940020632,-0.2082423370899653,0.04365463981475149,0.5621001931202603,0.5154055824496511,-0.7645275660310631,-0.21756348276020215,-0.8432206291443538,-0.5975470276857722,-0.4091869642275417,-0.10802834213612848,0.043651450559737175,-0.03646810264467413,-0.07635156584223775,-0.04918718788824731,0.16220055286446577,0.48092728319037564,0.09152330164123228,-0.14081971594874892,-0.567460367466746,-0.7163366779276115,-0.6984656587232756,-0.06336139971064995,0.04182801727626779,-0.022039034062309375,-0.1680556562525276,-0.3147797801547289,-0.44085696971569394,0.010456982603991782,-0.019219501952732306,0.3598537002519862,0.005330470616130482,-0.5934384300764313,-0.7024287605490607,-0.05479860219621887,-0.030189932863900117,0.052779786926197135,-0.07754146282847006,-0.2792406526805025,-0.611165386362587,-0.4702361254420076,-0.17626846098939558,-0.32277865770962927,-0.2621804639188228,0.05543839680478948,0.16643248975373487,0.280376971278618,-0.02561656691605815,-0.29542933858800363,-0.3188533956776794,-0.523548745340058,-0.4709459552170138,-0.18948500314040256,-0.07462007819260637,0.617740795413708,-0.7620009616834242,0.28144628072106453,0.39835906590678,-0.0028074256373696294,-0.044327807553089134
-0.005358839964198446
-0.04755118367779901,-0.08631747943228868,0.12339056993384373,-0.32244894216150705,-0.3364512472964019,-0.3293712600954701,0.09592768204491905,-0.35777040267075993,-0.07716902372219822,-0.15271570386218777,-0.1495381189092634,-0.16946071188794834,-0.11177264061524089,0.1480676155231003,-0.2508549036083911,-0.5678481914015316,-0.7684794815021563,-0.4625515377624841,0.14444409187318316,0.36103794377169435,-0.38866555953911436,0.31678343192973196,0.012791602581888422,-0.16690591566947768,-0.1401408323668569,0.03350528758931519,-0.4619920895865985,-0.549249032405396,-0.2673837108188874,-0.11437325902997228,0.5097339663137075,0.7386575555708268,0.5971255276691885,0.7456053699866696,0.5336254397599105,-0.04409230438474454,-0.03602259340091546,-0.5013470704645854,-0.12354282200282152,-0.33191909341193754,-0.7298379822969845,-0.2105686023701551,0.8358646091703459,1.2520923348337012,0.8515992045259497,0.46858243467579624,0.39772733405242894,0.012566754819701473,-0.03927042419493641,-0.1274573038235469,-0.2043850335208204,-0.0012465114538188298,-0.5406567634932729,-0.41257963941481807,0.26590655163443294,0.27778878511745214,0.6295193513500259,0.15874896637133065,0.13766383036046978,0.07741812388784289,0.05517275711818971,-0.28327598973251905,-0.17337596368947947,-0.08073515946098309,-0.3608189950433201,-0.02073543042086387,-0.4597336080525691,0.21296096232751152,-0.02952772075541063,0.3251823072419962,0.059758711826217156,0.10298578852105589,0.0628432182045986,0.09987721603838642,0.1983560150221155,0.15899125989775356,-0.01774838790389923,0.025355757746081266,-0.9034141447758988,-0.7224628957423804,0.180693581916157,0.06473184382517738,0.20326004960696922,0.07220384446053646,-0.0012738782033626568,0.09974208988893574,0.22679623067658236,-0.19505784992464378,-0.44869884451158043,-0.1247339326858321,-0.5700403712744497,-0.6118536235137813,0.06971437863838845,0.14977565783734217,0.08662276539655744,0.045375625000940736,0.08534617354436005,0.2887229729566387,0.41021079001127353,0.05444391958741521,0.48290566699534837,0.32074216487553636,-0.4887179058247942,-0.7807802292149522,-0.3365923871779623,-0.38069241909795964,-0.005214898807630969,0.06043507204839664,3.376197927127086E-4,0.06376431714465172,0.1793667075252263,0.2190404336809265,0.6292969814373672,0.18830441106736914,-0.551768418414462,-0.4020318765918754,-0.8507153759444057,-0.7025670725558331,0.00684168635290455,0.08342197683801739
0.040718000206333815
0.10200254789957004,-0.024832074739215525,-0.27357847895585286,-0.42547650526954106,0.007975622253033263,0.18005564328770668,0.009329880488714713,-0.38141229817515343,-0.22670320045738346,-0.17307490403642634,-0.007610033769642826,0.09246873897477813,0.2570173757362889,-0.1030586603930742,-0.3806403077652223,-0.2668938238382954,-0.09717230437154954,0.221960060915111,-0.15621503107605855,-0.12035294464466796,-0.3776378932648997,-0.2024667858062194,-0.036772208939542986,0.17944839506716653,0.24459756638989189,0.16845211011483352,-0.20377151403908145,-0.23097822918573807,-0.18284345633221194,0.2981726785233171,0.1310422973585233,0.018246344219663847,-0.01833120417944263,-0.0734058231083642,-0.025561560834835927,0.1919937543879114,0.1360343386113949,0.07752762852570709,-0.11202875876661499,-0.4314310198096969,0.0831911431017487,0.230945564052966,0.17245227630804288,-0.21662687980683526,0.1083659444577038,0.01668318021474153,0.06207220414757102,0.14927206304315876,0.08295145506404973,0.03949914981443915,-0.06069011650090417,0.01965708229312204,0.38486035177560607,0.43548107413768444,0.17482288835889948,-0.15315332840034712,0.11115670605304713,-0.07747503323136636,-0.00502676165879495,0.05933594329068345,0.12006469466091273,-0.055915413087073526,0.10016042754482053,0.31260706943565186,0.16989448122958373,-0.19690984723437654,0.023322453097442096,0.1364597043037083,0.0932205104066106,-0.04121211680444044,-0.03346979181577242,0.12069310658485123,0.0959227786586734,0.02142294338501677,0.13307003096115036,0.4872893116012945,0.7357709084400054,0.04610791815354162,0.14412550562093246,0.5104302384679773,0.18826232387748065,-0.1306286262772065,-0.028216186379337406,0.05588896612444284,0.0794110552533983,0.0068478630828170475,0.008079279881104792,0.028879245138705385,0.6088477533656821,-0.006318647600042859,-0.10299117061031206,0.10142706255424393,0.12074673635324083,0.1463863920340373,0.038299306157437846,0.061123126642317255,0.1260619814530401,-0.07538187056738004,0.3412459500715528,-0.2431205173088477,0.2408579653738649,0.19653172589920637,0.39343560054053395,0.0207145932872057,-0.09240111435764335,0.16670271196689757,-0.01617049553631436,0.11329019501412936,0.13120682408293433,-0.08233394655138222,-0.3341068112584539,-0.43974511418923823,-0.1799342295673087,0.03252363541230645,0.16187790524582085,0.029643958156848574,0.019194698077077105,0.10758821844637419,-0.034821391611671665,0.05903084869049245
0.12419080279630078
-0.12669816885104848,-0.12271366095269833,-0.3124376327651337,0.07670556867573898,-0.31728602428661434,-0.37019284104698635,-0.24361274255781112,-0.4876717585728435,-0.084278606767634,0.2610244381752388,0.25172596977886424,0.025907891403524737,0.09909388118999353,-0.0012893838961607102,-0.1518893136993752,-0.01823703376482748,0.05733747603628892,-0.48679721350059313,-0.43295182827292833,-0.3985894554771806,0.08483023078344414,0.4505806134459963,0.2891364180310908,0.05474147575856166,0.04264067174031897,0.3071215036925593,4.7935442110482574E-4,0.13031275691560218,-0.1350213873963866,-0.24907092002041512,-0.4511368001358247,-0.16248584631567858,0.3748481960473744,0.18060685506611707,0.22915318782018274,0.01135830191563933,0.0037659765153437177,0.19313223221721215,0.2447337437459498,0.10527178412269424,0.055159843710703614,-0.20201688435573295,-0.40356375240503695,-0.09930564519346237,0.7462979865399434,0.18670968904795238,0.13403744583666033,0.00834900177499481,0.008023816638859385,0.11523220594819446,0.2202526214366302,-0.05995869696432745,-0.07759966465159267,0.09986086683251576,0.10961041761262084,0.15060654269945045,0.7053373374123909,0.2638627426199569,0.08043292768981126,-0.049226804520901994,-0.03346720053545096,0.18546448317423142,0.1697005209971733,-0.22076235544977935,-0.28257546297907643,-0.27594117740072244,-0.1074269902193415,0.2296060840918771,0.3357326471567935,0.49466377284731544,0.013337867770710388,0.003974459766444742,-0.0029876652855662963,0.22529644487884765,-0.10672373839838774,-0.04318152271220598,-0.07730814886410499,-0.31362569314370115,0.28141464116251513,0.26602890586180006,0.2407775677868812,0.11122018926651732,-0.04698691073238113,-0.06353424165975033,0.012227421401048717,0.09120519071186471,0.03855586928237146,0.022818966633513696,0.08291839988201437,0.3175197022794404,0.06043601091673859,0.3577705985658777,0.4596251927833349,-0.11778251458860385,-0.0669126499520868,-0.007989839999282926,-0.18041503500216577,-0.05206167868073843,-0.2570914133234393,-0.11692311041191598,-0.25490850590031155,-0.05108786072953258,-0.2477777347517377,0.013221066265706589,0.2558031510325365,0.4620856981342629,-0.026044310039187717,2.386539945384772E-5,-0.022268148571347242,0.03854241869250468,-0.2295674509454516,-0.2853505613894962,-0.5631172456890504,-0.06264341891210688,0.18469624444578742,0.5239003513515118,0.5704750332684968,0.47128398020359796,0.08418785768805516,-0.007187637024475512
-0.0326448722044655
-0.22768828936387434,-0.002132935006635659,-0.12043004949887953,-0.4351029238586133,-0.3564986335791868,0.10392065693388178,0.0580516713848998,0.03950546628338234,0.7093431173552145,0.5006061274916005,0.26481699060114755,0.18461517659166135,0.17048513141680113,-0.25730660573306546,-0.33027391729803995,-0.29394879919138867,-0.10845953516016932,-0.5787437354610392,0.1395627879194228,0.10749832701493714,0.5076208594562099,0.37640796930829806,0.006340008042079338,0.1660686062312258,0.21400616025016314,0.18173604601592921,0.11323725980162896,0.02334072259870852,0.06548415081014039,-0.4307437003947084,0.3571799823581608,0.300430214544635,0.291645068894057,0.21995679943149923,-0.25796159661921586,0.21915437851746247,0.2539371649215009,-0.20571818877455675,-0.09927066072564816,0.6449723268995218,-0.0942166864400597,-0.03942086809027163,-0.6787566200466357,0.10556511186812909,-0.14945172445628793,-0.2612192975302498,-0.41564907952524693,0.24161634086597297,0.28626411286796677,0.17174707510861573,0.297923553996525,0.1715944734737427,-0.32916424065576183,-0.4551161790590242,-0.05157807393441586,-0.3016323796834656,-0.30090775208778725,-0.5446954023232253,-0.32373154928614306,0.2657834191256004,0.3544691924038578,0.11833667957212812,0.26055571888289214,-0.11409479041178747,-0.47820808233926854,-0.38498117796728,0.48430673424218623,0.3061741591323493,0.02251697098937639,0.1355169709854219,-0.25633842544213975,0.33258416049492806,0.20204883446636648,0.6116806707997382,0.051851290188007736,-0.6698844195273177,-0.6845143987556703,0.31076337148602456,0.4451082955044569,0.2656890760774852,-0.5202184133027066,-0.15658626421114039,0.030865370873131577,0.27336351052294955,0.28406220114755926,0.21505819651644895,0.31005431570577374,0.21553204766145936,0.21813627301801145,0.1627369940417079,0.1864951354168106,-0.2770879836873244,0.12841049243648714,0.20063896633046432,0.18608073832089442,0.34412953840280985,-0.4385470717851658,-0.9688062885002904,-0.771574473287185,-0.17449147229266618,0.281706782717369,-0.20972027566049525,-0.6878269425348735,0.15720667384323198,-0.35729734712615596,-0.3754833689588151,0.08726969396399584,0.2786762739343506,0.18566676464381324,-0.30226289667278167,-1.0292686047065667,-0.384649115297455,0.9609333584707582,0.36876241395344384,-0.2924597692009761,-1.0356515795671728,-1.0602033169526175,-0.5767207406847321,0.10949959444482882,0.26385460243750675
0.25715599070123946
-0.08370383822373724,-0.035871239650718284,0.3246777195780666,-0.02706803882443028,-0.09564891833405155,0.12086545180069537,-0.14071384744849874,0.46255555911041973,0.3146943026729058,0.38110009121225247,0.33037937134512224,0.09234375364467683,-0.15196282225532604,-0.06618558199751683,0.42454649222090396,0.7376340654313448,0.3242713744028198,0.20332761429116553,-0.35053254091876834,-0.046986794989866146,0.24611450495534493,0.11273050223490948,-0.2846807684469315,0.04271337794820344,-0.0716934759229854,-0.16439157985687436,0.47398499704946145,0.7176846383156587,0.11681932012602579,0.4915105257203844,0.05927958961204635,0.19425179714880303,-0.11544230061232442,0.3935111379482921,-0.440478704351478,0.15428787293990864,-0.01118141447377987,-0.25425085356603633,-0.055470055452972344,0.2891384380824081,0.6409339582730368,-0.06181901994438528,-0.15394055342133778,-0.2512120221139293,-0.8118600618660211,-0.18133894989017607,-0.2960555310473317,0.21966317993520068,0.09095487813712823,-0.30363880834846174,-0.20857502979125692,0.05439534636243605,0.5352548608054511,0.9275838122587131,0.7286004651206271,-0.4452869919086447,-0.6080809842283609,-0.03425415347768605,-0.05576370122829677,0.2223953439666106,0.08582424577901952,-0.3005748027743878,-0.5016648577590378,-0.6765151652447493,0.2708150443470739,-0.17088556892058154,0.5063179015137481,0.06659242886181159,0.593190954734281,-0.2453461028414513,0.09356429091502057,0.2874279772445056,0.12660576000373347,-0.49686716839057504,-0.6539586731057873,-0.5226103975030839,-0.45423600512545576,-0.2236969957664739,0.1391703807202106,0.8775605442609119,0.9378407038986954,-0.007145938420888655,0.14408505067079197,0.28429644904355506,0.06880776567027701,-0.05465275397788165,-0.31747859438272846,-0.5116585974538218,-0.11311883608425681,0.0429953111465004,0.20395011333445706,0.5179159269593615,0.16002471130565732,0.0935336970750996,0.13453073429613505,0.21704786411644234,0.1694997324201969,0.17479617388899493,-0.13948321354201682,-0.18306744682752502,-0.7042667291566201,-1.0771362597058907,-0.29906568987608023,-0.9521819184006567,-0.26268148216975123,-0.24161599184470456,0.1654464424633666,0.18530114373338435,0.3643312834516344,0.34431962688843404,0.23257640161714477,-0.030063458736132833,-0.3001531148357251,-0.05712772358500283,-0.46850509386434164,-0.9760670047054577,-0.9935540809865208,-0.17204656951354996,0.20316104123241552,0.2673583585274259
0.2205807351959138
0.16324449001871028,0.16580985172775142,0.15815812030085774,0.23317107546452243,0.3240195552565768,0.09590768489036958,0.22681638957435268,0.5921718025633171,-0.038905656214976055,-0.24055171193846875,0.008667730956986471,0.1889327203357834,-0.0012222623329398276,3.0285306796498E-4,0.14033784976356395,0.23746652546983776,0.04958993587811509,0.13553647440152533,0.002504249236894571,0.06667787068120962,0.03956467975834107,0.15467563016164632,-0.04672442739091764,0.17564817546222594,0.09404339380829968,-0.2213365381211111,-0.09811813979211048,0.030067661466436826,-0.44096774867976885,0.16839299988447992,0.11387454623321902,0.08650532081328974,-0.08797902196957669,0.09975322090964409,0.03235693380303966,0.207502050197514,0.06117835951872492,-0.18113340885491108,0.0027437931305124797,-0.4163742283548726,-0.5757633816597005,0.026569408865283698,-0.1777805530272737,0.0038546811349843262,0.31649998762449516,0.44438869958546434,0.2151206007182183,0.2601937693986036,-0.07206905277826964,-0.4588767109800562,0.08077740030853073,-0.001898846133661783,-0.31528227130845765,-0.09465520698409072,0.16077082827255773,0.2914184404190032,0.17831451862579528,-0.050545813362607585,0.07556222280422792,0.20634840690194506,-0.10992479502411948,-0.5161600317865217,-0.1696001970639715,-0.065471745716699,-0.2685238579755316,0.2581279275902596,-0.6303231708652373,-0.31886340356367937,-0.19215902314717231,-0.3721614551805892,-0.029522562744348533,0.21904820967367117,0.12505753635897945,-0.5576283175056804,-0.18829559520987404,-0.24604547728190862,-0.4823485770332915,-0.29231550672250295,-0.9594234527822794,-0.34183007533374,-0.3221871411178475,-0.2529377954210692,0.016927253566459428,0.22917068665348012,0.13965338114027498,-0.6005897432291112,-0.9512168840307909,-0.42611419023068065,-0.10492832694382495,0.21686624488278583,-0.011564760022611302,-0.31629694088931937,-0.16058937634890558,-0.13200103068313157,-0.027187943553236806,0.22593987450152808,0.03438091420707317,-0.6862599205014219,-0.19748319337576614,-0.0887834722618493,0.8300982161792352,1.1324336394260308,0.5515273676025894,-0.12347412442093691,-0.38502505874083504,-0.5641501580330033,-0.1599160074891523,0.2622115534819448,-0.21257380364399064,-0.402171535928312,-0.2552299474236446,0.3518996606432996,0.4017233016753726,1.4627806769577962,0.9618347337540711,-0.5517660744068829,-0.533750346172035,-0.5346350958141227,-0.028404794980532767,0.19696355665166287
0.24920056068369967
0.11654353905333309,0.070584789795888,0.13278335580978468,0.07637166876502519,-0.09614896372883419,-0.562011989293047,-0.49670428318725784,-0.12438202407515266,0.18364848503130804,0.19709247210919867,0.14902502024449044,0.07549737661097594,0.005308993288792869,0.24516586815356528,0.1761091135677505,-0.2843071861620174,-0.038184339988914004,-0.8238294508005882,-0.4006660783992259,-0.21910426876649147,-0.10642582759861074,0.09731174991010538,0.16173200352487144,0.02905006215260894,0.07266663616975788,-0.010756483717838026,0.12654006651564687,0.09973319119285243,-0.2072097062045019,-0.5455630315293954,-0.3634619182981917,0.033795976631468966,0.2667818867786926,0.2848030564683924,0.10146834484098302,0.15540866361992234,0.09247345335319859,0.038053814407075656,0.15382627977309943,-0.20982737746130115,-0.15712467735571684,-0.7352910636425013,-0.0316386104203079,0.031165943130758607,0.2645810815561707,0.08203645936345749,0.13241069561551255,0.20841644950030264,0.1257558874365186,0.048886896645996686,0.06017416106319044,0.2700866019710639,0.20793212731674193,-0.8810389304270508,-0.19783865749429058,0.19777615600383536,0.05031121226106315,-0.1419930969711113,0.023828499665087786,0.18883555008962727,0.16807059194719903,0.016357759162891547,-0.11889377410887839,0.20508289262195928,0.4327889267093083,-0.3200854317691825,-0.338648813397498,-0.014800428354058474,0.11348365761111018,-0.15396061764100533,0.10940035190163713,0.25560673738925693,0.20030622341056947,0.20919739878728705,0.13915437183341,0.012330613079311499,0.18432776497112419,0.1571572171309038,-0.47002642261303124,-0.0038080198195618678,0.03269917286499546,-0.34074479499441707,0.16180685114502952,0.25748394869214625,0.2295889906553366,0.1059525389610147,0.07262486732301426,-0.02087500813684716,0.2226394726187499,-0.19699512362290877,-0.7046488932343963,-0.5808575029900863,-0.14180974654947565,-0.3503195444497806,0.17946665877755485,0.24289286837179913,0.2168272156544095,-0.15373645497876715,0.2034001527350472,0.291461680256262,0.037811853132061174,-0.6306244976638903,-1.0786248662092945,-0.5721477431152574,-0.249765096928665,-0.024241172584665995,0.2822663780883164,0.18719564485480011,0.13839043923765648,0.11390568386280411,-0.04968755920615131,0.11089005397681004,0.004201231585505151,-0.5450213775134377,-0.9336753169767841,-0.9142454790141169,-0.28668045910295265,0.009297200364533641,0.20154134798713136,0.1663133089035651
0.25253626109982114
0.22255038433077948,0.5120042968326284,0.9676269978349571,1.0400383080458924,-0.4811898550578575,-0.23334347078134357,-0.4485204017148613,0.19628222014445953,0.30027936549025047,0.2425819013583008,0.0655983048150889,-0.059372577359813584,-0.2894428008646899,0.1240855435959098,1.4585339263752726,0.23972376657351477,-0.4060528429199808,-0.11829049941208876,-0.08406139469849956,-0.36007313169433575,0.6669733060822364,0.1531005519021704,0.034861087286010124,-0.1269369582073355,-0.21082310924577716,-0.6352022043137447,0.6734743636177652,0.28486034170330765,-0.34891277780055985,0.14791556636753514,-0.16157310275467937,0.05920860310794252,0.2814381863569214,0.7572798712447443,-0.17617888859783223,0.007374153267224489,-0.2712856152644382,-0.34001815969054106,-0.4769343067058608,-0.23101055621586794,-0.546814773025552,0.27714552664120495,-0.29950638302123933,0.2688761452090366,0.7989954227156201,0.32580693755619394,0.10525225416109034,-0.06533787537528889,-0.21635171953329865,-0.6264848608086694,-0.8427019845980327,0.1627033770428152,-0.042783687134682606,1.7488055548022432,-0.4130391020931429,-0.26368219025769046,0.5407978580606952,0.24126372162458784,-0.0118098089385578,0.0317078292532104,-0.26986168483968476,-0.45277602059906397,-0.42064721499399893,0.47044599790309405,0.06548916430478925,0.6739411801875376,0.5701780968798812,-0.13896245378872843,0.060794510231726,-0.4568376817151093,0.16090742925382587,0.04993569412936718,-0.09233501897199557,-0.8140540130175938,-0.18835826386677765,0.24853773011062055,-0.0019552109092558986,0.09454360024699528,-0.2040708127169952,0.07109539096319241,0.3321586655322205,-0.41805862084160117,0.09789646369707082,0.03341596076235787,-0.15318231815480357,-0.9129262613899501,-0.37423991202492557,0.012288259236002125,-0.47186181317606957,-0.8432485166466667,0.46484963193309226,0.4489471040494012,-0.18676192097449137,-0.09966849209073479,-0.11195028794140892,0.04821572939719911,0.10527750654886602,0.27836873574505727,0.6701583065046991,0.6423024589696752,-0.2654463344353991,-0.0997570486538479,0.818077975714819,0.1735683938206475,-0.026449168855544377,-0.3838217767656331,-0.024439480426054514,-0.043443642472250334,-0.13533739579374368,0.11442956696271926,0.604399412480129,0.3728648806826451,0.30472261883752094,0.4745871152440264,-0.23693810153427688,-0.21480634333376605,0.4195586726412124,-0.0011607902041972048,-0.09893177016163317,-0.03371711087217529
-0.021288327506923634
0.08345663559506931,-0.10918891790476588,-0.48790249099575367,-0.38654822913423115,0.18413376241452958,0.12697668820719685,0.4550154743471647,-0.059978600479680004,-0.345039202743438,-0.4209250934725637,-0.14260674129315362,-0.062283704835178734,0.32834413810151264,0.1276691660976854,-0.4683340540857105,-0.1223545772041802,-0.1683697593307775,0.046241561789362874,0.17537270727468288,0.1555077902707723,-0.4527904333791125,-0.019781231340353127,0.27478516669657704,0.042215362493257226,0.17657960294542693,0.46547888237559754,-0.016984217580830494,-0.27008412281535243,0.19276711249165165,-0.1580528137575091,0.12480345835442005,0.1760409877850119,0.3989504315868737,0.18955288412092294,0.4582813659708106,-0.0806022588444932,0.15532838651897005,0.2493290497779773,0.3128990714340115,0.28525221799774203,0.13730095785401428,-0.02279789112146476,0.16572911986457853,0.4013119998620883,0.5248762122540372,0.5277294754762737,0.41878245651639623,-0.1279878915443006,-0.01818681593828288,0.43054821809979626,0.3436032240097203,-0.13418584428731453,0.021288523120801848,0.5673885856393083,0.5431943391287802,0.07090298090433907,0.4855530946491561,0.35864886158880094,0.24372454399373797,-0.1792436541400266,-0.10433046967315902,0.2962881855997648,0.31776093796861826,0.0779928083063459,0.06090755406966004,-0.05085589954022716,-0.3101138239184681,-0.5745901901651985,0.016791671010095936,0.5044862913689244,0.10539847630499201,-0.19553242197936713,-0.044523088214168165,0.03595979608489972,0.11656870543458771,-0.20966622448345254,0.4824695728331091,0.1581223119508037,-0.19914898041388132,-0.11932492493682843,-0.5179205551808616,0.3171218463156542,-0.0278548048633686,-0.21511252389849408,-0.023853938965878615,0.16191249060281263,0.2445430387733765,0.15643621734136612,0.39912666159545584,0.4600826862317954,0.38098867435590666,-0.01327318892573206,0.14307876544273054,0.07534114355743461,-0.1013071782058348,-0.20934264029990626,0.09298339789565087,-0.38394189449134863,-0.1278030417082656,-0.014344208703742102,-0.09152161862637091,0.35150540307088485,0.19008830365403415,0.19623184453443163,-0.3029569631044119,-0.02049598921921313,-0.12452978877971675,-0.20872488439656925,-0.06471220166474485,-0.25688452466904677,-0.8453726566663998,-0.37466733552273324,-0.4684602374321738,-0.514555725640634,0.1764948369049362,0.6047544797693126,0.0681020414829017,0.015499959821523435,-0.052007085739414795,-0.22317879933055854
-0.20703170764421383
0.2129156534323731,-0.006271626015017627,-0.31866974673010584,-0.6490733876192438,-0.8310908897171472,-0.33080517137141685,-0.19537632208716685,-0.6072981279741054,-0.4696945127105232,-0.2116733898112946,-0.1464731932962671,0.16436638670765288,0.3172149619081276,-0.16896715767175577,-0.7092683237022499,-0.07901117888725044,-0.4707828942531952,0.027134639860646233,-0.34231274798228684,-0.9424447027759344,-1.1751602764404043,-0.30721235743673525,0.05344457105830357,0.28398232841837867,0.2232532076335715,-0.03879336878131638,-0.6464665891530059,-0.05865553513723218,-0.5658553426423203,0.11921852415837995,-0.28994187313593345,-0.4650825056675,-0.7066167406776889,-0.3993585201445198,0.15304104146849903,0.1397739796536299,0.17010856382161885,0.12157123950057934,-0.49011562643994866,-0.9433028543704534,0.08672092620379297,0.3851815944620566,0.817855938692176,-0.10491924859313527,-0.30354664565074696,-0.3195677244443498,0.07910558349786152,0.16860448122181218,0.14802165811577736,0.048768158766573436,-0.4761280775782939,-0.8322766425268324,-0.0772136724387855,-0.5387803188670033,0.06895420253227628,-0.02072066352802238,0.09022456153827209,-0.23723808710250974,0.07510920362596517,0.15852218042285413,0.13287140419432544,0.02645447560523945,-0.4714233382317693,-0.595741902015309,-0.4104283539440212,-0.18741600072482348,-0.32905406842344154,0.09820082177096552,0.09909546134210877,-0.066684162824426,0.04036908281061957,0.13872809356399354,0.12758142337088216,-0.034187114463986784,0.5083398347827066,0.4604772214956544,0.09708660900010167,0.4492087083524716,0.38348302683098023,0.2523515190306761,-0.12454133354839463,-0.14823115355874503,0.14767275359605378,0.1521944310269214,0.11964348382995395,0.14116264084138,0.0896054481591116,0.3384803261552891,0.4924882527701824,0.14192219553232086,0.11853065903145167,0.3330430564395006,-0.14568739983152448,0.21903365918801646,0.07367820415154074,0.12350251961533183,0.34159859169525253,0.49332007657853905,0.7074221161212015,0.9903287527258082,0.46497622963985485,0.809518182984148,0.6490908299546723,0.05544977155309866,0.20306400923853055,0.17271644991132537,0.11152943218334037,0.13621996071220857,0.3757005221853149,0.37165308766328065,0.3265523850605577,0.7998842865774412,0.4433911981112507,-0.34115817348177646,-0.026537613643618712,0.025869251722265525,0.022735880039385082,0.022960481305899092,0.1235423992902397,0.13953147390338902
0.11483221215606605
-0.18147690129079672,0.37172906591487626,-0.3484420898076542,-0.25797549125421987,0.0059759473107825825,-0.6196745015600297,0.4475538216506491,-0.17324200721791758,0.08431814472545918,0.33481216221976234,0.045724304741942993,0.17470267343362686,0.07704062117331054,-0.24637346923759026,-0.35929110757119004,-0.03166873019857631,0.5435930439509601,-0.842297448135875,-0.3801545690129013,0.5603773806561748,0.5085579464654437,0.09915096986381844,0.12226042942032017,0.14349990201056786,0.05453787900377741,0.09464850014186715,0.7335100555882778,0.1760699697431282,0.638876889259241,-0.10977184953526492,0.21731330509230332,0.748794012649899,0.42330953105697494,-0.20992696293979177,0.09185697414699678,0.18780650633688448,0.19478473765943446,0.12405540950059202,0.3711105824066962,0.905798345403462,0.34338006820543704,0.39015021527511057,0.17248437631575528,-0.6342745330155674,-0.5421265020720566,-0.10203380320541594,-0.20125653327411566,0.1449544922348491,0.19127866651506095,0.3056479269411822,0.5368487988475478,0.6084959893824192,0.04336503305393865,0.8060967449311097,-1.1288197303320489,-0.9827446479785692,-0.49093177900556534,-0.517872070444418,-0.09333105933546454,0.23747677225229344,0.19205974488358105,0.1027620589726734,0.24538660179663643,-0.0013145943155879018,-0.31535388877998966,0.5695950198743535,-0.8306436769679716,-0.3300569007511554,-0.2233067101275065,-0.41886002404214,-0.12209564873940731,0.16094897751754048,0.1664321378912678,0.12352032952757994,-0.1799832405273041,-1.059974938277932,-0.999224131115234,-0.021132591805953796,0.08021825636696792,0.16664150750035425,0.017616952239659,0.13752509547752803,-0.06735442408721576,0.18043603836968944,0.11519810571956807,0.19545264791187292,0.10435222153630849,-0.4193322331078048,-0.5785252148104921,0.790997534641018,-0.15040343705234557,0.3733190591773082,0.21870359468255254,0.18344619116419356,0.1193131864723607,0.19226537306617988,-0.34030445134037485,-1.203470254671408,-1.0267329024308813,-0.6446240789512451,-0.035138215071454225,0.4409503575641081,0.21535433637950416,0.48581605537431655,-0.038311203279643484,-0.005442544441456377,0.010590531131470293,0.21899472007068047,-0.03740572457057339,-0.7038335280744984,-0.8305189503901579,-0.7923000678351472,0.10642078498509924,0.07095694036145031,0.659293902313791,0.17141420360329532,0.23996215630949805,0.31453221571493567,0.0918865613646361,0.17455552599963428
0.22741134607271915
0.06238713597570401,0.4838441608933074,0.5276964317301336,0.30447137357522247,0.305083856788144,-0.28570903430561323,-1.0696869594015963,-0.5479537092121369,-0.3235813460341954,0.09437990464037704,-0.033549442073827124,0.08226530381307959,-0.350217682402863,-0.15780268554240032,0.7912003657028959,0.11506140725177003,0.31648904326310423,-0.21045423468005217,-0.7545252506874522,-0.608677653591478,-0.26183707826351055,-0.2286255911596545,-0.06840920929577426,-0.01648532754923807,-0.21615808074726503,-0.6282235977886368,0.35765853552826865,0.39161149340275925,-0.2157100503876145,-0.5399721902016277,-0.8108817600772276,-0.0966152359031695,-0.46322003422113955,-0.020480751218548,-0.24122014500877584,0.13471283057560243,-0.18827235190212602,-0.3829521551794023,-0.17019289868246726,-0.30626458339770213,0.032166322729774335,0.09100118553728032,-0.41833260823507645,-0.21330737476915726,-0.16017317219875557,-0.31797934986802134,-0.14373028021067916,0.2477711572529144,-0.007056327616064106,-0.7310969118154018,-0.6316158795281024,0.059404022840186366,0.38741552326282613,0.8474260200596642,-0.0024743258202174394,-0.2013710069767969,-0.5529137917148088,0.12077835310026824,-0.04944481151684557,0.3411604946656832,0.08985871989913086,-0.439265159729036,-0.3274761804700642,0.2866816299470827,-0.12784150360707106,0.03143462669314698,-0.2192761838172049,-0.31869099569908055,-0.20882922122524664,-0.4213145636828568,0.13586640192845342,0.33582926333104235,0.013911998482270926,-0.401950990619902,-0.1656165920292956,-0.2929792157005825,-0.12297459716007395,-0.37020777415846295,-0.35413637808142784,0.2707927587581396,0.37948358019319406,0.05289007267675165,0.2569364056358049,0.3314824165702204,0.06172363065117106,-0.13342669804582655,-0.13547715072128977,-0.23713834322563468,-0.3310973474903953,-0.760244681021957,0.30574370611240875,1.1730736353951685,0.05277711924090267,0.1369767189064011,0.23565368347715673,0.3072043020520304,0.03708496923237152,0.26315660978285493,0.4552561087588354,-0.10327674012981033,0.23161236084191397,-0.5299662099869589,-0.16805078067771537,0.4361506403579938,0.3777608955307842,-0.18900824972466648,0.11214728145667674,0.27599789762776183,0.10892141904818892,0.2772746591061048,0.3578505986835876,0.08071460419275811,0.2805988744046092,-0.512750044307259,-0.08028657886391133,-0.07257867941854554,0.5363241524085012,0.22355129736643667,0.2123772425525667,0.3194807083194102
0.35834460790288325
-0.09336326495312577,0.027401036356527846,-0.2069315430849568,-0.40281192425246726,0.2974465145684332,-0.3996771340565084,0.3160838051936915,-0.17187624451567865,-0.1997664133989809,0.04967457255591313,0.07104192180369048,0.03071672716210122,-0.08693680352412123,-0.35140010065355876,-0.24611110570197778,-0.2089599875294673,0.8114293029835843,0.5656579340775231,-0.18583715039171503,-0.07950481533337314,0.08451889210588387,-0.48652274026828923,-0.1648075831897842,-0.05021111987488195,-0.09430003675308349,-0.017933227321283184,0.041656468126828806,0.5742320584696233,0.6899892559700417,0.47023387586965504,-0.13754659850883236,-0.2629241851012384,-0.34631056145607475,-0.1560532683903417,-0.20405130047265682,0.05771550600798451,0.021967338614709307,0.1977531152753327,0.3688808757052726,0.6202425023836352,0.825832200960963,-0.32058375849028287,-0.9200231744587516,-1.1169817581516508,-0.742681486356073,0.02611439621033447,-0.17514087421449634,0.06874420520629212,0.08263424058987612,0.14388365119879917,0.5061604563112292,0.6082996355176634,0.37666866470986726,0.10090009960442956,-0.1808333300259143,-0.7520084017787841,-0.3849942677380902,-0.07868610694139455,0.03792857450345311,0.0565275139783717,0.1232463722724357,0.11919102255292266,0.6103759431707402,0.2949472851184418,-0.8164292332880346,-0.059762712012738105,-0.7436031799506685,0.06694793505263741,0.047987537749104144,-0.013581900062537532,-0.024787812454132828,0.05991391024617438,0.016209445747615236,0.16263162429422265,-0.35491750398553434,-0.33802325891842233,-0.9464323976601173,-0.5270795268276064,-0.45871589555818204,0.17277092121418677,0.5237439756825448,0.3636727601365266,0.04877443366092341,0.11676101913399142,0.08894949890160647,-0.018861081876357468,-0.2761626449502993,-0.2562622187621909,-0.24882083182023976,0.18235558488160045,-0.5514278740276354,0.2036215155486741,0.18062220167760693,0.38942756773020193,0.06742576445859866,0.14783456307004686,-0.053385404590547435,-0.40596108233859607,-0.18681659072371062,-0.5649329289388426,0.7130251913108226,0.7124341310826,0.3445512151773199,0.3702256636434508,-0.30174196680925003,0.053311257435036084,-0.07457828286128662,0.14208079735429588,0.04540200108410491,-0.2168698047555229,-0.34706477383900425,-0.17670249817119618,-0.5415085010326498,1.2009409627878451,1.1025726080360805,0.18298400002850237,-0.013217467759062317,-0.06359760855117552,0.010823054253991066,0.05126801439582778
0.08485641304006267
0.08482405101593388,0.006916603585415498,0.5755721149843596,0.024531561161417404,0.3661064042976327,-0.14891014018630763,-1.160335512470616,0.17150226899483403,-0.38352500367359527,0.015074465864258065,-0.05504435913144398,0.0415190934602198,-0.009871562629673888,-0.13372738004627957,0.23462093044734592,-0.06666291963209153,-0.07561835334735764,-0.5028776995707357,-0.5453584821844453,-0.478005883889663,0.10476027148832417,0.06295437031029841,0.0919168608567979,-0.05561502658506613,-0.06628795651748776,-0.12407284444824146,-0.34271858693171414,0.3650696606196398,-0.2194451798285534,-0.792194967513485,-0.6156493913548395,-0.048253314273287926,0.12126379222668845,0.07779235718147923,0.16321421856295462,-0.023092194060733037,0.049947341394807165,-0.15837343144372787,-0.1957424090083327,0.11410389970755919,-0.5461288145651744,-0.2923247116278113,-0.012115865643885797,0.6126910413759405,0.30420285593471524,0.29703455636695425,0.07400195791836889,0.08464724690863121,0.06323162247177594,-0.14350883174045484,-0.19803594609355038,0.0073886078803598945,0.5954232072489651,0.5611137123226486,1.0687751140638646,1.0058867585324838,0.1262876917692136,-0.4267025965062025,-0.10195418776797471,0.09202100317097758,0.021846541367220026,0.018537470874493474,-0.15823944013486715,0.4330410444453497,1.3785508862076252,0.47495283349298406,0.7265051976089716,0.3647076540360719,-0.38751166873196247,-0.5471079038935998,-0.024811133408008456,0.046910549708619825,0.05571282011987129,0.1201546265699005,0.12467576051871485,0.49754312224991865,0.9536316536860598,0.3892633737906314,-0.45730359886887434,-0.6085024936826107,-0.8056728874463082,-0.46422784856437777,-0.021002520664976054,0.044759647832510116,0.09020023133569272,0.12025540487013894,0.06877264826491059,0.38189658988998004,0.13202569771139674,-0.6214712932680073,-0.5390768263243118,-0.8463502896547934,-0.43086937640358497,-0.08508636621081053,0.01846898074548955,0.08278917923816484,0.278872906228723,0.43075763070847234,0.3798139087332842,0.11075218924463562,0.380891978352269,0.07392412045984056,-0.25021880286876186,0.09636737302086637,0.02333964937068467,-0.03662763671011905,0.3365484564601133,0.1138245386235916,-0.055099788444603864,0.10320646211562945,-0.3100818160304289,0.16356422506313642,0.11039596234366028,-0.45037431885397144,-0.33466237581004316,0.5711208061350512,0.5279429443882717,-0.06405918176724049,0.10103785655039457,0.08365601714954118
0.04661615242435757
0.14713866880051224,-0.30494303436835496,0.20931008228806225,0.3080502305510962,0.38139819957371685,0.9625628530421778,0.4447532682465322,0.319310626230731,-0.42754268233457254,-0.4732351234018029,-0.051697014484850354,-0.08342869486523136,-0.16471315605308523,0.005742670445931055,0.14744440736052083,0.11468907968341788,0.04517916022732678,0.9462503346930079,0.6956116173314087,-0.09468659434873783,-0.4387980780834602,-0.6647484364291293,-0.06346895534988398,-0.09660345132838552,-0.14439992314001404,-0.1419716628310656,-0.07129483926447927,-0.3318563057881195,0.29542556649297486,0.6448159574506637,0.37785865704658633,-0.01787535787098226,-0.35303852193858204,0.14115001211000072,-0.017813124957380647,-0.047237825107816295,-0.15981368352917807,-0.2714956932151498,-0.1716661686744242,-0.6726891935426341,0.18772713814966652,-0.42530171119728016,0.5938633042896541,0.8458824696268353,0.6405718218449076,0.17683615358049232,0.04938311279870698,-0.00468366386562634,-0.07292257458115142,-0.4481875784954346,-0.35527524745731015,-0.3371668361772287,-0.21786094853366123,-0.7015631176258005,0.2049665361710914,0.07188621166596476,0.3404708501026314,0.22326164560670259,-0.056487467892369775,0.041910419011295,-0.10088990067256953,-0.358587928376297,-0.15222849259435273,0.448988287218744,0.14343658003976473,-0.7279494627519784,0.2707206854583731,-0.02792279101632953,0.15593151758701534,0.25516394828844574,0.01964207508850989,0.08080562360986393,0.051128553220163964,-0.34509869229196904,0.15758437222245747,0.8535980373515687,0.17889536442699322,-0.07299424311811395,0.26300640573634243,0.38740328918459416,1.0059434197378652,0.2443410250774048,0.09378636698697074,0.08429002775463687,0.02536676557036826,-0.28847858355036743,-0.17014426071928157,0.2559095547770083,-0.061243254755086074,-0.28725289070050647,-0.06962357958578269,0.12586060890940728,-0.2860996032786825,0.6501356883058106,0.04019920063982424,-0.00786332336193239,0.3653987353161808,0.20169289231471305,0.14923167357646133,-0.3364988200978503,-0.24742049103405994,-0.7170232332084189,-0.493847356910648,-0.28481135612935377,0.050487614369773254,0.16898090190341852,-0.14067384324903853,0.05539630094131891,0.03190543622170096,0.09094825954694896,0.4750296022125033,0.16438835115780742,-0.12228438510999054,-0.1692304973513044,-0.551131216174202,-0.4632231008041035,-0.3738789733559887,-0.5517541992987506,0.10698474641313724,0.026885842980412293
0.0353976375233508
0.17745359683310866,0.25382157873453093,-0.3748266682906056,-0.4496737023924765,0.1651929197345062,-0.13608651342123249,-0.27763656818024596,-0.5473060698454217,-0.13515250579960988,-0.028537087860487628,-0.018916070965936227,0.09835069273583194,0.01686731160142607,-0.10289943918657724,-0.4809629880876559,-0.3233425529313886,0.1295762838002165,0.35487773897374486,-0.48233958568670254,-0.3952605626353962,-0.25791295746616094,-0.31763255954850755,-0.10522146185093342,0.1316807214714171,0.04054268420266138,-0.09831666743604858,0.14282678420122505,0.054884387734140255,0.3720913279133832,0.37476773740773306,0.41048654994252953,-0.17534520335235135,-0.28663886243726266,-0.28241330488082583,-0.18370058226596678,0.11002592301485634,0.07097106378848161,0.018245779546158088,0.03888605091195145,0.06004180831646058,0.13050058206025691,0.13249164187014004,-0.3356631514322125,-0.10298005013258313,-0.17494895540904917,-0.431999013318497,-0.19106338264537645,0.059627662008986254,0.129829785821189,0.23333342634772195,0.2819714229392193,0.6940858863542891,0.5059515703223068,0.2254923195709386,-0.343856619210685,-0.4594096885939549,0.2040233333500863,-0.4468452535790799,-0.07273076641865364,0.05939787748636277,0.09957260126210812,0.2632426518141072,1.0852860182090127,0.9175103494324306,-0.19042172934283028,-0.7620364532131101,-0.8086059311816323,-0.1859081852189727,0.45761922229961793,-0.08928887651721093,-0.17818530012197623,0.043718987618614466,-0.030773887144847877,0.5280030728251628,0.4678848436454154,0.7670611409395982,0.7191741474382676,-0.19098522785839142,0.013687448959076202,0.17568565758695417,0.2906636734387842,-0.21375453821763388,-0.0569509530330124,0.09047639945286626,-0.06781299389877493,0.05335457001734571,0.11169845849308754,0.6241772624873869,-0.08717561515829722,-0.3963873653575777,-0.5801794893936125,0.26717491246369574,0.21202473373795114,-0.13593520191150724,-0.015983436226132436,0.03796332231162394,-0.14190600067101314,-0.3055416333569577,0.08811560576677399,-0.09031326273269905,0.11304365113593676,-0.15853215998076067,-0.44985542445884064,0.2901855553239452,0.1742916866250678,0.3134619622186,0.06868708322340977,0.012203935080846794,0.01249443713081036,-0.15832501580132965,-0.18401720913401606,-0.15568848970541402,0.3235509995910911,-0.22460342812932457,-0.3379775917444451,0.28962356335102935,0.9661426415258627,-0.030746579060790473,-0.2501432890183044,0.07314424318097862
0.09775927694280179
-0.10100304702372798,-0.09184625509229397,-0.49767370751994994,-0.1769649392313466,0.24755995892584365,0.5477799054937927,0.5944079293570538,0.009982959054831753,-0.3785176350408021,-0.0464843785652974,-0.2713913736324916,0.009111720906642619,-0.10277324956794254,-0.2822025779111616,-0.5638918770441687,0.09029689100308874,-0.2356035086507502,0.3962090358903048,-0.047844476069377986,0.5303041526722537,-0.3667902703134635,-0.4091925647446046,-0.30840507767100717,-0.047128698927995163,-0.11955908093980805,0.09333400418294466,0.2523892836409001,-0.10421796711624323,0.6073070634550631,0.5871998389403251,0.20912224750860958,0.40625732397557185,-0.11623242483953392,-0.19372216053816893,-0.24074357554416392,-0.013795633011889335,-8.14064735280755E-4,-0.10717961078271243,0.33406930070654733,0.46736504698710274,0.741881111738444,0.07128325594097518,0.598308464154706,-0.12221273499945015,-0.37722164757234106,-0.28444869328976946,-0.19398929587438835,6.328902596076893E-4,-0.03899984176973918,0.08816127880807254,0.20064144829105823,0.16796487739890775,-0.19310699251162583,-0.5058546127082933,-1.3530134115434438,-0.8704056570189865,0.03496804266685598,0.034221743530806176,0.16079388659429783,-0.01265664069951132,0.0288473776000525,0.115924395152568,-0.13994365908161016,-0.011454197444333042,-0.37171546240854053,-0.3998790492717554,-0.7807444573238288,-1.1144954604808073,-0.4370845798459935,-0.20172883488631155,-0.012673592926776809,0.08654127812753584,0.03016113451189071,-0.024474350064702596,-0.4699562751083792,-0.15520659907162687,0.13211246593756393,-0.45694852414904746,0.058136930574719345,0.173863427957618,-0.3094928353647924,0.22478360064852032,0.039071294748209015,0.04408809689107933,4.285988255902212E-4,0.2757859942463891,0.0417789461420862,-0.07697543262018022,-0.08483909866961425,0.07782781863773883,0.8139658844104699,0.8941163279158612,0.3736095006383176,-0.29680764540281507,-0.025128572466002343,0.004647139168207222,0.016747656569346063,0.48732826973716764,0.09994786541366962,-0.10214780159470757,-0.3620372724846254,-0.6631901876862055,0.2191853946747392,0.6244263821374786,0.9806839314612855,0.063761444602944,0.057756165573115026,0.08002230558419762,0.20656940857899297,0.006681620855366341,0.6541700445612212,0.14227262718606726,-0.8355041074431132,-0.9084764694309225,0.29116924421322393,0.21211370810834967,0.7183541395976601,0.2251720792880405,-0.020545278058584027,0.051478845980902396
0.0015431288042950927
-0.04379730091333867,0.01943476601495649,0.06361945380292312,-0.07407198482872705,-0.16328358812518798,-0.0956301601420614,0.29582621751128646,0.26733879941767014,-0.22719739058871238,-0.12947967857996476,-0.04985257746095997,-0.06198145065158484,0.019786498327696047,0.1510123014973658,-0.24125612332631266,-0.07057323558990224,-0.23303418573079085,-0.320273228146696,0.14589148236270336,0.2158579031123173,-0.25945117905051307,-0.15493990699330204,0.2142551075000728,-0.14413490816842686,-0.011069005992660003,0.084387049293019,-0.2686180233447556,-0.08708854776375562,0.2957090556525287,-0.6921259482287784,0.03572388298997157,0.5016109409980197,0.2942459082424065,0.13101147415584566,0.34829624365253653,-0.034225066577732687,-0.05385595074653309,0.12765088069714334,-0.05784785636144101,0.4155971167518774,0.09729553045940702,-0.40106650224488827,0.5239133964091894,0.45850192538756085,0.9642018294637319,0.2163817523127857,0.21802894720395014,-0.07692803574749392,0.003054456018643575,0.16650806865217763,-0.2572968311475229,0.03672868517345252,0.10650092265426454,-0.16035026722056953,0.19416132275684503,0.011484819150422765,0.27786129593276565,0.05489379967714784,0.13113371190960751,-0.07644983606026752,0.11767376553215471,0.11322618118632179,0.03710524872482334,0.022624501390869512,0.43418708927700966,0.43119400184598555,0.15464550834167193,-0.4193339194610496,-0.043247787144853035,0.20539841689192237,0.16125197447691478,-0.03989812353580465,0.13478516486029427,0.037142632860686246,0.28513156623475644,-0.37499562557457367,0.16063682509268043,0.5716939741489805,-0.11326023905293207,-0.7681833264241978,-0.2512410339612677,0.005696567110272499,0.13769858055382359,-0.014539742844809838,0.1650915146878054,0.16077571758534434,0.07096403413611425,-0.28098121417145905,-0.01610672030233937,0.06396498481509612,-0.5174570062725766,-0.5899261326905078,-0.25998448860183465,0.2837574591364337,0.1785316470066919,-7.189206297271549E-4,0.2562860227430548,0.19046763520065904,0.002119069447505257,-0.14110443321086572,-0.3952345888065717,-0.088451777849703,-0.45753297904028634,-0.40811423805146385,-0.1274418424808795,0.291948479612421,0.1512314198492445,0.004270732873426272,0.02484165227401239,0.08921354743645561,-0.10573943465626807,0.3590247277044404,0.17583627861947962,0.3292042353753073,0.05929172645426752,0.5628639049299856,-0.35254733833206364,-0.07895218174416961,0.20671021878051118,0.004762105941772347
-0.028609637080108826
-0.10204780324249013,-0.019987168719690484,-0.032329479370717534,0.1677357158004208,-0.048515609209214494,-0.38670089528650614,0.0020449807314971862,-0.05828248096205288,0.023198912007128866,-0.03522036804624959,0.1027054135889027,-0.07805574722321182,-0.21048944899275945,-0.06405240171177357,0.08112447571861184,-0.052431987944819555,-0.08383794015429724,-0.3460172455171772,-0.1405469502081083,0.1256853292545887,-0.10948351807716838,-0.49460354787142374,-0.1291926868724741,-0.06502031411744799,-0.12077376564763251,0.0392479713607751,0.24340152756229988,0.08560306069690768,0.5333173113752712,-0.12874553209481593,-0.2694965016386341,0.40919234852165837,0.2888759333621473,-0.20989181410394453,0.1353267048281966,-0.04327119386301968,-0.1213358991227518,-0.0040081348993196075,0.012988565663608212,0.3459596555110482,0.12487728088875491,-0.3299714777511015,-0.2983458758452871,0.038456370030617096,0.4203578098839578,0.32337877723598557,-0.12419853954835969,0.016950979722708575,-0.0775453877661057,0.0394573708915502,0.19040655623388253,0.05268246757958528,-0.7232139666561952,-0.5185396952569608,-0.41744800177886493,-0.06368519371561773,0.6750621204167884,0.6367783210675636,-0.009779808237366265,0.07863462387049303,0.01900278000942544,0.13649384555799587,0.20196011725910895,-0.2056641053360787,-0.2317155079856419,-0.3307555461829033,-0.16314104260137707,0.12470675888386984,1.0510447120683213,0.8966783091079722,0.057120534425297645,0.08986113051914785,0.046732784116256434,0.28927825102046417,0.04081235550523846,-0.20371032138687756,-0.12682890200275726,0.15648112449859447,0.13496137215157422,0.011125133696899601,0.4361907466615101,0.24919906304369677,0.16473225052284857,0.07056348193852957,0.03973503489539851,0.12675026367831682,0.29440240535866496,-0.12826250231463343,-0.6031447367767,-0.04284624557431964,-0.6481312131266105,0.04912656613665452,0.11884518693860469,0.11586973658818073,0.1990372459664415,0.04880139558851186,0.04205021947813316,0.07771641290324088,-0.2770624445269723,-0.4365899560431607,-0.13434832728380985,-0.07654539666471868,-0.4084319272299964,-0.3008827001355637,-0.13218453240639255,0.04075013495370601,0.1611435340996819,0.028035821646362136,-0.01586033437051806,-0.06142150902454316,0.06501148795001283,-0.12675888297410437,-0.30615563931735373,-0.04439709436509974,-0.49786206979161235,-0.04968791397125025,-0.07007342036533779,0.09647862880953689,0.15273592135283476,0.008679530473357249
0.07428239991285734
0.04566919788262422,-0.13703071254289653,-0.26418892517824305,-0.37899470695898413,0.201379174103233,0.1327997521817281,0.14671631448866054,0.122214047703427,-0.3472654489188601,-0.3953050923337716,-0.01782820111939193,0.15303622548060333,0.047802474812763826,-0.2763658480578772,0.013443202281221244,-0.46022807367690904,0.01739666031104614,0.4132228823075617,-0.03952660912408733,-0.0047380674314408035,-0.14250315487543372,-0.418279158452927,0.1529849736167652,0.1716108703699635,0.0768204643571416,-0.2538130715121579,-0.40372805747980683,0.08381391359364893,-0.4616696958316721,-0.28929251432952846,-0.18809833364611625,-0.4237499440463887,-0.17610283060494206,-0.45167952822601737,0.36899405419686687,0.13638288138291163,0.0832408032937551,0.09801368645710201,-0.08909206945073667,0.15832199279304746,-0.5088251113386985,-1.0253102818447932,-1.176581149378417,-0.03845275636235217,0.16751472059068465,0.05075874978228394,0.3911310535674339,0.13153475789400873,0.02086693712915437,0.22462937542512287,0.12091879969191918,0.19516762593474565,0.1510613132798412,0.31622619945270697,-0.18006897481295955,-0.5436335745967569,0.12099945082941432,-0.12044828642139407,0.12185585367920057,0.10625532120143616,-0.05188118671882981,0.18633780802038344,0.2517350842764882,-0.015393396119221728,-0.0307337333232523,-0.0992508745159435,-0.3291313820026626,0.22582976735104152,0.12111655239117336,0.49176528118085333,0.031703877720003375,-0.005976312450250923,-0.06552486193634735,0.3137801778010127,0.34594042966251287,0.09894582775760738,0.081183237151471,-0.6215650091347686,-0.9431759176875574,0.020990249391765865,0.06650753319140454,0.5181598371756813,0.05131428295603507,0.021782570468260938,-0.059251313587431895,0.16240075557366082,0.15354481516901272,0.04189077875099309,-0.5826564909856657,-1.1678827010034538,-0.6907808956710924,0.3970910068136611,0.5429412470843704,0.15039946094635623,0.030124381072122425,-0.00493636126862435,-0.14467467870566006,-0.05352730181551174,-0.24122296716314354,0.2835464369380903,0.7839357650997294,0.8476983763290444,0.696247013859806,0.6139113755782661,0.35984747725339333,-0.13093024281392876,-0.3315654109440956,0.0033861082325774097,-0.1803792321508986,-0.19043850223534706,-0.449325847718885,-0.7165321282493606,0.28261133420720647,1.3315651411267522,0.911400888979033,1.2747950786352644,0.7063167440209526,0.3421631431005869,-0.07561932583697537,0.025633762600277395
0.0535496856185312
0.051475841515146274,0.12967547386390446,0.2714774371312292,-0.2245089032076685,0.19710056346199092,0.7041573209869846,0.1096368167438687,0.18050072278284193,-0.35336290548113036,-0.48313856226877294,8.790853197383252E-4,0.05516514044976135,0.17338530068422206,0.014315118451603034,-0.297041405361144,-0.15526923356962094,-0.11668370536829141,0.26239613025510633,0.5206136429690302,0.4428604088324949,-0.5270465398548312,-0.3201325244395842,-0.11868698635428367,0.055518758824418514,0.11814081936356007,-0.12452893047935266,-0.14931666449587425,-0.2634047570026711,0.2412331883181598,0.044436124846608936,0.7036543739657591,0.41941045764094087,0.359373292900376,0.08934240737571132,0.3611977867191063,0.03492955357046145,0.15341108198853767,-0.4925130416176602,-0.3869605661703821,0.19299213038096277,-0.5058188314293114,0.33534027950442413,0.8616290557996563,1.5807212467793754,0.9388149469080925,0.3218641831104684,0.3601133940642254,0.11260648565971366,0.07873556453812534,-0.019201998359651102,-0.4738604370229207,-0.13383602116327162,-0.3223175152008838,-0.17961146409890857,-0.023978973022606816,-0.12680421905355213,0.38586957079127526,0.46964253469170547,0.1822051804756097,0.11742277279034012,0.15030278579613457,-0.5562217180143031,-0.27359578512824334,-0.14698334264482624,0.04051763857463155,-0.2310790255326655,-0.11363798805360152,-0.44790818531773136,-0.15469080578893232,0.5004816601660556,0.07730392905623983,0.16257704800211484,0.07354021202665618,-0.40936213384042075,0.1304257550692364,-0.24752853070636813,-0.2552328362188857,0.08033589710027185,-0.44015054092316985,-0.10832791306960136,-0.16150652580725364,0.40866680430077473,0.15409767082596507,0.07395371241555986,0.11743949198988933,-0.21205976845301608,0.09024423340238398,0.2268607962441945,-0.1879107580354288,-0.7835957356408892,0.15103170441062727,-0.10627045182200247,0.1814468741876383,0.43934498761967467,0.09455613827336697,0.1079367676417765,-0.0016438721600349124,-0.21631456788016748,0.29233529211493614,0.7107059356543101,0.03648365219625766,-0.6203141645141069,-0.2096106900607325,0.23360693382757144,-0.3177360262678459,-0.8598352468635034,0.13399004528370503,0.14637540397004015,0.010225040179216448,-0.03615126871189036,0.05570258915785819,0.46668318738939985,0.6421407101448587,-0.3728673589407543,-0.999280802029528,-0.39730534548428154,-0.640707819734121,-1.0067218545098418,-0.012514928622757167,0.1308291268207861
0.1338697282442637
0.12514540461197685,-0.010758142815632808,-0.1904280803412674,0.5169191285468179,-0.013123564975654011,-0.6402327246812304,0.22388902771673758,0.11845491295318279,0.31001899112333453,0.21252739759576256,0.20851358137518106,0.12885817456619864,0.2527619436933731,0.29799581877761105,0.14590570201808428,0.3340903466554771,0.7063367917547531,0.19968090078578687,0.5937720162426942,0.5427949812488594,0.25209807124511247,0.30200631714004755,0.2261042169203567,0.20509874875169504,0.12193965362493119,0.3695162725336,0.1453197007676535,-0.618634214609784,-0.3454980479091313,-0.02737482606369266,0.1747551819902315,-0.02338468372772315,-0.36703744025920537,0.140074481351168,0.1398517580909639,0.15632526789984075,0.06311781029398632,0.22709669241010516,-0.11650751514335002,-0.5804114864250706,-0.2924926632974937,0.045789655080569536,-0.29992715848253504,-0.7336689499614762,0.0718456322645185,0.00423369505294806,0.0833088206117593,0.15187775918075846,0.10305656604963219,0.08637488711585821,-0.009480064873740595,-0.3996242246805164,-0.2141287333227367,0.2156993426472541,-0.41434996055006534,-0.14090372552520103,0.12252284712328236,0.030941161498487243,0.13530549279039322,0.13032643256585658,0.06619263048343473,0.05384670339335876,-0.03926163101378646,-0.09412562043083382,0.07925649868535913,0.2664044694115678,-0.649559014056773,0.43263885953983583,0.05606749232578581,-0.002535571849261646,0.1592544233810334,0.10341126041225467,0.10039560007225994,0.028733977460487607,-0.07132784119823028,-0.20612491162874969,0.16326190256025602,0.5062437951566751,-0.053558776306128694,-0.09469807544448354,0.00795062590519388,-0.0992239889668957,0.0774487972133616,0.09262980260501012,0.13464578462969035,0.07904841784147383,-0.22912394747921289,-0.8094732955210328,-0.5039617587210553,0.5139642447670113,-0.5727845040437362,-0.136931252328992,-0.12456009149552806,0.006329767130606934,0.036242609009921906,0.10277190449825964,0.10680683004588444,-0.042809692656783305,-0.2577053503237926,-0.8196721602982028,-0.5390124132058524,0.2949676001076815,0.37480715765335393,-0.07334069843364079,-0.30394456858412067,0.14048555085858871,0.1429509943479932,0.0844425397148894,0.04561500939412694,-0.08432015205834144,0.1605807203099755,-0.3226961809704,-0.9012549667262818,0.2740908206955872,0.26948036221730276,-0.5354811325622534,-0.5591149981597258,0.22688858505430592,0.08920268060839158,0.0714745204085928
0.12081097882913307
-0.16997034460649108,-0.006377340615119673,0.022949006329870902,0.5288147353790037,0.24422287051721747,-0.18798262359281115,0.12812585324808407,0.01846604239507945,-0.29354098318642496,-0.5327519643602326,0.0011205407096945726,-0.1421884633587776,-0.380403439332054,-0.14264068614457076,0.30609356188026005,0.3628586047474883,0.2801269086463566,0.16843707583735995,0.2809047104329423,0.2339850222708299,-0.14325684271884503,-0.6334866358617622,-0.12834062960044118,-0.26559879718274493,-0.2123606115463726,-0.10798737893697616,0.32212552750963375,-0.015910186219086013,0.34474469588629597,0.1802440358085512,0.06457955855439626,0.5250451117502292,0.00782290621470038,-0.17575674884065384,0.1982894455663753,-0.1314558296545656,-0.15624032940646704,-0.12515864668864046,-0.1343280912558108,0.07467260212681098,-0.05676066828121176,-0.46882126445475736,-0.1651808184395277,1.2484842573478614,1.2058183137439176,0.6391995549669235,0.04401808886521867,-0.053379382068683784,-0.11392160666525267,-0.11738957335210107,-0.04141911277806379,0.04254092473272053,-0.42492822326652324,-0.29487125858798424,-0.24608885581752832,0.08194178546705141,1.0758419764040463,0.765877816993236,0.03243303846541239,-0.03192683923831932,-0.03789031944310553,0.03946188735846762,0.05485060601624939,-0.06546746848426913,-0.1052676492310666,-0.33590145296558405,0.03445786472377327,0.02984859054746005,0.482783049226134,0.817402440086804,0.13161650951357662,-0.026564170939609492,-0.051936158684239966,0.1954771963212758,-0.11053827890000084,-0.24558067486038593,-0.06440340654796517,0.006994823395208485,0.02985518283849567,-0.0026490740351524334,0.6070960192809923,0.2766711651664534,0.17131133391585146,-0.019841933143431308,-0.04569546874983747,-0.02524108453014952,-0.2129546837077511,-0.024607728511093788,-0.5487895402247741,-0.5212534429610208,-0.35422555281692936,0.416799292160282,0.09357343118271325,0.41405339738005,0.08799841858709503,-0.04606954181780372,-0.002765463220747163,0.01388907461472889,-0.11123415418295499,-0.325652212447299,-0.1823342950367604,-0.12881650527555327,-0.35784704441407245,0.029201083897154735,-0.2475640862170696,-0.05901604666500933,-0.056095978277364775,-0.03164468846847897,-0.07065502545104668,-0.08064046517170062,0.014628505792298296,-0.10692811415646308,-0.21567102012404066,-0.1502352167297556,-0.6619151642198878,0.12713001619529946,0.03266288622284638,-0.2158322111438538,0.08592828536742353,-5.480487038589939E-4
-0.006025379703823866
0.15654625879657902,0.01760559187960922,0.18104837625102083,-0.21997131191507457,-0.15012763749844604,-0.4539667469423286,-0.17799069392959221,-0.5233540728262697,-0.7681092169158436,-0.15446044298300698,0.12320566069852577,0.07209416989728916,0.16843219462974862,0.24509086542791997,0.1629497126299666,0.05632655151361344,0.09552043628819899,-0.4148097802624204,-0.25255480780693224,-0.014569232612384549,-0.14036187194236,-0.17672495764334678,0.14015258798995578,0.08684979877257167,0.10941996070273093,0.11998612891000117,0.3863037100353403,0.4014684949572435,0.2126022324852272,-0.008287108511521405,-4.6290965310762653E-4,0.42525290902838103,0.4350914632936333,0.3546275333919417,0.33947331727804203,0.04836532782488669,0.06795695688766608,-0.013481570791785661,-0.08414963723817341,0.19536314572465974,0.18253726221103939,0.10347832514990134,0.1672313934168142,0.7140622401027873,0.8071498528016271,0.6009908845066946,0.3288642139786732,-0.013658559168768911,-0.09886330044100693,0.01353860705448815,0.10195231164027906,0.20525936859670357,0.5817775591844766,0.3285519532748546,-0.07271430815979564,0.08485914358705272,0.8194193179354595,0.45693926182028827,0.13093757040201726,-0.04818879657040883,-0.06798619893380116,-0.22652125767173031,0.0833215176190381,0.12560301016673353,0.20182659956328342,0.1040894960618592,-0.5280263840786701,-0.013715748249178891,0.4590408815834989,0.49672577968700454,0.18566620570710063,-0.009207261133192505,-0.017642454724228696,-0.06174791458519125,-0.1047678251861116,-0.2135290893059265,-0.26781482740844703,-0.4790804910340391,-0.8369885760139247,-0.37622542159583344,0.4604306209906848,0.5496527524590088,0.1700554131335082,0.0057327822101215275,0.019495540057976903,-0.03706055854373718,-0.08033262447690208,-0.46397372211860627,-0.6635712307721934,-0.4041036084577437,-0.41445751714438434,-0.20438606210478732,0.26978084788736373,0.6922193397180686,0.01873003341524836,0.011036304539568024,0.06512222990259513,0.1574567289327245,0.2840948034877006,-0.21395857027406834,-0.07265784591001968,-0.1200022204336856,-0.23645795493169508,-0.2292104729980236,-0.6392459213486604,-0.6635405034622127,-0.036524383300016096,0.013476482057059593,0.039853548941965154,0.18792116922581242,0.04672639999917493,0.05207586220559723,0.3201287285728123,-0.23312452014766066,-0.47267316365061657,-0.27475280742168223,-0.6869801505372767,-0.7823959183129318,-0.05522090154578419,-0.06523782879499344
-0.04003354253951152
0.16959483692500918,0.35121581318179385,-0.0036730783684398582,-0.2706060772212201,0.18359496270597794,-0.4241024456330639,-0.20902731733036486,0.4168093727607006,0.4324293092640633,0.7113196576670119,0.3392209818592625,0.08664065846522324,-0.00782695627142414,-0.020213327686938263,0.14142279093787705,0.05176308053899225,0.7130005634501698,-0.7075722494835602,-0.748458442851155,0.3088727381090849,0.9796608840065021,0.4833856805967385,-0.025669308611857847,0.11463085144487896,0.08748992521673958,-0.02486783844935218,0.38801435523647054,0.14601087468752819,0.09806306369960259,0.10360939165592538,0.282740497209617,-0.2841785299755947,0.34616228082177336,0.3467474996453863,-0.1679882525567307,0.11315463471800062,0.08661659876261073,-0.1859513025522376,0.2842219124426387,-0.40092885860814076,-0.5370622679329927,-0.17809926391593203,-0.1743882858928725,-0.8747628599961258,-1.4446485283004091,-0.18295618337442363,0.009380718088563588,0.15677677274681254,0.139833647510802,-0.10077098993274881,0.47762096559065237,0.6033363182420616,-0.18042732289581606,-0.41436295787388533,-0.05942416098556016,-0.27748803153993595,-0.6735462884004425,-0.12426411424854081,-0.07828652053360376,0.1690385056611062,0.15753977703981945,-0.10919262325269356,0.32072422372350107,0.7128049543608849,0.28696869796040203,-0.4324709422875007,-0.026488244276871218,-0.1872477932450984,-0.05468932644664932,-0.12236759561853434,-0.11608972141824815,0.19234795794932721,0.09812907076731008,0.1567537243298833,-0.2660764113451023,0.06481582627202324,0.648927308228438,-0.37261396641257494,-0.29107267856140684,-0.06943064059194802,-0.5687761664804477,-0.4119993141386866,-0.03140202923326256,0.1433045514888032,0.02759913751830689,-0.19945005392620987,-0.24026115353870894,0.01319777786197931,-0.05080922049980686,-0.5688638751050988,-0.5531644017544494,-0.4598961834828499,-0.04337138501546333,-0.55160982483271,0.043666891081753,0.15977887917136116,-0.3389730361010965,-0.6039325078935683,-0.5061188385874192,-0.12522861638331792,0.44187485848572083,-0.0702982294242354,-0.3419088288350133,-0.30319066167999253,0.08444135485568623,0.07207263636064933,0.0891878908017643,0.13948650311095054,-0.1826842308589395,-0.39171726395216877,-0.3591716052514048,-0.9597357376534538,0.24522806552566198,0.18111894230702777,0.0018542330948043404,0.5529666036474666,0.7407312552893969,0.5173619429328608,-0.1383397626643297,0.18570428590716656
0.20042972674665052
-0.1570457318905769,-0.18570078331700207,-0.12722488128065457,-0.47120592873649825,0.17753562442709053,0.47062668434457433,0.38702218856185844,0.21382895823468911,0.12213216428974963,-0.1727726531783742,0.21926791660824224,0.05094863597051379,-0.029758474102757754,-0.12425317824280616,0.1729536494904384,0.01548268798205421,0.20065497702796614,0.38538043088153806,0.2327503011333762,0.2595705157433955,0.012187500582615921,-0.26102930504876576,-0.0326352133179913,0.07175079004110527,0.023851465819234842,0.02513713379964015,0.25977219932484164,0.20031196630018477,0.384389755036468,0.47142083174436333,0.17815873112705516,0.046328854011507443,0.13693610346931012,-0.1403689704794342,-0.049921386455136614,0.1313391744994773,0.14203301714770733,-0.242689391000302,0.003329167777630039,0.4472844933624617,-0.27531260146771397,-0.38362691299792173,-1.6047008719460563,-0.45664871804870477,-0.21811178627023187,0.1361540854623025,-0.08452554523407091,0.15690143963879577,0.1167684330353331,0.2190727265086469,-0.12080125009755174,0.11907567931240551,0.31507941986274757,1.0967879666367948,0.9459902198957798,-0.05316063105688527,0.17090563506404582,0.082407795740254,-0.0918878365621624,0.15431207697116883,0.23532207796466298,0.12349727551601081,-0.11090734876591343,-0.3235542257338404,0.08276282316297051,0.02792857744604145,0.8109096756233104,0.9119040016454408,0.4333001414440506,0.17403018415396415,0.07532729492390536,0.16094336362887984,0.10889538234470497,0.10467154940946194,-0.2473908471876462,-0.40653089531559283,-0.4342193630122967,-0.30480803116972566,0.0928218170011984,0.3693873531529722,0.2865292551181474,0.3561090415146465,0.13357538575188804,0.16989139706596484,0.07739921493822902,-0.06747871241396364,-0.052879784172526804,-0.053474828825778274,-0.25368108356650654,-1.2494480374783572,-0.34025653250222254,-0.4749985044609978,-0.22949842266435072,0.45568137574953316,0.16266175416537143,0.1468860309197591,-0.1513909784575973,-0.3045999069068789,-0.3319358313451347,-0.04086987958536905,-0.05297771330639047,-0.37894698050406317,-0.4470446776580662,-0.22609932318716858,-0.5856853894847384,-0.6443102993073183,0.004214531101055183,0.13437347508575287,0.03158975647571583,-0.09711019763584738,-0.2702714425138959,-0.048160768227714056,0.2249570240100336,0.19087383975493616,-1.1468624978537239,0.07996504528365653,-0.4072460944537316,-0.13966172988586412,0.11881215532810713,0.15878240179999392
0.17995987465393687
-0.0426971116668853,-0.17410431076734875,-0.35301011291402956,-0.07722306036409307,0.2169496862069112,0.44203957238197616,0.27067311503810915,-0.12654853703332145,-2.4505122573618775E-4,-0.06970243661241468,-0.09783400570880654,0.03469368202656845,0.11520760547749656,0.07367577630465164,-0.1749321257250813,0.02445891252309112,0.04387299285775483,0.36270658512927895,0.07344759797100775,0.04000967471019142,0.046460073299899686,-0.007411674024287978,-0.08739922037773773,0.09791126641399622,0.10345812054378631,0.08889578099435466,-0.3699805461343057,-0.6707513882970122,-0.5295832805681218,0.7656361837452583,0.4669351894452199,0.3040176618553662,0.20965146231270695,0.048716407169949384,-0.08666765043875216,0.08305942150660553,0.04946239061294922,-0.13971901304116233,-0.3627056707292808,-0.473700473138379,-0.19909089166645286,0.33919597352368475,0.672142665566575,-0.37818958486577975,-0.6554005591718814,-0.14128550701703266,-0.047026877702506735,0.0794962504323522,0.04088717618744488,-0.19455244532233293,-0.2910593663037228,-0.42564357583468465,-0.30368236354766004,-0.015388562961994555,-0.369493862896404,-0.4686839868575417,-0.6142023371230425,-0.15024325250078094,-0.06945979150098866,0.11339400384966516,0.04919328277574964,-0.18051680388257488,-0.48811535812918067,-0.5265177181055753,-0.2536369071301416,0.10861272075318018,0.003946863487346345,0.03151438090542471,-0.19844485531252912,-0.3496700083153563,-0.08854506522255534,0.03738617634691203,0.09452956369436646,-0.11271526922924696,0.10303025396283827,0.06549843844351441,0.07137450685735375,0.29051951334908804,0.37492258852509114,0.3564051988746922,0.14176991217252907,-0.04019383397391962,-0.00780602980086939,0.09276844446724097,0.01690663027912457,0.15999098953935417,0.4549349868066583,-0.049788968980678396,0.0916910179301032,0.06333868381187602,0.12405402253264303,0.015799702331939974,0.18256498831947135,-0.13705384540629315,-0.018671564852698004,0.12717602199348096,0.21915514749993462,0.4770849697322859,0.5604599931974366,-0.04048071813733207,-0.3266379449150674,-0.360426977278209,0.14150009433362334,-0.06382821974185734,0.12878849546012014,0.09402376465500265,0.021212971746699033,0.06235910905975408,0.28687420960502236,0.1954917545602868,0.31865280290564474,-0.032417435517803746,-0.021946919859750703,0.4603393384851106,0.31397446999126416,0.035174545820348464,-0.3596442968931048,-0.07425689705276989,-0.015508077561063743,0.05200593727772413
0.07417080757867975
0.13804208720422373,-0.013614330314526716,-0.10603448908970257,-0.35293643943376074,-0.40889027091376307,-0.05250680214721968,-0.1970656399238752,-0.3442798604673125,-0.08590406793988777,-0.035141437564078774,0.04739886944013911,0.20651765849283188,0.34658384422226163,0.07038571771389814,-0.10642656516772707,-0.16982261196864534,-0.10775255325114473,0.029281546659086204,0.2675197426849032,-0.0942524713725358,0.020027369064358726,0.1620669370953377,0.22337996592156634,0.2532154027070225,0.3107103313367531,0.1753406730450891,-0.132059937476669,0.08538525549724237,0.05373505443431168,0.010461777656579031,0.0427579368185372,0.09050175877234824,0.1368273147164607,0.0598256527350211,0.18281028310241026,0.1021186968905017,0.20107417261944205,0.09416269671086532,-0.16239525614560635,-0.0849271228732792,-0.17980499108354253,-0.4308295374836826,-0.4280683672661081,-0.2089813544063499,0.0685205786982273,0.05298067640718101,0.17782593716518635,0.04588563268776021,0.14696759341799415,0.30164865418291653,-0.02322268079395982,-0.20038068908106899,-0.3830485527395362,0.04212601885574573,-0.2128812475682858,-0.44056202256579147,-0.06877250124239138,-0.048034768820487274,0.04841583805874523,0.07149755891038108,0.02355469437515247,0.26749389248150635,0.10890694303138813,3.004003034308406E-4,0.21076677105322822,0.12978051670580643,0.8428573003828521,0.482435609764843,0.030070314356773205,0.17068239274403668,0.053593272554455666,-0.001563311206599763,0.07320295714461332,0.2932843476908531,0.02284438774851086,0.08198315064201224,0.28172080406121025,-0.15589531516927868,0.4107341689346532,0.37222462765290687,-0.24954885972398314,-0.15666884512340512,0.019977354768214845,0.06651776498975355,0.06656045004330298,0.11257584875590317,0.10720533203632084,0.06948053549026846,0.2571154639686942,-0.4450305139886317,0.002558508072481102,0.1417526087328797,-0.14387995554919297,-0.06471550715062177,-0.03418858934819647,0.09271901330540931,-0.05095878258952343,-0.07211221056867646,-0.2829815358380069,0.010838667715771301,-0.1550434386314442,-0.40538667303042863,0.16929726738659406,0.18254999289078172,-0.21420965660808539,0.04523962393416924,0.04015912345488496,0.07653222833439681,-0.08462644530435771,-0.1279427193408188,-0.1996676718194268,0.10458004095821054,0.22333794921573996,0.17549206836245929,-0.024321425058597797,0.4801439290528505,0.026158035677112227,0.1569859037719013,-0.01089845657509911,0.04807989009662591
0.04757476293029244
0.11923820533561276,0.4865425762780222,0.19287241165513996,-0.013993115748161705,-0.592429794486579,-1.0165462808396672,-0.6471194138627078,-0.5780931328992516,-0.028312530601349552,0.3226597218491529,0.2953996800906825,0.15312867086768728,0.08361609490464096,0.2580179076374751,0.12437242776745015,-0.38371553131172453,-0.06577864521346673,-0.7302103294451169,-0.8267425922871176,-0.14195510282778873,-0.03845313981969209,0.3839716047095504,0.42835705892865483,0.15971392017138103,0.09383069546501134,0.31928182392850923,0.33663658408478925,0.11627995513236299,-0.2446964355813373,-0.2523672970862304,-0.7621991344802793,-0.19555127153744717,-0.18013742949757883,0.3498928042000413,0.07890915781459089,0.1428172053549439,0.033467515521507896,-0.07341962500674147,0.38865810887229746,0.02981338966185652,-0.1749797168309149,-0.28931235594243676,-0.4312554253895451,-0.1801390210810484,0.4347671511240928,-0.23273418300977317,0.012882570236321054,0.14617828942865424,0.08505600356820174,-0.15912736630257318,0.3273166412749098,0.15683003503576765,-0.17256159722275682,-0.1819935006488121,-0.09457337153407404,0.15949858801709266,0.10477612904209639,-0.14431082334777057,-0.1034813485387668,0.12178959354516634,0.1414205799738264,-0.09251565922310669,-0.10270845409602729,0.21797319442519153,-0.25199424959412664,-0.42122978486429186,0.11837063726255069,0.4816362607301935,0.061020157363977076,-0.0463699791769802,-0.013732587154004475,0.18760426660880164,0.16099648216081003,0.009588046467175015,0.0223103029261992,0.1270491637406273,0.12893963774800676,-0.25697913434107744,0.29456367318823296,0.20475123661137157,0.24889970322844857,0.012100062596506091,0.1189793684911885,0.1324910669312413,0.10170037933655009,0.04141977626926294,0.005619045396846918,0.14277233706320724,0.1664694452674712,0.2177355622636417,-0.02605409752356042,0.1108571703669539,0.07499296316477215,0.0047996021954862765,0.1441310383719906,0.12565703059100783,0.14395595348475498,-0.003356815426409268,-0.19886981141078858,0.031278629367697756,0.25883044174354397,-0.07585231953896925,-0.2855082686774073,-0.04457500116754498,0.12792539811527415,0.008300562057359401,0.20445985435906644,0.11067159740020381,0.11369067150500319,0.11003817896950337,-0.3077469913567663,-0.16738661102399832,-0.3346029274450426,-0.38421793208574884,-0.32248426449112555,0.21681399452391464,0.1437882302100082,0.1926424327104569,0.07230716137493574,0.11562223729905775
0.10715897337417009
0.06754604757610994,-0.1404454294499046,-0.01033840856933441,0.7066179330095231,0.7458217634570593,0.8280361856175894,-0.10966842687746772,0.4343009610756529,0.0986369081527878,-0.5419682433249003,-0.04096590241634672,0.15358510386973853,-0.07829635767296705,-0.015758709935034892,0.18669595289660088,0.34683543353792295,0.27561605654910487,0.7719872981406143,0.4108288641050502,0.17059112364992504,0.21268695887695413,-0.3863153772957116,-0.18908524111969657,0.09447516914024492,0.02447599665556447,-0.1342569188274443,0.060334653979036354,-0.23602905668056243,0.3725861128564169,0.6827329908813352,0.15478469532345931,-0.04803144408438109,0.1533630643834338,0.12099962754967439,-0.2695437761943786,0.16955866209139556,0.04546191278839447,-0.23586953566167954,0.0058541257328737625,-0.5570481269187905,-0.6592403712894171,-1.0304307319718848,-0.6098538722525716,0.3843461470148695,0.4344676061497214,0.27244912316901854,-0.2695625984683974,0.20478733415244074,0.08093298594136619,-0.10871320129680434,0.24767859693709296,-0.5225783904153348,-0.9688943844915247,-1.0044633981940356,-0.16863156189547993,0.02551368567063858,0.24925023569211455,0.10560302164631236,-0.2496667351166552,0.18335149868238523,0.1533228484038948,0.011317870546449692,0.15840460884782068,0.43242604934153844,0.061226730621301004,-0.4834577888632307,-0.21810561680921306,0.21340770396762296,-0.36467620368293846,-0.3195226394214899,-0.17416195479150312,0.15193418740463685,0.14131442157816268,-0.1011616727097388,0.02960733940192646,0.28512508231087713,-0.039351333726492646,-0.3977204925891648,0.17107021894082633,-6.265943536865245E-4,-1.058088112712753,-0.36297488669711636,0.017609760548359145,0.16428340718669163,0.09139438602952174,-0.2786667339725037,-0.3484871094134981,0.3292678353379144,0.28679328561275724,-0.5444406362494331,-0.1938977160171643,-0.5176946885554642,-0.8645836828713939,-0.11438387440426442,-0.009614877558381647,0.1822820695799928,-0.03779629618908302,-0.06454270929017747,-0.1334080188164756,0.7274438897399996,0.4816372991999595,0.3908940955619002,0.030836541804058502,-0.473475037046912,-0.38803185742824514,-0.5927143305170622,0.02399042256056328,0.1797230051690644,-0.1377072654248774,-0.17616742287953427,-0.1978308479366606,0.6145367632140534,0.0902613848213705,0.5115138252033978,-0.10732269074879472,-0.0450867301515603,-0.5133652565451615,-0.556111103408056,0.13810240979573332,0.20210976245409176
0.2331987679343717
-0.16386331191224135,-0.3688868650350451,0.3182664636532049,-0.1562370401489409,-0.07741082481874541,0.3948045426846173,0.22752136457005329,0.02942968845620462,-0.1331786736194685,0.10048234284162157,-0.066577635712687,0.02647978553952188,0.032564313371729006,-0.09456659355598711,0.2751062326228281,-0.014994912010647763,-0.3152835215772385,0.49953254028936367,0.26349933543459003,-0.43793229480446416,-0.5587124006237477,-0.2372628926689655,-0.028988455028180805,0.09129945410231395,0.1299131478302345,-0.15009490704267786,-0.24083137786239533,0.011688087149347826,-0.21220617880060832,0.6182300937248669,-0.11282029545168996,0.3133581586831422,-0.13354775061441182,-0.1867034198387183,-0.1190169355558613,0.18407501563550632,0.030329484362892453,-0.22221234693700787,-0.4155019862141942,-0.47984813260886894,0.014402586425675948,-0.16286809702534338,0.31676360414729954,-0.7069538164396879,-0.4457958936521259,-0.2005597820050969,-0.08822148801964387,0.20293571731570925,0.0729233876043595,-0.4144605539193229,-0.6893910746564983,-0.6123992657523588,0.21112547038846918,0.8403407133025494,0.6982990858905035,0.29291172235690244,-0.13122686375658527,-0.0519828989675202,0.007717766212457886,0.20188216087551403,0.1487015700283883,-0.43478103730851336,-0.6824707105971312,-0.7464174139994205,-0.07305296586593403,0.36084792320180303,0.32720458390144735,-0.10321295445691979,0.11173976493310152,-0.1603477499490747,0.09939451003527995,0.18884536481802233,0.1305972399748475,-0.39516895280083353,-0.12749840707040416,-0.3757041368449896,0.06116644346036128,0.18451065673390582,-0.31072814868566423,0.23359737885988735,-0.26805118410211215,-0.14187067818608157,0.11939789963256052,0.12859043224371647,0.18233662190712924,0.1278992189929245,0.01620692409749065,-0.43023425087568556,0.09663937123921289,-0.3894132360337622,-0.5430853491465205,-0.33389151174510245,-0.18636981058532348,-0.031223647183785112,0.15770210318844052,0.15822728597793156,0.44392533674794876,0.39285338404194103,0.4260483274058706,-0.09797694299300937,-0.125854211949939,-0.6643538240478514,-0.1621579017875952,-0.23100787903534303,-0.44870156799822813,-0.20913271708693115,-0.013885938000243653,0.1424882894594781,0.2765616800369334,0.467687841130361,0.345524264486917,0.5462157660735337,-0.23549276315883844,0.5988296737505568,-0.18062142454407543,-0.3980170943210718,-0.9190846159920149,-0.19680906073951743,0.1352304774608311,0.2076272140845945
0.2142486410644286
