-0.08198877804138213,-1.7983187456990672,-0.7896948222306651,-1.4797459151467416,-0.07524491767660389,0.2526390826247124,0.6834190129906929,-0.13578471643472165,0.6436361785924527,-0.716781689574139,-1.4218563339113104,-0.0748541382630598,0.45952538442525087,-0.8873599829356641,0.633627693097096,-0.34389478546543606,0.30963962632806646,0.7389413365731492,-1.6278595813594858,0.2912968290227468,-1.3068663327918844,-0.14599189444560576,0.002586888841893092,-1.431983243135134,-1.2331521071694875,-0.6157019981362234,-0.20370181307435592,-0.28211157687167665,1.1049661313032553,0.19928884530559227,-0.11998769312954102,-0.2276014444242463,0.3333349631432487,0.4888689366986579,0.21441690795427015,-1.9854921787662065,0.6211602868341914,-0.18946853164915134,0.8243901347518229,-0.953425895865253,0.4174685916962542,-1.4858139907763646,-1.9283931707814903,-0.25601092000882675,-1.0526694736091078,-1.0055022287533502,0.8343340302373087,0.695303263661776,0.4157553143383459,0.643008459579431,-1.8973180649265162,-0.022591915884495006,0.11421410591831385,-0.5789275156288886,-0.16244015269338574,-0.011287170199506808,-1.579744192729779,0.3061345286866581,-0.026273554820721235,0.07139894902903025
-0.6212454141843446
1.3837863145957234,-0.8563333331476635,-1.7516214330231983,-0.8389018065253775,-0.23385144084965903,-0.6076609139768315,-1.1868728702464686,0.005519994542499362,0.893516230163434,-0.7842524717888012,-0.7603804288636922,0.10335590354316682,0.014338753818793756,-0.7483668376789145,-1.5682239514515013,0.8622107985860215,-1.7957384438646677,-0.3400425558806783,-0.6617625259622135,0.882391318622368,-0.887228535807211,-1.5694551221007975,-1.9249614970373,-2.222952064182797,-0.5266211731741474,1.6921501460443253,-0.42652929148173235,0.4054167206268232,-1.7821880586659224,-1.0592467854342826,-0.30980471482553257,-1.12146413632544,-0.8281701058457471,1.2163884613759224,-1.4022992079431658,0.09660781336960446,-0.7905671370280194,0.29074954196353875,-1.2292807692349788,-0.42272822008181826,0.2612308505476604,0.4599359604228138,1.4139796455476312,-0.3821911917240948,-0.10986354077425935,-0.12443207314449443,1.3850071478129553,1.136148427419402,1.9050980352807085,0.7281739964434915,0.830711437093475,0.26035211337441555,-0.7071498342960304,-1.1439354775432495,-0.7374602896786071,-0.509203826283288,-1.1244985323366252,-0.36536370526676376,-1.8191631523477556,0.21812996892552314
-0.5053417247297014
-2.130082098532534,-1.566001533559799,0.42167417330012485,-1.2176389659327584,-0.5235971508732596,-0.3109454333492154,-0.06209180832497204,-0.5084096502936031,-1.9088525921245947,-0.27561698220451986,-0.35433554762564257,0.4440735327006578,-1.7941831546328353,-0.11865210118069228,-1.0997002392168027,-0.26465401787132636,1.0284367797051983,0.12637349641931986,0.8337907561052552,-1.0843466697170143,0.6554392430050495,-1.3241155392287172,1.3393528033890298,-0.2858728461123591,-1.252182941854056,-1.8697074951703545,-0.17134926564125724,0.9904484395862768,-1.0770554735511646,-0.6820502541272755,0.16700464960326208,1.2121731038842367,0.501244572963399,-0.8611362277967769,0.7243130110233927,-0.27667112456052895,-0.01792419772616833,0.3961594851630828,-0.5857824897734578,1.0049738926952603,-1.1608757579443278,-1.9006592088017273,0.021703882639026662,0.10530138666210027,0.28875195177941143,0.42117648686693754,-0.7763252677290231,-1.150154649568612,0.5454291088873063,0.3382786245036787,0.77896324892109,-0.00822239350942174,-1.295012696410723,0.026357493130929572,0.2714911893195283,-0.19949230249611039,-1.5949788449943105,-0.24158832511778686,-1.1883739279287495,-1.9932600135596357
-0.5502187427155668
-0.27864182125770925,0.8620398104246512,0.712425587364237,-0.3457013121120393,-0.4776271115041113,-0.38633889803690014,1.650818245548151,0.1668664185644673,-0.7567113383930493,-1.411843923296563,-0.1791011037138043,1.4300684379401405,1.6270021190356285,-0.11480457274740825,-0.7085494407676075,0.2547515871691768,-2.32180721439283,0.6795838607347802,-0.6181602482542863,1.4121849809528073,-1.2273418868775556,-0.7875403848905534,1.046566701866074,-1.8136301315789145,-0.247955489291705,-1.7828298233065638,-0.24343346811118272,-0.6508995867222779,-1.1234202716906834,-1.2577396515701185,-0.3529937681231858,-1.0747470985965033,-1.4435580999331463,-0.34966750852256545,0.3359444166933635,0.13650732378467836,0.11927309140070612,0.5658659547360769,-1.1063555915799264,-0.4871749062877796,1.627066769181703,-1.2467214167989256,0.489498597714453,-0.9217835723626264,-0.17387153768061808,-0.9931210723795459,-1.8325361631698374,-1.1024071186557163,0.37309652387178305,-1.0071719447535532,-0.6756237614304526,0.1422395904475698,-0.3673928988570892,-0.9604040447064268,-0.4569245199520329,0.1999610035773366,1.1809749713163593,-0.6783254719254309,-1.5652457965703228,1.3591106847527747
-0.5115825643397443
-1.5679163405806145,-0.7158033837553706,0.9018421051221189,-1.2204957227589586,-0.5693843672107913,-0.43726820966043173,-1.6229721991031067,-0.25814664784914126,-0.29872832249664744,0.531503305929341,-0.7419447546454401,-0.34062358461031383,0.371851334903521,0.9760287029543172,-0.9790214208747459,1.4796337077243171,-0.5439822607257305,-0.864728983289533,0.40638995205179257,0.45681936637434456,-0.12492783349802297,-1.7096561174770966,-1.7602922270670165,1.7113160025896699,-0.6012231643566437,1.1452245390579094,-0.5086735998591394,0.18780619060736756,-2.987989082345511,0.8568177725900219,-0.304598059483414,0.8969485474304889,0.3739314564814485,-1.5524355022127263,-1.6079853981690064,0.5066958036974684,-1.5283545119697164,-0.0124203912949659,-0.8642297414870052,-0.6410970034553438,-1.3362682821602223,-0.9353558616287144,-0.3390479878493428,-0.6922415372929872,0.16181116696027956,-0.983725291226453,0.8234407715758902,0.3989956105055412,-2.786295321070957,0.6015946329356625,0.526633933292836,0.8899054836564784,-1.2254650549613086,-1.3122457095150633,-0.13259050491885094,0.6568708312819228,-1.3872649698956507,-0.4539299926059005,-1.0008293160228388,0.892084630906752
-0.6198709445666594
-1.4517654789491188,-0.5929162945032457,-0.1450827463014985,-1.0321750207957106,-0.3284638646965699,-0.4171576127939355,-2.7923561391682252,-0.1316437647426167,0.21636174491201443,1.308007888202252,-0.909856567357813,0.010082619617466352,-0.6242592507747313,-3.4639061612516495,-0.1968304014645594,-1.5979467925767112,0.42279075987008985,-0.6695564241284925,-0.07892527180861131,0.27553410168834175,0.20457250783906994,-1.3567417078585318,-0.9762231619810322,-0.6419805279651258,0.02462077931695733,0.7014350682081836,0.753860442134287,0.3455878731069296,1.6759325027072651,0.6654688476781225,-0.56585174748788,1.3702918262146817,0.35433802409345216,-1.6901432766534157,-1.2896283794216403,-0.5004047346847768,-0.40666627043642806,0.13453303723393678,-1.119003060394462,-1.457359353551646,1.220273513816978,-1.4391506175491273,0.12729508799646752,-0.29831631772219697,-0.030675466281363403,-1.6962532161593467,1.8483450729087616,-0.9281713377355684,-1.67524279563642,-0.9279167427718378,-0.20593098007662536,-0.9698555974193829,-0.8596887838792104,1.7948277505525094,0.7043184759942245,0.7181893584012458,-0.8447010683914546,-0.07334546646004497,1.2628610193697976,-0.12755483538390083
-0.6371305361244184
1.6190895540733938,-0.3584259998054052,-1.2792755729880492,-0.7876982432966708,-0.4740324050110584,-0.5525245849596968,-1.7630274660545229,-0.7689605007520066,1.445337990261169,0.07791745883576501,-0.4436283266011548,-0.12770516905582238,-1.4486584129872,0.2612103805912157,1.5988786140095321,0.1888820016726656,1.6859674587471924,0.334778498750521,0.32325475579563745,0.23788123852116924,0.5821669690637795,-0.9314781293195832,0.646718252305273,-0.9312566419229725,-1.079542530840831,-0.265220638962099,-0.2607567147205546,-1.7287776018936902,-1.1025726265864675,0.34414211402952105,-0.33913316839212676,-0.7317452911391781,1.6483311565233625,-1.3309694715098832,-1.6011432157323844,-0.7762652817852616,-1.1336455552642122,-0.3077564397097856,-0.8577586836287351,0.794681716398572,-1.2987321150471627,-1.246603129072669,0.41559920151943064,-0.3115958058901066,-0.49774308277058377,-0.31148398326709203,-1.1177020191411133,-1.2588961888943648,0.2810113527093695,1.0669585810738067,-1.4800615114232,-0.12852390924054766,1.3274121117863493,0.1643305481789241,0.10775579171648138,0.26859130870369663,-2.0968474350876725,-0.13713181983499897,-1.3648490453785516,1.1494611559523995
-0.6597439612017776
0.3138155557952951,-1.2004446971124156,-0.49163500670187055,-0.7255677233648785,0.1972607837063861,-0.27296328994890057,-1.6909875057086554,0.337370480351483,-0.529447701647822,-1.0055991508024398,-0.05866537491524629,-1.47375906262645,0.6051169592407805,-0.2689892119770794,0.7866964590045795,-1.87531533104976,-1.1332686897400575,0.6549663225175916,0.53178491526229,0.9923671479097941,-1.5394521988953633,0.29419075824288965,-1.486154050562948,-0.44482460864272766,-1.3131818182182118,1.210254632428504,0.05917109249537665,-1.0541061940116734,-1.9130184411800428,0.6081541751538011,-0.20103123279639698,-1.0100454016381821,-1.4438504839589692,-1.4167274652909496,-0.8726802304750311,-0.060755824991924785,-0.7348186506032158,-1.4340927106941677,1.130468280853479,-0.4943057226146675,0.3221479920575555,0.7195550699837479,-1.4783591364959912,0.1533789615909086,-0.19006610327137707,-1.2106562069819542,1.2292217739844387,-1.5158551274647236,-0.5825498519936604,0.42787199440857265,0.21401786600486428,-0.8339525223508601,0.4080604957835487,0.20970618615175332,0.07842061334177534,0.60522887028939,0.713272448100265,0.4862321045025057,-0.4022982595593214,0.13243668795587443
-0.5224620278073681
-0.6901038123702318,-0.7279872272219727,-0.26554634739386385,1.298914494152209,-0.0907384631453436,-0.25305090337461766,-0.7958431093671048,0.139134294869116,1.150692778199597,-0.9434195890690745,-0.29814700179567155,-0.056580592727197884,-0.2727409852664572,1.047929628071176,-0.6719872566818336,0.30382378954926414,1.4730849060712035,-0.33314981362471263,-3.017540935590252,-2.614285828003555,0.8630832620428157,-1.5634789574608483,1.3745840775811242,0.9463586957309348,1.0986286591556915,-1.8792944456761262,-0.7724706107800935,0.09851997435636597,0.8746619152650472,0.42196968179093347,-2.1431106844005408,0.23988286098584025,0.3588295337643813,1.3331707487717213,0.8441456317544551,-1.2188285367985359,-0.4089513107475752,-0.10434646984218691,0.19389500245292843,-0.5375754173902354,-0.630764033838212,1.2001411483853721,0.05391041279491201,0.08636000387632796,-1.420140256090742,0.7384208451277956,-1.2027302456153175,0.39301851144453126,0.005746567260949501,-2.118766069355831,-2.079757524471239,-0.39295030676371195,-1.6404043162436623,-0.8186934886748504,-2.813894850038457,0.3594600071784646,-0.8454295013459754,-0.2891992159971364,-0.3032582626382406,-0.935402235357903
-0.4316194931926378
-0.6703097541095797,0.8066611491368197,-0.5257168593182981,0.03412290659119204,-0.03596771358542461,-0.24587138040365486,0.7066124791367344,-1.0657355486883313,0.16430924252492127,-1.7861229405729455,0.18303663337575524,0.130557601267542,-1.8855693634975292,-0.3447680767248629,-1.2251311844890709,-0.5998838825942207,-0.9153487741402664,0.541436851257298,-2.209163727903873,1.5139094006657183,-0.20582478049192482,2.1343870699261513,0.34994146472422716,-0.14376327824893054,0.9872977841238555,1.1296889653000717,0.4484192363016179,-0.020659549631104245,0.12763521183520457,-2.1727269412662293,0.7520035661582137,-0.1619639157436237,0.047244938726394396,0.8993551777719648,-0.3781423257357681,-0.9009591073163794,-0.07804338183375263,-0.2438237514982076,-1.108700237691417,-0.5228613664087245,-1.4067246439329835,-1.4807006471544608,-0.001961234384594981,-0.021301041080399947,-1.1215066585190487,-1.0807857836860544,-0.4109424962588527,0.07866081739158182,-0.07293724151028166,-0.5924030026171652,-2.7522420311970395,0.1340835448175018,0.12231686308797247,0.22571824890852532,2.0369367970248566,-0.6589558039285546,-0.8402673599931363,0.020477528951716572,-0.5023468123450057,-1.6677138165180352
-0.6179150032471785
-0.9351052152256374,-0.8773186951402471,-1.2881337631604963,-1.8732750034046584,-0.3662596330741775,-0.3408313338107265,-1.495747592666256,-0.18443071984536574,-1.0054935481136074,0.1758920357890875,-0.5165702376814688,0.44171098951719995,-0.5207596189765525,0.7885361732620465,0.698186051590633,-0.45820217793285783,-0.5889523822417594,-0.5747628273438078,0.18129784710740093,-1.8442158217085802,-0.7894557907848403,-0.04355264044350344,-0.14687464126540176,0.9236907176192464,-2.381409826393029,-1.2662374003825216,-0.4988932438548178,0.5679092367184092,1.2751076606171354,-0.12298711828799123,-0.3173098525287562,0.9068419723144779,0.3933294363973349,-1.8308191426173097,0.42460656138902003,0.04022124179558974,-0.0732380347938594,0.06356230966571684,1.8901573966682599,1.8005453288367121,-1.4237192827094765,0.2621389208294708,-2.0253824463453185,-0.36432966060619876,0.3263138196026238,-0.6033976792870838,0.661385354931584,-1.221432503134427,-1.8474321760238712,0.2851574085789739,0.4281878912108285,0.33214872182490335,-0.693903692214725,-1.009390745290591,-0.5595954672883198,-0.6219096276336165,-0.8670620500495878,0.5556437108420363,0.746685696017124,0.12211154773208002
-0.4967274185938588
-1.150858163017404,-0.652410409607998,0.5717822424759312,-1.1002904762082448,-0.21495100554206786,-0.19649316380292775,-1.3983978008966014,-0.17322781271097304,-0.12801756737118547,1.143131524511173,-0.6829478735798028,0.20325072495143784,0.9095530486953953,0.48209705248799933,-0.8255872287713996,-0.6994307288930306,0.5135156434948666,-0.008781245254346457,-1.6545379658245758,0.5390098303794629,-1.9028843651399576,-1.3175129999108839,-1.9654620474127302,0.03621927661096414,-1.2899440568505072,-0.9749913641400104,0.16412692682392307,0.3730155933432614,-1.4095826888269916,0.7145384735374032,-0.01401890747753571,0.40031838539683395,0.29942200001139524,-1.4187154843866272,1.028616539599299,-0.35457483951100865,0.027907881060376033,-0.34891640529598794,-0.7638958612358643,-0.30445822013466656,0.6669647682641995,0.14635780106002935,0.19300695468003876,-0.15660881209386152,-1.8515045554173633,1.2048664159433051,-1.8718092054403508,-0.14922201889985573,0.35286741037758484,0.05080471223602322,-0.9906449300672622,0.2547571239979339,-1.309574584818569,0.046273797268944705,-0.13923760340229413,-1.4230445683276312,0.8039338406130847,0.1424954903175933,1.391863830020789,-0.4755151348695446
-0.5513377685758444
0.8640626541832191,0.2744376263098496,-0.06708053226965466,-0.156292961134132,-1.2347266567914537,-0.06336758082723373,-0.3173306492198957,-1.195617120532637,-0.07075558703709901,-1.235788534040177,-0.34196394086459053,-1.257745253472758,0.1529524974917508,0.3098447512285972,0.9704634568964933,-0.6006921260327791,0.32429574055975074,-1.7461248914651382,-0.46883366836937657,0.5350558838889949,0.8633157741289765,0.2392005323604165,-0.8231883835092313,-0.5310841057974005,0.6555788823969468,0.3307576145485559,-2.346490948386173,-1.1889555319804015,0.7071593369200826,-0.5650993703103956,-0.6251922255591729,-1.011898658373283,-1.3358518955494147,0.9236436319824974,0.6346617600973716,0.4129608700185697,-0.05285767398182949,-0.6298900519085073,1.0117455059471494,0.5554648084743238,0.48553765313591185,0.46566893788706126,-0.36028392391997643,-0.36185581400179906,0.06466277970989233,-0.3497432129100427,0.45163433053222646,0.9017374580143743,0.264615841637531,-0.6114147766194441,-0.11881071650298038,-1.0768020807267487,-0.21655241899862435,-0.28383902456764587,-0.2564945317153666,-1.4647301759508735,0.5300896390789525,-1.5713273846208355,0.3574739415535067,-0.002074850017868904
-0.0961129501119541
0.2142723101820161,0.912014547026503,-1.2124800104765578,0.05324740169716444,-0.21867821059242618,-0.18527986810196026,0.14643450119974227,0.1534873498515952,1.2216125603284977,1.0907694770654413,-0.17970126430658814,-1.1676175659143009,-0.006979380698338824,-1.23837269579388,0.6570620894625678,0.3621959267350744,-0.8733361534177444,-0.3996994773674308,0.08274464558944443,-1.907496215401759,-0.9796754317755836,-0.5427711043753456,1.0822910587005043,-0.3369431463912638,-0.3496507025836927,-1.2431758959937973,0.12588542896167784,-1.2851328786711067,0.43398742249810635,0.07289175017521049,-0.2149348380092095,-1.2145558397731506,-1.2679319266680835,0.0855292019524688,-0.6914839324372751,0.33584204812325297,0.28840133794543876,-1.2680382832021828,0.8977076011418298,0.0757527301695314,0.6222214138046229,0.3595155584710765,-1.4176752114432263,-1.3734328768688784,0.34128790126330216,0.42860613284428234,-0.9969834213496577,-1.1701086012267177,0.49895399605926466,-1.3213859958750707,-1.0066932208792418,0.3231391623868089,0.37992668458527523,-0.6848760710426706,9.326901803036451E-4,0.25248666607159836,0.006485285637556154,-1.6852646717417037,0.7134478044271587,0.25033104026017244
-0.39211971155502173
0.3791834787803539,1.2412066998615758,0.5890185463806148,-0.09299109632039015,-0.2462965949116552,-0.24984340460016852,0.1361025402955541,0.09059695953150987,0.6966573755980192,-2.0764349969833966,-0.5197566171260836,0.276087436517349,-2.195645654378659,0.04057713760299405,-0.6452601866087765,0.3152521366368157,2.7639988737837826,-1.5655938705591244,-0.1102236364310934,-1.5972027205420947,1.8688232081587397,-1.0071292582795597,0.04317832263474804,-0.08648961785367698,-0.582099116058093,-1.479179746168394,-0.5417119042574858,-1.4894618825560784,-0.7046337929318708,-2.7653446227029814,0.012083071414918085,-1.4964842726694325,-1.88061746231848,-0.21195904999129636,-1.558307616417432,0.048984617394966075,-0.049638398821176564,0.2733032557173943,-0.8772807327200068,-0.0838773225170379,-0.6544016898557482,0.3289605861204248,0.09855671234046953,0.573885886444917,0.21969642566091893,0.7679827339722776,-0.43099758885743295,-0.9117123506119501,-0.29563610049506134,-0.9676298303993054,-0.3826801330371114,-0.41865183254925986,-1.3948454186359271,1.6465614388522962,0.6598940496694963,-0.2788911670594926,0.978547600395806,-0.3896757283210993,-0.8670525953502545,-1.1864916918094541
-0.5353221078584185
-0.33200900758417673,-0.9796464338162589,0.6214823461792078,-0.7779910218531597,0.01748611670226905,-0.29028545968954766,1.8266499964582126,0.24629357935508986,-0.8517421824682158,-1.975915518905409,-0.44179824337653445,0.42248055977465243,-0.1021716424038991,0.2068677428835088,-0.0010716323098806854,-1.7303160148870147,0.08399542942178692,-0.10339506643885596,-0.41833161971301386,0.3330349055802648,1.1843066307078627,0.8958018059511373,-0.43007724131444997,-1.8935550071382454,-0.1252736289540202,0.7152297928721327,-1.3192304179606162,-0.948474550434553,0.503040434663585,-1.7197166555946788,-0.020686031353060044,-1.85996674200897,-0.6054803530790994,0.624197456216026,-1.1614938643643353,-0.06937091333435218,-0.1039384116639402,0.5092836981127303,-1.2881184769758782,-0.08289140247906725,0.6697741208130091,-0.41939889716682516,0.802703641658032,-0.02652575430921995,0.20821499163344975,-1.0671337231787077,0.1303510044360476,-0.39755703009727433,-1.0948155896233283,-0.08467840467125069,-0.3361670604224662,-2.1727007228585102,-1.3558153937791202,1.0248915066440814,-0.5486758470781921,0.12604693954819915,-0.7316227211487973,-0.13822549960715472,0.72608791421749,0.21301404550802844
-0.3808337125122331
0.8796576827736255,0.5774154966911196,-0.5078373939652728,-0.0918318770479657,-2.65282422146561,-0.28529346351318563,0.9360136589365126,-1.8516782038774222,-0.6713225275627335,0.7949618650219763,-0.0998287807498527,-1.312773478566988,0.8624127918422534,-0.1830830950874331,-0.8770692856598054,0.223122612322523,0.7226339229181699,-1.2632467838911199,0.36228283597384764,-0.8329984430112229,0.22349899194401426,-0.3398764143784788,0.35244926637183127,-0.3550057229361401,0.3546073627618994,-0.9557706102037653,0.3780489422885964,-0.43154466147334797,0.10143304092724392,0.77930677664725,-0.1887283756911427,-1.0324354382852106,1.1424129373179124,-0.21715742000754196,0.9479047971133753,0.08494393725181862,-0.08257343481054988,0.4084695135013723,-0.2835368591401788,0.5007256487242467,-2.021725265704708,-0.6049054640270428,0.27290987547933554,-2.2289855320106966,-0.603569861041182,0.1743905482470944,-0.6043279395131613,0.5929878898903641,0.11339830605539733,0.8647315021139197,0.418977471667369,-0.5771428025001297,0.4718236572825773,-1.5793582680091003,-1.3005715394478898,-0.901628195763194,0.7643783796802496,0.4647560628468569,-1.0749026668934656,-1.0572646642518377
-0.3451324620669298
0.33651836546561514,0.9398180198502928,-1.0309315602817613,-0.25809991177080865,-0.35552526646454224,-0.5616539053582714,1.7333565857514672,-0.48600847975228334,-0.8985010195908064,1.2988861367652484,-0.08870366856449868,-0.1492670660039594,-0.3596421576016979,-0.3987332209553366,1.4175790925826623,-0.0024125204515852003,-1.6164503541353108,-0.8540684888665616,0.08010050118999336,0.7190936203254235,-1.6667046673572334,1.2185562845555291,-1.0158059697672608,-1.3626495092626763,-0.2860621871469749,-1.4955266129374774,0.2572126250956404,0.07682016519661818,0.09039727588910812,-0.9957224794541506,-0.3478213059388496,-1.171723161865454,0.986184420829981,0.6314450090395768,-1.23613579803064,0.6500226708397889,-0.9305673610506293,-0.1903665908817069,-2.8876576273409946,1.0007414954390053,-0.561360092928793,-2.2464232584222836,-3.1163981133063645,-0.9100254706309794,0.9302472545073361,-1.4884920194648048,0.464761117975048,-0.114798905228812,0.09014988107627077,0.2886380354254887,1.0647821483284539,0.6753661010651314,-0.8046018804331478,-1.5372248820333054,0.1386858904200083,0.30551272427759363,-0.9535351912748479,0.21129955094626177,0.4852506794425704,-0.31785210920927104
-0.545538457246677
-1.3171403161085837,-0.7087478112488645,-1.8255964079300235,-1.6260879827486086,-0.4536447799068962,-0.16564496245596416,-0.6377143084414056,-0.1958440093794628,0.45876179118294474,0.8022205290874939,0.21142909139371302,0.16198496677818214,-0.5624770140128812,-1.9437220503056971,-1.1862452679723043,0.050936159906540525,-0.3152348287827379,-0.015589530884562804,0.14568829689581791,-1.2693133497148392,-1.3004178989265855,-1.4357847148791458,0.501108488271757,0.27667469370386427,1.0432559105154968,-0.8068149807947445,-0.27134325879749743,0.5874739992836511,-1.0817945147328774,-0.026949637716088347,0.5740710070790276,0.24264561045254396,-0.3567234245046749,0.6069819787218232,-1.5645186766646368,-0.5543363891450627,-0.17596025581786412,0.08370564273255429,-0.1268684326320057,-1.6693656667491144,-0.8539729422527874,0.7084386380940869,0.6303048942602305,-0.22666972020980727,-1.0278936173928523,-0.7835438541505078,-1.5144229048172058,0.9231145868153284,0.5150576126242629,-1.8256676841940485,-1.5935923166586483,0.15362369352969116,0.4811855759033576,-0.29477308142484343,1.2759334570913217,0.36044688907676586,-0.6844917412611403,-0.003144792000349032,-0.4966481003370037,1.0090898375202082
-0.4308022640286543
-0.6643107006842068,-0.23349796746646895,0.6300271825127912,0.8589110499818317,-0.2559862911721452,-0.34869279908690154,1.2260353466828549,-0.027894964227280748,-2.5158816202270895,0.2648219924717164,0.2634235951729585,0.11065911791248072,-0.8328294174929891,-1.7831484595478397,-0.5959014408969152,0.1329845129159546,-0.8025407686894314,0.20794427037120078,2.146736132622892,-0.19675771372851286,0.5179494930314055,-0.5906152038104643,1.2478757003794598,-0.5133525495538789,0.316378837961743,-0.34242913290299826,0.0011506574682667774,-0.29313607420009063,0.6421075543893938,-0.07514627307153739,-2.3896648134567675,-0.2168363234593956,-0.3456775627628783,-1.7384745422229617,-1.1483188272706,-1.905052027637133,-0.5591115265461425,-0.12656630980050307,-1.3670751422516068,-0.9973888684918041,-0.4795152159685265,-1.1526027485355008,0.20721231105769042,-0.5674384368360224,-0.2010750919572962,-0.3008789774668493,-1.5696839350844298,-0.08875783149371327,-0.3082951457804994,-1.2817037741191177,1.6774315570941172,-0.4709503365996032,1.0399036335248362,0.2957774139269351,-1.314125721958234,0.6725899492168678,-0.6122051017858411,0.7933495859556804,0.7935920480999018,-1.94370658791695
-0.4807874210171583
0.547838260153548,0.6755898048268192,0.4981370195486256,-0.683421257259236,0.3727840182065291,-0.11491182285027511,-1.949244889442633,-0.07635191894415438,-0.8757295394029373,-0.6928161313078908,0.022838186097351172,-1.1364019455865326,-2.0038529920627104,0.5223688673736775,-1.0354558495122506,-1.15836326403689,-1.685933712563802,0.5123013979556098,0.007112466423429585,-0.7324896659142522,-1.4767513157624754,-0.9465663744728259,0.4582586192167789,0.8763041681557694,-0.9947614711158145,1.2439251129041224,0.08795369335095496,-1.327853541224213,-1.0995750388395826,0.1213491075225746,0.20483602523902583,-1.3829351872725446,-0.7147768864494177,-0.9912095941075098,0.13182042932342672,0.0639566295992805,-0.10456848609312921,-2.119899151902146,-0.9366189480061989,0.3730816303098479,0.3172774474758057,0.1838089016934749,0.765883570686435,-0.18001563523343528,0.2153022523642382,0.8450389543822334,-1.5519456689361073,-1.3522676941102956,0.2057561499600509,-0.02346997480261172,-0.426249452512451,-0.18217877554047882,0.6226391306104767,-0.3020241101298462,0.11292212786017328,-1.8819391919788409,0.3594849829579288,0.3927285411730583,-1.533097640426755,-0.2811616024454086
-0.3915596383887385
-1.848704143311023,-1.4759217794185744,0.032890088031921304,-2.35105757712541,0.1260935782740009,-0.2851193417699402,0.08373233669642713,-2.4220152106804615,-0.9869771137782035,-0.10711522433675101,-0.33618526196951026,-0.18907920292056937,-1.4032159633787729,-0.6976297343261264,-1.1734359105142358,-0.7197152570992683,-0.26932253603183776,0.6046663345982444,-0.329098563004152,-0.07686023568374245,-0.38825241782946196,0.6208478950748283,-1.0299371069690686,0.2802466794032936,0.976556613965793,0.7204207576805151,0.9468341357781119,0.8807724991584531,0.7245268119825764,0.04668060444098953,-0.9428253416923698,0.8850035907131383,0.8307898676832932,-0.4684874586196961,0.40823935624376156,0.06171331061383974,-0.2714204803574909,-1.8970480347508507,-1.1392039673254812,1.2759775044282693,-0.591925057036895,-2.235357075261012,-0.4907892133220582,0.0823342642929292,-0.18795531157386075,0.4953195299735334,0.9757053484360576,0.3643461634153466,0.9440989010566084,0.02055015844934936,-0.2530830102643768,-1.6461267213250745,0.6553988504584966,0.33746488039477257,0.09346079068931507,-1.828886170616495,0.3183622417875561,-0.4488786484097544,0.38107454632871696,-0.9300678139645685
-0.6535186705131029
0.5686482447358543,1.246430740404387,-1.0788018052349866,0.666018839999184,0.07658077268970521,-2.1503007047570915,-0.84102687674067,-0.0630780680841845,0.26577315497310267,0.28107793813476845,-1.6476520899041098,-0.9758633536729633,0.11771270052132707,0.11294176529698195,0.6404992598653637,0.047104527016932865,-0.002738082216670811,-1.7420458714594786,-1.294252915829474,0.36295661433036575,0.49469295260734086,0.8627722003972322,0.013755730082393575,0.2276337577006946,-0.8382898576112908,0.23128123745272153,0.23056593232074857,0.4928344767541301,-0.39200022503782517,-0.3914028560247624,-0.6119566693367955,0.670285796269868,-0.21445976886943188,0.2467658400517074,-0.4455917468107828,-0.6043529604413082,-1.4619088101686224,-0.6150017473338042,0.5650022835048405,-0.20177371543886227,-0.2099500205860466,0.8965232333154581,-0.5039987164582338,-0.04172853756652303,-1.3160644995158184,-0.1936666077810418,0.5441504884416205,-0.7208503998896759,-0.30863547393204094,0.30872889483949595,-0.8753161998248761,0.13506874470500446,-0.6647559143342199,-0.025983006267590505,-0.07384803994259297,0.2388368795364686,1.3322411404605703,0.22991404136882812,-0.49307642690771797,-0.5147607967258087
-0.06343046930732693
-1.3889372307396197,-0.5932112218196361,-1.6352568903137548,1.2573134668835442,-0.25759748799807575,-0.307690702200109,0.7350171253597916,-0.21960480069248062,0.0988305666279769,0.5503321220532517,0.16065808279969473,-0.341073468625441,0.6976183245875994,-1.6031074004143744,1.4758870822272034,0.020713129217998165,-1.223974459275483,-0.12168599022239233,-1.1802430795564878,0.11469932192611397,-0.8321449127254058,0.5853671837376854,-1.1300679426389282,-0.025137439072551615,1.4966847129468763,-0.9965968787126342,-0.7360546001449726,0.22665522281642697,0.33783601416483555,0.019383720988384402,-0.4719067503729116,0.434807411111821,0.03497896987578244,0.370310000277348,-0.05830818009651959,-0.8320880752545757,-0.5350548074620443,-0.12726706411883293,0.606925923442724,-1.8558048527308397,-0.5347031473825391,0.1898014316373152,-2.5629555592952284,-0.025295610032427095,-1.4805203118683294,0.06878919032291866,-0.14445972933392084,0.5038975142069181,-1.877070937636132,-1.3949811064451816,0.20082351051146968,0.28517920304567873,0.5251320379476755,-1.032252186964479,-0.7318345401390247,0.34757036789471785,-0.2269755825791986,-2.227953168927782,0.36098872008870114,0.6183439026092228
-0.5598015798721979
-0.6991754484994214,-0.5023726348890973,0.3094364700126275,1.586857949975035,0.10869748825103132,-0.17826047614406731,-1.5223317855142455,0.6985444623828717,-1.0170542927578372,-0.06124020187272223,0.0514979511751195,0.46780823055704174,-1.4927827000693448,-0.6621137563651911,-1.5272758672436584,-0.9941848426666767,-0.5060313690996517,0.04364105272557805,0.3152502893825987,-1.2375355254625118,-1.521410255696504,-0.26303124228284713,-1.433390041877102,0.16172259095696676,0.17250154536858853,0.8710162928006121,-1.4139603327998778,0.009355967284839863,-0.007969603921904647,-0.545631086296683,1.2557998571236444,0.22749568197106917,-0.3260581064760188,-0.1007833798057707,-0.172425181186762,1.6206908305136019,-0.10086438626674746,0.2976407243977289,0.7909928923062487,-1.3753944740241058,-1.207987494487504,1.3040476296491945,0.5045252824809929,-0.07129322525264291,0.4043805334432915,0.2759573925804286,-0.7438625921122145,0.08971697816595851,-0.8315643750141113,-1.5472124568075476,0.30184616496600974,-2.1200991952558073,0.5590688307902836,-0.4127734835243191,-1.2254571327285115,-1.6957931365661196,-0.823986511938861,-1.9229496329924396,0.1602050339195308,-0.39426501532782554
-0.4146445312616907
-0.6730341338062863,-0.8618573533144408,-0.36630565737735016,1.6850543358240926,-0.10276713294095123,-0.28405852547534527,0.8548886898826211,0.07742518344725954,-0.13498638370158855,-1.4136934176415517,-0.15740172307756847,-0.048695045736449685,0.28060152351851775,1.1633676024607933,-0.8690637323309512,0.33978340150703457,-0.6842394371336065,-0.11123545278071068,0.12881005889200908,1.1820913274965212,-0.35025235257535825,1.1301923001392344,-1.3875926424822624,-0.02245384371109454,0.4324409842309217,-0.14063204390050482,-1.10367433851355,-0.0548372548557863,-0.8854302178701385,-1.2140504631111457,0.325148660523669,-0.07510945340133438,0.1374771857910733,-0.7024402507415957,0.5306712802021731,-1.1985501722375662,-0.22044830734413337,5.306956287469616E-4,-1.0761176958607446,-1.2952634943553698,-1.039522614289754,0.0976526501808435,-0.06878030410056307,-0.17119105287670527,-0.3935378667553446,-0.08029987908147589,-0.851735627135556,0.19092329446937412,-1.6968308899541433,1.3592360874431269,0.793707991360077,0.039563234957636695,-1.7331658341072214,-1.0413900292417897,-1.821782998873322,-0.473350127040461,-0.5728721890153365,0.3419056070105531,-1.2813984524142874,-1.2190435151951942
-0.3752104812360956
