0.5060686361553351,0.7039940200065992,-0.06207271785187369,-0.5837141593181652,0.18561356387460684,-2.7182121712000478,0.6323511705774432,-1.9785825516700015,-0.45638268137626997,0.5158467088464336
-0.05867505718598988
0.07332890984509603,0.022048908235731707,-0.9727718827910524,-1.3266580325192234,0.5865866469046443,0.4903670285732802,0.39323974999664035,0.5165141467774275,-1.02612621673894,-1.5375687463087238
-0.6332402971331902
-1.7690970551935346,0.9763911241054655,-0.5131526292389266,0.4851996278493528,-0.7488466506321695,0.2381314160557713,-2.3838860472517145,0.6926826866523864,0.036476942814596486,0.4969417487072257
-0.3462048143753331
-0.15063192387978588,-1.8156532062758628,0.33511576612633026,1.5197665256680837,0.719984581604237,0.363409169024518,-0.6228294728725332,0.06173758965597067,-2.1290309648583303,-0.46115342148407135
-0.5721937317028508
0.22938514667743531,-0.2982651115719907,-0.28520462285632076,-1.9845427871673944,-1.2228434877676564,0.35220300154543405,-0.06537198883348254,0.7233908744147132,1.1678713328149282,-1.0513277993271128
-0.7498614852850041
-0.574665028373455,-0.5853854765008019,-0.9610745366946137,0.8938902359090591,-0.9676232084926643,-0.027395409119105724,0.2652449658912449,-1.2779477314411434,0.6078544181207473,0.055660678235195625
-0.3140247390403744
0.2836855792164061,-1.2935364045802935,0.3438747623632194,-0.8613897477143924,-0.44323077271226957,-0.10328959086987585,0.15408715645817256,-0.3589042197841754,0.004472336895535667,-0.09336125743503476
-0.47974730763786777
