0.44720667016609933,-0.06212830329586281,-0.3300219680213859,-0.4702007681501982,-0.16075869150820982,-0.6263522179391632,1.094761331088238,0.35607814176667785,1.4412847957922965,0.2303444164812783,1.4673964279642773,-0.2882444535991444,0.4368020080625175,-1.67717383767299,-1.5307234649340697,-0.27961449049326514,-0.33424993599811126,0.30785125323740664,0.005636574248943305,-0.28326337106550703,-1.3908827245057005,-1.1021113268682483,-0.32293135425705016,0.5350643422015208,-0.009677369893785995,-0.22096025126736257,-0.015846684599315493,-0.16073006474457938,-0.22839601795976808,-0.17298238774608385,-2.2625867717240347,1.3577588398866967,-0.31376949412435645,-1.584137577477108,-0.2099600255707287,-2.289986290918843,-0.31749304539692863,1.5592388806808404,0.6129175186788307,-0.2819013263928052,-0.21219158145290956,-0.1597494599217728,0.372952072390057,0.8808620745017351,-1.609249000187795,-1.647971325618082,-0.9778608480981893,-1.3708312227046133,0.24795971050754895,-0.1120625069703003,-0.3360347240264823,-0.24853489981636154,-0.03341155719816413,-0.2604303469068134,-0.6871990465304822,-0.24825262917535845,0.4370151940595518,0.8961442859995244,-0.24873248936370806,0.9026887345433082
-0.3307520992206454
0.49800233652815645,-0.37224538757061004,-0.30767677947166616,-2.083163554916061,-0.3345251654178952,-1.3812550446355267,-0.9070817454951559,-2.471447630296182,0.8827705357302652,1.064573281723851,1.2411248185615866,-0.46277740703203074,-0.060361695056277975,1.377084287925748,0.5393588031105984,-0.2974083265814344,-0.4386626917049088,-1.030641347038942,1.7785029377926767,-0.41285954707728917,0.30096485830299685,-1.0830228716386026,-0.34245507295669253,0.04408254999571742,1.1151499048183977,-0.38718897759009085,-0.24013894355790782,-0.4309196061301458,-0.39376179293000135,-0.36869537128811175,0.6239585684712265,1.0317398661141628,0.9618442746726545,1.4534940169807822,0.02135805455007809,-0.2233835594706191,-0.3562517437762204,-0.4162229019210536,-1.7711002649676677,-0.3748775150861372,-0.32219637130853307,-0.32768107143623715,-2.118288152164617,2.3932343177233846,-0.6396922737341496,-1.9179556474709227,-1.4509094796317246,-1.6818698656827549,0.11248765742656663,0.0034252500375116695,-0.30218648406324977,-0.42511204303223094,-0.2698955170856446,-0.40255600518400114,1.0042470830439505,-0.40963689200241615,0.18351299880805974,0.4078100715486106,-0.3527724479144396,-0.8102110872626901
-0.31455271977551114
-1.1948843452055202,-0.010030020028359421,-0.29610417702795516,-0.4473967678020695,-0.15616324309746063,-1.4860346175412613,0.3178681901200554,0.586541289611744,1.4553453928550246,0.28103066520884906,-1.339480147039515,-0.24892524067904603,-0.5780801002354405,1.2840620474769209,1.3185774388991638,-0.3307551997525415,-0.25328512324911073,0.7562950532446585,-1.3714464239005812,-0.3020649504692602,-0.2707547550555328,2.026306832797397,-0.25299976937879964,-0.47138277388746797,-1.2774763645157343,-0.30294243887791455,-0.11976809489792635,-0.2689838409617569,-0.24369001025090126,-0.27585816028585786,-2.2060180004245646,-1.452539135207482,0.5733398259610334,0.47525930636419966,-2.8086199504589517,-0.9529635286476817,-0.2284025464414216,-1.4904800733856989,0.7086869213658517,-0.2834177944490207,-0.120191064594133,-0.19852511549343518,-0.037571607283858485,-1.3961883632252745,1.1786956496201773,-0.5668484384652007,-1.6014263437294411,1.0414510513206758,0.12771627724910267,-0.4529352116310173,-0.25240914263270264,-0.20648270805855481,-0.18225852271902498,-0.28774245927621983,0.6940045334134988,-0.2141723059989435,0.17507791040826334,-1.5094165815721263,-0.22720345382724716,0.7705140171184197
-0.39383554956600825
0.5886001330449313,0.10805028922258546,-0.2391378716344186,-0.8297513695406183,-0.08963060080029649,0.0073202102878289,0.3977494072506583,1.4163303349792302,-1.9700808547646849,1.1499075543709703,-1.8425322130334305,-0.20309751457933473,-1.4350641363287955,0.4912997737641977,1.6387239881062536,-0.1542079259307338,-0.22225900834008255,0.11053133769496855,0.22324531028320746,-0.2682025676392636,-1.1901092825227524,-1.9550291661691024,-0.10051369965577284,-0.49581492489398143,0.7147758850563064,-0.28060315082825354,-0.10294337234284114,-0.23478588968564043,-0.2283467912634068,-0.233847672460685,1.5008614710325903,1.4024558741402848,-0.32605151624774,0.9887149055446787,0.7199781669188272,-0.6351641218618297,-0.2800722578603266,-0.629897554333993,-1.7058608245461662,-0.31890664499305665,-0.11875760505600415,-0.1876100926275947,-1.9569790721723332,-1.1654043404997676,-0.836328643928808,0.9185196697213459,-2.5038652839858813,-0.6136807773996413,-1.1419588353378802,-1.434932675114138,-0.1690378504896917,-0.3077413684089276,-0.2010315601224823,-0.2363165099508909,0.5705484137299404,-0.20844923421076383,-0.09022204496553576,2.7083905561591823,-0.23758392988625418,1.0182596676492444
-0.287982390389359
0.26667890903664565,-0.3972040671067509,-0.4137950126753307,-2.477099723112051,-0.3046760277545054,-1.2193043425383991,-0.8670417161314122,-2.102776258900992,0.3843439532239175,-0.6873512070769642,0.953009368655639,-0.526153842295331,1.7681291318193169,1.59186947153575,0.48853752623897945,-0.3946085574677554,-0.3925067316211541,-0.13124787712461966,1.4127273363429533,-0.4075875577007504,2.0592364801356737,-1.4179401182028277,-0.41578415043061884,0.10366998446234685,-0.8141794713180507,-0.4533406364609598,-0.37604001127263414,-0.44920459095885557,-0.46885023605036735,-0.4304974433651373,0.9686243735203315,-1.0540811111213797,1.2714059117109489,0.6643620397771071,-1.8437276203966717,-0.690873108241333,-0.369604853095091,-0.23313387886918732,1.930859621684164,-0.40264603838504803,-0.4114138277016716,-0.3913978250343272,0.02242901342322778,-2.959551110836777,1.504066627228763,-1.9723180386259735,-0.8675074344763303,1.4804422492371154,0.38912649352698997,-0.24357105665039863,-0.4226063510527928,-0.4768116598613655,-0.40617770350340204,-0.39513837529158075,1.5462108396571985,-0.4814783712884602,-0.3208253210064944,0.2873159273059498,-0.4418790836269284,-1.7924175128375515
-0.46783331381601695
1.3659797004953176,0.22050066911869348,-0.26876958832731046,1.5112611703294363,-0.11712835276795165,-1.6314038992901843,-0.5814823401490029,-1.279951213609193,0.8662303405029809,-3.2263177800485674,0.08949790417331237,-0.3483885010817809,-2.761694696576119,-0.9537118850197295,-0.7338628208325985,-0.35182916710575274,-0.3456184497592041,1.4492798054254163,-0.4663008391225081,-0.32982244521761445,-0.0031849046587722487,-1.675881175709177,-0.23590223257866166,0.8279142473306019,-0.4030705661643371,-0.27372951534166035,-0.20123599993268076,-0.21583127628152765,-0.27793460742401777,-0.3147717821219535,0.5068579554449965,-1.9815648915451942,2.035661455194037,-0.25488535430960735,-1.2323160848003818,-0.22871483369236123,-0.2521395463503246,0.37256652701380805,1.3223465507768155,-0.3598719751521302,-0.2419764673799239,-0.34500039943406435,1.7393833454587628,-1.6146152589216074,0.8370497290729331,-2.070777333000469,-2.0224295184992274,-1.245218181032772,1.2582173214333523,1.0643427048097052,-0.2491321822416602,-0.2033978619319023,-0.2733381384525712,-0.3156154214878231,0.3978482660522903,-0.3263328219675481,0.3161152163795782,-0.23917138964621754,-0.23336044274356496,-0.540848908493589
-0.3394100421987678
1.5561055312375236,-0.1710198731668794,-0.4041267729570977,-0.8905127413449658,-0.2361680169542661,-0.6635612606996146,0.3816289905336905,-1.1286480928823774,2.3848597554202104,-0.9053871144801766,-1.5928531899234188,-0.37461931446304747,0.7204879633155681,1.247658213003151,-0.9082372667079602,-0.35186250884951203,-0.3734606212808589,0.36307818102401485,0.15497328588133108,-0.4160898567443352,-0.7844006876538511,-0.8872924661068982,-0.28983522221852454,0.13352227009380718,0.3710117665462655,-0.4223148857551698,-0.1683196155336144,-0.356030073064224,-0.31471848952281,-0.406207961600371,-1.8001621609929397,-0.013471554390526832,1.0495634163729852,0.7980919162351019,2.154984088936632,-2.41907364150032,-0.4300406935084075,-1.044908099187135,-1.6023679896867744,-0.45768726236821056,-0.41534232319749537,-0.345165257423385,2.7962494854290143,-0.17039647193498653,0.9386458003327818,0.18993430929271052,-1.365107186552796,0.06702234073545862,0.9593277482387442,0.03403150137597444,-0.405807722453329,-0.384128999836345,-0.31095063266554,-0.37388522200619845,-0.672227506467883,-0.3986825136171808,-0.4904308141440374,-1.6291162906940415,-0.2965495451429817,0.6376007770930853
-0.46305713204431226
0.9742849904246733,0.45173731750992985,-0.261708553388257,-1.0864689546213453,-0.09628576543742809,0.023688993875142055,-0.029161891454851638,-0.6915160736287292,-1.445768570616823,-1.517739073227102,-0.6958343758091051,-0.1728013497947154,0.7347540326273441,2.158549361489229,0.12042497377376482,-0.2984210597575688,-0.28663001788018594,1.3279743541676765,0.11101981833519989,-0.25074512025700807,-0.11539263877157968,-1.6007609026180136,-0.1613428543264637,1.1522124800203075,-1.1853800786803597,-0.23110805335896006,-0.12871446171500936,-0.15973959816321745,-0.1660699874333777,-0.26449506154765895,0.7852765931180862,0.5311405676919684,-1.832444793012906,-2.0803620159191794,1.1098913994479052,-1.3700162341338709,-0.16657264725866605,-1.6625268269834734,-0.8707371496874289,-0.27936964301896655,-0.1510445798450207,-0.1681306102346933,-0.6155801065466673,0.5523372179464717,0.8778900754777148,-2.2011782143105423,1.8279127881120862,-1.05050928179399,0.22959226946734712,0.2714100454165082,-0.17994502801601028,-0.27448196293404464,-0.13853695801772656,-0.20089292266293157,-2.2249257843840073,-0.24138751886891283,0.2994061050147768,0.24355013243498438,-0.23328058339857233,-0.3870423859178873
-0.30363761091944286
-0.8768677771530825,-0.2257296908738894,-0.2038998992250784,-0.7222837233650938,-0.2379301230410734,-1.0689334363026752,-0.6357599438152359,-0.32544860875758996,0.5709027118968709,0.7883007485251945,-0.0019560275112395437,-0.2731086900830559,2.327374527007407,-1.882069206063653,-1.1151906833459049,-0.3026428362616722,-0.19702071646814964,-0.5720610058409861,0.8898600008436646,-0.31156789273120916,-0.6692313405191459,1.6765479771234348,-0.26378821170108707,0.2744041330943872,-1.4101828052498522,-0.3187050508660396,-0.369006461375815,-0.31744229681304686,-0.30540597625994725,-0.30417659531458935,-1.1095142619048155,-1.1004192799248602,0.5198900007772354,0.1508910258218979,-1.2507428440003219,0.5778875451215781,-0.30245110559084337,0.889200164408977,0.7355378102334004,-0.32452372430164383,-0.2163369838950712,-0.20174387974354654,-0.2209064469854948,-1.591567337035384,-2.8059238136547138,2.0955819934364626,-0.5122911971964442,0.8633994969792088,-2.3990376615186237,-0.8700299543467312,-0.2743743527469405,-0.1697341777824086,-0.2794920668752747,-0.23067312914137061,1.0170538651531347,-0.32341611070246973,-0.852715879840477,0.4293112197663281,-0.2792351458769193,0.5041040155758012
-0.36679664569739423
-0.8013722463718399,-0.011783740509790195,-0.2223139212105992,-0.40919401459271126,-0.1402116855565608,0.9756323529112165,-0.8952539898155966,-0.7162796520301611,0.44684963129815813,0.06736324667806899,0.4452986349410729,-0.31103955230203295,0.21524569583612427,-0.31379302411879473,-0.4703271487112334,-0.28675024470949,-0.24411124025628478,-0.9346316750865417,-1.6887064182960843,-0.2752631763507162,-2.702155513702424,-2.2134369916046492,-0.2086830969703813,0.7380687820975803,0.9571381791237764,-0.3174603469327091,-0.18770213678193784,-0.2249363563694895,-0.3910654525490771,-0.27104364877823783,-1.4559171316420196,-1.4650693739938339,1.5088167370018353,1.048816395243068,-1.4770243141733916,-0.9376373824830465,-0.27222356611790277,0.3511911685949803,-0.14387016768715383,-0.2531773187400999,-0.1946701309073268,-0.1656670731542544,-0.21383598330389186,2.25047729937051,-1.5920270120208724,1.7475193793811978,-0.7193753426869914,-0.2635462025115437,-2.111500570481725,0.7678976733796092,-0.29291720296081386,-0.2503379463126273,-0.23383031810338764,-0.28869560107034037,0.25505773208005983,-0.33891846906494555,1.875640515590496,0.844061963933765,-0.28022201412464504,1.2190002726413556
-0.3883709571998733
-0.6935399072345915,-0.32856498646421356,-0.4451321813200633,1.3130673610376216,-0.26840287903825755,-2.5250887206495047,-0.04283606460128195,0.496856949089019,1.0759303299867367,0.25980208024069484,0.4253513547709581,-0.3092251052835592,1.104272679377613,-1.797121861707582,1.2292613937282013,-0.38552068245491583,-0.2778409841972805,0.4170208590156503,-0.8603575773212117,-0.27823836019667947,1.2474562341428952,0.13170457217984494,-0.4101373449646177,-1.0699892283165269,-1.313544580597098,-0.2578471827285399,-0.21971354392039164,-0.2872142219009772,-0.26064800676268957,-0.2811231593423631,-0.5537510322128831,1.310299033977526,0.6054437959712747,-2.5763589897031696,-1.4586318860572338,-0.5969814744663874,-0.346085583544032,-3.0750867610759713,0.6657130020762863,-0.2562788953551884,-0.17827415167255606,-0.2757287760302715,-0.109721431305834,-2.0353852669096746,-0.9420283854446543,-0.5395315554433752,1.3324080553858033,1.1036864734612841,1.3828115803304004,0.6790277226075133,-0.2884088919957626,-0.3835699153026178,-0.24435050171623282,-0.24378841093720788,-0.8109439752692476,-0.3232575940407798,1.509462731853728,0.6576995242893228,-0.3319300550205223,-0.5454792082420031
-0.3658779274900745
1.5064263111235474,-0.022856631911041588,-0.31923175834052575,-0.9992237367601654,-0.29437906625556104,-1.1945997972410227,-0.3343798693363162,1.0559830960886865,0.4233545354311442,0.8402967519572772,1.5333318088321577,-0.32429940601556045,1.7775567911182317,0.6413889402421601,-0.3509909698185611,-0.3106664569953134,-0.35669905680582614,0.2380114627633971,0.4412849265285245,-0.2936415824470436,-1.4732772397579268,0.37436880562062386,-0.36683093342856227,0.5992265891208084,-1.8716481219297503,-0.34095586282876855,-0.2000690111056324,-0.23028771627744277,-0.2944438600392905,-0.3530053060095385,1.2744327321566138,-0.7759283493216855,1.048832262560857,0.6145646920634599,-1.1164843167582577,0.5820192780450271,-0.32030052232143014,0.35650065196771896,0.7394214714821425,-0.3402432523510362,-0.22937454813035757,-0.30373789354162817,-0.8716332897801198,-1.4988201625686624,-3.0862133630699637,-1.8013129087985638,-0.45986281299658566,0.5173015774929369,0.7134880971556927,1.0051147900597646,-0.2995944872639949,-0.3889859807925427,-0.3351388591672851,-0.3971126683628375,-1.5323024195342037,-0.3608828227266675,-1.321448800600818,-2.4566682146901706,-0.3368608524638986,0.7364578173382984
-0.417679702403128
-1.5990540184476965,-2.105756755382847,0.003151608154164113,0.7985133247983277,-1.26440707091329,0.4253753462350221,-0.16516691298172875,-0.27659641934695584,-1.630599877649237,0.06955612706982661,0.2896902771625431,0.04235702047749901,-1.0468256041483297,0.017845307508943104,-0.9743078507131042,-0.1326462525535393,0.022002099351245783,-1.4366571197271214,-0.1219890486941552,-0.019977941802612056,-0.7628172595761441,-0.06007256562849465,-0.1989100698651184,-0.38800461001155184,-0.38622789407336733,-0.16672589254863845,-0.2522561745073916,-0.0075246094330952955,-0.014795072522764881,-0.020832880630180045,0.913665606712587,0.767792936241304,-1.5668836768084837,-0.5569051019677845,2.4931763319569065,2.516760200254867,-0.14240200326947888,1.1311348544017237,-1.126649384512107,-0.1350949060118466,-1.0112019836162989,-0.5577180971183248,-1.4576679586260972,1.4055424092063245,-0.6195121250029383,-0.06512695688120552,1.794623071337809,-0.9801608944538176,0.3949583676195398,0.29938074759399647,-0.13133863085028644,-0.1436186435614771,-0.11705369204672711,-0.29978510466867564,-0.5906497613204772,-0.06795634502262966,0.5933524449775401,-0.019883159027479076,-0.16672237259939537,-0.4183181241347466
0.09969988422395515
1.0178362204458598,-0.23800511013234413,-0.24307739659291258,0.056894326012210526,-0.10625228182850822,-1.4543908636087772,0.6140280933212221,-0.023755023706163805,-1.3670955885404583,0.6369565100897185,-1.9727124234362619,-0.238090956550954,0.9119783012857838,-2.715637856641655,-1.2509383008888626,-0.21230702929803152,-0.3373094084602641,0.1863286443126121,0.47523639236201604,-0.2857411607196114,0.5973590844313473,0.5280085414046091,-0.36733440391446476,-1.0165252043310475,0.8580676203315974,-0.25216603286904987,0.009103502082712706,-0.22642634937853234,-0.24215996082179977,-0.2502048239960032,0.9961931531252903,0.909072084311396,-1.2446313636066815,-1.646098020937405,1.1024195061994335,-1.6200840936934258,-0.2392325034154106,0.8693632147311089,-2.2414256556593455,-0.2960270481561705,-0.03253540141428396,-0.23508066060831545,1.1235748929130103,-0.8515626247650409,0.31195809884698944,1.3572482480528187,0.8163344570127277,-1.1640136950810671,0.17755739246271476,-0.12943030504582267,-0.3898815174345062,-0.15923787260573183,-0.20206406675639624,-0.14636952674613168,-1.3315911142068124,-0.20563004757586506,-0.6007743564662139,0.060289092046586855,-0.15367861237511907,0.002981471223661535
-0.22528113051990425
-1.0268408537369755,-0.4194391393254928,-0.13539673613522832,-0.8349772382007679,-0.16741428011595244,-1.830651009324781,-0.7487226003938178,-0.5346501991016815,-2.3517618060913326,0.6499416181962727,-1.3967503732365287,-0.19126976217340985,-1.83530034889992,1.1901895230394144,-1.7734691255925885,-0.17442374590957357,-0.18876372638807884,0.033791317939695406,0.296147341840239,-0.23266556883973075,-1.0875138785020972,1.1244670572100184,-0.05512480232806224,0.6331844018643943,1.1407468268714946,-0.14581089304718736,0.1670805685605119,-0.23463157851108837,-0.15368995829312201,-0.12546358266181318,-2.434563831972417,-2.2853312046548613,-0.08771628349405396,0.743148419504544,1.1474410519444271,1.3291937046485438,-0.23515473407008103,-1.14806138298824,-1.7871213305665656,-0.21276579537826948,0.011186826900502343,-0.1902673553441076,-2.103936229300271,0.6885741428766844,0.6536808604246893,1.0228629761823909,-2.755448221758207,0.35820501825880074,-0.027475421437704095,0.9243972756835808,-0.09798285842203563,-0.1359350123001704,-0.27703763281363947,-0.228367418672763,0.6322300539253402,-0.07243067632276787,1.0962673909919873,-1.4479452475020973,-0.1552409426329887,0.332700202591374
-0.2494863106113965
-1.7851234178818927,0.19514102208744935,-0.15278980325281907,0.4112320931555696,0.047674954602037405,1.2639471740679844,-0.1436043057029089,-0.0857385023935569,-0.529018964277187,-1.482210893097997,0.5858290355426351,-0.2284918473288127,-1.7597900758231964,1.4328280445478465,-0.2863192863776125,-0.16565760275166172,-0.22575027440171827,1.258069235889809,-1.2455279554225898,-0.1544496678704474,-1.4648864207029646,-1.6474892099686576,-0.1767311849228641,-0.15140383266845034,0.8147467577222697,-0.1984103278781569,-0.027060061632616133,-0.11101757392244296,-0.15317250176892913,-0.09155067040236757,0.5542477749205907,-1.3987054776246366,-2.5719352510447235,-0.706434240886381,-0.35369904201389135,1.5356479958759737,-0.188167620231464,-1.187192036487372,0.5857217071441226,-0.21749903367742984,-0.07196635350244095,-0.08973403958926507,-1.8503366417171527,1.2064525155933314,-0.1474888620296706,-1.4885196850779554,-1.7222357668953814,-1.107794320910409,0.19624107351181583,-0.07451675505951323,-0.07881328986232218,-0.17733958572564484,-0.08266097313135078,-0.2098180731194935,0.6896597600254,-0.21784341852690606,0.7331616147935555,1.0069628509539188,-0.13168169383464268,-0.4562199376163793
-0.24018206525448238
0.251425751522558,-0.24409594689541877,-0.22811195973651355,-0.5642989122944134,0.0974977725797287,0.5940792508468168,0.14206464941518201,1.093655168923015,-1.9754086628268255,0.11490164589437238,-0.18397170879278407,-0.19772641840558491,0.7258996398502818,0.8246018149999231,0.1418993321256307,-0.16714459449515845,-0.08297231431995696,-2.2089144159790637,0.06161287113763683,-0.2654137391236491,-0.20306236279964268,0.5919770694048401,-0.15097049157911438,-0.13258381864732904,-0.5934384111223149,-0.3139787904887298,-0.40877828563015545,-0.4876733331795888,-0.18110131516640368,-0.20206121777873498,-2.3342092093091513,1.0762443507669708,0.5506849216194883,1.0451150681106334,1.2183618480381526,0.4009133858630226,-0.17296905317491812,-0.7708107449102961,-1.2429829739934677,-0.22878842282819656,-0.29531681501143553,-0.16333744922673193,1.7337548572264543,-1.4475095790165924,-0.1518802114562625,0.537649406180369,1.9907367884550797,0.31461826011360294,-1.1307042931598101,-2.419773521579297,-0.1638033724968838,-0.18070795766913472,-0.350509650441452,-0.261944761608487,0.8155923759819708,-0.1004495097784846,-1.9396415333789243,-1.4872813281187154,-0.24533115071392014,0.4768967818095406
-0.22165727689788375
0.6966226997579742,0.06152941767586571,-0.3158619157305945,0.07487098754349711,-0.027002311298496427,-0.6526067873354493,-0.2395721213951678,0.2020547009614793,0.5010381704218303,0.1695649934782406,0.654423507489194,-0.25866061977169214,-1.8890733889496374,0.4523983305912233,1.0733452298402595,-0.2085198351110322,-0.28840434295416656,-0.7704371418431695,-1.7010483745869263,-0.2800510258315509,0.9636512509959142,-1.222138052384849,-0.22616595972369513,-2.0419101073522077,0.6783425038795255,-0.21501853281576275,-0.23915778988354996,-0.20916427065339682,-0.20583616067740332,-0.15935149722730035,0.3292202583403274,2.570919728966774,-2.8539333294875466,-1.3894737829876036,-0.8484656075599056,-0.9956020242570293,-0.21512529638556244,-2.530012988578252,-0.3152901628276938,-0.19720424249032129,-0.1669145622852639,-0.1375960983449874,2.4716658186116405,0.23119847746026914,-0.35413719237808056,-0.7409173734700405,0.6744700414173035,-1.1534655702077035,-0.6914253911613603,-0.8620423303345384,-0.1579849559162144,-0.29261051222695894,-0.16889889483431966,-0.19687489946967265,2.590009109340541,-0.27527280033865537,0.7083617551672393,-0.28812911257219526,-0.2854510728829452,1.6809867666729992
-0.2815334028926558
0.9430998604223549,-0.18887206405449963,-0.31672255744737077,-1.2353538748552813,-0.25006533221041777,-1.7317376136040223,-0.4306542001743493,-1.154859509478848,0.5389589903521881,-0.007144557354217618,0.4607535753654864,-0.31918269759856094,0.4785595275859652,-2.7500960372766143,-1.6873924862756453,-0.34826383660826876,-0.3537922282231603,-0.24491907659686174,0.7295664621686562,-0.31768407083752265,1.3932230436238897,-0.001621275647154735,-0.28430375438119293,-0.5541013102706698,1.187920959325082,-0.28349300744118694,-0.09515076617687096,-0.39370734648551275,-0.3239800912800884,-0.3024408880477735,1.9055373114867515,-1.62839443066095,0.8477469413492917,-0.13964247609136185,-2.161800772526012,-0.547955059655723,-0.2844158989105181,-0.4934559857599603,-0.7218111349395577,-0.3602910471330282,-0.1774603131121984,-0.30989617787158447,0.5007965671660082,0.6537595052919702,0.19657312332694407,2.483107607030144,-1.2944848249758691,0.8860077436784568,1.0845893098098147,1.0919227447817645,-0.38169569749556514,-0.24265894808864696,-0.32929703468445887,-0.2634979334584848,0.03866211560928843,-0.3285100370735351,-1.092930388862291,-0.09652349540782369,-0.2776089512479715,0.7443587444513868
-0.3619154316933614
-0.9891641393371626,0.016666754216596018,-0.19272472997206577,1.1593756157717574,-0.21515690265491927,1.5729977687645738,0.02980242757923998,0.45544662766736305,-0.3539273144523959,-1.708155724892427,-0.5699940009994854,-0.2669260922899278,-2.293039217535899,-1.2714460107271846,-0.5533051441017022,-0.26489268868195187,-0.24253945924260203,1.1011164213487856,-0.8248166718333796,-0.2514444139924025,1.4696188254309528,0.5166158001428517,-0.19707380097431046,-0.16600225237376146,-1.025375877171007,-0.2511666336895692,-0.349214330021906,-0.23215670011074963,-0.3337500750406498,-0.20212320642169107,-1.5550413738758946,-1.2348161394809425,0.17400537010216194,1.123515556778174,-0.7627102283226437,-0.28279485436430535,-0.21413617565245596,0.5322673175955125,0.20648137308601427,-0.22425356746969266,-0.16420493596797558,-0.2261480306403105,0.8011326526996455,-1.9418392638135695,2.8097455767879644,0.5311551654983342,-1.7719066980971185,1.4478580011715256,-1.8785579286713352,-1.4030478197360579,-0.31002278036206976,-0.14735476382217208,-0.32267215803518307,-0.1891159150964269,0.8219930536480873,-0.2694677943694546,-0.5162181233109577,-0.1946677702816084,-0.2493281291003701,-0.703876525277892
-0.3204521445393141
-0.5565059311194112,0.15000631373219075,-0.2828559866012777,-1.4654240449338558,-0.21588422956310452,-0.7251970474453225,0.024997926737599895,-1.0194836067694912,-1.3825562016247974,0.8559668133889351,-1.6333685590885587,-0.2619408350188163,0.2867365204128682,0.774741807677298,0.7996364878560464,-0.3423737558193303,-0.31257274561167747,-0.0474495210444593,-1.144847941622584,-0.4091039594350164,-1.5726804994480548,0.7556047946076417,-0.34584407888838764,0.2755086795752461,-1.1523338010770687,-0.2728122855097543,-0.07371145723511106,-0.2558920746032371,-0.32898852078373203,-0.3610822864182053,1.981196274644091,-0.9881504650256951,0.9001925237782819,0.5919339289207958,1.0157056843253451,-1.722265175427967,-0.3479891912034869,-2.028042891679452,-1.6773262356917702,-0.3241769793799708,-0.045036431889957707,-0.2850858262441587,-2.099946100932734,-0.891892014938582,0.6477004437048303,1.2255923361386527,2.753677725713461,-0.14295761929134254,0.321571475100163,1.158177861405455,-0.3277337921391318,-0.2607111748425364,-0.21552305033813426,-0.3189740062267901,-1.31089962129464,-0.2895703294349908,0.7003699107682775,-1.5142222080554208,-0.27069509451235924,-0.19731780187179918
-0.4385756959739513
-1.0624080351245926,0.4306226072499394,-0.26119068832435116,0.03302200928413086,0.237282993363146,1.1658463697320516,0.17360239557527207,-0.41387757765070005,-0.052109627079753904,-0.8980292248755296,1.652704349632029,-0.3439516097523929,-0.8814163587232936,1.8444140007696022,1.0500873144833422,-0.34381940841903597,-0.24801237571888038,-1.5456154088979914,-2.7590634921762254,-0.26865016531718217,-1.8339846164416724,0.39609192562248013,-0.42250112403307555,-0.29442266768534214,-0.8399946222443079,-0.2849845990760615,-0.1593187451709103,-0.26815730200710486,-0.26039001934914696,-0.2558976083337131,0.32035193673250145,-0.902436465086966,0.999248553322354,-0.212277364086402,-2.4964603721245795,-1.0390907076797533,-0.3020979841162458,0.6067803453528455,1.3409072703020979,-0.36282356150241485,0.11624780549508018,-0.057011934730051984,0.43687652683537653,-2.0273084749144834,0.12157659472117271,-0.3686571525824214,1.733797899157345,-1.6312504699522155,0.45620765499311133,0.581557303964295,-0.29901185011640175,-0.267033422380817,-0.19687434026214204,-0.3275704213405315,0.10865726279638022,-0.3801490290324399,0.40943791523349793,-1.4717730946073642,-0.322093374016322,0.05113695568388327
-0.46435314729563715
0.6745499432247716,0.31316334758965675,-0.24150416321514753,-0.05118030206326352,0.11550678891372222,-0.9561435103392817,-2.0336870603755197,0.18574296950498295,-1.1297208940875487,0.443681726560829,-1.163991763498646,-0.168568957765443,0.20315065951547565,-1.6946645602743944,-1.424481879319014,-0.057034299803402515,-0.134150533330351,0.2725602977356313,-0.09274754650836331,-0.2371483816494919,-0.44496851233247664,-0.7011724212954148,-0.07039027315751614,0.060678063088426146,0.39061021091159887,-0.04965865872790576,-0.6827396022173404,-0.2622127228380123,-0.15006480037004385,-0.1974050792395104,-0.9623798768991454,0.2924763270439285,-1.1181906535292327,0.8465440330610751,1.5991870539331547,1.8259690199707723,-0.05849491947962801,0.19061944100467224,0.8478040011411702,-0.11476554555893861,0.042886035528020776,-0.2481237298936759,0.4959627839273132,1.287933054655248,-1.5780751304032123,0.16962782211384578,0.16677305449366123,0.25737685756447953,-0.4915962293610477,0.22517739928483566,-0.24456330598824932,-0.03430198806602628,-0.44121235794786484,-0.13813375656735916,-1.4352026726505613,-0.0861710475638588,-0.8780332340316667,-1.0125461309087085,0.054864753099623145,0.3106766580460355
0.0186084058600422
0.09387481010010257,-0.22471417183015707,-0.2915984187707434,0.9314490244956115,-0.21025500341283523,1.4413352864827924,-0.004731106232612626,0.9241004209790767,0.38621089856508006,-0.4779801050655385,0.44279762112559873,-0.2737302345400033,0.8807894585472881,-1.1941188759540544,-0.28426750963017516,-0.3363723198328043,-0.4222731703653208,0.3554249158083845,-0.11258796954374083,-0.35697160014139373,1.5474364890702916,-1.121213320720462,-0.43742114003625854,-1.7190022135356324,0.8716507437564222,-0.2762274217634298,-0.4210109209774844,-0.29864439465789144,-0.3343703360132501,-0.3261758729427558,0.8055769291037492,2.315716959679006,-0.15868186491256026,-1.244951436231751,-1.846672065574216,0.7653257684905125,-0.3493196680941697,3.0271788740776553,1.013620127088132,-0.25928012850290594,-0.19276747289457138,-0.3459797966036369,0.1782951083077277,0.386806868431235,-0.9695814610741729,-0.2570131037379699,-0.13578637703589017,-0.39289687259219186,-0.5609059717216412,-0.8710741797847836,-0.408542271549664,-0.31711825370139046,-0.2745962708572398,-0.3025986305663732,-2.1953284637086403,-0.3875320944816392,-2.239112292683162,0.16088563890340327,-0.3107775652035327,-1.8433822319145772
-0.35223337115527203
-1.6748462895254845,-0.08448211729571464,-0.3650289709547434,0.19231566111111256,-0.27780509580038903,0.45829002894160464,-0.5956437874582924,-2.315083411708455,0.810951780285516,-1.172260348997806,0.1768774345779159,-0.3246383824560829,-0.4043335344262364,-2.24274353588205,0.1274593111554799,-0.41300216866857403,-0.3439346078311238,-1.6403519486068714,0.6349137839383303,-0.3958844229346377,1.7866182565074866,1.4087231343168558,-0.3876685243637383,-0.5014273167713398,-0.7795619028134796,-0.3615903649537855,-0.33423120888888713,-0.3326345770031311,-0.44335530387248406,-0.33719304666340955,1.9172575332856148,-1.8255418377620756,1.0198759931390364,-1.5058154950083038,-1.22267274632037,1.4478665632835468,-0.42009736924713204,0.6941647022522528,0.4691335276112053,-0.4389142759217999,-0.11979004917502246,-0.32661357271459446,-1.7470231574781396,-0.165728996065458,0.7564793657616244,0.6500840154374622,1.1751296535115028,0.0901397509292191,0.5276136913610435,0.7373264746720962,-0.41487872533060505,-0.36341080739005,-0.43480764085972107,-0.4020634738929624,0.22983407680145523,-0.4678429079977455,-0.3782488205306661,0.3454132335199394,-0.4950167561763044,-2.0024711286636587
-0.4820724892891008
-0.4647217059765628,-0.08535617315347144,-0.1760609701742133,0.08529925892289214,-0.1750859880508327,1.7852321471827863,-0.23775214049712962,0.20744806363556959,0.3247509421097882,0.6015174045524175,0.21462272320214731,-0.11339819359084836,0.3104040910355984,0.34891273342028317,1.6667650359042376,-0.21389888021811643,-0.2364954911919108,-0.6225636059435927,0.5954919960732544,-0.10226311608424338,0.6763684884019613,-1.9786150290800848,-0.10019101493793961,0.25931076179705775,0.6188236490134184,-0.180292021817813,-0.24691961075146163,-0.1425162969483876,-0.22381357981185263,-0.17856752713739837,-2.32767884719395,-0.3699454197823355,0.7267307094868827,0.9630903613151538,-0.7553643713784859,0.5664936440335973,-0.19832187142299415,-1.9639390760274278,0.6144410017295951,-0.17451076999034773,-0.07289345596806153,-0.043638464806077415,-1.8504830856480103,0.22419651902515525,-1.5076543056602487,-1.7084349555739542,-0.500897703768781,1.275462299645415,-2.3995830861062113,-1.3749220784497524,-0.09819225230565659,-0.17548909583795955,-0.15700249511966663,-0.17298817117411436,0.4615299161315941,-0.21637027648178514,-0.931547823519721,0.3626812970309444,-0.18506344929321825,-1.4827512386119348
-0.16757286405382946
