-0.025163875598147135,-0.006788316788510756,0.021830958203493633,-0.01614633178400912,0.008291897917659876,-0.02214009567796204,0.0517892703211268,-0.04238675429464562,0.055455643428942915,-0.0020054283472396364,0.038361956995990196,0.024999430319963357,0.03513993662574414,-0.012084223337481222,-0.0013075731627820494,0.055657950717846405,0.04262781139404408,0.023490494914917632,0.002486466458267634,-0.04759679378780303,0.024623878297096398,-0.004564495018234816,0.05035811219577563,0.03668779424728149,0.046075879046275796,-0.0282752864853878,0.03757373342997701,3.734382009718078E-4,-0.04103547408456621,0.026611179557493925,0.03772394555519953,-0.033972020177765266,0.02020294471084687,0.017349658338441622,0.023288158999520005,0.017760159176555646,0.006300630344684721,-0.009927539509180842,0.04535898428591493,-0.016492364966596906,0.012260792618640255,0.017447945626976945,-0.03220787270261751,0.04761204670201558,-0.009543593971881027,0.007324051170247503,-0.007459179614340163,0.007687148456896314,-0.006824022135317755,-0.021582277005973677,0.06210419341629812,-0.0237975912872518,-0.02570374993582282,-0.0343210432008613,0.008331564956338137,0.03068233209728311,0.045770631874750875,0.05307360946006264,0.04981870082468283,-0.0056294551070993565,0.018743021050758375,0.009269292155561628,-0.01137076903395366,-0.005611901914012253,0.02824518920805629,-7.359012790291691E-4,-0.030823286696057824,0.0105007499171881,-0.013007624026432421,0.012094022309037422
0.0536842546047086
-0.022701075191432222,0.008933246991094669,-0.017473071158871832,-0.024846193785943146,0.012203474891891768,-0.01681168269261609,0.009384471502006728,-0.043020481902068364,0.024362462001030982,0.005804003593113317,-0.004766831929644978,0.0077677910037349815,0.02860743919010513,-0.04316457720925578,-0.04528058674128199,-0.04109058906727253,0.022850528416091663,0.02069567412587897,-0.03329243394601802,-0.018537258753312608,0.01777418833244121,0.021220838387821978,0.024043821417100156,-0.024225501713043017,-0.01209102375788078,0.013640400935056194,0.025266772143678947,0.005721775861377469,-0.007756055878802441,0.006815936991651458,-0.001248161140644568,-0.03627032426908375,0.03152066280395964,-0.021034153427638463,-0.031159071975132322,0.026924678368250663,0.024859536506366835,-0.039154416092583244,-0.04295257144647492,-0.02425210254875108,0.03795830526870391,-0.026231656995071444,-0.007637907570725442,0.005536659422969432,-0.04565659675399603,0.0504186468659269,0.0492321197321432,-0.016514592034980197,0.005784181517825469,0.004948828385753889,-0.039067782640264094,-0.010404810470526361,-0.0129296507221675,0.030230790060123976,0.02160063534659671,-0.01105337008452954,-0.03484693342101659,0.05300869388128802,0.039678360103332845,-0.023999589550926285,-0.03009114564265576,-0.022437856719537297,-0.041860833286439324,-0.03627375101430349,0.013599455838816695,-0.009182206784589768,-0.009037353410391852,0.02806472476697421,-0.022535570994348955,0.008567192653087004
0.05809387384914346
-0.011740644505082486,0.011829425832574809,0.00538295414437126,-0.02567358169799701,-0.00952916975612451,-0.009616267787750342,-3.8681666407380886E-4,-0.010049078571633592,-0.0221638596882519,-0.02165513788022986,0.00876427129945694,-0.020659466298675096,-0.010315943760448004,0.04581652777990756,-0.007356010178230485,0.03292818944981324,-0.03244400137390014,0.023207423789053012,-0.044872289842746195,0.023663011577487972,-0.01668037288102638,-0.031190963881533796,-0.018536713789465444,0.05557696573336296,-0.017514045885882523,-0.0070149919969116304,0.02881892272256972,0.008482453918177507,0.033571081271705897,-0.032432441601706226,0.01023948115457865,-0.014232495320623626,-0.02299198988519157,0.015167114089738674,-0.03276300768764105,-0.019039094244610203,0.01432506582960421,-0.008527535090158276,-0.041150587344333835,-0.03659586930571864,-0.0393849548277081,0.014131231211078652,0.037343504458971735,0.015976764836462234,-0.0013486421185899065,-0.0017866544223685459,-0.0441683512989498,-0.027937745141679477,0.048498599952416024,-0.01742081230716983,-4.094786353941941E-4,0.002711884846597769,0.028994578878900376,0.0032801873349898414,0.028585847202149,0.05259154345737577,0.033977197066181415,-0.012641481038806633,-0.002235627767432242,0.01365098487164589,0.04096964360475068,-0.0011825535515245687,0.019833536003301948,0.023620542701747477,-8.467774969557126E-4,0.00601522590932267,0.009242208865893876,-0.0365626207128824,-0.040136390472820124,0.01541237903682584
0.012267606740536214
-0.00912290354856313,0.05630672071717526,0.045826641953457176,-0.034532090250733526,-9.44754399287103E-5,0.030012424281378628,-0.01853635849076696,0.032413359664785125,-0.0012385848443782566,0.040562127662970224,0.042726037521834626,-0.036106770065395616,0.032640639938764475,0.0046988814301542215,0.04856432390266487,0.04478438528961908,-0.025580677795195912,-0.0015709498832902455,-0.02873804672023743,-0.04299758070968777,-0.021074183546222706,-0.015362746175329548,-0.03357153001054527,-0.0026510260018748747,0.010289781147871787,-0.04214745416701475,-4.173479194526675E-4,0.03643005504173364,0.021212150264256338,-0.036737183795165135,0.02987043637185797,0.044466136443989064,-0.02063669713639285,-0.042735724165605324,-8.478598807509789E-4,0.025529022143981547,0.0529414362733947,-0.01820666359616553,0.01382461234727675,0.015289745917606732,0.04357067957373288,-0.04050513319910561,0.04365505340275029,-0.021387832999751465,-0.024017257934699787,0.028848414379743146,-0.01756957777439354,0.05368447639997225,-0.04435517378690551,0.029581418964532747,0.02920852420745866,-0.018218721350449017,0.037169263408971726,0.023029619397024966,-0.0323551338820103,-0.021478393725411327,-0.012427375152100517,0.02054992270734152,0.05572898574242234,-1.372714584971145E-4,-0.028967045011437,-0.02541339362374675,0.03966700959348113,-0.016871492260879077,-0.026012270240769544,0.0342189818237129,-0.03170057614856567,-0.0029349535889894337,0.004587966270529631,0.019222327396011922
0.006559723906532775
-0.018633302250893463,-0.0396244005621791,0.05308394732603712,0.019267088038070233,0.0015112170057006446,-0.01843552914087307,-0.03246446799377318,0.011854614488194169,-0.004026999646191128,-0.03900954798471939,-0.041674210770296115,0.004466677879684924,-0.026643524293619797,-0.02495442210009762,0.04768219863698362,0.029831266793857558,0.03542423649765597,0.03669010770539645,0.048941774375359855,-0.030960864435209578,0.05408336851928204,0.010250740384292687,0.037640620235519125,0.05276179461787416,-0.026645804794031384,-0.03508012419469597,-0.04197575733358301,0.004860359261959075,0.030223110813022733,0.02781492868339857,0.030253371265578793,0.040249267206928,0.05209977358837291,-0.039749739961580356,-0.003892686952680761,0.05150189768876746,0.03413094289073543,0.012736828058022074,-0.01504529496512523,0.03018075363325872,-2.2025724136638588E-4,-0.03971837119335482,0.01272838776740366,-0.016932901940731125,-0.013340463269969582,-0.036586144877426674,0.037925061864116,0.02579614896595014,0.04716015418513746,-0.012221603002215881,0.050398383769869354,0.0191993896072402,-0.011412612727317584,0.029981758745392283,0.05762460572324541,0.018456904983707563,0.016923795331841678,0.04185925982650124,-0.02538680534165925,0.03181624775301663,0.016525705989933994,0.016198267385955815,-0.021035173784682268,-0.00670398011015008,-0.021754220312255636,0.0470054401310029,0.03077448099872527,-0.03850245773061462,-0.013508517189020583,0.005141168427008486
0.033928061249944685
-0.029880452283876726,-0.04173160850881044,-0.028851263302416778,0.009696939038437933,-0.016625895627159167,0.055135825140906564,0.03134523349437799,-0.04708748592251401,-0.014724489743750279,0.032888001327687655,0.006087919699211914,0.028658019174612075,0.03959450033231776,-0.030328386920453185,0.037362507336894175,0.03801695434320187,0.018945889742033983,-0.033275584959922375,-0.03279430650411985,0.0027529676205014235,0.011860185636443265,0.016809346165244952,-0.0319027380189617,0.004708862594524086,0.035646521288837,-0.047169013066961626,-0.01843803512284016,0.007463607699290764,-0.014294899162191886,-0.026691639241593394,-0.01932825752667651,-0.009728997879809104,0.026225015068918583,-0.019774149518894453,-0.04719254814672815,0.027060213928715837,0.02422576947892738,-0.0385949585531102,-0.012177310205854398,-0.0162834484884453,-0.02312723128175511,-0.023573544430942225,0.009289091566484194,-9.715646500436768E-4,0.04437796160038554,0.029118727550527076,0.046602367036360136,-0.03133524670852098,0.015206601850285656,0.0291854104367214,-0.035906492991296945,-0.010712014503880027,-0.04331404248780139,0.0466256783584967,-0.01512953707080352,-0.00769695714956605,0.047753766661984456,1.0858254769091353E-4,-0.022712023653434193,0.037654011545388506,0.030242490048223786,-0.02052033052454765,-0.03311819776567494,0.0011866564659489044,-0.030371430246202043,0.005316052766137137,-0.01365963226477882,-0.03463090849006248,-0.019621200244378266,0.03527263589687381
0.037390228187361665
-0.03507394194048827,0.05062790058682587,0.06644129444558741,0.0515493930443879,0.062384664220536,0.004221798323593623,0.028996041817979264,0.014379676258194123,0.009526525474411778,0.022891097429721202,-0.020299381147433713,0.019845561516179833,0.004390966906450736,0.009323405331993521,-0.029340988844934576,0.010173789350737894,-0.014110912351761783,0.04499813031651911,-0.04563872178292843,-0.00923940691128662,-0.041832960548488236,-0.03036439040741841,-0.03344094425128061,0.04525401733737414,0.033555487701339454,0.025665628788705156,-0.036491667724426406,0.03449388591801351,0.019940783617249845,0.011173058621601954,0.012892236953997313,-0.04297081335144854,-0.012702655753295692,0.005570720559257661,-0.042902966261541435,0.014600600281198823,0.04945304412982545,-0.017468453055259906,-0.0240937731013233,-0.02155448879776391,0.03578803163889747,0.04728646622586163,-0.02737341440210552,-0.016411340516182902,0.020356097347220797,0.00826898709807289,-0.017217537597132647,-0.010130023242037902,-0.03323487462061591,0.024540042949884756,0.05551722408615792,0.00772218507003207,0.01437977153865136,-0.02532266360777897,0.006975691750558216,-0.007819375976218262,-0.03508350349338265,-3.6738779731855726E-4,-9.140449531754781E-4,-0.009444956859971442,0.004705644694328999,0.0621534500042226,-0.015355417321366053,-0.02585522935636621,-0.0040022764565544764,0.03560318387659214,-0.022781184860585512,-0.031306744909603744,0.04560685497279429,-0.044365130794630774
0.06711583644879626
0.024311192615929813,0.012209373981878517,0.009749826820107313,-0.028306553092669155,0.014825639065779397,-0.04484818624217021,-0.016196447974468668,-0.0055290735045747524,0.03387556465544256,-0.04206955599189615,0.03656427359904884,-0.02761476941165716,-0.013917597733951311,0.006305329690779992,0.04847591584788978,-0.022167738422114846,0.05109253556155727,-0.0018687136066954809,0.0023144818343000077,0.02982748293249455,-0.02667041668454367,-0.034057095763937194,-0.021393308130265663,0.013976139055596658,0.021415937877746448,-0.03458241982689126,0.033274991733956455,0.009797333547586178,0.042172537130818616,-0.013456448879096018,-0.008973813991164111,-0.015076174662040098,-0.02172113266300373,0.011510616551533686,-0.0038937513100436713,-0.028144438687944272,0.01958098511286109,-0.005545176354499406,-0.005263574791198669,-0.005332094781330184,-0.039299484419673215,0.01205557800908614,-0.043221221514447516,-0.0365816142290507,0.00258045899932521,0.04123246696055385,0.045355325039180217,0.006368312586930941,-0.014575693481236674,0.01610108826758563,0.025392153389454494,-0.030968465520281898,0.010626720020516844,0.04654738649530947,0.013032409298224055,0.004506164286962533,-0.007085112067871679,0.05626959151642232,0.05146296857605877,-0.0022651208062065132,-0.017903609954629963,-0.027572037195761144,0.011685104940399111,-0.014746007599752291,0.021042617891841163,0.012019520021828283,0.0036536851938126017,0.03465418722991839,-0.01507400612436225,-0.026744146454450442
0.03686525725916741
0.05468858747961834,0.016780742562027374,0.048555109904547256,0.06202206400515148,-6.217029502238924E-4,-0.034423706361201074,-0.01892779463009239,0.0017166849618705583,-0.021842491811002996,0.03293885347400109,-0.007285315325098357,-4.377743190184873E-4,0.04966692449860375,0.03138328585486517,-0.034234584014326976,-0.035034320466594215,0.03064764371743164,-0.025166757083060137,-0.006281021736166633,-0.026322845155862886,-0.006851356012213742,0.041104691575579284,-0.011550728479266158,-0.041353325904875275,0.0038663662315651616,-0.03253514283066037,0.03795166253877863,-0.021550634061073222,-0.0027183870200877965,0.018763952748786204,0.018997928564739017,-0.02705867146612417,-0.02530248618473876,-0.019376822507318855,0.001576973838480272,-0.040238438908153255,-0.014421933258464413,0.03796778236794869,0.05110928044951582,0.021371055364586083,-0.0010383053605968126,0.04579969013626385,-0.03576218243054749,0.05670318545908147,-0.027409804323023704,0.002918683358103545,-0.040159930968787255,-0.004887994911192297,-0.005665966541042176,-0.004602933412068956,0.04136066313505712,-0.040965125115730985,0.03965105204104212,-0.03185692880774682,-0.009149256475654797,0.04077496218408008,0.019453627532329185,-0.034668918604259955,0.059810239280441456,0.01574407805235712,0.05324838221662477,0.048720780861487026,-0.0010021309214542195,0.02128868988865055,0.051345995634487,-0.04370060502468789,-0.0243439902485392,0.02644561678752482,9.098492998243641E-4,0.0176864599648593
0.04041681285882405
0.029138367638436493,0.04400616431650215,-0.00885583971261264,-0.03550607297808062,-0.03753962790980902,0.012283915388777277,0.03147422502611961,-0.019616608242098606,-0.03468314143977198,0.0497198510635533,-0.018781781933686688,-0.0077978109839555165,0.05452240371969466,0.03475266440039587,-0.010805499094515775,-0.006717884320516515,0.045707806114070236,0.004050724601605563,0.03279096336989688,0.04456349158305151,-0.04601651238570784,0.038384602282748065,-0.0037659574103410484,-0.026475840864172307,-0.010593035745089225,-0.024295323774072224,-0.005847584129159678,0.037409384437194784,-0.03580576505226836,-0.006245687543178449,0.04161121556791184,-0.00967311964560285,0.004608726229306247,0.007581918729363003,0.008943706714710124,-0.0019609020887263544,-0.014720578841376383,-0.03314719874706786,-0.03276153298532761,-0.002011423077139612,0.020849635862107963,0.008453278912273491,0.02362071216347834,0.01519710839379856,0.00611341087635961,-0.013298043249018275,-0.039606540523153926,-0.011618314329552692,-0.02546108250791932,0.02899100666687739,0.014607486166574358,0.029381337563878215,-0.024695001527783422,0.0156180519312908,0.01035983260349969,-0.008820841304752598,-6.256748796268363E-4,-0.003397311844281939,0.037642310284023005,2.998898466998693E-4,-0.015482903002326517,0.0146516581406753,0.04348008431487419,-0.03294869720900622,7.230507045795782E-4,-0.007110217645123954,0.0493505257122271,-0.019109334251809378,0.04963083761819374,0.036903636979880756
-0.03300388203067572
0.033248320528651634,0.03224181486122189,0.059317859779407185,0.033115464446442804,0.05323710304991744,0.055309819500430735,-0.04238294108053365,-0.044782230206076315,0.049099947386249405,0.04612182656806825,-0.04374201879328549,0.026200139619507994,-0.040674412845736814,0.010570899978835405,0.04714751128980807,-0.025993880043137425,0.04709864887221424,0.006469734542790452,-0.004257946452244406,-0.01911195316632128,0.01246838226515294,-0.0032677727418087776,0.01348887478017274,-0.028241405302351478,0.039136063576512135,0.04383863761753097,-0.04007998297487758,-0.011290191794365433,0.007608883583773893,-0.007817839039103233,-0.018115365302225885,0.02982392751489043,0.020083527466062005,-0.003430893348189953,0.029978770178271382,-0.009241323173646983,0.03904963581873534,-0.011849200443405237,-0.012723812972457152,-0.03096834454150062,0.038693263158158686,0.03499732493835924,0.03278459463191977,0.03051699553941126,0.009277757296637398,0.010831036738922004,-0.03242119388994613,0.03676811600458334,-0.01561064346580273,-0.023914519776547346,-0.03214271061294454,0.026978643586878168,-0.012548224769572978,-0.02488251544863892,-0.03737736621432216,-0.009303884568162474,0.022075359046478078,0.05099619276218807,0.029552614834948934,0.039065659434728055,0.03500914697306174,0.05742255043343809,0.03741955563955891,0.04791798739716027,0.023957471801002307,-0.033676890640330734,-0.04808550603467088,0.04939596096127369,4.4878078073770243E-4,0.04591457391337325
-0.0176637546886139
0.04122862120644347,-0.014955822974037894,0.0035862851150087727,0.013156500865988225,0.0402050134897487,0.03707752582706518,0.0494456498440411,0.03988610398390104,0.023405009783813817,0.03877881167205853,0.04619752229313181,0.03327037654853751,-0.03900257977137689,-0.020893950414826924,-0.028059948144034428,0.03659638457229091,0.006436274528998545,0.009252761134628248,-0.019514041509804417,0.04186190677050395,0.019189837222256343,0.02943921529614851,0.028209522618889045,0.03507345014177808,0.001962831361339159,0.05285242755344664,-0.01606073200839225,0.05109574284285598,-0.011069236922618051,0.03617842457700927,0.03436944409113173,0.043938497100838324,0.01149918887347097,-0.04053355820745663,-0.04418371698571097,0.05053551689391087,-0.0067397663500818935,0.05189005529858911,-0.03782324919623672,0.017336769959427498,0.018024710867484625,-0.0418946204816424,0.024654584847774576,0.04327846121781472,-0.01588978084458708,-0.04428274127699014,0.05236859795378339,0.022879181484854644,-0.01803275281193599,-0.04157913497673136,0.011335567947953871,0.03153151884466292,-0.04385774403780762,0.023536339406625858,0.04136489509611482,0.029117850480380854,-0.011372156047434901,-0.03946879525899738,0.03524598622924373,0.0320100045428015,0.0011226576614349565,0.03987189167864715,-0.01860781296660364,-0.008394270772237243,-0.013548566670550185,-0.0065899003489987605,0.021303485525512943,0.018947479645088007,-0.0171885358326125,0.05236014033816509
-0.010396700856477458
0.024280362449333508,-0.005607068584756043,-0.02072443706474972,0.03978631327082903,0.05010067551175184,-0.03173346899471121,0.012588399911732323,-0.03785908720034128,0.03514703607832126,0.048903798184783895,-0.043399385912837096,-0.004084371564580441,-0.035560447692594636,-0.01739992342348561,-0.001169904799623649,0.033271680475110164,0.035098580389797504,0.005553895160163881,-0.049188272559847514,0.03485348068407984,-0.011565523111363952,-0.01730221835359646,0.05120965863159728,0.020882897332874923,-0.003911324565586664,-0.021980486602863086,0.05040036967863274,-0.03550726301850624,0.0366317934835094,0.02624606906899851,-0.036769857704131034,-0.018526778655689406,-0.016528096548974493,0.027023640818577183,0.009055951260639438,-0.040309797864148476,-0.03333561973030373,0.03733721820211207,-0.015673562141543522,-0.01338091651923869,-0.04537330284895979,0.009910568505005365,0.019831834352148237,-0.03826350124542028,-0.02525591612740337,0.00445903904510406,0.01776084522288499,-0.03461157553537644,-0.03346589398473933,-0.029226533880150344,-0.027816594996361833,-0.004021858504787312,0.017202643030841028,-0.04383028426188606,0.001279732766715504,0.0542609592975426,-0.007014021914574922,-0.016947263670480116,-0.01294317498429946,0.01261601057937655,-0.012393989791069326,0.03375739322068471,-0.042121126532020915,0.019438975590088437,-0.015551829355488857,-0.024165615826149435,0.0019368486299798109,0.03569820796512448,0.014627140821072663,0.03697118452180455
-0.003144085516014282
0.04512717245822218,-0.031139299548130408,0.0037295918610374297,0.043264040351762525,0.03992306061164344,0.023410676872670923,-0.022269872237000617,-0.04205072236401839,-0.0086231082595321,0.0441596133286708,0.015657413869655704,-0.011826996221441427,0.027038316031014944,0.011683072439324371,0.002542648502227068,0.03465552187734212,0.044993666756497804,-0.04479296506189887,-0.04795089606842374,0.019612878772664617,-0.03364575834785248,0.02820172312960914,-0.04481702148872201,0.011646937366531848,-0.028690268621667042,0.03664823938699498,-0.04214573658242239,0.007607738937669684,0.03190357099378427,-0.021381314222126458,0.04702657785710458,-0.0010150168737977224,-0.006492481320258891,-0.022833618325541732,0.0027053419300405632,0.032101568339379875,0.018588465419816458,0.050080618239903694,-0.04360235857180177,-0.04570240557820283,-3.164612055443793E-4,-0.038307939299762145,0.04227269331029198,-0.017942958794948213,-0.02889907995445091,0.035106991147186566,-0.009829855109845477,0.0024477196458558954,-0.0030671268818654265,0.038603794654590504,0.009667954168549089,0.011831877346464716,-0.01573698418766619,0.013798361341331594,0.04039210833968046,0.05249691673671816,-0.023761706321695622,0.05218032955973893,0.04055858065160674,-0.033564388867185845,0.012182974745622204,0.05080029517024811,0.04208990376883156,0.02034289373057949,0.0024402970584320414,0.003773030027349616,0.033759691908843266,-0.045126161692925125,0.050347421761615704,-0.043680353510602
0.030864357234901753
-0.02521645017825346,0.02775839445940913,0.016676794689691986,-0.001034799557014352,-0.029406109111428515,-0.004644970619735973,0.04680018318228529,0.021376134031227855,-0.01818234172504763,0.04101500047819627,-0.006107072562816018,-0.026613947065272897,-0.01604790901640687,0.026701037214521155,0.0012273453086137063,0.041667425316756816,0.043121973664994456,0.02498789221454558,-0.02011715044216617,-0.01678378259226244,0.05068159833097008,0.030748330849128244,-0.00251522620287401,-0.04477544695054394,-0.04594353076308725,0.01839270351748851,0.006587185105184297,0.03937960221763297,-0.023240626768471162,-0.023980502319218257,0.002458636518456945,0.0065254516503681845,0.016216067224601068,0.034327519665110086,-0.02464340142276265,0.03660311698574793,0.01226377799827572,-0.018386249143917836,0.0050229192847205326,-0.0051913225032291874,-0.014122817517571737,1.1896117441083866E-4,0.019201510120069102,-0.019251366315007595,0.04236592613028595,0.038995653600849334,-0.005799520297316809,-0.008909587689713096,0.021804924550226503,0.01763399754020505,-0.029748697861374157,0.02922004130099938,0.03480630913744452,0.011576052196661427,-0.014190618968222896,0.021551792224855846,-0.018664402162442386,0.028065431749523837,-0.03076366434208726,0.048943015709353895,0.049899496582838834,-0.031083118785938182,-0.037619426821377394,0.04110351045974154,0.03114784812755227,0.030011768678089582,-0.04318002623209323,0.0325527893446746,0.04080253143128113,-0.011290814166672098
0.02629387436043107
-0.025601273489041846,0.038329361043015646,0.03604539484183496,0.006107959186875299,0.05264568021575203,-0.01088264728742401,0.012141675364517759,-0.04522000965377019,0.044188625585440997,-0.005776954754237548,0.04880029917168943,-0.0031336558843602074,-0.03533070904324933,-0.02832228688471828,0.05572723023261504,0.004088434638499645,0.003448863607662404,-0.030025405884527755,0.006903344429179459,-0.03713992755810973,0.02372468102769553,0.005834037422859192,0.04925951595607295,-0.027913515696819585,-0.046844451420638054,0.01448230409586632,-0.043570186798250705,-0.02766077447694017,0.014867617278270462,-0.008556182322194227,0.037550536206032194,0.036111690070270534,0.009322543698850943,0.03801798288744582,-0.0326321837608622,0.05015775578647756,0.009104993281729347,-0.004486897158476118,-0.00761613888449407,-0.021739264788103074,-0.03834412698234967,0.05603613260554078,0.007977944401830722,0.016717575336561416,-0.016403078563350697,0.02521683792937533,0.00317523054531248,-0.001445204287808993,0.016195881367965823,-0.03154403826485964,-0.009754816491937173,-0.036450601381668314,-0.03262719645887564,0.03206111285287112,-0.013527847991623309,-0.011657290582586311,0.06197803841865658,0.00525915489055614,0.01888200725125136,0.056956826262823945,0.01514393135372315,0.053289688208088264,0.024973124099779642,0.01626881217351388,-0.011918512874229601,-0.0019228091377811016,0.026751785457781063,0.02743173053520749,-4.734378912847724E-4,0.01315113313784116
0.00897260344729622
-0.043649154326474926,-0.010109432584612351,0.012715510771164075,0.03528377748499372,0.029654977724828092,0.02907364957767642,0.033387267356887323,0.010789498534472081,-0.031498002947485663,0.022353323393382696,0.025037742447378556,-0.0485211916838405,0.013814294560043721,-0.03935868636317374,0.016734785628761396,0.017930191707602905,-0.027329830720435287,-0.010228057645529132,0.035793119622919145,-0.014146890292211362,-0.026770310886341613,0.0011569302344012506,-0.036705153051785434,-0.040150910342631296,-0.005141650698375196,-0.005409806619164907,0.037544399211233453,0.03277141015746933,-0.04503292557314481,-0.00301741712090767,0.00911510978671272,-0.0311041453588551,-0.005856096189933328,0.02488230931091314,0.04086739208632212,-0.04621648405926718,-0.03792937687830446,0.01740022835973827,0.018928467937352696,0.016529739221990684,-0.016803822109130572,0.012200111292092147,-5.245693348106883E-4,0.026361244785082272,0.031493983852717705,0.034315138134147535,0.0015291999828924365,0.047766020294743416,0.04262952978160324,-0.03436357471635916,-0.016898578377743098,-0.012681833820116749,0.04636148395345205,0.0023069057624219734,-0.010817885639576233,-0.016301724689140693,-0.016386160647674522,-0.03540035230090761,-0.026489788295741598,-0.03772236000689707,0.02440913376672507,0.04631073724446024,0.035953758597059,0.03966255121100568,0.013853303708509587,0.028264916473938067,0.03449742988214256,0.040854338465681685,0.02611417169504717,-0.04361236709244211
-0.009493665324079293
0.017306544915281767,-0.04269090329425322,0.006715367373871008,-0.008422474360885484,0.007072714992140886,0.03260942173191517,-0.00109255144717089,0.030015337413872214,-0.023219760488635822,-0.03536201959696557,-0.021643542807927428,0.03713341985403056,-6.970070944994417E-4,-0.040589935889149886,0.03616420724492272,0.04197768558056904,0.03706703723597741,-0.02943041961829115,0.03198482355734366,0.04693391623411154,0.03151998259869465,-0.036394765677879866,0.03424032730034652,0.023402551847180687,0.03763766367594978,-0.022815346540426586,0.018287505500087838,0.02440580151249269,0.024309596280459693,0.022546867027103228,-0.04233614992506404,0.020366577762199255,0.04161020925384408,0.050362021139777516,0.011827507264765714,-0.040445981537484466,-0.022255101467610665,0.019762890091520907,0.009443959188511116,-0.035699224673675506,-0.02707455717853656,-0.03034317494905672,-0.03921148553932574,-0.02683952590865099,0.012233634502130856,-0.002482852930461235,-0.03907634935721336,-0.026311074514132747,-0.011558549003073487,0.029167153705225605,-0.0280028220814875,0.023866704120518334,0.01893261336295063,-0.011343230657994604,-0.03437681853929496,-0.0344794012098208,0.009485052519824946,-0.030017615406092765,-0.026906712351654292,-0.012640948350956045,0.028819450953143207,0.04731491327916076,0.011202118338653923,0.03014424222921741,-0.029660180884931414,-0.04154592914673343,-0.0036669587387457314,0.03297739196702173,0.0368358843817079,-0.02609675201084794
-0.018830390565730173
-0.04651515895514141,-0.041000664583052446,0.00413624718705755,-0.02226469003056241,-0.026883602438457596,-0.006365174517707452,-0.0047968403739923615,0.022137432067120013,-0.025715286173115394,-0.02811426204930292,0.027383186947082336,0.02472072686382733,0.03967755349245656,0.006146058442041198,0.04333446762047111,-0.015876039123372123,0.03240666530313854,0.049988448076457935,-0.024717198413071618,-0.0324150557244664,-0.034564600342699765,0.04414035876706414,0.03322531832350931,0.03213745426558551,-0.012741260205941437,0.05073431110743801,-0.02793363729861542,0.03296668885148292,-0.03785074100548336,0.014601039419156234,0.0050901398227901785,0.013809901228386655,0.0072345273680048585,8.327691807559477E-4,-0.028157872128768455,-0.003892668370210229,-0.019281934531191418,0.035079593009929765,-0.03517848388565128,0.024708059785825708,0.04078916405091853,0.03228827361273926,-0.031189263693245026,0.020548004735717874,-0.02021228506952288,-0.026515937435048174,-0.03793497889380426,0.016293240240215966,0.037914283897484725,0.011350301757780677,8.545005999144885E-4,-0.020285335777612212,2.5273595937519433E-4,0.003250285585547085,-0.026175789771155658,-0.03050150903032239,-0.0032137083309659044,-0.0448648903278483,0.00658736747095783,0.017184742762047456,0.05786426461541986,-0.01627332291571982,-0.04447571836643251,0.010925388949236838,0.01610533536682637,-0.016805528960301276,-0.010242103788737045,-0.025151707725110172,-0.019412918288515546,-0.006444754990667373
0.020190374349278915
0.02997731681234264,-0.012371898242711045,-8.979334542472191E-4,-0.007441284843611811,-0.03035797174418192,-0.0022476333493122763,-0.024216142679846297,-0.03760679494181638,-0.02067491845970565,-0.021596684971614113,-0.022486436416040086,-0.009816193623288874,0.04871579741882776,0.002662649863744222,0.03693718548489676,0.024196431564074514,-0.03534026666516529,0.023964108236635175,0.049538938016556906,-0.00464551227503959,-0.0371313294713387,0.025969280753318225,-0.013192280797796947,0.04282650525986891,0.006709038669078647,-0.010086560489141897,0.019664545192656084,0.022863676127865322,-0.02247925281467067,0.022930296562984367,-0.01124960823276982,0.020452827415775195,-0.03983951487195581,0.04055534660625862,0.02612795854289577,0.02390182054127267,-0.002638527116985819,-0.03882669588138587,-0.04089106924288278,-0.005179474639908104,0.036464920727871275,-0.020622202225254037,-0.02668871662608113,0.0542713659808326,-0.0029436528134560128,0.008771848035458338,0.030238318515353746,0.022020604220778655,-0.04219398476912556,-0.004193462127853962,0.03467097869349659,0.04959966498464663,-0.0041962129173826815,-0.038794550699362614,-0.040069497173957636,-0.009408631498156487,0.024869622529567682,-6.485852206120324E-4,0.0032201047169327394,-0.0058645822450466905,-0.042934806682894115,-0.041162861320444034,0.04274836179277349,-0.010293750734237347,-0.025383352018411978,-0.0038363956135768268,0.009984258325586078,-0.024412942376892642,0.032084320019807766,0.04304650259645304
-0.025429280334210283
-0.012451881671124423,-0.007149579627121585,-0.029312413752216094,0.056275008512128695,0.04628624097169328,-0.0034447135099011637,0.0443890648529464,-0.015642857874633997,-0.038544539173186676,-0.04744546383922696,-0.009302353153824819,0.010378282726509135,0.0360743109690834,0.009048831699199834,0.025093983800769014,-0.04572572197885417,0.022734231419682373,-0.02270429971930651,-0.03602539376244244,0.022860479685043036,-0.0032038609283952684,-0.0294546071411908,0.03276497700640063,-3.9494767494256406E-4,-0.0036459453949439728,0.01981927054106806,-0.022065689424273203,0.02707999567742359,0.02679827995613692,-0.02647936526364519,0.04017769033387775,0.03727367088130471,-0.0454662742658622,-0.030700109794514735,0.04421006277915491,0.026285326977395905,-0.02298647556397081,-0.004307895882487349,0.008357251763622836,0.01944790160757875,-0.008499705627032773,0.015404058200181505,-0.018749151875047134,0.01060919093830763,0.03486766048232065,0.03821763349241185,0.035119283314003664,0.03038383773846466,-0.02590223885889903,-0.014974509344637774,0.012382175825536869,0.017025547399576138,0.042960698322256324,0.00865824708262511,0.005322929250530956,-0.0139122833673392,-0.006844221744639488,0.04099692974784707,0.03628037757494025,-0.027310015511354462,0.023825336338028507,4.373139618117069E-6,-0.0361142503590156,0.04732885497842004,0.005244186613715042,-0.04074292090665197,-0.031689758459908936,2.955923788483421E-4,0.03385588705838331,-0.0285649844233105
-0.0016664546403585734
-0.031814906016204396,0.0228948091444229,-0.023778878566244804,0.062194417285124294,0.01397894204369144,0.005056151657104575,0.0271261676664955,-0.02436427149923118,0.04221243882503518,-0.03287000057211073,0.025212880515817097,0.0058064760742652585,0.03926052042155584,0.046484718733219736,-0.030787107089577354,0.010441400312904883,-0.03942408132585197,-0.029674429470711236,-0.029479555494179598,0.021805964076301747,-0.012090447399767801,-0.03915586474363162,0.007198856249603928,-0.042536994213494966,-0.0483180540782523,-0.003899080772384295,0.052808150687431346,0.030581329642140234,-0.01690724507610537,-0.009209748311923751,-0.0037930407578383105,0.004091103146628118,0.011383219300572173,0.02057769852756581,0.014117942849041835,0.029808266240261092,-0.024364205029164743,-0.01717943783871003,0.04348565628549778,0.004595788555422137,0.041518257760331086,0.046559452982448415,-0.041826323228723726,0.04636747111929982,-0.029374237665486764,-0.03408571945523847,-0.010171097398404143,-0.013658502588100455,-0.03685997095974308,0.048070739381473944,0.040831727513241524,0.015652395032457286,-0.04711604186323914,-0.04039901134729754,6.953746759362823E-4,0.004612912898389092,-0.00876500641899642,0.05418560506920971,0.053687718004951236,-0.016386383947812697,0.0296774653015862,0.04525058432060415,-0.006189128415255015,0.049641697096883465,-0.03365632818048854,-0.03125432319013562,0.03144989120792171,0.04509510321089117,-0.03756955900953578,0.019857969095554758
-0.008331020205859517
-0.008715392254713024,-0.03791555293260486,-0.028924705897288905,-0.02116174671803526,0.014519407483631905,-0.03136289075083148,-0.015105116072507844,0.010476183093221066,0.00169313462160161,-0.04884161206329152,-0.007423888602163611,0.047370807788981256,0.021597585146230783,-0.01539608580036458,0.05440833817815698,0.014232763849360449,0.01139459151638224,0.04281166044403121,-0.0030770439799588383,0.004871820446989451,-0.018997077942863146,-0.019971320803549623,0.03765715335940812,0.03182875646781228,0.012551973351660098,-0.025448657821066336,-0.0398895446228706,0.015971543843777226,-0.00399257718395744,0.023589050773082505,-0.010415406199345428,0.03142667179272664,-0.014143102946016948,0.043466109080784104,0.0524621350408167,0.03658257868736383,-0.025528737334828897,0.027284777434041296,-0.005886510571903064,-0.03907662961915294,0.05118658477771979,-0.005237202827270859,0.026663975103799607,-3.4014397090557474E-4,0.04461717596595321,-0.01471233339314151,-0.015221389554430262,0.019831379016176206,-0.006568894925486017,-0.045772606501663496,-0.008712122349795608,0.03500069550485119,-0.02583423569790282,-0.042819446662263255,0.04642369914839991,-0.011056852812342439,-0.035395281196876904,-0.01849579179388826,0.04169621612549449,0.03651366013317561,0.06417385270834451,0.004977476290054706,-0.03402997039141096,0.0383051595954406,0.03191567553934545,-0.034209110043200916,0.024401031116996465,0.014468919141128996,-0.010414604459323094,0.02417957040016217
0.03358874866105095
0.05510154641201213,0.028923849578180224,-0.007643862170844921,0.011804774605779568,-0.027283657623798523,-1.6687075847865896E-5,-0.0172523418512802,0.014273118054657762,-0.02671367316991402,0.018515499822301898,0.0015036565286218437,-0.03223678009277959,0.01831401703853851,0.009013874897266237,-0.006029547196454726,-0.016818971401372177,-0.027819762063801344,-0.012611881808972384,-0.009737282922950771,0.04421261239120903,-0.014565683949623333,-0.009993244516451965,0.019506856991696884,-0.01704627217201807,0.029190696048258625,-0.017282037585178284,0.049507249887744166,0.02336450112348907,-0.030536845955285687,-0.023400899037252062,0.05528231382764259,-0.039167143300095277,0.014430060930795656,0.012683488795624387,-0.020342083762333728,-0.022631266575166457,-0.014986777407871682,0.04097605498305325,0.011007572801255625,0.03864769912526898,0.02864778256754901,0.05025095381240573,0.023110233649652912,0.04685371824451263,-0.04429543605536993,-0.002105636345290876,0.013435657855589388,0.004058981867141252,-6.345246578862354E-4,-0.018280373577787657,-0.02763919383150132,0.008330948489674986,-0.031974233450110814,-0.04591812641132391,-0.03728384169064335,0.02086534950801756,-0.0013558304937385263,0.015334173884546718,0.015255804633080726,0.003947475627509422,-0.01097006897461024,-0.03786159106836073,0.021335852205003662,0.049208608257377495,0.04542441679643043,0.009621179210408655,0.03137753173352107,0.04342270678093724,-0.004061530101850738,0.011009684912642922
-0.03027764140935088
0.02702177671915379,0.006253511986553313,-0.00827806325284509,0.013701862345376287,-0.015220917432156485,0.04666683361233204,0.03473036445993667,0.0060436180897979535,0.052663704297666813,-0.0063929623521972526,0.014561780932738518,-0.03731613035059316,-0.039025128764564265,-0.024271117499457394,0.022323907798154585,0.029278155172895576,-0.0025762232332841284,-0.03664915974072395,0.014096322721652782,-0.009660890014338824,0.016261561248707326,0.04591025518974495,0.032453929631354586,0.033597552564742374,-0.03861586770763288,0.029490779581238004,3.0034468147525125E-4,-0.001145569564410271,0.02593048582780241,-0.03617603928528625,-0.0031826091001903242,-0.041391205227669876,0.013056107997478394,0.016697283521560777,0.025126217536699778,0.05130421936823182,-0.03904527259962064,0.017114814626789956,0.004880196702619672,0.03350673596898148,-0.04451621037600626,-0.030283706518654953,0.04868525873290693,-0.021738506036007983,0.01987862696180761,0.023217622897260825,0.0057619564445710696,0.05083033606945552,-0.04199410720646606,-0.0055086404112745365,0.015990276243278916,0.02740833216299085,-0.017439282865677565,0.041428371084062526,-0.032297999796560346,0.024265646013263815,0.011426356537341953,-0.021489936459473526,-0.004491179193312883,-0.005063946265702848,-0.02106297143724969,-0.014273092370166296,0.03697360804194077,0.03631176462976697,-0.019278993672632493,-0.019874536207953836,0.037188413931030326,-0.02223365595946922,0.03600560456917855,-0.01380701769305197
0.05725446177783459
0.04209779497175334,0.007028336864479217,-0.019681131384959784,-0.02392881483083974,-0.020060015187161453,-0.00278280455045418,0.015815000233404913,-0.002329773412308005,-0.03672458318548638,0.047228284157487976,0.047217542359558384,0.03654191539073512,0.016971570995156542,0.007735063183627414,-0.024879045302379058,-0.025466146824462802,0.03982419436666488,0.017086689250540847,0.010163825444092535,0.04790270614231042,-0.022799631515317716,0.015110368193273742,0.013125706382998136,-0.00775165939598323,-0.00813872238460838,0.009818833855854275,0.016243086124121113,0.0030763759160376287,-0.040258028421756104,0.05523213489056498,0.05128422468409225,0.026994594913899682,-0.00989148869015439,0.04093725182647207,-0.042311553093240424,0.05178113502275286,0.044339914116831726,0.00494657196402101,-0.03332334702353421,0.007632083931458586,0.015431426239117087,0.005545409240803633,0.010605785071316012,-0.0041286392464540715,-0.04343591458354312,0.03848760051275481,-0.032730326895434717,-0.0230245596624644,-0.030763879792066542,0.0452170195477126,0.0037851621154167277,0.0032017622100390733,6.517024502703528E-4,-0.006822466224219703,-0.0012138066739643561,-0.016870619309348005,-0.034491822418462575,-0.011179071179611342,0.003454950484137039,-0.03795384886414587,-1.82847243892085E-4,-0.02844773809324313,0.014623070026299307,-0.01202677226664868,-0.0321298598944173,-0.004521569372955763,-0.03775197727647674,-0.032963906959101855,0.00473478099455161,-0.0031187476433004687
0.014846387310036688
0.052537220672049384,-0.005243992856191799,-0.024310017064836365,-0.02244588500664007,0.03978410227977763,-0.03266082817380025,0.03413309258593271,-0.01724250976803604,-0.038695474358032035,0.047141857357547376,0.03391512292683945,0.031985804129016845,0.03177231291486893,-0.01065723485171508,-0.01581198474999674,-0.012563569225923008,-0.004685213222061089,0.04274985555483322,0.00460910948004322,-0.018826502995425723,-0.007475864856820905,0.05723602381213416,0.048947356618794374,0.04809153049806861,-0.043004046949064866,-0.0257500213167977,-0.031183652327418328,-0.011156833567143986,-0.026975159445925115,0.02108070165206284,0.014294358434152775,-0.01675742319764238,0.043252539025648976,0.02145246955241683,-0.004355422508485242,0.053564424724396154,0.03597264477165148,0.008306210722683118,0.010425457802252585,-0.028657241970192385,0.041758641397452355,-0.04162136466224926,-0.02179579977182365,0.055198446585158524,-0.04541195018622557,0.01624045305337152,0.043346643322802234,0.05076779808628974,0.01569181133003383,-0.027870407766811177,-0.01745404844507184,-0.04666401384454875,0.048388630090617196,0.0406484082362033,0.05072165199441129,0.005716390634894162,0.013484678017390136,0.019673788542129932,-0.02719001934911552,0.028523790282182476,0.06178027942031687,0.01737346395280993,-0.006766487007599592,-0.0034254134027893704,0.03144805505810946,0.03327266130241992,-0.021345850160255843,-0.02764591614457363,0.04075750338861134,-0.012059712212707517
-0.018624261065023944
0.014668977260868857,0.010163630521057739,-0.010735834601802819,-0.0100456530451467,-0.04278670103396056,-0.04343914451556055,0.038692493217594576,0.019810044807797807,0.030101061705044087,0.007815280165808978,0.042027922399759804,0.01615290660309549,-0.012776394734113959,-0.028528637548067223,-0.02485533804392073,0.0042133088237511175,0.007506849802519776,-0.006068427558828779,-0.013313018219714711,0.020759043336091212,-0.03014758376726114,-0.014596975882812271,0.04466981420688999,-0.032234383695396863,-0.030008170940969442,-0.02203030697362388,0.04289192869103183,-0.043850974853896,0.0050927180937784255,-0.005305836088248459,0.04302293948232208,0.016087883757115583,0.03310114842918842,0.035786146550960955,0.029778924525196093,-0.046735548399882594,-0.03679930339071626,-0.014767378057701263,0.00498433974645204,0.044508516600644386,-0.005821809852510395,-0.028198599530999294,0.025493009271255956,0.032016174588238314,-0.006457775827715847,0.02469598840351851,-0.021433930573177076,0.0048594759521753735,-0.026736391691108252,0.0069722734023373815,0.03775423668502924,0.04828946808611484,-0.048436478229078844,0.0498353585977543,0.026897376291716527,-0.018043686103666464,0.00928881772859945,-0.024984488827700293,-0.04265294107279049,-0.0065435296996862345,-0.014919479081694874,-0.0015454075537610571,0.02212557186672639,9.255026590160264E-4,-0.008228416974065234,0.034365444276774786,-0.030600997595604258,-0.04235693929224684,0.0014427489633538518,0.00842356413772888
-0.0030213547011911437
-0.036667219938271316,-0.03501542291229075,0.059969225677469484,-0.01253314251530822,-0.023216829854895385,0.013515767612866892,0.014854740708014963,0.03909413835075848,0.0442468798284947,-0.004939632856065267,0.03330280817057944,-0.04539644642648078,-0.01509415665964183,-0.019334256161438433,0.00315042224711341,-0.01962621134763092,0.03500478697146608,0.026378579967294775,-4.5662752457340395E-4,-0.013126483043899299,0.057975942539598035,0.020773495502300655,0.013853995585767009,0.002961062393206253,0.019051738774496983,-0.03234918643955466,-0.02563351422935633,-0.018387672364920497,0.05380944987039675,0.01925515253073453,0.016762916850372997,0.016054111204832806,-0.0186302929103546,-0.014822240355201079,-0.010295124141056728,-0.019284774429553283,0.02142144511909827,0.037701272443251,-0.041302293141126246,0.03823866856657058,-0.02585248519699311,0.05609704087306114,-0.03486021267876903,0.007645233241559012,0.018687782256830706,-0.04770472940236218,0.03482513146975957,0.024939688709833235,-0.035599630902827424,-0.025441312080424626,0.04783476786336011,0.02617419782795602,0.027413860654636885,-0.04214554797850755,0.0031878905984939745,-0.016860249285604825,-0.008729220086406265,-0.03516382361833842,0.052843398983395566,-0.03234844544954376,0.04564287026769038,-0.020909664872216245,0.05433524253314877,-0.006768269716993588,-0.011881049674401982,0.04641045610523044,-0.024531167872510064,0.010766805497096146,0.045729295485380544,0.01367986519825543
-0.027282383689739387
-0.0273105500654194,0.005330270817372064,0.04374613441222521,0.00632578445050526,-0.027490840493653978,0.01491486748022586,0.04862297806698782,0.04041303992207831,0.023509500065186907,-0.006542293351141058,0.013606261072567672,0.01619431569647408,0.03304897429546748,-0.029089238058863157,-0.02996824285778798,0.02091253567097252,0.04472596469860082,-0.026175603779779878,0.02525645920423713,0.01937965550895015,0.006403718573036252,-9.618045058892147E-4,0.04720979268694838,0.037146250068294945,0.012705096819759577,0.044462441449506604,-0.009906151264895816,-0.005506854179060112,0.047644925294132646,0.048529204110244605,0.0040749675870571595,0.02553266308070167,-0.004581656356948226,0.04326018374258899,-0.016592462864752765,0.02004221921730654,0.01220453411674695,-0.01746990213309801,0.04668238907450027,-7.854956230291599E-4,-0.04078690415876651,0.04956182032088558,-0.018390893743494265,0.001161786486872956,-0.026871358885325294,0.018708655533196852,0.0050997882545425165,-0.04398234321252516,0.04045374710584757,-0.01169110300118506,0.004319508339299224,0.01933025910137018,-0.027205732870246094,0.04033425691941484,-0.002718272314869875,0.03515183540351652,0.04314011196659738,-0.005172031550163656,0.04073335207229665,0.024569412633634918,0.06226209237653851,-0.0053766669773097474,-0.029128550653925,-0.032228721281502386,0.03739412963880273,0.0381875076431422,-0.003970682716015223,0.040296743560602984,0.012124690789983752,0.009962891464335868
-0.028251104599314108
-0.009855188185976941,-0.020940422703503186,-0.006313291846302628,0.0093979365658186,-0.019504597712568746,-0.03470105961594687,-0.041214828157697364,-0.02262126420238736,-0.03312031671869257,0.013857437503372122,0.009466678206971188,-0.006520544041429568,0.003183685396204793,0.03958444937658652,-0.031614355104769114,0.04586036819065925,-0.033865783405291276,0.021791942287738435,0.034103609759470035,-0.02484846083137525,0.03158075188034946,0.05133750827437305,0.05160599269336731,-0.009993833735834703,0.019404694779409017,-0.012782115132249756,0.03324868506302095,-0.0022013367322639317,0.026353233879363242,0.0480447035043572,-0.009965569639721332,0.017967355378585164,0.011449429253152047,-0.0023024078171443255,-0.03230495660505023,0.027643116812611616,0.007442608824586286,-0.004747177128076457,0.04918322605019805,-0.04288634216110925,0.013224657314536058,0.03662897319808575,0.010460519221254669,-1.5027868612814654E-5,0.013645695541509812,-0.033175218759493814,0.036315295540480755,-0.04441667202880299,0.015928559632803423,-0.017553205985332263,0.04010645846618123,-0.02134552901961344,-0.033664418891070885,-0.03499299345298204,0.03132089061419436,0.019767864679010635,0.04360853582928472,0.026984116637707327,-0.011196153980058014,0.006784541175654861,-0.013535264553758128,-0.0409565182768687,0.015775712886880046,0.038060154412447506,-0.023668808265979703,-0.01172682471267891,-0.01217764619062554,-0.002222283853440621,-0.030648309034973023,0.030513792244864096
0.03657460638324005
-0.0020141505755330107,0.026053790750949313,0.048069672373729506,-0.008342274585764139,-0.03307704878246724,0.03207106371289088,0.022949051531724787,0.030024231694576527,0.041657806792617075,0.02532483130531779,-0.04374931321677384,-0.00827128497306612,0.006792609983937922,-0.01219342661733827,0.044486700613540354,-0.037397095264076426,-0.02820569198657053,-0.021901317565476357,-0.01904148461470743,-0.01728571920188709,0.0264902037129544,0.03479126845564595,0.01258824035000974,-0.030122980929707083,-0.021846522535551,-0.005678471546107607,-0.035247547547293416,0.02887041597540796,0.021623653271699853,0.04218894677611042,0.019876776577493385,0.02795823068346915,-0.02887694928790168,0.03755328533106399,-0.03818015338229607,-0.011951841087050372,-0.006725975284856608,-0.01005012661600928,0.03155446982228672,-0.048000338836283275,-0.026826771721205466,-0.011998748404950091,0.01655594180511489,0.0020686465800288404,0.011040433293886487,0.031671318884784895,0.03543574356771321,-0.042066827687845074,-0.028779775947144048,-0.016281327241068958,0.03874616064740043,-0.03201086786415655,-0.0020467927525046337,-0.011580388603561144,0.032995437084490695,0.015535055431181909,0.04439346725734416,0.04968264713251224,-0.01586362477510963,-0.009926619644971775,-0.003818314686810461,-0.01387553887720997,-0.019493219249427235,-0.012946453150548633,-0.028769293020438628,0.004317021445777524,-0.001934516294742342,0.04477248629858967,0.02259117641417456,0.007010866934008053
0.01589061129461548
0.03560528061475216,-0.018867427965970317,-0.01719461374203963,-0.00930906380731071,-0.009167281266299362,0.014434341363146084,-0.0032569780495541106,-0.030397095264522434,0.048899629826376925,-0.005138049568453637,-0.029134175746192155,-0.008008716100985356,-0.017506345985023125,-0.036948568133091726,0.03692819108989163,-0.031065879884930852,0.019871074294054856,-0.03426332242851153,-0.036774346433855916,-0.020314065400755803,0.057106419566243065,-0.01291144833912569,-0.005712978834392494,0.0320372383143498,-0.04309551306560894,0.0026816310251038724,0.04318043292136737,0.052066390639918546,0.01208080752528936,-0.03537871004550481,-0.0215051908963923,-0.03666310462808453,-0.0182610285295838,-0.017864687734022364,-0.027828636889340425,-0.020277978923129988,-7.582974565653897E-4,-0.04039736693510645,0.0076827209305061735,-0.007189028295912788,0.022745727880836092,-0.019124533189134135,-0.009499289816063636,0.05543299741076396,-0.04381794193904613,-0.02749676537006142,0.03943429318610148,0.007269702750496658,0.049709465808744434,0.02426698857227155,6.5245907470994E-4,-0.03282525445467889,0.016271951232554913,-0.012633855471384518,-0.030572990344659604,-0.007922585588718101,0.03764990323686799,-0.010574769827989624,0.0160527077912359,0.06401535079835645,0.03525992649216897,-0.009563575010956176,-0.02902995773390129,0.004176770130704076,0.04339876701546081,0.031435632130209785,0.0072626007876118275,0.01617888332200107,0.04245935862427335,-0.0065976762682410485
0.06574306318580582
-0.012653119887662873,-0.011737353492188088,0.05493649652430766,0.043217810990593825,0.033461136271877426,0.03705022354759103,-0.017529003810440397,0.043885178592161844,-0.018581340581893684,-0.03200691926205558,0.03486523682373692,0.044602119194778994,0.004820311338543802,-0.02059340032488937,0.01952057980550744,0.016027561707975594,0.037134733907585385,0.007711583916188836,0.027425075993763728,0.023147983543787894,0.052661543624684365,0.04522341906689951,0.04122668025584621,-0.03195820086840615,-0.012238745256273791,0.020472840471228458,0.027235283164117177,-0.03762052131685159,0.0012553062240763216,-0.028872598859039332,-0.022704967536324616,0.015315463565929301,-0.03831270956926083,0.05057082617385439,-0.028272720603478515,-0.0013932878344466598,-0.027416963241000982,-0.047322552364907434,0.011781055415941495,-0.006867913118912992,0.0304681812642487,-0.045795184226983435,-0.012425897256093645,0.05237865073590344,-0.032274222966331444,-0.016850361264777913,-0.028728175286446337,-0.02505981670851811,0.01426607722146761,-0.016294518461366276,-6.437602164694485E-4,-0.04294406313206287,-0.006955357939725737,-0.04170517389424036,0.030254460680314333,-0.03617335147077469,0.052474057170929865,0.044709692901566435,-0.01817299011829399,0.0037793482064564614,0.03349531354136259,-0.021540815551337925,0.03562507551113737,0.037658425101266005,0.015279079770386983,-0.03300813834680189,-0.02383931632047555,-0.006438721401829204,0.041928280565282264,-0.02600370737510499
0.034528996633152544
-0.04140366381423556,-0.03730381333653836,0.030192905944735317,0.052525824805785604,-0.022941731985427462,-0.02349368420167424,0.009164790739766582,0.02295247683995825,0.01682675828566059,-0.015543421408420167,-0.038664262357517985,0.007904404555419565,0.04992537444287479,-0.040348299349590215,0.03652267863363911,-0.0020465248989072343,0.047586779894287376,0.021934918489003127,-0.04179725869875502,-0.030922470433760646,0.016289288499540547,-0.030960111530740367,0.04330374948564077,0.021485485516586845,0.022832429549421884,-0.004317023165438478,0.040444249213506936,0.010534865952046085,-0.042264636361629956,-0.04132934281837718,-0.0023734353540624397,0.013922618997055098,0.034039868937063913,-0.047198527615312166,-0.03661195775363566,0.009002753131167121,-0.020317146888463995,-0.034376851617982485,-0.03963084560748576,0.027481480414669968,-0.00335235875661754,0.024717837078582043,-0.017359209551756752,-0.035599970366603124,0.01972253790685096,-0.016045649226123882,0.0027154232090474835,0.012241284275143349,-0.013202644089760603,0.014970895812042797,-0.03322274360035854,-0.004622751310813043,7.735179149147148E-4,0.02318064679544891,-0.0061020219612272,-0.044832588449395486,0.035104816758769364,-0.011376961917163224,0.005882195096449533,0.05048378000764874,-0.03761441466960478,0.056474121313235814,-0.022522974389748974,-0.023343182275341552,0.018557682657975402,-0.013345474424462945,-0.04267068945175313,-0.04006784514448208,0.018620981535801162,-0.04677561110843156
-0.01694152883750773
