0.07342823979967435,0.12405458397903979,0.07335559415259037,0.3381234784244005,-0.298698761507342,-0.588134982805287,-0.29724085966903524,-0.2007104765266364,0.07982417454180872,-0.10379108208227993,0.14422454342021532,0.015831996161855724,-0.08410022571225693,0.1168718346806062,0.09818978335220262,0.48580680666874654,-0.3068629131599391,-0.6965287248920838,-0.6856406867461716,-0.10994154062502394,0.35522183916769823,0.20486876395535344,0.00852541982258566,-0.03504240579826084,-0.08884011008775418,0.041704034584554926,0.5217631442111749,0.036017264824435284,-0.5211192723656545,-0.24880106385502324,-0.24805384155799923,-0.42137880760416513,-0.04841172923961074,-0.0018740662193854076,0.0350354765679313,0.012497079738541786,-0.12818791879265237,0.021736414761594606,0.2953119693991667,0.17523532886629092,-0.4188171276467534,-0.22861010103110815,-0.3095083196257502,-0.4319141139623647,0.20671326874186888,-0.15139304437115705,0.00246371712879773,0.10251929987216661,-0.005642714174461645,-0.1659991757527883,0.3568087107263824,0.6102029768092577,-0.3387919498220888,-0.4040276718113507,-0.31985307387261164,-0.15004516512919977,0.22739014892282558,0.011863520782630145,0.04031976808828767,0.02053057748425347,-0.05875660430504386,-0.06865670293832031,0.13732425349837554,0.4425705021348245,-0.14843258385972855,-0.29204380705341126,0.34861155069467087,0.4769618067553345,0.6223057553464976,0.13380210027537007,0.1643695309574578,0.06486349119038178,0.08357591115799555,0.24472329451389715,-0.18364055989286535,0.20964163854236476,-0.09481374840987523,-0.10614985327328026,0.7264869885855884,0.11408923990386242,0.2941682238329655,-0.2490323702756331,0.06817698201391133,0.08498632118038936,0.03266307237716908,0.06082341780109086,-0.36577553328340184,-0.2639254407930619,-0.09703050446035195,0.6168135834610481,0.4092690697405189,0.2610089244055005,-0.04361832801586941,0.03038641058842548,0.00376120753039527,0.052099909405430224,0.020015430432253258,-0.04053662095475221,0.31274699882175583,0.21505601152874612,0.3112974839305075,0.16810919192111493,-0.07343387977329337,0.1772277822772981,0.2358021364075392,0.30102073942840335,0.09127152808951398,0.0672609156194965,-0.039922585916765015,-0.20376305978428258,-0.27004606416735244,-0.20820292178850178,-0.4329364032385712,-0.303040075559614,-0.14799645751866627,0.40074055991920077,0.7750884112508948,0.53809849556189,0.15280817884076384,0.05134911588681696
0.017839512877676194
0.07573396967891449,0.15486088980762966,-0.10179187736275924,0.24257903263925218,-0.11708937597030573,0.5979753875934056,0.8711101608340738,0.19545981282607736,0.44816032173707904,-0.1370141737126581,-0.02701371585066772,0.1797327515246074,0.01917029901991951,0.11704308988712582,0.2343743605729872,-0.043561175647918934,0.16842595674020014,0.5530118381357919,0.7423177555010608,0.521735851641388,0.10758034090801405,0.1749600248859793,0.047363346367746736,0.13483307604780262,0.03920505417942402,-0.15874260933036252,-0.1801581997045588,-0.46755546972229606,-0.2848050983674219,0.4424767030306565,0.803011234875593,0.46161988928702397,0.2784577371668691,0.17784872790655945,0.03234442014819307,0.12185836551005982,-0.09600487886404527,-0.14303749256370432,-0.15869114947366805,-0.39304900705824847,-1.025313165850383,-0.06276081230748709,0.2907551891258074,0.4137347419923087,0.7565601260120794,6.010648498443826E-4,0.10355765404069325,0.12514348621138552,-0.10411423457684557,-0.2592998090115186,0.05093633742727946,0.04755590949589078,-0.9539620632860689,-1.1057459028072156,-0.6733114009429714,0.045296337914068674,0.5976726568590122,-0.007018539651679918,0.05939142078018035,0.1618004294214115,-0.12462181356213528,-0.33140621862485303,-0.09333091358313889,0.12554301447131477,-0.6430240909515968,0.10763724865053786,-0.1406202244661263,-0.6234539027893552,-0.5515806873598351,-0.3397008976296891,-0.027375667862848698,0.17293874206300672,0.09341700833067801,-0.31741587449123926,0.05934742828517381,0.16573867811706897,0.17703518756150458,-0.25724018162704704,-0.3353395109413479,-1.2179772365941852,-1.1180299189790295,-0.5688625672580337,-0.01947753000199479,0.14517644484478873,0.08355896057999418,-0.35689484063568927,-0.5954649063714775,-0.4545500734432703,0.5753283415513853,0.6781814763439155,0.5322868547105927,-0.18260144306761575,-0.6861066965406711,-0.6057079223042207,0.09608606710195802,0.17709459717772988,-0.051640571548364586,0.039654523028532604,0.19997784794687154,-0.17686123937399786,0.19024319033455475,0.08987123111215115,0.17661491466675902,-0.033996158376112126,0.10776238056012782,-0.17457091539049127,0.025756902908129674,0.18727602053126938,-0.05122351987528004,-0.09899030099371789,-0.14532153111764892,0.30844828224614346,0.04440625979010071,0.04700858828304395,0.4537246423496018,0.0930662088322248,0.43751706116204375,0.4615906352141648,0.14922710032962674,0.21620572759624787
0.20549259043865295
-0.0595240467571636,-0.23666888085278898,-0.30974328745329804,-0.06587449484964499,-0.1479503061927474,-0.08900047315138124,0.09630650996604942,0.06260601971937066,0.044105904503078976,0.10907502165175828,0.06416180406207128,0.06116857744384157,0.16877487094584903,-0.09567411528431868,-0.48707441214566627,-0.08282212061206157,0.3256777385424976,0.2017432915221864,-0.0915432496006589,0.0617401982428611,-0.2673649625261676,-0.32224283073414617,0.014142838715982375,0.15863944114336792,0.07812431765960162,0.31609154156480357,-0.062497040986416896,-0.1384804287263797,0.525395106889454,0.14426123104491373,-0.2906780050568888,-0.010023539859257276,-0.1342001140086242,-0.16963221907204945,0.020700476533020658,0.15612046096497045,0.17517827843951128,0.21333768555094013,0.08717198707302962,0.04454693392846223,0.6068356343124297,-0.08713044350134716,-0.6869471851927793,-0.3886936756409315,-0.4380208490255497,-0.44206121757871464,-0.10971552664799392,0.18408588571374235,0.21873845923836044,0.234481643624123,-0.08511605915434356,0.07410216275318829,-0.17184431791068616,0.20961915077283183,-0.11153342582797354,-0.11238554772038886,-0.2700712679807816,-0.2738029895514099,-0.0758101381862144,0.09260594577395773,0.16573762141773096,0.2538099709155007,0.09106562406519098,-0.2995014896476169,-0.44101148726385453,-0.02632423377749625,0.4504730999248798,0.4255670207114247,0.8123880246334907,0.18006259671254543,-0.012989901947501305,0.10861050589075555,0.09428921461157569,0.14153956816110064,-0.06744526228519149,-0.47980574789551456,-0.5264416749678382,0.010450859184625419,0.5818296630833819,0.6066377367106184,0.8492135215331125,0.45661724410959303,0.06935880495649654,0.17017233412508698,0.15433792658409307,0.11057439589799106,0.15637882949473303,0.03723445386160299,-0.20869777258059702,-0.2450343459190626,0.039651982934947504,0.24252254069373724,0.37526477687926185,0.33544815722011934,0.10976145146177171,0.15868749467569848,-0.13436809001743666,-0.22799781592691254,-0.43560524501693343,-0.24475024409106022,0.24490676568265968,-0.07361858001824242,0.004806672107571844,0.10761303712822012,0.31061731800131964,0.2588870721946471,-0.06870919672668455,0.14224680616709606,0.1218438064543734,-0.17550102592043415,-0.07878567938538233,-0.008325929459251709,-0.13500234996511282,-0.08563897308566559,-0.11134708086498024,0.3405698388176476,0.011266669340398012,0.04114817720540325,0.041865335781066444,0.1169587693551539
0.19052471318386366
0.10403801872764715,-0.06599699966921282,0.10056087640340441,0.011791893738546637,-0.34890277073829723,-0.09163108075123805,-0.043167216587376316,-0.11191716874108121,-0.03661210591480809,0.07789499203686048,0.15967244333595645,0.17162667585609273,0.376676838935314,0.1208281594672552,0.03989656344196888,-0.027898083692408353,-0.11335238172384218,-0.09803127339753487,-0.16311171985547815,-0.508905592969263,0.13641340622374348,0.1936972545798674,0.21700243587397125,0.2940696746349083,0.33372832904902094,0.15531134722422998,0.09484545190455909,0.384645875942494,0.3245490685876886,-0.1268427937220106,-0.1852259771995012,-0.12897464766896624,0.05131899927251699,0.10696617623316579,0.18766579450878793,0.11069223826518462,0.1551321893946571,0.09561435756041192,-0.008035967155526591,0.1663204690191403,0.7045541806894208,0.2088418115093502,0.08549370263810752,-0.09494455481688033,0.20926328320400125,-0.03871626337567948,0.1973944073135618,0.12749925504151846,0.0914103961928672,0.12638024873885453,0.09504908448745847,-0.44508112504936026,-0.11408676101197768,0.7344161882481784,-0.10064142271026294,-0.17995176445934005,0.2585248775891299,0.06289077339120631,0.15280646271264983,0.09546341418664364,-0.0018887229121590029,0.049742389435931254,0.07852127575621093,-0.3223991704891579,-0.30775614040356614,0.25330789589267655,0.12337737311099906,-0.17828001170772687,0.21837446263835422,0.12133459202119753,0.11504504420114445,0.10406422306762383,0.04947366187830137,-0.12176241971239785,0.04514330969039309,-0.20690790654632243,-0.008934048812147594,-0.1545666263369033,0.6591191158484021,0.09590395336614027,0.09584726080278602,0.19433583846782268,0.012455268466270932,0.025837715990777974,0.07870144293388609,-0.06110028050638765,0.12726024708241776,0.5042060941620607,0.3071366111272381,-0.2824169968492226,0.5031671242228516,0.5460710384822399,0.23855233006818646,0.14520528574726824,-0.018752736434493333,0.023165342510786762,0.07681165937964263,0.048222797083553086,0.012889594522948623,0.4208259654696245,-0.22789133568933892,-0.5146997193666994,0.28512606798951246,0.2283545430384644,0.04323654034628437,-0.01325492416446153,-0.05612368774517882,0.05499257116708121,0.03391825376120791,-0.24330839119368572,0.06503728418422987,0.1468076978197063,-0.1381544683439471,-0.21343193878930752,-0.017386191514920574,0.06383641712339896,-0.015008318422899241,0.040727899303664154,0.006315934700167152,0.057726241021898585
0.035349533694210525
0.08985738290876077,0.15127165988878724,0.5122511678835187,0.18879713861791023,-0.17646979612535632,-0.5038725690295562,-0.476482314062643,-0.35558463553600733,-0.2514941147560438,-0.07748443468710331,0.09088094987439668,0.006789142875156281,-0.0017676283398686877,0.2104215204398079,0.31936417188001404,-0.11083353111273392,-0.0417049447026373,-0.14218883104559196,-0.05705388109369683,-0.33611100617852036,-0.17989800732696679,0.2631134424618024,0.3047051599946701,0.02529549486395775,0.0466514238982718,-0.07006149741462392,0.41706173381454154,-0.17894480365628376,-0.5321055891843343,-0.07841266459854895,-0.3747455012265944,0.47887935254430763,0.2331348500744784,0.429161163397684,0.3513381187800137,-0.005535616522802226,-0.02334184153406427,-0.13486355086670085,-0.0038904825581215245,-0.019079774469229403,-0.6246345603667052,-0.39095571114921274,-0.39826755760000426,1.2940965750713092,1.2917401292488762,0.2899292757745379,0.14133178123924114,-0.023493097770273325,-0.059762851810274874,-0.2790746095217222,0.10935483358541959,-0.10757666960124679,-0.18450133839859603,-0.4446121268872863,0.09845614601713179,0.7865333116656201,1.0728929350924792,-0.09813552979758666,0.036087974111318866,0.004982831717682166,-0.10869632031178245,-0.2215733645466008,-0.15359100884068685,0.2818245476836551,0.2711544608196705,-0.21051662359956871,0.3419230322714368,0.5815708631067007,0.2506882918190018,-0.21291516091577364,0.04139389516796643,-0.021501245924476848,0.010528204347264722,-0.196348614362074,-0.1150864004282085,0.28697324294703414,0.24559361111006425,-0.10990126678765944,-0.2154010856174242,0.1497301090548577,0.2509884875635402,-0.23808777207286028,0.0899543196146646,0.041608257746544905,0.02947754169712628,-0.24859635749865797,-0.22563116333095665,0.070459211781884,-0.3188499073199013,0.294665600018243,-0.039701532547176246,0.1605946088995722,-0.17996711638930415,0.3003841333022184,0.008770847814577548,-1.5366280029578092E-4,0.050233346151226016,0.07269849807860537,0.21662981498456255,-0.14101459149200943,-0.3254550891736571,-0.05400427844301858,-0.2354334179166869,-0.1924400936740693,0.03027913680711685,0.10978033259675815,0.031520386754665654,-0.015914749651703274,-0.03918609061050221,0.061690475352559705,-0.213228600321457,-0.3705197657090445,-0.21034405605683212,-0.3197821823147065,-0.26906020670394565,-0.45115794349907085,0.07308854124665687,-0.4142841343396169,0.0423391500725379,0.006905926432839437
-0.020137579798623236
0.060833327855143185,0.08639996069586929,0.13231507240908974,0.10197417815350161,-0.05784118186288881,0.18599848789256782,-0.1163062672491998,0.0680349674296966,0.4254234797892823,0.015899415154673753,0.08081957310343969,0.06214075199475528,0.006511013264110042,0.08592676408608176,0.3064610053795398,0.1918523118159036,-0.6939129931368355,0.11923887323675288,-0.36381795204801504,-0.133721144063756,0.12700445610085684,0.4396222159491787,0.031143568185340073,-0.01686177933789948,0.03376683032024026,0.028295741067618566,0.21474594816434237,-0.21720334664984467,-0.5193548841486959,0.20224887955216683,0.0065984236437579774,-0.27440605134018703,-0.13368238827504694,0.3365757670622145,0.10948086992154808,0.023164071480713536,-0.040394817255456614,-0.10014630361319436,0.21857576270752135,-0.05501778628206898,-0.32246690617688933,-0.14887898194713764,0.20126096137557972,0.5616498813837665,0.030543017316082888,0.07199108789969554,0.1215289788591697,0.08477404268001536,0.014028987134366436,-0.08959976029148208,0.13822997290796782,-0.04353695014529339,-0.4668161378204637,-0.906673965369821,-0.04990119174676545,0.4425887679428525,0.020807174967365605,0.08636184424535832,0.08385845485494788,0.09235014444997473,0.007289527392838804,-0.02474473910526667,-0.35122587619540135,-0.0824310250650205,-0.1608847190763051,-0.4118220900640458,0.2739611025293106,0.3612568635922594,-0.2610638309162948,-0.09530010925090461,0.06680040743314371,0.11005018164799966,0.0448798667716665,-0.042869519468935496,-0.2715168976089605,-0.021688825182553825,-0.13257019829456176,-0.1300607803450239,0.17529972059477464,0.35021937584291696,-0.10030752414848947,-0.17392308772316853,0.08872873028894819,0.11309905266665436,0.10696416860380993,-0.0432619568823845,-0.3364800193845209,0.10858140984815075,0.025771232742133162,0.6743484754638873,0.9229634922310399,-0.018723117161915142,-0.16526562995775143,-0.03504990270301797,0.11542556862612922,0.07615895229519788,0.15663707517505435,-3.3114280094694617E-4,-0.21044451545243612,0.17513616242970734,-0.12502765896651077,0.3455376329041542,0.218730781973726,-0.5390440827972985,-0.13644607453652222,0.0068561601924422184,0.09527916576876676,0.13333735628370533,0.06584256215389998,0.029289636278889686,-0.03084166297694439,0.3815272457302531,0.4231802173678566,0.2644778048639038,-0.5486269908248063,-0.488526957983084,-0.15827788734092227,0.26337362644269613,0.13204543373233826,0.10512705748878347
0.15621657494463373
0.01432898310059588,0.01797909472716474,-0.025544833458806628,-0.09668865907976838,-0.08201494962078769,-0.1408754489204652,-0.11962729652995667,-0.10776985924143233,-0.005997362907642318,-0.010605997268401566,0.10065940276420994,0.16078287724708504,0.14781066862088013,0.07478485694873253,-0.029455291800554492,-0.026622052732632864,-0.006757601003971804,-0.12965780729647922,-0.16905439270919256,-0.09054755836046109,-0.06405031782081667,0.18221657391032162,0.17442896775218406,0.09499476253658733,0.1715388664503473,0.013349545510378242,0.049149637778651556,0.11248499024026294,0.21884212340442868,-0.030559475954257606,0.010374024885038363,-0.0015542766644612205,0.018282355194551063,0.07476703117812565,0.10508312975130628,0.13848973373043919,0.15126583264806379,0.06982934745422696,0.057308007397348315,0.1296993977751091,0.28622895170111257,0.1067773040067501,0.04443996644736732,0.05358618030419052,0.06368000879087309,0.04981896128041183,0.07192849481231299,0.16047434215253523,0.07113362574475304,0.11643461758311015,0.09842546079426694,-0.10534162700610454,0.07581269225047495,0.10277165206150961,-0.017833362943584577,0.14577795300593746,-0.005237804621404727,0.05417354854399346,0.1156501141653614,0.13674917342132067,0.10455767502350828,0.10030389041155176,0.14430814348859508,-0.11216216525659083,-0.05941217007992894,0.11698591370527019,0.014166477253190478,-0.050901667209935234,-0.013143224431324473,0.08758754909032267,0.09944429551698537,0.1495095967404528,0.12834861243285386,0.010443938752043582,0.07023330074225285,-0.1789537012210662,-0.2152633525958538,0.1627329833421264,0.09180839006025086,-0.013128971044084522,-0.03259636139634421,0.1610052581554289,0.13566053947612458,0.08307830921917082,0.09535765943551285,0.06415599048653466,0.038375704324145596,0.005002114141699728,-0.05054200571188952,0.12780859668877975,0.11728384234474983,-0.05071772031341662,-0.1017745893832225,0.12434902911304922,0.10074037195677481,0.12045147881900507,0.07959227296389136,0.1246190103015614,-0.06060044841985861,-0.06627466057549163,0.043939220563022505,-0.05951630467279159,-0.004935278587705046,-0.031241299157244145,-0.058762499594131365,0.17015445279077265,0.12281250078916915,0.0895650773099652,0.0559265942154593,-0.021299783674563602,-0.022755319844303984,-0.07727624931363981,0.07898558846754443,0.07322976487424922,0.020068851648119487,0.011257757336293606,-0.1422312885075991,0.02365508232808785,0.14060790060168496,0.10110757494503171
0.08483469048370372
-0.10146819204520505,-0.19050412172993206,0.18227844089392484,-0.30029562373751056,-0.3704665554195677,0.263681315299082,0.13588971559505136,0.18698374082763494,0.3950474714772387,0.3946955588322672,0.12943628186293707,0.08894284850652837,-0.009145288205659857,-0.3827496411276567,0.4575487789626395,-0.1477349158111029,-0.002641106957650588,0.2828170747343129,0.34217771522236345,0.40105557442514644,0.23909979963020891,-0.1464562331724861,-0.01907841104336123,0.019894239318881353,0.06023849412135869,-0.11811593435965692,-0.052959331162882935,0.9157755571128172,0.21443230353371504,-0.24077125170791255,-0.03830719743493656,0.6549441666022453,0.015828235828273127,-0.02819871930461671,-0.08001858501389966,0.049038126463511404,0.09596349502135337,-0.15640403686707313,0.02521681117539951,0.2741871570638906,-0.3719582725863773,-0.7400688188269944,-1.0606953934374688,-0.6364433952945743,-0.5645622733606723,-0.21040736132154567,-0.18101122581390303,0.08108196208027077,0.1685581490334699,0.14085666681396938,-0.27911308219153697,-0.4267283159689627,0.6092504642397669,2.289693167198821,1.3231930417098163,-0.668826832759472,-0.5719225735187232,-0.339111222736358,-0.07805269407027726,0.12516794825548733,0.12888722800342048,0.11715923390555022,-0.06535715438838205,-0.3765478282644535,0.3306390326146634,0.6500176185680113,1.4766326839731025,0.5117946335569384,0.18397376900307014,-0.27814675929194344,-0.05134775988418125,0.11315982347346096,0.1335693203012108,0.012015699656931167,0.04486993607840385,-0.29309359307639166,-0.4142984010615172,-0.7875034431575563,-0.6120305175170633,0.20528517767808732,0.380376355922964,-0.18589213564173598,0.007083232730470759,0.18576819079039672,0.11788455816461155,0.18314184797076785,0.2880985161415767,-0.44558556996473037,-0.7594684088405315,-0.6380079162284511,-1.3468854234194056,-0.4133165630421523,0.2684134194550642,0.12105884317948354,0.10539688914155645,0.09770136233258003,0.06695399531829394,0.5589905304253382,0.05375856447398837,-0.28805848539167583,0.25876927929817317,0.47124575892468606,0.2950220449096079,0.13762361568860135,-0.13775772829482794,-0.03083338328152429,-0.01404970958117631,0.14210233239914014,-0.02284009930306914,0.011915615089833763,-0.3753436180484662,-0.030350368203657944,-0.22090836569679065,1.3613669859913307,0.22446627103007324,0.0892851670644966,-0.5547060337734167,0.10803035159851612,0.15250627270988312,0.0996027358422471
0.17297534680536544
-0.012871584412492192,-0.31956691934886966,-0.34040415631872817,0.3024851732946327,0.7508721171974385,0.6737266847906972,0.01862385471336212,-0.007434859301186081,-0.296101178584873,-0.2618978210407101,-0.11054562680634383,-0.041001955662240526,-0.111714480696011,-0.2787016352382417,-0.25027235261773767,-0.042267981682735455,0.57990744973805,0.8177185018698317,0.29929434878687283,-0.3425929446427382,-0.3306223593456446,-0.6715315614208911,-0.32334906849905326,-0.024966576982399374,-0.09494217048142006,-0.1625675246832387,-0.13960551448644642,-0.3422024823276683,0.5301425062424744,0.5775975035180624,0.1992711637763842,-0.47201125278328876,-0.1124935118136344,-0.061442033826060616,-0.28913889077410876,0.04155248529028618,-0.06734632006581814,0.02469190188826087,0.173051237279769,-0.7984382547196415,0.036126165716237855,-0.4357983385423951,-0.22436209102028803,0.15251139527975943,-0.36651227504356737,-0.24233918099667578,-0.2335663052494802,0.05331931731892114,0.0017770940754221897,-0.13738529782915065,0.013175824526429746,-0.21058834951827105,0.11809707790850724,-0.9499264822408121,0.1932098987193701,0.29448671726251,-0.04846582826454262,-0.3692270733919604,-0.2117717582888512,0.12431265453622528,0.016587328112111617,-0.03780346014391026,-0.02010905751002267,0.910033313911964,0.3265573197997704,-0.5251086052823708,0.07971754200600648,0.6082851374542672,-0.0035307562170111034,-0.43284938042958304,0.10273226246218217,0.12139082314328573,0.047423245443823626,0.08669176151816754,0.24563995359638213,0.9655526735148464,0.7905212420460469,-0.06085941231955735,-0.3651210989631842,-0.3438667178390608,-0.23128540778931744,-0.318939937263726,0.07482826736404019,0.0883581835788054,-0.010407697570552786,0.028858216399312096,-0.10558571119871507,0.27806238756156715,0.3604871294620882,-0.5027316638072336,-0.6771265980348052,-0.3711946946292915,-0.04044991056938379,0.11441131342232203,0.08438770686632155,0.13980075659544655,-0.06119861531440428,0.7009759999533495,0.8335260070696507,0.2252221379060652,0.032162008183089404,-0.48390877475366284,-0.05217723586820005,-0.03228978954645261,-0.09208891357548377,0.428995951587359,0.09281025043044955,0.0948608313156758,0.13129842668056846,0.31196116860582085,0.48861055478453724,0.17067227045526345,-0.013100265494228741,0.07530985769149276,-0.44222560022362917,-0.24369765685667794,0.38988226500700546,-0.06388170820124917,0.13386120216898256,0.12689191681928821
0.1488169421549576
0.005843378881932635,-0.08769003289802758,-0.2053492829921904,0.012544519363002618,-0.05145153983950244,-0.13164793718427054,0.11721390125222102,-0.22138196775559965,-0.13539327283715186,-0.1317846512941243,0.11604988179107749,0.016631445307170596,0.09444968565707394,0.010605492542446644,-0.2553643339333598,-0.2629998555035884,-0.4166520213039906,-0.46472357403790565,-0.2178221347227849,0.034719502747980226,-0.07098948708584189,0.14777423008237628,0.21640412989861801,-0.019112703631982426,0.006584189864169911,0.16274517022632773,-0.06472751714472276,-0.02730961079541218,9.829365296990518E-4,-0.1112404096374995,-0.12501753185000375,0.31373434742210493,0.06407761416408324,0.10739704236987775,0.31965408925433014,-0.0179596718963144,0.002838375764937205,0.2154422840273591,0.12747420901687465,0.35237965375029157,-0.19682655334287713,-0.1840781968834712,-0.08754186297387133,0.2103204848327559,0.3928341702128795,0.6381211423011317,0.18473082035311034,-0.058238793626627934,-0.038001483941597324,0.2727920572282293,0.2653959749713025,0.07651658772261495,-0.18246522722192648,-0.08873041030750418,-0.026307269231932086,0.291746582411878,0.5519690293160386,0.517978622667959,0.09416191947660009,-0.06756818484482967,-0.06274076011534169,0.38075917440668106,0.5331514779568266,0.024462541812981117,-0.1250749362243224,-0.08388391592048104,-0.371103429972371,0.11056815022160513,0.31408988326275633,0.6520736618913214,0.0560046807557834,-0.06857025261432335,-0.06900422265721777,0.2792544152821248,0.2204872336886715,-0.17433628695826747,-0.08135268516556794,-0.08858790270512833,-0.07868711687418763,0.2784779589685984,0.11350792841381079,0.21938971846636163,0.01609643829811383,-0.08903148813470883,-0.03371638260945204,0.21802980911827957,0.2796906719148302,0.23766386594703826,-0.039478757853285855,0.09135469274226009,0.24370080935125854,0.16140043425382078,0.15881358715794908,0.08706299614670003,0.02573012409754065,-0.08836267153143178,0.05170552843781027,-0.05495175879875235,-0.6456039152207571,-0.19198776350368624,-0.25898102114340615,-0.23708098682461254,-0.26062038894190476,0.15467992319057922,0.18194555036163962,-0.06046216360360765,0.001162955873484932,-0.08400333311128368,-0.05927681049775046,-0.11732909214258212,-0.7156186717351429,-0.26252801164344874,-0.5152897130433388,-0.35029008896528635,-0.2519442819608994,0.4075018020387615,0.21843771605758255,0.17829855717417253,0.07191680718480085,-0.035252157946428865
-0.05570175113359107
0.04305843424348973,0.07800500687666259,0.3803108391023055,0.5515745469698723,0.30217848013548726,0.29143337946652487,0.38896468115871713,-0.19132786312031394,-0.49515496083712746,-0.7135407556980627,0.04573377825004065,-0.00323589024529859,0.06238589231315489,0.4167733577628157,0.23520833310904568,0.033176355259581375,0.17073595574307662,0.2625619517999945,0.7186924911813132,-0.1208671784917462,-0.3634219909202813,-0.31892961232510847,0.1779805676127145,0.06553772772795208,0.019812932251843017,-0.0900509118172689,0.24319817932685434,-0.2170233246214471,0.013366595703538132,0.26640535207126376,0.3248886051776943,0.289499035970976,0.4824969098795915,0.34161794028884734,0.26902195459789163,0.03489528124110452,-0.03604019430838652,0.00456449386475928,-0.10185388568346457,-0.0030054602905427346,-0.03208221274389896,-0.46795477612204534,-0.06352375174403324,1.1054578306170255,0.8722299071197116,0.5531644926794727,0.28083763606970996,-0.052110005284564505,-0.048737310067677196,-0.22978912093323364,-0.24147428018109643,-0.13831681547178817,-0.11038573788440947,-0.7026559032620378,-0.06181393782084717,0.17371273985175442,1.096380241096743,0.652267135898882,0.183938378530168,-0.04030783110652026,-0.03724390096601989,-0.11892413830891563,-0.21631539595595087,0.20279240719185412,-0.02337617882963807,-0.17805848812810518,0.35502107048198966,-0.07513813821554849,-0.05032548300282117,0.24208342078485215,0.18055154166075335,-0.06455365614690538,0.007734639867055078,-0.14103829526006875,-0.1502173852727867,-0.11690956200541583,0.29147750640825204,-0.3143419076327389,0.3793560932812759,-0.18026519750205947,-0.4837598099091221,-0.07148847413218129,0.13783484288230993,-0.004429087428057726,-0.04825399605473472,-0.19673052429559337,-0.10298908002597706,-0.128242050640387,-0.23507125329486736,-0.43446395443777236,-0.22670550052073637,0.3428791360746853,-0.13203039024384086,0.023870178673915804,0.10455808472627079,-0.011431282214323029,0.09932971076464647,0.5879545954570239,0.26239871874904236,-0.12390814884408995,-0.5437894979600227,-0.798709722216362,-0.5430757000256866,0.06819979419632738,0.20968616745003563,0.4293899364984977,0.22832797565156057,-0.061657014095960895,-0.10184841823766538,0.2995162053578923,0.24041288537350922,-0.2763131133978573,-0.32368493493845935,-1.1371856831581213,-1.113091575132131,-0.6058932791972168,-0.05170930354709998,-0.36793141654460976,0.18934183111607392,-0.015581999524472588
-0.04904398202194755
0.053960077461111075,0.057556782442120785,0.06482491949527981,0.023448482209709316,0.31245989365406623,0.2046481042996479,-0.10707934689153094,-0.04281823868188339,0.06043045038623235,0.0807730275618896,0.10873839163663009,0.11001602135098405,-0.13606821094959073,-0.1738112499794263,-0.11344364843601064,-0.2624286900958749,-0.14112912416854392,0.23428387925834523,0.679339416330007,-0.07534785474359822,-0.3485449409340806,-0.1607384889315531,-0.1310016830024168,0.04200377729981711,-0.07821261410245063,-0.14434433414342882,-0.06154184767057799,-0.1096247825310034,-0.1503969475469308,0.10716598136888279,0.30466301149544717,-0.3118395710243358,-0.03191720650731204,0.24199533599143,-0.16599567193238743,0.1232153502593674,0.10714136281407545,-0.11307902257448983,-0.018785388205638635,-0.09800253275115424,-0.559293674950958,-1.1133874821286522,-0.46616440021596295,-0.5485886912957729,-0.22893563360994515,0.10079790392593586,-0.2503280166966205,0.2373022164618698,0.18638009169174877,-0.007016322406855062,-0.16312543495367468,0.2507776244119396,-0.0020540266842430984,-0.8492152726039559,0.14420707972638466,0.09492516469090707,-0.17195993037684074,-0.32028418412261517,-0.3688865931930029,0.23250774572133456,0.25023008275788866,0.004960367243824218,-0.18407676072865395,0.4665529320724324,0.41252637603821696,-0.3239947210752745,0.6824259911657342,0.7470848660928329,-0.13258209680870817,-0.269077618662932,-0.19694932502746484,0.26378355834602996,0.12623709670107594,0.11615287063511955,0.0562678374835634,0.10268253104750875,-0.25823853296500465,-0.3630783241214246,0.00985533503642509,0.017769875906643664,-0.359369338135449,-0.14103385189656018,-0.009002966350757275,0.3198310535151381,0.12389194179469366,-0.10706960182176152,0.007783731632519137,-0.10817654398483746,-0.4023607716294153,-1.279254318554498,-0.3060514254242297,-0.4598935733445463,0.06006310721038895,-0.02437136742765936,0.05800944351840588,0.30569001088154124,-0.05100149469698241,-0.14745673392773803,0.21805100509024147,0.659074875980614,0.12354248570343622,-0.11892235666517645,-0.16637056176745355,-0.22758745084704765,-0.5335068766878142,-0.40421438653763386,0.11424325749614785,0.3152410675276298,-0.030915491151858893,-0.061146239213165365,-0.19433910842001142,0.2124743114003584,0.8600306902736559,0.3152088708465216,-0.8604060569574419,-0.40362564058806216,-0.4179307050830352,-0.3845642718797301,-0.017276486015197975,0.249986700232828
0.2607245684294006
0.04500328193394793,0.0061648691786561766,-0.16537845650832161,-0.1913779318307009,-0.23234501396274282,0.21042035649010637,-0.23618366862792195,-0.32975649642631366,-0.20413409961540246,-0.12122508324622049,0.03211283068165948,0.10651500226316273,0.11962528631389667,0.05304817600112149,-0.2630788628471872,-0.18672820143450286,-0.5891994198030659,0.18279565147429572,0.12034202089064862,-0.55162981794812,-0.3895347343797789,-0.11340738280598704,0.10638288030810607,0.20850796335177701,0.16581791461200113,0.03278929498864498,-0.22124243597619148,-0.2726043400115944,-0.3568466630716741,0.1847453222455448,0.1396997782699271,-0.27423479412889784,-0.2235436942845947,-0.008883825677188864,0.07319762675981,0.1814556962909022,0.1749989588101506,0.013390336075405506,-0.2953120427876751,-0.44131849653418065,0.24604987174549336,0.20721575767838912,0.47405496770949784,0.051545402969371,-0.3246654985327463,0.020731747853238412,0.024107090699910273,0.18253128896614745,0.15383725896645167,-0.03142373097523083,-0.3159646841731891,-0.44910541017484606,0.07729669038225669,-0.5357869160074895,0.17551133542499253,0.3223358733467142,-0.0296537996461902,-0.07661948491583741,0.06960116474077606,0.133261274905265,0.13211768591070008,-0.09783329888047244,-0.24605855179893144,-0.3170675504223195,-0.0329006758034287,-0.30716953588227136,0.3918127692196016,0.3496939796419859,0.012486561222704697,-0.06591593683206405,0.07078337993573282,0.13029288649821616,0.12814241301501547,-0.050015458951008306,0.010990670651999641,-0.03900203996708305,0.13795322755480263,0.031781999015934835,0.6966168473220691,0.4352844141187291,-0.06786336999385657,-0.06047455018476663,0.05620033171904235,0.11299878102404491,0.1566211797334926,0.13525736063868016,0.15400559724463764,0.22145390924544017,0.6106662067301518,-0.34348457780549513,0.59540184597681,0.27778501438888614,-0.029078772476345993,-0.08029160004456755,0.11691377437648691,0.17767542756179566,0.2357054928559592,0.12552966260941864,0.49688158578217234,0.8428363040968407,-0.19613500691043678,-0.6085150239959247,-0.006729057021215853,-0.13861247745666044,0.12172474037283551,0.17285109695178974,0.03807553078310231,0.13484055776845172,0.21336257306504258,0.1798087715250588,0.20599365186033325,0.4181892276958179,0.07093575015788149,-0.48172459999147255,-0.6374492083845162,-0.22852077498006163,-0.24914862360473158,0.15481447149842498,0.12482084846003552,0.1316804512776897
0.14544811674644736
0.0793819832027445,0.06554142827056397,0.06098667227369842,0.07546399421503433,0.041876568651992324,0.058332471359506144,0.10285438815301873,0.17808381545356147,0.09961224483734385,0.08905212863879353,0.0732146674547905,0.12128828189908619,0.10838378340984192,0.08190559779241938,-0.02226347172409466,-0.07935136594095077,0.03122995653361226,0.059585836073724946,0.07925836707207565,0.04108477767764085,-0.06929141612097897,0.1018752178807178,0.048892392658025585,0.18728383212753366,0.0808499183928458,0.019991495334228386,0.021825485562618097,-0.04161030870474622,0.044887468994807736,0.04553509427690701,0.11108928067774893,0.13708233507591092,0.0366285849787585,0.08575606644515754,0.036673078739559356,0.12866392062113677,0.07115410419353319,0.01364699123745009,0.049931336591039946,-0.05039537881826023,0.032018155099540486,0.048904351227097784,0.009895016191764505,0.11901314126709883,0.11131756511372573,0.0698084721006055,0.04362882066954578,0.19984033192475556,0.12457203811115838,-0.012377382460188073,0.0440200539486546,-0.025914911655245655,0.0011378982288450335,0.009814706515157453,-0.0010927709353449938,0.08730879498903021,0.1509676270374277,-0.021961963438886352,0.058656183160449404,0.200081673500111,0.1400364489347721,0.0631036768542726,-0.008091401197094698,0.049985521210814676,0.004160837353991667,-0.025426718211763184,0.11083651335690647,0.11691618977949192,0.007599650612954488,0.02684538620655809,0.12689906571954154,0.2609028189440826,0.10718230162707909,0.016486496429491397,0.004448720597992458,0.005784924914170477,-0.015700405123790784,0.11306765450543585,0.025887339758230765,0.11806922813429555,-0.034442131688847064,-0.05518590496926351,0.1319663063774468,0.2104486934642729,0.16882309617460586,-0.018795653920895133,-0.04437417658789082,-0.010693181825510432,0.07263532438244821,0.11467613557658485,0.13891146469442142,0.048170208838328885,-0.03157928079849438,0.05038857280215249,0.15742859213700153,0.24641259458027828,0.09883396284024223,-0.008730569774088601,-0.05046820541898438,-0.07206574636090832,0.0428849311486596,0.0032301069350913285,0.06087165949846188,-0.0809871092035796,-0.013130835635671934,0.01785152170808533,0.12307262648909115,0.18791820244062937,0.14826589890169287,0.07121198384943517,0.07897972089052913,0.13203896458827105,0.12298434551071247,0.09584613933790886,0.030146453078167046,-0.07508806984041616,-0.04360103992922135,0.01183127661571406,0.16805387901610544,0.24150747304290868
0.24980810205000956
0.08500529878455992,-0.14053964415146117,-0.6324884321137045,-0.5039135337688665,-0.23431825092480754,0.1258247808754089,0.35243639292718393,-0.3920502994248634,-0.36731446271445606,-0.34015438635019396,-0.1648387303414741,0.13349196401095834,0.25281883921146325,-0.02522334017246507,-1.1233459126432612,-0.8588532365395647,-0.23417629337809573,0.1794382815175475,-0.039035707501748784,-0.4087274040044278,-0.5371703943097748,-0.5450127388262245,0.0499635000206341,0.20530996967388568,0.21014121109543885,0.11897619057494266,-0.44987299267740627,-0.9028075670016618,-0.4036061856560664,-0.1825480772897449,-0.29884101046101547,-0.4225165537158669,-0.6879212745031908,-0.1511860334294651,0.1865801436703384,0.12075841010701024,0.19834383506745093,0.16278283672673735,-0.0483030452817067,-0.47259518108221926,-0.1493426399401455,0.29797820073062736,0.132385185981699,-0.1113903559496657,-0.3168717656192109,-0.09447109320714811,0.12724097239944585,0.17541214608997027,0.15681787560791247,0.22822606187839603,0.02670484507876689,-0.3682140124126359,-0.3728342124109609,-0.27615235646875763,0.009896927406509742,0.13447968197302043,-0.10025036136781343,-0.21891817390570958,0.1087125090003053,0.109856940294639,0.18502358042552727,0.22646881885044443,0.09523400789740344,-0.43010762385545503,-0.489601219227677,-0.2689381007804133,-0.15162824694474467,0.5337748404842868,0.3937813173888311,0.0598662579345664,0.07469264176804447,0.13713328660093213,0.11716726863714405,0.21079210496239056,0.28705325172346113,0.22483447020627387,-0.42332842140346966,0.12095127444506558,0.2471065648431052,0.9752828857374061,0.3081270749760889,0.052488556956018784,0.13136608879797054,0.11151330454103972,0.16131157044644864,0.17190492963684237,0.3014846951433809,0.150781248347758,0.24713362007600145,0.3672516154643602,0.16793122835682042,0.3957054428005627,0.1233641694257269,0.07656584920728354,0.0644006822847927,0.09425301421423171,0.06898222219978421,-0.09347276294790122,0.44354881498657633,0.2322782881757612,0.13915618971884755,0.19666290026023706,0.11677321484396644,0.02959449314708604,-0.09692611444625382,0.28030764887632537,0.05642532489976046,0.16987303164724624,0.17184258222879975,0.16532240655165673,0.2967849616846126,0.08552167348145906,0.04291736570425363,-0.3179572026793432,-0.2897498247150891,-0.4891302138066332,-0.5292374115728276,0.1448875924629803,0.12501996451740216,0.15971559627358992
0.17182327180698168
-7.730571398585534E-4,-0.08026041968743024,0.13277085124595708,0.04272060215768304,-0.1311880618085105,-0.03214677636634533,0.07829898757254168,0.022083971281550006,-0.22814767990325907,0.021314440752233474,0.07889666861720292,0.07484329276511383,-0.07576106774440718,-0.16591452981007548,0.37551044866527006,0.1673503330250709,0.142777197325826,-0.09007376726570752,-0.0829894284192297,-0.0801340363673952,-0.21439809194578918,-0.07524224863462463,0.0651419387669338,0.059272118921244114,4.0659369842165456E-4,-0.13543738237681924,0.09665018526441423,0.3789851247206226,0.6220272128237608,-0.13459525900004915,-0.26456370054297673,-0.15580679941114628,-0.12880286791616552,0.1233113443902409,-0.12846520910187817,0.11710397374716448,-0.018851880401306205,-0.1271931511245209,-0.3225650962755233,0.22313467574915014,1.1257729301970851,0.48956594911430606,0.015555870969073961,-0.058459816138489336,0.15846124190240612,-0.1464538748818881,-0.10803583231977291,0.09007608853832359,-0.04835019873441062,-0.08377419971709445,-0.19924575184136545,-0.950722809202326,-0.1307898450125227,0.5886989862665576,-0.1323718834260279,0.1476719097048367,0.14058930293819744,-0.001959293362326838,0.09508674552573264,0.0968502163229331,-0.005866298668877951,-0.17341165475181236,-0.2236695578242734,-0.6402701427368162,-0.4666646588274702,-0.002996711698565474,-0.07021422209186282,-0.06638233136869263,0.2927900118151522,0.024185185618075887,0.0457996316407133,0.11264226678254945,0.10836091726190643,-0.3834109101254406,-0.023534633832119345,-0.3372077091510962,-0.2962634812586543,0.1542570262424252,0.47196083214763696,-0.02190093987346082,0.28403460410161874,0.3329170473272913,0.1280094986744322,0.14611409906259681,0.07989648680363408,-0.07062286305126904,0.1690352144640464,0.054733431439795706,0.07565830050797366,0.4075787050263142,0.4689499546899084,0.46234520462098505,0.2858659106064523,0.08044737633427308,0.11657653474110623,0.15919182303334167,0.23391590883896868,0.3253954521356853,0.10000272673856882,-0.06639933243455039,-0.19981348447734787,-0.0034462999207617207,0.458227027931585,0.20265946197641266,0.05119823107353282,-0.15075999164566306,0.015786821402942672,0.15012625953287967,0.15128213591554296,0.10425929510403102,0.4003600166405821,-0.03919135206978391,-0.4517039152471103,-0.08699416699958883,0.11908469939690013,-0.1700151459347014,-0.23407662570676713,0.06697452760173438,0.07485933789747236,0.1617489900128205
0.12794120501609163
0.08091585813594664,0.21956332250351612,0.3781082294345371,0.5511381195338269,-0.08526430785068086,0.13391754961783053,0.36555269271337504,-0.010528665040615696,0.12599732672834899,-0.04396063661240872,-0.01986424863227461,0.09749655024171501,0.0626034112489691,0.10037521059369316,0.753400307986353,0.11835886690596102,-0.2703143174062557,-0.17854462074066058,0.47328799469212085,0.24836201448382816,-0.4498862109051656,-0.027322341410266,0.11803009389833537,0.0548465847912149,0.13155474691678726,-0.21345089824780172,0.11733027613325527,-0.11471306364093502,-0.30057109955449374,-0.23145861555200875,0.16489740903516875,0.9180518053007206,0.04768898313411024,-0.08671905683593752,0.03670990613476638,0.05979514382264399,0.05997423304026918,-0.2718750820510724,-0.584263817618277,-0.5096242820315954,-0.6303022653479197,-0.008555242473880838,0.8802192323730081,0.40473550593277136,0.4568245375808078,-0.15650283700796147,-0.004579876547772153,0.11624842499087996,0.08566510935875953,-0.2798273939757682,-0.6426004091555358,-1.026093257159219,-0.4604099222682903,0.36716702960934305,-0.16446502838513805,0.03279475330118879,0.13656402945941515,-0.07482021192257789,0.004561854959970704,0.1587434045814638,0.07953897990008106,-0.2766096269180098,-0.5786465554199415,-0.9737567650635276,-0.5951791779353354,0.38711428860566416,0.09103744508291738,-0.977121541028379,-0.2121821026016153,-0.06560814250784223,0.04282315920279081,0.14509182737610177,0.12198807705364302,-0.3448228525930284,0.10412132791273447,-0.3158612857816769,-0.09323430973094178,0.12324676783135483,-0.43912871816065807,-0.3793349973533057,-0.23400191072742077,-0.18110286677842247,0.08412999746471618,0.20177729105426134,0.18817526414321828,-0.05720937249330271,0.24528937293605135,-0.21775978348569336,-0.3507103314430043,-0.08962883660520697,-0.0018078297374744712,-0.11182684907197916,-0.3415285486585518,-0.1277159779398631,0.13986544763879788,0.15669475390209286,0.18136928550550063,0.4664542131196498,0.17779065657951926,-0.2240647722587666,-0.054715217104865016,-0.17707318840781566,0.05716300885939042,-0.4698033407664047,0.07213592554697602,-0.16123527875425697,0.07074263886936917,0.14039727480722164,0.04000753589416782,0.1695541932767869,-0.07453415935471065,0.282657809295316,0.08853190121337405,0.16551602002450244,-0.05792073623733053,-0.4096192652659025,-0.6915771142050132,-0.2595169485786157,0.21674640033124698,0.17993273888680006
0.17414196525143633
-0.03989946145966266,-0.09795537123491047,-0.14609249169562233,0.02959773495189698,0.18073408716163947,0.40364956644104466,0.7424314623337946,0.22526037425853174,-0.1410917549230637,-0.23198391873593477,0.059811981550793654,0.05155868613686564,-0.024423509558643232,-0.19625787585703508,-0.5142870575845271,-0.16254845597001033,-0.015993534868558784,0.08865348017355276,0.41421012094840837,0.43842264737987335,0.12664353407684942,-0.05000001454092353,-0.11986573747732646,0.08441289941925101,0.07613099536002177,-0.06314669811248903,-0.20797791875838284,-0.07498503068354698,0.42935725323496476,0.29688252314964203,0.40320336701024295,0.5213560896875358,0.09959413169431144,0.39961112756438244,0.11557981594007999,0.17804346267697924,0.0931961825586749,0.08423081847689556,-0.08246559488783645,0.33248327789946086,0.25738909445159597,-0.20759586296456473,0.14769138537456677,0.3788972896272723,0.3489037202108598,0.2889825734964613,0.16226705571024586,0.19624896679194587,-0.038363263154535775,0.17403283046778417,0.27144406981687297,0.10922470017607983,-0.2952025323689331,-0.3711775149726182,-0.5296107603132161,-0.1814534860741014,0.36536187637575435,0.1069004038557198,0.01423900080404718,0.1870329009817051,-0.0458049429167938,0.26954443313004417,0.4515971172207145,0.09409435645935307,-0.5485948575217863,-0.3782929896132773,-1.0277649101920792,-0.6210683194992992,-0.3186155914821598,0.06615719309117343,0.048490889886647355,0.18044576821186425,0.0968062393737397,0.1779660635087864,0.03671720004937524,-0.10885041599292744,-0.053129396515169784,-0.21272126800112762,-0.5828088302522814,-0.4342781312037336,-0.4186817289053668,-1.409283505937883E-4,0.13704920134221382,0.21549265775450283,0.1315156871341398,0.12132715311020736,0.005303111522540254,-0.20022530752113982,0.33802273089243395,0.3903233219445986,0.16313617514861067,-0.0976743490842007,0.015755713330285418,-0.10292096615076782,0.09798581540521684,0.1821799638799093,0.019651512865043713,-0.17823215795354141,-0.2043135552896015,-0.09532461108550275,-0.11795373218200267,-0.11819273674176872,0.213062984390338,0.06784137907074567,-0.09846834952477412,-0.18656452882972285,0.14962810727038334,0.1534382163945805,0.008017867625066876,-0.07762297476025898,-0.38690516431661026,-0.36833597050258504,-0.17374115256235645,-0.13665198853482688,0.18426908366411665,0.03239860532240455,-0.04972903681082611,-0.08062302160812412,0.03664431247790593,0.16053023901126812
0.19306751981722947
0.03202680477458483,-0.05900174614243365,0.24854361989399182,0.13408529472632252,0.30529240802649715,0.2213589133051972,0.30892154604809174,0.09612059264957325,-0.13357093510690526,-0.019544799835031407,-0.061628607866614345,-0.005215154892954761,-0.15733295588060886,0.12452826755374147,-0.0342221775617031,0.04292491399810049,0.34113553900156957,0.09820991533641547,-0.16344547221751882,-0.39400882701740036,-0.502172047214138,-0.23965797014678858,-0.012507477252451757,-0.017215922347887685,-0.19668738203998393,0.11484202734283462,0.07859784958169176,0.20949932899402635,-0.00609247005542041,0.29297854897541387,0.015407591161321272,-0.2879819179473675,-0.30525796429967134,0.2636802504193112,-0.12816411657972343,0.13675015512038913,-0.10418433864525527,-0.16005606124742716,0.17279200195800815,-0.07935896125261395,0.3792528651627347,0.49916839646963557,0.464646815730991,-0.40171319306616315,-0.0760534300484521,-0.20700447403298045,-0.14417514049710273,0.23753606131922805,0.041247282015228794,-0.26597531961614573,-0.00758388720624127,0.07003881707165006,0.20808313246166332,-0.7802060062128251,-0.05258367268447508,0.28007479759930176,-0.08608431192782275,-0.35736657868752497,-0.050624017136437875,0.16660304093508232,0.1413941570858414,-0.3081490900800634,-0.26850179385712136,-0.10233427343381567,0.08796786013375242,-0.2951382593055325,-0.12181268750013098,-0.0326827949454643,-0.37702466294746384,-0.41272833226574746,-0.012787763253680438,0.2213159343610353,0.1616399429239107,-0.28860630877009574,-0.36302393943480626,-0.03403098395356957,-0.030548839222197775,0.6280757726701487,0.3329619670615055,0.2394307867082991,-0.07396696267172621,-0.23926858347744334,0.1213893300738811,0.2527170406858452,0.07365180869812556,0.005789685169887068,-0.4334649344538659,-0.5157949218461635,0.2936884665519819,1.0467197760091815,-0.08705426031359896,-0.4473143303314906,-0.10745930978278638,-0.2546966652494095,0.15770738173193494,0.22063041146376383,0.18950189849316262,-0.14213804649797646,0.022555412052603196,-0.8600251013271041,-0.4484830247881709,-0.318184221061805,-0.6461861095037491,-0.8783755455541336,-0.5507414256002696,-0.18788523304528532,0.12733462799647546,0.21286305933400979,0.31559820747400935,0.27073703905400104,0.409608976086951,-0.015404530751764369,-0.13589697503124604,-0.01219096636460167,-0.19447237249040827,-1.1039034795633944,-1.0655528305528326,-0.15754580932620982,0.13324679646297788,0.2748936112721122
0.2509168110367789
-0.020120175836014872,-0.005497958092405911,0.07998963657450613,0.2834659428803524,0.15906804771354993,-0.07508555362435367,-0.018319598055872043,0.010668858608746007,0.2661764019438502,0.22612554822406838,0.07234685533132452,0.0966148169273514,-0.04665193477450546,-0.22546589188828559,-0.2591428790276911,-0.12901581995605077,0.6201388370550767,0.4692243201438517,-0.17629525674477192,0.15206280201211775,-0.034085153074184686,-0.36062054907502633,-0.10292396178801734,0.04214139401951781,-0.03908768555337965,-0.07470341280748087,0.32037158035273844,0.3134431295710787,0.13528400484165143,0.33527518173641174,-0.26830286382980933,0.08914601116769856,-0.184143582335192,-0.08468243590723844,-0.25573384458378806,0.07112911565980216,-0.05116616136236301,-0.05173634926685503,0.26911644911967153,0.30171583520041173,0.6970133758630086,0.16715591541355884,-0.35236731703270757,-0.3674311543838575,-0.31248932186700445,-0.015890606098555714,-0.26058883986064424,0.15350114189715625,0.050892446689377056,0.017848863744303646,0.3845825278929806,-0.14847199436444936,-0.8065692985666411,-0.22694359655173713,-2.067869766293743,-1.13359481435808,-0.11403105188620823,0.2988291672785735,-0.10476861049664819,0.10949511157208099,0.04188441606664354,-0.01412204022851825,0.15547354849703843,-0.48849997566084974,-0.8383009611526988,-0.29688823542119597,-0.8147623057815423,-0.9032642206711876,0.200401625924924,0.2832451961281885,0.025702717446879575,0.1391445216566662,0.028444626408985277,-0.1539427055533542,-0.1489016230011716,-0.7654070317446742,-0.6833631668880524,-0.2842381146974475,0.045483204160264405,0.2460968321689712,0.29863416037704077,0.21433050886002036,0.04429680705851662,0.1840165611983609,0.01757146098440534,-0.01429259987095198,0.16856842939999173,-0.1471984512182708,-0.5485303743722099,0.057685606433197374,0.31261998615043624,0.559730253591068,0.22766310412100954,-0.12994277735112875,0.07789114934315204,0.19153435224541426,-0.07739208966205822,-0.14260906368098653,-0.2843990192427082,-0.11767830689650537,0.5182698316845087,0.43690770906771975,0.609010468809075,0.48911191277960747,0.12391906487717584,-0.05971869422743659,-0.022375701715188233,0.10927975659673796,-0.03602635480159367,-0.3660800972778601,-0.009242643579397329,-0.03883133118040035,-0.22224615361651373,0.05298218271004578,0.9809255170486773,0.031105968027120522,0.2057613936198977,0.07056518202843377,-0.02862062851672969,0.13459030716401882
0.15317299765745473
-0.11300686740857599,-0.08729548841790916,-0.13711606395659615,-0.31946407264190524,-0.05609910561798872,-0.12355903020323655,-0.0949841147561569,-0.18687130304537702,-0.0044384772537431685,-0.011597190201591431,0.09594823620482854,0.06348217113338095,-0.018399687623359025,-0.013311742730521534,-0.340071632521352,-0.24489995641239792,-0.0013341293451047676,-0.35443706279035747,-0.06800036283526259,0.021633739186132973,-0.06587189199027813,0.20787779287694685,0.0945986287327249,-0.004468516629421897,0.003349824229130008,0.06152400383184182,-0.11660164674685872,0.10371574969149433,0.15925136060487088,-0.17269875358420345,0.16599218323092663,0.5090216980401473,0.4092340233360229,0.09500841789535577,0.15452388415052376,0.04848147175310221,0.10724362674419058,-0.056534414477108684,0.1407866666803403,0.42030519994319504,0.24169271565660533,-0.12923065819468377,0.11299887190257771,0.40830731227888994,0.4559947275995151,0.17741926248451612,0.10106255703761455,0.15402714079754753,0.10969843959748105,0.04615898099390766,0.21467927184801794,-0.04275003937645638,-0.10724001121790422,-0.1552529887821925,0.008868700551313516,0.3221575256512669,0.3301334558397231,0.03892630768175056,0.07274506120111679,0.13073903007406268,0.1547304028254446,0.11739149514315123,0.35552295429479275,-0.08624374531237022,0.0014218354600936457,0.07241644546334322,-0.19426574890384324,0.01307470061564462,0.11867491664519164,-0.021756924664905284,0.15274285714524605,0.1702421753730884,0.15434735764117113,-0.06833519708296995,0.3460858205018934,-0.2207416587328649,-0.10662074661098983,0.20247774786257844,-0.2911659621433774,-0.014793217887282537,0.003840859945989969,-0.019204296988937195,0.21161162770223718,0.07931637605106223,0.08643406305366041,-0.06127429944545349,0.18434932265119214,0.26921904602592805,-0.02336830234143353,0.03347589600135958,-0.032014468504936146,-0.09851213862062952,0.02641187908163577,0.2585568407736951,0.22136491749776344,0.15627114669195707,0.045466871410931885,-0.022085041983432033,-0.2970146637114781,-0.10809797290941678,-0.08000969638298583,0.09030238472502536,-0.17270630367333417,-0.20717655077977465,-0.10700871276278179,-0.07806665480045435,0.21309974188268038,0.12446749928686554,0.11567334395672868,0.1661512171307668,-0.30534377996358253,-0.21225713148330067,0.19029251165705496,0.264905747507026,-0.0433106019404915,-0.13642939094426476,-0.3454547043127967,-0.1378782396146282,0.2218532614331034,0.1686931455001267
0.11303107302040705
-0.019468215261764232,-0.24719521032717146,-0.19052331033891262,-0.06604333781764087,-0.30027989141945255,-0.11347743036752521,-0.9166114416274289,-0.8716733098247249,-0.8814947965250848,-0.2555806348165116,-0.042312861729557845,0.1165874988525092,0.08314138771580327,-0.4237232809328142,-0.4524948972243229,-0.17019931338992694,0.3042461561902502,0.05567526969512395,-0.8082997629697022,-0.7285548978167482,-1.1241390949479106,-0.44274777430562806,-0.0032016761581262895,0.0719510231073146,0.030574036155588527,-0.14439679419130907,-0.38193461146336094,0.06609017331961094,-0.2641727456371577,-0.3563010298102479,-0.7373508015021448,-1.0637334821355138,-0.5980385624629032,-0.27436791196826993,0.009556296422164122,0.14079453564675087,0.05623534450810911,-0.015910317877887825,-0.03206048595355883,-0.20157120440621984,0.5904114381668208,-0.077750487786531,-0.5800256592219761,-0.30856797670759717,-0.38588173952589166,-0.26503984747667897,0.07433566849935042,0.09391200571396265,0.07011521389317751,-0.10797418298397705,-0.09123186159029482,-0.26014355287119667,0.48600541830305566,1.2786772830808146,0.19437390527942644,-0.46709176594507795,-0.5629260800971716,-0.29246752335618664,0.03741142391020595,0.11454792714054975,0.038179986031217764,-0.20303826374069883,-0.25353996049946675,0.011020975554263951,0.08052270325439971,0.20723440231054108,0.25384087603208844,0.5826465009772959,0.4161869690348099,-0.005806726559341742,0.09696176217147624,0.054476824285130086,0.058201337029215476,-0.24060330971337845,0.09848236416221444,0.45003417854172756,-0.0975016192444945,0.11210122272099964,-0.24929417822515976,0.6761709324181113,0.9982200154058694,0.42590454643567444,0.07560196737193456,0.12298894373171164,0.04895406041626341,0.13824057854018978,0.4854727207893853,-0.10703654733628602,-0.9246152030791948,0.09237691337773603,-0.8172461722258331,0.4966816359064669,0.7362071248892881,0.25440040617300747,0.02812894282901017,0.10806612123097455,0.193327196876308,0.5821569343409452,0.9607310564217986,-0.08786690983135644,-0.3041907407029064,0.8828875604512845,1.1089263276844716,0.2951417524862461,0.43706008182899303,0.5557109668776061,-0.20575008897036723,0.07807044365294773,0.19043274646178548,0.3170452279971988,0.8243954249582066,-0.14572356874122744,-0.6215743074510478,0.7959365748586191,1.4240791391273724,0.7300677702586105,0.10665214552872355,0.23091541339470684,0.038569066555917214,0.11730370123953292
0.10689786438414585
0.0016534587331172748,-0.018589265421332032,-0.05116123753986965,-0.030837781216073203,-0.07572293315617022,-0.16293362668569103,-0.10393321734928447,0.015379924863031804,-0.022592971131069957,0.03941492588579608,0.09196471198346172,0.11264029975043031,0.10312208941680294,0.05151973946083886,-0.00871687679682956,-0.10201023502457553,-0.014733720543087735,-0.1319095323648293,-0.06607211671703922,0.008197817402098346,-0.020668595864239407,0.12960118567832996,0.10928060309412947,0.055221344834581465,0.0915589072752966,0.039265333441322964,0.008369099792162675,-0.026260653376957474,0.06852801044287525,-0.09161517803701182,0.04214123339365272,0.1306302590561614,0.13020009328350815,0.1743112815912677,0.1696516727086068,0.11719559161495456,0.0965874053727779,0.07653321752532584,0.06175571025657474,0.16948269536799646,0.04614984494072952,-0.016590055348270426,-0.003541235624024049,0.18429398406264616,0.18338031101412658,0.12720298892168444,0.12408323636130704,0.07829964473133653,0.03274408195126621,0.14493594466489948,0.05726933692708952,0.022933929750697774,0.058958026602697916,0.05102542160944332,0.091751180173811,0.18837958158761917,0.09817791674809474,0.031337829321541597,0.14296045497953833,0.060470337204601224,0.08005880942981254,0.10621471188186589,0.0012352328906720213,-0.03364407439053038,0.11670814056878327,0.07629979347099071,9.31573302043112E-4,0.0904307508497267,0.08340782404935602,0.05907915991820273,0.1603729641231785,0.11732897304577665,0.10367124597431852,0.06431709485611799,0.029365129609602518,-0.04789837516775769,0.025633707316139245,0.1001662661216056,-0.02078032257043956,-0.11832035919889118,-0.01930099884164549,0.03884731272092337,0.17243791444497444,0.05961304053817272,0.1253746279354191,0.1389633974677049,0.02849844496729969,-0.09290457155060204,0.07385458106568969,0.20007409777963556,-0.02962103797997541,-0.13941723096929434,-0.02288383091693158,0.15779346663156715,0.12422657656415394,0.105774625888866,0.07922689536369877,0.14668353256712477,-0.018782132202444804,-0.09594955230721154,-0.029022904375085208,0.036088225760520926,-0.05407736771036327,-0.19471683173619622,-0.04863188301693187,0.11595132129556655,0.18792971541935236,0.07476540092389726,0.10186055064410642,0.11070293743679079,0.016498351345382564,-0.06281554025598443,0.04435293910274522,0.0744096630167458,-0.06921511139446244,0.0212127366596504,-0.11448378979323996,0.10073659572476724,0.23207973163586046,0.07851716968246929
0.07597036388806001
0.07954585744486689,0.263847773757089,0.47201641412143003,0.21052577990848462,-0.42305656030876126,-0.41959602641953475,-0.2612286803492443,0.0679953077305617,-0.1927241446643583,-0.15724848226226043,0.013804655979045151,0.1561122254639212,0.0905645870047406,-0.05549622658570767,0.4589846641019203,0.2853007113094035,-0.592758488988615,-0.45643152933330655,-0.120444084199031,0.0569663190141243,-0.2311798952702381,5.635867945423816E-4,0.07932262804892731,0.13958396562609401,0.07978373820894227,-0.15278707389621468,0.06146093023182901,0.23291539591575608,-0.5866724719491552,-0.645311721852782,-0.48092852423385735,-0.3163674546660782,-0.23164778034083836,-0.17619403491949906,0.08389982190613315,0.15758915061839787,0.14976609986226483,-0.2789807927887126,-0.3496538116394282,0.17785150987983198,-0.332278249326464,-0.8719073667760706,-0.5980766336310053,0.03926313392001196,0.4014720709588069,-0.033988570323420994,0.09296708655959404,0.21963039724058867,0.1649702826971011,-0.33832365350668536,-0.5515382777104987,-0.07424168807759568,0.8469511735379771,0.6656548810130885,0.49558400590924867,0.7226258780150794,-0.24040705490778894,-0.3342297358702654,0.0807909493417163,0.2744189301344473,0.1668928246399354,-0.40120425064408005,-0.41259137695446524,-0.345632003510393,0.3409207267556915,0.3133657211078492,0.47099705004520565,0.1610210298416099,-0.2463129922870431,-0.27101891357929586,0.09101121898836148,0.26321813308414455,0.19947953195639148,-0.43161080525326845,-0.3488476285585661,-0.4235693402682177,-0.2846001917431036,-0.36611233878414273,-0.6761645078790524,0.4080683332404289,-0.05725629989915548,-0.008520937379356183,0.18080147363260532,0.2077030117543218,0.22167966773510814,-0.3684444104989152,-0.06752560582948393,-0.4291177597086796,-0.5305456576157266,-0.4853103035464005,-0.0438691145017215,0.3556925909591322,0.01927143176456922,0.23981372875100224,0.14132253359830557,0.24831175765568292,0.0061515175132906075,0.016164933909673523,-0.12268420694936608,-0.0324040614115171,0.7325168000665883,1.0624033964898967,0.7413998744128312,-0.013823106972880797,-0.33403413382267444,-0.28563902137483677,-0.04784098466967669,0.23643364407097042,0.15587388143089906,0.3587849532313172,0.1906970847474028,0.6300025995393967,0.253767735457527,0.5787741850665711,1.0001449472689912,0.8602702349175833,-0.4040127382860009,0.03788977452990669,0.09887323040976495,0.19256722349354302
0.28691070465768176
0.0029968663417794016,0.0187125106961932,0.12449260914781236,-0.15449780855887613,-0.15816376759616685,-0.20494914975838796,-0.14357672144296674,-0.04459529431315361,-0.055197749657273976,-0.07864413273403585,0.055436511696694446,0.1004889368872061,0.03465811150799537,0.1620052174355356,-0.2099276743762412,-0.08329733987450912,-0.11069491027869134,-0.2588733324485945,-0.0627845253272464,0.21211336211232779,-0.17282889864791623,0.15948325361343596,0.1982611095480456,0.12278454231630533,0.01632393097031659,0.17793412211247112,-0.13045228733425096,0.07411487216773739,0.1690122557916054,-0.8686564475748717,0.009497773277697748,0.48612300278455584,0.2548258916035589,0.1980756672169351,0.20861514688415844,0.13776508641603702,0.10712423835514322,-0.10060204422686077,0.374997158661917,0.47384591191266684,0.18213150375829779,-0.3655792385209336,0.3336355666737891,0.6232883544772221,0.5410527786899404,-0.08003573548859429,0.14040921748012203,0.1323043991195541,0.08067000728084238,0.05267267729560625,0.219823688768631,0.38832740051045805,0.21907908681657356,-0.414438679616347,0.206228977140331,0.3037012975798023,0.23610814869308588,-0.08533017641576189,0.21967336326459913,0.11875040036880315,0.07253445998433984,0.09347973804509248,0.06267975809477724,0.11778134443254784,0.19763897005018022,0.2617008788905651,0.5824064848089183,-0.20185489020349517,-0.23503060710689588,-0.09972145099568529,0.1927823539743534,0.12964006785425575,0.11845683045817858,-0.03758492574966232,0.00841534259696381,-0.20590706931721758,-0.12598923588585162,0.4096224666282107,0.14952585829480952,-0.3562643023762196,0.003745944936584363,0.03843826820925371,0.1235493656407999,0.13370706585232645,0.12256617837910751,-0.06669109066029608,-0.24684812576082674,-0.1326541737930267,-0.05743879417599701,0.4537586546668783,0.1154401039083705,-0.36367913580345496,-0.15398231480545888,-0.007793996250382963,0.20346944375354165,0.11962197660878783,0.08197771670546523,-0.24106371476424443,-0.25500829276187703,-0.28306794580301936,0.10348320888153599,0.36720719227280957,-0.0900916532275499,-0.10144977874768941,-0.36418573806237003,-0.13389402519531435,0.1385949623317393,0.12612279131714366,-0.05145167696884144,0.004941789250192144,-0.06256812521283873,-0.17913447166576135,-0.21597244552789696,-0.03784536784182224,-0.13952891501007342,-0.5149613068533359,-0.5263315410066681,-0.16734344004889357,0.21084522830807778,0.12533727462298927
0.07804353179622915
0.0850177602834008,0.020253705705279075,-0.0016725073338708838,-0.0855529229903505,-0.0039515232020441386,0.01950809625510276,-0.019957690030407087,-0.0742135311904385,-0.006460321680115833,-0.019310126756431664,0.09014163730488878,0.173034568881183,0.32098728276096933,0.17882221953183178,-0.050486830835777506,-0.16773074041985278,0.026594608863628244,0.056995083214012525,-0.02483883740495426,-0.05252616622978217,-0.13537667503299475,0.08792980421055516,0.20147042984376587,0.20830018067414227,0.2580622236589875,0.22242997840020537,-0.01690021003086324,-0.1563064324290763,-0.03634281326753385,0.10619802764422376,0.12243768162740407,0.004708877410891552,-0.12395571617264128,0.07408298540075484,0.14457868077414252,0.1694698180726009,0.17820687337680194,0.1465038236210265,-0.07414709504448294,-0.09281592790510332,0.09077304380752732,0.15099201452708502,0.02716613831382944,0.018315706576973338,0.01864323129655035,0.15742495126300413,0.15835982363105314,0.09905959214209495,0.09998604505353445,0.1866750780180995,0.0010697626929651663,-0.1389901711722362,0.07698891578255906,0.035617212225418596,0.13861229705254968,-0.04233024924305051,0.06845367416210141,0.06761862995316517,0.1206512743098749,0.09254231176481686,0.1178376489399047,0.18163243229483808,0.030619112174915995,0.01857072486280631,0.08194042286110453,-0.005256809217255123,0.07346358234938688,-0.0019488119326059672,0.014087216297984054,0.09114751497305912,0.09340587810504156,0.05332854956745118,0.08689733956467971,0.0576901186725897,0.009690647504390998,0.0938014658261622,0.07301614506846801,-0.014454073434429601,0.05151112830873999,0.03594749570404467,0.043299936019676626,0.03190669739922626,0.09070191703996988,0.11248552704234469,0.10349274194047822,0.05573881411871825,0.10336674878083321,0.07988776847582407,0.03878690141492367,-0.042269439480372324,0.030960227392834078,0.08924562869818536,-0.041054408550384995,0.029489161885532904,0.08847594294852232,0.05976193642930957,0.07413954012354754,0.10292832207069533,0.08459344179363412,0.10762396506443109,-0.07214554257207553,-0.07720558228119168,0.029970805494396926,-0.03897037702471959,-0.08966546722388513,-0.018814162838645745,0.09290493925237878,0.026912234930352774,0.08789857301226395,-0.04099174570062764,0.010732614880874099,-0.014388797975785175,-0.005924355649249745,-0.09776066271528161,-0.0366197207963461,0.05471791083854705,0.011579603028449207,-0.03758112721317714,0.07955470103458351,0.08526666265721264
0.07899080671991854
-0.043447959712948014,-0.048392385847141534,-0.12213362138816197,-0.1041203021718966,-0.18775135284972533,-0.1554124730466125,-0.09413951866617515,-0.010673370550461372,-0.06047656141768944,-0.07639463673744079,0.01662451940575241,0.09017152137827819,0.05643321878070755,0.01916423101252179,-0.04663616652786276,0.034608253001380526,0.01848876330144324,-0.13135958817104854,-0.26229809614300414,-0.08420590199234276,0.11485413105229314,-0.02073164015095807,0.1463032675360163,0.04029339157259931,-0.0374904904548176,-0.026368011277605272,0.027432682519365734,0.3465246817331252,0.6170769357692671,-0.06418866587032661,-0.0925655039377555,0.23419630433787092,0.22488407961198914,0.17120938333926117,0.04225048474243201,0.09079810222172022,-0.015078858100979704,0.031918487356938016,0.20451817099329994,0.3085606860423283,0.6621879023960855,0.22674518818433032,0.14659967089484166,0.35812604898290373,0.3191112868682427,0.03985137467445739,-0.0025039771570285127,0.10015248521182446,0.019913419326384522,0.07158592450726994,0.16746726942062157,-0.23994521651796857,-0.18937208298365343,0.3394074054127975,0.017688962951003005,0.2464575722617699,0.11231312120645784,0.0598472754596054,0.12697844404403047,0.05405299541834785,0.058745038499930416,0.08691635303175005,0.1425566234304546,-0.19015574334986657,-0.5342066422747137,0.14740842870121773,0.21494367893971722,-0.13060197197656412,0.21997005872053804,0.06742701824138816,0.17750026887737164,0.06765684907872185,0.07721633892333268,-0.15597021733748828,0.021626995594043654,-0.28625728566296854,-0.3171753679821581,0.21689192251551287,0.5092486745194306,-0.08647781410811364,0.23979895001634866,0.3350311727672461,0.07195870808774052,0.042598624750209466,0.1232764502571517,-0.03416191610462818,-0.04922822025053318,0.34093423122247307,-0.009412287399223809,0.25462432961994397,0.29066308238439115,0.26580590485542116,0.05902645677490226,0.1274307976594548,0.13830231520211295,0.014584588459907798,0.10295672240958595,0.030811382571234083,-0.11264171840478138,-0.07779523121245382,-0.04810362635929498,-0.19673027812905325,-0.04038932024166275,0.15945537091332335,0.12312718686215422,0.04109280112710313,0.10013017921905495,0.07879350773721186,0.053535141240321646,-0.1007869081268262,-0.05110316083391249,-0.015633760718608447,-0.06361197929077256,0.020183443007030778,-0.12291606272086661,0.10153855629769451,0.06628312475304823,0.07242949078602556,0.10782945946743885,0.024670431260241193
0.05934592686659532
0.12485991087883246,0.1315041252711443,0.4450366482894816,0.3292209225266229,-0.18869869545855847,-0.30274403468573846,-0.11209456259364851,-0.3510075398169103,0.0401934463188338,0.1971435081480776,0.10335899203352224,0.03589429105840333,-0.2543279082098689,0.12668810230390987,0.14554679529523776,0.11064033626392318,-0.18283669261071958,-0.7808499334690915,-0.10381772599515889,-0.003526065849836351,-0.0981191157769921,0.11697746337730396,-0.11211891623563584,-0.050416778812936894,-0.23661435969519642,-0.1438953645555438,0.19680282644138045,0.5972595266353586,0.3591689242738367,-0.48106695703736263,-0.1271513316770745,0.40918799835223457,0.30026486539779845,0.48427851356799767,-0.06782465184178672,0.04589370041038937,-0.2046364770269076,-0.09436199636214775,0.15641477193909678,0.3864898844153191,0.3918631416204757,0.1853209734987378,0.6799094065535118,0.09059979310364706,0.31424851637598866,-0.045704336165766496,-0.16401654160882587,0.05199442301932615,-0.08367834714665841,-0.18227226929211696,-0.005883988991884883,0.25760720376447166,0.8196991486092748,0.30570172887589714,0.22572550593597393,0.12494866811574828,0.40744147252523627,-0.06951739032738023,-0.06344663958435821,0.11421757923020685,-0.03487686860231199,-0.13676730318943203,-0.15663961466430829,0.10835223501670256,0.6756744742803114,0.44036143803626177,0.5675781915162492,-0.12270820937514908,-0.03212867169880804,-0.23434413805193396,-0.06012905861022566,0.08749963003788953,0.03880598038694412,-0.16113612379867356,-0.1609266771554532,-0.2287993890261982,0.1817796184997886,0.42750038811409513,0.7579068732725063,0.007987702169823179,-0.05581923857917573,-0.2610788763382673,0.026310977566024324,0.10858404274788473,0.0816445066346627,0.035830950859515126,0.047625552264177556,-0.14923040004015065,0.11806505929665582,0.3831263879673447,0.38154273639940656,-0.1606891473040535,-0.2847114667737289,-0.15728044690684204,0.10305391606348978,0.1515276270924439,0.21298118337361335,0.23129540573944893,-0.07727048048905337,-0.1839458742349905,-0.9036370341326201,-1.4177146057569052,-0.8841494460325083,-0.20910022553742044,-0.006328674627783639,0.146497047090369,0.3436464237631773,0.16738457503810725,0.18417484766224365,0.15283652803781142,0.26395836198417666,0.2837086083667642,-0.6401297417644376,-2.2730032350406697,-1.0266057848413546,-0.30176920252742107,-0.04687155524630517,0.12831211438382972,0.1751876990383792,0.17204344916186934
0.08704371984189459
-0.0011246062979514426,-0.16170999864093713,0.08347493744447766,-0.018292009116494496,-0.22517960924194322,-0.37418114935457475,-0.22683631771708543,-0.12336791111340902,-0.07495584314777182,-0.007161931640213841,0.05574592382924043,0.03062287294575115,0.09819508055384116,-0.15935998780608088,0.058776135195607246,0.1857464444477502,0.12072222218494504,0.3389154819720505,0.4388632338505542,0.2989973615680958,-0.06085335388078009,-0.2328649680636352,0.017766858272744514,0.08328917948780722,0.03796378941311304,-0.005135104963358557,0.0706328501124555,-0.11913862548259971,-0.3287178235736214,0.17475817311816902,0.1996120028461871,0.3991278630304546,0.0033844505151207995,-0.23529634025277651,0.10256738639669885,0.022930158235077765,0.035385554234293196,-0.006912100914663961,-0.26078720394536875,-0.25202153277685274,-0.6843677155036961,-0.2766855909579851,-0.7186119652585946,0.06551349198124451,0.3733728360990896,0.27751295875866827,-0.034118291809068196,0.08086204159167625,0.050736582089137644,0.015200131761489367,0.07467584441123533,-0.21152575562342943,-0.5058515008963977,1.1826971535082966,0.19548440524022884,-0.3051207165377707,0.28944541755942327,0.12774470179753972,-0.11252867073809653,0.09532822089842705,-0.008305784650845433,0.06015033831382817,0.22315393043303164,0.15173365527557994,-0.0872557452752099,-0.22638028018015802,-0.17179222414357173,0.5257098917405519,0.7425718931211719,0.4144315671079683,-0.004555443915450377,0.06497332690027968,-0.018049323694647967,0.20093464575095557,0.368532616810824,0.3719532343843656,0.0637968754866394,-0.4374067162509551,-0.7940592340268368,-0.10526688290790298,0.641377933595546,0.2391226364000063,0.07667245025104609,0.10414525434871308,-0.06134712072289611,0.08558776042900845,0.2927717175352533,0.1888381510717014,-0.5560439822819169,-0.641224646930537,-0.7280168705176727,-0.03883181061232426,0.06428630072699686,0.3234367059319813,-0.06310594568270234,0.042340507800740876,-0.17908941405357495,-0.11898831570792258,0.09380988074445093,0.022378310029719392,0.3884987278901005,0.41638917375248125,0.4173480810988181,-0.13986114349024306,-0.6669857764619679,-0.1837134670601289,-0.2229427823257619,0.09005490161606991,-0.09450113319500592,-0.12731749949316176,-0.17403969901057395,0.12411277573881206,0.37557079848975433,1.4871830358757283,0.5283664203183672,0.3984969921836901,-0.3754280950998104,-0.3021434646730187,-0.07723478999019734,0.06709827805904031
0.09266139378828081
0.0822641954813737,0.09204705370456304,0.11729684189904094,0.00875902230169459,0.08923570246272441,0.009765809059881938,0.037786404143524806,0.19645228143915242,-0.06181109409295655,-0.020603002810605144,0.07017822626793002,0.11819648772357422,0.14858013574846582,0.04087805512718704,0.15932272873250022,-0.08605172463842731,-0.27970687887642476,-0.45796226834168097,-0.22930463541955978,0.004425518593253365,-0.16239052510868632,-0.11627315456997586,0.09581071113981643,0.13113615549848093,0.07578907638552354,-0.04089483752448734,-0.061624081078578856,0.1300036330145876,0.1190240582179973,-0.485994944961863,-0.004798615850997827,0.4384678504168862,0.12504058020198458,-0.023776835874006714,0.11704649284748825,0.0928650423801578,0.1512613668427911,-0.11545955091936477,0.04614819866225176,0.07227783597642207,-0.03760909434885434,-0.24874563979567468,0.12092560136918884,0.3937923240596026,0.18106514500059148,-0.12185841293350336,0.07619011722383548,0.17476259166492117,0.1309271357619192,0.039452988352006814,-0.0737413739515243,-0.09262546947114131,0.3957518256428837,0.15884884800588175,0.6262254543869189,0.4028187612030155,0.041983685124852434,-0.015060575619565463,0.15315511438070314,0.20285573364625578,0.14719973358668506,0.03698019976012835,0.05129855418738232,-0.24024930199331188,-0.1792352935928889,0.5740784122419783,0.42886545318385294,-0.46466076572632264,0.15110459829677228,0.0042890680989283135,0.1513403870997941,0.17699524221107035,0.11100244778407745,-0.04557450375852622,0.06814376921637927,-0.6329834874902053,-0.2498470565167312,0.29834300786209467,-0.1516892086485899,-0.2849432060774141,0.15818810069501352,0.008481519567193117,0.191423215354963,0.1674813772461585,0.15144556447215887,-0.03434186384394617,-0.09831419883822479,-0.5311724992954027,-0.14911521802003572,-0.02405419367743108,-0.16925362352074294,-0.34529121707913146,0.12735551747554424,0.11121066630595408,0.1052004265537784,0.17618504659983433,0.13685919733553206,-0.14995818063175156,-0.2001296511077785,-0.4571823894376075,0.32617269289594597,-0.030926706449296775,-0.09688849879897654,0.054707674719103934,0.014588852881398188,0.09699104477502021,0.07299374552543386,0.1613182282781245,0.02418699093646332,-0.015018399289526856,-0.18207777451493132,0.11397633940922416,0.2370991006251781,0.2469303044860854,0.253729934171895,0.18553854489514734,-0.11168091335977182,3.1004723067182434E-4,0.19016580278470366,0.13094004166994186
0.1601629229457868
-0.01345116138654898,-0.08821084094304082,-0.08987127677191731,0.761113677406066,0.059814607333203394,0.3096327967697234,1.0134184683115295,-0.05879415089720844,0.16715813009829528,0.006688603473413407,0.04085451708089064,0.05456042627567468,0.1651080348661021,0.22054080798917852,0.11703414166474141,0.5196360883808698,0.25928312272383097,0.3923505401851473,0.6218045595288374,0.7840826904456256,-0.0383943766805783,0.025356235548505402,0.00291606585354458,0.1074421681253829,0.18989211754363305,0.17589480615189246,-0.07741708961653915,-0.22382151649172255,-0.211872299971819,0.3517075487088845,0.4473762270436756,0.42185828713867374,-0.09566886398346969,0.2521709330036817,0.1519709422258046,0.08188940169195982,0.12295521548531618,0.08912479150445621,-0.015245384238767274,-0.23009210396946633,-0.4530477611845784,0.10657686727871235,-0.06943437304567837,-0.3551695893064863,0.20182354651290868,0.5795601999208847,0.15005993052269373,0.07761574158561757,-0.018378541097658237,-0.014490203933341973,0.012825585728525149,-0.42520285693143706,-0.5378603528957314,0.46777623379734173,-0.6107665163626669,-0.8671117469357311,0.084161528918487,0.5013008833008771,0.09510639465018922,0.02873038865650571,-0.011972099204783248,0.1252824878807615,-0.03048527509828394,-0.20136551669470482,-0.4159083175677159,0.20081062069101469,-0.663762027682279,-0.7902525540187041,-0.20325503976837705,0.31869221530050357,0.01563029523812588,-0.006228602708875451,0.0572662952313898,-0.03571251897444832,-0.12164590141958845,-0.04737466748049337,0.009862938463152409,-0.06449878725319458,-0.21116889373249065,-0.2813494448930505,-0.15576503064780067,0.233151717263182,-0.011902482572350359,0.0660844091430732,-0.008156222566110654,-0.07275605709230543,0.025886467471453966,-0.46368916936485066,-1.180016411709486,0.5035142179892175,-0.20947330628221178,0.025100685493328296,-0.06119702072956576,-0.06662169392776066,-0.007292826795350712,0.06340751406090918,-0.08598968833770473,0.08184899171512955,-0.49386020559478955,-1.3495222030185887,-0.7561392422195851,0.1912793341320539,0.6520576048017682,0.0024953329048311656,-0.13777610086304248,-0.1658129339196216,-0.08915714425677157,0.01690353789039131,-0.018221746361550047,-0.15829275596085213,0.10740431559510341,0.15295223955328124,-0.5805850725934235,0.26047551584326906,0.39188306446018845,-0.11276988428974272,-0.20598345003710472,-0.14014826010666803,-0.02902946454973319,0.05417526088822156
-0.008500072895880778
0.1130805036410666,0.1446903195055187,-0.03962801863821123,-0.08869079438500453,0.21062625419880232,0.6838225559166985,0.43859716990268216,0.6138475829339675,0.7782832973495043,0.16437956724877018,0.1921570361777814,0.2265828097503213,0.20903119882635435,0.07625869644621779,0.4310932001793587,0.9567489827317773,0.37013523325246955,0.8922330101908963,0.3420876539743938,0.5675521124027948,0.8497332412759718,0.3559087540648723,0.10987638351150332,0.28596131876120023,0.15065675923557192,0.3428662670849183,0.06732547221361619,-0.28978228094314773,-0.2044517530977636,0.3443292233304691,-0.23376192287319125,-1.1694426264472342,-0.3431142744684408,0.17928697243062525,-0.023948541619753932,0.191625100431093,0.07160331911564556,0.17306121795277102,0.2626650895356315,-0.26251847981152043,-0.15004851750250092,-0.133350750064478,-0.3261629221011393,-0.44384349969430614,-0.42602229624349763,-0.28649000941037817,0.019448136625107408,0.22303990391664963,0.1536895482719614,0.05415549264917408,0.16203131846116714,-0.04572552660326117,-0.04053956224889071,-0.20249791542478812,0.7625005902785821,0.8174430502796391,0.005063173164329502,-0.30590159817121265,0.015951593244913825,0.21482881731250364,-0.010203896837243983,0.031770680382608045,-0.022778569335409324,0.19227151960029376,0.3774999894727682,-0.38020029837312874,0.7477180881088626,0.5134290538397633,-0.030883825416074782,-0.360950514854974,-0.01701841876144879,0.22963143397874825,0.11968243192053545,-0.06962390136043524,-0.3118403650871753,0.04008197014089137,0.07016878901111955,-0.6171760824596436,0.5059578969810409,0.05083988734891249,-0.8016337502919065,-0.49084138453205106,-0.07230087691599237,0.21166700025607688,0.08949228735054142,-0.12504030776702962,-0.4158821764272609,-0.01882373986790764,0.47004624296338027,0.2818859175309296,0.3401957537664655,-0.16736734822926197,-0.27605104200038066,-0.24314803499069282,0.030000167659537856,0.22844256487269876,-0.1017985189107347,-0.33804418815758197,-0.43210593122814045,-0.17438252685581684,-0.4410941753821038,0.027873630810264192,-0.5037958529774088,-0.6269126021662729,0.09997483140877896,0.13751907250206225,0.09710238968361111,0.21850975593224975,-0.039987208862920585,-0.3436195023756441,-0.4148203822818123,-0.38636602208364956,-0.105173441412607,0.18199653973699603,-0.5554283018453327,-0.2725050870294591,-0.22146258261675544,0.1903884560095051,-0.003888320849376082,0.1660353964774295
0.1672123797702843
0.02894214480286746,-0.0264826367028422,-0.05268587327693284,0.2733133756662898,0.22192465285256036,0.17476757560920952,0.2590640636402813,0.22484850332049233,0.16339692910985815,-0.0627765610923242,0.030512240658321057,0.1124035906520261,0.07587166043458937,-0.12617788492056986,0.034154279509894254,0.13058170830030524,-0.04538019098115053,0.015368532192692488,-0.07491083567857043,0.18472860764580024,0.05052599068000382,-0.12051541215383305,0.08494412182925143,0.1838211545935629,0.07324174409388562,0.1208674139135903,0.09583616108220935,-0.1522958848938829,-0.015565495438829272,0.06301072269345492,-0.11399349604594011,0.08688669014002351,0.0596907729410922,0.02144219682039743,0.09938278726299016,0.15530163986007783,0.048204825022277735,0.22265076963857855,0.05136766132685442,-0.17198593970137593,-0.16413255141647448,0.02700748153600833,-0.13280187096577345,0.03849855811622468,0.03996701742356273,-0.05914555397364967,0.015126293028038692,0.15193619487235538,0.006634621659733436,0.13201123528207948,0.1184117407830648,-0.1755504945031356,-0.03521311702822249,-0.01843090586548698,-0.028430095103804977,0.12081115541941455,0.11167648801326682,0.002501812898220243,0.06370981623104315,0.1437439298651491,-0.03797608959052335,0.19230781895912036,0.10240204982291867,-0.06152262815241163,-0.10131948864408483,-0.030409366601492,-0.06057319868411538,0.2209252127181942,0.14988785698024998,0.018764538330075225,0.028168648712258545,0.21353337381321535,0.09620878739503272,0.07725807660497092,-0.1012964108618373,-0.06333241152831692,-0.020068823691962275,-0.020837105947792315,0.004632000255819622,0.13524039721600883,0.012151330777929754,-0.10358011029982792,0.09674491093147711,0.15384594296297172,0.08332157140871257,0.06324185708748395,-0.034853064065359395,-0.027034076332892325,0.08150069064667814,0.18830372948041635,0.037073054751612315,0.11642458021639299,0.030020115092761788,-0.09099958419608428,0.04686289947610319,0.21524734404944706,0.0796277490329371,-0.053416215529502424,-0.04629097257356964,-0.10959863357580549,0.07002744079296473,0.11905767135828932,0.03843849199112175,-0.058278128584698184,-0.052270678152343035,0.041499224350158286,0.045923588350499624,0.15001835544922687,-9.933320174027583E-4,-0.033037024841190095,-0.13644906613440438,-0.07196591810131665,-0.1289095450121589,0.11614882756703926,0.325691496333911,0.3226386263341355,0.2833465337654884,0.3385501715665013,0.06710328861880817,0.15236161206383697
0.21166077149070744
0.07225198562526584,-0.20452365766294048,0.36515977741030226,0.10340801905181644,0.045496254842985764,0.3909977614468737,0.6931621449122058,0.47601396183578026,0.14502433835386772,0.3040596041843453,-0.05331458550346982,0.13474566520183864,0.0237672564079771,-0.06324645260588677,0.14555720431387417,0.4792020189046853,0.2174775809311845,0.3516314693456043,0.6322544454873558,0.12678592102982172,-0.39221110906001466,-0.3814343529337666,0.029278188713053262,0.11083429102346797,0.05156416772625104,-0.11082697368041959,-0.30460140537836466,0.1886603373906148,-0.0834457137548728,0.21463758425855514,0.43923099021165113,0.2677558477436156,-0.0011760101797064458,-0.023184983204762807,0.006195810576768562,0.19863733148488352,0.0407716971302433,-0.24377441451637705,-0.4826631902526126,-0.4448745011884061,-0.1113754604163437,0.07249396603717768,0.7512177118597188,-0.26196535277458755,-0.07798233445821139,-0.15631293636766355,0.08164399987809558,0.24545298576501098,0.14803806837633568,-0.2688861164711157,-0.769736282173143,-0.718127799994533,0.20004900123069305,-0.1348469505518269,0.4304111073826522,0.5738980876465782,0.024491778727512178,-0.241632988239643,0.10628814065226543,0.2181038966589626,0.11752499800565926,-0.31166148616440426,-0.8079592675527505,-0.4892635094967305,-0.14541776769995826,0.34751788387272486,0.06693505705320901,0.35259567109706547,0.17208335023794183,-0.26420698764433725,0.13069022640984582,0.22573172192819954,0.1791201197129523,-0.30759935286441653,-0.10954677607571596,-0.04783775413559942,0.1705346573567895,0.5488905845160077,0.007900170770524547,-0.10020668303173773,-0.0766486883437048,-0.06336458823439768,0.16126251689114343,0.206361164473178,0.17792031695386193,0.1717909441434546,0.3431677795515722,-0.42668163864498465,0.23603826122133528,0.029035373522409414,-0.6861775942756865,-0.6108385990220888,-0.17589461128899933,-0.19761956725646804,0.19351863862448607,0.20351001011367878,0.3066315660896042,0.5627562415598182,0.45466173179572544,0.04893681451996555,-0.42502891721886704,-0.5460921166759742,-0.6714190337078687,-1.1169693899842479,-0.4393954854498161,-0.19154080190128228,0.1473295348766742,0.20388713318852167,0.2995565970780276,0.2154231665976262,0.4374208810846859,1.292197422475543,-0.39600566939862203,-0.7297537663281999,-0.5705827225262368,-1.0334189230008406,-0.8917477843564503,-0.15387063846785057,0.23717451414196988,0.2067072610192454
0.23329534653733056
-0.007179762810881351,0.17822414622075283,0.04727274451018957,0.10955824921165054,0.0834420927479121,0.07989662824885237,-0.11670560695375899,0.36176295718727564,0.02816458639950129,-0.06276410432396895,-0.1379825425803014,-0.0739664341186992,-0.10007675576647294,-0.05079110244406302,-0.048872907386552235,-0.16264717840067666,-0.33078624469231094,-0.07452438271439683,0.12011396447883209,0.313370839181401,0.024941310103551127,-0.03133580515303088,-0.135318334978424,-0.006402754217035534,-0.05443277764477026,-0.15047546454481103,-0.4930324221360763,-0.5456279815755293,-0.20891718004658727,-0.27413615349053416,0.05014042914952425,0.3198724468274044,-0.11545054803334791,-0.16800299044463907,-0.152863831258511,0.04179674441336447,-0.06163224246899856,-0.09289556108799733,-0.5208503708951024,-0.4437813728203746,-0.43790820703481886,0.1380107646291835,0.41066157057972646,0.8152933289478691,0.12113325736946452,-0.07694549534697044,-0.11463918328003907,0.04864830104001664,-0.016438080426631908,-0.2081983436876279,-0.3328435839088794,-0.40718219386419,0.025346137254440536,0.12258053624724437,0.24191506854908051,0.5803637155474234,-0.35919373551739225,-0.23407254087064577,-0.12690106983285993,0.14865259653574925,0.06475601923452132,-0.2045542993819568,-0.08558423098805608,0.25176427776451166,0.2998649793961355,0.11154557167987177,0.3512357651130678,0.05660601183714304,-0.5054739292919254,-0.30702425290677954,-0.09215461005879451,0.13317994801492294,0.027028782259479536,-0.17813892701858847,0.30634038239748723,0.611515893760065,0.5922774633454496,-0.007156378866735863,-0.07705612612271183,-0.14143672361672632,-0.28685555090737885,-0.22805658205247803,0.0920517919488522,0.06584955818880307,0.02630909077708321,-0.0347444896829014,0.15388780744631336,0.5168024753047437,0.560466074229193,-0.4504222649339639,0.09449215138631716,0.2967644848271454,-0.17605129854282997,0.05787408921333049,0.02425421271757639,0.13984724122387915,0.06805605121646131,0.5773299708678815,0.2161915081830802,0.2578132695196324,0.12384624053983974,-0.37108066311429916,0.12004411958392829,0.33684201961920696,0.2603727071218597,0.220274109375604,0.17093098722062233,0.08979233198488747,0.14408123343708984,0.3753351428850031,-0.0561786441960603,0.016915508223857297,0.08824728535176506,-0.2979219292252974,0.25439790808250634,0.8171740502453936,0.34849142674535244,0.09173944919006068,0.10840973748119555,0.07694418801334187
0.11551410638701486
0.10671547097736304,-0.014307606246542653,-0.13659004186426665,0.2552886394697984,0.13733466385950088,0.315151827676524,0.3155664341124345,0.3436635851575535,0.1366043572119523,-0.16202511871740854,0.033866748817077706,0.09165829425336754,0.12180498222547188,-0.070905992715413,-0.09654417672368205,0.13150592544582107,0.006864858090827144,0.09067905285685444,-0.04656104725466664,-0.019681331353040184,-0.0673092523037145,-0.08928622378918753,0.14606879116109783,0.17368031513994792,0.15404481838837647,0.06842080660813767,0.018083210822377488,-0.22894753919350064,-0.20210571859012771,-0.04555401132242046,-0.10159570114743825,-0.02087554938771148,-0.1948312330624386,0.053177693693974765,0.201216780512893,0.10516197447652341,0.06598579391242944,0.20073825844490056,0.02368122999531269,-0.11671181294101989,-0.23350927554206258,-0.06218448929514994,-0.16481491941091742,-0.07163204966673987,0.19052568207784315,0.18448709747619052,0.18816211285627826,0.04988646643169892,0.009419881907089383,0.017302878310553306,0.1608979343610184,-0.1283388290833149,-0.10873568265060403,0.05097441466239046,0.02479375618260979,0.031103835481258106,0.19865752184421737,0.18505034824260141,0.17721800481551186,0.06716169952347291,0.019522218524446223,0.07810624303442125,0.0984339659934572,-0.08033284598501582,-0.14717219257413328,-0.09146907894340027,-0.15589996713788545,0.09778457535732978,0.22379494722210497,0.1887327435411989,0.1665695264638754,0.02092615733580356,0.04884333416827122,0.09728216094193771,-0.059275212675402325,-0.032551353748424994,-0.0694494171406538,-0.1440405961069669,0.14631459391557788,0.27507981345174876,-0.04752997574341873,-0.11977727709944753,0.052899630443008716,0.035139614619453155,0.09008723241516935,0.04952903129933629,-0.16082099364253638,-0.05140514098857321,0.14621476930977462,0.40851747255693877,0.24682272769491162,0.18887996617565372,-0.018306386002264148,-0.19276614587991253,0.008989325536876305,0.016663736304846827,0.04045478031823874,-0.1002300442146289,-0.038571823942073855,-0.08896104030345849,-0.09599423799016533,0.10863658786359946,0.2010180935948338,0.054204709769057585,0.20841894955152035,0.2356534024528799,0.022764533490707138,0.018689163104054614,-0.07983420538025714,-0.21862494299044616,-0.13159873411090317,-0.18327543729225704,-0.4316581319750485,-0.14666966367433232,0.22370391055728694,0.32093933952559256,0.3038475210649864,0.3749740601619857,0.10563502995556946,0.05504994093866056
0.020805263205382875
-0.15495696120112418,-0.1508881127616858,-0.2765761428975281,0.27845057052805267,-0.23499223530420893,0.02413411212369492,0.8165687343861142,0.25364643763023453,0.394989439031491,-0.1147518617927574,-0.06738703169439503,0.023866709943674062,0.03762568983529241,-0.12424645419107468,-0.2128997297981038,0.12130282427750466,0.18349849785984712,0.4394664557115099,0.5440991518907304,0.7463734200306055,0.21733952296997539,0.14722509066518608,-0.0013706783358628574,0.10413465686458473,0.07126259967239174,-0.037617220362161086,0.09976192507549383,-0.34572494614646765,0.2535980515384827,0.8864239046123582,0.5969200328772436,0.02992593926056565,-0.20787047444786932,0.10513138101350442,-0.05329620632319709,0.023717364946241992,0.0903100058417042,0.06480235553346708,0.15079760264939218,0.2131564264209832,0.11693813388103347,0.015133993644661954,-0.34056384674713014,-0.7446438498044893,-0.05111971636789317,0.10277268168749742,-0.09641664848788073,0.1190295035377428,0.046434331616553845,0.055789113963661166,0.1238912598705319,0.23367158211955985,-0.9479902592043544,-0.4222834593083864,-1.186427525277708,-0.9947916892410805,-0.031903653539508865,0.35457944994644786,-0.04307184445568275,0.10819261780479303,0.07462785606270766,0.15603766190152035,0.14122419626600774,-0.5321567976862297,-0.9962123425449921,-0.17168617591032187,-0.2963549841305506,-0.4500700952802269,0.46507052110498437,0.340215712053197,0.01051880865624505,0.13529894625652533,0.007418944531628071,0.029670293219453144,-0.024807033186068264,-0.8525969435369601,-1.1890754138815625,-0.17464597514567737,0.04740687509644362,0.3591909203673025,0.5600754427938158,0.252030201837323,-0.024804695313290284,0.12817215527045683,0.05857867307185376,-0.07550767151521295,-0.16305468441995175,-0.5550086673025251,-0.46055469488610856,0.4116470228333229,0.18437048885889823,0.645331089828025,0.15904523377652974,0.005856819977025258,0.04863569292994403,0.050189511863451414,-0.19913673888985478,-0.5459255291393589,-0.29554282465870474,0.11180414144675452,-0.17721843016316002,0.40166118706597553,0.03156805116511815,-0.4832136133268091,-0.14265070707346006,-0.08310379932325049,-0.11362592725965465,0.05800204048255199,-0.07992856632915402,-0.3423107390896516,-0.052582220022935264,0.18537293205590327,-0.09462316850426616,0.19951422537705432,-0.00396335769685346,-0.39099246216014527,-0.728440008561071,-0.12428686856742117,-0.037047875190059476,0.13325575331890993
0.058593694102668306
0.03949762838079207,0.10745482141537731,0.4128949601335884,0.21763354904536458,0.0386120009555901,0.09089745617323984,-0.2676366156490195,0.1690276912096751,0.4334569572413547,0.24494668019997423,0.1653219400047301,0.04273118033811052,0.07225760937223406,0.3647014004609669,0.5453176003911046,0.4754466448625778,0.3140972954524287,0.3473108666966225,-0.056528193412393846,0.02959960257334449,0.6615986941225923,0.5872888549164673,0.13241828749260426,0.08569685882641052,0.03698901527804743,0.28055094184541773,0.20041242946277826,0.5015885831614995,0.32494304833149545,0.5600621063711301,0.24232398786049725,0.3090528326664045,0.4594612934257337,0.6087958909721537,0.13289080756139404,0.0876598145658861,0.0695515797172206,-0.14211334354305105,0.06363759335357336,0.09643318883720879,-0.10005797650187352,-0.05950247592916892,-0.015770637568405365,0.011527304480088716,0.013212353678706412,0.001024097223515129,0.12516164995735352,0.05400593101351965,0.026675961246502292,0.05746913377764763,0.01555271718022395,0.19415690280740916,0.22733135859607506,-0.4947645179454993,0.09106293428089783,0.2939125082818296,-0.05407887826170939,-0.013001297843481746,0.16437472162787237,0.12009475926842937,0.06892060285521519,0.05554979834758293,-0.2350497581200453,0.10393562629240465,0.2628909032255468,-0.23187586915854685,0.3913901126630066,-0.02353477647286187,-0.32194221655423383,-0.11572445289229043,0.17196206418099558,0.14233325348349396,0.10546540616393991,0.008641711423124017,-0.3599340273861056,-0.18717794944265304,0.015662973691769506,0.10022901629578389,0.27703868595316805,-0.38477392362038065,-0.13404723892844855,-0.026228170072436,0.11712933247289249,0.0501511134415943,0.10042752556182195,-0.06734216197893321,-0.6938417274685865,-0.11714051234816576,0.22055730975052645,0.15190915680729594,0.43735370583064104,-0.6468379624358757,-0.37706289660489967,-0.08445965208599286,0.11746690924315774,0.05219042637098778,0.09223368877948986,-0.2125083814766967,-0.5257471169616351,-0.3710015639608345,-0.241979094436229,-0.25549416855651075,-0.360315160184434,-0.8256503831274061,-0.5125898480097957,-0.24278421595940686,0.09272246574632366,0.08017498522481249,-0.0010923723017874293,-0.08549970010832501,-0.26138431219268554,-0.4551206290057762,0.20633074790086725,0.47839812510859847,-0.8475805831557895,-1.1666251294224435,-0.8290277355530639,-0.22691524759658516,0.14780957045110732,0.08953902632254092
0.04765534769584452
0.1454062930627536,-0.014967060533367596,-0.10265019827834601,-0.09484956801488159,-0.06631637648131256,-0.05718137346531378,-0.02671277991007087,-0.11323743341835507,-0.018992849218859357,-0.03085635436053828,0.08670752163301562,0.14536624876328486,0.3290351309542993,0.1264809283179814,-0.11791259859948885,-0.18339692898729798,0.036406880545466196,0.16641323523675472,0.03239013305335565,-0.08992234604779331,-0.17730112441594187,0.032988647454469264,0.24909067501114546,0.24848660420940255,0.35599029979656577,0.2961265692419492,-0.022301634084525918,-0.16214637298983142,-0.00500564920497035,0.18401055244691833,0.20296455869686536,-0.02894387949754775,-0.121655288480848,0.02350495225125741,0.26188725131474966,0.1549670410134285,0.23112170072676635,0.27711262246659635,0.01748518888608067,-0.2142360583047216,0.08307584814349325,0.24131035429492015,0.0721960386579204,-0.1078994490216415,-0.09815256941757561,0.13841076446474404,0.20161168986251676,0.16948144734357706,0.18307904167744787,0.21451580675460236,0.08962807925702007,-0.24399685881287808,0.15637831904681276,0.18966895282409774,0.08415091267530822,-0.047418246875882225,0.06469883333768847,0.05178028261091533,0.12186993424605133,0.05475839619545106,0.11343387387795176,0.25067122859374824,0.06353425579849031,-0.07015184715844355,0.06998265931370365,0.02089673145174333,0.04320796643544782,-0.007858892695658565,0.09057655474733661,0.13708216968021947,0.10647644116480234,0.06380326387317434,0.06015535557519579,0.17852966980298074,0.05795250598949565,0.03172026876478374,0.003494282463593084,-0.0450762657807883,0.07274469200687575,0.04525279409883211,-0.03518629596683326,0.07261482497741625,0.0733515440202211,0.1354130827026856,0.08189406720806247,0.0775382786800258,0.1301903520829568,0.1211356759805855,-0.04866985215785438,-0.07456565378828506,0.008984967131469256,0.06953774412538258,0.03881935755434816,0.05831768769078864,-0.009230732795017528,0.06056358108798908,0.010360700047476305,-0.03621534498907876,0.07288699284547104,0.08269991750492531,-0.13440750940166857,-0.11311832426777435,0.0527338778666426,0.02427086165274801,-0.025698207105413592,0.01282550020551007,0.0033966414365324206,0.13737474564344868,0.08304925990731096,-0.09605527567981861,-0.02375318475043683,0.06423407495675032,-0.0508167679765518,-0.008608970642067088,0.14532834732357436,0.1647438555145247,-0.05629486478902575,-2.971917211374577E-4,0.030705666484849587,0.12842318501853492
0.117382523389011
0.03612297921626873,0.4326652424924837,0.29822041518826936,-0.0677041014113372,-0.2438302856353045,-0.6705104874925715,-0.27856427902097114,-0.41074022464985205,-0.35547422151690056,0.030039628912284563,0.2130959615571344,-0.021082459832679094,-0.018790945114461954,0.2520543310326574,0.24813108478848056,0.13054022252531255,-0.2566144911350474,-0.8131893767030901,-0.15258987143577385,0.07005696731956682,0.030256825226258725,0.43574871394393055,0.17942277104702814,0.03951191073460009,0.03537744537221523,-0.06955272806329245,0.24484758255935604,0.15923754780393162,-0.05849852390239523,-0.43989345106977595,-0.03442381454093086,0.4138431462089702,0.6316236672664036,0.508737616505034,0.4804524969684296,0.018566338839246094,-0.002772965383664385,-0.11187901932051073,-0.1184017878895591,0.15641128011398325,0.13754927416646706,-0.12727903789944797,0.4413489589183536,1.2096625697594308,0.9926647654540796,0.8757951986053961,0.3625022366248152,0.06225459285402237,-0.1284971884211865,-0.13948878295445127,0.187257619701446,-0.02249209484790515,-0.11573013146795903,-0.5803528666246706,-0.6128541552208017,0.25398991384078606,0.8764014257344975,0.8146472245870976,0.1523762427765155,0.05098015777273269,-0.14142647944833753,-0.027607375983050766,-0.13698580875262062,-0.2776309051971316,-0.0785069663182627,0.03675123460581018,-0.4369397712562919,-0.3900886161249003,-0.1474541342791726,0.6062759959551515,0.22234036312805616,0.06702642801721034,0.122124674264005,-0.13006879380270872,0.21936558741226353,-0.4341455291094617,-0.40212511988866384,-0.0704679367008203,-1.0983326389851018,-0.6738691150244732,-0.050163792674589126,0.3545344214461458,0.16554616217239432,0.03670008416162585,0.03758843822475225,-0.12367440377309027,0.0035783133745543342,-0.4767434876056037,-0.20581731541681048,-0.10198860185321124,-0.37552551472155093,-0.4186125296327601,0.09015600038388008,-0.2665796219172323,0.08296084794020323,0.10250439346500134,0.08683242282652967,-0.12523655591574553,-0.03300370845719345,-0.07703724801537136,0.19074590584118523,-0.4008958595533968,-0.5665016912991042,-0.5863353267227679,-0.7784298525926278,-0.7593289168573653,0.09934887865207329,0.10092561309938966,-0.061281818448450535,-0.0498899656089919,-0.29600328715655233,-0.3578651438115791,0.24359613957855164,-0.1496146943827798,-0.36326016905542247,-0.6083360934977872,-0.4279415466846781,-0.3101681413363131,0.027306449318920786,0.07735782759982837
0.09061625360381281
