-0.5675298245425998,-0.555344793706406,0.4476239431668273,0.33385591586220237,-1.1241804308682093,0.30528128356513456,0.0433238105453517,0.48291014025984536,-0.1345122911721899,-0.7709833455564556,-1.1675255891476732,-1.261154233094105,0.5656918826893736,-0.7265145079572503,0.1660866278389218,-0.0869973670858369,0.025340111003840007,0.4187878835206568,-1.162325762466672,-0.15610345706620146,0.3027080280665011,-0.8891777927220713,0.47688761497574506,0.11041305906733609,0.023570336013940367,0.09825609242393533,0.6001706864880318,0.19490056508531797,0.0621714549270775,-0.2537271763315859,0.13130740574979313,-0.01220744802697288,-0.8739781867473511,-0.1228866870854943,0.011576770107463314,-1.0158175457646774,-0.9424464408903468,-0.4929330168874219,0.40730582184458436,0.6132855933787401,0.036523108389618225,-0.16577539425064625,-0.4036485955320353,0.19187795999534904,-0.5556417589221238,-1.2621107631462385,-0.2716095444230883,-0.9161154590285149,-1.0199763138404556,-0.8175755378400889,-0.9706533918432343,-1.0401034390538804,-0.23467856980103674,0.6686565411917248,0.5363347261530034,-1.1936372922700487,0.4392528266239166,-1.124141225801382,0.3320864935570163,0.6410629372895915
-0.5004027912381401
0.33004792240720676,-1.8193371506460256,-0.34744476504349514,-1.3247646158958126,-0.4078479887335725,-1.4230742906001246,0.008089355066134568,-0.22774694351820396,1.0990215210757126,-0.5822758097560712,0.3319704589522862,0.511841131814669,0.19210118557269337,-0.0024503688587942515,-0.06352384714399818,1.4331452376937774,-0.34045381455663504,-0.9782421272799507,0.5155271142547039,-0.406874166695365,-0.5485496334094588,0.7823863439702894,0.9358308457075926,-1.300420111907991,-0.16637942175631368,-1.121306654720472,-1.1156900013549134,0.7163300181575047,-0.469423366973424,-0.33855016966847995,-1.4900622432719026,-0.44159004578164546,-1.5466749183871598,-0.5405070548831638,0.4358659648343108,-1.1879321823084454,0.16804165761978007,-1.0989750603573842,0.31096345372051015,1.011167897046237,-0.4721576697816267,-0.8694870503529663,-0.2747061821321305,0.3908694612638826,0.4619001570697844,-0.133289426182835,0.46488000667965945,-1.1330534627551945,-0.39019576174366066,-0.6060772871230006,0.6136717722106584,-1.0765676116441545,-0.4358325215788635,0.3235666377470631,0.2707359402432851,0.8592600802232367,-0.5400430437977266,0.15090699829357432,-0.20609707877704403,-0.26179733845623987
-0.4512084054859099
-1.4471052582361739,0.5083746327325267,0.31389082045031086,0.5666614055231437,-1.33429721583945,-0.7436401213243267,-0.025546549700415935,-0.3561498685610923,-0.9540742792180789,-1.658996409096019,-0.33539056755999236,-0.18018014318301379,0.14468569812543974,-0.09695511726738647,-0.7147302442221227,-0.8661525467163088,-0.19050234716947712,-0.7664145419980898,0.48785727782968613,-0.4249062063569249,0.21641397737295442,-0.1894053899629089,-1.0182110830697666,0.7648664702018731,0.19101769991600687,-0.8748472165875859,-0.4899736381849059,0.12177582189516938,-1.0455886452422216,0.6333379634615192,0.8712143599261155,-0.6817869722070852,-0.020407133467493642,0.05410876598991939,-0.7144262082459519,-0.5732205955046101,0.3053593133862473,0.4070138889741516,-1.3660216926674666,-0.5206127902451712,-1.1161316642823769,0.6748436740488026,0.9682041401387147,0.18036739759167392,-1.6473128816242906,-1.3703161110379418,-0.07824887834381364,0.9102207945021599,0.43528598320249867,-0.6285870069066414,-0.1260181110811497,0.19965569294581312,-0.4650397464230062,-1.034036537031648,-0.32429753596363353,0.02656809238351353,-0.7642831572417988,0.3540395635094685,0.12305884896748387,0.3119688144976121
-0.5138585393382151
0.2064386725839833,0.4217733884081681,0.15114389431421368,0.8348675015594206,0.3949802387488806,-1.0544129157110607,-1.0629356816890871,-0.3960247699790394,1.022671576358673,-0.0015985388285319469,1.1776252541456196,0.15546870811811997,-0.436965114456333,-0.06581591413759683,-0.5683995440020584,0.693279822358109,0.5497432901922494,0.14202620799102728,-0.2848464757073097,-0.4016650589493646,0.647687431556213,-0.4884357317743267,-1.461737658468357,-0.9408959904924976,0.7567953835273372,-1.4588895019190427,-0.5450007686889233,0.7473197661220264,-0.7573196504922173,-0.8145497640321486,-1.0032329291556603,0.5721487644110104,-0.8641177046201897,-0.653791600257952,1.6609484703325212,-0.7627246494238168,-0.5215064355558571,0.07733200733551931,-1.2570340263325313,-1.498934465916998,-0.8947988937240439,-1.299580363771432,-1.0096513353762155,-1.1742039078604893,-0.2733900700412986,0.6183307931353388,0.16433353742829807,-0.2866467911637304,-0.8615457662320063,-0.6909483161401443,0.5145238601029776,-0.41760979995662434,-0.38211490780076135,-0.6726132342107121,0.3993843222087754,0.21395348766931593,-0.17325373343298098,-0.15392950979637524,-0.18437214175775923,0.8150640868678969
-0.3821906200564102
-0.9857878735601677,-1.0267724073998394,-0.08457469163737258,-1.4012671768703902,-0.41270643717717603,-1.4734521533311227,0.22545371798992173,-0.29096754755327037,-1.617956964881943,-0.8083388911875711,0.48045162813431513,0.173095477002382,0.01875986359713053,0.0967419003686498,0.2674458376648852,-1.623132810457192,0.2487189218227564,-0.8775784777090203,0.46881142846911444,-0.27312131552022645,-0.1663401933278137,0.7575975959897719,0.4176476068444939,-1.7982155774107482,0.14691178888446285,-0.7455866630051423,-0.41350929779991724,-0.11723417165747033,-0.3176098789830073,0.4223645908935239,0.16087284952699957,-0.15659170250596635,0.7110545162049953,-0.25593875805394256,-1.3074513355615398,-1.532568531609439,0.14388960000349127,-1.579004438265734,0.5562378029270011,1.5097355763193263,0.8058379470199446,-0.9602438547376148,-0.7084062504682778,0.5756904536926564,0.20418702779236594,-0.8110713537995349,-0.6422193501994518,-0.01981940182617076,1.1206453742983118,-0.43055193512761303,-1.2644570941993696,0.4259778322230872,-0.32674153014147084,-0.5719926576176025,-1.5836039796802066,0.2918138823026737,-0.7815387574822772,0.17368407787725268,-0.18834232768872713,0.1348704920094499
-0.43254194687626246
-0.641787108723048,-0.9812399496926183,-0.2730064795248367,-0.8270868332236577,-0.6623294171695694,1.4515816070962466,0.6508363413738215,-0.36403059613577116,-1.6719589842301938,-0.7323822837961774,-0.13937345989912145,0.32396221688944155,0.5112330235917648,0.06650230174874011,-2.0706276261576675,-1.129798163895703,-0.26124283089746025,-0.7766824902313891,-0.06896590063527068,-0.3926880941536884,-0.042705993219869155,-0.7531901971559328,0.6093300400898233,-0.6321076688541681,0.008067647728593275,-0.38951921692323616,0.9583135410172972,0.692513993891719,-0.9631182138675187,0.998168022031294,0.3161144300981873,0.13445706236251673,0.5242868012284507,-0.31240207899776956,-1.5526182134787194,1.5841402216515095,0.01394704365544993,-0.06001145777018204,-0.042986569604955914,0.2740233379999812,0.7691303511566557,0.42515599271962684,0.24469361742818607,-0.36935747983918515,-0.6500823256883356,-0.78539179123106,0.0668678593026922,-1.2597046668273053,-2.310408067890854,-1.1892936882807086,-0.8089307008723681,0.1564082782337457,-0.4792344232777106,-0.17394864026685222,-0.8020506862496303,-0.04786633254477108,0.15431366876795624,0.23542006784854128,-0.17204030372400247,-0.08800676503109597
-0.508695367906259
-0.7016361729499077,-1.8310393647906889,0.18514071515935462,0.43658395182763776,-1.2695956804361908,-1.0036903425659363,0.4473681125213881,-0.07785281240767118,-0.5383019077133817,0.555597755237106,-1.5038388300911416,-0.08966366196057429,0.3223051048622816,-0.7361264287433236,0.11512991167172407,-1.0015218389416267,0.14749855310441826,-0.09154159353105576,0.4524369315189873,-0.3911875778445998,-0.19240654763444262,-0.28491265212708233,1.676340590842281,0.1429013523292639,-0.4220749197066041,-0.415613158246037,-0.4453311977152458,0.39513426582806627,-0.9758093152392137,0.4201978856478599,0.6378580779315203,0.241399633876434,-0.1835490550496869,-0.5431050020507531,-1.500584653453924,-0.7998967657086687,0.2407143584659768,-1.3057157206181358,-1.494641672261731,-1.0316663604979985,0.29377598266230703,0.02583012163313041,-0.6186983513066183,0.5621092187784552,-1.5680195726529427,0.8572443752924934,0.10222599306771109,-0.9851736889646736,-0.729791289705547,-0.8998636364472751,-0.012113084374994637,-0.1548087052275527,-0.2535049607989565,0.6609689951586966,0.3826871519519695,-0.04231189312590833,0.8215720873681637,0.26636069332357865,-0.06933679919156722,-0.24396356877069755
-0.5063470994635139
-0.23365068415765122,-0.40136173199121705,-0.06204916798724707,-0.42281064210471925,0.420426747548953,0.11215875360680397,0.5466730471373463,-0.2975325779645661,-1.757170345487713,0.5806729404099117,0.07741906630184454,-1.0432138257792658,-0.06643702588889801,0.3586589424388521,0.2598647788208039,0.7708279135426643,0.49767945730639807,0.8633268207399895,0.3114852449088959,-0.2599384448268221,0.5791328611167567,-0.746689476030704,0.6509853369723873,-0.36768336978877947,-1.2089608213429308,0.1533294726235902,-0.0849577761628041,-0.7984739403777019,-1.766040900152558,-0.8127157208535383,-0.7802951407172701,0.5929221042896395,-0.1637005902322946,-0.22315527860560075,-0.085452887697698,-0.27283379260347146,-0.34995108548740905,-1.3920914541794602,0.5005218885524098,1.2773678275395848,-0.7561829482187451,-0.37224870636800467,0.11557447040543592,-0.9328092059190529,-0.6972106874373156,0.11358339923962768,0.31179926049231665,-1.0009685962481947,-1.0396924325765755,-1.1330705865857618,-1.3466011335700032,0.25018572418184043,-0.2222013699279389,-0.952376237257791,0.43517856020723683,0.21423847502505225,0.06141811208944473,-0.04099181721380045,0.024495679177241218,-1.1836357530191541
-0.4460866553211704
-1.3937330648205746,0.10864644483598762,-1.040097462148331,0.01717564087396828,-0.42397390195082163,-0.5465794406973405,-0.623630609841741,-0.20341454040081694,-0.0466884095407165,-0.42492038625280565,-1.3496631554963543,-0.17794399376354067,-0.9739910744297988,-0.14084155662153908,1.5973702950864983,-1.5868065187715354,-1.2013044364650443,-0.5221981745658831,-1.19616515876015,-0.16977540271148134,-0.1599481789661386,0.8903922222536197,-1.0737987281375994,0.7586029873504543,0.13685353514689713,-0.4848166450156827,0.6674830619059858,-0.19713864508847284,0.6774794063570926,0.15696100460945425,0.3068163014994219,-0.22936103246762057,0.05153563878332259,-0.08769564384600388,-1.0378634495991477,-0.4815210792277601,-1.3160377515505717,-0.19353746524733886,0.2513266241006635,-0.6136005516206771,0.5680930636811831,-0.08105811732261335,-0.6077015486643059,0.2712964190472549,0.4079987997063648,-0.6285132855912718,-1.1133265769318597,0.5267695503921744,0.3052030948815732,1.1919745968286086,0.8150302222827431,-0.33686716658760524,-0.12498489481517916,1.2467489871382322,0.8652774802135609,-0.7833404571595901,-1.932128380940211,-1.0369828885903385,-0.7857391912703463,0.18120237292986976
-0.3236465020045742
0.6660609227131981,-0.8275666782195721,-1.2863010870772258,-0.02809442314465548,-0.5357787895947496,-0.13550263867860815,0.7451488157738312,-0.09638425239925272,0.027112813221538645,-0.25965051186134636,-1.1845519586476974,0.3872882424384064,-0.526557073137898,-0.3010754187521361,-1.2018443212690626,1.8731850938243815,-0.5727839531372909,-0.966488575973717,-1.3553717030349783,-0.25480086694143217,0.1438139988906363,-1.0553186869383002,-1.3953743739374218,-1.4537891945502392,-0.0776146849748453,0.7043098550598343,-1.1161534830624846,0.1641429125773606,-0.23778686313470693,-0.21930370217959652,-0.33943158718794786,-0.06514980630168395,0.5079143970461585,-0.09562878897275134,0.5401250134955099,-0.2850233905861151,-0.5246467047585052,0.5325898872461365,-0.4226441768541231,-0.6250456249380875,-0.056204678271927835,0.7434098267500618,-1.6104844048038494,-0.4038263618872301,-0.18108446099921588,-0.5387153679094324,0.9918877400988036,0.7910789047751857,0.5126543097283547,-1.0075052434396772,-0.3994858470056711,-1.6033908548809046,-0.21865994075666814,0.9363159343349918,0.23920579827993935,-0.5226334230039003,0.7325650826915476,-0.7387803819250514,0.16296975037378553,0.2549515334453844
-0.4425914851501884
-0.5430948112135814,-0.35498500653689485,-0.18721804591742888,0.32397614099480493,-0.8443503221227405,0.5077061560639758,0.04908603729406341,-0.5367913427598089,-0.8693121576333181,-0.8251771606108532,0.16133026505333137,-0.16412244143515126,1.353795426826923,-1.02319329408609,0.4608975917855179,-1.3584963317242271,0.07369977994141903,-0.6945776410128423,1.694286858988764,-0.29014152788094755,0.3575701694352266,-1.3092573672531154,-0.7484469611340797,0.9098793961779355,-0.890649285643666,-0.30412133728804824,-0.917971491115586,-0.5010692015796416,0.6337504297705613,0.21983255932710838,-0.7682339109152396,-0.4224946143436088,-0.5806987348371798,-0.2933402607752417,-0.09235470037422429,0.9156845326449028,-0.37935977708440954,0.09403780683235795,-0.09316635534084783,0.922791601727967,0.28687081143692444,-0.947835591595087,-0.8653868750393152,-0.30705557485882085,-1.336293468951709,-0.5148884403815438,-1.504065024127835,-0.18721304936148117,0.5041470103056959,1.0379873788589757,-1.0443012971315977,-0.045359430371154495,-0.402626704608809,-0.7170294280113428,-0.34395473916854036,-0.7940292351794674,-0.6451491301994118,1.5060027998385985,-0.25415357504861524,0.10316701471489265
-0.4294169003900506
0.23359402533329604,0.45565260174086686,-0.05328332931556925,0.3512774363186993,-0.5087065831613901,-1.1238734267288564,0.2616263624302302,-0.25908174853831856,-1.2864080061689485,-0.592309296461906,0.20714785991707513,0.14362728741540523,0.5139198991502383,-0.25939023243102094,1.0411966841695142,-0.917751795975302,-0.9922714528323344,-0.6933824325205344,0.12731344256036511,-0.31100925671664,0.13909867087621447,0.061503014513834824,-0.21750305874344072,0.9055283849168132,0.008889899008501902,1.393882939502274,0.6628757483389534,0.5590420536333034,-0.9253660064366644,0.3134051180071008,-0.565862236669725,0.20686211843032942,0.36071776714986215,-0.1747885620325337,-1.0509738837891442,-0.06576175489723578,-1.2636632728469694,-0.9014024412469765,0.8019716722604225,-1.20071257744545,-1.5359153597036725,-0.9333015571558755,-1.534061388054945,-1.1703571917283633,0.08413644000603944,-0.4682260029603257,0.1904372128451268,0.5279909011410254,0.05229284709343611,-0.8041362439239255,-1.18739976284797,-0.737055594584925,-0.30161432517452663,-0.4136167303226966,-0.6608822342553294,-0.10053800959182659,-0.8915114413068609,-0.19953194670273444,-0.056731064812246636,0.07693531412475821
-0.45929338544771803
-0.16787687522133707,0.22200413885924764,-0.5692844268039693,-1.0863660110861753,0.5056515636510198,0.6103920408237444,0.019979641316450025,-0.007707032843950609,0.40160009707564986,0.6917039093118278,0.1810714390686798,-0.853503744035064,0.2817917938999322,-0.1486285877817108,-0.26385287821511444,0.5590011892602222,-1.2747727361262786,1.2277048024074289,-0.3696193299050433,-0.6106548449499589,-1.4941020890190033,0.4539333244208034,0.6379234186665205,-0.4416733061427738,-0.7419490182503179,-0.1426623017475183,0.6434227989986033,-0.832057688637129,0.6785003950356491,-0.9999571878861351,-0.631886730258154,-1.5469374552437212,-0.761901486033301,-0.7436741105308124,0.4366644325745934,0.5776548005997617,-0.3365451442526221,0.015944444538958606,-0.3236632879851844,0.11513203761460254,-0.4812608428064721,0.2703938259986386,0.3654704876111436,-0.873659039815331,0.5566408110564655,0.792495625815356,-0.7070713810820093,-0.600951753530565,-0.2233273457978396,0.14125635422708296,0.18864232510571863,-0.5735720085046511,-0.6316185436260068,0.7829848240649481,-0.5238518614040837,0.497029233361827,0.03149023911915341,0.3183649202366584,-1.2587468329997509,-1.3445284204520833
-0.115694297385889
-0.09022681516440349,-0.7114381077344405,0.11772013419480117,0.3459831287691761,0.5475964563905931,0.6518073924392215,-1.165413025429702,-0.10666993586106038,0.500316808489536,0.5904434869557694,0.34832190558761256,-0.4629524994555136,-0.09873253033720408,-0.3468618316989858,0.21964586205633377,-1.4223993081127206,0.2985229557955477,0.6850030985072962,-0.8236979858388681,-0.21287521377115423,-0.9040664976112521,-1.2198460147448524,0.5385899886603999,0.7920385544325845,-0.9569808797445867,-0.2524742195586118,-0.7381782109998039,-0.7238218733117381,0.6499288004572991,-1.1001516052282796,-0.7815507056099308,-0.18292912337389086,-0.24192037229405922,-0.1441975138997797,0.13240473672945458,-0.42981107337954716,0.2434292870587217,0.34761040180972264,-0.11676602771904766,-1.6496029771836094,-0.5451525163834672,-0.6278350873020827,-0.6905130529761473,0.48659945014607636,-0.9151466842746351,0.3759784426063093,-0.5824399943301248,-0.815876377867787,-0.9455729223010411,-0.32067909254701277,0.8088894648396667,0.3398329752505999,-0.2420767686278987,-0.8290680503176485,0.20798588242471625,-0.8223427650294232,0.0644687236892151,0.4137498814025259,0.09675899921143415,-0.6752095207357335
-0.3632124944564666
0.3123587279902092,0.07415238955245278,-0.4580102260954145,0.29613658052279507,0.6656617364338224,-0.6435358462260156,-0.8829312996498733,-0.059202497760746584,1.204987814185606,0.561593867760792,-2.038762468447759,-0.35927521315013683,-0.04234218336221679,0.6554561746433532,-1.2697103487821977,-0.5302877275401481,-0.7291078853975002,-0.23238959897825265,0.17686062564178934,-0.39238186591557,-0.3682662405032803,0.4383015932147951,-0.0246145332971159,0.11120486451158934,-0.12859610223230286,-1.4421153677532519,-0.38243534442736504,0.42883098829324473,-1.6590255705589438,-1.4632906686505813,1.0764006002339208,-1.256873766651556,-0.20944786090317283,0.28236825028608187,-0.9268085915650217,-0.4498936609766437,0.12293018253667828,0.7062873979272235,-0.9666760552712474,-0.7287779279867157,-1.2050874783318144,0.6562538308558095,0.6655565071747082,0.061705174060614876,0.736859202253649,0.5907846762995462,-0.13073860670790555,0.29275597911325496,-0.2523670884375354,-1.275921405767101,0.2300222318594358,-0.3274922062664587,-0.2994315879793663,1.1342629704994673,0.12742792137074085,0.3434610434479009,-1.517793172890099,-0.025487144814241094,-0.8482924459730605,-1.2466685978953522
-0.4545201095619032
-0.10157367972694786,0.6008134864899354,-0.2182112264752217,-0.7502842373761197,-0.26647433662309306,-0.33323120169219883,-0.4138562060404218,-0.31237158577902907,0.8414080523334193,-1.0983252795892855,0.08628318420918582,0.21963179284678516,-0.2849250657397109,0.5004526399641415,-1.4615278921465913,0.9744375948923367,-0.4676407639432598,0.06203975181999903,0.13018764285964757,-0.32508529071154085,-0.03873704001294228,0.2361757132409161,-1.0655669141194684,-0.7103606181031145,0.034465267158763684,-0.802766275520233,0.24710335168563172,-0.9792470759310631,-1.315367897537806,-1.4138280448807283,0.6258325969843572,-0.5037977081434155,-1.4197916829284136,-0.2611112667663048,1.0571002604664959,0.8416851541487058,-0.3441607772327779,0.3706744892467925,0.06911063466224143,0.2972940721631319,0.4806802250364877,1.000000103470734,0.7461596320932982,-1.5252135963170002,0.3635364646655836,-0.5845301794863316,-0.2570990402097016,-0.6577239068200813,-1.329978792907472,-0.7166435723647571,-0.9739412246610692,-0.22981494411381703,-0.4264592131045081,0.4992000186398238,-0.9146278911336034,0.5698342934623314,-0.1826552794211813,-0.018832636353961565,-0.2187799755640893,-0.028151698454462
-0.4194508946682485
-0.12609304822558565,0.3868883622462835,0.021447251378831564,0.06643173739997514,0.5488113763755953,-0.5355475745081963,-1.3975954021965389,-0.42361233304127854,-0.1082098263379289,0.8001737607561443,-1.2261681628056076,-0.32498071350741625,-0.061677645718685274,-1.4899698677929558,0.5535023666185551,-0.8232372070353747,-0.28783977192308985,-0.8098578159113731,0.06840321263336588,-0.2887925555889088,-1.519290947558731,0.05714285842700248,-0.7935089875975301,0.3013597400784579,0.5296900950842204,0.6154841358970035,-0.34818583245539025,-0.6163688160714306,1.561283412035152,-0.514605515522132,0.6302548085033527,-0.6335307938694108,-0.2553934020287068,-1.5410929073584365,-0.9075529107473236,-0.5883013203453332,-0.14537556894751574,-0.8850104943185605,-1.1065774968209257,-0.7120548128294377,0.007476064269534915,-0.13316271591727358,0.1762040453794978,-0.16554101933481866,-0.9429599343104725,0.4641046873343546,0.11301214136199628,0.7721809157652018,0.8205233744058152,0.917632249008488,0.1922959952159829,-0.3211628664218257,-0.10640371950691602,-0.9528831915460058,0.12724555958428863,0.17863721019085174,-0.02426903055535994,-0.03841844843022265,0.07074253590439736,0.584488769219415
-0.362380841685225
-0.012917308472145728,0.227265113575517,-0.15329208326347266,0.2985417396374513,-0.39382795894585043,0.23026306564990037,-0.5585440416332383,-0.18678915657015266,0.7745942145030644,-0.9891734199839503,0.33431598325824397,-1.3029795012170193,-0.49553789039343643,-1.5611886036671516,-0.8188884462006287,0.2813681694890551,0.2756448117086713,-0.033565319420391135,0.6073101251634734,-0.25794884743792884,-0.7257638967542706,-1.6690530071666283,-0.044310424518967155,-1.1516904303495736,1.5325856821333004,0.4499867006931957,-1.6342571470985423,-1.380457758362762,0.19415323772270826,-0.42474238249981533,0.5165415460629516,-0.3669987766376096,-1.131823487115608,-0.310751019484403,0.29606775869493385,-1.3499176124836454,0.10251154946149905,0.27976217598599845,0.28137101043252616,0.25592658785447814,1.024494768652583,-0.7151892816701161,-0.9061988211473425,-0.37754835499947365,-0.9943724186243103,-0.30260159783211055,-0.4931675559120118,-0.5148737585077793,0.1938493700198861,-0.9748242356805431,-0.6401048009921387,-0.16570933305877336,-0.218518229933106,-1.2335627743386615,-0.7576642963063954,1.4415177963474128,0.08248818878491629,0.5952105766706759,-0.0809734091996646,0.8532753981925206
-0.28467972651484563
0.23793661602053395,-1.320290999559878,-0.36266256590558116,-0.5805430925706393,-0.557521704936934,0.9878190345150736,0.19494760800657004,-0.21813059104198917,0.41671787331655924,-0.7065297155562275,0.4125774851962697,0.39111922258669474,-1.8743529253196576,0.15079487942771616,0.29671818770578057,-1.3477531842963664,0.13090185832743434,-0.777626993410188,-0.6112133920418614,-0.3116225489955306,0.06694982692962301,-0.3553395545702809,0.8909006635399032,0.07151558024230455,0.0861687688865026,-0.03546092545186347,-1.1642511581664112,0.044751365511375686,-0.8154969973909209,0.026701956220832705,-0.7513850700736256,-0.0875582119596048,-0.005289406334090297,-0.3366690221859509,-1.3338889566697973,-1.0342084992221927,0.6367604843265685,-0.05911864522516921,0.327460649907026,-1.0528705808163032,0.07073592692357698,-0.6626918649584406,-1.0271214684927445,0.007295482636464834,0.5574351047633623,-0.502225362343885,0.011475013781150414,-0.40095281800003785,-0.30643034697053284,-1.2645532733475842,0.8432069230048802,0.6994761703381862,-0.16771464446550155,0.38089326326091216,0.4811100749873031,-1.8990492372927676,-1.197465611639909,0.6667937791904226,0.14420984991144248,-0.16202972946893568
-0.39484628743784767
-1.6196555191753421,0.30130015518195735,-1.0431486341684608,-0.34546073015595097,-0.19778283344495518,0.32846514514453834,-1.7818976502097714,-0.31184838334020876,-0.7296836466925506,-0.15093291313987017,0.24942851798258375,-0.01583649979707699,-0.9344337306320426,0.20377706677320187,-1.7740925816229944,-0.9615657182034858,0.5211568243549349,-0.28128016765682884,-0.6252937082639038,-0.3517962078784413,0.08028076860094005,0.03729717294106271,-0.9142404206564656,-0.8254812028530323,0.22282119155299898,-0.8893204287695413,-0.22159414593805016,0.6378083495476249,0.04661581164872242,-0.2121421958979494,0.8366506753814986,-0.11513891403869002,-0.002162422388551163,-0.3585894117771454,-0.8584971073815898,1.1020157748595327,0.4180659946973486,0.041480541015283465,-0.9089089587119117,-0.8578282558592715,0.5256879665539593,0.4598316693339098,1.3773010719266536,0.4094642172280744,-0.2164162005530304,-0.42523752226444467,0.29667348506391966,0.4429428840324183,0.24936635510293048,0.34203218668918506,-0.10914418239855324,0.916953100776168,-0.3194815824518572,-1.324329118769432,-1.181803793430437,-0.8463819099805582,0.784468495157765,-1.1447803404291836,-0.7941767658638,-0.10458895689310829
-0.40593595877361627
0.20574686474437728,-0.06235099383760516,-0.0586386618789208,0.1570883412989122,0.5945839281954762,-1.4248574014414068,0.6216935571983461,-0.22364894543334524,-1.7653832670397018,0.5091992425245221,-0.2434595092384299,0.5138792469328561,-0.08690950444664003,0.38827550319988935,0.00780458412914901,-0.6285869195210132,-0.3939050575145968,-1.1016554540961756,0.008349319998176454,-0.2415523478018219,0.6577752013084182,0.643856106223001,-0.9933324943268088,0.01053505140088089,-1.6035775721388976,0.6463539208425977,-0.8747105471336561,-1.3152615496284472,-1.0134893721114413,-1.0052624896241578,-1.6231595034496753,0.0575056531248141,0.4615307728138824,0.25744587532472885,-0.09988062652687507,-0.9379094211529153,-0.004161740543899377,-0.18846687113266883,-1.4020183743298111,-1.0585183004656042,-0.9676455359029977,0.3841542806492558,0.18024117852341784,-1.1279559096408778,-0.7473034825275446,0.6811811960440668,0.2283117800632019,-0.5435053260818156,0.3848834422723485,-1.0275372097603992,0.5172382746056585,0.1371726249286864,-0.09368589623393576,-0.47491159434405034,0.030660158942706094,0.054988276516099104,0.16463184023801886,-3.681462208858897E-5,0.14484974634059503,-1.2026952369626311
-0.37668719058934524
-0.27011357929181506,-0.013167080646520835,-0.29422719896110394,-1.1428765977100281,-0.7737169972415533,0.2774706163817747,-0.1217287072063777,-0.2935484306771284,-1.3445092470473727,0.5894999284204252,-0.30328552301844974,-1.4505150522814234,1.1328617919736836,0.013197637365974738,-0.5751215106580456,0.2642358137548714,-1.0945646088932888,-1.2683973120164316,-0.10295169705706857,-0.247164722499048,0.35820956891172756,0.2739870140792886,-1.4843183086871574,-0.9419974798443985,-0.12405513306332468,0.31635761133526524,-0.781834199096435,-1.030366316177636,0.6651257196393702,0.7640631115636505,-0.587588961413143,-0.5848070737963327,0.4623731803331861,0.14982424470568317,-0.09904334071558293,0.5280581038557273,-0.42288823403452125,8.53553797795755E-4,0.442185427112669,-0.38356073489908243,-0.973363018627653,0.34686883034125177,0.3730816509025659,-0.9152077778009018,-1.9666636942249174,-1.8183679253290432,0.844985056550021,-0.5411049287757812,-0.09132761387612882,0.25726024330973524,-0.05527460599440763,-0.42822200786174786,-0.1494758479232483,-0.2984126745081697,-0.9355489485877149,-0.023952433399936017,0.057288961376305556,0.5705970028601943,0.42553160362639114,0.5201292147618625
-0.5629643989115695
-0.0013422188357187532,-0.7952898038156647,-1.2749933059036698,0.30064143553774453,1.1423938745507796,0.29684582714532204,0.06061646419900032,-1.5072345160333833,-0.43287234909869776,0.5606238460016879,-0.848926385574514,-0.250074494729237,0.23731168502867775,-0.8079767589457518,0.01300544763661154,0.5331292770806904,-0.49836513751582173,-0.040714778463346146,0.6048549016460668,-0.30595679887647426,-0.48708013434264735,-0.7230750919420597,0.5474602612906535,0.034069656065423504,-0.21489464776490647,0.16516808683594442,-0.08861802506067153,0.12005267005285078,0.30770916752584704,0.5708428168920575,0.05059707485157976,0.22645780762528508,-0.030218769842960083,-0.009898947850614844,-0.07185154771054365,0.427498936761432,-0.8899274992607971,0.17652476070844259,-0.2334915799054101,-1.020134431869725,0.35744447438483995,-0.7117842784249908,-0.43260576592027716,0.4865856286946358,0.38801563771719566,1.0903604961202242,-0.12693645979798354,-0.23816376715523363,0.11000591280512582,0.2141131284854163,-0.6878314751286424,-0.7034100728588828,-0.3773343838977511,0.15528428151803525,0.11415186703223937,0.25646729620063746,-0.5707361411854831,-0.7031066514685576,-0.442014252929118,-1.204131471722638
-0.012641923053957355
-0.22252660949192837,-0.09884655987344426,-0.11369852889052236,-1.6485901109020509,-0.5667326666682391,0.5510215894953987,-0.3839979447209418,-0.3184972067261331,0.6635101751954218,-0.5021465408461179,0.5600574954523104,-0.11137242272829459,-1.6699731982711197,-0.7697013513758433,0.4855344807910377,-0.18058244218739034,0.1660150851924015,0.38977452078429325,-1.6763605072545007,-0.23749024227773224,-0.2912719415479536,-1.730453835257678,0.11591600833186898,0.646518847110131,-0.7877201799600594,0.22550464638451276,0.661127142507243,-0.6602777872968645,0.3068901800713144,0.342364443273433,-0.8762014619831922,0.1317021108341116,0.1485176702638864,-0.09400763690923712,0.6021261427536122,0.5383790352090126,-0.3278853496007379,-0.009297549813047071,-1.0801279274309808E-5,0.18454195121484504,0.06020460297485768,-1.0438440752218314,-1.032595965640313,0.22840314491226338,0.7926535682384594,-0.7437893949369078,-0.8836706363056681,-0.7470385030669794,-0.7648865538381616,0.6630066743809849,-0.6552803468244642,0.24397478169940626,-0.19936614529628163,-0.9790791861887775,-1.342009042113282,-1.0213619894929633,-0.05996687039277459,-1.4486253831677431,-0.2046202934345329,0.26324018190804666
-0.2557325773583828
0.5808286682858381,-0.10155674433318192,-0.06189602019734422,-1.1578472093731875,-0.6014835442760554,0.40813958462316513,0.341001023337178,-0.24137971225370874,-1.144036510492973,-1.0075374373213406,0.45811735405091025,0.8330328792138268,-2.058103071674413,0.3829101010326833,-0.6394824784065707,-0.44087303612750134,-1.0545030181418333,-0.637714548130276,-1.2795064403605423,-0.29904444986450435,-0.4498006442607385,0.7567584999348759,-0.2665038020521163,-1.1573080472370207,-0.4330042273212473,0.20555088154880652,-0.27722192064276235,-1.3130056230822849,-0.20667770220995127,0.08177290452178586,-1.6117843380936545,-0.3047723432231043,-0.058751284272306546,-0.12540353172217572,-0.8176913269557868,0.42924542069791116,0.16281156044655115,0.11126248655885987,0.2828850016034475,0.23025140589273457,-1.0483234207575056,0.21662619079002818,0.8604649778559127,-0.9019330052747092,0.9635595424582446,-0.586828752380536,-1.7741597173004824,0.7163482699250093,0.3799029652439838,0.1084884943494932,0.2323764202069959,0.17762670438054717,-0.1675422154879283,-0.12353823746469796,-0.8414164996937347,-1.1829989150241325,0.2686667890330767,-0.21527454663856124,-0.12714254612557468,-0.30578099504405526
-0.3738627143111961
0.31043864516327146,0.5510468609607782,0.6912046089061719,-0.10296856108671587,-0.3834464760502661,-2.0489907926295263,0.3628327996456243,-0.23228393860141497,0.46367169700921573,-0.36159819967398454,-0.1974163209673341,0.2510468304932331,-1.359404843781187,-0.049424043946400355,-0.7049736621699966,0.8739457881516597,0.21667761273464622,-0.4798422809582519,0.47064890741813153,-0.15770897878088672,-0.06016300712838774,-0.2359456778820895,-1.247137153129764,-0.5540030770941559,-0.03186783371161303,-0.9143631589016034,0.45865344949948816,0.3288361035432306,-1.3977479862607625,-0.048455175645387184,0.32429788379845614,-0.3746557791811538,0.3093517826620392,-0.19740952825383232,0.09630482168737542,-0.7673471869363067,-0.7065619870429605,-0.5660266131992403,-0.017028835937123205,0.8948461647313232,-0.03654548985535771,-0.5752473218348356,-0.20978257717144302,0.2911480739766128,0.4639286422516639,-0.32882476025692514,-1.3291621998019647,0.7762965201361812,0.46345510898237313,0.775129661395191,-1.1420691072303046,-1.005554587853057,-0.1815557091109908,-0.9033281188456503,-0.4861349081468572,-0.7341107049425004,0.17388837651160122,-1.3026583602011366,-0.04904859097794951,0.008833819079632762
-0.28705011834420285
