-0.0530150215296714,-0.21706257528659897,-0.4649200570136671,-0.06332210951971659,0.05785292554861138,0.22011776366164718,0.49406858859903413,0.14761790409079864,0.042855666146663265,0.1540427255962922,0.14258984842477576,0.08265287033795149,-0.040913947291532124,0.03856787405824208,-0.1630396242868252,-0.24747633990525136,0.33045103384342556,0.17026452832997455,0.01716226152343982,0.4605513731556663,0.3621024706836915,0.2608095419073424,0.021902126065596293,0.07407318490207454,-0.003665878172170311,0.19242253221933922,-0.15167802887843304,-0.10040172388965235,0.2325872121069351,0.6022246495190082,0.4497466840341987,0.005917758906899909,0.07388497289081164,0.17444438216533523,-0.22331776536659367,0.013098106102935825,0.037241684228467006,0.12655855395028762,0.07100684401919191,-0.17462313385424713,-0.035073100092416196,0.11591760419906527,-0.4593760606453159,-1.0261909296073695,-0.35580196511559836,-0.3153714572952432,-0.24678499580710783,0.10828999012084445,0.07495341323270188,0.251251956553659,0.232256333812944,0.1032114575311951,-0.4495360374556956,-0.06178135025711415,0.0019596711066272783,-0.15676714203502548,-0.18253079949861847,-0.331380190534431,-0.1433572851197735,0.09893001653360287,0.026445462637969257,0.23271517748160322,0.34507680471139746,0.2646014877441869,-0.13467365941470452,0.017365229712600495,0.006941806109578283,0.3233272827791752,-0.11229431404758225,-0.3738512816035787,-0.04972749271579793,0.1172041755114753,0.09244209477052767,0.16038087984711571,0.22075971656557156,0.08235066271900218,0.16330379489153238,0.07870229923793703,0.1028938528730548,-0.1896279887269143,-0.2598960096318619,-0.37140448344829047,0.02128395893126004,0.16312041192492602,0.08437310083221652,0.1090884932108836,-0.0082675908466775,-0.4354515363627548,-0.421315346965609,0.47556219335164374,-0.6995507471806524,-0.2445238488106419,-0.28420632987546457,-0.1836210251941978,0.10805385399050835,0.12589054517027373,0.0018749881483941936,0.06351539064649601,-0.43227281853515565,-0.8228616897953931,-0.07899414773884131,-0.009950515010302984,0.1748527003902026,-0.03656559631954594,-0.12995041100699012,0.49029033619194196,0.09756823705328294,0.14686174851550413,0.006155549588874186,-0.02196312031103454,-0.04292212433853562,-0.4815032194107194,-0.2448626907420587,0.46089910619633745,0.439044311478047,0.08029284286354404,-0.016211089580792135,0.19562492620249602,0.07516131772839829,0.194032770876141
0.11852106643057878
0.04063024763243789,0.027110054502524468,0.0023435754232859086,-0.12815253172928406,-0.09399505377603853,0.06691095936166633,0.1712527312636954,0.2268866618319053,0.12105377818823743,0.03947042666881587,-0.0640587589785638,0.03446680498862097,0.1494104330354642,-0.16959712171746555,-0.42684736609128576,-0.2305065394624744,-0.21171185436619655,0.13271723748382935,-0.17079219826728453,0.20792227659405366,-0.0187968049740321,-0.3466009306450863,0.0590788499385638,0.10771811627314304,0.13046594775048248,0.05667756013008743,-0.26117819063609654,-0.0032594794638225316,-0.0038449944316714313,0.1322051976454202,-0.30280881487817807,-0.1914355843468014,-0.12546143587182795,-0.12079799836354771,-0.13583745703402622,0.07613243924061755,0.0797037226832353,0.07324277804925333,-0.08576532095500167,-0.09054581605917786,0.013730865008953434,-0.19431533644855487,-0.740219137792865,-0.6758948873347058,-0.5091261724438018,-0.35447862650953194,-0.044750821933930984,0.08684112594668841,0.1624372344844377,0.17192676549308838,-0.37830498323425893,0.17601103722215156,0.3103812471445894,0.9289511773912925,0.8011963921964794,0.15370549562715902,-0.5721164302792098,-0.30196668421693457,-0.02059242772195364,0.08849388029582744,0.15973100281101793,0.037504251319487134,-0.012498566824704412,-0.09984310525512818,0.1525492865950714,0.17648754695124824,0.7499209903982581,0.9262032633876575,0.2643710397588603,-0.023794931146858357,-0.03751178666267857,0.0497729239302067,0.01476977026405175,-0.04777346528454271,-0.055379363630977105,-0.22090948846437153,-0.3546165234508229,-0.4458236519237743,0.5274482923218483,0.9765906245566994,0.612426281019732,0.1521176094034805,0.0031606200690776527,0.01482246158928002,0.07343519532027765,-0.10075781375436962,0.05102373687294659,0.17026153282054862,-0.09182380626707265,-0.6205207968691476,0.09833303984473854,0.1938147600941234,0.2828091906797536,0.4103468626091356,-0.007334259950267434,0.0435939709862327,0.027776769687248872,-0.0801338399144341,0.11833231432061533,0.20882050858393403,0.22637830521099217,0.10068128157913458,-0.025519459840684447,0.011762218087782803,-0.22032371991019223,0.2689361353111985,-0.0213285291056063,0.03018915501418931,0.04030651960061031,-0.046539407617171666,-0.035784125320927535,0.2188492793093626,0.37947351036770877,0.08295244225008805,-0.002762624980646389,0.32463959998684605,-0.40245027025727104,-0.049324355820244026,-0.01846087022340317,0.048718565868037134
0.07365642814586357
-0.0032949062780076375,-0.1578282126061655,-0.2613472368602506,-0.18115988373331612,-0.06280802228522663,0.07593997780131602,0.06757094616693145,-0.03565752131570143,0.03591239252906627,0.0074970471442622234,0.020284407042053684,0.1658816297161674,0.25992252853639,0.19501777284417163,-0.3322018356662026,-0.18412750611945392,0.04802143130485222,0.09370341702397068,0.054887896590334044,0.03585874578040834,-0.21561628104775624,0.20194029216116574,0.22565857738203762,0.24232657723950649,0.27101021637204464,0.17634566203435956,-0.20354089233296416,-0.2017592145760377,-0.12066855493308686,0.043537302916858124,0.39365095426971924,-0.22340452866583974,-0.20610280918662907,0.16361300576271506,0.31540219939192143,0.09521449416028495,0.25643985484655935,0.008851086606762483,-0.23428866556614317,-0.1279404637056206,-0.272450438214158,0.20033172719420397,-0.12030818774458733,-0.25334096906448855,-0.12038345250296191,0.24394242619564252,0.2677302170692955,0.03537089580102224,0.07608146802623168,0.060379084597898515,-0.21250410885490037,-0.17579881246812498,-0.14805138139315724,0.4104126016102991,-0.062171974245133384,-0.10696190369155247,0.06977316431097862,0.17339438158121614,0.0878850959127911,0.007605976890147243,0.10712715834308402,0.1491737871771345,-0.24181775112416,-0.43485190747635066,0.17583719812554002,0.11621220080287174,0.07539488449707875,0.1041983215970297,-0.00461087946509842,0.20405164213806262,0.08922367286331408,0.012156048514746247,0.003364418269666207,0.10210510914237823,-0.07768545390782954,-0.34787069695141076,-0.40731881580255197,-0.14496674489145114,0.28025390855062354,0.2626394095004437,-0.43972526753743674,0.11272078706652382,0.042930250008291655,-0.010561041879129157,0.053036892071456225,-0.00786902029117681,-0.2751425744575277,-0.07727541228740269,-0.20741003511864345,-0.08406550757673716,0.5219418622113943,0.04466330245322709,-0.2487992584121411,0.173626625688338,0.02352370474014586,-0.0020664811786286087,-0.07369538504242863,-0.3086577712917105,-0.17173855263187163,0.1569871672072504,-0.24584687860919432,0.001130325355404373,0.4421636326869574,-0.06091972154606439,-0.48634328068080995,-0.10395767939768912,0.05120015819796763,0.012801552464892016,-1.731955260532734E-4,-0.19425862460848017,-0.1545473178432296,0.2801235965132099,-0.011086752872482472,-0.0330808954070305,0.07703923022874669,-0.3706569838974528,-0.6424630414219792,-0.07568952368602873,0.05560735383156811,-7.091785579962038E-4
-0.0030911473887178793
-0.0021399289794554917,-0.010639958253819871,0.29262655094730133,0.050571476348254055,-0.10172309325901314,-0.20979089657045594,-0.4554472317900146,0.20903913262154847,0.12723398270513894,0.10744169192796225,0.1941574999900111,0.02161585471194339,-0.01807155809105785,0.15742720310063354,0.44741807683211005,0.19776717365451688,-0.18720309381882597,-0.4049869605852657,-0.07008192351662569,-0.0702645660837256,0.2932309524260048,0.11789133715645637,0.11992562858966412,0.007066141250005637,0.028346537771579777,0.05020779056283915,-0.06448612882329605,0.4710494662008419,0.07591383824706525,-0.15097074561085325,-0.1882263181224373,0.35896795295881806,0.23435832574114931,0.20050638526200212,0.09976949340245032,0.003303463450285895,-0.002592485039574913,-0.3012955588732695,-0.10089183645123691,0.2995093498281128,0.21642786336251055,-0.5248670323269524,-0.31319919134839097,0.051083191502001024,0.18536241133317252,-0.11943046162985659,0.036693739536499057,0.06981808819595185,0.04062647381606456,-0.16739427294151574,-0.14726629285129442,-0.16086521899562936,0.5087045302923001,0.45668621848654484,0.9965259810581739,0.6852201648735701,-0.15529921723805565,-0.1764690331764769,0.040688414241164,0.0775958594616878,0.0910204802097239,-0.20175390236690507,-0.29886384309666586,-0.2705786399673515,0.4551899281106248,0.12369426772424255,0.9210654430114364,0.525953607408014,-0.22727217654932072,-0.18316410366890104,0.04202843922884367,0.04117506261318525,0.1089694836087257,-0.3381959265882419,-0.11118601201359656,-0.1607721753057397,0.13163507243840997,-0.003290906962763028,-0.3076970859907831,-0.01924700722925409,-0.08243733460985388,-0.05571342450755851,0.060786264559971395,0.04265135899711117,0.01874806543564156,-0.06424483944372926,-0.01626556025017821,-0.08754106052931963,-0.2252968101640417,0.09911503682515092,-0.5395753053316215,-0.44711608255511265,-0.07590594377512776,0.0663153529743818,0.06527281128447938,0.08808672327842139,0.29699276259410684,0.16102063879240228,-0.03195948179829067,-0.1672136405894135,-0.2670842542633822,-0.0029712505558670077,-0.04928927519685232,-0.6577921175791839,-0.37867472018823517,-0.09649341872958657,0.036905769479604264,0.07046222393217831,-0.0042000143716565885,0.10847288370259199,0.026368230865341707,0.01786132166189762,-0.01289598158607743,0.18749935514103708,-0.04496435578120821,-0.08076920416362844,-0.8699849489989142,-0.13811770786903602,0.04097091623545693,0.07185296747752158
0.049050918817336905
-0.06012051196627688,0.05850501334078236,0.023890209995702308,-0.06948558388730747,0.08543521592035976,0.14627633073631838,-0.051493654097675194,0.3480897597322659,0.24581569345862067,0.24145296396245267,-0.10247706826869475,-0.07375485475685191,-0.23677955437177559,-0.21129555553019433,-0.08611329175216943,-0.0973822303727999,0.3652438779212324,0.2551972775460284,0.21968911808800443,0.16629132901573204,0.25369046312397536,0.06749789302477463,-0.2471444451181247,-0.17683310971158503,-0.26834848045419973,-0.26955959202749685,-0.22413821594298858,-0.035347879970548064,0.07660024678655349,-0.06117052461048362,0.2822752640350627,0.04427243723384295,-0.16957147251723972,-0.044643096994165084,-0.4154008738804274,-0.04487619930296955,-0.09951066679991209,-0.13979420533246614,-0.10395980635255574,-0.3083284330686455,-0.04221832884143303,0.03520443641564076,0.1509642472354283,-0.2044115009778131,-0.5337480720029817,-0.5898739400621018,-0.3816298435546694,0.11361434212238854,-0.0116778267051668,0.02992563505405179,-0.20880890296694096,-0.11064860814617668,0.20432253734733422,-0.06374889757957002,0.17088630501777521,-0.06481381840099823,-0.9234739217132362,-0.8379391608834585,-0.22772756589395246,0.08989915821163667,0.0015899291323383834,-0.04117128884924593,-0.3227396080585317,0.013350218653841448,0.1662327994543674,-0.06090739159164816,0.3670321625739809,0.08227537863380079,-0.35940047246351553,-0.6631376846782351,-0.19710199343388032,0.14490940748885253,0.03468917292497926,-0.043031812051928985,-0.10633073692818125,0.09003487511747484,0.2834311639794915,0.46692951215445183,0.12079497810078475,-0.13440354595915435,-0.1689194230025197,-0.10464637915408252,-0.0347089238189135,0.16122589668174123,0.09320609547151822,-0.09863996450318076,-0.18096923503043746,-0.017019499066208785,0.28338368604506897,0.06098118091820245,-0.23730419282868867,-0.3074817600476925,-0.17684170599937157,-0.14485065734364658,0.053919992027070214,0.14884265482451756,0.050584857389522044,0.027810722717961617,-0.022131292549534123,0.08089525361968732,0.14398680464043126,0.10856413720041556,-0.02701957549537186,0.11047640077827241,0.27552333834429793,0.205223022472415,0.12925795548143473,0.1919966514408257,0.11324680596145874,0.11852007716231129,0.2298698516342015,0.13577419627132928,0.4544810024592863,0.4425859092612005,0.050722185533483226,-0.1104312624790992,0.1221076568583986,0.03422145462550227,0.10073449780294406,0.19645451569973518
0.12170933445593966
-0.04488152920215227,-0.024710417230842496,-0.0680022626662312,0.18145316313130053,0.1737433538211491,-0.01364562639770382,-0.07461512028606078,0.12208008478373737,-0.12643205849856434,-0.21098617107435277,-0.023582851439452816,-7.567028181029381E-4,-0.12581678884820185,-0.38807594202109535,-0.20126968288226046,-0.09422376381832544,0.07991660103447949,0.3633541382189363,0.3617103086813845,0.2555533135759805,0.04887319981397702,-0.3071222162169141,-0.12042286689303393,-0.005401631312407255,-0.037650089954091706,-0.2382464858230501,-0.4222758944562643,-0.4044745944791818,0.05799961317546667,0.29932952209848523,-0.018128298040270253,0.15963156028879497,0.12341135456319893,-0.22128838089805772,-0.04427333667998623,0.11770124003915235,0.007015955625574352,-0.04067448539112051,-0.35999539812794795,-0.34868622300126423,-0.5397073623110058,-0.2662851009272154,-0.1455806528633408,0.49089657014676097,0.27124337672271787,0.1085993110000303,-0.03755682714689565,0.10837314341755959,0.025795493570653943,0.09111230614043049,0.06897043117823955,-0.37776945255358646,-0.5703139739354277,-0.6610181188568902,-0.17322596876621796,0.19270506282402314,0.11205518981495048,6.315943621050885E-4,-0.013868546693299436,0.1688109947440594,0.1081511763456267,0.08495590922013825,0.42284085163083124,0.10951519965440502,-0.40775551923149994,-0.44668019427562883,-0.3568974315349938,-0.056745081214222184,-0.21821559821733125,0.09455764831498913,-0.0025452927665339554,0.1586633383135885,0.024849878926499272,0.21665828497041947,0.5495299258282536,0.7735931034808201,0.28533303026853657,-0.28657322188239215,-0.6965952219444549,-0.5197331825964915,-0.22209087123300927,0.06313383508837629,0.03779242622732458,0.13995739307170732,0.01839874930523198,0.07256662591028591,0.14333387113674914,0.6658854676401664,-0.08750603020576274,-0.6175685684790733,-0.5460989237627327,-0.1228718349105421,-0.05725198715737055,-0.10480187454046229,0.05419105987490301,0.10490463379855548,-0.05001581211383088,0.13265084543283062,0.040193365084819924,0.28306545889253437,0.6923375060426631,0.7064842983453261,0.8424144755328669,0.37199306539795535,-0.2704596358910079,-0.005665789123925005,-0.027260374501303773,0.13175807884126833,0.034052006537065874,-0.05310457739613639,-0.36442810039765255,-0.0167757429476977,0.2758223539809725,0.7436694279513942,0.9294185323491848,0.959380997324994,0.4566380654669799,0.03266043285803823,0.060786007369693376,0.1858423675784273
0.190912611959185
-0.04788294705460807,0.09918330372488542,0.11113682819512365,0.4385903414764829,0.28691761666017246,0.2391388564409316,0.2974560708538708,0.28565367231326877,0.03434868984372117,-0.12372255909478304,0.002787776356552989,0.005104386412733427,0.04645935807639994,0.12419665673763285,0.4106258057427914,0.48793288102011356,0.499032024295591,0.6309374736010965,0.24132981060751527,0.4282429690870596,0.030754589781061947,0.09798098523757993,-0.08571900161020098,-0.03135748766156711,-0.06159432492848709,0.110832291588588,0.07386857191441419,7.46348331690524E-5,0.4344033321104248,0.6337480094766276,0.1346198919644417,0.28713925087285963,0.07365641104420322,0.23818238751979173,0.18152003168821454,-0.004633271452259332,-0.01744430582461191,-0.02006942779962195,0.1163255794942873,0.14498686535855496,0.15142571486074777,0.32590410296536587,0.011444657331921815,-0.22003742090580866,0.5068505892192419,0.4650681714391135,0.13835860615019138,0.05804481094048999,-0.07736534522906201,-0.1474207096561164,0.015754266143868014,-0.26784502764759444,-0.6085095274874764,-0.14849103962698387,-0.8097742686297799,-0.35486808572436246,0.4918721286390421,0.5251517934506033,0.16737111182939726,0.037190910931790215,-0.09899274120758185,-0.18752309189047014,0.0024930685552362044,-0.2137818328058587,-0.1840812285467137,-0.05574565014838983,-0.5341743280010957,-0.3016417578060665,0.1356186332651584,0.14453244394142492,0.08382751230461964,0.09073650746820942,-0.015437557654580892,-0.3430568277828874,-0.17055210667119933,-0.2633062100549261,-0.04015248480593874,-0.16694603612098122,0.12468072274272814,-0.1676787121015327,0.02369289523828057,0.18279698485489224,-0.008949014431245914,0.06963108944147038,0.07093580686590324,-0.265303663309792,-0.2746570490225495,-0.3927284717454833,-0.3250536452642302,0.01788988692300793,0.6415260141592757,0.2508290280965952,-0.16236904408194378,-0.10881938936347697,-0.053829952177463426,0.010592233204853628,0.02889586596754083,-0.12957036795129032,0.05726232412366839,-0.5249337897962486,-0.18837938399564005,-0.5582176773816873,-0.08984608231854595,-0.04712539628368225,-0.2541793568755724,-0.12826928971596588,-0.056612614443743194,0.04043981893001756,0.04355407574990328,-0.23628436283030566,0.011760256278124073,-0.02701979641481125,-0.6583663347626793,-0.12723973920867074,0.2301307043987811,-0.06956039205949412,-0.09654689088784037,-0.09973773855365255,0.012710905617766685,0.09096620642793858
0.07676543528951825
0.12068703206596476,-1.2180563378782389E-5,0.03432775552385993,0.013808415293718812,-0.07484616178215173,0.03201580841149981,0.08139718954615438,-0.007458016836066629,0.011394808359191868,-0.060168674336404285,0.058474031003026256,0.12766148766556928,0.30719846952157154,0.15502051592289873,0.014591242652583098,-0.124748614179215,-0.12748616772816665,-0.015879319532468218,-0.10066078749323881,-0.19300522681676874,-0.09601155118559232,0.053793883757414354,0.161989361890074,0.20455406542724913,0.29765563090416525,0.20865107145810524,0.03698441521842213,0.016575264985856496,-0.2822459271665108,0.02141410683793193,0.01856161054894947,0.011040923994143767,-0.09883120769103387,0.05494377891842765,0.22361884778659857,0.136982710998462,0.10220787998091202,0.11493059747511572,0.046263396341544805,-0.1440596102735615,-0.14822258288647705,0.07328176540748105,-0.018668775173493555,-0.11959688022788303,-0.007887095799042865,-0.044043814120077976,0.19131167546260452,0.09634170989420535,0.10443824029804769,0.09574489560989391,0.21595899461713725,-0.055250420029438724,0.023076898996158782,0.4226777698981572,0.09450303735120522,-0.17456827095101146,0.132918951237122,-0.013726666455188241,0.1018286380635749,0.06460222646535196,-0.010821229409823543,0.1400252204173305,0.12423875818287901,0.03092445495466808,-0.09681034012290282,0.1561315522048784,0.08370147087996185,-0.12356161456057019,0.0662273495322185,-0.05428269311040462,0.04160938252413482,0.057030970734903264,0.013339066663602557,0.12061818863337878,0.08091508359785843,0.12526402541188056,0.2515110055107011,-0.13810471774992034,0.1343901888924544,0.24567986985937268,-0.13444568458186612,-0.07667425507512651,-0.06140389093816984,0.03456062005139475,0.05074163090810287,0.012247598793302965,0.11237792698807501,0.09013031571730465,0.2998943167660857,-0.2281479162770913,0.25724450883612054,0.20676197220620263,0.023006420371455654,-0.0875183845089591,-0.0914393959759772,0.058958727721853385,-0.01426728049812548,-0.038897088198001556,0.08622305118344797,0.3134979833544992,0.040485678186209226,-0.2269804700755994,0.2445374246975994,0.1563879787008794,-0.10329318164435619,-0.061764719308294753,-0.01814743132947871,-0.0046299435361559955,0.012105231276936126,-0.23662740554685208,-0.1443951381794505,0.09661953087969316,-0.07816835343102546,-0.2581163902900016,0.055722090960168655,0.13080368792309915,-0.019317124558085517,-0.0012263603235318976,-0.13894729965923552,0.0564586746119585
0.03380574763051662
0.2621892029047877,0.29394052762910156,-0.06106374551166343,-0.373661817904203,-0.3366034245754453,-0.5160773040801578,-0.4725066590065186,-0.1938237818800333,0.406668433278725,0.8024196804045314,0.3356105015316782,0.20858236883321296,0.20681920418441996,0.13709160563067713,0.16917558819001682,0.07360143287790379,-0.0040178745207939915,-0.7621826521958079,-0.7730219473915287,-0.05693807464154047,0.5585446310245024,0.40572928000255953,0.00326744547136952,0.2505106809262889,0.2226110976777647,0.17196235322949427,0.10404937837964727,0.15511396085264995,-0.45537426886059856,-0.1954645760607867,-0.4581045252318103,-0.42733169797536114,0.14141144825578505,-0.05532408924133541,-0.18420423730982033,0.19560011289662083,0.24686925591850573,0.09112094440163153,0.1150554176066262,-0.4654239734772401,-0.2697255589172582,-0.04727276092075474,-0.7636533311722689,-1.05659102078378,-0.7982604378607385,-0.5640775714683468,-0.260476789733408,0.2927317488254913,0.29507523853743284,0.006318375076991019,0.5165058628682171,0.4336154046016287,0.49566646214252924,-0.10797317877076991,0.35844882792382476,-0.1027930386636791,-0.40889354043330256,-0.5990718206033778,-0.1436699760575586,0.29754785717318516,0.2358490005619847,-0.19824993174858468,0.5572071460368977,0.6044777526444245,0.6186945835749158,-0.3473809791499722,-0.09543097699224344,0.22648199721830764,0.16154116364131393,-0.4363724787556625,-0.12473751038022053,0.2905741778162833,0.16317436415565584,0.23981428837048457,0.1972818007177476,0.047744996242509476,0.045350589243897295,-0.2527120223001564,-0.0929284003392475,-0.18621804001147496,-0.28057218008415014,-0.7346238061956594,-0.02472744683038081,0.2341959022982943,0.16931932712185344,-0.12108133406350141,-0.2690296232146963,-0.33326006195843566,-0.011690754919175275,-0.0404140674016702,-0.4048047927024622,-0.4836569461192339,-0.25777508699294144,-0.5490065113512548,0.11198094870643106,0.2691656837685105,-0.22197644947246825,-0.8920051798092123,-0.39454231171940407,-0.13506912169419882,0.467539697406465,0.04301552675271967,0.15379818107691312,0.17513095516548177,0.04315630703124219,0.3496395867618685,0.10376044235963726,0.2746771524978157,0.04187361713970953,-0.42907072648367833,-0.6865226064625884,-0.07161716739946318,0.018901512391180136,0.11673341769951988,-0.016121940180233166,0.18444138826376272,0.23050194221649745,0.36820845395315654,-0.04664689900325094,0.29705585659296124
0.29850576476776775
-0.012296188579155274,-0.024153407402571783,0.044435154539583396,0.14651253572275214,0.4864085491801002,0.5952037849998943,0.3157279577653837,0.554083548045132,0.09260992140023268,0.08807445476087343,-0.16977550043242318,-0.05960127731733764,-0.19201102658869817,-0.19733875392530642,0.03699716179801073,-0.12178922344322567,0.5113818690017007,0.35954870800628574,0.37399138997343123,-0.05124072172828768,0.010773879867924654,-0.1863717415943411,-0.2305024278320606,-0.01743026466078891,-0.15809392302480213,-0.28183010555630444,-0.13995421559878252,0.060455172967065963,0.1335432039484346,0.350721691629943,0.3103651198623401,0.06073859186245915,0.030332114357498254,0.01591013250620098,-0.31135448844166697,0.08745292914296439,-0.04702212990533122,-0.14238545630905114,-0.18562149322263288,-0.10713574652381318,-0.007961538814440582,0.13553587182162935,-0.009045647494331262,-0.29255997193243916,-0.0991750487646303,0.0667217365543757,-0.2039431477107162,0.11624683175660204,-0.04063490116342981,-0.12691159421152365,-0.24204371334633717,0.08150195264698361,0.4928770629478821,0.27763863601529565,0.21934836507609295,-0.06620955735881699,-0.37047246836551456,-0.2326793252586855,-0.18954004448262618,0.1294436571043368,0.07512124254517609,-0.04192451979844418,0.06608046380009754,0.30533774300895583,0.49031356199342185,0.5307809981220732,-3.420441296004679E-4,-0.3111028511028449,-0.5435969471993507,-0.7135981883596461,-0.09216089729557088,0.12997591819187887,0.1074818428484434,-0.21043533663459252,0.09843631652128258,-0.02937804023273094,-0.192306901744202,0.2332427293246307,-0.039668472615989714,-0.532577687192749,-0.7917108907731145,-0.28855695821086474,0.014581638008978636,0.14656402135960822,0.09301532699989333,-0.09242444380923283,-0.18619522981978548,0.06475593990246169,-0.07033356999161543,-0.2589616153660084,-0.3037687844917489,-0.36979293569018773,-0.3710813001239229,-0.16666445936281488,0.10621625775216663,0.12684593564987978,0.05740249810338845,0.0920352270827673,0.020690224260634986,0.2733736141236636,-0.1811724678628705,-0.19539275525999933,-0.03989775730662044,0.2514692792875583,0.0889940898594085,-0.016494005025417046,0.10421133436216397,0.1164437399369118,0.008515493958950609,0.2230104128668703,0.3124208967978643,0.45006101720615593,0.19644639835459082,0.03952531437734773,-0.0410081303960905,-0.27827120882110395,0.010697143276307997,-0.07417881064032301,0.18331904745374106,0.12634708053084437
0.15009880978458584
0.0020818789351255106,-0.13681567055709995,-0.4158151826085539,-0.4761336656549843,-0.019944734793635108,0.3819236517971113,0.5517536332434609,-0.1166385042450829,-0.10563909553689022,-0.20433683005530742,-0.15949501954076703,0.11243385240113746,0.15364623408316033,-0.17224552733657097,-1.00248005719229,-0.8798826529357924,-0.5083119003870257,-0.019818537225406337,0.08187831029481596,0.07284168243639977,-0.14553372903166914,-0.34215621347678193,-0.011159316437952382,0.1948652119126131,0.16524785019889685,0.17018212210254044,-0.5126718167207649,-0.5856233531413686,-0.52238025520533,-0.2949805799557499,0.014676481289693746,0.10933816535404692,-0.23589458951734474,-0.34774212580871255,0.106684758713528,0.1237077111712587,0.12018475783637078,0.1836794217400675,-0.01709947831650576,-0.33248768077889934,-0.5829060822036336,0.06631071127823837,0.18556869357332026,-0.2638239048855898,-0.17824100465678847,0.09109876776149636,0.042423542143192994,0.11520600704732858,0.08828424438167862,0.3021521985184734,0.18931229076175884,-0.4177614158295945,-0.7289848658770246,-0.37705109334215736,-0.02047937529656582,-0.17173396758999313,-0.1294592073649948,-0.09154205865713977,0.05284101795664868,0.059285058133172766,0.09429537061043869,0.3899320913421851,0.33730980436044833,-0.37954860363490506,-0.7046435800250253,-0.40521180185005845,0.0366275619239612,0.08169925989195934,0.35640619896412473,0.5535510253063447,-0.10734618479550512,0.06858069398960231,0.06186560176847184,0.4314344356895502,0.372779138117719,0.2724507309069434,-0.009728809443805282,0.03951614393042073,0.5381983194627646,0.5308429389485261,0.3423358443668626,0.27544200601502,-0.027703708000329914,0.08620562509953761,0.071306177168932,0.3156877510454603,0.5232701312957142,0.33809780363056907,0.4869418540963012,0.23623011553617282,0.28537612572026577,0.15512057755105138,0.11237822841125744,-0.026609509874427992,0.008117938589711037,0.14274235123907633,0.037872061780769406,-0.2983033812896946,-0.2566995147572295,-0.09724764247274789,-0.3044467514748146,-0.15666455587975756,-0.28961906252741676,0.28012056379539574,-0.14727372866808833,0.04120717704999173,-0.09760697547967423,0.07544501277134785,0.08060177941364693,-0.2267801994183293,-0.6829400221458999,-0.23205511624426603,-0.21989634968192237,-0.2859226589960193,0.11969074116373232,0.28543086064861267,-0.06687605716528539,-0.08364201513684658,-0.057734606219266696,0.07067929970771641
0.09382302213563831
-0.11356977736627115,0.08295697619389496,-0.06125970357013168,-0.01582237873422794,-0.16023425313296918,-0.280573890762138,-0.10263415504063374,-0.19262072716250428,-0.13162455311954085,0.05810482354872247,-0.02749726344556892,-0.045294934406906434,-0.17924637387067538,0.12407985033752056,-0.007216280957702734,-0.10439896260868349,-0.18794237318595242,-0.024720660304451147,-0.015497336834765856,-0.06379728139333411,-0.16674102337243962,0.24339455033157903,-0.008320575490308051,-0.09099535434109453,-0.16307793403091037,-0.010376359975074578,-0.0599011754138251,-0.3506747188525402,-0.058804532884567176,0.05342209127061151,-0.13441921041521526,-0.1176433009777071,-0.4173166425172463,0.40977436559604996,-0.052387169191298114,-0.09874394894190809,-0.13891790783851876,-0.004132760484515952,0.2683996573738642,-0.006088756497626827,-0.08675218704514116,-0.17799916920105224,-0.06687676556358242,0.1918661078521115,0.1448647895452838,0.014556412581910561,-0.16513603848989855,0.007171051562076082,-0.12330756522517224,-0.13872033042436682,0.2918687897337505,0.024220564145810617,-0.07480718976367413,-0.36587078164481923,0.11762556377079005,0.3248595546060249,0.3902533648842391,-0.08582953694015595,-0.12568467700838196,0.06502096364075853,-0.04618084265628186,-0.06964775640694822,-0.024011860320869795,0.38415073683878687,-0.2670105335633739,-0.10202057391637319,0.26273804911401866,0.2741114102169523,0.0016069860661817943,-0.06454908217473482,0.011125620722164081,0.07593326088955644,-0.019079870322091904,-0.06035916160378889,-0.26379525320644426,0.38037146576562075,0.202724928348538,-0.28349921330598704,0.3832837756757761,0.2125281083316014,0.1403779332999714,-0.15159043640238817,0.07209019184112868,0.06628639668419777,-0.04281325182898915,0.09741439210079093,-0.12021761305392965,-0.15523327909245732,0.5393632311878658,0.5986649685448051,0.30709691806942907,0.28967982023200434,0.16046677140088278,0.030437741731353368,0.07477159376219426,0.015304194934644941,0.08863012883084352,0.47553308886358125,-0.01705492953238972,-0.7924512491234599,-0.1343757735890913,-0.4121840831907567,-0.25176211734563203,0.10495018064453655,0.470016998272065,0.32884174124423593,0.16270648063396653,0.00842422563048458,0.0948629218321916,0.165342362419317,-0.008876231247820911,-0.6592143148151746,-0.5377053660183131,-0.38012629567522105,-0.4439313119860302,-0.1423517555627346,0.5519749725394414,0.38196990587520396,0.1592733307538015,0.07105345023234778
0.011566301993370328
0.07071571020641396,-0.01950229213622898,-0.10283763580699748,0.13486978780947967,0.08737238257579846,0.27904537231601195,0.4522297178468622,0.39989757527367104,-0.24495571594295748,-0.12197971510937147,-0.021355248200470616,0.14440374010948356,0.0940477944707919,0.12776593894954225,0.5792276372636991,-0.01255781739586863,-0.16053022067502,-0.11384574314349025,0.3480744208740328,0.20889283617588103,-0.3366164425641451,-0.17429120876428608,0.14176382684279884,0.07787957363310252,0.08723598242927172,0.18022219998501335,8.289851735060367E-4,-0.01582318804996846,-0.2761515520798385,-0.06529328732804306,0.1399280392114828,0.8330140481818751,0.19980093033268978,-0.01143771416202939,0.017025386588108374,0.13050428788417628,0.09286305509325057,-0.24288237019831985,-0.49132851675192873,-0.06488749078856043,-0.3735386394850409,-0.23505964508030838,0.08910619504917108,-0.2706803042352777,0.20328061385072713,-0.1762648517541672,0.07215191786675001,0.1818876493820132,0.12028042869509695,-0.22914326437218954,-0.6818081217256908,-0.4771929705102483,-0.12650581783909542,0.5273927513574361,0.2338627656032903,-0.16336576633587582,-0.4725441892037739,-0.039125928851811695,0.13701550081750144,0.225218480004211,0.08552674874294922,-0.3076800759336867,-0.9320267020997939,-0.746174857161521,-0.335776203014481,0.6016703276100186,0.5769025604926796,-1.2293851022157751,-0.42483658238606753,-0.016909485623277386,0.1553553272096149,0.18200777617607847,0.19832230503394913,-0.4906249344572879,-0.38644915801815366,-0.7935905656919522,-0.28319786734990576,-0.12020360392791937,-0.3905337390568812,-0.06777828312633988,-0.15913601840103794,0.11794286028098533,0.12735744800331508,0.13905900586714962,0.17235828890965146,-0.057875132210822994,0.21594979195057643,-0.6490470264697548,-0.5615275797782306,-0.11084153800182761,-0.18790019176430797,0.07424260062142099,0.12270493158779389,0.01818433217054097,0.13272965248996194,0.18577995179033893,0.2951361113695136,0.486157709133392,0.14362853191831423,-0.16048692836386277,-0.07045578360355849,-0.09770682235803807,0.1829255380325914,0.0018292587483469533,0.07864847484844889,-0.20151054557258605,0.14120895260196756,0.22074785130146404,0.0975124903151359,0.1416894813577327,0.1462554254985727,0.25225336178344415,-0.015241428133647938,0.07040597688326203,0.17294543579006963,-0.22125468538852625,-0.6781540591406723,-0.1330623265267841,0.20555497273941167,0.14840870643793372
0.14838786619296981
-0.06071261102541192,-0.05465647469983852,-0.26653367122702937,0.003979397418776296,0.03617208405150052,0.28309685081820585,0.25219878158885156,0.15490752777630892,-0.0920212551334993,-0.29651106722583537,-0.1482633281678619,-0.05272118442135271,0.004865989718165196,-0.2539972756439354,-0.12300577703500022,-0.17140742402970607,0.04720945759237745,0.07111990677358536,-0.1814627801164582,2.1603339339273624E-4,-0.21410354259886574,-0.2583045928203224,-0.03590511557626489,0.041905828766824055,0.020794392119965744,-0.05342304480542595,-0.26631860921496825,-0.22610590875693823,-0.09443122230019298,-0.16561804947124295,0.013206719475486918,-0.08869856187614726,-0.32368420046766705,-0.20645095114964876,0.0561080806401056,-0.06718043779569545,-0.18218829554512908,0.0186847876622037,-0.08225718275792034,-0.17325082467057476,-0.04998885037561909,0.15692345795286108,0.15448419648383363,-0.16710901571939826,-0.19438737893460414,-0.15323666751803192,-0.03567857338064423,-0.029379830081239105,-0.15695361692238577,0.14494243049090774,-0.006815733816601871,-0.11986078912188579,0.020921716422824154,-0.1934964781617625,-0.1326200973430364,-0.24103025752748394,-0.21663902410680316,-0.03911248546066498,0.0324968267773343,-0.09748016615843917,-0.12251749126378066,0.024920385726761186,-0.12830306368345232,0.029588150559907208,-0.0056343319616205265,-0.05512359951262405,0.15094194426509192,-0.20962913828083543,-0.20656683353055463,-0.08568453580012557,-0.05140884346514947,-0.03899998753828619,-0.03563714775107566,0.2053854345415234,-0.12816801569060213,0.20106995091113147,0.12877856874303964,0.30706536655667255,0.7810244823266715,0.29913328233921516,-0.03376634580344752,-0.16680886206279014,-0.16111377037636446,-0.011836142947438882,-0.07221468913754954,0.20569414902317143,0.22701305002574015,0.22819534213607004,0.4741860968321164,0.7970385253216375,0.5356235154619241,0.7316339819263168,-0.026374846073214348,-0.32678144187461516,-0.11117014247051445,-0.07323131345764837,-0.01807705868666579,0.09816443386509839,0.22005836529743608,0.20047258153451644,-0.21848953993114237,-0.22273335650382367,0.10124932317216882,0.4967254042062365,0.6810078887850396,0.7199934776340465,0.011547276665079691,-0.09756361145579774,-0.027999151845558196,-0.20813471750058113,0.01835547855699678,-0.2054577071612734,-0.4919003324852493,-0.35383873919082315,0.08067213839719158,0.3112349029244605,0.7033538653634744,0.5298612517433937,-0.050862557377142986,-0.013358291162647438
-0.042256853659084576
0.011668623436758549,0.13258148875030792,0.3087284769168612,-3.672819109262303E-4,0.019670852686782474,0.4840047719734236,0.18152999627432834,0.3099021231792688,0.5399801099339443,0.08792520957005999,0.059014673360415576,0.015218725132977156,-0.018997855367381855,0.33842773198661613,0.39618094224283695,0.3492995068542787,0.1521217767709269,0.7402098817607956,0.676543157805493,0.40886799625510606,0.3759343228527011,0.31042851299393803,-0.025715346119645092,-0.016101818473257846,-0.0710215246090609,0.12134947989444621,0.17948030814755858,0.016228385197257066,0.11691515745027921,0.5296407246260484,0.6173512432956905,0.7232452834022387,0.7087428369771742,0.6323586699193633,0.010221388592029833,0.04574163449083505,-0.0074898742008887124,-0.1643122617223697,-0.04876063597994846,0.004923892282822516,-0.46679884188929077,-0.08484067316639997,-0.05595289072004298,0.2100530459888373,0.3396966985932135,0.3533660436000655,0.048115999340187364,0.04578466668311131,-0.0037009443331165637,-0.1337716063551477,-0.08266345364944701,-0.19890839097046434,-0.501122781428599,-0.49883231743574685,-0.1121313065870111,0.2820929559190165,0.19708586688929722,0.15125564661429322,-0.038500989241992446,0.05447824846802272,0.02935682266104643,-0.029401277519330322,-0.04136732382308297,-0.09610449131289465,-0.11864770322023589,-0.5124612128833173,0.14148163643749753,-0.19513650324558965,-0.05532581759204556,-0.10502795758407031,0.07546813130676881,0.11770504641947992,0.06552346627317439,0.07369989191479963,0.011854069019266833,-0.1824617795744146,0.06385434277748542,-0.14409673271340886,-0.07440661656568077,-0.3178788680392002,-0.7162333611661285,-0.0959698230974738,0.05759084096210332,0.0957457342623421,0.02166401092565072,-0.10851515106489516,-0.18302136358792667,0.16362618682589444,0.29156131368297555,-0.3878476912239186,0.35947601315447186,-0.648823915679823,-0.49266185171924515,-0.06854923511181284,0.05888628701937931,0.13126617019036765,-0.04979518667313788,0.009426876520121641,0.011227900428419698,0.5023096295428471,0.06617381280640751,-0.48812685977180154,-0.7782639677746555,-0.7122246879410528,-0.4264036924133724,-0.6672558794224972,0.06148055758347874,0.04864294214344913,-0.006152435261075541,-0.16055197528261703,-0.5311289427246109,-0.09931466021239525,0.24841337815229,0.2707919237825238,-1.2387917094697538,-0.9826764746605279,-0.7271948092145653,-0.40757264890318,0.08128803582183557,0.0474252205703131
0.08191442651932478
-0.01912248440382998,0.2334300789096598,0.03246483986414326,-0.22689956874430814,-0.2162516719797856,-0.5686199495203678,0.26077579234679377,0.5576810172192822,0.4937676396181172,0.5545925519956622,0.132944145549461,0.08075757914525636,-0.10230322740139591,-0.3630156433970626,-0.10001094561417137,0.06492590258232117,0.42213631500519166,-0.38452565701482644,-0.4411205016474402,0.407951785254152,0.4285603927811483,0.06198237659256059,-0.2706274119814187,0.07035784448089905,-0.09403976219929347,-2.2494320572030683E-4,0.3964498116741124,0.5806354408881144,0.7307530598706468,-0.0671807534843831,-0.03726899730014187,-0.19496494269225387,-0.1493016510644096,-0.14081128516124605,-0.3214795306244461,0.06989641082591502,-0.025028450836775414,0.08978063058025063,0.24585319045746915,0.5214325900392393,1.034603469312957,-0.03640420467568489,-0.650585835422952,-1.20380532354412,-1.244390788368709,-0.23457320415427232,-0.39197520635978766,0.14344628554317487,0.05129393789240795,0.25459480699674897,0.4232030885510034,0.7725728599157894,0.05767966919867541,0.5703204811612165,-0.6222661857531487,-0.5273772130758189,-0.6798102032023451,-0.24449255710851311,-0.08841007282400015,0.15929875817456315,0.0883140800581631,0.18158280339901836,0.4434671980076553,-0.022732389515554077,0.09520915249000639,-0.022753394987582658,-0.7326292867281733,-0.27304582274304223,-0.029559562838006998,-0.12457953189175205,-0.05332673543131255,0.1851846858044057,0.08079137531251171,0.1554601847327126,-0.12303019375147847,-0.7641313162037787,-0.30044158271283494,0.174837533067861,0.1383408689646026,-0.18834287326207358,-0.4346518963684284,-0.036053299228331906,0.06663075805073221,0.17637938577338289,0.07262563032575997,0.1886650384632992,-0.08038344999905508,-0.4068693098692595,-0.7737492922663497,0.4554886060817548,-0.4624857281048943,0.07096419234182993,-0.19205969750786575,-0.11385085580081963,0.11207083392890099,0.17704330167725904,-0.11245123545833696,-0.8318620769765096,-0.8576722348770488,-0.7081013412492353,0.07207553911721412,0.4379741810012955,0.16184053501750126,0.3158575434101414,0.03586406784139333,0.06800974282593608,0.04513665118231994,0.08875954902525551,0.0222855358274658,-0.6131785719414883,-0.5039634357368669,-0.43612639964274125,-0.17829167958510864,0.06914450332450925,1.0396530507492732,0.34943761759964553,0.3092721463657122,0.4055374003849447,0.021683303384483862,0.12864266782890244
0.17318968393648962
-0.061011561225890375,0.09227028062756153,0.04494891097243315,-0.2735047025936795,0.04075557119292438,-0.1836530633034617,-0.2711101989176932,-0.1920777451485161,-0.3084572911962487,-0.2121863304838213,-0.08844364415366456,0.09664844128067816,0.1304053274875065,-0.086960751743715,-0.3750140050834721,-0.1588262640084811,-0.3401108156157097,-0.735900905928119,-0.560787735550694,-0.4347735731800783,-0.6123508421481461,-0.11010919182253377,0.13962868254385286,0.12878882404190162,0.11989968819321555,0.157002763371549,0.043522126634270485,0.12045369152937344,0.01929292456600586,-0.4610809060642194,-0.1325816265287602,0.3147360402215566,0.2917381003416439,0.1370243420633529,0.11599363177512163,0.0033426288018773413,0.1145987228063624,0.06227142856773468,0.17715096799739177,0.15763670735745844,0.2764404656100243,0.020801898123176076,-0.16559795017096723,0.5412600900576747,0.306593831315578,0.1039924179694074,0.10794062100798442,0.03401933883506856,0.08891448893280261,0.11901911929921467,0.20508250242527554,-0.2547405585376297,0.210903591371696,-0.5221065782155758,0.06771527147220383,0.3049910979905986,0.13791143605402906,-0.07563435144726542,0.08903555097666112,0.022912724025665947,0.03533416008344215,0.1521311278255067,0.006217686081375596,-0.23067321687734155,0.06131057934289493,-0.09517196259827683,-0.003758296215138837,-0.06633099835763817,-0.33367348815958514,-0.09809943012554813,0.07144854287992534,0.03142352397950828,0.019750803998194396,0.07156000957586815,-0.044585940979794354,-0.27607967481867896,0.2511366445817874,0.12694882099413157,-0.03824403253710149,-0.0692015621395121,-0.18266233905305312,0.08015289909615579,0.09435620660039969,0.027284149925349648,0.052915462823762006,-0.005496613794598763,-0.33334685763691535,-0.10755728078588782,0.5192592350640881,0.38361014662073517,-0.1302018171896414,-0.6137440497984064,-0.07237676575814829,0.14499042127164719,0.07243296637816725,0.034548206078855996,-0.010470026736397183,-0.34493120730022925,-0.28103007614145764,-0.001398967118424851,0.4814234607090689,0.18422643892563673,-0.14150641653619778,-0.21869162822146632,-0.2007940778532296,-0.10204300630016057,0.08176301936906553,0.03854709585835143,-0.03374838051809583,-0.188398468662541,-0.35974853146341695,0.22773911783350947,0.22006453846156437,0.12452274173863766,0.18695952456798415,-0.1954160774812877,-0.6654974321680676,-0.27973210023016787,0.07446089924781972,0.07336517238872965
0.04400908117712308
0.0876477034798042,0.00834840321425281,-0.022046882536012002,0.2724312033852321,0.27289282868983056,0.30648212815164244,0.23149203795273035,0.32900433189345457,0.27260012312504334,0.004616168325115125,0.07320131523218194,0.1279311937576351,0.002938155536710045,-0.334164500158471,-0.25593323389846245,-0.0398276291190094,-0.11908946389467519,-0.15922578269573914,-0.3232916056581505,0.03404952606837118,0.277323394528174,0.24602721343544984,-0.08513854281008952,0.18341884589844534,0.08527513615178238,-0.19194359139565,-0.12318514258689832,-0.20661753653846768,-0.31984795976287805,-0.2023803845111148,-0.03180444564933273,-0.25284451729754037,-0.004604792137549089,-0.009645906836829886,-0.09384975113898895,0.19440887688230743,0.034106253955692084,-0.14667461715176952,-0.036345074211983686,-0.17327135706866856,-0.515180054682188,-0.03243929091892477,-0.11122871200909036,-0.3157142381669521,-0.1402435417016508,-0.05467448382104417,-0.05720485026509327,0.17973045005810925,0.07390654846207283,-0.1871521855800051,0.18650152376984488,0.3222337745182179,-0.07857342127392407,-0.10884777349833306,0.04890757684553472,-0.1890606268571812,-0.37971753029808686,-0.267910496950181,0.04390375174641521,0.22059936534655075,0.02126347992296057,-0.2750785939467597,0.090004525911115,0.21555945107314403,0.13507494768473785,-0.12055687033000871,-0.14256107743954435,-0.2037428834697532,-0.31569300803174427,-0.44174886815674763,-0.09317392384286428,0.2332930855481463,0.047031915351507914,-0.15758720672771406,-0.09304368450878144,-0.10155269577866656,-0.2191971965156196,-0.0689874480112105,-0.09198478920818363,0.05335628033283277,-0.33441766490162317,-0.23947287613905185,-2.827557724383078E-4,0.16749010387512045,0.0379705556859935,-0.33701124178936737,-0.4675110427359146,-0.004307348607989532,0.06319746675029012,0.18895908296299965,0.047550694343992894,-0.17350937598855784,-0.33477030401316266,-0.14936193344907386,0.004140916794600055,0.1782846585119511,-0.13233441133009602,-0.8204233808009097,-0.07375465025549079,0.44388897938488325,0.5146926787397585,0.6450059302196,0.14713736846215172,0.19030332732784702,-0.28706623393667696,-0.17916511385098796,-0.04904741327945698,0.17939109507445125,-0.061878709574440596,-0.461340186489388,-0.4798884975903901,0.27601186071818795,0.2914266617534237,0.4831083557213094,0.5464713821186834,0.23580937577105507,-0.14525498027485914,-0.0552455844628183,-0.029350574526006104,0.17557046893030795
0.2593861355551791
0.0035632039902925355,-0.01742526848884662,-0.0644255108107604,-0.13758425037971508,0.05515049726481658,0.14368219478081648,0.23651760970746824,0.09003248712858797,-0.23404535210680436,0.08257121600758541,0.05675543176878518,0.0798559405619847,-0.09824638319954151,-0.07389273687116907,0.33232267717150654,-0.09576364308893892,-0.19922165232135772,-0.059679807388492295,0.06373812447897398,-0.11509227645776207,-0.513079915766604,0.07323397428158407,-0.027876448731000893,-0.0152296156978835,-0.16422365293959687,-0.10291285042577117,0.23066597180370527,0.2208711553895946,0.21552251384815171,0.19002542815024773,0.060049793742436214,0.00711557072026271,-0.37491379242915757,0.09324051235382755,-0.09875850400055058,-0.04886349143902219,-0.10049799409500379,-0.4939679083140486,-0.31658400585503466,0.14472429499766495,0.3523927454760165,0.16792839687462854,0.380976251155155,-0.08538005479894392,-0.20482953865213163,-0.23524615323418555,-0.138705335680311,0.09030586180607439,0.024007809827755387,-0.364923321360506,-0.38628770253933953,-0.4699564546999184,-0.12749131507350142,0.4776624982055515,0.23165447286705224,0.0822539044863663,-0.009227855216459479,-0.034819326874670445,-0.06656371982724588,0.18851332953754837,0.0648269713067151,-0.42535333494566274,-0.5343420526813141,-0.9750095175441453,-0.4545390559474699,0.25693372108681545,0.22976320605540615,0.10846611426692365,0.3182367303268566,-0.023507145497101253,0.04328578276682174,0.17284407189856157,0.06846718575762437,-0.5913909662728036,-0.14017690198511115,-0.677103629067386,-0.3726719478909776,0.4653829416786909,0.2534398964308082,0.36248363770186387,0.44881348059364046,0.07277293704628052,0.1152349649887234,0.1290878403044082,0.04389297511939988,-0.07024293233042156,0.22337606913813815,-0.3852949427522646,-0.3007662828893979,0.6188852240013563,0.3875675937492231,0.31813233612304104,0.048791095521949324,0.07941533177438445,0.1807899676175427,0.19974724117697737,0.3373838568879016,0.336101445227985,0.0888326796507995,-0.3996818854517674,-0.4846636369613315,-0.25946479088909297,0.08090229629009046,-0.42150079876942226,0.1498152521862697,-5.158266014832493E-5,0.05461571658605516,0.15533078099832417,0.2329582232007361,0.3109859734945394,0.3029972663192546,0.20500309595894636,0.06906178171520222,-0.12062025994115264,-0.0990378030054122,-0.6778468804405975,-0.7302558391745966,0.02486333600879127,0.1774307174759174,0.15783692528603824
0.14204054371825006
0.11776377490556365,0.10042330195840747,0.06167472756333518,0.01531926232487072,0.08362861274104337,0.030714442223512658,-0.02225626462048214,0.013220981496780821,0.04507605403612962,0.09828859817245024,0.062301549369355946,0.13210137006176742,0.1406037281094553,0.07654257975902025,-0.028851043520528297,-0.027497326994924656,-0.007106012926284885,0.0176265182765999,-0.013596616928097924,0.05181680579412591,-0.027330581110378938,0.07629349736257811,0.07908518680541861,0.14208981640069643,0.14212015915182843,0.10632122728944547,0.030404068239345227,-0.011970281266426627,0.036461870376278266,0.03475620299076178,0.012732898747885937,0.04274142944700854,0.02885416917690013,0.13299688744468235,0.10255128187905117,0.13623689612885298,0.09700649275194324,0.03970979906095101,0.048962192189217144,-0.01054610102650912,0.025281876738692057,0.014353683957821762,-0.010994962225934948,0.12200935400554612,0.08218074703930152,0.0057019049011576345,0.10870996030327963,0.12487799377932536,0.10620578317011552,0.04717754477676733,0.027109633252120496,-0.03634150746289855,-0.007399861222892144,-0.032779000930364,0.02604345441659728,0.012196360671924419,0.08438826979609733,-0.03467986087088851,0.09988661930335742,0.18132956991335183,0.12833032105045916,-0.012510210166563826,0.06297203940673378,0.029718971437996084,0.020097448592100744,0.03295277366996443,-0.004188940106521234,-0.04014891849953166,0.08321426295945948,-0.0015281515670411108,0.10954193950692466,0.18455043940721463,0.07662306974097584,-0.0013674763302346945,-0.021602705723925242,-0.04947153315437851,0.049730825079096305,0.09106321806287367,-0.044695095504285715,0.049348366734325674,0.021734460173355435,0.05344132527259739,0.07854664686771325,0.12250173963033516,0.1631189068894154,-0.006923711536435665,-0.0322486627703662,-0.02303554828900847,0.06975567073471357,0.0645126992906113,-0.03983958528006062,0.0071409555834827,0.0010340608357044668,0.053435409852099686,0.07876751316388646,0.16722477490104043,0.14210541367577376,0.061991409904416414,-0.07788827571066713,-0.024437097151262837,0.07138494109817041,-9.94487070562895E-4,-0.0038671557536796852,-0.046757975280077205,-0.02303677882954327,0.057774146784900074,0.14819416533112245,0.15107681476741508,0.08293417908872293,0.08369433554730747,0.043518707347982355,-0.004235645771167861,0.057694239216646515,0.0798462920827127,-0.005480146542855246,0.05660244015217533,-0.05896934095296145,0.03665487911904308,0.06570684255187273,0.1864686258681613
0.1771395654281636
-0.13347501634521258,-0.11719546594226038,-0.31614247211497765,-0.053194763442384434,0.06965447735702968,0.2930430360453962,0.27806465499836613,0.19725927919666048,0.04895536751556618,-0.35922604470703584,-0.0979369697362579,-0.05827036605646791,0.07980600456445719,-0.005580047711166329,0.0152852463527892,-0.003332494683822093,-0.11102139037819089,0.05632967319283782,-0.03792685437623839,0.10725490794582704,-0.19858553090464287,-0.05663789350450291,0.08075862390071553,-0.07264192173670364,0.04787750014950746,0.19745280990084363,-0.09516593094939702,-0.03348972292489073,0.691585460299062,-0.23235967758640413,-0.012104503911956058,0.47403379424393505,-0.08873580099208342,0.06145571568681648,0.21878374951056034,-0.14584710631558478,-0.03900428200384561,-0.04106988024067617,0.279453527219053,0.4321203372490819,0.4782130680120437,-0.1706212143597196,-0.04870160210861183,0.4395064459928108,0.49557324599227454,0.2027557646819378,0.07351133215932829,-0.08194797146032451,-0.0554913124549661,0.1724436235430683,0.2355858324004591,-0.21807136209903355,-0.25981552130716334,0.26748724865721474,0.2630977959550278,0.1665973640292968,0.3631759956963346,0.231392356970252,0.13505056476730315,-0.1500084911650818,-0.05023575729316188,0.16910329659317397,0.2691246650499364,-0.38184491436026385,-0.4962660904111766,0.18974951882910274,0.07917575350607034,-0.27025658523456547,0.19742597515975718,0.2628346463065784,0.026196646885851355,-0.15912399718670206,0.009718025131040423,0.14178262400907926,0.019968910657992694,-0.2513844308441341,0.12237787269001912,0.05484272848915522,0.6352077626675353,-0.16374705534621303,0.16227890300279885,0.3351028277466425,-0.028068073030512293,-0.07449700508079121,-0.02548567226886736,0.12302952837329593,-0.13344434810664177,0.26193910986334124,0.3674843777819438,0.4747061411056424,0.5106864347562653,0.3126106400687773,-0.12025552712598767,0.10149436953100668,-0.04413217351559686,-0.11900802712268937,0.12296024231190474,-0.20308574394874063,-0.27696423990954394,-0.12502495011720247,-0.11489542090629089,0.0070578127449922486,0.16949666458293344,0.21571238410936183,0.11813741554060192,0.1050757396504381,-0.04098575300587121,-0.15346076864393016,-0.017124942238293077,0.020563405127566443,-0.24065819908857705,-0.13586987058217992,-0.5330819071010502,-0.1418452830240931,0.04767001698122054,0.34457843455222686,0.07379760170880403,0.09024916691406296,0.13782227898761806,-0.07469986457761973
-0.13092476236134365
0.022752088517537142,0.05055493506024591,-0.1374798504434753,-0.12614231845944793,-0.2561911965495136,-0.13610309088725533,-0.12855034905620397,-0.17443884567892523,-0.04287467758034837,0.10811952500982644,0.051037223745656356,0.005259658410559993,-0.00452957712782213,-0.12108920188696853,0.09119214863807792,-0.21369993173865734,-0.04979456255839026,0.19967760116443475,-0.11401731400383136,-0.08918365754125501,0.0374135523912381,-0.04400255032229302,-0.16309120873570307,0.006330600840833681,-0.06840407272287882,-0.15645378444153998,-0.15006567701990978,0.04776839176696295,-0.0319029468611979,0.3298724842388886,0.06984674800009338,-0.22340093101852768,-0.09337638495222314,-0.14597416710603248,-0.12976077992079008,0.011507953303147397,-0.020502051955560124,-0.08385193358235743,-0.14725501982936243,-0.207277255282571,0.14495922855171592,0.38600878439659303,0.5679125380961869,-0.4424735661468775,-0.36723680328854713,-0.10197966992843124,-0.1092305083842823,0.012305861957019847,-0.07753216290788847,-0.08421376884734894,-0.23995347522043567,0.0435308806840601,0.3200622490623335,0.24137500308352214,-0.30103186814645555,-0.4337575543160981,-0.2222430622854991,-9.33872574578374E-4,-0.04147317113215492,0.012450489168133266,-0.05976307020147534,-0.1328291659838132,-0.3883932377401129,0.20717141277053183,-0.07839508960267866,0.058794856476443814,0.07784875695312979,-0.25752063664755287,0.02405594680382689,0.05859254716851265,0.01097315357639879,-0.04442970840202765,-0.0023549483674310447,-0.12979827071041386,-0.14753427232329672,0.22967961458821287,-0.18768327905852897,-0.02066917672780503,0.48123773414983784,0.4090223297271838,0.046596688471787766,-0.04682510272651073,0.009172574632446171,-0.031758562764620885,-0.08059611444490816,0.055431707983144805,0.7531912106283178,0.36737228403213174,0.23949631207283792,0.09080482708528284,0.5908781673536154,0.6073428177279601,0.31452458243097203,-0.03094360052871659,-0.08366813814150859,-0.043633390538959475,0.04269762299056539,0.7301706031282642,0.6933867067608499,0.5896226514023541,-0.9321642372631176,-0.7276099282531525,-0.15119140338908535,0.42945975731100294,0.6556915093705216,0.2966721954446524,0.213143908278312,0.007555228043907946,0.10209150824535107,0.19837975093297108,0.5244970032585783,0.3463190280223326,-0.02950567137164938,-0.6388828628874894,-0.8643794207742623,-0.30491840961079086,0.6330673302540712,0.23507794335199736,-0.07569060232833019,-0.035594785430533536
-0.009978601495187443
0.248405851861826,0.2266816141095238,0.057408107722428034,0.2536192870581889,0.1743386377060367,0.1120748991512177,0.1817769457822735,0.38176727146154743,0.33957534257176025,-0.06041398178091717,-0.039790176029026236,0.20613811447794755,-0.059848984018587764,0.06634962185010539,-0.2488724096744674,-0.026685001628586707,0.15276989652119477,-0.0034990435957636653,0.26297575360462255,-0.014257702486602897,0.23742572440342577,0.4036613847778875,-0.0654544163882471,0.11462257074087669,-0.0046507358820524446,-0.19179814432908676,0.1897681249216429,-0.3047463895633399,-0.10024150929131918,-0.11341661508525298,0.1888756002586774,0.06778400811545394,0.25734888298007086,0.41358374539875076,0.15356292566251972,0.18591624432059756,-0.055492891983853154,-0.15775006180170176,-0.020676850126685794,-0.4539079545182201,-0.7223835382314786,0.2751676948597802,1.035403018914312,0.22520914323779584,0.6659220145698529,0.1370150908626791,0.16395730813785808,0.19990638914274356,-0.07907877907001935,-0.3440969766491164,0.1901621718698402,-0.06492053402384455,-0.7180560372202885,-1.0231137958346823,-0.983956788869515,0.10472372513962018,0.5599475587284862,0.06231615146499239,0.11546755606539526,0.175441017269093,-0.0859391145670267,-0.46639292580861513,-0.08858141969573104,0.1785503864478168,-0.2929220046094466,-0.4334803425280517,-0.6936960914924347,-0.4767039443796006,-0.0967753234281747,-0.4523574156227186,-0.051468789715884825,0.16884064584527114,0.0525833915338504,-0.3668947317136867,0.04755578769475778,0.28779347884912154,-0.06401717630854925,0.09963856341686546,-0.20764592862075076,-0.7137971049473629,-0.6185769073852544,-0.310999865913127,0.009237026461924949,0.24542633565039268,0.05626102877231423,-0.3933711430604513,-0.36411922903981764,-0.10273494397487183,0.14344468616672928,0.4540968272072089,0.2977842778404778,-0.5010281343507236,-0.4343606266345803,-0.740425424517967,-0.03714348380113594,0.16720116420369463,0.032794602292705755,-0.4197332399314275,0.1574003051262502,0.16983987039186077,0.0037535906497555703,0.26623146685050814,0.2087544026273987,-0.28156634365672006,-0.26416018378950956,-0.22735870379333734,-0.018945842701343554,0.24857002071609963,-0.07247340130517844,-0.44546419667228254,0.08109364088345757,0.3132135179380108,-0.1182166001970817,0.05479854649860534,0.1515276395911656,-0.3030712446988897,-0.1488653147822967,-0.09090445091615788,-0.058634427716487594,0.18073004952516075
0.20370950274957556
3.3038179900122123E-4,0.11048822618408184,0.38417767540856057,0.2843072952055778,0.11735211688291698,0.22647882066702835,-0.07984721051163357,0.295530082607729,0.3075108776099221,-0.18184592756643936,-0.07081039162038098,-0.07858136866517364,-0.1418511760730924,0.22366863384598623,0.5680061086280113,0.4380513315900815,-0.00993681470956084,0.09352413607198916,0.5210216045513415,0.13359712516903885,0.1074209119453746,0.0685646753805395,-0.08205281090472945,-0.13646194490266697,-0.06445245488848639,0.010032637969791692,0.08909997308283453,0.001958671613589884,0.0665212264946541,0.014361253698132126,0.38935880168522724,0.16836077823852807,0.15667275417566423,0.4214063033233852,0.06626073309086075,-0.0013405989995776799,-0.08861678168288346,-0.29742609006446236,-0.09715150404533514,-0.04953537600751688,-0.45027337209518986,-0.7380515485635157,-0.2612014543373267,0.4703089896482761,0.5113495500012037,0.30933264934250454,0.1424107069403548,-0.047858694515456185,-0.1442598846727534,-0.29511481880239837,-0.17609604451705407,-0.0952680494286935,-0.15660243622632097,-0.1582674662923118,0.5215426290400281,1.044995751853993,0.6127467431213183,0.4068138025411992,0.11521599412462728,-0.013134497667560072,-0.08712355449762114,-0.14210670656619795,-0.07670950565385724,-0.02334970608062908,0.3890558948053959,0.14131277958933242,0.7177758052911032,0.40221983980062387,0.14511333651308056,0.07164409272841986,0.11606941875162918,-0.05902333082186888,-0.02226709602080067,-0.19359108994422386,0.0031079339210010894,-0.06848046466272617,0.06548109062386843,-0.39123532647291653,0.1376989223031878,-0.5236845453377099,-0.5236063864705588,0.11708178318796658,0.09214199883124073,-0.04383438883899883,0.01103655770859039,-0.22265140352094648,-0.5892921135127036,-0.12050820646674947,0.16877476626024213,-0.3009706593487436,0.01590613550799951,-0.8407771514077507,-0.4216995377758213,0.1618026119332931,-0.009474709777586889,0.02779360256858635,0.04682658910382703,0.15235391678809462,0.3524490972637842,0.20507637928485523,0.11581447469455523,-0.13831086689969324,-0.4947588037669138,-0.956555858960279,-0.7270014848790884,-0.3937265855633357,-0.08331409129304514,-0.0442064380822194,-0.15614734674798503,0.14932802778344628,0.011020769263855697,0.1566419060765874,0.0897534039783449,0.19558813254401564,-0.9301551558139596,-0.5017772098604008,-0.6642881449149061,-0.382511243577839,-0.0013570597972879569,-0.03653218653407578
-0.020557786478276222
0.03640944438803668,0.06167107417406857,0.05578771774631985,-0.0724771723159699,-0.4340077769165419,-0.7785949811083769,-0.8154103808443597,-0.4450582336608707,0.0930475031708364,0.4641943126019987,0.26384058624111684,0.10609871216534089,-0.021093614013602505,0.01258941109730036,-0.06527426663896435,0.004369239022422823,-0.031345635510202384,-0.9403045134414688,-0.7302475042965281,0.13666161177902802,0.23582896970805295,0.299439577163066,0.2421102119915826,0.021145554390096882,-0.009469291694249392,0.1347970457864247,-0.03537875765525724,0.22882205600702343,0.033251462643789274,-0.725417092015817,-0.4599579845305649,0.3169547363263414,0.2836704197601049,0.13463465149723286,0.0363235091452331,0.07358365101949993,-0.04177715475366212,-0.015010422687696003,-0.026047643605610966,0.049543026426305946,0.2702306727776017,0.3069887756892682,0.14640513598791255,-0.13242383608763703,0.06427659139855876,-0.1626687624450759,-0.11505056865283647,0.05515374640589845,0.023468999456522345,0.022935643531122672,0.14164759937021715,-2.4610255850669065E-4,0.11838133186421665,0.597135572190138,-0.01353160668188429,-0.1482481666530744,-0.17169633211801827,-0.2710745974697143,-0.0781187185889391,0.15976129260482236,0.03311309645141899,0.10419112326763638,0.1576930417106409,-0.15818586575073268,0.07477931083840222,0.31314058875219997,-0.1772465042888262,-0.025679381459621772,0.16789386487405983,0.02499659893642637,0.01952037964805392,0.12292854887115862,0.07484199372306571,0.08970556023277407,0.1967133523383835,-0.08050220744552408,-0.09964930055836088,0.2656583554183153,-0.18255347592339544,0.15704881183608105,0.4810788637933684,0.047012090859472104,0.1294963359647185,0.08344284057840715,0.09916583547992949,0.10380002441585628,0.2847993403030725,0.1033851557733344,-0.37163881302734125,-0.23370698317904454,-0.24870708739326605,-0.1066139951505117,0.15322098549805513,0.09210470727445239,0.10273471208232329,0.15379136912605013,0.07228552617632733,0.030929448837697743,-0.12365752894084642,-0.027192026416984538,-0.04382916314167643,-0.3764782689037952,0.07491536173790403,-0.08966705973188174,0.10228400090149817,0.03616502272697649,0.13641042836979467,0.08410137603191156,0.12114993198683696,-0.009434511457217673,-0.1614826398528157,-0.14601498140775793,-0.009217901142067834,-0.32951932161555153,-0.22552532170555883,0.3428293689584543,-0.0597134000976153,0.0901083943313643,0.044642791881627154,0.1270035325094923
0.09044495988433238
0.006281929196514496,-0.19857126634329028,-0.05020874152449068,0.20167466803585546,0.20416286878420478,0.08990760233639913,0.3424811732509612,0.022715641489999387,0.038282124066698446,0.07704884501434986,0.09837400993610473,-8.714425723230827E-5,-0.0028662398038790567,-0.004630858581263199,-0.3012818435460501,0.2659231324671481,0.44453094190091286,0.38349998313322503,0.7640153006944357,0.5034159151275723,0.3370244975228382,-0.15228948616003204,-0.10166076821794956,-0.03827631414204865,-0.04379944083323837,0.14283828445933403,-0.2548719137406279,0.17282604330645704,0.78267816548576,0.8360643614574499,0.977940136236729,0.6477607584796619,0.4605793633458532,0.32104161987802454,-0.14857420708149285,0.0809533119860898,0.09987472045101811,-0.014619047032952932,-0.015611067169897089,0.02740536567201955,-0.19999244519011747,-0.009955856245179966,0.026746496109889887,0.22386662773200308,-0.08339268242373316,0.03392226592575447,-0.11064261145754958,0.07333189822771005,-0.013933072310906222,0.03387303501439281,-0.03885226083420552,0.11735218038786455,-0.3252640340536032,0.5142917474439399,0.260483442475474,0.13032835501321852,0.10150183483684003,-0.02021480042670173,-0.17157535866419535,0.047312312266898034,0.1627158223654738,0.09130999894608072,0.32872759873367535,0.32282340315837227,-0.14311813023241457,0.2961538540972049,-0.18467829556163654,-0.18406400214456928,0.07470257678412043,-0.04579750540665845,0.02118148048713051,0.12554289916707412,0.03315629547626398,-5.450901783660023E-4,0.09922385329071293,0.11491695148409081,0.13231705580094202,-0.4502763604201638,-0.9482924602853835,-0.310365379197132,-0.060657287223400184,0.25527435997943737,0.07804563517277383,0.055029007663900946,0.01091822645291559,-0.17109911222223864,0.015060022120301584,-0.24444568212903106,-0.39380206711675386,-0.4297297310262322,-0.7023512033931698,-0.5954053070261951,0.05173623835325745,0.4332749917778617,0.042711963810694455,0.09220153497980677,-0.029419944036304897,0.08056014465616662,0.273224499237318,0.028348284459500443,0.32530852576146224,0.06426993269675724,0.22815952364383232,-0.33311201486585557,-0.6100223131858324,-0.48906595398432057,-0.031939618927284016,0.09639957052854192,-0.005171275241500338,-0.10067062815238534,0.22921052558287372,0.1970386331507166,0.18993578752324689,0.18592604829009454,0.4894573176104639,0.07400640713847659,-0.6697502081091511,-0.43358924988040753,0.01995599266484605,0.12023618997678873
0.13246060320253586
5.577802666899545E-4,0.12597368484175134,-0.051571302934918406,0.07880733083348637,-0.14951436099022478,-0.11906801844534648,0.028960920385775295,0.1249042066942238,0.23505338930926412,0.22738867356179648,0.15038553541314115,0.07482024954580013,-0.12745205056549244,-0.09109067152334091,0.1174477624903921,0.09012580091364031,-0.10561197739065503,0.28693276093237247,0.12990839253055989,0.11139192758965866,0.18690906867611773,0.37194466197176274,-0.13574226897342112,0.04222756545752371,-0.0886359988239507,-0.07520482790638597,0.296584301749989,0.06427419123381578,0.38795853344077397,0.2014199537020812,0.14844949393550055,0.1855751869170248,0.25071754972011917,0.13131650340324502,-0.08792122262689808,0.09048845915695974,-0.11776537437355533,-0.07331128712932733,0.09244481933249257,0.1785834697606608,-0.1334207963031374,-0.23365677253173972,-0.37432191371641294,0.1900391073307537,0.19624199793806546,0.07151301752686082,-0.1363082414409345,0.11541006376917845,-0.02144133779217205,-0.07350584475781988,0.11360547551891928,0.38890889013203794,-0.0689211142690119,0.23740245252703618,-0.3372261308950241,-0.06444377314505251,0.11205340791834084,0.030946988118260084,-0.06675114948644204,0.0806419289593702,-0.06230268230011372,0.019912639322700054,0.34648462333672786,0.022713649948973357,0.15616996563366434,-0.24707210431245302,0.2502897059592348,0.22498439662844671,-0.02170710535528617,-0.018166612534069457,-0.12435269052691345,0.12112195274651089,-0.06732832174078773,-0.0018144116314100104,-0.0832448202981459,-0.40523068976645876,-0.8026999011931983,-0.49440774540215876,0.4658502541022049,0.2136110573457225,-0.05865617659454041,-0.013244456934671689,-0.04807875726103299,0.14327496544486995,-0.10371739193930829,-0.3584551989453166,-0.21845555611467815,0.05087673706999386,-0.6379530091767187,-0.41171963973959697,1.1606905679873893,0.47127303914947233,0.015353291277491228,0.08689154071757973,-0.05323090307227617,0.10117521778390767,-0.38542192406278325,-0.40201124277298356,-0.2542886909791031,0.1602554964063062,0.049866460552771955,0.21109097094170493,0.3905912397065891,0.5549072601239704,-0.163841742862411,-0.20991612747050298,0.03190976673453312,0.15510965136187532,-0.13321472608488782,-0.4125597179092874,-0.5305825660455166,-0.04931536417075465,0.8461751348841897,0.392956683343989,-0.06455547081274693,0.370497185482837,0.29245982561686495,-0.12551495470060947,-0.17067696980577796,0.10416463896020739
0.15355850142743827
-0.05431421162336203,0.32793342133893727,0.09751079589130758,-0.11524151888745761,-0.3849856964273792,-0.606681650496838,-0.28596421233575414,0.063506133086976,0.14027373696312495,0.11244501200862399,0.24609762754390885,-0.0638038355070089,-0.1952178963683579,-0.06717453807816663,0.5352500339403286,-0.010900522773392544,-0.21116027324565662,-0.8221791505412817,-0.4458737435132257,-0.15739366036676283,0.274050384653945,0.36854998396820354,0.13129001722773886,-0.13163559653961615,-0.11992921117701204,-0.09269676196857908,0.5204744202483615,0.1401221451410643,-0.24137841055373105,-0.7296395947083774,-0.43063591687399566,0.2449979350777862,0.2875430374715016,0.14928630680430566,0.21193032628222902,-0.07512865480671484,-0.1885394557682183,-0.16607258678726466,0.2863157569694616,0.4520590112728217,-0.002995484579125276,-0.14857640599932675,0.041315236095735605,0.5146472526828461,0.7273228133185607,0.26187188140368767,0.07631829823823665,0.00912891017651923,-0.14784169030187988,-0.14213746997358812,0.16071317966255477,0.22526797733007203,0.101098662692727,-0.0344452804253388,-0.1784279986987976,0.07551501439370174,0.5710186803900144,0.28670555936554737,-0.013784134306252159,0.046666208726398276,-0.15023040418462963,-0.15587877877717649,-0.08496590640199163,-0.09719154799676412,0.45013936340086264,0.23909221853147938,0.2983234733270084,0.023539295849693016,-0.15297434882354755,0.14795865140572162,-0.026596482473519766,-0.0019676669769912503,0.009333845681265149,0.01856767503174481,-0.11732912232670135,-0.31781539918022245,0.16807744885238163,0.20345595463880228,0.6051653409964557,-0.3583431013082637,-0.2327035473797715,-0.26540718471180086,-0.010114385788531424,0.03713977302945026,0.007084534601527817,-0.09710249864627064,0.14333847561518998,-0.12532314864332134,-0.017572883822645543,0.3991505823594305,0.13417232581169425,0.1966889255444912,-0.2287998523610711,-0.18384942842696866,0.0644347721186216,0.040220751607309174,-0.04832936512560096,-0.199445142394166,-0.2800414738781318,-0.2612756338975069,-0.2127034517180098,-0.4234417747827743,-0.41561808599202316,0.2322243946930015,0.25552736233955825,0.3072031173420809,0.20482366838191146,-0.04405214512412814,-0.02412737807258052,-0.1731972147684478,-0.4554573182154909,-0.4799850888667441,-0.38440214800276934,-0.673688235287035,-0.46616341714230985,-0.06156322728235655,0.2803065061211089,0.17754928858075658,0.09064744599836023,0.03626725167569783
-0.04742746690444505
0.1203839360477486,-0.21336013260803632,0.08208445765818022,-0.0015159797006687446,0.06752918002285906,-0.12118757067654996,-0.082036692317362,-0.22171537934833363,0.07676523624542626,0.1725381922234126,0.14210738522511895,0.092186042515211,0.07959359367091152,-0.13674784190794387,-0.4124728707407244,-0.19225324418087714,0.35173207335440587,0.09933069879186233,0.5064208256442261,-0.04378379022021238,-0.041886521267515284,-0.3830450277696405,0.02714679059170794,0.11736151093523421,0.051279945661746235,-0.0522400111287112,-0.23785969148653507,0.09303979888287263,0.044590902691364176,0.0915311783667541,-0.052647584613707124,-0.1529623060769093,0.36493751373053823,0.003683127813300208,0.028604145863200172,0.18388372490208593,0.2777410499469584,0.06227071354383688,-0.15007399882236366,-0.09948764381291371,-0.33363009039561803,-0.7950384822872639,-0.7628247034425496,-0.1736483968902553,-0.35962098463379727,-0.1270891245809576,-0.005606898052457772,0.22378712629729214,0.3016768229504528,0.04042245525498038,-0.2980596318565725,0.1118152538652908,0.266415497363832,-0.34230149753698685,-0.21582117545594381,0.01973277745280448,-0.20557886460230718,-0.297356250586612,-0.1726086749094366,0.25278707928679706,0.3660745870650928,0.19410295212939915,-0.01846314868556516,0.5297866247890394,0.16402410483511842,-0.255209149533906,-0.32564733039176846,0.4469154513577806,0.38951450717624897,-0.18319919538390866,-0.09609095962968807,0.2406070025159242,0.11895981461745041,0.01250992908642367,0.22785007958204123,0.09956215593747013,0.10639526835956357,-0.5028353985154957,-1.1102314944217297,0.24147819067503934,-0.28750576633152963,0.07956201182325996,0.006717202042644009,0.20969668542210818,0.09787916505982196,0.023009377593160817,0.16276077423650626,-0.17913697054228067,-0.26887178386181415,-1.4378716331909012,-0.9839106035515078,-0.5029700149133709,0.172444530621844,0.18388093815261125,0.09073844440353494,0.24027567001735578,-0.016893366269026888,0.08450357766000406,-0.3245724875505293,0.4813932391786943,0.22624004288804217,-0.0674580837614673,-0.21022087298515474,-0.09442994651580476,-0.02314250435103448,-0.20579637426656816,0.011823330939713016,0.2532341909329296,0.06572654354509709,0.14671464247344118,0.22999829448284592,0.36756067243657725,0.7465328761274693,0.07428532895679284,-0.525003968656255,-0.5104964183696675,-0.19848126557250728,-0.6060840713096668,0.03630835138388372,0.16550291470491363
0.2510591719100487
-0.05584961079568448,0.06125921051912026,0.06157934956439303,0.29365622468119,0.11374481390500546,-0.23109668962338872,0.004707923449404781,-0.01817641627741714,-0.18001460512704479,-0.44083702178406237,-0.004540479806244311,-0.07703153306722402,-0.12583090400170308,-0.09874779194621833,0.27267780710026146,0.23503383360936178,0.0787259225349912,-0.1344019561750198,-0.15113418678852533,0.3346994167407963,-0.11484529382688355,-0.23767927902057254,-0.04592765548523813,-0.15374295847042332,-0.13022329080512998,-0.07153130781974643,0.16519471738354605,-0.10060843184942703,0.24582060539754289,0.08786318053356101,0.050842699616086943,0.5200923566705554,0.39692051290775054,0.11148061702865822,0.1567478688881858,-0.0861250691981339,-0.09687467579033898,-0.013759598014471061,0.0015670854553548465,0.27262345826374734,0.19290713932336698,-0.10141900207246904,0.09589461177922434,0.7796706811198182,0.9345738064278772,0.7226556538159046,0.09083132426344423,-0.05458091220526853,-0.09400047172985274,-0.1356014803294627,-0.10227606139418871,-0.004097670117305521,-0.2533087532793886,-0.29043621944412945,-0.2813105348056465,0.3275499168379442,0.9214718892879812,0.7693501755896686,0.15268382011584472,0.039131870433710546,-0.07325410067712598,0.0224663522352681,0.1328095192263076,-0.02006765604450337,0.09242358768492942,-0.03659661656688421,-0.3656504364672204,0.18355425126086264,0.30094818329264517,0.4667514581813642,0.18297344792416312,0.019546248977878378,-0.021342668807728137,-0.15584394096892387,0.036652156955995656,-0.19448065226847325,-0.30037670479713363,-0.06307234924827192,-0.3723966092804907,-0.27282756731006663,0.14876356736679322,0.2533495341595782,0.1711771095106168,0.016098096171182342,-0.0309289898714854,-0.07875272490596777,0.0018728269254518301,-0.07289054881898091,-0.619846358406217,-0.43489914026943466,-0.35029082007397083,0.15581005127843942,0.2594764502462483,0.2542585536258547,0.09840594966919217,-0.04371407000451239,-0.03456813752152459,0.17739151466443817,-0.054102036274205435,-0.20948594941022222,-0.3074572659682546,-0.20363316774974874,-0.33339435306521525,-0.10455104081436772,-0.160121787929097,-0.29932279759143143,0.08442848096096378,0.013987773209867672,0.05184063309988727,0.12092210114834755,0.0855080550970207,-0.05359996127100793,-0.08758578834065586,-0.31895545664722036,-0.6055689948654654,-0.21191112878927834,-0.09618294998767815,-0.005120264299257334,0.11314753967555186,0.04266224462312456
0.026763773431399893
0.23761683731425773,0.6609446051438279,0.565445637041168,0.20727586313591442,-0.22939907132972323,-0.9049392544140431,-0.8010161793208634,-0.19649678825158481,-0.19241210362600528,0.21515235769706606,0.1573124385429753,-0.006070689134135736,-0.10212065095073776,0.18285933816566882,0.541969488802561,0.3981302233134837,-0.0694210826692616,-1.008399394883891,-0.5637173028303364,-0.27793520811989725,0.04136120777484008,0.1168283977540878,0.14552769316591094,-0.028025754268056577,-0.11803902625812589,0.016477186911387016,0.37372062660002203,0.4187556549043777,-0.1486611118948011,-0.848436180344109,-0.6398680601685132,0.029974139487318318,0.02172911887591704,0.40388491444764996,0.02527417302078886,-0.022750431427565526,-0.1394292294688709,-0.2561818810957217,-0.055456785175274276,0.18867031020651712,-0.026092643760345167,0.07175312674534627,-0.2216207825315721,0.2513631313290715,0.24843665110929544,-0.12889747791255302,-0.006607644058052836,0.07174427262637977,-0.08204976564560444,-0.2965195704834629,-0.2513550846012972,0.3069988840578418,0.6925553351779483,0.5105647138921339,9.711163856721902E-4,-0.03344754173155294,-0.15990457957166784,-0.01796636954664213,0.02287274026532886,0.020004662653284627,-0.012980485642499174,-0.21874983481689106,-0.3624353645461016,0.06427971678175001,0.3629445161131727,0.08608326987196464,0.05827019566852279,-0.14185532316504365,-0.07270104668920475,0.0114177356769262,0.08987825629673106,0.03903342750682244,-0.0029575848207384152,-0.3179471084894009,-0.3636904823536017,-0.2549659116168612,-0.11424737321145013,-0.09398878023652353,-0.3358738771641503,0.371334940255454,0.5859508478599655,0.25653484893756273,0.03522378062985512,0.029873366449284393,0.05766386659074188,-0.23898986033885236,-0.2363294074459241,-0.2517371825110847,-0.5338658854444844,-0.20652939636620274,0.13955650985573745,0.41288941220378617,0.4933364187011191,0.3769411833277688,-0.02323524278677757,0.06541042495273847,0.24877967576963667,0.09332144847644451,0.38393625229858597,-0.054386385371446924,0.13502654321159382,0.028564108455432273,0.5217420916023128,0.17029311086434415,-0.11195326742064461,-0.10456963514400884,0.0337378581342085,0.0490304317047946,-0.025557662800253338,0.1568256366306375,0.21896093442249562,0.047275332907964526,0.159597417324247,-0.16334204292924512,0.13150247162300369,-0.0011805368666151378,-0.22402736550842364,-0.15723676881417434,-0.08341707311877185,0.08918459545161068
0.08007238557811798
-0.1608541745400092,-0.23718650446214948,-0.3547567847578831,-0.32148267460609414,-0.055911883406183784,0.16495305578021144,0.0848224962535494,0.02026882843351016,0.08329750772683306,-0.1747196003891707,-0.05465057599687973,0.024443245937624238,0.010967696657418471,-0.09352935169949675,-0.47564039314897466,-0.12341693133816001,-0.14324543664762276,-0.08306519451522293,-0.07235500250933227,0.3824592355806813,0.023934401296444793,0.15229558312246036,-0.017064263823518735,-0.025719847260568147,-0.011779001333370434,0.20981063731098812,-0.23882373410087945,-0.1307441534332785,0.4129871209985919,-0.2927100143648772,0.2576446251114639,0.380032048773854,0.32388096372449426,0.2967140714668175,0.17387909024453488,-0.018110431977171847,0.07870617671182928,-0.05499395108957499,0.14138532181613925,0.5476751547204212,0.15304859281245406,-0.31271015014407555,0.12586467549761785,0.6508405383585399,0.40135334632735553,0.2686103396107161,0.09967987593743385,0.019206837733774886,0.042767552391409065,0.1207253628979703,0.2532255496928793,0.046745526434952576,-0.1424632576996869,-0.31072668934736214,0.02936433462156499,0.3801234661230406,0.19603515704559768,-0.04964914197757014,0.05172816166066769,0.05199093818855389,0.02457460037658627,0.2835791765544885,0.25200170422182183,-0.06450744721061705,0.01546190590054297,-0.10005780649884341,-0.13058593038973634,-0.1808135568206359,-0.4120179057807697,-0.008852395777081341,0.047807211554461305,-0.0030283436088288603,0.10619702892682265,0.1138403995205243,-0.015809476618952423,-0.19987583756608565,0.05275027373663802,0.13133316925840374,-0.25076497556473804,-0.23700406937661642,-0.3212068069969263,0.1619274284989001,0.05727381635283647,-0.00464300001089366,0.04676544331023894,0.06126955370617832,-0.051843603444687976,0.2070814246898404,0.14535966559896665,0.5195076951907884,0.18285598356398078,-0.2652425977477919,0.04343704959323524,0.323895455276356,0.12014755624448563,-0.005245926661359537,-0.04508786405414406,-0.29997293699725525,-0.4958667288710792,-0.22846460580471625,-0.2806652704861674,0.011004285188063756,-0.0865814329195422,-0.07564374358219472,0.0338708671159404,-0.19926662584964847,0.09290028767572436,0.0423096904603476,0.006668813357659192,0.03010128115465854,-0.4383638610592946,-0.13736714101356948,-0.11255698144068987,0.1026870235263889,-0.03912150567520103,0.06002447487020191,-0.317717968890876,-0.09401138124971439,0.13748017498881474,0.028165936999100857
-0.006631336236070822
0.048677273180126254,-0.07786744214054278,-0.10078917298171103,0.19512202425765543,0.28056494314412217,0.45925957508242266,0.3440177859296686,0.11114250022294472,-0.37395961944112444,-0.5353004180097344,-0.1251650969611792,-0.04231502725196881,-0.0993403465004501,-0.05178847283409645,-0.16008166340695093,-0.16405207249105888,0.15237941495996635,0.4359381576778917,0.3984554902069729,0.05443923865211829,-0.5489643264944799,-0.5598160671862202,-0.10258332059375352,-0.09254039722041427,-0.1176246840538642,-0.04080059905057626,0.046968986472824076,-0.2546754558720889,0.25651873775385203,0.28453199203437807,0.310162087333112,0.45252256848111305,0.07246402533885829,0.157395728416138,0.07293862681717267,-0.01229164155440785,-0.16400374445356383,-0.11198835603170024,-0.05798723711994222,0.1700155134558234,0.16795683458973984,0.04645022092652948,0.06072849240996367,0.868266833020308,0.6597904738319693,0.3411383379333608,0.06544601626073518,-0.04475065419660754,-0.12079491468358497,-0.14304899701804993,-0.03627490769851373,0.1355598253287195,0.04720516994017872,-0.27472213202552553,0.05306298810473287,0.047231454433203965,0.4706528084441457,0.22939497399877953,-0.007776481553021716,-0.01833821625536043,-0.05113691577367867,0.015555645621374238,0.14535179183501365,0.6481267063782659,0.11217052572383315,-0.038953949984294245,0.11021942504747034,0.23259470835489762,0.014330599372612935,0.03677835921435588,0.06570184722750266,0.041292024067487304,0.006777862843420255,-0.05670365322686369,0.05785164097062054,0.37703724458093235,-0.0012345745464563123,0.029480285195816552,-0.007247894582821412,0.2148603784254088,0.33588303693294574,0.07532413262112089,0.07191303540687918,-0.004001614257089632,0.019747223148690398,-0.060661407150356395,-0.034033877309856915,0.2713615680607616,-0.20119711794298392,0.236917301780909,-0.01653803111205635,0.16462984025052094,0.12468740171811307,0.17711480467908994,-0.07436984997394422,-0.031133685091119273,0.10856562166708147,0.12911959209727283,0.15881582877708908,-0.3218573458868532,-0.38795315279871645,-0.532805573217741,-0.08433133073161322,0.28100418138451533,-0.09296155394672861,0.086478631856382,-0.028847830690344984,0.01761126467989396,0.06810053141995542,0.15439850267665048,0.15136616265515454,-0.10750840647154211,-0.21924280973693436,-0.40175325858645616,-0.1386130163658004,0.06198464864420719,-0.08793314011484751,-0.135608176709983,0.11956094200928798,-0.03373692659857679
0.002267852836677343
0.024238978963592075,-0.027818959807491918,-0.05892194117382877,0.30841473120259627,0.23273636377883664,0.36981560631825355,0.3593023321753355,0.47025390686715857,0.2283607913306789,-0.14001588236192133,-0.025618314129423628,4.5004110508204613E-4,-0.020080714157196686,-0.04178910589443629,0.05739984081766474,0.03829075796212753,-0.11453758713070428,-0.07845731476275328,-0.2049441016151459,0.07743211688451312,-0.11052648228859846,-0.07376703290892397,0.1137558510971731,-0.04737574990400661,0.019025082233844533,0.1710366085302021,-0.0014629582237906855,-0.28520768825031734,-0.0485456900658145,-0.1297021616129374,-0.21853322250033122,0.12093191577012526,-0.11633788188943714,0.13878488223093668,0.1828246232929652,0.017961716668844482,-0.03764308579648725,0.07509692357651437,0.04826470974311855,0.03234414706571024,-0.19777017599800947,-0.161048941057559,-0.14647585558453927,0.002758371614797395,0.27506191116781004,0.18179177299880747,0.04521098619418535,0.041638454623833705,0.005152493181187633,0.00521318830849776,0.05306509606778579,0.04573408903463288,-0.20779777908905614,-0.16285165620840938,-0.02373882542766828,-0.056614080950411226,0.13366663019875277,0.1730944541188348,0.14759802781912826,0.03477393221849858,-0.01810496084849727,-0.10301223788605135,0.046868127191450885,-0.1707069216298752,-0.0839504098215709,-0.23753348986674008,-0.031656831102206004,0.014091294394705968,0.1703353875669276,0.16546520391205247,0.09451010680142632,0.02761868744442242,0.08525911321620278,0.07489737622688983,-0.1215930605125166,-0.09366478440268924,0.0696951906867061,-0.0921089776792933,-0.00995049159833861,0.06773257732739632,0.09893055435836232,0.031152867131105978,0.08099719282689849,0.0013963166900808604,0.08786836244317442,0.1440680835988246,-0.17192607524866557,-0.22621413716890096,0.16814663129437488,0.599447666156764,0.10413792709754804,0.026464937256258515,-0.0062613519034673696,-0.14857678340811167,0.00586891347890309,0.01912702428631604,0.035995228238028414,-0.04724019904335234,-0.004514191056294946,-0.25692238440161436,-0.05921285236302686,0.22000339390179954,0.12054613762248731,-0.08700958587946578,0.12055625825664923,0.3514625742765706,0.014083769532909516,-0.005495449602314836,-2.9639507900248996E-4,0.06488484146580328,0.0899341677185905,-0.059692190389421355,-0.3758391740071369,-0.01026199941561461,0.27202517958414335,0.38937799142764856,0.27805608219386163,0.27523582650126904,0.07961156038075784,0.0741176025184219
0.03667292658382695
-0.1280523898053081,-0.01592851932404878,-0.3907556670704626,-0.38091617596708816,0.1049966176525516,0.10421288232677171,0.29367864889241524,0.11600488455438891,0.2459806089126531,0.30986723121072557,0.1690264813875197,0.11834263251117726,0.10324645223209787,-0.154194874030897,-0.25399981202470867,0.083950801669179,0.08716541270440827,0.010385115501327891,-0.09502800612197464,0.1994210030831221,0.018679107252565746,0.10114980997590343,-0.035623943790010056,0.12268585659146752,0.11152938274117356,0.32474289580126114,-0.09308357439508404,0.27483218683950605,0.2617430153424589,0.21830875422458462,-0.17018707971620367,-0.3146486018514084,-0.2519239738855884,-0.30945439773179706,-0.2707611861543979,0.09546839682253151,0.15784918174763085,0.23412425519891378,0.35498649164520146,0.3382488129321197,0.12854922411077735,-0.5696688495833042,-0.9584562693013849,-1.1188777848270814,-0.7923789686628104,-0.4152680292517378,-0.3158809923497601,0.2177111118109824,0.1624712151061914,0.4468851894171467,0.48707576259095076,0.6330882809566563,0.23743017612372747,0.20319950568997586,0.06796899052316012,-0.29806889206883225,-0.6284393117572897,-0.5055186585040197,-0.18774694392265728,0.21462274622789418,0.1368803760474075,0.4935807627579587,0.5461923227547811,-0.15951020610537703,-0.17414881681636418,-0.22674999626940517,-0.2660698366228976,-0.08684087003071349,0.28645409980711267,-0.09423084708320083,-0.14624115995104836,0.21366088889745888,0.04531846910814418,0.32116474307970055,0.06008870435735301,-0.5549048143417534,-0.18971625600078207,-0.22258203410850969,0.06450427489574545,0.1421243435633327,-0.14410692164429056,-0.10251518614521289,-0.16489624035716544,0.1632946766354238,0.05369619948722736,0.2065585169996753,-0.2554856317488233,-0.38168601449614603,0.12605308442756102,-0.034227375247386026,-0.2789841568132235,-0.4142008539807096,-0.20775370842268875,-0.18777664731542676,0.10592667123864737,0.17917744332065272,-0.17938450026734604,-0.6210113887525051,-0.849925843392008,-0.4087362701516294,0.5953113489027715,0.5388815953840971,-0.0921360435343669,-0.1015738145413753,-0.04080284957407571,-0.029547715459620105,-0.04056496402279621,0.15117879489530123,-0.012418450526686017,-0.539044232875834,-0.6377632791424734,-0.14314743181833045,-0.03359471614419867,0.49393325487854944,0.41088108627158615,0.2869974907388477,0.03466813951435247,0.13714785915949312,0.09986805463985977,0.14500125474333297
0.21931575145710291
-0.12835773780261853,-0.19463618745758465,-0.40418951008569054,-0.15564179862848976,0.17013350843393332,0.18754090216562364,0.5416099115737356,0.25819033660541924,-0.19780941537628038,-0.39483877890307045,-0.07771838491331887,-0.0758435435118735,-0.2517572329976215,-0.3948894736681185,-0.36582411044595403,-0.27783416394307553,-0.16989462730107802,0.5379052230882633,0.6520709544978056,0.36662122421814586,-0.25054954885987785,-0.26312900224620067,-0.29716872857364834,-0.13957604391664036,-0.27046023151950854,-0.4912474361792489,-0.1047500009978502,-0.18070542361715464,0.22549104213616616,0.24499191014052357,0.12927107869778154,0.23395320961287486,-0.37668979430691457,-0.19133718034264036,-0.2716771571751309,0.05862104623958822,-0.19271064785660352,-0.19498767968159875,-0.14758175922656708,-0.01282494732225362,-0.0826994803452609,-0.8259603935788822,-0.6448633495104821,0.0915347225642496,0.033146588238874536,0.010306288029439357,-0.24712190707285453,0.11984598427526053,-0.13246115690805665,-0.21804346841006533,-0.05335449888383417,-0.1208596610309921,-0.3633392465258461,-0.4194833109265497,-0.0778788070879354,0.3139334828074409,0.145419754103095,-0.016393785885469983,-0.1494729268435484,0.10331047510505223,0.025575135961232592,-0.13739183932544946,0.10054628987231695,0.019610443243377088,-0.3255773367037505,-0.1813707960617269,-0.03358228809963307,0.38260592667817767,0.3141473296825486,0.05311392448643651,-0.06980018330450402,0.16539878311724476,0.061376474806636494,-0.16269687164200242,0.2220044912012531,-0.04006401400652433,-0.32920471843284344,-0.32461447966235263,-0.13292927017354467,0.1600491863499945,0.3706968781906546,0.003530564480242092,0.04982149647006921,0.11725486967551138,0.09770902500282719,-0.12157692438036952,0.27236629786917194,0.04025363597294204,-0.34760016893479745,-0.05882753103571192,-0.1666638884856385,1.0064949005868202,0.4645309138947477,0.007431651641479675,0.09314500533832795,0.11757932923314482,0.033888899826615776,0.17630538842626708,0.35257917625466667,0.5035109198167651,0.582851265759698,0.868214136929047,0.6118309580727797,1.0047197833796158,0.3832470191870641,-0.1291835335259383,0.059532844678630584,0.1903493478700235,0.030181519127812056,0.17378208509336368,-0.21083709518228044,0.07230701108172033,0.34608396070489994,0.3675805797825727,0.6392254068206698,0.7513191701267417,0.624324402359123,0.09662014305418432,0.10747550387158306,0.10783360084098417
0.11003596055434331
0.1242070574866094,0.050664714858528775,-0.11284835060938483,-0.14853552796087188,-0.01564904512201878,-0.16377949270811015,-0.14187592145987693,-0.21474575631756893,-0.398580007387199,-0.3692089118423555,-0.23913822707894017,0.08577150020886823,0.18514419055322057,0.028702725374409634,-0.2835394237157771,-0.1893464038879718,-0.006216732506082587,-0.37762964458339054,-0.19250365192794427,-0.2402494086414746,-0.7343477991782988,-0.39404802481265444,0.023780473797243393,0.20566078765379148,0.16724051186602357,0.09061402128442544,-0.11652008520449053,-0.30623869949631133,-0.4146831048895674,-0.17494260594999061,-0.24418446394055765,-0.14846509221476095,-0.5012591469582774,-0.14623627511140191,0.14123688091040704,0.16331559009497154,0.1582533399168678,0.037241433167712334,-0.06427569325886955,-0.5973264459043951,-0.4420968476241365,0.224214662708614,0.45793282084994125,-0.026000220908045907,-0.26392129076850657,-0.23048192144363205,0.06686833654994426,0.09451746143968148,0.07957081774261407,0.029437464953202146,0.015779208962082385,-0.4868428833127417,-0.0959873123561131,-0.2873172573758318,0.06261999632735238,0.05561430106068152,0.04112520273073321,-0.21142969984393045,0.066929317232881,0.14677125014337844,0.02650223840394049,-0.05404787623100066,-0.2109372066233125,0.011571997010726323,-0.14288680833918482,-0.04743889967363414,-0.0972402509807988,-0.03488401750154052,0.11045250531741768,-0.19591302799992022,0.028410782193995177,0.15053989542345914,0.10188994061108711,-0.07212446842689674,0.1445089642867624,0.36154246791761957,0.3114108278757245,0.15706761049112927,0.02360451779439427,-0.2309588888685325,-0.11712558229431871,-0.02079615611176556,0.04173607008547592,0.10888885793173753,0.10583078061892545,0.03439396511070782,0.23017885950446537,0.03048760553440588,0.4822875190073259,0.1809823163974565,-0.11505498100697717,-0.2814565859129726,-0.04770240509995079,-0.07795589047482457,0.01793614454133358,0.09412539998138625,0.06377904027816472,0.3006317973408549,0.3998379981259029,0.1941457293371811,0.17072455756924942,0.08541966363542172,0.33632287842875164,-0.04296292459821245,0.0344212238314929,0.011900314339668639,0.05193288186382275,0.12882096422235484,0.1489548380823721,0.005385827181825234,0.160092286821869,0.3186049432334177,-0.16810388219254313,-0.3873916149974519,0.21179751731506763,0.2615775187094276,0.17798753614158463,0.12633989506007778,0.057997954748822564,0.06461105897602355
0.14685965067638634
-0.0316073182299043,-0.02635193206364483,-0.06481072100387975,0.18864328073923983,0.020139013138597003,-0.15161355065283125,-0.077510551893166,-0.08514690983170212,-0.10882032663720617,0.027181015008970046,-0.017304155950005607,-0.021257503378564493,-0.16147041083126082,-0.25145160794644633,0.15261601411031903,0.21402590928550866,0.07109527792962383,0.0431241977942623,-0.17628981159107113,0.038910170059891475,-0.3204311139373546,-0.14877467829037036,-0.04257835303973487,-0.0982975955503036,-0.13803509007350798,-0.06937695590072215,-0.27449008128233987,-0.22642346754146211,-0.32241017791588056,0.0027104577178041736,-0.2182043927870683,-0.15200273620329532,-0.31510064354796896,-0.229267802459417,0.0015267756487241442,0.06245085654579468,-0.11465576618966428,-0.043992959036894125,-0.009932929960838928,-0.36702445014902385,-0.5405055173957043,-0.3994834451746422,-0.7700494911557071,-0.3788251656873174,-0.21173294842552257,-0.19582988388854852,0.03727767355266981,0.11492478021513294,0.032809097707851315,-0.055405830921698956,-0.1181820590194605,-0.09947140280054248,0.1336083783433019,0.35709726627308536,0.6239065574587749,0.1152043862927529,-0.4603325817100512,-0.2003898318048801,-0.002876174839826726,0.10272635981099684,0.03381679243291823,-0.09317273351471225,0.037604040144748094,0.1459640449500376,0.1661434682844201,-0.03007849994509387,0.25492241219055944,0.4034362692775213,0.2716630126153763,-0.049013379506282595,-0.06378741486118487,0.08379175074827108,-0.04622633109527355,0.08555522402491186,-0.21425111878789846,0.20377554135706985,0.2646432058286612,0.04382237418257999,-0.004746837847156598,0.19203717510908083,0.6043086930832265,0.04110832523417543,-0.01027377732732998,0.15246495421339493,-0.008322281247452474,-0.055798190953423726,-0.024111764967262635,-0.26381160259671066,-0.30351710320825787,-0.15986661391581633,-0.6405413697428405,0.015202094276587927,0.2580281147995136,-0.11664033389693634,0.10169107841218453,0.15360708785456637,-0.08748067753700964,0.09259494846879762,0.3127407163653403,-0.26593948673930823,0.29429976574539407,0.6799126668200409,0.5645915911498792,0.09571094570131117,0.1375875566171069,0.5022841648093374,0.0330653641759079,0.13369879584973485,-0.013649720737544137,0.04522984174329883,0.03228936619275581,-0.1289637848964236,-0.1988105118465425,0.3394418557306673,0.5948903202336745,0.9187145453444788,0.449245253906588,0.3187309886017675,0.04740520907945377,0.10703651912865242
0.12253441502568259
-0.07942768444674587,-0.02652008537104594,-0.07231758742973256,-0.1045086278542783,-0.08915506405945371,0.062075127104907264,0.22659429753821173,0.22454566599823786,0.28482822917898265,-0.12370336550446596,0.01433469067811897,0.08376314884893075,0.10286294723290158,-0.09392294488234855,0.02263848766459461,-0.009204870727144276,0.22409100991927508,0.2106709220932156,0.08297695080124802,0.44636340577307565,0.41231727409007235,-0.20273531120902658,0.03353520514976741,0.1124929991510746,0.11888631583898883,0.05884680048022984,-0.02070316450898446,-0.024074681878315362,0.35752980234064113,0.3882001420983274,0.4321652705289809,0.3451137066566732,0.26881031621532847,0.08508533593327312,0.07378291852016873,0.023598068464814933,0.1019809858003251,0.13888709760830772,-0.061557549869643034,0.12391406587241179,0.1569969458007959,0.1287238060288667,0.05187013278072456,0.13682479300276826,-0.20372077299148697,0.15949282829351843,0.1297479544366796,0.07168764800908829,0.10574952275202244,0.22403676361369992,0.14274415585588993,0.09122683380082956,-0.7313239971157294,-0.8047414656039201,-0.5811898095179749,-0.31106628534700165,-0.051444308065060444,0.19553183977968244,0.08558414419770709,0.041325963295371894,0.07521237369898483,0.3787565831020868,0.3211818920558759,-0.19689313321388155,-0.5231391645609172,-0.7214335282957279,-0.36032042043503365,-0.43834772963322266,0.3095419161151093,0.34305525434061535,0.09962967759333481,0.030319455497370765,-0.009356055324143844,0.36512259907638966,0.14440394401687875,0.09617412195544979,-0.10191552685647108,-0.36973187137122876,-0.18646110643295613,0.16754310549516674,0.46225834533378807,0.06123512438491171,0.03381421911600569,-0.013842895396788995,0.06554615091970652,0.19965579730501534,0.11833972253678902,0.104896371455995,-0.09974810047115336,0.02783223042199637,-0.01762964317650657,0.2515137062763042,0.2338914998141969,-0.003491770033750733,-0.054989404141623364,0.008495148046229868,-0.043297252940599155,-0.2987423146777214,-0.5378261513079572,-0.31218548455616324,-0.036033170103515526,0.10501036473962665,0.08589251152967485,-0.268218949407547,-0.0799945552924322,-0.033270983675016706,-0.11405012016662237,-0.027469995247752826,-0.0602640222356201,-0.3910745291779858,-0.3628336626891454,-0.4648534168683117,0.05086607085469263,0.3020891404765006,0.12207553350881249,-0.10127524675067158,-0.4387140543393141,-0.166928569273373,-0.05866552348538032,-0.02453356634693288
0.02487749811115283
-0.08665148462141774,0.0389334344101167,-0.14393079788045168,0.07389749859909424,0.19093620519016594,0.19182632903127436,0.15771010335340827,-0.015174596573323713,-0.03272096345483342,-0.032486091255750894,0.022212209576723208,0.0741599803725329,0.24289821264728492,-0.017224422252031406,-0.3300766494875032,0.059318920452081474,0.02101734189715116,0.16038553621803645,-0.27654616479656396,-0.4679361647351296,-0.2654125419149033,0.020279330546010818,0.09207211932986913,0.22056801667751338,0.22690116903249755,0.2561536660422698,0.26735821281924294,0.016889921979340927,-0.04857867874227336,0.03722533203223393,-0.3789772540297222,-0.6038778690706027,-0.13795794617072646,-0.17757250919689285,0.06035955831371171,0.10029740173372816,0.07080384454198672,0.16154718832735007,0.164595314669317,0.145108555163622,0.6366408600750469,0.3046589459977696,-0.13986826555135365,-0.2384720144185785,-0.16260129965695466,-0.039038111821393974,0.014235637575167494,0.048703578870120216,0.08021112639633322,0.1383380772977694,0.32378764714372005,-0.2578410832742089,-0.8671551250998139,-0.09776084301193468,-1.1536391856063888,-0.8114096002403502,-0.01994584719734948,0.14033747129992166,0.11115799245728929,0.01830837347307612,-0.0011103351420515184,-0.027359381377911288,-0.03284072872773668,-0.6879789014390846,-0.8273095828002449,-0.462509121456456,-0.4204185722258125,-0.5811893980582062,0.21945846656385973,0.21869447859282484,0.007914853270895082,-0.061379809687990235,0.012869925297948148,-0.17465123945342562,-0.21696631514407802,-0.6778242019612918,-0.5792784320225083,-0.11527112661854584,0.4169347523887437,0.5053047317299236,0.4757965756521247,0.38872471941172376,0.008226101584786762,0.0033839382951157564,-0.033237365925532246,-0.16354701863060592,-0.01774687022184822,-0.033625037058701644,-0.07784268940473961,0.21428226112011103,0.6637156090923299,0.5032432692599115,0.3305199893721898,-0.17212694611244975,-0.13100630863250853,-0.015083451022191788,-0.056245236082389356,-0.6539690583132353,-0.10463444159204398,0.1497951832762134,0.31428099097069345,0.45532290301209316,0.2950577956908447,-0.004703297585008309,-0.28558888616566175,-0.3462411440221335,-0.22747253671714476,-0.016011483771136578,-0.12821925930158265,-0.5163282323977155,-0.11463459109415171,0.1788219027722702,0.2534166136701767,0.3034074389654819,0.561533873298926,-0.16991235948217379,-0.44379160521383815,-0.3783569760142011,-0.10402106490686903,-0.021021960662648567
-0.01682368666025128
