-0.9056196142752799,-0.20164112572887163,0.128308320980046,-0.6411032791164931,-0.7264627136120342,-0.10336542085260737,0.7441938321346433,-1.3619931309058648,-0.09581384429933992,-0.5289765456094878,1.0258767729135934,0.7949491629462522,0.3393014104530531,-0.49968102262694025,-0.4221527209691669,0.03607041061173777,1.2377223079760258,-0.009941162031149689,-0.08817472882531516,0.7749521214796182,-1.6289943207145197,0.06169397471929331,-0.8767957575081271,0.24254996318825198,-0.8605411353451267,0.277156206163665,-0.7170403766051343,0.33562581105753136,-1.0835941953367152,-1.1214246226992668,0.3458177799929603,0.17866483816367967,-0.9697612490165286,0.1380110887917651,-0.07075008289052487
-0.8756031781344058,0.14599239771639663,0.08048664794828894,0.7733838276379442,-0.08284442488246653,-0.7958542806010771,-1.2689682487212104,0.3291131215475907,-0.5182029251828761,-0.2837181502540707,0.53985088549455,0.3928203667166407,0.44990613608729413,-0.9561404922904321,0.5265330284375953,-1.4289412330951194,-0.4491475783209683,0.2059636302154621,-1.211350399829378,0.5094307164502899,-0.3253081361593252,0.4388178481060752,0.63075950970016,0.48021739144705156,-0.39771689199550897,-1.10392980311198,-1.0154155362492079,1.0256545732598892,0.24922003708648877,0.587089504595616,-1.301160417288616,-1.8532063449112068,-1.8672807158790676,-0.6713405249989722,0.3693479165904577
0.1496555065583657,-0.88576135363829,-1.1906030712439835,-1.605002377404816,0.9824071978751169,0.9084235715815379,0.09505655320576077,-0.6440360339938096,-0.2733311490964031,-0.6994499385260253,-0.4012837966990592,-1.3160029679172909,-0.9225585492804106,-0.030711579034376765,0.413861988780397,0.15987137059310058,-1.0173952729932132,-0.946432259805896,0.4343026506155228,-0.10297458145277258,0.6263199904284237,0.25909427607682456,0.1645560548734891,-0.33750075766657234,0.46557458973632293,-0.5175798294872972,0.359719890120796,-0.9909875692227278,0.046377122790537136,0.5940683450895444,-0.8047476200984313,0.24979426901845975,0.9513934980719699,0.5646574512191129,-1.172521712368746
0.11024574295109302,0.47598686429336834,0.5254250815877197,0.6471216067607463,-0.12274020407609887,-1.1093465588727913,0.06642397411949633,0.34018621203031735,-0.5858157816216758,0.37944936589811096,-0.8469358888619761,0.6289355831754116,-0.3744047905126501,0.4518827255765984,-0.33171680229318107,-0.871325026807861,-0.3787174776259779,-0.6386456980944846,-1.135811862745317,-1.0156582155696694,0.07297921332611647,-0.1563809978718798,0.44647310507854127,-1.873606877091051,0.5716111938028667,0.05184597628046214,0.9897609151173143,-1.3790257362748448,0.26282718184800996,0.32475622303103563,-1.143745230632646,0.7955788926555007,-0.8774037106182456,-1.6627334804775469,0.04457694770691949
-1.034500101632251,-0.39124592543280046,0.27330929961244066,-1.2960794918209166,-1.3090298172504418,0.01064084654860004,-1.701906593261273,0.24291254905750148,0.0611902319367304,0.398931022232414,0.17941245984127,-1.5082278722957216,-0.8409090568962148,-0.854245519025505,-2.0576180412891993,0.9709338776755209,-0.9861054579282873,0.3473245296591759,0.6414228720100343,0.39035217535420336,-0.22539657081487674,0.23983385372958874,-0.03402125931531793,0.6925280188276923,-1.0084848466680045,-1.1792968976758134,-1.2534844198836295,0.568233446893773,0.40181922137722026,0.4766852101185706,0.4122233119641529,-0.7309637543428436,0.37306604265943827,0.8545106494069985,0.24692579116797445
0.6952511457726097,-0.37633773320484504,-1.3208959501316877,0.8236667986873357,0.1323384311144071,-0.12839602202922482,-0.190986717735946,-0.34188943698428464,-0.08230989910909814,-0.27152820362175717,-0.945045120279508,0.2471814351270154,0.8304383152149267,0.813402992138678,0.23636978899164077,-0.09037442739870424,0.8767740483093032,-0.052707472879613367,-0.5224916020680431,-1.4916198177489604,-0.39457847601754625,-0.9144726028386532,-1.009285791756946,0.6592794548781681,-0.28891064135248107,0.21414014028205927,0.6765369423511383,-1.0396699458408492,-0.29208654591188593,-0.6149638414859403,0.9641744846867467,-1.3838209928950036,-0.07561816336765723,0.013250471666459398,-0.7291660571841149
0.24831734087300866,-0.11321586919002613,0.3705024116344297,0.1657689678747737,-0.6083755838660928,-0.2978152039367296,0.4447639868208897,0.566135351668612,0.2716535673979536,-0.20443161866432785,-0.7512723432801662,-1.0124862478172558,-1.0991829034971974,-0.5372902433821757,-0.05651729751611766,-0.41556727814671524,-0.8259580624224242,-0.20068539280710984,0.39223524676692456,-0.2905979693624443,0.673862508816666,-1.4576903289628138,-0.45071107207387506,-1.1895838114159238,-0.04865241881699793,0.8633324765623767,-0.8568330265659382,0.7624969649973705,-1.0190016532748585,-1.5694307355440744,0.1345388387015639,1.0812281688039862,1.276176271200949,-0.8302089387387074,0.18271546406588948
-0.2574657077428434,-0.5226719440079303,-0.3431583997322218,-0.41352672323477185,-0.704750020311164,-0.24141974864632812,-0.2752490471519099
