-1.4887546213996163,-1.3447292059704952,-0.6531258189857114,-1.3462611595889122,0.060835606413187526,-0.07621910359596316,0.2922846857480738,0.037441815742946284,-1.3718076390452743,0.521068845200094,0.3180168395995009,-0.6364536649320449,-0.2867647247834676,0.05471463490023607,-0.7632896877972879,-0.839720180788221,0.10542670843327026,0.47095253125672415,1.035603951597066,0.3233202638453165,-0.05583570962170118,-0.7206797180602417,0.39872454440438415,0.002221137392381728,-0.5393960915445423,0.9466998155302432,-0.5948307045262767,0.7920498309795321,0.7127094475409006,0.17945610617081775,-1.041871618045618,0.11498910803533417,-0.06584211353243098,-0.15745075207616435,-0.22459174000140963
0.26901420696065725,0.15658089473195852,-1.771662097968157,-0.7079943342830994,1.0049834573621452,-0.5722833831862286,-0.5346945548460472,0.6427658608425904,0.5885971895390941,0.19626857930489897,-0.8304592847850001,-0.7602270204629463,0.7579039223339388,-0.30989274939400646,-0.5426441597961162,-1.0476708724249664,0.322454478024938,0.6985707233090249,-0.7736294211841607,0.26401414587860383,-0.8676033032581958,-1.2323096792583528,-0.10365066633753585,0.23942543573360744,0.5600959039714665,-0.7315172490533294,-2.013798837253746,-0.8908523054474511,-1.0205114673374454,-1.1231373233869726,0.47811325728450177,0.3898344290488627,0.18979801131761734,0.4170524769409628,-1.0661978895461546
-0.2003432581520324,-0.12291092702967585,0.823561060339755,-0.36486576372023677,0.13994917350178718,0.4548057218856785,1.2658520717323334,-0.2719497811160615,-1.299671194488281,-0.07794769104156371,0.34708996304242345,0.24529641305275876,-0.7560494637621874,0.7428276938651172,-0.1242278231449587,0.43044614489169564,0.0423703053513188,0.5092704817783946,-0.9396820015281635,-1.7789667875653765,-0.3261648663916397,0.6061644533418751,-1.7534645920744392,-0.09676511637191597,-0.2828713562998828,-0.24333973007094792,0.6408405925202941,-0.37443020543095484,-0.908932095988976,-1.341770131232176,0.5320896322891305,-1.0002971208208142,0.6374641613986434,-0.02205150120777125,-0.442720694120436
0.1566890840707096,-0.09208819407914756,-0.014613224569038605,-0.7574596180910304,-0.8794338915769936,-1.029644631459549,-0.5198020671740764,-0.04297986228739851,0.49538566600649,-0.25873448819137124,-0.9950648768811959,1.1230360455573818,0.8320989000144635,-0.865882796316252,1.1758886281138492,0.6577280111141498,0.44330184877292816,-2.4027732919586775,-0.6324674962355409,-0.3425029917093824,0.2707412779998725,-0.562905401244157,0.7494140666905993,0.1940760081288494,-0.2588867573364258,-0.8090412562168391,0.6582448838197471,-1.1727385031489037,-0.6296439156175929,-1.1180649382563772,-0.7272996685683986,-0.33635758495786133,0.09036553750279015,-0.009738069495860494,0.6230952417935797
0.2731750099369591,0.026648145666065437,0.457615152607903,1.1927307454256786,0.42455328618962523,-0.6277018202851364,-1.206615786845266,-0.7090372587163285,-0.8902900528629044,0.003562766695229676,-0.17727735799716599,-1.1633072500984216,-1.2516151767083463,-0.2584327909323982,-1.092968991075129,0.08166669823882716,-1.8303983840654283,0.694629099222176,-0.6698415170310859,-0.004585709757653186,-0.29974623240028353,-1.531701480056819,-0.9958608302767191,0.3091634665960424,0.5362219951882969,-0.816983852433953,0.33838372783174697,0.193141729617825,-0.3143888452254807,1.4092147447166028,0.7589507110396907,0.4019678709585635,-1.717345319755898,0.2949539255524645,-0.7193445374799144
-0.05039427008889027,-0.17723600631407957,-0.19034580231591372,-0.026593600137047927,-0.9235223706421004,0.923126559445679,-0.47820458610588834,0.2066981858099156,0.604275342821655,-2.1716942529079506,0.4878798765420776,0.13996328750944523,-1.2290400523963583,0.038033198353221304,0.5871179240333309,0.09565337755128468,0.024490644427010676,-1.086777293719894,1.4430732008687068,0.20639509102575562,-0.5030211714570484,0.4500397504362843,-0.5013119823542517,-0.840364962664463,0.14548989348505026,-0.3195068127570316,-0.8976047431945322,0.21867374351347252,0.49489227766792115,0.1784174368821879,-0.24559019800013654,-1.0713495675094291,0.42572871487907676,-0.24888096628391188,0.14998250882198283
-0.1799704200459626,0.21980520640414375,0.14110760983004134,0.945330838156947,-0.842942183618853,-0.36591367410495235,-0.11831631241207015,-1.0911954774599049,0.6425446479045301,0.031121758316781902,-0.6549511756228207,-0.03321468957255353,0.6182789111256493,-0.5821698957691225,-0.45107429511225555,-0.46644432216289866,-0.681903993340907,-0.3326897109359577,-0.783664789750649,-0.11909217058992155,0.32446133638046093,1.4442863656114082,0.6794095637310239,-1.2291409651710548,-1.3227605635188429,0.7433416534586507,0.6371605724833196,-0.2549687647458925,0.1589766514845247,0.699815696257148,-0.7501987618926113,0.010957841703277686,-1.0494916586187049,-1.4888889831383367,0.3430063848318077
-0.1271874739083203,-0.41669828945717585,-0.4290024787122305,-0.6050333945142783,-0.4748959812581519,-0.18406101625388582,-0.22793995010944895
