-0.6360303220187411,0.11157375177222068,-1.1773492164832717,-0.08267273830249518,0.3894248833965226,0.25492660693729324,0.6381649458161806,0.77097938227962,-1.1089723221088692,-0.1773809255877956,0.19587065558343006,-0.3379638361343831,0.6071852539226247,-0.9214817443069417,-0.5323656776878641,0.30915717063319503,0.5969185423272261,-0.8454015995861237,-0.11777034221696216,0.8136138628177558,-1.3740619984472024,0.8953372332174295,-0.6679442968798777,0.06297978643375551,0.285609445894172,-0.14481318029060658,0.1044353588394543,-0.75320464684588,-0.7709275892867826,-0.3581320445364151,0.4448608983406389,-1.1331112322173398,0.5685893120267088,-0.8008572040080785,-0.7820638399392296
-0.5503473496280945,0.032643303522834254,0.5464223295066877,-0.026024071347888995,-0.21738790210989933,0.5338614076655573,-0.8205529772965813,-0.6664671008985035,-1.3899164407458948,0.7475611316678451,-0.8489879293648179,-1.0102271820018192,-0.8567082785878585,0.07581779671043674,0.05624009487133018,0.6397693391439557,0.15470316514644544,0.5791550969423839,0.4776765110094594,-1.050333831117901,-1.247482107620175,-0.9633859710029457,0.14265906813970447,-0.9578153370719966,0.9645467608813805,0.6327034251268944,-0.7289324797319172,-1.3235289353147133,0.3971577470217403,0.00811629884217645,-1.2181190768182508,0.23737081532436946,0.7310054136575663,-1.3078724158680053,0.11106944031841672
-0.6392849203827274,0.09853227298068835,-0.5230204293223711,-0.3331162297774347,-1.0836715787073563,-1.5966615080048074,0.1056368313394664,0.5194377399164161,0.10603811667637593,-0.7792866999952548,-0.1719277737981615,0.32170113277633555,-0.03294840995688247,0.6808857050733456,-0.9885424394538159,-1.3633102778374397,-1.3694666252084609,0.36483861933079237,-0.7988179846773603,0.37450831456687905,0.6924165470214446,0.2812804699778068,-0.49204642001258847,-0.9580088981981988,1.0497971354066045,0.1386134367567091,-0.5431499703798378,-0.8815789449196458,-0.14945305412374027,0.3514017751030219,0.47759280361584733,-0.03785313247908462,-0.4226877949293262,0.7070133755222262,0.9286680885332484
-0.05221476174904327,-1.2328244212762383,0.570300384563242,-0.49754182207396797,0.3316975217209548,-0.21193982208927828,-1.0347532437292393,-1.3759160553518452,-0.14850626276191817,0.3039951622244988,-0.8951563935884818,0.7880499146226493,-1.121283977590912,-1.1666573298894893,-0.6337137780700599,-1.1945063134942275,0.13912913447799533,0.29934026579766837,0.44795027333546533,-0.8461170320055081,0.3397588965199703,-0.7019646529546899,0.1940217684545503,-0.15219085554800282,-1.5084860493152452,0.5310810553069936,-0.2451436867161046,1.1231551443746992,0.5437919993736479,-0.1720055416979213,0.5396529605486907,0.6061280732937983,-0.7674463170939273,0.4511833312279465,-0.19294481604007685
0.7995496706433528,-0.10060973419862311,0.266349954094171,4.5403011512535447E-4,0.5577255458774849,0.5233242392526632,-0.1551658954021697,0.25703824985064994,0.08915188327116952,-0.9031911179040145,0.7239280395114184,-0.9800962742272682,0.2190505706734104,0.1620917827848518,0.25767767913396206,0.4131870876863889,-1.3545998440208222,0.2704548191702798,-0.8802377522787045,0.24117706464638622,0.5811855709438728,-0.7798146590973393,0.48848404516419264,-1.1669558650108987,0.34564774467604487,-1.4332955273417847,-0.7973190696717815,-0.48227231795866843,-1.639121726254037,0.49610774686748277,-0.5580430081132336,0.38621279490838584,-1.1486265470542534,-1.0465302560590122,-1.0518469974128797
0.38119369566286193,-0.7469652375717168,-1.1417269785755269,-0.6079480576729287,0.0881061213001951,-0.49489532838846684,-0.7164254908682602,0.7114366105693734,0.5430852982052209,-0.41374299419419636,-0.5958305259893704,-0.13141311677324016,-0.770024820860974,0.35947844569537624,0.4403465830254863,0.14279242887338453,-0.25445815460416177,-0.4235440833891603,-0.9086168363315404,-0.6079368717644591,-0.7745607904170765,0.611317007114642,0.4135992532036403,1.0960139144708687,-0.7791126289595587,-0.8254085693894118,0.6573472267565688,0.745488815176238,0.12317762931927605,-0.03912060488604686,-0.541057159141411,-1.3022694598993603,-0.5990854664354035,0.5601018481450037,0.37723637361901124
-0.08274969660035743,0.3834743154048712,0.3774326167156353,0.07413853937262459,-1.2512321454031337,0.06697298163209847,0.5640355403377246,-1.4897353603710013,0.9204793100411038,-0.17598949866170757,0.5241054075670298,-0.28018274513680125,0.6555455794225014,-0.005703500249998543,0.620219789282835,0.18381091224346174,0.2629232762575181,-1.1925441567757893,0.20189073088935425,-0.35474955306986483,0.6881680491492813,-0.8349233066912127,-0.8904898310094203,0.7441632347183806,-1.4375377494186958,-0.8461895265507509,0.3920374337572825,0.3662705190258474,-0.24023485909237874,-1.5257574669772438,-0.9484983592416343,-0.04167695039968112,0.0850736672729904,-0.14461364751417885,-0.6854738003329861
-0.22923000465003812,-0.49649461437597,-0.30154349654759255,-0.33471615864204907,-0.48922370610026444,-0.19973066221070138,-0.3580655686042533
