0.2460085795281452,0.09095476803110793,-0.2564575066559358,-0.24486897224082696,-0.324509839129244,-0.18261282112020719,0.014577568815643642,0.14631546109218324,-0.25967459160955075,-0.030386061314855575,0.1408017348820104,0.284455838594972,0.5711341768857864,-0.706353397872268,-0.10005575451958879,0.08276965005597121,0.0227478243993951,0.35091318284845324,0.18216747176382775,0.1373697262880685,-0.1848258770606185,-0.1018077459714212,-0.004149011360037118,0.12048567268400115,-0.21038186292675137,-0.1579083271502564,-0.08320165434386477,0.38223089555840084,-0.15005002106837703,0.0520378311160988,-0.11601864797117929,-0.42971557860447196,-0.35165665957205966,0.056856754775706154,0.3082924267873058,-0.08124482505075359,0.21100584625818508,0.2641217097362387,0.2983648207143787,0.10501855520383713,0.2984027307058874,0.1260679215579831,-0.019605311326021627,0.1545861525851386,0.0036664726153018963,0.19634032076061114,0.2462204037982372,0.2524173239119584,-0.10086352400182462,0.19861950033026957,-0.07448774439302006,0.03673716344502846,-0.049155333931700546,0.15964804928742454,0.7410418706476759,-0.5299270686583144,0.34953945315687657,0.21742295671048975,-0.07187509307519259,-0.3590534303312829,-0.2851014518545264,-0.2136828157681522,0.0835934843622103
0.18493622300771273,0.12999893235862495,-0.15440326100212604,-0.3341649549009201,-0.2872895072327465,-0.16684177936412015,-0.21326254158662436,0.16863129447379563,-0.32990967125891757,-0.007813141503968404,0.012425113531993265,0.1193321364729904,0.5664749594175937,-0.5066254627383442,-0.17671864785166677,0.09554655724398349,0.05874559710576695,0.11723030875549521,-0.004517626928222243,0.24206566366246174,0.034054245495152936,-0.17249832947059865,0.08663493502068172,-0.1403593248674866,-0.31310584480648807,-0.23663426657715053,0.0705251203106708,0.6122280037558748,-0.2634816484798305,-0.02630316654269448,-0.10083906544018782,-0.33086225021051324,-0.37370392801181196,0.31622142661218877,0.44464514754291606,-0.23387301577424266,0.0451946297310508,0.1502684419197385,0.08573712724563083,0.03605546655078564,0.3018525940035072,0.3758280166651464,-0.1638328031732775,0.2098048981796914,-0.00280574780598396,0.01574305432955491,0.19128998672597083,0.23184529632572556,0.12304173813159923,0.2313668471095111,-0.08003145423478977,-0.04260023491910908,-0.026587636978519315,0.07714909965653928,0.626037738087393,-0.3988956053305351,0.2602894242037493,0.24223271367299792,-0.009990668194411818,-0.14726488523999506,-0.18580762694370093,-0.3686943152618724,-0.22216948283918675
-0.24986965867232183,-0.1648909227893127,0.10105785270050917,0.10736517676664002,0.12547206066350536,-0.19999436232742493,0.3104031889094533,-0.20078532364663276,0.18869293783959237,0.03623901390341398,0.04503313821850195,0.009357890546021288,0.33044625819778706,-0.14738761721817586,0.13467916274948613,-0.07274880701976959,0.10043506030011293,0.019273772215794044,0.10831752074671445,0.1224699583988626,-0.17185786005209647,0.08688339894318388,-0.08608340926126208,-0.1377232686964681,-0.17288959689303227,-0.06059433133558577,-0.1281605080648237,-0.049535205111149276,0.11527750482062356,-0.21525937348226112,-0.20478717515531897,-0.2583464791753455,-0.13505139445111508,-0.09820543888104899,-0.031189523288145532,0.061146642188303194,0.008530750704904302,0.012715831025481806,0.14870863913001342,0.09105361762378948,0.18187702929183744,-0.2449601604478255,0.19263276454537628,0.0318902445016128,-0.02514899218015331,-0.01153768757275248,0.002937950713246433,0.12480356260044607,-0.09766425601265945,-0.12370952768170955,0.2790839294739814,-0.01110025844478496,-0.004298283093500943,0.0010110657779678356,0.3815955870052293,-0.15332995543631328,-0.17129404334775677,-0.1471331788428744,0.16380262554871317,0.16229994630479355,0.08746527854229284,-0.18030251974665074,0.16851468549225818
-0.5383503049434538,-0.38618542310320564,-0.02826071673038317,0.28393035700437697,0.06541768805868575,0.07190487869398793,-0.29850754497524146,-0.29311147180820046,0.08513800626480436,0.008708681220473788,0.19712183188746393,-0.17450235097015382,-0.16715368992005006,0.451280009866295,0.022272866661199844,-0.16617382625781457,0.012984709475913035,-0.11895403844405168,-0.13469571689584423,0.04115930913720122,0.3242672821970975,0.052136179477956554,-0.24298696468955627,0.01097928995129747,-0.07048225638203139,0.2681106377888271,0.22419291052497964,-0.048782581939337696,7.34202355908109E-4,-0.253545237762115,0.019473490030529266,0.09995875805349103,0.16292858662996612,0.36661019793379224,-0.08985685808725714,0.03899991175929601,-0.06028692659384851,-0.08572873038773472,-0.11280426971635477,0.11804539793353427,0.25358742922487193,0.15944814003568064,0.09410916011028016,-0.11063082176384284,0.04277613756567174,-0.04119282151063007,-0.04114892867214179,0.19694995761591136,0.39716068320459275,-0.17385529118706303,0.20247979160924828,0.008417110120881588,-0.022544521313370813,-0.10998326390681361,-0.15940469242647076,0.4592847325480276,-0.3689295635562783,-0.23918253090506175,0.03471769912147023,0.09877205262375365,0.21106933701397754,0.15564731034347506,-0.4313659336815767
0.14444680318510034,-0.007472029829231494,-0.3163628596595728,-0.5582120341264859,-0.20326712232266964,0.552780326797574,0.3606005553356663,0.021698956882414865,-0.1222645216923122,0.009801963132295824,-0.1874960063489922,0.3086899494297385,0.24578543301044592,-0.29778439868148054,-0.09423386276831033,0.07382633505178882,-0.017517277639972326,0.06228753208502678,0.0808373331779565,0.3490072626361845,-0.3867993500278324,-0.13289814685087256,0.10268754797466353,-0.008240601789912668,0.07692395218147528,-0.28351795173313277,0.2753641989405905,-0.16421513553569053,-0.08769646248376459,0.09706182689403685,-0.03468027770156989,-0.18450738282880583,-0.24074142412302635,0.31123094325663875,-0.13889776809861656,-0.11358825925122445,-0.17145305134679487,0.02794695298129497,0.15763511790929616,-0.12885782861329104,0.15794879031840237,-0.22286185023452046,-0.1554260429786909,0.12926774028675755,-0.09304158115445191,0.0918099838166701,0.10582043785925005,0.18314016528256188,-0.42468344635343136,0.07774448924492866,0.005364262928829241,-0.005299512471660273,-0.04125523764121334,0.19477615113686297,0.18360472835066216,-0.25364909361019006,0.08295119619300376,-0.2711101741024499,0.11817524112545605,-0.08438886405976956,-0.22437022467686873,-0.037602074372958705,0.04386675316883429
0.024380527805687217,0.056251361000878,0.047186731353162245,0.21451716434334778,-0.13641896446616916,-0.22991043688604168,0.15196031794987439,0.0023295345400700302,-0.10330861431619441,0.01111778445834978,0.2620401219198259,-0.029855118069890572,-0.3645846511406574,-0.14399540429054483,-0.09528698393921049,-0.05985795408832537,0.10813899641516778,0.10830386405480921,0.14443905026028175,-0.25024390950030245,-0.4126383028387859,-0.11305276772335603,-0.04812706930278982,0.1768150296670185,0.21800634053359597,0.2812123043504255,-0.36985849138074123,-0.2884055300904853,-0.10740918886567653,0.07589740046642972,0.30329468768273615,0.19232252103470154,0.38903367783788395,-0.3608740145001661,-0.2572623075525248,-0.0650718505120882,0.21127344523178135,0.0651505995309261,0.24106458848844609,0.10741881459422983,-0.010042466562412068,-0.46924884855665583,0.015023442509729172,0.009042292695232892,0.09620738453098537,0.10250387728614961,0.015993859467848752,-0.048471521337389877,-0.31095481321758345,0.0884566552965387,-0.212901075034427,-0.04380789707557538,0.013094058224874638,0.017157777620561417,-0.22899577030602375,-0.09876105937780154,0.20397562825728685,0.24951436026215348,-0.18349286499713943,-0.24065450795781032,-0.09053263657386833,0.2580233728615249,0.5819562271178724
-0.4107842176152798,-0.2564053575172993,-0.0724016926279691,0.21491815137213788,0.09918495576733208,0.02904066206083355,-0.08507484695001243,-0.22100186476348402,-0.03440657051367679,0.03377288791497261,0.14389918133155294,-0.19046117579387858,-0.13885696343569115,0.30131522457999743,-0.008327550139935773,-0.21877292650290486,0.07218510645772806,-0.10147939917853487,-0.037014232400380064,0.10610766438312445,0.08577061921596477,0.006318654853970417,-0.18410063347022587,0.026113905870820256,-0.10841311837737745,0.2501979208245777,0.21845625512912029,-0.13777101601339503,0.010546078031260309,-0.20400882615952576,0.09311078557911306,0.10158094858618019,0.1606476145224458,0.2893151367637853,-0.20301776533146385,-0.06092923342847484,0.013932984262597991,-0.023373264622839965,-0.03793117796206065,0.14687350707380836,0.326868127817419,0.004554628823810819,0.013402118116306674,-0.013183914165843767,0.08057929692934854,-0.10966971109547764,-0.12249292452197996,0.1900194882121854,0.1367574544584355,-0.11412826049226003,0.2210110591280513,-0.040847223521495626,6.062208311565925E-4,-0.12060500958247967,-0.028350364055725098,0.348374038290668,-0.28933530584574074,-0.06309916710201427,0.06725807908387957,0.20560855174459444,0.25469479960692865,0.1288162165644709,-0.104380783943508
-0.2015675446746814,0.011237568641379987,0.3439911657720623,0.5664757485327461,0.2439317081125231,-0.5008052578029547,-0.3648812991783353,-0.1396718671802269,0.17193121303306252,0.026526841798779663,0.1311125202404047,-0.2621616208193129,-0.261091298386142,0.29533294420176937,0.11353701637730823,-0.09283869049546575,0.00299404419998489,-0.14625823544998748,-0.19549427907515707,-0.3345489394917839,0.394152999004231,0.15567067880761745,-0.10244285441399192,-0.04865135020097253,-0.09339934732964304,0.2217957136186366,-0.21058134697072828,0.17572200247677403,0.13279286176513264,-0.18995043923712754,-0.02092159811596584,0.11582408787791779,0.25012260198228614,-0.20950358820063142,0.21484946674502764,0.12266554472430366,0.12785699770796727,-0.11886221007423375,-0.1733930933336701,0.0807619962958581,-0.176650373754556,0.3160455978046809,0.11592615635700548,-0.14659147770389105,0.0887218183418228,-0.1481695694801394,-0.1865356202318392,-0.13357013650140204,0.47313267082370186,-0.06533006667514102,0.0069506640122866765,-0.04421305728788952,0.021087476279138442,-0.22744206613092674,-0.16506353759610462,0.23527694754312412,-0.09354889674794149,0.13592929117336208,-0.060077705699345584,0.1590251353445257,0.26231746584895815,-0.03728362658741445,-0.20126129247204047
0.0775411226312198,0.07285405721576864,-0.06910933308513445,0.05011635116791219,-0.2288083399167827,0.2043504485560322,-0.2753578046540046,0.044389087122115374,-0.23866223526608235,0.043907038729379275,0.24890093675984648,0.009474740373470814,-0.6908941793115514,0.2888163769832772,-0.13958491072570134,-0.0239492012968629,0.04723537244990031,0.1734960289358224,-0.032187174100094675,-0.14557827628124836,0.03274401153730701,-0.1548517087941508,-0.04750330528945461,0.42095429825549374,0.19966416834448264,0.4557909619886573,0.10169334902433279,-0.1650656784859557,-0.15748966484500196,0.2606176770495717,0.4834654958922327,0.278907537324857,0.49283336215495394,0.15979116799747464,-0.2125291051582266,-0.1272750441465932,0.19526999740107784,0.1577418877231605,0.08835888762158532,0.133483954695133,0.005246884496463691,0.07714346060779291,-0.045004253237667116,0.012077136938608533,0.10143969797552627,0.07960241869053963,0.11881625205507712,-0.02178058207701341,0.11595294543650987,0.11669190008090595,-0.2628619438299667,0.012367633595433192,-0.03282758238447814,0.015069927799459055,-0.512450187471602,0.38089447230827456,0.20975638593728926,0.23527642392605652,-0.23612529605919974,-0.30190054386663645,-0.22314735168471647,0.546963516306208,0.12098174353950227
0.129324158682606,0.07784595982121012,-0.2096759422730058,-0.14830057743234387,-0.28300736768183393,0.3483753894730734,-0.259863511214007,0.14937013706557548,-0.32443400774067693,0.02433368694150667,0.19807859886946977,0.11160593333740641,-0.35783204919675166,0.10035462715764144,-0.19941201424843538,-0.022279544279755245,0.011881970124307466,0.20669615063599459,0.07724992246324003,0.004281380586595004,0.04543756617704374,-0.12545598770244112,-0.0520786986574158,0.3706135384650315,0.09153667479244182,0.27276539347757395,0.24036546013606708,0.01187459612472228,-0.17560955519114665,0.24720897052333207,0.35705855607547105,0.12826162924070628,0.2625438907545576,0.34959547572342464,-0.09068701653836994,-0.20059489820714102,0.1382612295869769,0.18938523148880124,0.1658129530325084,0.09866804183414633,0.2402394047434344,0.15499677262023118,-0.1569660515781437,0.11340083027989376,0.01713865247154261,0.11025247123936593,0.19769171084466844,0.20926821554652136,0.024134060193514762,0.20049392591996124,-0.18720757508986166,0.03736148548567457,-0.02255099083714575,0.08833980277373024,-0.1759217204824936,0.23621497127464217,0.1731920715368331,0.2664282690090126,-0.12227832915594582,-0.2914009193134674,-0.286208175525712,0.41695250813908186,-0.06318849346359029
0.48076471065563453,0.4397260660279429,0.04384103575757101,0.0038902671951000682,0.0014125788178296845,-0.03098132639981133,-0.08910807895741729,0.24101148655009877,-0.2670162777577303,-0.03175517756121646,-0.03040449968176632,-0.041624633999026,-0.12864841544300892,-0.0749230366848178,-0.1841860186048722,0.15633654821768092,-0.051548501393053885,-0.023801510214670807,0.056361184318840074,-0.07143813211913971,0.021637624808576537,-0.15639805723096856,0.16020958141848535,0.041073205480060465,0.11364948751083497,0.07578013866298729,-0.008074805092907263,0.17704645326122548,-0.15005804646247412,0.3272587438515226,0.24536165604196583,0.25357069734221155,0.23355480562375844,-0.04778186281586043,0.13898737233132502,-0.20369024812543488,0.21782461376926604,-0.01854542569464747,0.00612336363130532,-0.035821602315976066,-0.14809738030295264,0.253671146300061,-0.26109279141841474,0.14178479708961703,0.019486297467699858,0.06060183225429902,0.03327805768823386,-0.11217862058098486,-0.04930672513818117,0.2498958699478815,-0.29555333629492025,0.009553740104937244,-0.010416415110285814,-0.04156712448539596,-0.20731463471045522,8.698111377128073E-4,0.42737014460953904,0.4434806607456846,-0.06915960806859338,-0.007889497597270268,-0.041078765495507666,0.07194455767918945,0.2121888826806934
0.4880012487523291,0.3898576661936874,0.3085559956577068,-0.19797353631458206,0.00497579021965648,0.06527745044005856,0.09545700771945863,0.17626654830407887,0.3285259084338253,0.016221303266084272,-0.2841815867331293,0.20632180323223662,0.08228061968792601,0.00824352454816157,0.2305252693539303,0.27482411728752343,-0.1025344791571522,0.021034833009544084,0.028710533943369122,-0.21724013335872092,0.10597410618846509,0.2562147061575695,0.31433291727640633,-0.1329268111167678,0.09600435456867366,-0.29798033796153744,-0.2618765651288604,0.16700455817241883,0.25668737494518384,0.2804366396195531,-0.047898646430539905,-0.06277104106286545,-0.20007002152617204,-0.4463529825259801,0.14823026549158907,0.19468729651779954,-0.008567894915370314,-0.10578080556969809,-0.09318220118518086,-0.2816583755491162,-0.5274414358124873,0.0908661779820665,0.06845641274326933,-0.015416216708368524,-0.07940884707990034,0.07208074618083612,0.052227034881161545,-0.47699434303485855,0.04379932830945679,0.008977423591634089,-0.08970883116817356,0.006173242537880964,-0.006554154709219148,0.13041093392489458,-0.07745423506863813,-0.17751802023458563,0.2639595909257646,-0.014965247749734905,0.090990874799773,-0.059343939478856335,-0.14529329746817,-0.06097999264357543,-0.03717788490540737
-0.11839812937908978,-0.17047627160453122,0.12978488895533177,0.05193903830607197,0.09719682941561923,0.3742455204919132,0.13422427726599118,-0.16797933135832532,0.3054787062284079,0.027111806762134302,-0.040961793995562934,0.034857078170864475,-0.46181716039330706,0.5541416413899186,0.14265017860903118,0.03454754132916826,0.011641655108331756,-0.037794732786256884,-0.06550095707213391,-0.1272708655998227,0.03151087244417256,0.2262456697283863,-0.021463992250203623,0.20517099628090557,0.2258393025475927,0.1482636099374608,0.02895107186815187,-0.4264786610137611,0.22898520883486542,0.06315263446237704,0.23830420405182343,0.21790746531662422,0.2792275881184094,0.05170790179047795,-0.41404317211298963,0.21925296587093226,-0.03690341092532132,-0.06230763858473049,0.015177600719018152,-0.02339686399001855,-0.1179495557582328,-0.2733307302696118,0.12538627621480433,-0.09374001523780272,0.020978589266611912,0.013909541159759382,0.05982618749789861,-0.15146317416127572,0.05004759232560978,-0.14913600998864054,0.19354030312732148,0.031017437739262813,-0.01576613679239993,0.044662371141837916,-0.431455398878543,0.39670006714718914,-0.22050795859673492,-0.22835149350953682,0.05722003470137537,0.02093845611258429,0.038002317737549245,0.4750419964930419,0.07913847372867677
-0.06722194169137563,-0.10177231184949387,-0.20444773450739798,-0.10149988070813235,-0.15077670732135035,0.32580911368420323,0.6218318033109947,-0.020588866559765398,-0.18801092640221423,-0.043842162757078675,0.136196436845496,0.07181202901367237,0.1597479162417193,-0.22888687894599088,-0.09057597144083426,-0.029670698958828883,0.07105529228053006,0.15778897958455554,0.30246462953422754,0.2515657175961491,-0.6373089313986068,-0.06166019684200715,-0.06564436423306765,0.10229197116439534,0.14298891715360865,-0.007983908158105738,0.06539272378091478,-0.39100641792200824,-0.06615921538182604,0.0681692920876539,0.1936609543741706,0.016641690736284045,0.10905796930381105,0.10216923756540552,-0.4076465587986634,-0.10100032119094621,0.04499222097061028,0.11942142669605127,0.2934554557676003,0.05640428312646089,0.3712294282603325,-0.6101692768130925,0.01911290120385359,0.19103017906790024,0.05756530527682927,0.0789860703837463,0.12868506690061132,0.29916976135737394,-0.5805578744230717,0.06408341568266593,0.13726707753529782,0.04257738045252267,0.015599076238305393,0.07794014443369894,0.195208273296323,-0.18460510152705445,0.08832765479300055,-0.044260920699797715,0.04312894145646104,0.0071808705976843705,-0.017394041407538693,0.19419364394410005,0.5181871029046851
0.10592119846355041,0.06535881499958149,-0.14767944515463696,-0.019303794646758216,0.12112768092271069,0.20634327347890163,0.5133318046512457,0.05392671038260324,-0.20165727493072833,0.0331187143135971,-0.16002839341599548,-0.05804903663170018,0.13129561319360689,-0.16414780561741188,-0.1207953510884039,0.036011940104698166,-0.05017863418856928,-0.17413677769493496,0.09625435449893575,0.28448935581055657,-0.5009198058357371,-0.14526081088818393,0.037182640582777225,-0.13522726345200523,0.17422843916272893,-0.10984032817978807,0.0711595693918054,-0.23691016045433494,-0.0972782150685874,0.03760491379175051,-0.05203964021382322,0.13536829711822984,0.02606401893373047,0.028634414656538324,-0.21907753185059675,-0.17598642935206632,-0.09402232712958913,-0.0656113022162754,0.0810747798679473,-0.0687879494413112,0.0697973198661524,-0.38373741227493197,-0.17986391976651947,0.044408745226919545,-0.031159128285471308,-0.04006157944586213,-0.07259063914314812,0.09998435674645449,-0.47730448469851944,0.08622228859656861,-0.047157989805512265,-0.017837277223373138,-0.04722870595149974,0.007357933893916256,-0.008204554781084257,-0.1114879918552741,0.001096341456973043,-0.008790559208225357,0.12935851307209054,0.23277212417449805,0.18825241045133367,-0.16712073112925022,0.38583521859447695
-0.2455203266985051,-0.34861058443581694,-0.04883288826462815,0.008571131443330408,-0.04557348943920114,-0.012484682465779887,0.2614098126351707,-0.21836422830282548,0.1756710804099083,0.04039658651235305,0.1353003951380824,0.11336746836171369,0.4103601852375332,-0.20782561458408766,0.05363348003894977,-0.12276794363252913,0.10960132597485654,0.11391337314016682,0.18690129089110374,0.15911073734870695,-0.19806911842122374,0.052444144090136424,-0.135964110781116,0.059939085820165654,-0.1737624134828761,-0.08773757284881531,-0.07005914692039383,-0.08531593974409903,0.14371935567818092,-0.17683532587972045,-0.14898711821807467,-0.36892466474963836,-0.2309974442344014,0.10949766190596982,-0.10890656449928707,0.13263509387339256,-0.01723368187864433,0.12224513237710317,0.19382747663892605,0.1380728979061599,0.2949700305262022,-0.23704346721158107,0.16258236343509014,0.017165757608640107,-0.01803984581054989,0.060897193585205456,0.11545251528386719,0.14966700759043713,-0.08182436835103238,-0.07946394896755946,0.44379657275234147,0.0020267225945374764,0.025683695251327382,-0.011804976494366883,0.5234866426283559,-0.17715811003503673,-0.1999963102652162,-0.23195817958716594,0.19190880681693445,-0.05322008444404566,0.0011734324031887548,-0.09021816418068473,0.02660129302505937
0.04748689949534018,-0.018422301515882946,0.21636134274720423,-0.22853181534516917,-0.06471351851020246,-0.12234531384533945,0.19157504208099913,-0.09591066278951058,0.4179739738439741,-0.008838580377677999,-0.21365982556237165,0.20997111020622786,0.5120813826386343,-0.16986951746216508,0.2598113265720521,0.13617027146378732,-0.08596925033298053,0.023854542559998755,0.058532435674521106,-0.03220443668962652,0.06766041723079812,0.2703889418460699,0.09331226657251258,-0.17713506535937493,-0.17224814585752143,-0.48702477676045847,-0.27772062994444097,0.13125424884871506,0.26372384248586894,-0.1296979091160528,-0.3136488522445871,-0.4449256819454122,-0.4717599073641937,-0.31421813736110066,0.12796199287827212,0.30863476316595845,-0.06648624617204066,-0.07783530131392853,0.01103114685982956,-0.11535807748823668,-0.3173208228615827,-0.06310606784136003,0.17768341612104116,-0.026950605756523346,-0.08919837834777229,0.018379025558665565,0.12806755472849646,-0.23459039642260557,-0.013314250321715869,-0.1278453645854699,0.2746198761930521,-0.006508756939015106,-0.017902171242113567,0.1298464831493766,0.5148466789457478,-0.33300666739144585,-0.05573683175251825,-0.31016192924476854,0.12495523138256345,0.007271948927891679,-0.049979523180871406,-0.35316875061927483,-0.16952299914187088
0.1364090983013737,0.28799144599669535,0.09803675948457004,0.16140227243005217,0.056636855529796123,-0.1932470637511035,-0.054556677689794775,0.06302905747593172,-0.08291083973396166,0.007476008825337797,0.0773261974312441,-0.0782348333399129,-0.1947387952001832,0.03968509754930792,-0.0452889177645232,0.13681603629891018,0.041261479006152436,-0.06937564041195064,-0.016396126977821546,-0.19626044599578762,0.046791685284098126,-0.11114543234909233,0.06505146562732853,0.07440983551764463,0.08354004546557739,0.11791647808412889,-0.17053973802568032,0.05280688057219,-0.07716247626314862,0.16993287246848512,0.12424132966696293,0.22488867969535475,0.20282437202607745,-0.11986966908579638,0.1405284745171353,-0.08937411194046596,0.16581476679824655,-0.018845741590921065,0.0221684821489121,0.017668647244903395,-0.07362074364142515,0.06178406910438559,-0.04239410422941369,0.06884336189482516,0.0864637895742765,-0.05339289911644793,0.004611387619580239,-0.06270042734527657,0.10982264236570291,0.14220760331631777,-0.19800676263521955,0.015071750600124292,0.04072861065730357,-0.036227735224680424,-0.15347490065707609,0.025310492622115637,0.1773046828291162,0.29357554094681476,-0.038529430286492104,-0.0018135120085818219,0.06867885309010696,0.10398654005412891,0.21169845216940017
0.31363766157483286,0.24248700823390673,-0.052336619201187526,-0.019789407376720344,-0.08357982808462719,0.025547331876965604,0.11681783898962371,0.14669747204946643,-0.2535630414138813,-0.001579038946627545,0.043892485065462325,-0.0037545416191166925,-0.13222199700920795,-0.13680370722758817,-0.13007452530549135,0.10027474088434501,0.05455269193978287,0.13431160313525373,0.12541201780319228,-0.05689824651337139,-0.2449006532255423,-0.15078355660295134,0.07124310585684857,0.18361587472755309,0.17410234306520686,0.1727952399977441,-0.06204746868225381,-0.07403782335408812,-0.170877640859264,0.22852832988253227,0.2904878646897983,0.20814203144833376,0.19825175125032413,-0.10473542765531424,0.029233005643864884,-0.1581876877995752,0.20520634353647163,0.09421390359682227,0.15806555614984555,0.06264398601933162,0.012376853766955275,-0.09054238772358514,-0.18233474131690944,0.14011623686532496,0.02706411034957745,0.08282343751318237,0.10753034395810472,0.02118300268502695,-0.20141117402439737,0.24160045585678006,-0.24672705774225928,0.020602309922959833,0.044369325567148954,0.07213557472701959,-0.11583946422371072,-0.06884596378611756,0.2967889204932788,0.3107819454015287,-0.09729427497014066,-0.10942948566193907,-0.12343818853998133,0.15250701972559733,0.32497869387733
0.03612344923711637,0.1510355299429489,0.1659200704434404,0.1954209310923187,0.043187207221484565,-0.07527917873674689,-0.05183401051279335,0.04002127922287146,0.11098594262178471,0.03821971459287643,0.025612131205454615,-0.06070435787621231,0.03135214911387047,0.010815428666147759,-0.01475994478940145,0.021343729266141455,-0.00824523288850482,0.024107968034722878,-0.0023122010569769785,-0.14333450184243468,0.1440532200955803,0.0025174273117281177,0.007402738839516049,0.027581962725563226,0.005492972200147921,0.08051517909210779,-0.03773187649122824,0.1593780319654605,0.062172974174412365,0.02141284047721389,0.08171380915754374,-0.015424917404007282,0.05951690702936859,-0.06823560269841368,0.0928172573913315,0.04856141529624457,0.14615898687907247,-0.04671469288068771,0.016128333376583117,0.06844053431687343,-0.09409309327880544,0.14148866996867795,0.006257613149848088,-0.019752136049634893,0.023764008786117966,-0.047378034383870136,0.023592192258211585,-0.03661794915909628,0.20019480406272128,0.027556784086297418,0.023048335627454872,-0.012639403073837617,0.013016630964086923,-0.07976405788677078,0.004665074160606862,0.07566656695581267,0.09475690813394272,0.21127691273669746,0.049597999277624406,0.05362462338049134,0.09481184598693379,0.060031614750048395,-0.06214783062646529
-0.10587945882421745,-0.1625243285770802,-0.1147202906578327,-0.18136464918862863,-0.5162740563451303,-0.09673700184428129,-0.3720112566055985,0.06258934038054528,-0.08788175203247432,0.044363524416448,0.3344397427559406,0.105028138563424,-0.20908791620948836,-0.08330477435116676,-0.052414273298722946,-0.09759695232656546,0.11250281391734995,0.38939786567520573,0.07021405691236877,-0.12501262660733636,0.029419562862630838,-0.09657966729628635,-0.11853738906412509,0.3224996022147086,-0.09630416426932406,0.22049442477752,-0.0965998055595612,0.06929395074467412,-0.05793080813273921,0.06720138829122814,0.34087180110506987,-0.1272529489095821,0.13711377330229366,0.18609110410821417,-0.12164799185163398,-0.03564338229349172,0.27628491148186013,0.2972941993929085,0.2424922299137671,0.19736399893241646,0.20659911279745316,0.12302803330469303,0.0178807866508015,0.033030324254485134,0.0972848778134808,0.16145557883402759,0.3729628027728437,0.037092821477472074,0.12072888549227895,0.08566480279452347,-0.10371999747641471,0.044192887749029214,-0.003004451896519232,0.04462524590620336,0.07856408865668174,0.07539318351878622,0.18830023193558085,0.15224213728456512,-0.2776197670280413,-0.5711064112064975,-0.4866508212107828,0.38723330521129684,-0.0343543669038588
-0.4391731454140816,-0.3027333633468292,-0.06571363875637312,0.4052285242184907,0.36212168626274877,0.3979530685943964,0.24266547590918028,-0.23593860758243618,9.308132757814033E-4,-0.044263525663407105,0.1001218578904214,-0.3311711357732841,-0.32150257854800773,0.5288258338296847,0.012391806066657254,-0.18922763654183103,0.07175939649099004,-0.23532912448996712,-0.0831084400684537,0.2898480044231503,-0.14635909474820025,-0.07343899667168075,-0.253871431555281,-0.06714977556660404,0.1259471319829077,0.2629431807812103,0.35264233385090904,-0.4323053790703337,0.02072908842212642,-0.19715886960307552,0.09641763009460086,0.39028484339102465,0.3543453049390768,0.41491458788163993,-0.4206894575242072,-0.02384953450659998,-0.09901963414501053,-0.1538395308036416,-0.1414928172387871,0.08827572634073402,0.3172141222754205,-0.3116648291467676,0.0549051018750392,-0.03142892865544226,0.05832097900889455,-0.19906339013546193,-0.29832427821516383,0.2657038326299258,-0.09204526703634992,-0.20429622859297314,0.24679450563800406,-3.60941738743438E-4,0.03008447231050719,-0.14787968331898743,-0.3602008161343198,0.4625524371285448,-0.39580084769886037,-0.2257401811159421,0.19818376820445538,0.4962328525899438,0.49641801948544545,0.18626170004091727,0.097821692665244
0.5411535874867308,0.40109201606538963,0.3517348968832426,-0.18328991036233122,0.13311310657022507,0.17966031118113412,0.024546331921642888,0.13990842272780066,0.3505024674533098,0.010740460847277679,-0.4142361089036913,0.21049113570417352,-0.04973851422597024,0.17807877229000516,0.24543940457411245,0.314865019327766,-0.15280215059689042,-0.09916073479697025,-0.08436794737854623,-0.23081424793514008,0.2866253581318048,0.2434016829687435,0.31003412338416114,-0.10667285980747072,0.18616087076961768,-0.31422323673468827,-0.1429632020260294,0.20912997861220523,0.2337623832857552,0.29177360741010494,-0.019184362572457602,0.1026833616879226,-0.10413729147277812,-0.3289355483955319,0.1361441566630041,0.1512180022382861,-0.08297835071067336,-0.2021901230303513,-0.15661851874071311,-0.2665612111987385,-0.603980815359883,0.21311284747204695,0.0036850789051019284,-0.03399628668554577,-0.0756147086603882,-0.03915171185611727,0.0049994933053265555,-0.42408665220624653,0.1263589929414992,0.0716427034390285,-0.11545623618458194,-0.029942406018474855,-0.017359834610122603,0.06809352902471703,-0.15424234274457277,-0.057540621976500624,0.2764131488868155,0.01735845456298631,0.11202675265500178,0.0688125865162961,-0.02294656500673862,0.02267677230859222,-0.11890586506522294
0.008860562005028846,-0.02786520841452752,-0.1963407808974615,-0.13873966454739695,-0.1864987202220558,0.04265002495873758,-0.29256231987292,0.0660750716795643,-0.2782922260628817,0.025420211238153703,0.14982630769511152,0.08614915446275564,0.314204196617744,-0.14127995644116445,-0.1322602466867872,-0.010214016300983474,0.0972486022680006,0.14112133578581823,-0.03620116034198584,0.23767615072110734,0.2245013937409842,-0.15789065501117575,-0.08166160993805223,0.06915782813571619,-0.32536687871299264,-0.058870598473204236,0.2587309824987787,0.44248229620770163,-0.10465124806225795,-0.051459934080148366,0.03495686419019934,-0.2218280449120012,-0.18818561263182282,0.5403837589527442,0.2454733089203678,-0.19296490960116922,0.10203421861628915,0.07557797005677777,0.017735158478831437,0.09106159451436406,0.42123877428314854,0.5000512411097293,-0.11564092203241055,0.20074571978606562,0.04738708619046468,-0.03341735507965149,0.1256170709890211,0.3322586765072178,0.26082739660876386,0.15122407360072052,0.07782323095162462,0.0077505806245759395,0.014722759956486947,-5.418685573787454E-4,0.36790341103817037,0.029855695672032893,0.06763487306388483,0.15715903686625307,0.1262568121668712,-0.11253877345589086,-0.044077844585588936,-0.028828460479240734,-0.4012975685331461
0.1113371384654215,0.13726055749038993,0.10467466713669213,0.1989722356378578,-0.11329976127567751,-0.18822094148288585,-0.18426680803879217,0.047407939436899416,-0.0745159194259505,-0.02841173107377334,0.18848581888633187,-0.018734624094877566,-0.2902632791421046,0.096372584366064,-0.04324805617330108,0.07680944367119977,-0.0026477756069559987,0.1801369366411336,-0.0011869499167791071,-0.23734524882149963,0.1651382567595502,0.003773432591484372,0.08720368959698258,0.20351652237117865,0.023921228297621895,0.22790446425355182,-0.2127947551739051,0.006784616842442229,0.04945558216772545,0.13837850583626807,0.25048570182875607,0.14219912397633716,0.2302268374898112,-0.10630231629244041,0.02929322893195371,0.03749616125319714,0.23820649238331798,0.13543060746254434,0.1010526372544993,0.06392070163589615,-0.05878638679155901,0.15595134435991698,0.03519509975447773,0.004337287892144827,0.05549529670510419,0.1246015810442974,0.10222300601886482,-0.12085285108485427,0.1752932216885713,0.07752019399466763,-0.12055510363781319,0.029088708059331142,0.02922075333525305,-0.00860904341172783,-0.17628559895337617,0.1497580422839741,0.2245688646147933,0.295294436368701,-0.09030869718732028,-0.19929784285596708,-0.12627097903165782,0.3042059244857277,0.09809434167413997
0.26989528817461833,0.09982098080645321,-0.2573783701457678,-0.3044997345963063,-0.23389811935902843,-0.06165594195897922,-0.14009846503831774,0.23156459792013923,-0.4111605474451874,-0.04504999439038383,0.1269137262566973,0.22837012360674067,0.46234764435160886,-0.5694462660564289,-0.21320920258012727,-0.027112106722743612,0.10178636858625065,0.21109847448115734,0.03421984329239495,0.2648655025457216,-0.08260753854128257,-0.18218626777405916,0.06830463332761864,0.04543355633450316,-0.23400127630226775,-0.1199308165776113,0.09814909555464398,0.38137868833585636,-0.1397541633207462,0.07782972501458947,-0.05756793780169628,-0.2968624358856678,-0.1706131992990592,0.2956904644339038,0.2738330929422783,-0.2216779228686156,0.11495227444075098,0.1806218189892601,0.21798951385225285,0.1115290534795057,0.298302404697986,0.24501072699011622,-0.13829941324117442,0.24315576786239526,0.010373642226922407,0.15716161050062064,0.2692342718367336,0.3310559095852492,0.0306857275801321,0.2715441499070333,-0.09517997081863504,0.042636269796666765,0.02497601934234496,0.15794702978448144,0.5979252084149266,-0.36707110203829235,0.3622678796034748,0.22036622981910858,-0.0551157053358505,-0.2707962973740158,-0.22399173899817168,-0.20661500985372938,-0.10238812467862368
-0.08054442638067802,0.12629655339994658,0.0010643704063933918,0.4861538489415114,0.3118313513807301,-0.2949004097395728,-0.171688429930835,-0.03804061019330993,-0.2223642735268408,-0.006771388930426461,0.14527135037675276,-0.3382959662038076,-0.09503976432971192,0.038189227775501836,-0.13510943899498865,-0.07948271749629296,0.035942862883139734,-0.18582829636177026,-0.12339952485269295,0.06346435452876799,0.14788840639331555,-0.1071559443514555,-0.0863067225804871,-0.0804020661335848,-0.092482096269583,0.15993979305026612,0.07800888692384678,0.2773653010989499,-0.10205826671202009,-0.05373973400298879,0.013604625134352023,0.14259550782195038,0.28165808186888575,0.1637082700361336,0.2559032205291993,-0.13207617534805996,0.06664633132550477,-0.040047742427376375,-0.178090109131686,0.12035123142998115,0.22175585501015851,0.3148179581449764,-0.08836179795493414,0.058345418146628344,0.041085787823849765,-0.060737770585654875,-0.24394100345945666,0.20125385441791638,0.1708628634080543,0.07434769440023734,-0.09466084729303555,-0.022723836032698654,0.04990879324432451,-0.16177221567509803,-0.053923117974992114,0.1251807841476562,0.04590910611743463,0.31745788022205723,0.06750400667951953,0.3118547989105228,0.38713735302385005,-0.17953112716740485,-0.007645128026658257
0.01493563460739158,-0.07342378069989064,0.24075371776450327,-0.16810643395661654,0.028101352739950278,0.11498554592111258,0.7380038724239123,-0.10634551377976549,0.49853554669797817,-0.00570990212633922,-0.16913423683677134,0.27153796649454587,0.27826904919380463,-0.16203149108907614,0.3050205639096745,0.10135946422937923,-0.047523151263755004,0.10680222392650814,0.3284585145751508,-0.09603331027439425,-0.4563510482000169,0.3058879157300705,0.144421561981246,-0.08135852326971246,0.10236784021422828,-0.32572925654647733,-0.4392873223957787,-0.37966458107641116,0.26304043674770095,0.08548819167120399,-0.16774256340980542,-0.22459032782250332,-0.2492813947876301,-0.4813491950747696,-0.3555163646169422,0.24661818382372458,-0.05972241972996526,-0.0071142983821447835,0.19947959038601318,-0.0721889250081414,-0.27030514431469654,-0.65713885160282,0.25226565567895726,-0.06011999373216294,-0.04963153124412568,0.08102791796280469,0.14003667180121754,-0.2242443451214414,-0.4117340087996833,-0.08406354449277889,0.2661481211632204,0.010334886849104066,-0.045857313480391064,0.12561493132839707,0.2659461703530987,-0.27149998808120507,-0.006934724559912037,-0.30255491451289585,0.14761792806758212,0.02252459850320425,-0.05504492547867537,-0.08469149743553918,0.48695968508138604
0.14189395096318458,-0.04811032926686918,-0.25612363039096187,-0.5075811833416872,-0.25100557484104674,0.37154076369367467,0.001960462367126278,0.14054237518738497,-0.18421591118815592,0.034268301608581325,-0.09086695135016784,0.2877517789061744,0.32250586001777876,-0.3211586096027145,-0.12453685475786058,0.002828469069439157,-0.03560666947199248,0.12519097274126365,0.04947860358524455,0.31764349400964154,-0.07211568341708186,-0.17524355698219315,-0.007872414464177597,0.09410896743116637,-0.08389283529152476,-0.24022890971958905,0.25910033490914325,0.1789973776107342,-0.11630805337228842,0.11559995966181705,-0.023183165337239818,-0.24193987658375307,-0.28073042354391814,0.4282622379381073,0.04745197421396267,-0.17099435911728242,-0.08510638882671583,0.16146861676845667,0.09939120417254009,0.02649978621007922,0.24136489062529703,0.11218910218315713,-0.10232485848752168,0.156764118430087,-0.08046836337280569,0.09531974201324904,0.21475361101369828,0.22061463740379306,-0.08032968684489428,0.0924139572043706,0.05209771188189591,-0.004292452743971532,0.04312967479784342,0.1836069240254995,0.30495047450410834,-0.1612311460603197,0.16043153116911338,-0.07721366090143544,0.06521328611197091,-0.23895397701649299,-0.28713335760671055,-0.06715370761195252,-0.10292154950853512
0.15326644084841226,0.2292355591211575,0.06922415852604101,0.01678489813026253,0.30904058683888275,0.1151744407648403,-0.18523553987344055,0.027130469435827895,-0.033787649094443616,0.03568987813277828,-0.22997047053307065,-0.11241208033471826,0.034457650155290356,0.1938961895279733,-0.07247541504720406,0.10616748756277455,-0.07184897983522227,-0.22466479880891488,-0.23535749034262213,0.08604379832410841,0.32147395797334427,0.011759310463959746,0.06211259577622153,-0.21152738156237524,-0.060120301435756564,-0.11450963922142131,0.23413501570936535,0.2564215275043832,-0.005589944058651399,-0.009897166127092428,-0.1606383593100323,0.16783628424451907,0.0017050663250673759,0.16651138332337692,0.19263827916359788,-0.04231867431360244,-0.1620560945342727,-0.2604428653425949,-0.32860110140568777,-0.18390548150837918,-0.21007527202334542,0.3823449975945463,-0.13251685870888144,-0.003431843089109561,-0.03894389229208613,-0.19735860303796274,-0.15133258521008666,-0.060267380252495444,0.237645618385716,-0.002254915390659608,-0.0975682413294849,-0.00801715036539221,0.030775103680667285,-0.04874765133413985,-0.18722656471568924,0.16221045195262,0.004355622831623704,-0.034782624070468664,0.10176376510500708,0.31994094214643215,0.26538361769367486,-0.22374363915279585,-0.36020779091896843
-0.20885957828420537,-0.13806984850760862,0.009351464446208655,-0.007729776328889309,0.14811367938456682,0.10253776042691859,-0.3390663358718052,-0.0924307828100602,0.2503160736234867,0.045599309769729715,-0.16370580255794434,0.0517047515840502,0.22336056438919577,0.33033353241985636,0.149771256344561,-0.007680276084374908,-0.05342025351812167,-0.1455731983498051,-0.23886971983891764,0.19313420492948336,0.6116629748500535,0.15294090493504703,0.014211838466149259,-0.17489989775035597,-0.2762062578017191,-0.2351417356721521,0.37396573562069385,0.3481300074115012,0.14030849546076807,-0.22558492161319654,-0.32020177708076275,-0.14216553478003785,-0.3280386827201917,0.3775470859016357,0.20081436306212605,0.0824711720472761,-0.17871187679908218,-0.1616395277707637,-0.31618347742408565,-0.14732350824344126,-0.03527663517530571,0.5493791909448874,0.0908589807486025,-0.08550780087648073,-0.08433712585402872,-0.10056618619563672,-0.058991198913394376,0.042344445757721776,0.5690450838649389,-0.1574233994038578,0.21122560044128458,-0.009431894527343512,-0.007437308417752184,-0.032499774803189094,0.14430690475154084,0.18497891741207317,-0.2761950353802814,-0.32856275178368877,0.2214014425661935,0.2103588922646307,0.21046332591415368,-0.18256095805323863,-0.8015351489707813
0.04432151910294236,-0.07646638008276914,0.2320506356367918,-0.1125823944140164,0.06103225730472295,0.25468060229478756,0.7748635485196087,-0.11335860112332628,0.5301791794029066,0.013683896600082485,-0.2655547746024507,0.19156591160244563,-0.08984144733126109,0.15716140487820707,0.297239767951201,0.08163101018504629,-0.07015173626632573,-0.011729606632432124,0.17905974774619746,-0.18365301192103542,-0.4656419692218609,0.3622904523264144,0.07749717274109463,-0.0393628337815914,0.3436256945364424,-0.2411970599075353,-0.3100180636623965,-0.6900299650012626,0.3563110733600919,0.08847782947356547,-0.023444197989407417,0.10934427951229325,-0.07575334536006559,-0.6068005450075229,-0.5100367633541281,0.31464204806281226,-0.22622978758752685,-0.1296223570090299,0.09089437424499237,-0.2259729123159884,-0.5047803605661835,-0.8062710205875437,0.2435777741545059,-0.15341071793522662,-0.12386148818903531,-0.004458806958656618,-0.04111280361387981,-0.3059052143656312,-0.6148560013570318,-0.1669307511043723,0.19826132941604335,0.04381423129692667,0.018679519158769017,0.13796562275611743,-0.22043793903665695,-0.08753566508089247,-0.18489534515629305,-0.3750938723230322,0.07531530099101735,0.13886710805861585,-0.01937280864356407,0.05012601878514946,0.5690857613254329
-0.294051408170866,-0.13236552465393572,0.1863851009319969,0.4703180280022808,0.2153574202356635,-0.18540738770573842,-0.09596271783503374,-0.18856711827184694,0.18940892391063,-0.029601234364820386,0.15968411008847766,-0.3012000106981347,-0.45076758316774185,0.46808373209007587,0.12397369465172617,-0.09708101954130388,0.020212893978454178,-0.17920150591696676,-0.11685257523644334,-0.2522679092703555,0.11003135342808151,0.0892787512843349,-0.10565376551523248,0.045350919126311,0.08842232553936577,0.3648595846917907,-0.14313210002602236,-0.1519405193324458,0.04968840558474845,-0.15418366330205477,0.1954110819006561,0.29550338943893295,0.36349121342229884,-0.1693347526773643,-0.1707826309443828,0.08443848462211367,0.057066749840813356,-0.12264070587310044,-0.053372508259840114,0.10475919733058439,-0.04108662933622881,-0.03593339739680144,0.15218079944335716,-0.1742761264384497,0.12523299372785418,-0.050060691272346296,-0.13479707566271673,-0.0716543511603027,0.20916742963292767,-0.11580785101251415,0.002145444809697459,-0.006859259289699847,-0.03285895593010554,-0.21411484836367053,-0.46604187235408967,0.3556281725713628,-0.1934412611712777,0.017408902543285754,8.113447553218874E-4,0.18611355990545478,0.24200646988877136,0.21617354163214877,0.06633758289882927
0.043794099993885345,-0.029918415466608242,0.11929724122419415,-0.37562807100069634,-0.05374244980219944,0.21427163316932235,-0.06372330016982213,-0.09259206916840725,0.3573102720153286,0.005091862109194253,-0.31114793270591734,0.3043584633758615,0.5003079811054686,0.01801040853618641,0.2559232183144823,0.13082311201755903,-0.1092722761448458,0.08747564587203134,-0.07634626395931422,0.14133030491041876,0.4263520961508343,0.16675782241826254,0.1327924979809232,-0.19369032969149474,-0.28252206646260786,-0.4806826806788172,0.2271619355658705,0.3954579098607416,0.22295756320107724,-0.07404626653386895,-0.31375418428814067,-0.4293862409752599,-0.49351726246593636,0.26348216496311394,0.15469980891964566,0.23898233430393817,-0.14213164688734492,-0.0053621968354836975,-0.09135634250978839,-0.18242105376724047,-0.1364500563729973,0.396156274228326,0.11246033726525516,0.03848146499469242,-0.13452066056277043,-0.02137648885859189,0.16666197797350574,-0.04220424094436358,0.3445067532803041,-0.14861668475754572,0.3379776124677406,-0.00283924121927788,0.016916085937907666,0.08331033582620603,0.5224413270529641,-0.08059895728868093,-0.13811268406101854,-0.29888145126214,0.2571686569570058,0.11193635130132285,0.012003181439692317,-0.23678594583930843,-0.6167670599942301
-0.49589759625534885,-0.34320889112287556,0.10982123057912964,0.492396782347371,0.2269817088266205,-0.45925186553617064,0.22912095489963544,-0.275409255058711,0.17161680762689277,0.04412895418230861,0.2662682621934784,-0.24385549271697793,0.20580738389961262,-0.04105043457976148,0.08907578828076058,-0.15341349322159167,0.10974614137688878,-0.08573607220830146,0.1127744744641068,-0.057978712107887985,-0.11398417726570403,0.08409155798110858,-0.1776929534475181,-0.051546913983519536,-0.11588437685341758,0.09878558390888105,-0.30304010359110023,-0.0981632464051648,0.12201272170407972,-0.33264297023028855,-0.20271985340009202,-0.09345144063229113,0.04657198099963816,-0.19588364517315007,-0.09631311194757329,0.06540341137121677,0.056374716168175604,0.04611690312692633,0.13556225449671402,0.17724399427610313,0.28368154259058237,-0.3856201376278445,0.19896686542248368,-0.026069018391568086,0.03919856659624514,6.450286277474117E-4,-0.08472929088448725,0.0746652497799677,-0.06607431231656351,-0.16189228448855733,0.28214127006897305,-0.040193988901838985,0.021051839619058807,-0.1697360666886559,0.3066453112102358,0.027831508924094105,-0.3001018776643773,-0.10088365532267002,0.06057524082230782,0.17935308695746888,0.3127362255234388,-0.10732912623055346,0.23635399033748725
0.23418304197697087,0.06287741465549812,0.24128584475665055,-0.036447472180927844,0.10689064453934395,-0.09648464433100565,0.08700285692365095,-0.1414116638290876,-0.12004058734937255,0.0063148309194251545,-0.09789776341282454,-0.06876675213205093,-0.009889207073229496,0.19569551569787147,-0.02552405476655401,0.28981704449921974,0.09383754560973531,-0.10035536238177173,0.02046805076149519,0.04963529958898723,0.012631388008395411,0.07829497661075836,-0.10704853667606053,0.1390898784966017,-0.010032745846603911,0.2071773013445907,0.0030032896540830223,0.15398432533578568,0.17088396013700508,-0.12798319956500986,0.02938246069973301,-0.03475207761033214,-0.094565415843076,0.215522528845825,0.14007419934534798
