-0.04919677260393569,-0.10928305070468733,-0.010241991382794816,-0.32787150293253164,0.01731070622765986,0.1952391408166659,0.19529789511111378,-0.03401709563636531,0.2535936302333579,-0.004242029955317639,-0.25425477197397833,0.24293113326302596,0.5068870436756,-0.1783208761553989,0.11094646255363345,0.03167681719848315,-0.040045595127639604,0.024745821567233123,0.003186682450134075,0.24278220751854906,-0.041550964138799225,0.0724365876695224,0.01326294495578801,-0.21362475439150314,-0.1399842453228993,-0.4273004224135031,0.04225389970880146,0.14066867956776571,0.11506575747599275,-0.06839596261901643,-0.2284511612246999,-0.32164394377648514,-0.4462685713345669,0.13074886499786406,0.04333778990557004,0.10930202099587218,-0.1042970696992646,0.013519308340932868,-0.009548475729220244,-0.06666779304438246,0.03835381378344264,-0.019952113857571292,0.05234980795959608,0.08875411280601146,-0.11052264950572191,-0.03251274951772743,0.11231590374913927,0.09240325115778589,-0.0628443597358515,-0.07564173305078668,0.32520089355957177,0.015863685204475647,-0.021036343767155897,0.10093205387288737,0.5022222686532967,-0.1943724009811582,-0.06123726826165431,-0.32683075942971485,0.23357343950762446,0.06970986320948575,-0.04866004057178316,-0.2963208058994722,-0.20638814897290866
0.22605495725477423,0.2523157579383581,-0.0043467203172834834,-0.03956927576817392,-0.10574967903814407,-0.06997398155040482,-0.18919180625927537,0.17505233562880235,-0.1638257221980765,-0.04000673339825747,0.016969239895174088,-0.006877147831541969,0.024942281205804964,-0.13102887601672564,-0.14215038822431963,0.07899537663046936,-0.037162489831655536,0.06826959014996245,0.01067006996696596,0.03786170254309535,0.14633615408921904,-0.08774804147416415,0.10980909255047681,0.06173450234028518,-0.08118767576575243,-0.024685171654741045,0.04514089445024105,0.28286366790797046,-0.16433425205803037,0.07567624007666303,0.045727525622409795,0.024359441716761153,-0.030182103749762965,0.115138429125244,0.28082292382626944,-0.13192559343187876,0.15441135800745287,0.054966352076160456,-0.05968078711202489,-0.014624096891669798,0.0060419987096293525,0.3198098374905758,-0.10640565712356694,0.1069572882613144,0.046297414255335526,0.05795621927904079,0.05459389516330959,-0.009411803921448638,0.11847600401948179,0.14327825031835023,-0.1801307549187317,-0.04886099149925595,-0.0473844307344225,0.004615682245871569,0.12216960870091013,-0.08015971177465632,0.21891299731623223,0.239664727676354,0.01466067961829697,-0.0922704664259529,-0.06860961714416274,-0.027919959285522728,-0.0987497842703001
0.4850081911816234,0.40396608811451756,0.10890219726661308,0.004395415333412875,-0.1971339437407525,-0.18580258545003753,-0.19537051749736034,0.2870444627274021,-0.0837116911780492,0.0036685651335467973,0.07044453181684854,0.13118951104057905,-0.14604569716379023,-0.10629512552276389,-0.06531808563355108,0.23941117095061412,0.02140029582803651,0.1810802960353738,0.007978135762443751,-0.2588599814501737,0.049554297248100176,-0.10135788991328784,0.20856877828464385,0.16832282217538033,0.058011898644962985,0.15432914268778042,-0.2211825735299106,0.22108893137096688,-0.07828848408387068,0.3660905398075828,0.20600638584332126,0.11522419745934785,0.13560837751418944,-0.21578381705997374,0.2682875352243708,-0.0808105032496185,0.25704301520385864,0.07038067395589198,0.12822566002150101,-0.0147412405606925,-0.1062038527935114,0.2102179153608043,-0.05481352706110224,0.11288664085330288,0.0320529962827099,0.11511017801669668,0.09189593619019537,-0.20064156435844036,0.08024104080442034,0.3001649417578596,-0.2755718780312146,-0.001008428022902741,-0.022820536107490366,0.12199134480451314,-0.08675173367039722,-0.12593521263539978,0.5227748417705841,0.4786411342060415,-0.15503737496467296,-0.21101997455480417,-0.2258318813219016,0.21158098513479384,0.18017159871199473
0.4056667168762953,0.32534505981532463,-0.29117964306690436,-0.5282263770690838,-0.12450981386586615,0.4449402335882282,-0.39411804167214665,0.27879080481225427,-0.3560682505797265,0.02407239129867865,-0.21349928280547328,0.1615036961751738,0.2944726198466343,-0.23683650091215397,-0.27384707595626573,0.07989247294088322,-0.049273842122425186,0.01597201653044648,-0.09189594082039879,0.4036257584010002,0.3404420597931469,-0.27162638480883095,0.10846399185564634,-0.07981323413150589,-0.19320038672784418,-0.19060355814314575,0.5278619311072231,0.5108149308498038,-0.24281389704827702,0.18461176363304152,-0.03849727210571492,-0.13664655286249144,-0.2560113771753651,0.6242814558906268,0.3853245926639494,-0.25318245962085967,-0.03526565046785415,0.03059479225089032,-0.08993981817382207,-0.053372921317690974,0.18666426120841026,0.7018964089914884,-0.2707564064458579,0.21128376436371252,-0.13749726808476348,-0.0034373899336966334,0.10808355356203875,0.1885807341820389,0.2536144272842463,0.2232849281009528,-0.1913539171776445,-0.0199798203503479,0.023470535656712185,0.06033967463476032,0.22075196443442885,-0.13495551943485629,0.25781656049764173,0.11139010185317563,0.12223796329736487,-0.07176638307427471,-0.10972582863767073,-0.1299762702760642,-0.5371899278113973
-0.35579099867758174,-0.24896199764043003,0.09709492214520124,0.03265169878355261,0.1605918507125687,-0.018433074270770535,-0.1278369256123167,-0.1971915313496139,0.2995730058304064,-0.04024085962153026,-0.07524772333374966,-0.01680143821566545,0.15305074361386187,0.22605636294142006,0.12415057601473364,-0.045429278612392876,-0.002613649063504406,-0.15377389665396085,-0.13916257777096766,-0.012650654521604377,0.38259052702352225,0.18444416316471568,-0.12888299929728972,-0.19004823480458996,-0.21734843004954066,-0.11892487029364544,0.0832469878529551,0.14200382033888692,0.11362203046744965,-0.2931968863242224,-0.21282589096293933,-0.17126781190970697,-0.1991685866094682,0.18377779194264052,-0.03655033522216808,0.18063724669472164,-0.11881321085754527,-0.0885760965276452,-0.11870164772066413,-0.06772496777538756,-0.0873195410234215,0.22469885881684645,0.19033231369483858,-0.1369915405683494,-0.016598118051786775,-0.09960288712097055,-0.03786553815660487,-0.07233665425110465,0.3669081582479065,-0.22761146023492396,0.3210787417016941,0.029234038236449295,-0.03397898239185779,-0.09324315782447382,0.1201462516089144,0.212615902892577,-0.3522610984087048,-0.3461605362062794,0.18315024223457235,0.1828917816980748,0.12335264951964153,-0.16357040988762897,-0.44967698777172943
-0.37690196773539697,-0.30854869756589487,0.07333204761090271,0.14237211751795575,-0.0037210746931787145,-0.019564117312346033,0.31342052407914406,-0.2424955712281352,0.3483051504770662,0.04367407415706924,0.06352681172636812,-0.09296197937400932,-0.05880994817080999,0.22601327977812147,0.10606721772539357,-0.0992289218278146,0.003112587884020886,-0.04176299218962817,0.14133769649892103,-0.03044748649199251,-0.17537480711009146,0.189408590196178,-0.10811910221559158,0.06824531284248629,0.054824166925465205,0.04650609629185336,-0.2147436380103331,-0.3832292431063754,0.17842732528141303,-0.14376695781656101,0.029254470624972887,-0.05531908695951217,0.02229211763293982,-0.14741628419625633,-0.3870638964156626,0.19916182242364067,-0.06499944794510025,-0.028951647666697375,0.06285024709071063,0.08933010124189321,0.03335775444791093,-0.4209030821319755,0.20934206745553288,-0.11899485193888815,0.027870134549760433,-0.0602677805842134,-0.025562758289019563,-0.08449884882064243,-0.12508795626743074,-0.20553825923497818,0.3200412063260377,-8.222481976513998E-4,0.011205187241995353,-0.026523439191305797,-0.08668379636767852,0.07164935440180344,-0.34735463724916704,-0.20123064196355922,0.07987979296488601,0.07915739642369438,0.09777582445863771,0.13615864479282855,0.25230054105714494
-0.23750310633958435,-0.3176396194524303,0.10023203231133328,0.04671106962817789,-0.28856427606423746,-0.29603893143393323,-0.04057216694176989,-0.1884127314299965,0.27438294384015244,-0.04372167325779011,0.2763772510908845,0.19334786756520891,0.4738438424332615,-0.27999148263636153,0.15861951861355816,-0.07585872820363446,0.11807126936322336,0.3526813932124384,0.1696996221229042,-0.11644156690019895,0.0778454927519038,0.2041987812677351,-0.0400315433476616,0.14539223727880413,-0.3374335859744778,-0.08369812797799285,-0.2484843871962034,0.2211071685264774,0.1287054256389672,-0.18007721444041572,-0.09314030865609786,-0.5197900528717039,-0.3530181768465439,-0.034173098497616995,0.053903972348239695,0.17855885955252898,0.1881906902294378,0.2613744368800665,0.30320252604519693,0.20374630108541653,0.2079453515368304,-0.0299359005202952,0.31245425531230137,-0.002932494103353576,0.09153559007950851,0.14973296184757534,0.3029485480997351,0.13458376373507808,0.22168249265903256,-0.016712909856237867,0.3091281952831015,-0.03694367316526305,0.025364358535897802,0.057862675659362414,0.7182469778508263,-0.22921706065486872,-0.04817401544573562,-0.03625261085248948,-0.0169560030643058,-0.27727722160155727,-0.27944883206075244,0.10056145360701264,-0.06807703210041109
0.594170181414503,0.4090150107185581,-0.00826616236094024,-0.3691435802267812,0.07130693317078463,0.38314769265022114,-2.7208591256989425E-4,0.2155056985114823,-0.007646945689465396,-0.021326101534954768,-0.3581703974597762,0.15840786896077164,0.030286062745308984,-0.02044091517904918,-0.03017066499506148,0.27923947576757324,-0.09856115430244548,-0.03991738886541094,-0.10465769213485586,0.012109352304609002,0.10832616290263335,-0.0048954474402460825,0.31404000499357665,-0.09473580077442492,0.17008662238647168,-0.3248709832797057,0.13776102161913084,0.13677149442862,-0.026763942715437753,0.3027077353868669,0.055089234290913794,0.09006735743014375,-0.06700570176700088,0.019096520965398548,0.19621774482320145,0.00963123188907556,-0.12660227857622733,-0.09809727880069014,-0.07803127403550901,-0.29062360019428163,-0.3566109365032761,0.26139781504646037,-0.1644265270624052,0.08858263103467356,-0.11366471020236259,-0.018792498474088617,0.005874998838898835,-0.19649444264989924,-0.0949057845864197,0.11333263080697052,-0.1522707092571278,0.01786016986865578,-0.037068106641392165,0.11033026136477088,-0.0724640575228844,-0.11338337910155268,0.26360598113053757,0.04685670848931216,0.06005445146423079,0.00974864275443463,-0.049202845194151905,-0.029075165251250732,-0.04018369901792126
0.039732079039457475,-0.06509236147479573,-0.05757642167422195,-0.11387080693279625,-0.1175421966010618,0.12973721593677104,0.22428372260597884,0.025748344387974766,0.05276393228144019,0.04572866021079948,0.02212319429611228,0.07734896567904935,-0.017220125708218768,-0.053272430087239094,-0.02303994424319014,0.0016076200828483152,-0.03587728049585366,0.07972724024974899,0.13722490165565848,0.005957603629440595,-0.16791739314664453,0.056709983310910254,0.049276735742085694,0.04393260007548403,0.08175809299499348,-0.04941114977724275,0.028948199913051125,-0.20091419263061075,0.05041156792956975,0.10242489851071969,0.10931887582460925,-0.017152021041959085,0.01258892691724607,-0.03405271345296698,-0.24451661630200427,0.07075341276604533,0.05157618368399073,0.04893231708908485,0.12684640630203878,0.03269643811457472,0.038537546550662556,-0.21896642073078149,-0.013140238540425727,-0.0017642249469632795,0.027655949061016035,0.08722762649575874,0.03397826187729909,0.08157602060538094,-0.2133984888604851,0.028647571214418018,0.10822416070278022,-0.012509911907839226,-0.005441813943372745,0.061950382898632944,0.09837301119626313,-0.03325555350360289,0.06519333666713979,-0.04392042062546283,0.019991468565336613,-0.08542935742402974,-0.06054658774376171,0.09576611794670957,0.25723086651473626
0.2936785255604127,0.3486645981153812,-0.039191895704950665,0.017197891045729385,0.0597824520616255,-0.052291230611522056,0.14625448192627416,0.10065301236976831,-0.09447061666791175,-7.986467209308151E-4,-0.09369864995959759,-0.03365050148680864,0.08705807169886227,-0.22180201329347748,-0.08965844843243413,0.17311927345100436,-0.033375695342901995,-0.09291106177304029,-0.007072866423471199,0.005286082649259268,-0.1460624313841423,-0.16928163524478398,0.15772859339869066,-0.10680795797744214,0.08971115680792945,-0.11233032944228986,-0.01296531811513594,0.10022763320959466,-0.07793812120298978,0.1468613471632815,-0.012671232508551959,0.058745566810038785,0.04828247495074827,-0.16940437674098893,0.11116463321806436,-0.10330356186559121,0.06730820315605371,-0.13206842847711076,-0.06911733470154648,-0.04596454261349719,-0.10447153590748119,0.025698958153749767,-0.1397083837528145,0.11312163600262337,-0.03068010473986713,-0.05574437382925823,-0.11029070821653765,-0.014532158289647629,-0.10015702632702365,0.15840961810475296,-0.19713077376673774,0.0258822899516815,0.03523567933325121,-0.061283960752226155,0.006178957621158359,-0.14879280272815598,0.23381570965150897,0.22115426290191925,0.06517312885015222,0.10375342166922208,0.05670147517713651,-0.21099525987230297,0.17450831576281114
-0.20423890605548423,-0.09520684809472195,0.03414948816809805,0.4005306935709582,0.018742068325277004,-0.2522340200015438,-0.3068692223662448,-0.06195529069318635,-0.14241196063070238,0.04086658626389261,0.2501521035047915,-0.21180024767173958,-0.5475587362089351,0.2991480397881471,-0.07419318076601773,-0.1651594834449391,0.09831345934141138,5.925400125540535E-5,-0.03446922839545961,-0.2622530864282901,0.14626730247300465,-0.08661114258220291,-0.08382486499994346,0.22036606240553636,0.12469780618483027,0.496112946984503,-0.09168278480896687,-0.1065817099272517,-0.044108862925542135,-0.04682774503086873,0.30095117797676624,0.34024135032895214,0.5064967849786584,-0.024169019698963644,-0.09865321024590673,-0.06393545178709763,0.14848005525555885,0.07372816973610256,-0.002835739593545222,0.14113877928797489,0.10464285655029858,-5.99465530003669E-4,0.019252060263232937,-0.08741652591900968,0.16308750562013466,-0.0067264105282176575,-0.06799633178475566,-0.0020781391811612528,0.18053712468197394,0.05571242216706622,-0.10296292535581604,0.020133381287032737,-0.027576148184588145,-0.1287059797427331,-0.4787974176367766,0.323288895944975,-0.050467420106435505,0.29613776903145334,-0.1490965570680238,-0.05374293923828105,0.006420043901222019,0.3113511432301497,0.10190497556238229
-0.07698284322124267,0.010476962797979775,-0.18140143107561504,0.14371252037571403,-0.11681033040941664,-0.2929954104946917,-0.5714791167851347,0.11094873492439777,-0.5571612059384884,-0.014360165085948638,0.317413127232437,-0.12921156494140432,0.13108223179487485,-0.15478970153474247,-0.2741015890209899,-0.07852799764381471,0.08184550459150397,0.03422202593482042,-0.14158165377031184,0.21487581669266273,0.33868626267158464,-0.34825709334088395,-0.10443239057839163,0.049761528891711114,-0.30274816498920964,0.20650623902053822,0.30103715052657054,0.5954758178444447,-0.303315862953809,-0.151554911929621,0.009561355267355558,-0.028004508774096045,0.13647270432901223,0.5199456238979692,0.4122572239995482,-0.3024983768511877,0.2288041851654336,0.0580055576917396,-0.08064671622431793,0.19642972770588227,0.5287994496639319,0.6721678455937175,-0.2059729075570818,0.1961448206728008,0.10572540644369857,-0.057913725567589794,-0.03483869276744834,0.3509493439824188,0.4324591015483473,0.1595706989730685,-0.19077081608691338,-0.00637462810276139,-0.005825770537620054,-0.12161542947981946,0.21967976750949536,0.04406026548932656,0.13140214446734425,0.40928127670329656,-0.031104742533321756,-0.0377962460731438,0.06779638115793121,-0.1002350677538674,-0.3800948927665285
-0.19058469660740046,-0.056208914101410316,-0.27718686008657223,0.13196387415610938,0.04387066888111872,0.14278820095143677,-0.36363480512077617,-0.055084931230673054,-0.4337453635059674,0.014702450934068634,0.16391946595937365,-0.2390589136591938,-0.12650900316054928,0.056726935608451705,-0.28913934331857805,-0.21820499859588033,0.04702403755173174,-0.13302329240935404,-0.1314450870394512,0.27400057802931144,0.14330000700721324,-0.23044353397779904,-0.1435250155659616,0.03764589053922659,-0.1708436559087922,0.24454703724075733,0.4283816950311903,0.14951285471105863,-0.2327014614024459,-0.12170458846594451,0.11170260766267691,0.07250860868352162,0.1884090906784759,0.6371950806828584,0.07924189993169314,-0.2743166122612372,-7.120416447314709E-4,0.056331577524517694,-0.10020526522815787,0.14760783766650423,0.47648583677784007,0.3188440583468867,-0.22146427630376708,0.1100194639324642,0.08568101382505522,-0.0365739130137171,-0.059800390141186974,0.4280253796099238,0.19843137621554094,0.06798241404979573,0.00425813207799147,0.009150668695311705,0.01725537015237613,-0.15372315666987477,-0.02607354903780448,0.27420812327795957,-0.055400059833007116,0.08726782293865723,-0.030328090787979968,0.12386546137249377,0.1630493582853287,0.008569903781898841,-0.25575657395926765
-0.12397532880789702,-0.04143794025611137,-0.03726599867412385,-0.01621058346278113,0.15917032944784093,-0.15369625748437898,0.0872786578640148,-0.10895524710185585,0.03532652022711383,0.02862664694334975,-0.08006383615796728,-0.023853314134296744,0.4649864490739765,-0.28129249787790817,-0.0021580682743473924,-0.08606066567534806,0.043689817616458154,-0.14129128878854802,7.73261618857539E-4,0.2674122214203304,0.011994829073648065,-0.03843772485922824,-0.04064810926082852,-0.29232004085598495,-0.2702706057506748,-0.2321260638670511,0.04420183338892484,0.21481554917519272,-0.062132852269222785,-0.23873811382645152,-0.2930803676747828,-0.24022549382182518,-0.33370653243255144,0.16051515121063306,0.14440907137951092,-0.05448030544776118,-0.1272907646628275,-0.009903362917372208,-0.06690006080579773,-0.010722216344771437,0.2201373066205515,0.030511616229011673,0.034296135880441954,0.06356277443675828,-0.023088788443526024,-0.1359090017669222,-0.05958097217725495,0.17270378196931255,0.002377290481485114,-0.05428093213365138,0.18018138781845403,-0.02796292070615506,0.015277879561620938,-0.06771687686284433,0.45652635497238575,-0.2542656930460195,-0.13090789893486016,-0.13571993721257844,0.20338945942434564,0.22600921456777842,0.20651479881128518,-0.4388290584515109,-0.1640315089796252
-0.2355540290911305,-0.2973790959537014,0.0798177401916736,-0.23111158834808535,-0.18001555067319436,0.3252259142359991,-0.31998640213722096,-0.12308587550741094,0.2821014754444874,5.00511237644885E-4,0.028041715901827996,0.195173042186894,0.23270908836591,0.22822520249373926,0.18322523497649743,-0.0739848248832614,-0.027373772677828423,0.17038279900167203,-0.13836119028138058,0.1587335376401733,0.5385037144867155,0.130780428400715,1.7042489456690863E-4,0.02079693714746042,-0.24078364218182613,-0.10154472098241386,0.31115436929741463,0.18521745327826783,0.1381284833638122,-0.1260005579364527,-0.05701359239119839,-0.3210100812774512,-0.26521292733900753,0.5124218667592745,0.015025720573691092,0.14948510227882042,-0.0709933630220117,0.10117066651222881,-0.011300013593595594,0.02742831204882076,0.07726380463174692,0.42963966101347256,0.15553671223843712,-0.04159364564827361,-0.014588103177041756,-0.0033478845970008474,0.2654727447873558,0.041963623520409374,0.5541674482949007,-0.17196961983206138,0.39056094017537635,0.03327281708071965,0.04681940320152671,0.05804186073616687,0.301634082186756,0.2691394738587331,-0.22557968143101031,-0.2399883100283531,0.23131299789533244,-0.10374018455939782,-0.1214183485737337,0.1592334230404298,-0.6759728225752516
-0.19369039857236922,-0.09700188942291688,0.05532920280479739,0.3531748710080041,0.2090527556842382,-0.16239950095946215,0.5278032285347128,-0.08865336294094793,0.06109441055656882,0.029052997218537865,0.07984669055737706,-0.1680687749630503,0.030034323996365693,-0.07872799751279741,0.052460509525179465,-0.12103565498653068,0.06080860505014222,-0.10112319472680767,0.20917060027274112,0.028851268968306906,-0.5096690897724107,0.07335070276419889,-0.07172856613875045,-0.06851298702672627,0.16057930453864064,0.05813430453755053,-0.25901237684122935,-0.4736639423611508,0.017259110742381036,-0.1205497759177148,0.030595981454446013,0.10934007100404172,0.20711349272178717,-0.3409684014805793,-0.31585597839337837,0.032451190886309926,0.04172442973974098,0.03549251815638999,0.15140619413670026,0.103718517442521,0.09997573722318916,-0.6833259224452892,0.12615269732014625,-0.002321093884885117,0.014775294975242275,-0.040685874210444437,-0.13164106956678323,0.023610693667486485,-0.47133136678538373,-0.07745955933506142,0.1066515813982252,-0.007368511586579904,-0.016450374093529854,-0.028054204046015746,0.012294028957769076,-0.10197223827755539,-0.18963876356001277,-0.07654394844171436,0.04291629785049074,0.241727589714938,0.2713566936506323,-0.027647068351153645,0.6431559449465247
-0.35783946086534346,-0.2909133569852534,-0.3742950074992643,0.07722332175339369,-0.11138676539475065,-0.16397532270565277,-0.1851285291844701,-0.14235383050246994,-0.4658408398969665,-0.008221070785787751,0.32855429821271137,-0.1566026940324382,0.0733340102282617,-0.22674281937577917,-0.335607581596476,-0.18966312041668953,0.14241381879083195,0.016454349557560272,0.010558538280437504,0.3181977213901807,-0.12644471670804835,-0.26213967433926016,-0.25485890336640765,0.12656029556289658,-0.24870039750298828,0.2525953597852028,0.2760452632665618,0.0388444890094602,-0.32179859998218363,-0.2156000764520243,0.03402260835285833,-0.10048925551543149,0.14655741867980926,0.4527277338130904,0.03559476052858376,-0.2989856682530267,0.1612246957814583,0.16090749686618203,0.1348725366181285,0.2625934838336342,0.6767011705889981,0.04753138909690349,-0.14308145153653454,0.11184631742882804,0.06475991212668385,0.02020712320026377,0.002589799759248648,0.4601101169599093,0.08343174282549208,-0.014634393465422182,0.07297954338563706,0.0017971036552060643,0.038355275791913376,-0.09701115559800819,0.23282774354609267,-0.02444480148003463,-0.11019802524000157,0.1105047370245705,-0.08959807169752232,-0.08117663239060714,-0.005414438674083389,-0.02248546011056553,-0.05833445567354917
0.11675630115719024,0.16215750668029927,-0.18115267690368425,0.006790087559133399,-0.009375146923668396,0.22268041680171555,0.07975560559979639,0.1456877536378001,-0.2551204287128923,-0.0019359991503631324,0.06061005828337361,0.019974937502159368,-0.2523486903552235,0.058038740922887425,-0.1735900765365952,-0.004376711491952956,0.036919214221988614,0.054678165999046,-0.01134780805330448,0.10907623927416027,-0.1809821762654867,-0.12450644501576202,0.04074316427320941,0.10600771016438221,0.1359264864976923,0.21498720934835486,0.19100108731023677,-0.10551185061959553,-0.19718688667785209,0.19919222927218913,0.2604520879964629,0.23618716207498117,0.2344542016080974,0.19558937918408473,-0.18171600971995003,-0.1263547211895543,0.09454423159070177,-0.025231882447079232,0.08731912874042788,0.05810263861134295,0.1330359546669818,-0.035975271835264444,-0.18938855312725475,0.13456896257783538,0.04924684059926611,0.011125325533248168,-0.007571402693574176,0.174462550442359,-0.10514677452791073,0.13317915694075222,-0.14551519593863552,-0.03251092519975972,-0.006534882218288032,-0.03532650431654278,-0.2154852905310851,0.09455330459528846,0.0877314480453139,0.1469877969051717,0.0041955800723914175,0.017752670779836704,0.03886637052643783,0.12845040702737606,0.20234899961746702
-0.12037327153088075,-0.18417637476604437,0.1670829522601043,0.021501961192527855,0.0072934229424542005,0.00631726788344672,0.5208353978535509,-0.15550716876789927,0.3390005879679058,0.04230977192663517,-0.030192903650476523,0.09647772536043225,-0.009436399727438054,-0.024692688870459528,0.2313430977807569,0.054364059576867345,0.04045314770373162,0.09814722185579507,0.18794841191459105,-0.13996843231456582,-0.40590410992343373,0.2519284985750353,-0.025371517097962967,0.12080842888408531,0.18052518990666055,-0.014126909482484108,-0.35621433251773293,-0.5082259709282464,0.23876421940728715,0.018681858778876795,0.10774031869332915,0.04594772430126517,0.0389970478463181,-0.36006369362561963,-0.43451040048148126,0.24258597243956997,0.03248436715185624,0.10355404585462712,0.22929610503463282,-0.0015761949319025028,-0.11290560831395313,-0.6588905723942758,0.20213366141151595,-0.10000612807376738,-0.021054001044724616,0.04032921451239044,0.1037059502563414,-0.1626707055194604,-0.3668251289055264,-0.07098790230987453,0.17095227339132854,-0.04541278988151645,0.028574963526700345,0.11323171407489217,-0.06502852285151857,-0.07240388276373126,-0.11680079378119061,-0.15488208061061084,0.0371503683192883,-0.08456357079561025,-0.06825608105713554,0.17735748403442367,0.5352239191558329
-0.15184977291454468,-0.11097124073681759,0.13468622070856087,0.35943785000239226,0.013387821922853212,-0.14494880993361686,-0.1530339811596878,-0.03168484929788103,0.08905281957437987,-0.0429413227751165,0.2696982360054568,-0.14390439820531933,-0.5332949732843646,0.3993644449980895,0.1030582593021862,-0.11473499067285213,0.05347728336739218,0.0731928811265046,0.016925196668450077,-0.3656147736041892,0.08528436490104055,0.16793224451377273,-0.11394966348000647,0.26840422002103753,0.1867589384210821,0.4578636891442139,-0.23251877509245367,-0.305958667885057,0.09513203399716094,0.02311665197897768,0.32586520843292477,0.2854418974654508,0.44106016070869974,-0.19267870085535618,-0.2446082539262547,0.1444446823702415,0.14401340261565485,0.0756666060101026,0.07088095118223636,0.13357036866829594,-0.06266829932490339,-0.13668686739214586,0.1436649783600438,-0.149011421266953,0.1392260559483163,0.030462781499698208,-0.0668060223144532,-0.16970252282212253,0.14462226442433737,0.03789636377581999,0.031776545363845846,-0.010743276298248769,0.04897266344188381,-0.06416273118412325,-0.3768419404412938,0.3541071312068235,0.00697383997763764,0.1907664420160129,-0.18251976678014084,-0.09312470018721566,-0.020901092780970885,0.4365730719017185,0.21679849484979352
0.1819884018493774,0.14111823985620492,0.24598391772949543,-0.2969047363563272,-0.02655129318481003,0.20931418630860785,0.22670915043393003,0.07753373397084289,0.46244481106842034,-0.03388098406860003,-0.33353412888686557,0.28847442485421226,0.2743664567301699,0.05265344517362431,0.263776512884749,0.21786396215340448,-0.13262522883896208,-0.007759788566128893,0.04756689879834841,-0.0833871148337701,0.0526245282673703,0.3016794027886326,0.22063112276117824,-0.097784712138924,0.06407455140092176,-0.4198216110282698,-0.0704870579563911,-0.03094722913286497,0.2597197417109235,0.05866276421262029,-0.1725516499740013,-0.16402013459577183,-0.33436209445078785,-0.2193023863618531,0.026151188861669616,0.2525145367126635,-0.15232184466897605,-0.1060105915905421,0.0028351717006233623,-0.24641198034104717,-0.40133373933158006,-0.017858947079256407,0.1704444086018184,-0.05064524115722688,-0.08208742805258977,-0.004284431612100165,0.09105478239707082,-0.3014608902900681,-0.03570317049296725,-0.06377906578036027,0.10358823087742428,-0.03792677436174002,0.0136631061942111,0.12809462561474527,0.08285028108092499,-0.17132260922468212,0.011049349134992554,-0.2867210382621267,0.19011719208995265,0.030248019281542905,-0.048145174235132634,-0.02698304381122455,-0.11906629807179898
-0.1902178248420824,0.039444866918762596,0.22851241679991283,0.5415380794032397,0.3284149373189257,-0.3293933885372844,-0.20678539534839252,-0.09122106261955552,0.06589750207620658,0.037689955971194386,0.23741563811836885,-0.3563337129050067,-0.330240653195444,0.32598238096292037,0.08393925179261978,-0.11277421847416323,-0.008279221726465398,-0.1410185633934023,-0.07770212100158595,-0.26682186711726896,0.2861151751196573,0.033617598968900986,-0.11994260433918792,-0.02899157538108181,0.023798644370518336,0.29718810429700404,-0.16409311198895865,0.050168881065285435,-0.0010780823238092092,-0.15285113259671346,0.13295560200645917,0.2527368013783138,0.40601327935241255,-0.13113169660897997,0.026037726999298655,0.05163902978101513,0.11166767991077337,-0.12193909589013946,-0.17265624335147076,0.09663708456881799,-0.051317934291408594,0.13567442032058138,0.08978122552686058,-0.130392135784976,0.12882433812424002,-0.125550780999029,-0.205850056300578,-0.1271319865111798,0.27173247904603004,-0.10899654750660709,-0.07637966327435652,0.03114772857845198,-0.036506774359072396,-0.1687458297294283,-0.3151381167801548,0.37366586671710683,-0.09970139881973979,0.25344990532195405,-0.0024227594471966044,0.22719232843859424,0.2770707112735947,0.07960361158891269,-0.05006690374910904
0.13562217768090593,0.23265550330858265,0.23699646126987897,0.10462818525241961,0.15997319166597018,-0.17653890628616956,-0.24433269838820232,0.1067632898302665,0.20634235781843183,0.03748653833791821,-0.125644227414214,-0.005400399103111191,-0.139832813988183,0.17886683973321774,0.0721725448942695,0.08670695260643818,-0.06354022849574655,-0.1079519351305439,-0.18293124710455463,-0.1550208866089587,0.3725568342197397,0.11143187295054625,0.14984443001742748,-0.15895242097866635,0.008037120540812445,-0.13877922796243003,-0.14400303681414237,0.23757540765803223,0.09768889758988404,0.08148452400177353,-0.11284558605790648,0.10010368819037528,0.019871436069851676,-0.19751765586952164,0.24742069948854964,0.15317641264338358,-0.10316782227993866,-0.12800588030903642,-0.25973926602050285,-0.15127155600976058,-0.3896703079762559,0.35705818431738295,0.025071641071296936,-0.11810693666937017,0.008541791224702737,-0.09085028794315361,-0.09228661705029052,-0.3266114869732704,0.3117921206882677,-0.004226665127173304,-0.08886990748915592,0.025251643870006266,0.049276992866767344,-0.05647899003917781,-0.2074406830349411,0.14268235884920674,0.03555464513492021,0.0020634648848282446,-0.0067392235676391014,0.14364233754002348,0.10633711984345026,-0.12686115854004582,-0.22592239071639342
-0.32431573507614236,-0.20169740219199983,-0.09476068822735606,0.377236658437317,0.38027020467968253,0.40048891689215743,0.14639459199042348,-0.15155470308572838,-0.18844125408799278,-0.018135329006298294,0.08504223630642767,-0.28496445127379694,-0.4240604414593443,0.3858293529237486,-0.1205083928214927,-0.24144772297412753,0.07777745445359016,-0.26145942925384996,-0.018146811975830665,0.18135272872888847,-0.15860802782899713,-0.07075085090027008,-0.23506706781151143,0.07926975406429036,0.15367805505322427,0.39090578865565145,0.36918440366349653,-0.4171679639193267,-0.08626873164916052,-0.08343603446709377,0.20142644470766824,0.49213843852916617,0.45097027204067475,0.4032366863067214,-0.4233779080300374,-0.07579583449954219,-0.1044001527872354,-0.07638948817807475,-0.16399490941757489,0.05883342969123191,0.33425065681938776,-0.25319495720097795,-0.0422497860638517,-0.01478685224298779,0.055867280677640296,-0.17508839377980723,-0.3239000773444805,0.32907284324141245,-0.12174520422952541,-0.11751748399689031,0.1544887289305418,0.046941785143430545,-0.0400795768776939,-0.2127960374058991,-0.46976354310598134,0.47081187547045467,-0.21776889176912578,-0.029174732888425665,0.12422194233978348,0.4220716087462308,0.4072571790611784,0.25180709332527323,0.09704294163649417
-0.04038931511522089,-0.015882381929073475,0.21637978391774615,-0.113036254421223,-0.022585839679132646,-0.15730916970304967,0.015013981749936787,-0.10143565852278706,0.3265197390775293,-0.009053871270544453,-0.11569022571930758,0.1425993410614201,0.3444604870477484,-0.017854964599909772,0.17721024984076109,0.017866140216935826,-0.06919927049604495,-0.04450927287460768,-0.05801327009557141,-0.06140360057224646,0.24019122360177647,0.18054767553574566,0.008660301090867864,-0.21218003419529816,-0.23617621278665107,-0.30419728017483505,-0.14007675274274392,0.21477890696671365,0.20542929504928867,-0.096840596422134,-0.27575123220033454,-0.29678746647457166,-0.3729524216316073,-0.10597117348569171,0.19923091819028785,0.19042842877282454,-0.1060458020432257,-0.07614325102940292,-0.05352221730162641,-0.056807159305088575,-0.1646947866489341,0.17016567845818945,0.1497742427953215,-0.05055980048750473,-0.028227920443672175,-0.020507217951547148,0.12913577552627295,-0.15528601088632377,0.13387687199578904,-0.12838469624741405,0.12135513071290129,-0.024314637043043565,-0.04945342766849819,0.046948290262709635,0.3503125766654508,-0.11466886522597451,-0.08711260456740223,-0.15335813555704472,0.09682242604316027,0.019134410147243378,-0.03730308971812833,-0.2269084402089581,-0.32088820682761937
0.0713285640783532,-0.15482452636789812,-0.14322602110069443,-0.2140105133624596,-0.36032373583400423,-0.053723889447462,0.034698096112907736,0.03205874853258058,-0.0584437449217491,0.04174355898563695,0.12092965185333075,0.2767707304863189,0.47787224469964307,-0.4703440089244478,-0.03900234290458916,0.04913794169432691,0.0550917827949721,0.3292157581027661,0.1362965814068079,0.13996858455035407,-0.06061659011134808,-0.06278618452801447,-0.015713941891920612,0.09637800590643737,-0.23701496880944567,-0.07613744678474005,-0.0641016994997018,0.10211908421765385,-0.014110279124008421,0.0901638144941666,-0.019425124674193134,-0.42539265763915185,-0.33604886985675864,0.09724034432205142,0.10994920298674572,-0.03475918991184543,0.14169220626752846,0.2510314461576005,0.22931143655948572,0.05088963178245605,0.22630562611791843,-0.0471113474074432,0.025049656907569422,0.17399648628860503,-0.026193549047796288,0.1313785855366023,0.33294963002921807,0.1322898780012249,-0.007508855335731251,0.12197554377424737,0.1650791630487875,-0.02901500416728793,-0.029379464910648957,0.15151476398051694,0.6086312245783372,-0.323355306535128,0.11049486037869592,-0.022482130345128026,-0.01251127012054729,-0.3300766233792717,-0.25487854349309,-0.007549545107960499,-0.02084894498565826
-0.22651678869534075,-0.23069140843552668,0.02716090856116818,0.15716747624329522,0.21620355941502925,-0.28011544173974456,0.05654933055461864,-0.18273534464726462,0.111818706800655,0.021285478732318966,-0.012120818967528969,-0.13310714652107386,0.6391830692170457,-0.1749388290286965,0.08417946125919216,-0.17439847848451775,0.021115758629696977,-0.1928709285744951,-0.12456068097594485,0.15297962993935388,0.12234616087751572,0.057843107025652735,-0.09064872235106228,-0.4384286251458021,-0.3483291454717178,-0.2740432295959576,4.302162544051032E-5,0.331532848381401,0.106246822089072,-0.3861710500134854,-0.43743899647555595,-0.3667635772564968,-0.4021725728487635,0.041129630464650346,0.24467408823571235,0.10801943291504502,-0.17107170505033756,-0.12807859705230643,-0.12194258852539433,-0.009034086685163565,0.09245152917884279,0.08906173880221177,0.14107474227648922,-0.04658196982857998,-0.06762283162799877,-0.07492143604035599,-0.12054762888769728,0.12205606415396077,0.1474401362926001,-0.09777185709236887,0.3021310033470953,-0.024496305529195708,-0.007925552870106246,-0.049076107972858656,0.5352344648135933,-0.207507828563007,-0.283137900573702,-0.2698854066352819,0.26804360471995065,0.34944941880126157,0.28872436519751066,-0.5614823063431972,-0.325698434143993
0.3103598408598885,0.2373027317608041,-0.1040120462326036,-0.2397865287014349,-0.3254258460734988,0.43157560374497944,-0.15400478520021255,0.20972741457805574,-0.13718483218337083,-0.020258730140856187,0.041313354288417,0.15376871926288907,-0.6781887520318246,0.27895526138379784,-0.08014797985460112,0.09647047912485875,-0.04073875075879686,0.20928784220224597,0.07093351772832578,-0.114668596295317,-0.047729262028312264,-0.17514545081986685,0.07791389667861194,0.4287277599574537,0.3712197116130518,0.32915835973329294,0.06233072112994869,-0.23996797804942926,-0.13222330341590757,0.4462709194788439,0.537012494516695,0.34184085582514556,0.35288365820442474,0.05750517393032435,-0.2821344000950496,-0.08875677672955327,0.13917625478734685,0.058374795281261785,0.12417532716952741,0.03127024444843387,-0.14688379846122857,-0.015682166145482825,-0.12805008471600288,0.05014242520825101,0.04399684873064928,0.15710171499024966,0.17188627402052142,-0.12156349549177645,-0.04066359448929622,0.15560598566357983,-0.31959490981853084,0.01818987278549128,0.03743248928433433,0.1373068266197645,-0.5453963775709699,0.28260258785059417,0.3312789808830835,0.29079245413594895,-0.24815381356388072,-0.39334481590218817,-0.37673218823694177,0.6081240039887091,0.25081530922139345
0.13331839292305964,0.190466630755471,0.11806421463201308,0.28504032475530006,0.4737288654788665,-0.043571292645916866,0.022835324389338354,0.04038139762361959,0.07421443633448867,-0.016453812023678786,-0.20733306963850098,-0.17529386699539973,-0.008543837257713412,0.2621326716783868,0.06748523219098301,0.10231819503714992,-0.07025106326422187,-0.2943685783119411,-0.15741576394056084,-0.013821038495611098,0.20915239556082982,0.02609342399014203,0.05092874944036204,-0.2940280974111086,0.06743577935239539,-0.09108125618118129,0.0048104635468383585,0.16222835599982796,-0.02149992023379054,-0.05405674173398423,-0.16337428087440709,0.20276772256938713,0.09943898269710512,-0.04953214194154047,0.1578922329011422,0.0320947386303398,-0.09629361653250725,-0.2522643456027147,-0.26090640749655386,-0.17397307158496716,-0.19791466970199356,0.14187754169636294,-0.043235806316099176,-0.02835479254840282,-0.0510582408692901,-0.19852053219205892,-0.26724718745593595,-0.1265213090709032,0.13483655690653035,-0.020126640030220244,-0.11664668782729246,0.017402347020426076,0.007935878028117328,-0.11910445332865194,-0.1812214391347778,0.15107132064483833,-0.03960424887208523,0.0471577481080105,0.11058198696293335,0.4832744056175723,0.4006026234284065,-0.27026227895756993,-0.11184823330820458
0.01743500281783535,0.18848794576184028,0.3059650394419132,0.43736987643739195,0.5145134153144488,-0.14873827755353933,-0.08920010621023093,-0.07079647805309552,0.17795954947840634,-0.03147364666576681,-0.20185162728883052,-0.24291505905411093,-0.2100107838290263,0.39778828714397135,0.1335766648340096,0.056190774554340336,-0.0743874451301152,-0.3539384617723509,-0.21641792989015343,-0.17191608906993577,0.3437928998086511,0.11048540372503458,0.012360500369247112,-0.36182643989769836,0.04139569540574608,-0.027426496353473648,-0.09536032760562763,0.19573786668638932,0.0838364662221119,-0.07660966556349315,-0.17988795698896487,0.29073884243272713,0.1566543783653411,-0.17473347429265232,0.1914683246590663,0.0981142668773954,-0.08097266489695094,-0.34884163854761235,-0.3559349356010658,-0.10963501175057329,-0.3741207131956586,0.2440327873991074,0.055105260446450414,-0.08440513943473205,-6.582339668750365E-4,-0.21335884921124382,-0.3622551168147582,-0.29468003629917816,0.2554997131622576,-0.13416454209648307,-0.10656015665107252,-0.015964668116332126,0.011667875399513042,-0.23306663016314205,-0.34558170199117383,0.31436518835990923,-0.0937315105742667,0.05728749846744827,0.12449578998213376,0.4766745007067431,0.37905888054944137,-0.22927625001893134,-0.21512077962693277
-0.003484067458318759,-0.10328346952239796,-0.2891641761034564,-0.0910123535642953,-0.09861643746250144,0.30902412144075786,0.48333696272335935,0.021061114311201945,-0.21860609718290971,-0.0069762388854513815,0.1355291683079242,0.10632895159724547,0.028034827227264938,-0.2374636409971906,-0.1366655498192818,-0.079101894166523,0.0925782468068147,0.10532418693442656,0.2391482644352985,0.3180997883797783,-0.6103216269602465,-0.20528052850470152,-0.07852529374228115,0.09549590517407816,0.1419763680660164,0.11304385062053833,0.1353953769800211,-0.36018165718516354,-0.15171298939752087,0.067811788515624,0.18807730397126615,0.1526245258806273,0.17049144414918702,0.17524854950742377,-0.36159341812020473,-0.1361172523274648,0.04784152256436207,0.11890314458143554,0.30233879702425465,0.1428829965777869,0.4385028507698304,-0.5439898161489223,-0.12950325995397718,0.19689947063187946,0.04652982710130095,0.08049415322926318,0.0872920253624437,0.3161828740219142,-0.5185802733492796,0.07494059200857221,0.08013760593751941,0.024643441153041706,-0.008321218963190657,0.021530624861200286,0.12440821976788241,-0.1395434576228335,0.04081285671878829,0.03567707216406417,0.07115582940968765,-0.028260456169004078,0.02801438015171089,0.1824407328258248,0.5596595048353467
0.09410990208048108,-0.061941681126489574,0.2883513882905943,0.05608091734811712,-0.2804210368217729,-0.6155973850275297,0.08779942696819272,-0.004181504487059178,0.3886735025888837,-0.008978729140288022,0.09513025784406089,0.2771416842800775,0.4519008071347848,-0.4526381176397385,0.22316537588288346,0.10804462607829833,0.03877071563558557,0.33552564749381514,0.20992923248146253,-0.3022782200669031,0.0016442533985269179,0.22073599685623777,0.08686858207471991,0.03442543187267911,-0.2503803045346918,-0.14824420263826127,-0.7073639844303975,0.16908702610955575,0.2879226177542937,0.008316030128464312,-0.22101455954833713,-0.4842330478424484,-0.3567025359216321,-0.6512943453844288,0.1756329049150836,0.21850985774436563,0.25593730061022035,0.27084466269608426,0.3132494643127411,0.08203922865414894,-0.18074365787524924,-0.1996992254199002,0.31446743291902823,-0.011854708908018948,0.008763275686265552,0.18726364022125183,0.30564171009727925,-0.27639484150498944,-0.02852872328563745,-0.01903206820127746,0.19944552851225067,0.04456669424196266,-0.045889060883335026,0.16890807996641174,0.6400630342212261,-0.48483732572801974,0.2100815942735415,0.11799548175665978,-0.11176210570127654,-0.34438961214435393,-0.34068126932907794,-0.15811664652049826,0.18020227988159143
0.10078889147620931,-0.11826707899876182,0.15330372851644897,-0.3305817664619925,-0.0202379014121442,0.21794480676729988,0.7653227206510667,-0.07757535241150353,0.5881111515373558,0.0252676122937094,-0.30920562123235523,0.35603579227927207,0.29274255633964447,-0.04317434095641305,0.2907886366141334,0.17934742385037214,-0.021247240675368345,0.06559473327748123,0.27319141694291255,-0.06512391140388463,-0.4285182489570756,0.3208404824414041,0.14278911035487438,-0.029274329626551528,0.17712641445504096,-0.3678105672609322,-0.3545603192917119,-0.391506141165648,0.310497687491633,0.09463137376429666,-0.18469123189912062,-0.17781088353609145,-0.32798944659655477,-0.4183371805384989,-0.42317650319892663,0.30074774932697257,-0.12864557223607195,-0.041161171945785245,0.16703410920975675,-0.21500473585861127,-0.3374276536625453,-0.6538178170816082,0.21257959197533408,-0.055594755515286504,-0.16352244402050817,0.05126951269083069,0.1761215670365217,-0.27063805202020774,-0.485169122283756,-0.20997029431458855,0.3370299184697189,-0.04894449660624969,-0.003676269608698504,0.1980451716960548,0.19310500897676175,-0.285446311321873,-0.09273608946732113,-0.4173096729977477,0.11697743605084161,-0.013675816496720037,-0.0992630327048813,0.019789000053734178,0.4363440920100325
-0.4031270852242576,-0.3346263316198484,0.08437816722883137,0.41520385467743876,0.2835207187639943,-0.002619817379492312,0.4079565955465104,-0.28339202638867134,0.22050296461188673,0.040402385182370354,0.17450541737460148,-0.2054986788704028,-0.25309560926883823,0.2571275250770107,0.08810203930381391,-0.21020871078361394,0.009977338542839484,-0.17738168398060467,0.09681722840042582,0.043185332134326876,-0.3155433944025404,0.1255697971361412,-0.23271192839825947,0.010584349108530245,0.11050010728157399,0.22098283602413415,-0.012029541982578901,-0.5276741403648233,0.09831633696586303,-0.2103171657072078,0.05980846724652142,0.23392926549980325,0.25297081974776775,-0.11615213316610166,-0.4846669351692958,0.15685727811805722,-0.11096656558027025,-0.04869576085772815,-0.015558182978063207,0.11657270074476145,0.15877544063718185,-0.6439760656027965,0.1856222155368986,-0.08544070282148147,0.07107385537129403,-0.03366125030759127,-0.16229418535377904,0.1268984102088304,-0.26417731454524335,-0.20340697461714072,0.2308586219756142,-0.04360431081185019,0.03501858061697258,-0.15857029013177468,-0.27140890449141675,0.2690984754258301,-0.3987580170067386,-0.19041780640776587,0.123086121278619,0.2934475086846223,0.3790873025211317,0.1623126786778201,0.39979981513766577
0.3687207049768396,0.35766535640033237,-0.012968098233389905,-0.12089543798973783,-0.06577133814073129,0.08457616943835734,-0.19466253820893184,0.26286558642244806,-0.18430616065748667,0.016081056213436945,8.974772380281486E-4,0.0352076182128681,-0.19779956223761275,-0.008660042546701397,-0.08268958577727392,0.16005508784475705,-0.06404605258418619,0.09938594053662939,-0.009241458793943386,-0.12064195572603142,0.03423179915252379,-0.1251794594028025,0.1296484403636298,0.12779199010695158,0.09637828438558398,0.11203375951421518,0.054326603874864016,0.16285485770878114,-0.10563921432564502,0.33198921924802405,0.2310005643463368,0.18158702663520937,0.23038283776594648,-0.022276789418737116,0.08370035473521735,-0.09826361655522733,0.15462610723166012,-0.0038567885893100924,0.06513925631273768,-0.03647876318357872,-0.09714420939350252,0.17639383125914565,-0.11921919862020214,0.07110997078384709,0.028285108017305174,0.06282436718411576,0.018958388956374653,-0.009938017810408728,0.003882602293085327,0.2505105555927828,-0.2566262686484051,-0.018966533754469828,0.03436395259115593,0.10683584121296869,-0.14303949905224114,0.05190762498152237,0.3840247236617559,0.32888646673210525,-0.046105116696360166,-0.17645942820577412,-0.17319293858490442,0.21010267143305952,0.10496209029213294
0.14833412587515662,-0.0508473429311238,-0.046602412373387435,0.044429004910368754,0.005910752137911037,0.08040976753895632,0.3363521441356938,-0.01569771329552656,0.09492881324437381,-0.08668645795126816,-0.11714662212255401,0.07915311610636812,0.0481448838986558,0.07268717754175809,0.17040420085537072,0.02964528731900356,0.1130564330363782,-0.011337734405989754,0.1219730292861138,-0.06173246133936172,0.0714506282516225,-0.07143384452213297,-0.1910230710278056,0.07524023741593286,0.08526635635024306,0.22038403223130243,0.10618635598114533,-0.08258339640061899,-0.06606012485473549,-0.18541759398917873,0.13460527038381917,0.19878436299952862,0.17642897107686148,0.051912765142430664,-0.06424782636587113
