0.2002230952368503,0.15697307931412866,-0.09711265222642929,-0.10684529783879324,0.11677986562668985,0.18022742342227616,0.27870284337618845,0.1057550598173173,-0.19911894114138315,-0.017214542591064967,-0.163883446868455,0.027389180543104175,0.16329779486885257,-0.25147699733766093,-0.10919222917226806,0.011755581845414934,-0.06606002711757515,-0.05870362956056144,-0.10120282139835933,0.19002315434243536,-0.2604224309804317,-0.10829362925384889,0.08613023839044313,-0.1963597718918621,0.06944381501776385,-0.26753212609543503,0.08106917381174203,-0.07709100020173523,-0.14373713485491307,0.06391894489088404,0.08185828266764636,0.25097956413569394,-0.09623152290988822,-0.04974780579922326,-0.013894811133737155,-0.0991377075871393,-0.10951357520630947,-0.09233542265351509,0.046272937795524036,-0.0616931559550003,0.054790850865687885,-0.16274208217409045,-0.17845311123026722,0.09423842474899662,-0.03844826018117332,-0.07067095792341536,-0.07612062510540175,0.03841932592162772,-0.34765369774777943,0.12364812427598891,-0.13198643741082525,0.043874567332663025,0.04302746799414216,-0.017976766057692134,-0.0066522784165461805,-0.17601814728839313,0.10728031141651659,0.05142843541695119,0.09262022897996365,0.15309732341616863,0.09171059941231252,-0.17066052203935933,0.1983455828002911,-0.15865651323689686,-0.275604167415395,-0.1955858914504063,0.07036565334229115,0.4175045522080009,0.17149406032793085,-0.005231313191883789
-0.0802575442402482,-0.12479356026298893,0.15025530442917084,-0.05990933712856739,-0.10545034519854024,0.166698409498411,0.0736432390577663,-0.021574456728137795,0.23907774983703137,0.030935809691987934,0.05210997753934441,0.1220287143928764,-0.25289109053426656,0.2205969534960158,0.1710452884894403,0.04625594749761208,0.032402709618329174,0.20808920120851487,0.1422682306316577,-0.13287747962578944,0.014043742918919373,0.14994601631475588,0.04582519627928515,0.2768968965461736,0.13934044613559016,0.15443855219359368,-0.07441986034162874,-0.3117204304691209,0.14446012254344573,0.13606338216881989,0.28637082088219495,0.02760330342432078,0.1004943465916625,-0.051067467559602536,-0.31961621970590004,0.15932193987703433,0.09358965273630303,0.07155202813165461,0.1683082283729287,0.02087048617072306,-0.11766523807932659,-0.178928843269172,0.14361735443807816,-0.07774501618930936,-0.014391764764435683,0.116363509649517,0.11206953860463441,-0.09168337121075348,0.023988465034767984,-0.023117226462188636,0.11707789460327114,0.003789745313607998,0.002655427985922179,0.037260190260247274,-0.12447127319195073,0.22336806812590582,-0.035561704104217884,-0.05031596023877619,0.006671650973839483,-0.19932314079228605,-0.15431279452942465,0.4092095080114328,0.08763624529630044,0.08547189107571009,0.16024548036497488,0.21900834652155862,-0.42371411880156873,-0.06743281907760815,-0.11799174038062823,0.2036255634718769
0.5079614101017609,0.4090354066480676,0.14420070852012223,-0.23233274967619075,0.08525986847802086,0.10275736107673117,-0.04272173771712756,0.24210218218846222,0.13533274849696342,0.026761080232247866,-0.28670594419294326,0.13657444342831224,-0.14030411840582505,0.044187356485266546,0.006058597342741239,0.2963547953077193,-0.11577775783956742,-0.04775561621895275,-0.055706785912729186,-0.20698879039241191,0.25016954285415555,0.09262375477841628,0.3199968099772607,-0.011015453784611566,0.059849892544813744,-0.16948486403546656,-0.10586297061385337,0.2122011675827299,0.0836923343670434,0.3385849080632171,0.025233159499876267,0.14865477562323537,0.00565923605759214,-0.19121808945219607,0.21718818749094576,0.08662831766113094,-0.027521799891739283,-0.11781147697089825,-0.11684579333385649,-0.22095057779143396,-0.48563416541208315,0.3175852554040543,-0.04476489100950564,-0.09127291747060787,-0.10413534441808378,0.034377393771108634,0.07586606989942456,-0.3874534181271712,0.10434154867341433,0.12506794137824653,-0.2664321410263294,-0.03705984848745014,0.025261624746530917,0.05172066598355618,-0.14710593597397117,-0.053651801969454106,0.27158108481894183,0.16878845567308995,-0.023433938409490103,-0.03598045512739489,-0.11775990458816264,0.03306544588603938,-0.07448349580851842,-0.24764653536584505,0.16859831664265992,-0.18869734912919015,0.095089580395736,-0.028458593949368303,-0.15925322680540702,0.15755054394347373
0.06936670986165679,0.038583605572714307,0.106003812020288,0.015062885776877578,-0.004609623768451312,0.06320677444335437,0.0649774989059884,0.042112113456352775,0.07871761767217868,0.01810337197578668,0.023120219488642693,0.1114199187476675,-0.1843130147445178,0.06813446497369181,0.07570836885346095,0.05481368779278109,0.05420951991104704,0.14410793989240445,0.05828409919335647,-0.05587020827205061,0.02410823157607076,0.06452885751361619,0.05578365090609891,0.14430345674907893,0.11769678004057024,0.08038459985223452,-0.06884161763815479,-0.06606408129380746,0.06789088036126627,0.1802154438010251,0.13554942663065075,0.07905823436157115,0.11590673586799931,-0.03649140704394209,-0.14570826351685567,0.01183090312755936,0.10595867969800792,0.06618078355309409,0.09157936800938636,-0.013999949245983067,-0.08227090757406619,-0.06305553772536557,0.024650308489050362,0.028280585835616826,-0.012067405047352741,0.021393105543583358,0.05559695611862217,-0.02444799668821631,-0.022675725329564436,0.06775203903874263,0.002370116739423935,-0.01037628819098703,-0.046684002305889497,0.019129227819291893,-0.11438254177366035,0.08155066632295647,0.1062334461365713,0.1251180981273412,-0.049598967524902955,-0.11316742413585601,-0.07762783468338957,0.24893551789120594,0.09721843496388803,0.017544895491066387,0.08178585031579483,0.047866778347639444,-0.08148022731892805,-0.0036062069848266072,-0.09629533600140096,0.12506085817564622
0.017864724640727827,0.13548733239123545,-0.07435538803283015,0.44514934495610586,0.22753288324235665,-0.23995229148793626,-0.0518196010630585,0.10594044243769926,-0.45917071120781056,-0.04834968784374,0.167260206645187,-0.24251532271639248,-0.06656571184570562,-0.18244602955195946,-0.185321463228904,-0.07192112495921628,0.05120252828394897,-0.0848421128947198,-0.08661747177206529,0.05548458480600842,-0.07823162389837515,-0.24263393493920196,-0.05439416813094816,-0.12137654126583436,-0.01940326428814796,0.20568107936689414,0.07662342132518356,0.16123422566586457,-0.2625818990116224,0.020307630728249496,0.11789965534522434,0.24517327348602666,0.23034834673607324,0.08849124644900412,0.22749189515443746,-0.26655053800977546,0.08607981507009842,0.005267827704945504,-0.041512617704355284,0.11391130614118264,0.305202503779687,0.08961652048622533,-0.19805032969074848,0.11962421213889364,0.05208710446097303,-0.015005521592604106,-0.23301692409211647,0.1844293442512745,-0.023584440643629207,0.16582824372144409,-0.2386621801266764,-0.0299727040903231,0.03750695403649423,-0.11357582288456508,-0.03107252835563464,0.0412428636572634,0.17298962734822715,0.4267546678464448,0.0049829729284454624,0.24453571074991412,0.2661232232147637,-0.08408527784082677,0.21068305464474602,0.1852401720363863,-0.11860097419146375,-0.2944501737601962,0.26800710059086036,0.3135000240347234,0.09096544251733599,-0.4841088625563735
0.30535991296925796,0.3453863644963708,-0.0752994971346434,-0.021210151697235006,-0.10676720396901947,0.1775816732288651,-0.11437820548787077,0.24893539806088777,-0.31123062175858424,0.020840459763026814,0.11144805035735793,0.06499645072471674,-0.2330682212878819,-0.05021987630559397,-0.19083332285779028,0.06398299774002368,0.04315864706620962,0.08626749201159652,0.01409679110895137,-0.05747573288860106,-0.04340940368212332,-0.17353664017753925,0.06762625082224986,0.22447957707383626,0.1006072751330012,0.15103119477822652,0.07632141688750736,0.07760211668713123,-0.16225860617624463,0.32740918871044417,0.37068075887823665,0.23292985729163435,0.2907700356669139,0.1402282225869272,-0.013002636451470442,-0.13272756698215102,0.14583299809606487,0.048633608013779465,0.13938318261519167,0.010286025552360875,0.09072011328897407,0.14656431638535633,-0.1769968175617805,0.14036802809715487,0.06621905210249301,0.011674963871149042,0.035657261518618345,0.056784150483739526,0.004922312232815319,0.24314674283609408,-0.29078819408042594,-0.019427756207094995,-0.03245454583707058,0.029018084580521734,-0.2236024521083272,0.11219278780591883,0.3713722273370439,0.4120767440266009,-0.09359730858899629,-0.11425052026294628,-0.07435564363083738,0.2921183548661919,0.15603550381167103,0.03261938637242464,0.22872912729437128,-0.4038775486000397,-0.05864348621316782,0.07327424224626258,0.016023955564958517,0.0043082758678196125
-0.17396930079820117,-0.220640046828664,0.0927650671343519,-0.05230127312636698,-0.2131772788637356,-0.018500925566160783,0.13200377613896347,-0.13072756246565895,0.21676691332080966,-0.013405395051363587,0.2380717604237172,0.1569909404585253,-0.10882834933818954,-0.04117765675931022,0.1127040915427949,-0.07769055565129436,0.053551573776438835,0.2705259269456156,0.16129950977678864,-0.1783981604179371,-0.1388303529259365,0.1305717685590919,-0.07885220964873664,0.23284775734134622,0.09305933927198712,0.11182768456940835,-0.2010211096070193,-0.2920325726107849,0.12546793651318308,0.011828376683300616,0.22008620409825266,-0.08535816642809271,-0.01649187243271358,-0.19918185891197104,-0.3301287321796751,0.14409304691654562,0.1799724587772229,0.2293357354680524,0.29115318758827285,0.10628437476327197,0.023502067895608023,-0.3995805210427248,0.21464717262027763,-0.09603777979863026,0.10112645770418978,0.17834537704851525,0.21091406402299948,-0.0817561412766875,-0.08137342448086331,-0.004886743697019191,0.12634042702428316,0.01698078481720823,0.008210011634976089,0.07010539274601489,0.08781640821085429,-0.048488381310210445,-0.009102709223836956,-0.01395289024625756,-0.0950030408950357,-0.34154229319028323,-0.22630260206602118,0.2527523941426056,0.21435940309932727,0.19088965044988068,-0.09277740949900327,0.25016126451663445,-0.2606263874054585,-0.044955944012321246,-0.15718425464449937,0.1851174587674504
-0.5766991093028454,-0.36299380247931085,0.005369624085010381,0.4689640610879819,0.1711666384813757,-0.03993421805837837,0.2506998593180072,-0.2667381790824186,-0.0016621087096771485,-8.902494071992839E-4,0.27559191909639397,-0.25806650544745174,-0.13032194275468043,0.2327875554556795,0.0053800573841487846,-0.3298034603570741,0.08971275051727,-0.0973346562191722,-0.0476401853371736,0.16974768127035342,-0.26330007028479563,-0.0032296401699644793,-0.2653492622845503,-0.03552055380338636,-0.036853968253563796,0.2824555266802787,0.06436942391794859,-0.39969898206813215,0.05550019408713235,-0.28924556923904443,0.12753493872121038,0.24428117515708594,0.16708600104957752,0.20724664078815264,-0.36135732335022047,-0.03441849485274761,0.03981836708271137,0.06729101035967085,0.09224515935755348,0.19886414051639342,0.4630598241687266,-0.4196007517546897,0.1515596431151659,0.03597939437737361,0.05749041300499227,-0.09824652525388204,-0.12812717689107636,0.36207232266939354,-0.09069862782536692,-0.1457186791185847,0.29021560918818534,-0.027393818703347828,0.025552923260693916,-0.19125763558948317,-0.04061045060134028,0.233097602170599,-0.31947047671678713,-0.11584021535984541,0.14095247832171265,0.2481773596884485,0.3748878829979583,0.05330743561056951,0.20858549193784473,0.273768992792673,-0.13612195901245933,0.24029879513750044,-0.29594299236534233,0.3173468994142842,0.18675063043607212,-0.4648245121088705
0.20777434576716994,0.007571879175030754,0.028302359336508716,-0.3397100665276396,-0.0408822887853927,0.31850621774461213,0.47886067878785094,0.013900339544025912,0.21943528739484017,-0.016421531013903194,-0.22745170653010774,0.26157111915568515,0.48133843761471834,-0.25424256978753246,0.10840590168866168,0.08710887964873373,-0.02318485560369854,0.02359876359477784,0.07502564815393795,0.16549792477802328,-0.24969416823927915,0.1712100686975485,0.12447884761255829,-0.1886004720587383,0.03361701434935241,-0.45393689264760245,0.005551699436272417,-0.1312995093081064,0.13380421472848908,0.08697268663295181,-0.1348637218014419,-0.12548830240785486,-0.45718116565899664,-0.11266425279897471,-0.10235311652927041,0.1377206122125852,-0.1584653852138044,-0.02868827475504882,0.15755156269317233,-0.11960300355736309,-0.1301696838536962,-0.2346500856644666,0.05365682507281757,0.15658984795444636,-0.12245029046100404,0.0928208760929466,0.05198632310927742,-0.011336333915655222,-0.35797186269733333,-0.03169620314586534,0.1351397459075712,0.01260208639058015,-0.018070074218559787,0.1501689471792793,0.29595636910947665,-0.3496048885693007,-0.003430373234417104,-0.2871263454789463,0.17584983016846994,0.12416006342189247,-0.05408983115050693,-0.16561481754350657,0.16586703496083802,-0.29202873402748564,-0.42075148342597113,0.06977924664854707,0.12172785617757752,0.11508854388119426,0.23385337397037811,0.3946537206507359
0.19946180724646234,0.11736292988710871,-0.05363459605498154,-0.13202378545016713,-0.11203648041770387,0.018528066246373445,-0.42668614936970756,0.04788819384593118,-0.13198151483561069,0.0318258121689617,0.02888105238387369,0.014227524383628728,-0.07348676160716602,0.049931028188174596,-0.13419217773242034,0.07763674806987977,-0.05155339840180327,0.09901333651281768,0.04631785122202454,-0.09095818781613131,0.28738335432379386,-0.05435802746976985,0.06205642077443116,0.19351313097812087,-0.11621934588634,0.1337168287169224,0.04959934192649948,0.37979847814956247,-0.10319773409754826,0.1021413551994052,-0.06982999467223842,-0.14123779684021734,0.11792841829768086,0.18703084559488325,0.15971157249219525,-0.10928171641861736,0.09656827398935315,-0.04595507293768946,-0.11323691144631261,-0.034414481538506195,-0.04034491822608221,0.4827533007746448,-0.13878225890333676,0.08941580103913915,0.01085706795855822,0.030157017647061392,0.03822776313890871,-0.04241389996897245,0.2716749748031138,0.09601168544842889,-0.12846018587502758,0.030292362529188557,0.029637219680215904,0.019918224058288875,0.014202138598168,0.06260595742451172,0.16811221375156918,0.11570551591718432,-0.0955721954160483,-0.10187875368469139,-0.1385140268376631,0.004420297396681949,-0.2720441600256808,-0.02776302080470164,0.38605913425738736,-0.1434393979771934,0.10504318598628862,-0.38421284419527485,-0.06325046564702323,0.060569337886493185
-0.005344885834546578,-0.00803868184990258,0.0033307099386774407,-0.05661677057867873,-0.13126511086336365,0.04664343055661518,0.3274679905030835,0.0311306229440752,0.06222627046880515,-0.01784111340709771,0.04225390986309292,0.1525483749321372,-0.16952603386306955,-0.13882701833932595,0.06281369908112878,0.026811827110889898,-6.564584236527511E-4,0.21290008484531306,0.08997608994283306,-0.09339510445917376,-0.28748797326508463,0.0634448142147191,-0.010289636201607683,0.1619774023263886,0.17365382206953509,-0.022568252352444404,-0.2257955462355718,-0.34583607006761696,0.05039455011871168,0.1752776556104218,0.2368939962218713,0.15350047123105262,-0.03357805823678715,-0.2191696109943916,-0.25118653573041844,0.003894420048449007,0.09267301040807456,0.11737976849413399,0.3767926368303335,0.0663375251790237,-0.02612571315084365,-0.4649618576330128,0.09236069330221816,-0.05586704184491342,0.054514257375380376,0.11221003205671583,0.15438677384784158,-0.06068708572178559,-0.26848908240442726,0.050986557004245245,0.006099101452492095,0.016022200384880184,0.02534369050090879,0.10719573861601911,-0.06565204483356953,-0.15382407974788592,0.09898346366276412,-0.006540267881717789,-0.11643531006034802,-0.21584721932742976,-0.1655190132079809,0.25342861571280134,0.483726929026567,0.1204372101002079,-0.20314700038089784,0.027289559791726616,-0.2440813613855662,0.30442406905859193,-0.15303650169454566,0.21914712849243387
-0.1441875687748512,-0.10144307219502519,0.1511878956830572,0.04075092245420155,-0.011228072264090564,-0.32358329754144116,0.008680769421225294,-0.13627977960487936,0.2105999695379894,-0.04603512902003298,0.06254635843118413,0.013507645562280691,0.4206710495581618,-0.23851822048061175,0.1317125856974129,0.029176991932002593,0.017234736795082504,0.06254060091257502,0.046327118069205066,-0.03567870595872253,0.1006569917761776,0.14043667111455058,0.04722580587544888,-0.14463818008206614,-0.21365534306316805,-0.10661127251520207,-0.2560304338501261,0.23083365263107203,0.0772149831755483,-0.15723777526271518,-0.32958761765379435,-0.41257127748711436,-0.29504368238971324,-0.19817410059991025,0.1652131401362889,0.10510511774857294,-0.006823748174628565,0.022668346598757185,0.027469440449073592,0.047370584400556116,-0.0012926862772515754,0.023806044910518114,0.15898149239588788,-0.06536571073409213,-0.007207397580309965,0.04636588537807996,0.07652249153020833,-0.04900490026402664,0.08955228619039508,-0.062417775926512466,0.20059830592614564,0.023601458925820454,-0.018355595588954644,0.04579026573925784,0.3970733098950423,-0.16573432788285872,-0.1052032793917753,-0.05669261371217627,0.10565735663148275,0.010114370361556277,0.0060991846206322475,-0.23813756878430467,-0.14293662225524156,0.012453113351701382,-0.35513521808783716,0.1764204369100245,0.4022353448760647,-0.17337796596694177,-0.0652351948556375,0.03625955573850949
-0.07917684135199085,-0.1764807888358791,0.05697722551416019,-0.0240464601020373,-0.19648367347776796,0.04241121433223324,0.25221285779958835,-0.029539796504529304,0.16639575356920913,-0.04873407522961866,0.1794290944375509,0.08278401581382373,-0.18164645990119013,-0.03274251351779507,0.0905937034859707,-0.018084527548502854,0.016798638670119145,0.2852646768258379,0.19531582780829632,-0.19376251898345276,-0.18355047190182092,0.1527280541662599,0.0028672857381464535,0.23577760522819594,0.08335437605501216,0.14483359958715544,-0.2007868460752662,-0.3932611801079791,0.14914379674115982,0.12234000012437422,0.24939173038412799,-0.03076518367138099,0.056249094477862416,-0.20857310070401283,-0.32804155356253173,0.12164863416534857,0.1813953144415938,0.17850011330134555,0.2972166495270034,0.1276234209166349,-0.01433749445256322,-0.3928731570800281,0.15179777156090574,-0.10604412242438517,0.089380437226335,0.11619774262559218,0.19986755426289948,-0.027811837586367114,-0.18046838357218983,0.02211301336851925,0.1044334324623135,0.03625511106203598,-0.04850086370810665,0.09786745425855334,0.039393567280135044,-0.03356184086055587,0.04395457242163703,-0.003249798499307093,-0.1250673865776737,-0.3267457559832806,-0.2942745411448713,0.3183350842345298,0.3549694879161534,0.12962472639383538,-0.19784497613029603,0.19310579292411756,-0.2608077915838471,0.14749965191411563,-0.20846559998262015,0.2505192466248451
-0.12620853500563273,-0.19335835501925422,0.04973548525158502,-0.08457072231558196,0.07963660173458148,0.4921785556784587,0.2600741047819457,-0.10344468050058499,0.3118329494873171,0.007668266937010983,-0.269802304023728,0.03348792168199789,-0.0720345561918159,0.3041238943777954,0.15194286415359584,-0.01254073893030273,-0.054761439770656985,-0.11827879465399682,-0.0565084359083775,0.1511784603756172,-0.06663340173443996,0.17974552692801818,0.023916903824373212,-0.0748064822693307,0.09501083964737705,-0.1281049771769501,0.1757247225992134,-0.3508075273947542,0.17144086776152226,0.011957664142762656,0.040317417939589144,0.14731707558106194,-0.08421741077364109,0.16204151001418904,-0.29364499788947246,0.13138196591827692,-0.21408523733822277,-0.09308863963645596,-0.07333958734258801,-0.15490417081015023,-0.07485090755876717,-0.22709466246456753,0.10246713366100557,-0.0376498426983408,-0.10123002969375135,-0.018595954630344774,0.0092744140073246,0.008500764086050595,-0.09822673969671539,-0.16204514510077966,0.21183219307297924,0.030370421307401127,0.001828307956607808,0.0846085075293039,-0.15082578037336786,0.19739144477465673,-0.25399623893571405,-0.3552632503217374,0.19042458668633772,0.1778581360043141,0.14031040700639758,0.12817671631428676,-0.039390101646056545,-0.2536957246031193,0.1393603343229999,0.2989056354541796,-0.4124722979403139,0.04531254976495613,0.10149982451912914,0.10415398514265237
0.31212085581869586,0.1645636539486468,-0.2017272077324118,-0.28447974761719846,-0.12189939683037432,0.5505109995391358,0.17907835856489684,0.17554033652446435,-0.15304671134305628,-0.013826658260645844,-0.23039225916679096,0.20445086821020628,-0.01734968183856811,-0.011430915827385745,-0.12090334931108941,0.09752980525218356,-0.08939180913840383,0.01204465333612551,-0.008190573190687061,0.2507765372851038,-0.16553915936103122,-0.11857276589410169,0.08349748456111204,0.010598694889218654,0.11707182653379232,-0.15132496958432806,0.2578024384403603,-0.11509531704880109,-0.10418034343790529,0.2045469670699529,0.10906836963737879,0.15811149784686926,-0.02960231115919126,0.24654296370864745,-0.1165157839374459,-0.056446322303871116,-0.059225585901489936,-0.004300785791358166,-0.005030453215981174,-0.15000624262131215,0.04264686263968008,-0.04132040319037055,-0.166982009455973,0.16632797874803598,-0.08411542213254286,0.049858497519947455,0.09845763124514983,0.12471619510026181,-0.2638066382850036,0.07308728592994905,-0.1064067494300876,-0.023410646379668856,0.03442163291024934,0.10837651788726556,-0.13642267256203353,-0.08326244463722578,0.13302352031302656,-0.03739836125305746,0.08130426305091219,-0.06484279396734188,-0.11053679077040082,0.1460469071046664,0.10721289941728349,-0.2324417068847854,0.10829048790081588,-0.2418488535773825,-0.16876186962498377,0.05629103498939009,0.2603540743753843,0.2804907902137749
0.16738466261742846,0.044990119402449374,-0.2327716330563114,-0.05808845577679122,-0.12498527635392362,0.49216137492071205,-0.040272648840520925,0.12858007886089187,-0.3704977707764429,0.03080441268818529,0.060160738983999346,0.04302242101300153,-0.3226607055038479,0.07034653306978804,-0.13611862422801538,-0.036458791824774746,0.006795654131835597,0.07055785616587604,0.057084588132343086,0.14304057715865107,-0.1505590225613918,-0.21148250831952156,0.014726729554887076,0.29642761092199416,0.22700269559510525,0.1882143576321187,0.274951506082931,-0.15473822515517968,-0.17446232409820248,0.2365376631355647,0.4195569600022469,0.2836193591511836,0.3456423381551479,0.3900864360045257,-0.1996262357206154,-0.21135768443732758,0.07642409743434317,0.13725982046186327,0.12075923344604109,0.05620144697875253,0.2819813866339579,-0.08514287097762484,-0.15521136374984296,0.24111173270707115,0.0015577668405763827,0.05252149036638126,0.10138057356276531,0.23955059697910963,-0.1786036249843153,0.20804681474847167,-0.07956986008212506,-0.028460608314816994,0.013542664470409388,0.03929434383386969,-0.18416759713657496,0.1330797212633737,0.19707625061230113,0.1969328060340885,-0.0641044626979629,-0.09379421090661746,-0.13335789848911594,0.4024000302554709,0.17512984808119528,0.05638595356572336,0.38055587271237046,-0.3674421498312294,-0.41535114526593536,0.09577526764421135,0.15698616422878625,0.10305486979069031
0.22573759725387174,0.07015613741466088,-0.12143345289198924,-0.06745096180637893,-0.2451258062557964,-0.059488659173466046,-0.4377301387723123,0.13914276381961405,-0.2297607929851221,0.022162648883538708,0.18608291059191331,0.11823367369009816,0.10868919213896276,-0.19011989921100778,-0.1480869277597434,0.020665578675059887,0.08706322668249775,0.2539009382674977,0.1574058409667259,0.021928353768507925,0.23427273159963108,-0.18824833389888987,0.06085803527898324,0.32609739054191916,-0.1000137393989768,0.22423812192971962,0.0720810440618576,0.38860862190112366,-0.19829076844032842,0.11411215427461742,0.03517390206148892,-0.2888809777612693,0.09893481551358757,0.3147710157729738,0.23677729877822287,-0.17404442948213364,0.2531524981087416,0.21980241562453895,0.0036361598387468852,0.0998871510578562,0.22351575286298087,0.4620489266816457,-0.06484291623696423,0.18495364022303618,0.022834047094285468,0.08331921919963878,0.258907886715631,0.14607115199348444,0.2781695815588775,0.14617413825067027,-0.1491672081382545,0.018903986406220027,-0.03077616550934059,0.09828336558391698,0.25037222998632747,-0.06986855111644588,0.25909976462945733,0.26679247760486163,-0.06184532773751518,-0.2940471412554297,-0.27963666138538046,0.16862986024782892,-0.19662910468088954,0.18643121908698856,0.263132121590038,-0.3364719819752428,0.10596267701561024,-0.4487607644678177,0.07724154458880533,0.23720357029445868
0.061345249114925164,0.11692241639590908,0.26368458179392423,0.23411801211807237,0.4075953818540201,-0.12197340171044116,-0.09070483901741441,-0.0063047072369980675,0.1289030635661774,-0.006364418949105929,-0.1006001613759358,-0.21834688030189034,-0.06491019672922976,0.3367452912379529,0.11473493799204604,0.01546577538312485,-0.09659896060877828,-0.22096544074933644,-0.1461234000217582,-0.09598638177041305,0.33799640466894343,0.05980143259686105,0.0017923133739480481,-0.229661875511189,2.8074650115400676E-4,-0.0751564904920261,-0.0881737315408258,0.13010261466513937,0.06341194674338715,-0.06321802801794454,-0.1096500515681075,0.18242136262262681,0.04851049111914023,-0.04532644817220306,0.14681102600806098,0.13067512110355559,-0.13107764468299482,-0.1784465360122467,-0.2370845447687748,-0.13898510867830885,-0.24021039163610444,0.20937457624354375,0.08181201655392936,-0.12266981664619528,-0.005534470005448765,-0.19803855257724243,-0.19807628584238887,-0.18731838874422027,0.2291337917084251,-0.10882306747825435,-0.005900287735522509,-0.016431817031335873,-0.0166618112790203,-0.1752989649962051,-0.2655971864389303,0.24030031854971762,-0.05888262204870435,0.07763594547296963,0.09585865605733684,0.3776439744075443,0.2844084244068449,-0.17264778785042012,-0.1720349544130032,-0.13342172528762997,0.21579862216762652,0.0846847827390794,0.04366906939747703,0.0871652968428417,-0.14778546894085484,-0.37724758006387116
0.27835312833528075,0.1841698070546156,0.004974747218118949,-0.18970532130653517,-0.22209436236983016,-0.15149825055908483,-0.4195723670382193,0.14324381655315235,-0.04617031212085246,0.045003503840716455,-0.01248857535692009,0.15810410019974394,-0.008687131738024972,-0.023355535555735815,-0.05260752049435044,0.15213099481306877,0.018232913739078777,0.161223025688969,0.041239644688201696,-0.2038382596257657,0.25792480259847306,-0.06761274520402806,0.13343335855511837,0.2148477494704558,-0.06449733923141943,0.12936339811171552,-0.06613807184271649,0.3409486951201668,-0.025967452276818508,0.15826350419253465,-0.00758337933626369,-0.2329717905505436,0.11528412475954938,-0.019085852494029706,0.24814925340685878,-0.08494199081380639,0.18684298161190013,0.029081242587527412,-0.06736075070157131,0.047560796401833375,-0.16451960938767113,0.43881623417726984,-0.04453505138364523,0.002600707058583522,0.036062955508542736,0.09146366110553707,0.12174947629253233,-0.09969642769878502,0.28919846712895014,0.10250943523190674,-0.12053952363382656,0.039188690211943364,-0.011951405555392078,0.05895630946641512,0.048842100778534375,0.008116838845469421,0.23563986885190244,0.2590594709654418,-0.10511029274018209,-0.25829460327502046,-0.25138091899730103,0.09989022095896014,-0.18297311595588805,0.0414573720582006,0.25757726142846177,-0.167306026036851,0.12108866471477817,-0.4349951819177206,-0.1341689875010631,0.19923365651598016
-0.33696942647416434,-0.2633384661978906,0.06427526796064613,0.28350377058882614,-0.032669238854159566,-0.25687255228716066,0.2580756366212488,-0.1344956910601044,0.1510731246240475,0.0357813293626945,0.30156425601536085,-0.10742038590586045,-0.14542235033457046,0.04112771435703305,0.15618766457996258,-0.1552304059283698,0.07399171700139724,0.09961065498801451,0.09556407940715857,-0.22085293107284226,-0.19613049301434976,0.08509134124254428,-0.16525094032381685,0.08033463522235758,0.03287300610181419,0.20128044359278108,-0.23954348417718144,-0.30925453409339415,0.1489055338292259,-0.1128309828445556,0.13874735503073463,0.10928420354043478,0.09485410307272,-0.30352588441362616,-0.2623094556556959,0.06123032407933507,0.1366650826122327,0.11434416848100443,0.27762402409578385,0.18458084996548224,0.03921223873082055,-0.3863653924415914,0.20514813728439385,-0.14136771799684847,0.09201103384157594,0.06159810459049287,0.04049214125952728,-0.0126338383326981,-0.128897337691239,-0.06776887246523101,0.15199668311713957,0.038832733852010276,0.04961898141184577,-0.07827955322528032,0.01576748648432382,0.05074332238761982,-0.09505606769334932,0.03850688699927365,-0.11232879964480601,-0.06971451079080418,0.04638194279463364,0.13292565022960606,0.3858203992709116,0.2717160975108154,-0.3074892769836817,0.2679554045443502,-0.1297327781261313,0.21936026183106666,-0.2277401284828485,-0.16789128051350694
0.2156839300169482,0.17251568626137653,0.2890290446743973,-0.25127151559132027,0.028556158155135923,-0.10214163296303945,0.4535817191855469,0.04907952094160748,0.4896025252763194,0.031072888301550847,-0.24842653768503306,0.24561102545454538,0.2900131112463214,-0.16798825535877002,0.2933748847011504,0.24029439939311892,-0.052644773950010756,0.047933992814830344,-0.053098221586233195,-0.134772676365659,-0.12487669413689863,0.2581124096221768,0.18428894994924838,-0.27211989102741907,0.050282301052772274,-0.45763528482800736,-0.36912669667072484,-0.14792216698381494,0.2533691812083362,0.09498003124343751,-0.09502234836136378,-0.028069294893896004,-0.4387762959349594,-0.574806003846296,0.02992904569000062,0.262959658788759,-0.07377408203923418,-0.045240614670773796,0.161816663112356,-0.15536168754109606,-0.41875023093710395,-0.2698378211268284,0.19605183050005734,-0.16074812382745657,-0.12954307237343263,0.025738760439598836,0.10070601735252059,-0.39530216421556896,-0.2460548041805893,-0.0996810382315339,0.060416013956548935,0.04449365737405446,0.03326280906273216,0.11288046413767905,0.11595369824737155,-0.2984290581917815,0.09348783627800529,-0.12109744515033369,0.10783417653428927,0.015274572816691777,-0.11960260023105844,-0.13402542910555026,0.27241954248888023,-0.23621865660728017,-0.5287840091654159,0.19429303377537127,0.24013842099921687,0.2895968907708557,-0.14130271621798868,0.33137333388064505
-0.5268983266966092,-0.44589008473166314,-0.14397406633897683,0.23792525977683246,7.220947335576375E-4,-0.21778012157515458,0.04081620586191182,-0.2949483582018554,0.00536608477304525,0.024724404324092647,0.3267374686321635,-0.17423445692267125,0.11065987864346338,-0.04473141683477019,-0.01605543742103409,-0.24736418456510018,0.14218971429431956,-0.016516868298807275,0.051946510539312346,0.10686781353634739,-0.15160155310651385,-0.05692979968566028,-0.27727999242981316,0.058263985598904486,-0.17563313222737548,0.21778742930464853,0.039726078259316316,-0.13512807427461077,-0.06074413589048859,-0.3814853769697377,-0.14245356909129234,-0.16902517064636888,0.022000813108161203,0.13777492007645817,-0.09818316176077539,-0.006345319110877676,0.016188323857594885,0.1211538053261844,0.09475047975357873,0.17530109569400382,0.4397533280038524,-0.31631521067688184,0.16854114487758912,0.039101874977096225,0.06947026308499249,-0.004568234890450656,-0.002408171520983784,0.3453251167752985,-0.0581189867540079,-0.0887481215631686,0.30942976136584494,-0.02498550690220235,-0.01073179706350065,-0.061410324046188534,0.26593772161054996,0.02256263816661815,-0.28314641391085127,-0.08972291185553675,0.008770463180716788,0.053378228431956,0.17883631651995496,-0.0509981043575375,0.09435858388855153,0.3224575903514245,-0.1927199855074805,0.2856455358887331,-0.03331042120708318,-0.09757207335393724,0.12884363593520645,-0.20235888115555878
0.076931572213073,0.2172976257482809,-0.06899337919764037,0.18072153105286196,0.2399601125994802,0.08480678838334932,-0.015369843137348384,0.12770650049612506,-0.1696513255132501,-0.034651140746333624,-0.11193587452880806,-0.1545221490551303,0.05675340327053429,0.03750020136286942,-0.06830303032322234,0.05963332733951151,-0.08221810697865976,-0.2149150788701838,-0.19642219006724823,0.18502642778009834,-0.02758106168112867,-0.12592834451998677,-0.030464158859066785,-0.23997558968587082,0.05640119619552493,-0.08902819916730156,0.15357346357229582,0.15310332870399598,-0.12543684105682074,0.042536095357794436,-0.019609081950631418,0.25373905511824696,0.05584119941296692,0.14012678717319524,0.15120423789017987,-0.1218307040868022,-0.10747066010819077,-0.18087117861157895,-0.17776454272124426,-0.13158426492635153,0.03771335815805065,0.13270705571077118,-0.17225727057163298,0.08361166296432924,-0.057704583090656514,-0.1404801461057507,-0.28067402619341447,0.07567150463290033,-0.010576859747280735,0.04696775748609193,-0.13767640284612284,-0.009090607667661066,-0.02772824118890891,-0.11014929158348082,-0.13050932046184632,-0.0013672587984721336,0.027517406770002768,0.06496057476327848,0.11220906829130523,0.3245846184551668,0.3646503560136767,-0.19648104759130572,1.3561253236672315E-4,-0.16458857174723032,0.05213756803140877,-0.24397962333437245,0.0873480338686152,0.2377319819805669,0.16130861393410578,-0.2976777898259605
0.10940122605758408,-0.12117447638093601,-0.3147771975523788,-0.370614156879326,-0.35104009717868495,0.2134787225337693,0.07921972925411708,0.04368752133110242,-0.22692012559229882,-0.031000453571760258,0.049731122272635944,0.2624576283940743,0.44042878309660427,-0.4271999919233862,-0.11817509858098045,-0.013746064459730424,0.02365630286367835,0.20255385865934303,0.20628328986190944,0.32764112706338155,-0.2744397688338709,-0.20557685379301305,-0.00882657585501105,0.16266320830539396,-0.12455185783542856,-0.10622234154287707,0.20837827467143236,-0.0020555735280840186,-0.12377557228799595,0.026446842587490235,-0.13885642403292442,-0.3252241229595314,-0.2561572489181328,0.2321446774784009,0.05422601602555811,-0.12471520482873232,0.026243858101619895,0.14280720892873364,0.1120730627888919,0.07036754060626657,0.3498341604506507,-0.015929508779040025,-0.13382279651825918,0.31988435913648083,-0.06206707410255434,0.14719657334519917,0.2592340010999951,0.2361828880128509,-0.22404974944432593,0.11373610640247588,0.06333134496943876,-0.01958024626398841,-0.040491144535688306,0.2082210467306652,0.46742286806246075,-0.3370438920281364,0.06823566054585811,-0.01607204958062217,0.0169242288721506,-0.18335640210313925,-0.2075133322548032,-0.09861361058922662,0.03336279917093447,-0.0364057542679624,-0.17433440595617844,-0.24432843420959324,0.1435697737176128,-0.2622067605476176,0.3304535596601493,0.43663650795741704
-0.4753460820052653,-0.2555715607732105,0.21224127526853806,0.4137573764647947,0.14969266405758172,-0.03142890792691547,-0.039301665371019624,-0.3340102433319635,0.2589934028582083,0.046942347399996864,0.21155982796969203,-0.328595234562031,-0.5858108348443458,0.6333530482064916,0.13230541249125852,-0.1818898932245305,0.029728865945633287,-0.15855097937057508,-0.0947033352644743,-0.1871974815088681,0.18597467757955463,0.1437297047115689,-0.13402660766848715,0.12658972662337478,0.1411324644921562,0.4001897815368254,-0.08535016277255775,-0.30969978736657455,0.10838138612906138,-0.14037426031821068,0.22817692304655304,0.3168673539702181,0.43452840080812,0.03831337095327989,-0.3754167853473354,0.13658761281614176,0.08281879721046576,-0.11001060637724926,-0.04049225225764566,0.10960218288707084,-0.07293925777309114,-0.10554156034453016,0.14725683789354982,-0.22040577865278896,0.13314491503082818,-0.14416132149623542,-0.14367451890970626,-0.09279117557638784,0.2658465208610507,-0.20370993727078024,0.19237457136059002,-0.02065720646228869,-0.013716243607590765,-0.15691852901734196,-0.4907668017465104,0.5889796667339039,-0.36792223611552294,-0.009686845412959317,-0.04278644437499643,0.16095385976953838,0.15521476287059768,0.3597811768106902,-0.03209026996946318,0.2493201551700524,0.4226469236980853,0.3830325513631055,-0.5701938893669445,0.06877018947621043,-0.2778185785288126,-0.4351726336177177
-0.16593503589138348,-0.030300100319846965,0.13753433718295358,0.2450685119237293,0.10854171960331972,-0.38628412546475394,-0.4679180189321724,-0.0893600756792081,0.11801110906413995,-0.04353960165234774,0.15086759943627573,-0.15357003623312962,-0.016209321560088138,0.25565066181976265,0.04885711243935938,0.013644467832365456,-0.011367046658822464,-0.015072074196875713,-0.039598617294431905,-0.25281175176088055,0.5218482340965612,0.11358438204727471,-0.07850031452574381,0.11835276583147582,-0.19654014710213422,0.22196942800191924,-0.15860933578186479,0.3355781680554271,0.1184754630468519,-0.24174484257277015,-0.2286388646109474,-0.25557376583743835,0.0908050901807251,0.026647095926437808,0.2587242605964672,0.10817469979379708,0.05017776048177694,0.012443297856430594,-0.21097351422789476,0.03442392577412417,-0.09623903775312732,0.48014430957397086,0.08267785515171004,-0.091435896918129,0.02785810429180336,0.008869055110650878,-0.030248726280278315,-0.12370701249250907,0.5202750571551891,-0.14128390405121116,0.09119083464476364,0.03788387657261376,0.040335055508735326,-0.03200747603435258,0.028853890835677784,0.2542065235724252,-0.046003901895748864,0.08169262860441853,0.00840326323198843,-0.024332959005424884,0.07601995137609913,-0.04101089757333445,-0.4781984461749519,0.07401438308785281,0.2741018696283132,0.1634512405400626,0.17143880334419484,-0.48200234804094694,-0.23051877889731984,-0.13738750360727953
-0.03376060488844,-0.08193058087229159,-0.212465852289726,-0.1743288702014241,-0.28325800288234654,0.14903433896720786,0.07823134969837324,0.03315330534858227,-0.15651808290828276,-0.03773918934882307,0.06741788353649496,0.204322542636593,0.2802079014970143,-0.2921091857760326,-0.08693577530686444,-0.0515397302246589,0.06023437716041607,0.16097267022012463,0.16749740644089986,0.19193506550867123,-0.1586406199407034,-0.07668578325583446,-0.054519836907498294,0.15758419965908807,-0.03970855342995344,0.011807364185404063,0.17005661293230595,-0.06310134402932711,-0.14517306241404612,-0.024211338789710702,-0.1074052082191001,-0.2601786286928311,-0.19120473462718726,0.2256500368690228,-0.001581608317184446,-0.12234941766208605,0.016431657767393283,0.13775002305118905,0.1446049165055042,0.021485681589466753,0.2201245612242781,-0.1273027601343112,-0.09212307947808494,0.19290319656021654,9.383562395196037E-4,0.06913880408697437,0.12134713212808684,0.17617166709751414,-0.18921668368694,0.05899490751929334,0.1495080866936254,-0.01713539561569135,-0.00634421632613804,0.08959589217733113,0.32351112374450164,-0.23261962507564082,0.01589078815173807,-0.08179430353404732,0.045537926601335356,-0.19495253336581939,-0.12546991180977948,-0.04883557755323108,0.011409989653755413,0.08564330473555234,-0.15500480956553195,-0.10512263996709677,0.09977628260987301,-0.21295192948394204,0.19913024394616274,0.2932807057671486
0.3428468155594416,0.2365941017353906,-0.14381282847091942,-0.28125504125295236,-0.06724347178399986,-0.026101101361361328,0.1514151911176017,0.14891613945474547,-0.1918748280828106,0.02534147066210228,-0.15751877026130065,0.14512008843015067,0.5454203290141785,-0.5784154539679583,-0.1314463396877115,0.12920061202927327,-0.06400966228247909,0.028500994870384523,0.06171150338985621,0.29941852673048275,-0.20269594811745312,-0.10521299205914877,0.15405096437478472,-0.22448536640418687,-0.10823446148254494,-0.4051156378026296,0.01367578309401283,0.2785579826298597,-0.09119113868227319,0.03616396229098574,-0.26705596560165507,-0.18630360976340188,-0.3821516487554847,-0.039463446643662976,0.3423755280682032,-0.14774350266370398,-0.036465423949723255,0.017460760718090315,0.061595546623714754,-0.09115983212077135,0.06420195912857068,0.0814062929307446,-0.13397572296595806,0.24973176871812341,-0.03846790438770338,0.03817357492602203,0.02927366872101196,0.15891527169353983,-0.2736227169867341,0.18640128281287863,-0.1184139389427276,-0.04330363818967725,-0.02556686789329954,0.10917790096170503,0.44811338875997664,-0.5050807519309276,0.21191323416274208,0.04406268878349469,0.038954473550603906,0.009438438302976923,-0.10020867301139454,-0.42512663497402736,0.04467427055575278,-0.1974183119397498,-0.412062531110423,-0.3200540367063768,0.4736604267141017,-0.019357742095594738,0.2954670808937607,0.25477842198794626
0.08878156364751519,0.010939661978315538,0.11523858429176113,-0.14188592631925775,0.022402920813094553,0.08955444155926325,-0.24732778939284727,0.03627824024234115,0.2057488077559246,-0.04699355626086449,-0.15009385931516703,0.09666904767259792,0.3078937265110087,0.08792809526204542,0.07733693630747526,0.045150573674618645,-0.04377889982911002,0.019744279619259432,0.021442404430144522,0.1133334458170824,0.3794196527022021,0.10350443786224844,0.060350861005646995,0.05903969766728223,-0.14956045748170874,-0.05233341347084529,0.1546522759560118,0.4410072392967658,0.062393991365998595,-0.01303846030089797,-0.2691483020334579,-0.41539691221322106,-0.19794482896398224,0.2670038917918479,0.2520726533375301,0.06368715638813759,-0.04048836436499518,-0.09836236345100126,-0.23102555340075262,-0.07713725910588544,-0.06753119189277229,0.4870706519031559,0.010444696011203063,0.08928388413136865,-0.004623572825052212,-0.007624741398791845,0.10467904033413761,-0.003815980705802554,0.32227894057861617,-0.07945726461628541,0.17422511017565437,-0.032007107605664234,-0.0403882310678509,-0.004984903363024326,0.28277193068820616,0.03402566356566015,-0.050245846025410316,-0.049422124202844135,0.15820098104099836,0.0687107286035858,-0.01149907757331369,-0.15753357336219106,-0.5357826136610581,-0.13847057670630245,0.21406881653633625,0.11496539949508094,0.22463294347457538,-0.5865308161919232,0.11374666648989254,0.1479724846362418
-0.21398289942066076,-0.003627506113805198,0.15619503202197008,0.47259176279513637,0.4268037647180969,-0.12409701503609197,-0.0026073585079102518,-0.08724201210983748,0.08550118430058902,0.005115779048076544,0.0628846585989997,-0.26158032284741206,-0.06476582629933202,0.2628700904151767,0.10601829779969717,-0.12541560096398932,-0.02797701511005144,-0.2632336694570568,-0.17504929633573263,0.009535401025205312,0.0855100987809975,0.08263294819804344,-0.09578023667067533,-0.23554637279617738,-0.06051188004398081,0.0389280249601344,0.07625092261882502,-0.04613611867816864,0.05610951794337971,-0.175666906882544,0.0291535181368453,0.19023477611155937,0.17666886862333234,0.0743696575223827,0.025631142753166566,0.07010396393588424,-0.009241020927378855,-0.1542611388373961,-0.11972951081495826,0.058696893610331896,0.050510614882103615,-0.03734888372716635,0.10355643089797853,-0.014700566415048468,0.04544620398218434,-0.10153358396229535,-0.22899882049783304,0.03310400571068343,0.10077149957805351,-0.04895182332430317,0.1487700699171042,0.01328415499463037,0.019598489198897978,-0.14291466120948493,-0.1318498610690406,0.2079624081468706,-0.16690360133147458,0.04863412796292597,0.1236976839622266,0.3944870917441354,0.45959935168917737,-0.0594839615183182,-0.008157218828536253,0.02477274352312988,-0.022482494350321038,0.15473174586108301,-0.008517554654135047,0.28165493893772214,-0.025591529747285784,-0.47750995505210564
-0.30252752808398403,-0.2245070399513566,0.1580102843872902,0.37877265839574176,0.06681992575483717,-0.6975943902069259,-0.03214744300472259,-0.19428641743421216,0.10398238841947331,0.027362221353521884,0.2993827077459419,-0.1940671677458211,0.20862430992425554,-0.15487600134183072,0.09948157886603212,-0.09372501552350361,0.12746509982937151,0.04044362420446055,-4.7552883709539394E-4,-0.20534016403719568,0.06218956874722503,0.11402752888577236,-0.08003231042284455,-0.03079858649947372,-0.2638270206371556,0.06649059548643597,-0.42115713011230865,0.10296817174614584,0.035206579857764944,-0.26735492806846467,-0.1777048977651107,-0.20290425359086864,-0.09467031248480146,-0.33562081072020017,0.19330933722181207,0.07603345676509396,0.23456297891256997,0.12396600555001379,0.09475275095971249,0.2303149654637014,0.09318524241532594,-0.04901575145671081,0.2375972692756975,-0.12072055802698133,0.1340478936073185,-0.05072220798978486,-0.0012906443829604406,-0.032850297124237156,0.15193295465287773,-0.07690858891175117,0.1008138947970622,-0.031126662178231426,-0.027146768180485815,-0.1308421065352594,0.3003075078919544,-0.06880139762460359,-0.11302167503110765,0.12808052113712176,-0.02871867046339451,0.030045712224225564,0.15228994987318634,-0.24081778125512096,0.04448743034004241,0.2744659666793667,-0.42331150164711817,0.27915794958563017,0.3480127148497427,0.028475301036382177,-0.14991337075970043,-0.20448922472360848
0.32800677029700837,0.3639603924470972,0.28520463233066906,-0.0022805986332937764,0.2257371146083804,-0.0902052190247258,0.010680194368776937,0.16380313644217578,0.24549900281058024,0.019475821873537066,-0.23441943818837707,-0.014464537662830887,-0.0985430034857913,0.1370410867165242,0.14892498858771652,0.2568455129402411,-0.09737211708087475,-0.035451308827274215,-0.10412426852168595,-0.19364391500508843,0.20032997634149818,0.16647527980656138,0.24282778705922597,-0.11482902137589494,0.04436696313598249,-0.19284754585251948,-0.2327534228167118,0.2115425356200893,0.15722169456990545,0.21991691695752874,0.04684819022304456,0.1603877396996353,-0.024438496932686148,-0.3484280160201457,0.16112027613711413,0.15116203854620097,-0.04270146568863565,-0.16055888363206972,-0.09444263393093838,-0.11086973602410541,-0.5015604716373371,0.24172864042097902,0.04080707375879629,-0.13970180815175154,-0.08876878978172943,-0.06158982374653094,3.2575447066851966E-4,-0.3892382488152315,0.0914101494777278,0.08289192565027236,-0.18472320404004974,-0.012143389002369553,-0.0390807444342585,0.0296568589302866,-0.13433343406347906,0.009252798902764078,0.2117195423642068,0.1775381934212867,-0.007650637069553624,0.08532595830284824,0.020266559657798642,-0.04217147240298103,-0.07003582673232395,-0.1927736922542428,0.07632735212502685,-0.0336208627117718,0.2047740652845221,0.119047748332581,-0.2644737233554618,0.022960818918872618
-0.09686620580246036,-0.12635192595459335,0.0020356677791675357,-0.05474163978940927,-0.2993982437158288,0.1272729461373395,-0.36676096077783404,-0.04697809786009836,0.015238665629410461,0.009962103795669107,0.14322649325218131,0.10182321537685628,-0.24795162669639975,0.2704087875084156,0.0363828649681801,-0.04630120812082034,0.04978800019120699,0.2448795744792476,0.18557011106660457,-0.07901707149656087,0.23401465265759452,-0.0204802761117556,0.002354125254721807,0.46726114591644463,-0.039453133728418154,0.36652119870302213,0.06014322645093979,0.08608197963192245,-0.013037206781857479,0.018878529472251885,0.124583562647328,-0.14379076751703052,0.23511013246658055,0.22369114707803708,-0.09580912475713295,-0.010411093306616043,0.1288889191960129,0.12899828136053149,-0.04272299262646401,0.15801044523073693,0.04728148794088725,0.21043574915214974,0.03981381663023654,-7.49019618980882E-4,0.02835917855346064,0.08168907123452893,0.21751946029345262,0.011154938145691053,0.2670534717530009,-0.05235207580300439,-0.024199962600871892,0.024033161129750694,0.0277718455403501,0.014645021414049783,-0.05215733579010548,0.2584674682403895,0.016366914538465442,0.091452312073869,-0.12239466870291005,-0.3484602315590301,-0.28185012386817315,0.3807489841040398,-0.2524347878251146,0.2060646237200146,0.49660980099522883,0.03230848444746362,-0.3095672882228478,-0.481524312450966,-0.16009410816895955,0.14383121286808448
-0.13590311806045513,-0.21680606729465732,0.04594447846312966,-0.05786385263352492,0.08022742796957924,-0.12464115923386994,0.2244249718722446,-0.14691848743481156,0.3026319006826647,0.02640620725040542,-0.10764859707927225,0.08106764595457348,0.6149894927463196,-0.1725110668276076,0.12296466357141256,0.00578895756343561,-0.0038738238718541516,-0.034085032782850806,0.0175695287739933,0.12817317703320003,-0.012580483860920018,0.14768376075743936,0.01770558336939929,-0.25174042717890005,-0.17785437060894013,-0.30869329612122537,-0.04445985222498942,0.1014026218991806,0.09833700924758487,-0.21045261817263622,-0.4110511372588454,-0.4186853749816697,-0.44944805593160947,-0.06797612833628805,0.08404504738417745,0.18428359532748909,-0.14907572537424207,0.007305214620910264,-0.06400808292806841,-0.05856810755824948,-0.03945393922083871,-0.10862449783993446,0.11089535512048974,0.06216167394300526,-0.10487478400086402,-0.03317140742970762,0.09098482413204552,-0.029866126676702683,0.022875212136537062,-0.15330210104866954,0.38279184464139154,-0.02132138490863025,-0.026195373291449955,0.04760936477911315,0.5781395597160577,-0.2634127398178955,-0.17982897639742787,-0.31092277756963355,0.24179025163257695,0.0938207822324885,0.10168027546186788,-0.33414947094387903,-0.105857304854247,-0.1249002171589044,-0.3628260039739816,0.3193827190683942,0.3412508047865523,-0.15511942837948767,0.16435985568282654,0.17251108116334743
-0.2773331570168068,-0.25237024585686874,0.03912594916301999,0.007305398052301,0.17630646184751872,0.09057471514308836,-0.15540518689358446,-0.18312424449357198,0.21768108140238987,0.03131580462806559,-0.12636673325654701,-0.10120147400022028,0.16077284241644038,0.3070132485162981,0.13607217718496362,-0.12310204946854297,0.010800939215342233,-0.12151210069644716,-0.05323239828030861,0.05324442933577162,0.2541158220474888,0.12597459547654666,-0.10992759913234701,-0.13948254510008393,-0.14339857416162527,-0.10244381319962875,0.15613804348965046,0.11334649624823262,0.06410716164229549,-0.28593418539760757,-0.275865191476901,-0.09334145943440723,-0.07851593328285568,0.1892975129672428,-0.0776721100652373,0.08346371490192023,-0.2101674631671096,-0.15290179529441242,-0.2545803265610516,-0.030098300284029055,-0.05492683935051012,0.0949726788677827,0.08989033983728947,-0.08454785142369563,-0.050047816455502846,-0.05686824904082199,-0.11874828983002209,0.012190449210932118,0.24331837359924405,-0.19600698049130466,0.22943731851848495,0.011022158714935802,-0.02729311264914106,-0.025840169808901314,-0.001810925132001568,0.20965255282796505,-0.3392047606814655,-0.28715105004897434,0.1693276414477951,0.2556129713624421,0.17823230703788245,-0.192250947806137,-0.44098690112816746,-0.13354128404498228,0.1783146718822823,0.3227856335297418,-0.06832048517183786,-0.321238198987459,0.05670521551485358,-0.11014878689997903
-0.05302294084071045,0.1326799138859,-0.16018390868858987,0.09548049232340924,-0.055006183023349926,0.02678390121018348,0.07790089811480817,0.15173868429872442,0.19202495185875412,-0.06046083714658286,0.01497353673195458,0.12361103331175056,0.1299689149624654,0.061799668799933705,0.01133542462559849,0.08365669753884464,0.06799246936193233,-0.1164755051911973,-0.04816724353671478,0.07301829157610147,0.041384915490595545,0.20589397655198366,-0.05128730382785679,0.13546839619899778,-0.089877908228687,-0.020621149263198787,0.11073806382095656,0.1168000752667004,0.09315154612582767,0.03668360448830996,0.11580861140295508,-0.1256683936248587,-0.02280999041901499,0.14214404697826524,0.04018090762128429
