0.33250351360617114,0.34027316049786166,0.10268278150900965,-0.01769000422092499,0.32500671354627525,0.2866333522884316,0.16492470636928283,0.1763692664781904,0.14806838593623212,-0.026923804281835075,-0.33346563256651635,0.09599861942306415,0.08524396681958567,0.11284242231294153,0.04849495912463227,0.18207460826846866,-0.1393385537813073,-0.20386253048529937,-0.13274716499986136,0.058820165625503254,0.16186188647199565,0.07996085015426921,0.2296091515180283,-0.23310516211166527,0.09063676162348462,-0.2184621452824412,0.11181267184528533,0.11228817584998287,0.024724755012016778,0.2115024734102598,-0.1001025075368719,0.12580602418742753,-0.049921576303352796,0.026395788831387577,0.13507949480633166,0.051233863783904654,-0.17559731121671285,-0.19649700976125906,-0.24357023962949118,-0.259728941530571,-0.24941412490077333,0.16917112928812073,-0.0210207963839968,0.06601625293420502,-0.14480876600647885,-0.10665925329279953,-0.12488230186327441,-0.16524136672795134,0.004865910669660463,0.01721326362050021,0.015109742805619419,-9.627621112016094E-4,-0.02749269725394883,0.03286918549747015,-0.0722303939747812,-0.019653420629403003,0.05105549742508127,-0.04162335725469591,0.15682698009203705,0.31080733865770854,0.1990241199331594,-0.13563616225431946,-0.08261865462363319
0.30114010422347937,0.2818282013588912,0.1232200961921883,-0.18910185722564257,0.2020508705307997,0.3647553595457284,0.1386162091972874,0.09739472283120049,0.17791192449609902,0.016777027646372206,-0.3302709919012082,0.12666888665983214,0.08973822473652338,0.13545986733127083,0.10436400621038315,0.24077322211876348,-0.14433574155159154,-0.04051031564062775,-0.06043027545529175,0.05510297878796638,0.0912450579043996,0.18675598532254187,0.220466570176697,-0.10860548038893117,0.11066801058438738,-0.251468224892899,0.0872484510609557,0.05219691703070852,0.18970123405178005,0.24657065979301365,-0.08021448900186488,0.07501342388622856,-0.1439183596612859,-0.021015144946070114,0.06883502333047549,0.16213662771758022,-0.15577759095521337,-0.15182791284294228,-0.1405354535052005,-0.25396763754495594,-0.3184143975726606,0.0835198879179891,0.04648607698497815,-0.026756133451876257,-0.07003228581957598,-0.0022912972303306078,0.021040517536409786,-0.15336424083843475,0.0035197174373739755,-0.03460630953311784,0.01605772417321401,0.03382315204086299,0.028039012112497944,0.08801959703345585,-0.04331059238859672,-0.006203097796707574,0.09819944265103325,-0.04817814794684234,0.16972423305816037,0.22246562957581667,0.120138581810185,-0.041208084446481844,-0.09269851846191825
0.009126849808107315,0.026042402548008183,0.23942256459496772,0.11863068693141189,0.154271714163519,-0.22223748677253222,0.5849270693578211,-0.11967825715440461,0.43720478353786,0.016556998177202922,-0.15841288686669858,0.07386877480287103,0.34255612596280915,-0.22055016184107576,0.20915981793408756,0.17294124130986535,-0.017365612655255824,-0.07801164628740712,0.2553862420104349,-0.10216957622589715,-0.3708921315035464,0.20868401116985685,0.12450312736027981,-0.22396371771847365,0.004634767725383571,-0.29548479841434244,-0.40147114664933414,-0.176643038326087,0.26913302250647836,0.05335434893008492,-0.1836631874073305,-0.19385143631814103,-0.1826590735653139,-0.5396817642087287,-0.10800506193286957,0.2667317689942281,-0.012871156128880831,-0.06448441232493525,0.16040529631211625,-0.05274064226607747,-0.2751935192878961,-0.542022273602456,0.2065246570106911,-0.05677263197114537,-0.012993315852782355,-0.02299038385952173,-0.01739812692736379,-0.2067353855236247,-0.38772945056329394,-0.0594806658294038,0.2345316241905359,-0.003778192152288362,0.043549794330131494,0.02695316175688033,0.3154656730958714,-0.3301523195397951,-0.06811124037367533,-0.13340227593236095,0.11141826673365272,0.13478296397821235,0.11055100789370764,-0.24415373688694827,0.4345520680203307
0.3519194537372804,0.19275129315625528,-0.10252981343085035,-0.42128655435368484,-0.004371069470868332,0.514589840697197,0.5605535363482087,0.18363707487354447,0.08951206870666147,-0.019834036193453343,-0.4042066805065014,0.20462807949769374,0.016492625962740776,-0.10398550774228502,0.027847138919457653,0.21640135675651215,-0.12862091662496172,-0.013311281851524635,0.15544840614379368,0.14542585329473562,-0.511838396518612,0.050529289065106085,0.19883425278188102,-0.05321438090519566,0.306570029837787,-0.26704126186688765,-0.01142563380295356,-0.4141381970061849,0.06275792535518972,0.30406871887943565,-0.017392914366806015,0.09921692029803875,-0.0407055138739715,-0.2346267443430986,-0.2849676971763066,1.6540654635199166E-4,-0.19038515890669527,-0.12818161831025562,0.0746034777602139,-0.21883522227818825,-0.2967564988662086,-0.5447339533623312,-0.08726752916501354,-0.005541115311505648,-0.16447772285704793,0.08794305809350497,0.014400521845238167,-0.10052518662090974,-0.6674181712273791,0.03374673304838599,-0.07605872000013607,-0.017626395335516166,0.008196575259950357,0.17403808047118566,-0.15934747127513127,-0.23617092811753876,0.09935743266875605,-0.14482073273749207,0.06788898121712854,0.015505898326406415,-0.1151347670126531,0.01366791713210088,0.4770341648491324
-0.27864818171079936,-0.04670529379129402,0.19677791905099748,0.3300255686698931,0.1020972460817473,-0.05063068926658874,-0.16899533373909362,-0.1378631923277457,0.11214570384569578,-0.023507308564118146,0.12829374754632947,-0.20875511562018614,-0.5764326950975012,0.4971564133803572,0.06081136332582496,-0.1336733778861407,-0.007287129830482495,-0.14233929692060637,-0.10020124476556219,-0.21987966330116437,0.18333707756787976,0.09912770132442003,-0.070834028366341,0.16778132219076564,0.1404324644466991,0.30063472600357566,0.0196810666954274,-0.21515254552254673,0.04313674275290866,-0.03679189997003656,0.24736961294803989,0.36481812549646986,0.4458360807783129,-0.0397332072065035,-0.21914579863778144,0.0646937519706427,0.024966476476088843,-0.08793882934605966,-0.1474198257414663,0.01676179884662541,-0.07279524865082988,-0.026839985513531856,0.058694260462471205,-0.13331896227307588,0.08617233009601674,-0.07692300662560707,-0.0862592753750775,-0.1299006882099575,0.13828805675302488,-0.14662308362970192,0.04003432887564291,0.03754613112849052,0.03511699660807166,-0.14732705337459034,-0.5744596275469858,0.44455702080159615,-0.19635129374091911,0.030705460347751335,-0.08642137885934911,0.12326102907728992,0.13008094813628124,0.35851150480778676,-0.04637557657904716
-0.4002219445551151,-0.3373212236875927,-0.08682130319702645,-0.07864527404119091,-0.0091664291305215,0.23979122237747774,0.24007405621104197,-0.26170092342146406,0.05480529401029419,-0.03631012723879045,-0.024291123692380547,0.007945781560429334,0.1732401975141715,0.05656769986842295,0.04797780178439652,-0.14886525961634384,0.0565423296423479,-0.10302277511130865,0.03168571340135183,0.23355079584970004,-0.09149070881452495,0.0024858909528007677,-0.2193108106696427,-0.09024520128845817,-0.10064251510060741,-0.042498658234779815,0.20638279220406555,-0.22560503962225725,0.00977253622174074,-0.2544172941444697,-0.05430807731488748,-0.08377804434225927,-0.10711115215126712,0.2681485103399924,-0.3193670321339636,0.05880239322803196,-0.1905547630636091,-0.02174025095495834,-0.022404627684508457,0.03622328986425019,0.2501974256282302,-0.24934492219826554,0.07702102527176963,-0.060637354173715664,-0.04376299097547008,-0.07199359837149757,-0.011016537812870942,0.22590061475439557,-0.0527207215082745,-0.15881210122476805,0.3073382835882525,0.03425918327343812,-0.03544559389972216,3.917548580351052E-4,0.17025498425984226,0.039450480249072564,-0.39900865507418537,-0.3955708568229737,0.18204793801529479,0.08176409022472189,0.11307728099004163,-0.05907861715998526,-0.0934701849785645
-0.44208781606875114,-0.4719497550912902,0.1939664623504811,0.03640101254466107,-0.21487978388120338,-0.2782586103874791,-0.12362354084163672,-0.29333042355722705,0.4117159174951397,0.01729911034978089,0.25311303414742026,0.033623518632540636,-0.01821168055835471,0.1727984539327826,0.24875579270427395,-0.12093273423494376,0.13177519864842357,0.14532223943593675,0.033899179866601736,-0.19598521680541597,0.14744923149376965,0.22472540237993766,-0.18034110105194767,0.11098577851305555,-0.20981141033622489,0.023045660473683862,-0.2059261736968692,-0.13408641729803467,0.21905474219209586,-0.2596292504308271,-0.009973274002478983,-0.27188924262012054,-0.16139815978038577,-0.0931922852499447,-0.19001067630277957,0.282150401851897,0.058521704670993574,0.15974960273361183,0.1746572302921176,0.13080102923976086,-0.004162910328974492,-0.14728189881058076,0.33607824129389546,-0.11431573186777613,0.039604086318587084,0.05070394572885505,0.24900980567335287,-0.11130404175391959,0.24923695463708073,-0.25639570850848753,0.3482985127078498,-0.049590253119134134,-0.03301713148181076,0.05135428966781236,0.1792517115850682,0.0745419113522464,-0.28356645703364675,-0.2611541990758922,1.4899949479829744E-4,-0.23149545496561466,-0.20469250887454463,0.1758935395889797,-0.1440699712212199
-0.1720918693652045,-0.08603724203021852,-0.09558694287334435,0.2041476382115748,0.1508523836673649,-0.014493062208178987,-0.30407398334246893,-0.13060500795059374,-0.18424684978378883,-0.0416240769116658,0.11793667344931572,-0.2044780152418984,-0.04799106559207542,0.1721235472141601,-0.0689743921719393,-0.1711388493337418,0.0399266568186698,-0.16402827758134372,-0.18754773628252677,0.11866192920397702,0.34606067482561564,-0.08993043272822816,-0.12093426915650438,-0.07502380467751552,-0.18500639744711456,0.11839754277957541,0.2574542320962239,0.1923361227358558,-0.07675392914722783,-0.13667913744996685,-0.035043903666017374,0.055163656093180025,0.06212604809865609,0.41480991599041267,0.14597771678548346,-0.15044277155462366,0.013324386790295677,-0.037596958799227406,-0.1501486113567946,0.10722913103992623,0.2558164196097678,0.3457365238435902,-0.08054595941324251,0.05567815060235652,-0.0076072020644671785,-0.05504245911578252,-0.08029123155867049,0.16384475162671172,0.3683520704166522,-0.012287977777511587,0.03176570646734623,0.04739700814378921,0.046232164814507676,-0.14271515759771816,-0.015938982994537058,0.19348676550791616,-0.15479864698954646,0.06373714551910235,0.01860853070703055,0.1516678058390133,0.23251834056506593,-0.054207792824821244,-0.38880198531148275
0.5431439198422893,0.3703541534652965,-0.25464884247432884,-0.6086726209069008,-0.11411462475759769,0.578879102198713,-0.2137030797849607,0.3242954630603908,-0.24157606475453403,-0.018385252839016285,-0.3352920581048122,0.34531962777373765,0.2725932130795501,-0.1675681233213545,-0.1756449530937475,0.2545854892335498,-0.11699355470986865,0.03773151519087324,-0.14146251582994057,0.31073896704742865,0.24859122618550214,-0.18893989818740659,0.23847268090946902,-0.10024841117995209,-0.019960078125546746,-0.4023273716669871,0.4764902960029808,0.4325775470587841,-0.126300896939478,0.267841391860853,-0.05248681306677338,-0.14681077039429594,-0.31357822498721505,0.4619290210485513,0.3118353615015553,-0.13078069184088262,-0.16790698574692745,-0.02721529886485386,-0.1519100591692575,-0.23492734691083367,-0.06623322387009727,0.49569244453899397,-0.2960620655349054,0.1835420783114903,-0.12152821931543341,0.07769518848228506,0.14682985299779788,0.03434804817057761,0.12429829028008257,0.14409290852896545,-0.14104879905697304,0.048247349429182046,0.042612779307330956,0.1524040920304327,0.1706680939494988,-0.19435002217580472,0.29170648318403875,-0.05423503440108463,0.12873087027995458,-0.04995792316577643,-0.16588157325610808,-0.15405079595945528,-0.4469481778167177
0.10126382667208819,0.12705686307898886,0.3506325326116995,0.32068061439321277,-0.054352170945216695,-0.24878360306820008,-0.1664158973032233,0.1000878038772438,0.26822887666756096,-0.016526065953124024,0.2111968186743055,-0.009394335588121576,-0.32328000885256514,0.2294133712288115,0.20264099190939516,0.06658546121169408,0.011787388691716295,0.20428917006921188,0.0891874500599495,-0.4526383961604207,0.26435108802521784,0.24619866650513386,0.07995907492426534,0.27500903948798777,0.07215594162060597,0.24176905989924508,-0.41077549043170214,0.012545000900929274,0.2534978467873844,0.13022711824772382,0.28654212050876693,0.11601265630543864,0.2898297094145607,-0.36042581207617996,-0.04448112486418808,0.2503516122957126,0.22914163585922548,0.15048139392977403,0.1773127760989612,0.14552566928234723,-0.16895077415149468,0.06921072729751353,0.3073058905831363,-0.029268514164446997,0.13493016690324938,0.11298782769638335,0.11105124350446766,-0.243503985112213,0.2640942480551413,0.07719141471785902,0.009311761618152063,0.015739352491039735,0.03604092114713829,-0.02491411944034906,-0.08419832395909714,0.19209239305451686,0.2032615300710693,0.3160006675528034,-0.09049689646588274,-0.2000031452392882,-0.13931378808801284,0.41209937810995695,0.15081494875165682
-0.43458271722234915,-0.3659310745280598,-0.10274741574078003,0.1670501510058802,0.07801084277738071,-0.026054088450213453,0.2939072445290987,-0.2629969503475229,0.07050325656857298,-0.009699249992037494,0.20626990681623594,-0.13175496018808897,0.07247019401870076,0.08799985975102523,8.216738058037845E-4,-0.19477134724671027,0.13199688830496503,-0.050757792473925506,0.0915043684443383,0.20336947770353478,-0.21875301425945698,-0.008340870404476893,-0.16313312591263882,-0.01720196873723823,-0.023125795493986905,0.11380838002699845,0.09417583923358197,-0.25674918164960747,0.044170001663228854,-0.21190143214647458,-0.018640442766485524,-0.050795358088118366,0.10206914849728188,0.1820126287138515,-0.2779387429686074,0.04489991247972786,-0.07166526809572357,0.029020239279281195,0.1001420018769163,0.09636154687706505,0.30033928526232195,-0.4247826626583355,0.10809908481713616,0.03859494733004251,0.043107079614392606,-0.005953286603197557,-0.0727213432206172,0.28538621930717134,-0.12129604543098607,-0.1210013192767228,0.29778387425577135,0.03052879274274517,0.04916350108029205,-0.11804991701552153,0.12828388256251833,0.0913036404031455,-0.24185585342465485,-0.13507391278124253,0.13344955051283397,0.12430926131222622,0.2015551791620131,-1.1824751083178407E-4,0.2009793016183065
-0.029869161632963936,-0.005800143352309986,0.09841369967133329,-0.15143396709572887,-0.04655169681436464,-0.20983521866574759,0.04604225722667035,-0.05181687595361999,0.24376059858184657,-0.013543619952879338,-0.08645304915542679,0.15437663220731823,0.5587715835167522,-0.30689237162693894,0.08501655684204916,0.038505383324334265,0.021166580958665228,0.02290316175450329,-0.04130210224473804,0.09043792083674013,0.16292687964765024,0.1264274539614792,0.06640101198326143,-0.2634204817687248,-0.28562675546583827,-0.3336786044744249,-0.07037488909778548,0.3398166627497648,0.14582684698153162,-0.1298999859513304,-0.28035549540160165,-0.4133151433589252,-0.45245102389613256,-0.08794836554601758,0.26990403880042957,0.14268066978106245,-0.08378095565026401,-0.04238127095788326,0.02034045016303911,-0.034543109238199365,-0.06972979802039012,0.2091170787763699,0.1294884483054849,-0.050738908919183166,-0.053150784169781626,-0.015292903675228899,0.14238243692784527,-0.07915777626587486,0.11390618877559212,-0.10582615110237145,0.14892091513556088,-0.030726351569403856,-0.049516848574093046,0.07421372115306621,0.5654288737579818,-0.2633419728220041,-0.01313204159386435,-0.19438913536902017,0.11068189772478579,0.07006038339328353,-0.06061558291771428,-0.38601428805504,-0.21580273610788203
0.3979178214893392,0.24438746404073058,0.07945098037726721,-0.2555486198266517,-0.3336185676674024,-0.13087126971847837,-0.6013229096826755,0.19337471797382538,-0.017071307905272008,0.042440924415694026,-0.05393194587793454,0.22855790235486592,0.00227859471784044,-0.07868358881478453,-0.01658453219793326,0.2180694861041832,-0.0012554764387605567,0.24099929122230837,-0.07499466386780826,-0.26830313589613974,0.4926091553606906,-0.061809176981342466,0.18067016268800268,0.12273141710834905,-0.13959837315903653,-0.10326597552874413,-0.09430478698136226,0.5009812050108584,-0.04194763127668736,0.18552563040986148,0.0835415016489634,-0.20990743842286555,-0.17287908759092943,-0.03492272406687077,0.37543365851475746,0.027270156896006897,0.2046065929617942,0.10400338709490473,0.028044767596756056,-0.06668263406455258,-0.2734059198494087,0.6647625903888652,-0.06284901489482422,0.03264736525491247,-0.017222772505314735,0.14498746040858643,0.33264147363052377,-0.20341245871732883,0.48111085566879064,0.1107251289206077,-0.17882188756666417,-0.01724091403452515,-0.0425167882199514,0.14610878796378093,0.14020458073134706,-0.07435723624532667,0.3031930500816768,0.23657149198448948,-0.13868118637978116,-0.4985362680711295,-0.4445992588994416,0.04768789031421176,-0.45784464268646397
-0.425296147008737,-0.3053028383217811,0.0580939617921859,0.18965311600112475,0.03831970274327471,-0.04612353793252637,0.08867077160454769,-0.1970066275020069,0.22771210783393667,0.04301839810126501,0.07317954783559716,-0.10564934227514715,-0.01495261690691188,0.23039877956119542,0.06421879460063125,-0.19627528244306983,0.017548077842021788,-0.07930869971605926,-0.008490960057757567,-0.017289238904184226,-0.02051300723420533,0.07627783596136253,-0.15382683513083556,0.05064768227153289,-0.030935300544425767,0.10500560504952035,-0.0011180977102434714,-0.22841317595858207,0.1078434529352009,-0.23773762401290544,0.029175104135932,0.019670583988585726,0.019851686274482954,0.058558564507116564,-0.24117730460795642,0.0789446615835932,-0.06617806052123494,-0.010324833591200466,-0.01645152297510235,0.11691689963168236,0.11192267402370958,-0.25450806369402657,0.10553785194097313,-0.11803666639565279,0.011457411673731882,-0.03131261332831414,-0.04688760703522081,0.06665853598257071,0.052091252803531246,-0.17759822250515472,0.2935629877577447,-0.025977520472811967,0.03975273707167369,-0.1055665410587022,-0.05462474110042055,0.1675152941464708,-0.3747343256733128,-0.2654685110191785,0.0386026068780966,0.04239804711971118,0.1343178094168384,0.041382497826501566,-0.01562484191996567
0.004410006228266577,0.06117633647341414,-0.055420235304539656,-0.16416497253363138,0.10373785716868206,-0.13289330096909913,-0.1012448139057771,0.04577644001949593,-0.005729302088528888,0.015341733295659604,-0.15591208155916184,-0.019594741388822952,0.5096870557564004,-0.26275460716648813,-0.03508630227295222,-0.01652002034440728,-0.04169485522153852,-0.08932974828095859,-0.11746760861956752,0.18737335174964845,0.1530893044754032,-0.044065266265129306,-0.021145763813056283,-0.326751144818044,-0.2621786838027064,-0.35881976462662946,0.12624855405955182,0.37559335128001214,-0.0711138931411182,-0.16409325906086872,-0.35053242331942414,-0.25931738789113834,-0.40756651719050035,0.11919522863978836,0.30550680484967124,-0.07104329853795059,-0.1118136547572789,-0.10818500456662376,-0.17341659409338034,-0.10512557279290022,0.07705106611132488,0.2904423100890896,-0.06143319503893799,0.06023545227039024,-0.05609613224229479,-0.03838146858006881,0.01651944318890753,0.040311878671573174,0.1447612306509767,-0.062236734210281065,0.004096278327980748,-0.023521606584095824,0.022111496677873585,-0.02659411597550759,0.48389584520654916,-0.2680282348769133,-0.042746839580945245,-0.14229531521513267,0.10678213829117857,0.12126698593081757,0.08983132567816791,-0.5188824831658164,-0.3050693043805411
0.0491861683342943,0.016132428544213918,0.12633749945444875,0.1727434010012392,0.28043582025869246,-0.2791927019196377,0.34746641647373394,-0.006230430742414036,0.2077537994898951,-0.04292222558762829,-0.15035058566022566,-0.05730263122485081,0.40293417291862543,-0.19137210314673403,0.07142298160239104,0.041921178149562685,-0.02818554392096279,-0.1869763644488917,-0.025885752383981785,0.04436789033332256,-0.17601722766665281,0.11247425511898186,0.0874748282088479,-0.3515751837565839,-0.07783153181387488,-0.3072822183630432,-0.20987392248518155,0.049253713466647205,0.09070432209269992,-0.1773697709202171,-0.35531021773681004,-0.10883418292597138,-0.2631382411808996,-0.33035124116637454,0.14636454105449156,0.16368388828798808,-0.10194576334329916,-0.16435669703887923,-0.031101292653331596,-0.1051418531421622,-0.11891747826422094,-0.23903461329503317,0.08780635899160938,-0.006015430283755045,-0.055911133208569753,-0.0759297421035703,-0.09606619362994832,-0.08188590908010857,-0.1770874695880192,-0.06579891415250352,0.09031072232866105,0.032043591225680956,-0.012265032421346557,-0.022255530131938733,0.26127224385904996,-0.24003429260404546,-0.12114347899732818,-0.09526206801725294,0.21413243933072937,0.3406058671621355,0.22946973312687555,-0.4714467823538493,0.15871543826213325
-0.2538793810692465,-0.18142124926729955,0.12932123471051143,0.15533818287078066,-0.049637550305536536,-0.11818343719121462,-0.48487580248672696,-0.1006839044687438,0.09722775678134306,-0.03546770901461931,0.1803082129233995,0.008192893397644221,0.2959585372314131,0.03061976726062558,0.04717676120198427,-0.04694357573619324,0.10355108482729354,0.060232954457604876,-0.11655335579484641,0.05326455374086999,0.5235843408061934,0.105347307448315,-0.05854116183282403,-0.05496451734520179,-0.38641379786649116,-0.025045371437071997,0.12990612045263206,0.42827929871995335,0.07773174791965592,-0.2671264406765318,-0.12053458937802522,-0.26167910952427226,-0.16730715930811443,0.3309090560054788,0.265789773784191,0.07870059644152677,0.06247156549814213,0.08409415184528848,-0.030755330796662008,0.12199587067868896,0.22733904550795495,0.508488474271876,0.10302797015838505,0.08387048534329496,0.08659565502464005,-0.05527378682251231,0.11470792781375817,0.12137161642952812,0.5575077799965318,-0.09359136921345321,0.2854836185477297,-0.030737963922704205,-0.018720653116779208,-0.017943362597870195,0.4534759487365761,0.11504773588799225,-0.08769459602557116,-0.05002993204822979,0.12226010975647147,0.06030063645412567,0.09161804460815684,-0.07663580302008376,-0.5725626659474504
-0.38133368766930686,-0.2531325367703648,0.2783706789242293,0.39192555627120107,0.14992467958771774,0.14324952224044296,0.06073783376686629,-0.264211883333443,0.3065553374812201,-0.03922504072446942,0.22944563089605402,-0.12396986822437558,-0.6959473819873311,0.6925820237550926,0.21090279666801004,-0.09586376659453606,0.03607281294928461,-0.02270127769639106,0.0714020515777116,-0.2484631375231673,0.029495107361154894,0.27093330234250845,-0.1302872076080737,0.32999016517650487,0.2352594064059381,0.44512589190080226,-0.10866806768550619,-0.6029768384312009,0.21710202070461393,6.491039171958478E-4,0.3235993591582842,0.3824113721226333,0.44008315530504977,-0.0724240221911491,-0.5958343998703307,0.28156829791143057,0.04822022293237715,0.04968335928222882,0.04263523021019167,0.11694987350104878,-0.12439796897032623,-0.36902782731068,0.24927773438122297,-0.12905442493597993,0.13001782978728957,0.002856988530816771,-0.05913887802978427,-0.15990993077061463,0.09129576020444144,-0.20360634529292446,0.24935051833957256,-0.018570116599504062,0.0120065390243001,-0.027242878178337832,-0.5331598509753354,0.6088131796862161,-0.28626580203846114,-0.07371088216965445,-0.07464459200751226,0.05018531157241774,0.06378374314818376,0.6459984672826791,0.22886894391712284
-0.35023922622081344,-0.2759479527889738,-0.4292070159705231,-0.02873151893452409,-0.15594203693393954,-0.06110900882933519,-0.002974403901612201,-0.17051772803812154,-0.4570115001706018,0.023764373679231635,0.32014698975927464,-0.0898034715338438,0.17525178041782477,-0.24188590790063955,-0.3272341157973531,-0.20999735621065266,0.18894541656334435,0.0012587939297980812,0.0511344765482952,0.33967439625228857,-0.340741411415027,-0.36632044781271184,-0.2700250115943706,0.0594514590622379,-0.12705393743685875,0.2290175591926218,0.33136988891394503,-0.11028698199564084,-0.3352118444675037,-0.1808230750469303,-0.042795159283611876,-0.07029448647618419,0.03039056109070107,0.48568865414375745,-0.08706019405790494,-0.347025040478757,0.08280903009469319,0.18616692583484962,0.14890122255384175,0.22481786392231706,0.6658668216241738,-0.171097843412461,-0.1601839310279641,0.15923148575279394,0.10295021257016175,-0.04793154988232731,-0.016585900381101224,0.5349285465417176,-0.1706300429212468,-0.027825680735517423,0.09052728520328361,0.004720490107525822,-0.04309083916615909,-0.05104958855815304,0.25531587390570765,-0.0425853358150639,-0.16292207977988754,0.02413661738683751,-0.029238229855515708,-0.03870788231703195,0.07282262302547694,-0.14127532968839354,0.08011912386978602
0.2724724264980238,0.2508106987860593,-0.16200668908657265,-0.009252995366062488,-0.07648574079935441,0.2703975421708793,-0.0522912856882665,0.1995729116826901,-0.4051946368474262,0.014473050686581224,0.11044836233383352,-0.021016819342573594,-0.05163488575536655,-0.13799470281546297,-0.26186013224784477,0.01690737533833864,0.038948368202634975,0.10568392874387682,0.06177388027689003,0.22154336429256513,-0.0431647905527744,-0.3151267304749004,0.08763362960934999,0.18251463368075646,0.04999343210531024,0.21331635959053907,0.295355956652007,0.10778549860698959,-0.24062544285269055,0.20616220171889843,0.29442024142261874,0.1743740124102872,0.2718137462210673,0.4222315593333539,0.02668023422250457,-0.22449295842514827,0.1354136380645142,0.03135801350572242,0.11617910663711838,0.10522704902626515,0.33582505002983765,0.2344093458314398,-0.24302958598484886,0.22056446007735267,0.027266558626510853,0.05130235263401228,0.05744473599923275,0.3126012426442692,-0.057276268075380395,0.23481307595716214,-0.16857630837970217,-0.003690589644390639,-0.03616445338127425,0.03327866724413115,0.04215044678265347,0.0840168766422069,0.2566875947563476,0.37655277002049964,-0.01715804401449691,-0.07194877353296407,0.02702687871770602,0.22272021231467873,0.07653030386309315
0.10028069756858922,0.08563075896611279,0.016459222163462628,-0.06757898527125536,-0.16917852243918194,-0.20500546896472546,0.04358672409635742,0.08080886857575227,0.06150262785215993,0.005012413467975263,0.02501905669593346,0.10490357835872534,0.22033194709497864,-0.3301449769346716,0.04978846871286387,0.06322016689257068,0.06342962037370582,0.13892421340681316,0.07551783714152535,-0.1292747968194745,-0.0755317242759281,0.0998224097996121,0.05143517106004643,0.012569799384257254,-0.085645872545464,-0.104821793585735,-0.23677943570388074,0.10072747542217458,0.01423786083400477,0.11027282209736881,0.004892938960379574,-0.16578908604150103,-0.09882741293661869,-0.27472311153518336,0.10022839113402215,0.10083033985593948,0.08114234058232396,0.07189327403279985,0.19328478361285664,0.07200479011766199,-0.00923930016973543,-0.053002504471144185,0.03454586737825787,-0.02160920743277711,0.03825636081955131,0.08506882428724138,0.1346601349178475,-0.06945627451548904,-0.0596538860608614,0.13134322878955132,0.014977107228071612,0.012499392799548328,-0.045385257194334554,0.07514240312072115,0.37226974460787415,-0.3077751114867975,0.1591560196716685,0.1179183473953449,-0.07782398154835293,-0.14126239415293296,-0.14711216798094934,-0.12388781809672733,0.15080599652214288
-0.12003263697993852,-0.2568865612709051,-0.00820196980644339,-0.588251070063188,-0.3165393467617258,0.33400057712719705,0.3605451462460189,-0.09808548388789881,0.44017781110589993,0.006757806263041996,-0.24670764812795615,0.40590311090506714,0.5200719883118566,-0.20397602260531156,0.2750333252077725,0.10704404950389924,-0.0595499605675619,0.26330488207727043,0.12014915887055554,0.12282046789937061,-0.1006158897247836,0.3000236998289693,0.07609960729366523,-0.009912597023366372,-0.12232979729501774,-0.46807082929868804,0.06022304712746577,-0.09482669716109927,0.2547149485982767,-0.08092132943028055,-0.23964030194830274,-0.5485037282785555,-0.689258510124984,0.006139697509629754,-0.14660460040902243,0.2618580163364114,-0.20134290154765128,0.13492959548163028,0.22971044186311798,-0.144711289708352,-0.03414026282550158,-0.23392901333932672,0.24201262745725116,0.0030831105315647566,-0.15122951233349954,0.13217863603998597,0.38027366562402687,-0.062796845871736,-0.15705866153352482,-0.21981059731110106,0.4031999584429866,-0.013154616195214734,0.028181502586094212,0.2584121072488609,0.5676125488859266,-0.2846193796837,-0.219805780412543,-0.5727348422104034,0.14377757238077116,-0.19100981285672214,-0.3194192233844984,-0.02667132457690466,-0.12410218059588918
0.3800572566118599,0.2771923308209867,-0.19234508520106305,-0.20118465739783334,-0.33449298820302886,-0.16791475384183258,-0.38764376175965654,0.24769055003887663,-0.3656237249734272,-0.0015265091118176963,0.09472193106519489,0.19549274535611194,0.18371260709998966,-0.38208654629767447,-0.15276316627204972,0.10568030183903422,0.017174661089284952,0.2321251680612391,0.05872494367340584,0.009012182117702968,0.15625781514001752,-0.13035451049451763,0.11678539606331054,0.20027435458907922,-0.19817293151260088,-0.01328704996691011,0.032268723067529065,0.48198348583748424,-0.1904141816248881,0.21176340592282777,0.10396925549650468,-0.23399339147902998,-0.12361510702603183,0.16679112701148086,0.3312108143333238,-0.16076654986897543,0.16676991378305914,0.20807505122120776,0.1401577053465205,0.04123546021224845,0.17690490821164415,0.444767224267979,-0.10874487600980591,0.13616395825613428,0.08289385474448396,0.15463805584081056,0.23112458250420823,0.132466798570161,0.1506608759147687,0.3485346060340129,-0.28166972603846596,0.008279530660466362,-0.03629869857730942,0.1597754359518124,0.3710094704069423,-0.3099451492179832,0.4546559199731971,0.40362598977310954,-0.13854976470272323,-0.41959612364613225,-0.3361255085572983,-0.018950441423366392,-0.09089960959008989
-0.056752405950288534,0.1369397517644881,0.19048284003589333,0.5260699182784441,0.2850106465209436,-0.4088754005602277,-0.20451254986864867,-0.024426287031230048,-0.05884328335854203,-0.04556235526577384,0.13650042090713668,-0.2931741842672075,-0.1780789531527245,0.2288140287791449,0.030432808172953116,-0.015376984606200203,0.026633980627630876,-0.1253076623878854,-0.0911957459541018,-0.23944325247663534,0.2354499567239203,-0.004841601457413228,-0.0069159410562403155,-0.0860646553641362,-0.07036912147684427,0.2734003689197158,-0.14004490705103317,0.11293146875094333,0.025704218482293185,-0.09395064256413332,0.07883893034877862,0.23845476755846118,0.33405936765228134,-0.18446862123129767,0.1626188948321965,-0.04903911501059389,0.10303094837685395,-0.12633414997716075,-0.09811820638600072,0.03467468935658301,-0.025639829692290308,0.1711987197581742,0.014838941378756567,-0.032611779325948574,0.11913498473567673,-0.11253858900666129,-0.19197288211699937,-0.11688981158445921,0.2849764169863901,0.032516227721355734,-0.08277967308587574,-7.638286185407753E-4,0.02369531828322753,-0.20151479529272637,-0.2011987794841571,0.2291522815821844,0.053495845354140495,0.24643448913751406,-0.0010765317059052727,0.20661316709913166,0.262107535400986,-0.0897103436032999,0.004269546437483687
-0.030314406213587247,0.09965326033255802,0.013736075012349006,0.25959206810996616,0.4339075721593314,0.1498739377862827,-0.019445303548026125,0.019714055960814596,-0.1596737218619249,-0.02743264719637528,-0.030644418198823468,-0.2771617258349319,-0.1684955788406448,0.29092674247676975,-0.06968653944039666,-0.030115528545227453,0.0031803438326021448,-0.2731982446063629,-0.1612047970120215,0.09025311755920366,0.013552250946353093,-0.048677689777865414,-0.10365446294105216,-0.19544184801630948,0.09444233119685821,0.07165945766115064,0.2496962226250973,0.03957036004022129,-0.07101535453449055,-0.10896639694702001,0.020372049911810398,0.29937133726611076,0.2526906066548221,0.1796969727496735,0.040093847817841144,-0.11160758068194558,-0.11627491441369459,-0.20138891282673788,-0.24659572739043206,-0.07623731823775123,0.01251106408700786,0.09197502368138609,-0.11067079835862385,-0.005565072152530433,-0.03030643401912486,-0.18187027703998224,-0.33686577967244147,0.05460610614680298,0.07155693026788505,-0.07636529826470266,-0.015744273031521032,-0.006223148667539091,-0.042834547362790576,-0.1603245305267282,-0.3703974303227271,0.3063973703416024,-0.14642403778441632,0.05128287381277393,0.15739026734595302,0.45353641109068676,0.4396297738190258,-0.044601502262626144,-0.038959413194483795
-0.12946172892219793,-0.3111251590290449,-0.11864147095919642,-0.14370763484614868,-0.4321736812918858,-0.024352799518759505,-0.032065647581680644,-0.11826568356720824,0.05969286552042132,0.0025436325301967724,0.26924955363571756,0.20245501214215011,0.02106154419765407,-0.15323369375765486,-0.015694305747266116,-0.09606942948577701,0.12865833525793038,0.2924720512558668,0.15232450548389087,-0.04141789878323712,-0.1728415292772825,0.06626265382179838,-0.11938638583608494,0.3227185351452624,-0.049201191929554425,0.10327902177830098,-0.1584218596673171,-0.11629504909441872,0.06447862615323248,0.0029625802812822486,0.17754283406667398,-0.21296092577203102,-0.03703694568578578,0.019553656885938478,-0.17288025578103178,0.031304290842916686,0.21338159403393275,0.2822660051189613,0.3022391927484932,0.217305015351431,0.1691782619615059,-0.2506091728923944,0.06841224083515597,-0.013793633429643456,0.0529620413369345,0.14464292994978634,0.3252607508185129,0.06279272824720912,-0.09291502623525044,-0.007441732493403274,0.12015089552306314,0.01571529961897057,0.0027193116501866427,0.08303717294468549,0.25301371993978716,-0.1628467535426599,0.05043295450185757,-0.0434846398372825,-0.11299019648669303,-0.5230954282309999,-0.43551661547782416,0.32629966845389785,0.11798197699751914
0.20673804978929852,0.17136123838618006,0.33600495088133475,0.03130562517588404,-0.008218501616254361,-0.4347930368413698,0.5806009847496041,-0.010758191364792667,0.49597575340975947,-0.02606360100576928,-0.12290772403268613,0.1645065336379666,0.44575080318521987,-0.33930638201935986,0.2576348802822657,0.1790395177001793,-0.05926176016626278,0.09924174746556778,0.2736098562871227,-0.30305384410825703,-0.3065758499639902,0.29253419248055007,0.17098463150466406,-0.11549508435335316,-0.006248684138693932,-0.3351983661386958,-0.7255149280777967,0.027131790008341546,0.24243850514966372,0.08662152602432305,-0.24326198343042768,-0.26006764571601654,-0.31511413655516546,-0.8132293841531396,-2.0894473448806615E-4,0.2689606711803919,0.10972125161894476,0.08023966789116148,0.18423429844389708,-0.048211040490183245,-0.37945422278878677,-0.4219475097283486,0.28416786276664624,-0.03720733027192659,-0.005668380162133238,0.06810115419109125,0.10571172279289509,-0.38150661517274687,-0.31497515343556587,0.002843319153640477,0.07935442021564923,-0.04325754385778968,-0.008304780270188036,0.1577183754385501,0.4147845626108715,-0.4443939765543589,0.1259312193579093,-0.03321308508449468,0.04024340884749488,-0.07812394296854049,-0.043283347391313086,-0.2691455674863798,0.5349715935344487
-0.2249311449939248,-0.22006811771472626,-0.09175006698150877,0.20346094954690672,0.017185434281337352,-0.003731422317650647,0.25569648771089953,-0.147478883861542,-0.08765471091013181,0.02432949719281173,0.2371861920299857,-0.07505462307035336,-0.0868272464205665,-0.08536311904440759,-0.0349611602637833,-0.18017973700712597,0.08596892721961806,0.020777515082086813,0.15124832679173433,0.12099002356504333,-0.3855883367397854,-0.0961650096820205,-0.17887410512047713,0.14015492877948574,0.07691157369385498,0.18706878285264836,0.002548076417822551,-0.3121823664232732,-0.08996858394812692,-0.04727261001400471,0.14913589170265262,0.06008809036181055,0.28346951515256485,0.1259621928403567,-0.3621740812721089,-0.05317237970933906,0.09649447684418268,0.08202585511456859,0.21763858898313854,0.13077619861728035,0.3648013166077,-0.44081550384425106,0.018711175330257453,0.07671638309189464,0.05336927752286991,0.0331198981974285,0.02907558270516986,0.2762290266378001,-0.2501044346814992,-0.03244501455738005,0.08817622500383006,-0.04544855200990209,-0.048712788319380335,-0.06131253267179689,0.07894231960658042,0.0782525138480456,-0.10438332143302508,0.061230890012915436,0.056259225556545875,-0.03251475572782189,0.06917230262963034,0.176489937096037,0.37613088699764724
-0.13400608924259969,-0.13502850102696545,-0.269362804051968,-0.0851570518830955,-0.1758138605053665,0.09916966675185397,0.2252328533400184,0.01890871383414035,-0.21034617918832146,0.02744568066596864,0.2002235394593754,0.06567665984994499,0.13478138730194764,-0.2490724584804281,-0.23020476289023228,-0.06020935597447993,0.12475966263186992,0.14372019016600732,0.24462092756824994,0.16578750131373227,-0.33484697882678743,-0.23096618117812673,-0.05514615909074998,0.1886826839885072,0.002417630576660826,0.10914257674911018,0.023185156221381367,-0.09310407679769919,-0.19963331998572864,-0.02109971526977551,0.07964014470555845,-0.0737079485994255,0.09543413541288932,0.1909431092553076,-0.12479568622841788,-0.20939950042921207,0.13493177179397883,0.14020393199131614,0.2762746235405406,0.17277850882663204,0.43219532577016984,-0.2245207458045778,-0.09492317462837625,0.2069388272038686,0.10706434851776549,0.06740178993841768,0.17920285842402076,0.31742045238119354,-0.3128095339929427,0.05549856573600062,0.051095732253440974,-0.029037393938645264,0.007670033309385163,0.0061833252284010974,0.3365986724500704,-0.14197755276167798,0.03629526623189123,0.09483392209116694,0.0320432560997073,-0.1578723950255258,-0.10413347882961303,0.034679235234731674,0.3293533916583448
0.19888197709914948,0.16474330467864667,-0.261014138565269,-0.22110172455165036,-0.17860509306987332,0.35148239286798755,0.6050700667401158,0.2136912155604823,-0.36056755685981046,0.02127162439549163,-0.03433101622923093,0.18946338755763978,-0.07637735610117867,-0.3502200282181923,-0.15983642572553497,0.08883040073367286,0.023634235695357827,0.1727185772350072,0.2700618575934195,0.21840623785233948,-0.7250288950706547,-0.21638785402545657,0.038587034922589955,0.23393843049915058,0.24264837561794717,0.007585108887438787,0.07222383677832343,-0.4338161522363363,-0.1610622010272459,0.30561545889722624,0.2810736555877875,0.2267007099242044,0.18418222288329658,0.04646327788656529,-0.3497979921174876,-0.21235403529365965,0.08545435438248233,0.14305535400598415,0.2908019906731981,0.04396123577657204,0.23186342118712136,-0.633828046104011,-0.1272098969780703,0.18500271793918094,-0.012367307791231985,0.13445382580694884,0.05345377243106262,0.18308162105456635,-0.7061724338421784,0.17124690511939925,-0.13167307756885932,-0.029951548112708615,-0.010875852009050849,0.06375336902254401,0.040684017625182194,-0.290115827329521,0.27583763886737556,0.1580067534648165,-0.02185457022651905,-0.12758701092313593,-0.08870844344988185,0.17037138017153783,0.7292465171962632
-0.11044794399341641,-0.028949546253390863,0.15197482999203676,0.1499963501288313,0.3292718236236025,0.21059087642899646,0.22976948011436726,-0.07408622211303541,0.24788904239352066,0.036182912371775844,-0.263315722017907,-0.16554682125871736,-0.3169502732316042,0.47207883195389017,0.09433032655757258,-0.011957537577478717,-0.06496717870658052,-0.2799210019174427,-0.10184137686833954,-0.0875265895355021,0.06751185887221313,0.08960927344976498,-0.008792528937919422,-0.11256790032076917,0.16766281058477195,0.012880263159245314,0.021070694064716122,-0.27858332342774816,0.13856759544934338,-0.04123427412948866,0.01711496274103312,0.2635314972232517,0.12429280845077552,-0.06179095877523444,-0.2075299448991842,0.15694709467268597,-0.230664870601955,-0.24896501305829088,-0.2693590175974215,-0.18226865911279969,-0.22680825036505037,-0.1621212592893707,0.06948894845261301,-0.11916750672226467,-0.09402168351144262,-0.19106778345062517,-0.24571673682406392,-0.20649185967943587,-0.10514138507676707,-0.13237434678465146,0.07137985352524986,-0.0037412872342005507,0.029160726842764495,-0.10673818206528939,-0.520695920723709,0.3600572445885652,-0.257813081585208,-0.25595464352834885,0.11470466434067482,0.3812810844210384,0.298317398733073,0.059927839927479104,0.046542890777298646
0.2038610079423514,0.26133440245291056,0.060698887410992344,0.027461618286603512,-0.07137643623580277,0.013782333175189055,-0.1472070979778462,0.15390124867800892,-0.17125128395907638,0.02306905198275519,0.04761425978702221,-0.04078818330271897,-0.38876246137307346,0.0345813303301859,-0.1124209281035886,0.090944411161158,0.04487560928911371,0.07072118944624198,-0.0022131173809670805,-0.2061591096618541,-0.013043986270614203,-0.06220753758564465,0.12025203530579373,0.2311870019381646,0.1617662410989709,0.21537887273095024,-0.1444718887519162,-0.02199590421295381,-0.0634216664891066,0.22350392963676574,0.32047796679052604,0.2447371706424235,0.2846073917364009,-0.09484356080030493,-0.04030675921684991,-0.03872647724801648,0.22925113170142372,0.08163276786662463,0.037746312449952295,0.06310981443750494,-0.06915688605441468,0.028504661289592115,-0.1074673017753321,0.08756175374659252,0.018931937497813335,0.11537024073706598,0.04806252473314578,-0.056135217841928604,0.014119452841643846,0.1856730500585072,-0.25663638849212744,-0.047454692906978985,-0.030353341729047426,0.029503940161555164,-0.2794040125050817,0.13244826035083065,0.32719373208562297,0.3555902692697035,-0.15145486084819426,-0.2172940696729934,-0.16629494981705575,0.27803445354682005,0.21966317044407305
-0.36524799875603187,-0.3037772887226225,0.02042866944460104,0.19712356679713486,0.16829975255626428,-0.17048360039569316,-0.382610747401999,-0.24600235820872776,0.18593265712744622,-0.0185415399093702,0.11600171388177764,-0.1448894351557694,0.20332081090548482,0.21033628282830122,0.09227484337434513,-0.13509751982607168,0.07406505545762122,-0.054921767103286515,-0.20062330828309677,0.11116588852795793,0.5315789534454348,0.04264129165209346,-0.17165351290512162,-0.1404249010192484,-0.33462262892982925,0.02287167031055125,0.22724684356029146,0.2862340658511839,0.12477608248093786,-0.2934967908515367,-0.20658129104585446,-0.18783948216545926,-0.11452276619859883,0.4436124227564379,0.16858254587848887,0.1121657954021516,-0.06539261850430964,-0.04665615098729598,-0.17097768537867553,0.1342011846225353,0.25922751608062494,0.3383194111425185,0.16736370901329478,-0.02410067022704613,0.019921356224469926,-0.0516507695171643,0.0025888479747029135,0.19527874245421759,0.5061671319776105,-0.14824335409440595,0.34463344741322105,-0.021512649443356225,-0.036070457384801496,-0.10716829717202721,0.29514069733572457,0.2506614897518443,-0.3249908264464797,-0.19893571558205053,0.1773918891677957,0.2011048105243195,0.2454826880947315,-0.16459501930009202,-0.61434237966848
-0.13904972287130898,0.07725096646858015,0.08819782039352943,0.4780944657403791,0.425187563066133,-0.13988801577778917,-0.14806175610024194,-0.0165115154715842,-0.018421048912684767,-0.012356525559432362,0.12813817535204985,-0.3315585947937267,-0.121538659707762,0.2785652301593403,-0.010091123812910305,-0.03997005407715322,0.03552309671381898,-0.2502746051085503,-0.12261637278906275,-0.016072197469218875,0.17419701034065568,0.04939239819703774,-0.05289612362457698,-0.07174900939452394,-0.03840661184515431,0.21553302402940253,0.004729129109218524,0.12201514873960892,-0.008504550250095281,-0.16896456476017618,0.03627249158926367,0.20951420847613517,0.25664356451055753,0.04345576005333131,0.09429189862710555,-0.013019889344980527,0.007861102659550236,-0.12557746581829252,-0.20883343866388804,0.0829735900302784,0.11794477631346972,0.16868596598294486,-0.006535701665200972,0.01079043954907666,0.0398671754904904,-0.17563184652563074,-0.2549749933195978,0.021370077974328598,0.23063841080167297,-0.07559212998610909,-7.829913470574424E-4,0.028416160839079996,-0.020037310226121454,-0.15674739067309304,-0.23043978608339208,0.29616548372760176,-0.12456437320781637,0.18482016502713464,0.11734983074989971,0.4360307235119274,0.38338098678849847,-0.07599809137222407,-0.11302052402813816
0.16351122245121666,0.10863721516502504,-0.047847654075511,-0.20861865119364476,-0.17266479322333958,-0.11634663929514892,0.09862965873693119,0.06908850038843313,-0.10275402334192982,0.022805347188012554,0.025353364854669144,0.20887212086564255,0.4959053724681711,-0.48527953706901117,-0.05039570526003224,0.11037252840310983,0.012426642554477636,0.09388913508537913,0.08595935433323654,0.08753426039703074,-0.04388891752167425,-0.01245483296151657,0.11330992116969459,-0.07997462129767462,-0.20456144712360558,-0.2685356472520651,-0.08543606176300396,0.2502365589107542,-0.049894717971529036,-0.02120201500049029,-0.1491583770541599,-0.26215208995515626,-0.3086759016375366,-0.033597996091683506,0.22185898410489263,-0.06760599292377596,0.08387153340476498,0.13344829882537293,0.15888829829966522,0.020051169908461577,0.1150550383666006,0.016549795831033515,-0.0020270670885005867,0.05496114451400513,8.048428643906481E-4,0.04023929128807356,0.18038799947015205,0.05141170836890478,-0.07869612121426463,0.08792019454565426,-0.028947251590081526,0.04954024592936827,0.0034301272600004012,0.08832834873708059,0.5211853447330669,-0.4080461045445765,0.16314224376819272,0.0020795047715324744,0.03923415090607686,-0.09892081635410524,-0.1097031697123267,-0.3148740677234562,-0.02543745969379673
0.04958245122477141,0.09765432777353994,0.1010611832531006,-0.07776850100039497,-0.13715465397494514,0.14348395121102675,0.10081227034634417,0.00895618221097134,0.025167397454653902,0.08294998652287394,0.1798536988053934,0.07360746799951623,-0.1060395607166148,0.08859936908129849,0.06755374686244325,-0.005408631584827111,0.1287957691222803,-0.01783260391386518,0.11761669430341229,0.11778660306658231,0.101587789803988,0.2450415953955622,0.09667262520611203,-0.0710315944187298,-0.10541787796563205,0.09580786909416977,0.1325813549394231,0.1741026329527942,0.16825072746460934,0.0360510396547495,-0.18340284948614044,-0.07581146130606452,0.16796945020226658,-0.017935303600221598,0.09229121477297429
