-0.16538141078001967,-1.1079769067775416,0.41682926109292057,0.762053218030014,-0.21430460228757803,0.5952492435961297,0.6529777203960437,0.13415170149649489,0.4055517256058632,-1.5068116666819809,0.3290321240335747,-1.2324295764100057,-0.20444053997094086,-1.4742465422279512,0.1568906996324651,0.14181982671604285,-0.1363274128415477,-1.4598948226503514,-1.9700590541466354,0.5027403676236722,-0.12512013847634745,0.35382656186587097,-0.4152144477396512,0.4807969232435887,-0.9926388835263211,0.3532964322914064,0.9907823150588588,0.02664472782613412,0.03577808807656319,-1.121554102663176,-0.38886110048324296,0.2378704217028282,0.4365029886174187,-0.7250029142458437,-1.236893910391556,0.07678427351325079,-0.4024018532330851,-0.8814294806896195,0.36795817580358425,-1.188367677925413,-1.2125182632521925,-0.17549992446756715,-0.1740360097088802,0.32968867055010664,0.41254770311406436,-0.10413811563409281,-0.4759113886438266,0.1321694861178412,0.36582539006021925,-1.0497035309873228,0.5423055222362781,-1.5209933805095746,-1.6757679027356431,0.0029139603845815872,-0.06329736754139603,-0.34842368076997704,-0.11182019016468535,0.41188078072008333,-1.459564855491886,0.6791066666144089
-0.5604780417303039
-0.6203923158581953,0.13445836521032906,0.5606547155650018,0.40102484553865464,-1.1981671944037915,-0.6278775370500278,-0.5798859120007093,-0.23776487431600005,0.4154652580977862,1.0439997545940036,-0.37728231223690445,-2.0281374759339648,1.7331267026906685,-0.6849827601638523,0.8642457550699617,-0.42628810923528365,-0.47267664751697525,0.3630624811813867,0.02229751191685021,-0.33466400616290276,-2.80764879438609,2.1487973745175806,-0.9382435372332845,-0.12580846099162546,0.9366296302792732,-0.2897427763588285,-0.15051910760689896,-0.20174518374774475,-1.8201947999733086,-0.31473643013780184,-0.25876294256220117,-0.6048911577733614,-1.9748833176363005,-1.2429301808330184,-0.6752300570299148,0.09810123358769425,0.14645967684754355,-1.777655842088105,-0.696977188070432,-0.5475638983496446,1.7884809373997526,0.19572665872465073,0.07440810010416835,-0.5545193566413478,-0.21600076354754594,0.6419563847541192,-1.32404995417985,-0.24778559802521563,-0.7862248258020957,-0.9435472556977068,-0.39781977073827723,0.7731850085776111,-0.8335975867859022,0.9991626068378577,-1.323034092580096,0.8349078682858925,-0.2867634543864974,0.3600108277765465,0.40912717492662487,-1.5736780525628542
-0.4978654687744175
-0.24677398942515202,-0.8340520032108455,-1.3826171908394471,0.016210899289164932,0.20657709400990598,-0.1437432861589717,-1.1496510726146931,-0.19531481749576884,-1.2365313834251863,-1.7135791625141854,-0.7672269370079265,1.100652844867673,-1.5183376426005515,0.3572290637906962,0.46432627591859416,0.7880139347301223,0.5015236710959039,-1.5708294011723236,0.3904876660898608,-1.684921074682211,0.6237492246810756,-1.483638349500038,-0.40547500448451557,0.20268778362483483,0.15293085737745807,-0.22988789041018487,0.4489586215919393,0.05554251285099034,-0.852583588637915,-1.207829845280874,-0.561138979651497,0.5091420596245064,-0.8798475010396547,1.29211796189726,-0.8553448620230036,-0.12480274009865906,0.47436085549437795,0.9247393935939576,-0.9970984440047542,0.38415315547384854,0.1515811207766726,-0.24649079121094003,-0.287713799420204,-0.2787660824177363,0.16158912742739806,-1.5386894365721207,-0.11186941857529979,-0.18312112223573535,-1.2479303347102217,-1.4349735723163162,-0.2824095001105726,0.2819557603600945,-0.09648548468685582,-1.044400456980682,0.7126165849766302,0.40006485643557393,-0.5612800389249548,-1.0231792952000602,0.13823081019640673,0.5080558135532194
-0.46142712409267395
-0.28152505380411164,0.1631121981649495,1.4945822688600947,-0.12682596952195238,-0.022726757507037704,-0.1262249182639939,-1.326659051900794,-0.9066114173108059,-1.0242059765964644,0.7028135945473084,0.4211140484408483,-1.5385758770445277,-0.7408600643069533,-1.1542680142453043,-0.8348530639798745,0.6853512802233815,-0.12124898871642219,0.21795244922467438,0.03371916311764564,-0.8860271220772372,0.6947936235536825,0.47961989225777785,-0.7348202807609278,-1.8834366981871,-2.0875891159953115,0.48650557099314573,0.1255629734288352,-0.14581536418042565,-1.1488730674943783,-0.08523000422934354,-0.08664508801407665,-0.281278215018583,-1.3934358448125745,-1.0325715933270243,-0.5021021981145531,-1.1657882238106068,0.4690704340609886,1.3278795409368087,-0.37527562118503527,-0.01950632476063217,0.941517233285899,0.09246525100385897,-0.19182352389601112,-0.2596825647154493,-0.09156968942284785,-2.21977308576177,-1.3309171375077182,-0.49565690193507034,0.7447363947424108,-1.5176152057339036,0.8020891142961595,0.18620323020506774,0.0126037202876882,1.0555660124684194,-1.1739778143640422,-0.0659176903874855,0.06031989533135767,-0.6402664631214954,0.22386211931322555,1.15824764037699
-0.36582246590761697
-0.6976430115626897,-0.006786221456977029,-0.37284197229613836,0.3803883262961606,0.9556128135056347,-0.6858742510234977,-0.7096884621705694,-0.38983422496439885,-0.2360544230565915,-1.0706749868162442,-1.8979267819399903,0.7430271574270362,0.03758321977843355,0.18053583376182736,0.39866684105619243,0.21833629383622047,-0.4711022759679427,0.910268111175795,-0.14103291083827346,-0.37708408359653905,-2.4956441860712246,-2.107649447363345,0.429813390061843,0.5224956803191675,0.4649606739558713,0.21403659184549986,-0.2773924332899477,0.687730632677764,-0.7764544121033903,-1.18889404420478,-0.6418072308605784,-0.37089192095889617,-2.4577586116415873,-0.8600427571919462,-0.3122966747886688,-0.09378872503881049,1.0082584980289684,-1.3935502781279574,-0.8162582707466167,0.5453740613768068,-0.5543857643872299,-0.7603494691224799,0.22422215926436728,-0.5841196409732279,-0.04924033589861079,-1.1265783889641472,0.8923166898851612,-0.5046882571840454,-1.8152789821163462,-0.5409942363112465,-0.23644980040151758,0.4243677548917232,-0.2910513267364345,1.3197138079466677,-1.3691381929600268,0.9971849845898739,-0.1415575777156524,1.8137657181232754,0.3535328788993182,-2.991984852320604
-0.6314107749086606
-0.43198834804965586,-1.8071970359716014,-0.2576191930523309,-1.3285215785105158,0.6944056823709378,-0.4164810315055101,1.8973884062888162,-0.10857960975761552,0.7073498487540442,-1.5919241497215568,0.06900874408082643,-0.18075489770715739,-1.2386030469430083,-0.4831231624492463,0.6513136875826342,0.39679121796157213,0.0956396697790014,0.2249471954107198,-0.7206593236367104,0.7250745914059619,-0.9559082574227454,-1.4785787729240234,1.1218516457520504,0.9607139698528947,0.7007181023638736,-0.7091989188699208,-0.9010294487013596,-0.32132707551124484,-0.910725395655453,-2.0178680770317765,-0.4312383228625936,-0.16936043658094294,2.9663779769407825,-1.344383574389118,-0.8757969746018578,0.5145302095826616,0.8623904758170082,-1.4042537197603853,-0.5263333721714419,-0.5655496613774471,-1.187944941847913,-0.17688224713670408,0.12336275293339061,-0.3558223026691082,0.17992121704529562,-1.0483045847263535,0.7051326258478411,-0.3792967240726586,-1.401533553141394,-0.41447373002527604,-0.7006615330841611,-0.4850303968706282,0.4578778278137778,-2.0247935940109025,-0.4457351533897057,0.6095221325284511,0.02653143543550064,-1.614091616011777,0.4113786657194487,-1.2640186827670588
-0.5468390273031662
-0.49800691803750935,-1.4113419363365987,-1.2882845472790287,0.27624493480984985,0.15999754530763358,-0.3807588881182001,0.567831021853574,1.1068439688759861,-1.1863518252543352,0.3413799484777742,-0.6796331905505691,-1.5443262409762095,-1.5747697638248686,-0.03210678851637679,0.5573111920417102,0.3205435951976244,0.005698469443510125,0.01981463045858446,-0.041071769848145936,-1.7863452269650704,-1.1249959697355894,0.8835506684144001,1.1439087328136934,0.2859773781621564,0.43850085261041244,0.2987270713211179,0.9800541975833652,-1.2786032969891659,-0.9690937802034019,-1.780093068276444,-0.35047123460026053,0.3389368879088826,-0.8858440908640285,-0.847231932411953,-0.9028751866102943,0.22419482727898626,0.18042520670649898,-1.334418953699573,-0.5982123596964499,-0.9987433966682399,0.3020884525978715,-0.3981075685345468,-0.09320802267669098,-0.26267845903278453,-0.03546663677647443,0.9260160027050951,0.5661875468070587,-0.2171497637457438,-0.4282325104260653,0.015306060565007095,0.3373298455030225,-1.3932078798160203,0.16388479302024395,0.48464721904096736,-0.08623165011127243,0.3320227897408636,-0.5617872538209621,-1.429265108671753,-2.22985814307379,0.8455782920140339
-0.5938808038205902
-0.21413672097597322,-0.21176719377085743,0.39766109105147257,-0.36078372771356065,0.5973278123294978,-0.442203824383344,0.8186446711503862,-0.9263542908165779,-1.274433210800192,0.1636913392389118,0.1711033184287391,-0.6778113000574795,0.8450445508135979,-0.5420419633198176,-1.176506807911433,-1.2941975684762523,-0.3609687546306195,0.7435243149018481,-0.457944978761799,-1.142693676395001,-0.7631057905024488,0.3007549502424019,-1.639109238174176,0.22025247965707168,-1.3962343670368391,-0.2127211204118054,-0.5924111992344859,0.8320807338983901,0.5261188602209014,0.07800246306533488,0.2857806940479252,-5.411157032697108E-4,1.0645423206395517,-1.9078495579588004,-1.3959170022446517,0.11564778098150111,1.2028216340532554,-1.8402142209770518,-0.7499251171615238,-0.6523789164822094,-0.04875456821882996,0.2957976900743186,0.3413639088722386,-0.2843877615537126,1.0305886449320365,0.5265638894928193,0.9644581370599162,-0.4401999697958759,-1.652797538239016,0.8359217474229845,0.2973967984160552,-1.7428966118067526,-1.4440371162859134,-0.3887939254994144,0.3255937668973034,0.687375452026036,-0.36051227673960834,-0.8205054947554238,-0.8243310101264629,-0.657593706678992
-0.5912563123451976
-0.17053317829737163,-0.864266175604417,-2.3982852788488644,0.2267566967077866,0.4196150240090832,-0.15527262593094276,-1.6318900357295916,0.010888676239467196,0.4889595311445519,-0.710437841095646,-0.6571858316215624,0.5662406361625896,-2.061908996766432,0.08714889049415962,-1.01940075070224,-0.03481946212114572,-2.016762152839133,-1.33775167979711,-1.8585485139346813,0.3922964442015607,-0.3758742045582048,-1.5899070038565153,0.2810273239273676,-0.5709951142002976,0.3307704056145492,-1.1533846977462348,0.4995448637452088,-0.4710623069343207,-0.8723439828377249,-0.5540847003389475,-0.5063859833376768,0.060996355460929484,-1.6508797403965885,-0.34218786486552444,1.2384795988258488,0.6086693104406083,-0.7710187505647811,-0.29509125960749355,0.8869001123843986,-1.847794135397923,0.9933912409986633,0.03916360441808571,-0.06656932015589934,-0.06146435075418113,-0.8096738429725556,-0.6473994433211754,0.8852353387006007,-0.09848099064011283,1.449312732736532,-0.48791569358384423,-0.3241982664929293,0.3892028575299504,-0.4960235460693135,0.046747918584967615,1.8727576102468693,-1.663044892619713,1.1912725000053381,1.09692527468012,-2.060959169631849,0.8558870959069134
-0.331220481727057
-0.29438909469546437,0.33169020237610053,1.268605166939784,-0.590152527200751,-1.7256532840143328,-0.13626201674125946,0.2577141085181679,-0.009312333952116397,-0.0022192865562647257,-0.8721858269697156,-1.0057559968673626,-0.2414792157705556,0.2913532346771502,0.9100618432251554,-0.668771068787112,-1.0384741461579372,0.8179922884277564,-1.075585259351246,-1.7271284811819958,-0.13449330832755743,0.8664861304398945,1.0343309587717862,-0.40560094794211116,-1.1788911680856573,0.35884062025147373,-1.550427851651344,0.5124164290384312,-1.9172965397344477,1.102186553587404,-0.9043180118129494,0.1607957398779621,-0.3522173862262038,0.29051136441298364,-0.444096558344251,-2.01884872763234,0.3556600434426597,-0.6265872283669756,1.7160645241910075,-0.6856139972977328,-1.4007057002195633,-0.9105484725835987,-0.10295351892325447,-0.43605028714798466,-0.15217515207109927,0.3833847678959645,-0.8935572282158784,-1.212100511513977,0.06317922720174793,0.29711702661268347,-0.564221044887862,-0.7580276037336249,0.702697539619638,0.20828005514974599,0.5759539573145608,-1.8696680476284964,-0.2274829499781221,0.5686220525810414,0.34919444626091056,-0.8392418840078237,0.6585418107404043
-0.47196521686643667
-0.3069966801218648,0.1445952656064775,0.08487455860446257,-1.159572808308489,0.5469511011680495,-0.004116458502580696,-1.219506817796654,-1.6878183647012557,-1.9206049040228246,-0.6568800991463729,0.1566441387058717,0.516467637198723,-0.2201925836857031,-1.191670864834603,-0.16934810974807613,0.06064574255257603,-0.0904352568722921,-1.2085757981468772,0.6458604746799654,1.0439905222556027,0.771012474254142,-1.3613228002442848,-0.429913877355449,1.5045378595757009,-0.4322119371578714,0.3789472837036331,-0.9240725341149667,0.16410995668835157,0.6634343044049889,0.015352423596109532,-0.2878623533567842,-0.09538090607721324,0.5374673065080641,1.1405330505521736,-1.3940492746942734,-0.6585531163750047,-0.21414817944957593,-0.9888058191589577,0.09928290224372287,0.731697750438468,0.28178247412113405,-0.5161814495542154,0.003146000608669948,-0.07032520432123097,0.2194535855163348,-1.051984262437229,0.7296999216637614,-0.7452310100823034,-1.9137498588906567,-0.6826408484486559,-0.4743012770473635,-0.7979645127601583,0.47025740009751,0.15696198573487638,0.7792097952059682,-1.8798128217792274,-0.06557222129587541,1.0749050757008496,-1.6585208874759618,-1.1035369104952677
-0.34581890766531337
-0.3380629961958721,-0.7355721045792502,0.252017603913501,-0.2134116405549979,0.577041951650816,-0.5260001116968819,-1.9101826083762574,0.15160623709121562,0.020027685866426313,-0.4677812657321055,-0.10097918311623844,0.5547313794025357,1.1366963959435261,-0.9304033868155246,0.44946371550604053,-1.7905782741879213,-0.4827726193087752,0.6514696634811773,-0.20115115719858362,-0.654802197343577,0.971287611613172,-1.3018751502180095,0.5375852821131284,0.5765343280292805,-0.12643647155366008,-0.03734025323242359,-0.010362764909466056,0.07839495144256359,-1.1286417147535672,-1.3100212223357026,-0.11442282709101761,0.00832766187425387,-1.6133086431739365,-1.672739340479282,0.22245211596053843,0.22964074515625252,-1.5705838913037644,-0.5435660575862834,-0.029296385434414533,-1.3416410362288897,-1.9617481410530393,0.06723942715002217,0.14945415547708216,-0.4886613066305651,-0.17459086376543914,-0.8531997312478709,0.21087754040575385,-0.2285465082445528,-1.282013946270717,-0.6321422100410095,0.3007461453775284,-1.4557051074077099,0.16658675522109553,-0.6753130337298732,1.4529976527039068,-0.22082385513095076,0.14186391773249207,1.1093620768995491,0.04826949458450517,2.0189876871910104
-0.5970399279204118
-1.0021036669554673,-0.2747101084408367,-0.4501011395593899,0.03977995771628244,-1.2813957787481576,-0.37635690269900307,0.4375450130022133,-0.4807351275030374,1.174911319838096,1.3647147261542047,0.1452963376863777,-0.5771197003737759,0.2884907962917734,-0.6325981132640693,-0.14856711838820755,0.02678518536851819,-0.13858270778561904,0.565453891298232,-0.18871456957700064,-0.17164205305976868,-0.33516946259349084,0.670220617304991,-1.2637846876615997,-0.26220322393696793,-1.132397574568949,0.13162694517539214,-0.2576395840172274,0.6120633189973331,0.148281036156887,0.4603876132796413,-1.3991422515748717,-1.6386936801656806,0.40007241868004534,0.3300075153048528,0.13160177157016992,-0.25883659254712943,-0.5123302403905579,-0.36172670171092475,1.2437220229506651,-0.5423742686233437,-1.0158607845510073,-1.3415870606267142,-1.3414193933827199,0.09954783473289386,-1.5571558508773347,1.2211414859123653,-0.8205762661577938,0.3752794697674577,0.2932134043925537,1.38938804537506,-1.1048232242351879,0.6555139350606558,-1.238346563592764,-0.5817176748666018,0.23873192331367366,0.10304837177689243,-0.7244522270255245,-0.6211512466984825,0.30007895733446976,-0.47973604559317934
-0.07705426953671408
-0.13243901982535114,-0.6037429499758332,-0.0063296363442700305,-1.0062453728134313,0.6622002503298494,0.008974800791185053,-0.1359231186301712,-0.35130696968046643,-1.8361968272871136,0.6536386730961962,-0.0010695640043906572,-0.712545600530405,-1.015171025935671,-0.7822111230947553,-0.6786948888245397,0.5639458030028358,-0.2538395161003879,-0.7362013473848028,0.26407957582193536,-1.3628676993062696,0.049112798523885996,0.4791293928564728,1.1565717688960642,-0.07516509045333751,-1.1099247225140927,0.14078655584054545,-0.8647809771807539,-1.6423325663284554,0.08966126450917405,-0.07385651464538194,0.13871983934535853,-0.4253934962681255,0.5186768894728323,-0.3164453891967458,0.859676128442589,-0.2804702807657264,-1.2442224722066426,-0.17640570687663723,0.40653772855204934,-0.23733564303079177,0.8544673300619285,0.028201200705589482,-0.2771644467199738,-0.36662373896422923,-1.1954997008268746,0.7284743235663815,-0.955162438406773,-0.1255615354316213,0.40853441329879026,0.9579941974753436,0.3889255382587904,-1.0144020683854023,-1.0131387571254504,0.9824730898271344,0.23707748925425204,-2.1550095854148132,0.17245184293215535,-1.0701813509950964,-0.08436876918106993,-0.959792159300263
-0.37393363647298516
-0.5832020947439571,-0.7785419398635911,-2.465714328961325,-0.2439524585918626,-0.4759260014894526,-0.2109745204442501,-1.3568218117848219,-0.6490567585839897,-0.6660895323654372,0.7452655830514275,-0.938833209746079,0.9373653711609625,-1.0099947963212823,1.0606244189042064,-1.133333117100816,0.47330165195001767,0.9104160402993561,0.3561559903325893,-0.05227521046091481,-0.7763342640357545,-0.1163529003294235,0.6397850925702787,-1.502498722524842,0.1470831753861399,-0.007511756701340453,-1.5361582121171355,0.3691319578478681,-1.29137321880968,-1.0622127115489761,0.49129647891731515,-0.9075237737593346,-1.67851631241499,-0.6623654041877443,0.32753552031986566,-1.5175505230823245,0.8412593799745967,0.8016626844443485,0.5382217041960035,-0.9769873693672204,-0.6844981749216734,-0.0315224732616308,0.4279593520418732,-1.7335617153100007,-0.23701527918616064,-0.035623252787431364,1.1976459511117044,-1.7872463208500797,0.5752536967940169,0.5046708337444334,1.0167479831458521,-1.960451014737024,1.1144535552610497,-0.08897719150258591,-0.14279289598421052,0.40573357316073017,-0.1573336421092849,-0.5268936743459044,-0.6593937302812348,0.6617259376274943,0.03058360055293396
-0.5779290640474556
-0.21653932892005984,-0.4717822841930479,0.1931063763714635,0.22877137817154103,-1.6076087354184814,-0.3556753959565745,-0.38022429013393294,-1.2946841605537829,0.9123707955079676,0.5530343093381072,0.3361330612530424,-1.2660381027930538,-0.5762746575099806,0.07357723920268379,-0.05720332366469361,0.5531037167808235,-0.23158714336504657,0.8227973663337984,-0.2859153672474381,0.5092850353196893,0.691268760901592,-0.9424172394931304,-2.0460556475097604,-0.11967431783954353,-0.49187650699591645,-0.7505204541766117,-0.013983992107081913,0.37656819676983494,0.14987329728921078,1.2750224004317963,0.19127066783035168,-0.025613902184976868,0.9907547882656356,-0.8381063803336538,-0.9410531271590381,-0.2255596210259883,1.0770854665047782,8.044847968927282E-4,-0.6561059888264824,-0.46233277507230475,-1.507029556460015,0.2034343432432253,-1.6601148612281624,-0.2332280410873741,0.6221893794114105,-0.6882269103563736,-1.6413937521884898,-0.12600362073288685,-0.24769169020658124,-0.9368909065939309,-1.1097671774664764,1.2241757226213776,-0.3697361138366208,-1.6608622720654307,-0.9357629491588619,0.5646817865229156,-0.3518308270352024,-1.3631395321603776,0.3455475602223581,-1.0008128636090698
-0.3361650191528193
-0.3253260209525454,0.0754571955091408,-0.9975068127673943,-0.33253901266088703,-0.49012331661040104,0.08134108528571146,-0.29192633740609564,-0.4468993383477613,-0.5605153056357348,-0.25165874979589464,-0.5084319244039007,-0.1491103805847087,-0.5153242840081597,-0.23065045575379406,1.2449568201526777,0.2095644502802507,-2.171897096783688,0.538783426711952,0.3748103453955482,-1.0122353357281437,0.3524340727043924,-1.005890272741185,-0.8646711164307879,-0.3829235638472178,0.7965015880670197,0.3675615201980347,0.5960527767526694,-0.20034296235056315,-0.25577920456916214,0.7156313287943056,-0.22122943859000738,-1.5700359455413393,-0.8425997473764878,0.9223296064804631,1.4541361680209854,-1.4142096736360608,-1.8297738698410502,0.2444667223473467,-0.442478845764808,0.13851529910530844,0.6650708268101656,-2.2781664067569443,0.30471845471095427,-0.10939560094631953,-0.41874321052559393,0.4855915372231772,0.5481580452147901,-0.6289099081167285,1.1551565281286433,0.41784489055842305,0.19105632851751422,-0.7442706942198092,0.42702161900311497,0.3178563637467533,0.003179673435887787,0.3676046194793154,-0.14912212069303585,-0.8778067662826095,-1.9907046095792853,0.3733104200937982
-0.289862266491817
-0.4725154385449418,-0.033779505330591215,-0.017163182543334637,0.5537617550047415,-0.6280758715093379,-0.37819817047969073,-0.7508603634676189,-1.703655501992872,0.5383300070702497,0.3238949014835937,-0.22952620316290429,-1.303932671291991,-0.7520360530456262,-0.839386543609112,1.5079997664698672,0.34589448035357856,-0.4792716700375903,-2.2083993121407097,1.2800898678530748,-0.608502640903448,0.08253837878805373,1.05008618056104,0.949595849838871,-0.2772616507380558,-0.20478963031085856,-0.025041026287022688,-1.8098171173049467,-1.214486522328218,0.9044586151392019,1.0655493671034904,-0.36832534138907846,0.0082268555307405,1.1651309991394203,0.6486132000958096,-1.285553359379804,-1.0964400409080677,-0.4150342396684334,-0.19358268097092096,-1.8547620434620378,0.8721670392909276,-0.46005858495565116,-0.6590932020067735,0.03669570970641032,-0.042485543305444906,1.0707904129495343,0.4629013723412226,-0.8896573788850113,-0.29368784588252644,0.19051289549757486,-1.3710336239694059,-0.3677612145253027,-2.5941701384240776,-0.625657363386827,1.0691050001580844,-2.3737458932451774,1.6304614420396866,-0.6741512867968862,-0.39056225250442633,-0.7356661555744725,-0.5607446307382213
-0.5225342811812347
-0.2742328095645406,-0.05295911802415314,-1.4764384141035707,-0.4213132833151801,0.42112342141635045,-0.4592085320385288,0.40482481948963683,0.596031773040525,-0.44070420388111986,-0.9869663595992754,0.7301019742426358,1.1610806826264364,-1.1850867697111291,0.5083481502515957,0.010573762306787462,-0.45670497127219434,0.42482506185271934,-1.083816907565765,0.19193394759622368,0.5879192180598649,-0.714683367533563,1.60373574964196,0.18665182864459634,0.6542524108622148,0.4692793182357487,0.37595101496545197,-1.6626046134897254,-1.8525313836060782,-0.3766276054160285,-0.5855277369265404,-0.1327914795163263,-0.07330889733692363,-0.9375489737847967,-1.2629582073076715,-0.09781011230223488,0.13494302188918028,-0.32448297825032124,-0.6905861594256878,-0.9390756865053674,-1.2523849330760553,0.656273927029767,-0.006509239942326319,-0.3614729126800872,-0.18299903677372276,-0.09094996496471792,-0.5243496681271029,-0.9637593876406193,-0.1374328002948906,-0.05505540406908792,-0.7694071064858831,-0.04543395149271483,-0.6661215893628104,0.570519885477448,0.6941559418334097,-0.5450149830576833,-2.1104226217983557,0.027105040072809262,0.5254652280156191,0.7364462033768374,-1.5504970168337613
-0.4813395539878346
-0.06237729810765185,-0.1234990561240526,-0.317661270311047,-0.24817554718545762,0.5727705380236493,-0.04966541880693397,0.8101020394525735,0.12563233102846452,-0.3565619728359414,-0.5933874580923976,-1.007642778082306,0.2059534767317352,-1.8258095333240616,0.5604892821352162,-1.0929536562998086,0.8311364339008599,-0.8555273604701792,-0.9232215265340784,-0.8320038797286292,0.071969774859577,-0.0512308026824458,-0.6124499705326846,0.19901173869162167,-1.4637989206631776,0.3409471540691383,-1.8396310461701315,-0.4659232138711672,0.6732958744329716,-0.7540130040464593,-0.4757965795740886,0.06418593403253135,-0.06785826324223099,0.35160274817442655,0.19144071394996823,0.960486740442631,-2.1525370624792735,0.805223761509937,1.6726280873830803,-0.13428251865753282,1.528535117332671,0.10469086666644768,0.19411048939603848,-0.320389861181114,-0.04624393974909021,-0.06446074312541412,-0.413381378180545,0.02097519483910906,-0.08293500814987194,0.5594694729765178,-0.38162189141486247,0.14064441913743136,0.07188784610644237,0.5104348224201435,-1.4960826304887889,-1.4956722032207992,-0.6847962604801022,-1.698397131491187,-0.8443730603489801,0.6799762203555788,-2.226163547451994
-0.21888629595091608
-0.03645709049389023,0.47911000249395586,-0.8772283975243493,-0.03222606155640154,0.03043627501329981,-0.2545714908440596,-1.5742392550368842,-0.9758113277165537,-1.6682739722643525,1.019315443148301,-0.2997099298118918,-0.6855278482668481,0.052833101297351644,-0.9751401958345024,-1.7528676555293927,-2.3038862982344845,0.1910410449451058,0.2259242858721406,0.07492317782904148,-0.7888895064052583,-0.2599448015464808,-0.22395607256067243,-1.1337735080192453,0.16232368314972243,-0.741385074728032,0.2992398355748525,-1.3598122121765008,-0.26342544750480534,0.6898822202570001,-1.3978115909502857,0.3302332190957129,-0.034983711416688254,-2.001701374823427,-0.5295965216137766,-0.47881528979447385,0.045888619889083576,-0.7345144929072768,0.8539803201396203,-1.0013554911532754,-0.4213881931612147,1.0970865966026764,0.20731856692314446,0.285365957875267,-0.33438879430209173,-0.3452309865046596,0.31741792878147435,0.9758294582046247,-0.22409197007751872,-1.6202382234167527,1.3677327110546253,0.2223812875942589,0.8012306300678553,1.0258320260549307,-1.749248932011212,0.5510383230422335,-0.09972689841316079,-0.0309385419628633,-0.9365396020391502,-0.1129549429691149,0.257910886964017
-0.42304204439342064
0.21790776187793262,-0.08075271281289455,0.3135481331866423,-0.0787407005190948,-0.5390038523535788,0.15260783086807653,0.5325195539887668,0.6730217809695845,0.8662024613006571,-1.5489570591531587,-0.36742665768657895,-1.3931089181145893,0.2981286430447716,-0.8853060624565179,-1.0346677629890755,-1.1672197048853314,-0.15706598448226003,0.09807907007834728,0.03532804298511483,-1.1744261561992642,0.8422607771259449,-0.764288433317779,-0.7543251522119686,-0.30822394834024847,0.5564332622468983,-0.2754026803024577,-0.24697429404014196,0.07569145111702182,0.4785145645518591,-1.0661921525430949,-1.7469822512266266,0.826448718525096,0.512536816607344,0.18961973288553424,-0.40837090437540474,-0.2791706111520027,-1.2644559250855134,1.389636715431801,-1.3177389551970222,-0.14152556589033335,-1.4165320662954293,-1.946496955130424,0.5993802441499653,-0.062147343268646044,-0.9970856784436714,-1.2407753888263862,0.1972838295647838,-0.12795347344971056,-0.9237490071004801,-1.3066179819641115,0.23305011443608398,0.3678736253805946,0.40209838302625084,-0.967975268323652,0.11930988212675159,0.27216932227696317,0.3270279574343955,-1.0989440554412973,0.08873108228572678,-0.22706849280031924
-0.4711911914110304
-0.20628728767747417,-0.16737255958958522,0.26326351911843454,-1.1004611433815468,0.08150861088596777,-1.6223005438158389,-0.2626975617059862,-0.1647441832118994,0.1524838321952034,0.6701117631233753,-0.02592772938421506,-0.1288987462561569,0.37261163529695795,-0.08787853839540226,0.13617866543814489,-0.7503852710523029,-0.2874953626865816,0.628548606853996,-0.7884074692301468,0.37054832239155294,0.29152192075441574,-0.1373783310653332,0.6468328995769347,0.524820260434358,0.35338502586411136,-0.8453843895138744,-0.05368292380133722,-0.7819778154606315,0.06514106086266462,0.4489551193851423,-0.11875606686317677,0.024847851322770866,-0.33672208081363025,0.20730454744897847,-0.4941900785876124,0.10430077133573012,-0.39222462943637626,-0.42004269923015636,0.5458251114719752,-0.5106674979225728,0.5965969933283063,0.228934846089022,-0.003387681592532626,-1.9289636421056182,0.21445975264975212,0.7400146552799218,-0.9700704626347774,-1.9272393591238732,-0.020615762958138294,1.1612730440854582,-0.8656337310543242,-1.0714284601102886,-0.6472989113875398,-0.3576554612339974,-0.091857573354406,0.49483566933682926,-0.04459973447961766,0.3996325868025226,-0.7959150877509247,0.8260082811276712
0.005909520021394289
-0.22687113877612042,0.182092399803773,1.0064298796380144,-1.3813021272173636,-0.6134987197499528,-0.32077276071287186,0.3905249057824775,1.2885945978649727,1.2393307069872255,-1.3374330937845669,-0.015113851010790089,-0.45358064826386235,0.2567180681405289,-1.2318492919430126,1.1864943909059689,-0.5700519466608379,-0.3383903525435233,-1.0444417939054473,-0.057448953426381816,0.8248178367187418,-0.9413414041065222,-0.8353085344804485,0.007610057761840769,-1.0394980250675634,-1.1395552957970676,-0.1311570937139919,-1.2321797473538445,-0.029569479565259033,0.13650757024765203,-0.014936393701844608,-0.28911201761502214,-0.0050299715102501644,0.2903761960802871,-0.4381930022946296,1.4766419838510545,-0.49124602691323643,-0.9490045116406125,-0.5534333197547083,0.20419034853943144,-0.31113531975684505,-1.3919973543552837,0.2545613818638958,-0.16163893915805913,-0.8645483489203947,-1.4894822663321428,-0.007760528449269721,-0.035726981419076785,-0.11930820400478187,0.7862971483101818,-0.7045310242981158,-0.16739736105507202,-1.8814882274886504,-1.721998321214894,0.4891061364406522,-0.8539199756805032,-1.045364560706545,0.393377167061062,1.0019065603737107,0.46299095538627033,-1.1351311197028864
-0.4050125363955986
-0.39088163631801665,0.09766245637672209,-1.3387856574330246,-0.1442604051039247,-1.3024885032515834,-0.33549146024347154,0.3044046863410102,0.04789878078831495,-0.18576769022840756,-0.7035015694221101,0.45253879365361876,0.9680204161080256,0.7380272860040713,1.3534170727614472,-1.630521045277731,-1.8087513225280363,0.026439393869949625,-0.19021708047741004,0.31000040549215646,0.865812480697436,-1.9768062942611326,-0.3936813849933537,-0.35085520373552936,-1.2857325923227443,0.8225275951260894,1.0926364161185778,-1.4615848067737365,-0.37803684918146324,0.44039068148532784,0.1089445330573063,0.24938944483942185,-0.12110697480791448,0.12102543348989221,-0.2676001730154099,0.051898745842698296,0.046553629189926726,-0.523862080635766,-1.9362651577944778,-0.052282053840325186,0.17095990862107563,-0.8395582856013296,0.09933036924947575,-0.403628281791651,-0.18529354284915336,-1.5706639078788793,-0.6776039274082167,-0.19114437912411927,-0.2534237260737088,-1.0857184577939964,-0.3860713693596548,0.0013162465671536705,0.7719136959974415,0.5067143113219549,-1.4568499984830314,-0.08566984240363526,-1.5412108113360514,-0.9647755743366975,0.49903527648394935,0.6460213286088791,-1.559195840756512
-0.5976882395320555
-0.2867390786003649,0.6492649565711331,0.1706537384159938,-0.1520226751315642,-1.6160200788361119,-0.22416706475549486,-1.61018117146651,-0.0950286974999953,0.06721696501151142,-0.7002011761702001,-1.0403047284002034,0.6588431584087778,1.0721097362051557,0.6046522136638296,0.5144573237169202,-0.42766802798130094,-0.11556012684401873,-1.2681632510158107,0.48199333385053394,0.6101543240454315,-0.8053425113370123,-1.2489674411228333,-0.3902041775818571,-1.938377424280888,-0.5296305212853647,-1.4637129697075293,0.49506847460399567,1.2762770918958837,-0.8842673099839437,0.40759572427273577,-0.016194024078888047,-0.05098128377240383,-1.2343158197805453,-0.19653781324343975,-0.83982306435515,-0.6779654960817771,0.7311482687506756,-1.2802167474083872,-1.0650404435482026,0.4999175673538637,-0.9327915656948758,0.015842575399246644,-0.23727544907387926,-0.28271557607485526,-0.30862324929545554,-0.3535309510574502,0.5931239182379936,-0.2747921815395837,0.49411638756558585,-0.2784998190331684,-0.2516564732737834,-0.5494957302692502,0.0050130419614424675,0.43895234187368554,-1.344634565230367,-0.10967239251487611,-1.0038119083672103,0.4504965532161713,-0.1594993328291495,1.3904759063372782
-0.3423859165713968
