-1.4133102473629648,0.9491626525431799,-0.04447145523350229,0.9823422501890723,-1.8559702857343576,-0.8816117269428937,0.7557556102116599,-0.13565858416076665,-1.9211670435780843,0.22777778425377157
-0.3266921087567177
0.3482142226245279,-1.459803428385219,0.2432230374830693,-1.89660886131964,0.2026977676862503,-0.5959982911328698,1.095288247763171,0.9861509750671918,-0.22805250082315862,-0.2500518290693575
-1.0530535731996489
0.03820265665952286,-1.258655732254789,-0.3465599950246246,1.8540844746949312,0.47457521223306925,0.156269582292187,-0.45830201458918157,-0.7335071501004718,0.24314389794368593,-2.373540357707008
-0.3237575405482107
0.5126873602853175,-1.5301760305095298,-0.21292645970836058,-1.6400094305158461,0.6518672163101168,-0.14701880853955962,-1.6498300890186803,-1.8895199356751404,0.32664921470794384,1.039913046919615
-0.34011109937383366
-0.12446533855104273,-0.28034324767235214,-0.28603774982065794,-0.5662548942769857,-0.35368028534241064,-0.23847952073477224,-0.03813435473828599,0.03646049651980718,-0.052305633743431904,-0.44013466034535476
-0.8174719966673701
-0.58586413159736,0.1610860704741798,0.04182898091555398,-1.2445515288882144E-4,0.47302139423042944,-0.47795985925006657,-1.291132772903238,0.6258724156753759,-0.9768582985914995,-0.4468198664867772
-0.2406191929611925
-0.45489096339295115,1.362201988127041,-1.6915754864923196,-1.586736040612123,-1.173593635323425,0.0676975812508521,0.0801389528694467,0.23259533046306083,0.9432718051059737,-0.01911404936469004
-0.46072870144083333
