0.26651956767316265,0.3019991962149201,0.18532745258727146,-0.010955207676280733,0.24973139368574745,-0.02729545458842769,-0.16094297086943612,0.03945118310370165,0.15563611734993338,0.014869013307417467,-0.20627400313685154,0.009282656698290835,-0.002749272241498716,0.17082253976209355,0.11218904142218208,0.17631246538684778,-0.07727165070813762,-0.18061064312816302,-0.14351950004369518,-0.09598945582075939,0.24865609114643134,0.028786653240381942,0.18600093956952918,-0.17352199996718165,0.0016504187856392757,-0.16544078872570983,-0.06977455863492196,0.20126528336611899,0.09689601001195566,0.09109646228546472,-0.12888419863420678,0.09224929174516269,-0.023563429792758665,-0.1408848570149953,0.20213257918706795,0.10602110569999779,-0.056889053740138376,-0.142597991983504,-0.22381389913154903,-0.14941412263795664,-0.3400528085023276,0.27611437512506115,-0.024184126536094298,-0.12301446732048896,-0.11259943948990352,-0.04437322280146745,-0.135947057245966,-0.24884815577690106,0.20268480907463218,0.01127639264093706,-0.15680501819973924,0.0026826137101492314,-0.04490501850401307,-0.06791465271350895,-0.12903671040680806,0.07284328226710893,0.045487671290887294,-0.006981547008581966,0.07165060515074588,0.17544675996762768,0.08443139332175102,-0.13477493415655653,-0.23245558824973253,-0.26450561970999603,0.14015619584602212,0.0344492881291047,0.19278175625613195,-0.010172779926012662,-0.09940197459794865,-0.07129320605325705
-0.1123376214219195
0.02520519240494916,-0.17755004649833253,-0.28792289250327585,-0.2321228727645437,-0.44386477572733596,0.2746475726006629,0.24509503095623086,0.10681322705115451,-0.26640896238866413,-0.005404682527403705,0.21367598340033667,0.21503891359685115,0.004150181456432267,-0.28064545506467925,-0.13618319090877368,-0.05458077094832495,0.10070448713689324,0.32423885137732356,0.1911957645618945,0.18263495376426786,-0.4867309759213002,-0.058162753394054884,-0.09422199056798383,0.3590427285700363,0.12010965239823697,0.17167447540987685,0.11401836658486106,-0.3463596187147119,-0.13500428919853497,0.1131958915618786,0.3508558456095409,0.013554614777821626,0.05215254442089388,0.08672810548843383,-0.3852718619249706,-0.13422529255543236,0.08875666628958487,0.3061725023092772,0.37430789296932887,0.1557183292881831,0.40586846097114865,-0.502041954576998,-0.05128465380885429,0.18864282793859533,0.11187205276548572,0.2311972360384015,0.3306401099024207,0.31835484203695,-0.43725925099837915,0.17948423252343915,-0.01484340548406068,-0.03410231910012443,-0.005611660412512952,0.12569220770843356,0.22061898138616312,-0.1947940967665375,0.11298391053728428,0.08525523613562155,-0.12229854798369497,-0.40858979638374193,-0.3137439280841323,0.35354822072450615,0.4665432104833819,0.19562068697880158,-0.21482409482586562,-0.16018173431210078,-0.2991814711841456,0.08099266241626905,0.14332754225664562,0.38851256150296953
0.22170934083195615
-0.16226939058894474,-0.046313991202714525,0.010433290626062033,0.45766397525501024,0.2903567303747817,-0.12619587317978112,-0.21114565192714782,-0.04688789135828036,-0.15241771495177925,-0.012724663290164473,0.2098620723693516,-0.3361991934582075,-0.08172695401716135,0.19806880577164673,-0.03926324557834301,-0.13019539982529918,0.08915302086595513,-0.21235417805597176,-0.09004001273157311,0.07394519273301425,0.1961712645268105,-0.06249597429359786,-0.18362878384474282,-0.06771650016174327,-0.07240535925570664,0.2649472947288548,0.13313327153282306,0.1557703596312574,-0.05931654393557898,-0.18295279316336577,0.012671664350016598,0.16791047825445785,0.21050414892207764,0.23272233792289226,0.03850384964960378,-0.12955213618369935,0.06992401121520396,-0.014270661549159722,-0.15314536485582378,0.1096745677755554,0.2937599747010845,0.17051577519674643,0.007427099528317142,0.11797978895624797,0.11683162246581431,-0.056817861884353435,-0.25216849533840124,0.2349325661858417,0.2465384288233715,0.03832822274817196,0.07251059205318078,-0.010971514320873212,0.01554438934681443,-0.15559323628679372,-0.01449264609419326,0.27353761646996394,-0.08144310841733408,0.11512192072174192,0.0521758795293536,0.32660194143729465,0.3719928421389581,-0.024898824052232163,-0.04044013301482938,0.17094125591483136,0.13485053528781218,0.0346358963846975,0.03627352841845889,0.08254620295705217,0.06681098128551242,-0.5184779545062383
0.032877791434208756
-0.7498281953355553,-0.5958001034492595,0.09451467949028815,0.5195423044663836,0.08163315652721742,-0.4040080841126472,0.3681591433581227,-0.3495540952208013,0.24937392985686152,-0.03736001285434476,0.43737285709855,-0.26727921862880727,-0.07410041512654705,0.1505710539162605,0.17291491352022986,-0.3699314926857437,0.14142513671150975,-0.054486985675644944,0.09749654596577688,-0.14050750718543048,-0.2082249020004873,0.21903657950326272,-0.3757907007464902,0.04778039751955034,-0.08311594984637459,0.2954347890510464,-0.24593377923583007,-0.5084100373472668,0.14927908356956243,-0.4015729048107957,0.04282414745779012,0.030485516730718608,0.04962656485365474,-0.20859600038810455,-0.31762990476161646,0.15622957488727657,0.06346631344912951,0.14997156228523878,0.27214799263950723,0.3310213894925534,0.30029180275349104,-0.6049445328313324,0.34896459377175887,-0.20461901669694954,0.11054780993919643,0.006530861487560106,-0.02617139589074,0.20680148344634475,-0.061025831016509866,-0.215703499554429,0.3899901332831529,0.04254944009370014,-0.010098479351340249,-0.13029077175005851,0.12852016531793434,0.12135436168872096,-0.48090063327701577,-0.15617240379735003,0.06166105217038086,0.1445985721257166,0.18406155797470988,0.08292636792658632,0.36278505948951906,0.44054743715134237,-0.3987014244638089,0.5994225912838728,-0.24188088751479964,0.2740557136857195,-0.1382846775531147,-0.38911049549547744
0.13202055063561083
0.05003571835374175,0.08498075581768566,0.09972701099788067,0.17352578111759123,0.4038364022994088,0.014701284675757313,0.015469517572394315,-0.07397812625179778,0.18464548559456453,-0.04225319146886861,-0.328646460869004,-0.10736357613514841,0.26881460869806567,0.13996141090874564,0.1396659991124812,0.022848783220717483,-0.12619569150787652,-0.28066112420577405,-0.19640601233487953,0.13855797228554084,0.3362995128220009,0.10970302262000085,0.07553836962817193,-0.4158210950309712,-0.0684130636013354,-0.280813543703862,0.18930781048036602,0.26235882155102463,0.09809367133043213,-0.18028993267549812,-0.2972563665161608,0.049029019040723015,-0.1788718254022186,0.04201205777892057,0.23700188093138252,0.07329243966740644,-0.24395530553557562,-0.2502740773548667,-0.3213592422539843,-0.1773151091860527,-0.13678895790049275,0.22068380363692722,-0.0076420568523731715,-0.005116248453304185,-0.05533194677354608,-0.21030254290910638,-0.23246368787002772,-0.011030439776229941,0.2028572824899922,-0.12494126758566675,0.1712896081783719,-0.015956975657152907,-0.030331145244880665,-0.05059474298097054,0.03155704619437086,0.095454169473442,-0.16530517350854465,-0.19525208996594595,0.26075906719946806,0.4760197056980305,0.3775695468693988,-0.42636764035030167,-0.39080781744625903,-0.28932384443656955,0.10667659961706599,0.18431178693155925,0.2101776951783934,-0.00795300650282486,0.11596654829698165,-0.21740782901506606
0.04244795052760184
0.15410548184536468,0.09690809660002764,0.17636146931292787,0.0017355815795223645,0.09355798886847902,0.0044392231252887064,0.17938077884225676,0.060280363194095105,0.2124906707542652,-0.03546208030952103,-0.061197187121078855,0.12475420286806774,0.10013925925199191,0.04176609112988995,0.2408741039173731,0.07628385739055764,-0.07510957323480737,0.05029994745622535,0.0307650500279532,-0.10105580006693297,0.00910195413930541,0.20977378378683345,0.08197711286894606,-0.0922145588669318,-0.008884381097530793,-0.09680174140215522,-0.12114608144481576,0.019267108922584736,0.17833062779925699,0.10656267780141508,0.01713570987655882,-0.0064146790096403505,-0.12562030745712055,-0.16443584027541203,0.00636633921859666,0.2144851344413035,0.007158303311149118,-0.003246970749278353,0.024915161470463704,-0.030661847152397077,-0.2219650332201969,-0.09545785781878127,0.1178882302823404,-0.10547404300411718,-0.04443701996960833,0.05393705522892035,0.06230079494886298,-0.10098441103495862,-0.03814971475961945,0.05773001774849705,0.09539350332852528,0.019489267377062122,-0.007475343765914841,0.03610816673026776,0.09342237329017657,-0.07808918228263034,0.08864568931477641,-0.022970125339279227,0.1502026157950218,0.07782512023172697,0.038131762317801396,0.0023892231298055424,0.03476242869649444,-0.13407841584923447,-0.12009523577133965,0.16610953981059862,0.06404426501328976,0.01593236632799889,-0.12642312535263417,0.13557911021861732
0.13147927810847898
-0.07597073275035514,-0.00964103640190219,0.061639670114259686,0.12294655423193024,-0.1884901975789725,0.09861776934081341,-0.1438418685484027,-0.0414524249695755,-0.015881398256988682,-0.04933429497128668,0.2119633375806056,0.028595068434093766,-0.6175055844416676,0.425470048280561,-0.041810983673542336,-0.04916433634797907,0.10086676841750955,0.17490334195092053,0.10298298341120912,-0.2438524625611651,0.12163189042795196,-0.0023419244027252715,-0.05028595850927196,0.4382678865015551,0.15871940291344733,0.4018914944700035,-0.03233920508155853,-0.22137871205233098,-0.01938561878177254,0.14133803843789547,0.4412465080680452,0.2793176067813014,0.3976814520184768,0.12807176955803867,-0.3032555502756169,-0.016054309950425196,0.17106185645262836,0.1449413997846725,0.10189122082924892,0.1676750721291343,0.02300168376205138,-0.028660587503559206,0.0826316063467918,-0.15199727286707984,0.09626095343509213,0.09228218625487705,0.07476641820570659,-0.09045240690424063,0.20258091154956154,0.06203644290342286,-0.14068392801010718,-0.0476991246493774,-0.011098068987912602,8.777535861024352E-4,-0.46274376704749615,0.4055305906151198,0.1296359815651704,0.20365165895403825,-0.23769374712487087,-0.3155992944396509,-0.19331768223970297,0.6080744751245585,0.13379638473543765,0.2192288435748131,0.5054093190733854,-0.04653048076187182,-0.5296641814496206,-0.032966287802407894,-0.23483383839584682,0.047416805971557605
-0.09866355157487873
-0.02705133273535865,0.014933856074862745,-0.2117312577891747,-0.13338646181222516,-0.12216375148491666,0.6661373159680117,0.10974653169819967,0.02518510825723695,-0.22393465593976294,-0.042906175152960635,-0.02773295674052482,0.0917004503592326,-0.31585431180888274,0.30665016436442816,-0.06774326860683502,-0.05825439485143865,0.005430907910058309,0.04325393086621578,-0.0014759687573000294,0.2901986857053597,-0.08954136841903935,-0.05644746811576547,-0.0676912675370558,0.26705282874878433,0.19235183492827992,0.1440261017193051,0.4301962006317256,-0.339017884538038,-0.11187783400471193,0.220950993424732,0.3507977983531711,0.3152984007622355,0.3013110740937348,0.47428123012044093,-0.46242295855917637,-0.0700515443772412,-0.0023780358841479195,0.0021565601172265046,0.04382236589701429,0.005610955768300204,0.25721253360907154,-0.10215812697959237,-0.08093907191621723,0.25127073864701954,0.03893756465045696,0.018867921952309494,0.1193871614222402,0.2920155825460559,-0.17221200946035758,0.058379344062233704,0.06456513684141604,0.03653088185960783,0.021431631661738726,0.042767933115696946,-0.2929280774642089,0.3566206353717207,-0.023435252839447453,-0.050618996867054136,0.12272937895657256,-0.0199358120915791,-0.0069877857782425674,0.4850450849192746,0.06939926678036173,-0.003628945150345087,0.4168965779657951,-0.18149270582379493,-0.6145687164341235,0.03739785390073482,0.2630220310036274,0.10893723440838662
0.12419537925782521
0.46677801557026244,0.3337433744965761,0.26839809241872775,-0.24353466508065846,0.10083114972029168,0.19513548373726772,0.19283505258370315,0.1343282603541768,0.3646567231477541,-0.037180321728284005,-0.37956550422254187,0.2599337201959524,0.08811984269065701,0.07639095630241846,0.30869013444174576,0.30453948265133335,-0.1874788560659594,0.003516582176239986,-0.09771441779390362,-0.20100591128006892,0.20351686991100854,0.2469197730041144,0.22582481905688215,-0.18503652813588195,0.05082564825262742,-0.40964610688115943,-0.2317830279044392,0.09677207496310404,0.22316476640960853,0.3007056333147622,-0.014820973933203833,0.058505330085016106,-0.277628173255931,-0.28925511898970574,0.16842748156584636,0.25131867339022657,-0.0767347340869409,-0.13572500140221883,-0.03714031545501196,-0.2214752143415609,-0.5553070125843816,0.12543711984915243,0.12100466688892926,-0.11669132404458121,-0.07319938966361382,0.0630208299890831,0.07859356657396653,-0.45332016196115477,0.018233739250915065,0.04963290286783644,-0.07754950910498606,-0.025380452249546083,0.032857743949728194,0.14771938766605844,-0.10932671481465406,-0.08364264644580471,0.17541366940882056,-0.023095379792110366,0.09123424797745837,0.014020188083066262,-0.11514363786567765,-0.02370833933035225,-0.04386418999872344,-0.3891557764265161,-0.04943405008204464,0.1215676542483518,0.11149579009883853,0.0017571891084027355,-0.2215979813704105,0.34086534735862994
0.004758709162535962
0.39780634444887264,0.40506410617271177,-0.16847383030107288,0.04729722325718278,-0.10985198113472072,-0.10446079730168437,-0.2393706502392709,0.2505835759119517,-0.35193454523945544,0.03868015302766284,0.16236542234360754,0.030035158946714123,0.07374107006305268,-0.3796728701067349,-0.3132298572716705,0.1789503643280113,0.07867588505443834,0.14222016951044716,0.08846784500869508,0.06437211196427596,-0.02235417729211652,-0.2706657099412978,0.1665662924397697,0.2197678951631858,-0.015174019246436295,0.09740450065156979,0.041496770065952364,0.34196336059729365,-0.22986259497438835,0.19054789922963578,0.11540378446935583,-0.05296749211866663,0.06834617090761727,0.021102512394601314,0.40472831142475396,-0.31108985172978765,0.30622465949201344,0.185312048816617,0.14320910298825637,0.06680227032426427,0.17015907927745266,0.30784760470705586,-0.2135447035059217,0.26743746181549183,0.042903233133513116,0.05968335068111522,0.08865342000504439,0.1560077859275694,0.026454008382576315,0.35054208780372204,-0.21491111947137242,-0.04187744747046018,0.020981794336149717,0.055816299976305675,0.24724026920175923,-0.20516387974671585,0.4552085801940092,0.5525756124941147,-0.057975930628664143,-0.18030654658961073,-0.09524714130201828,0.02637414669011563,0.13704805978564966,0.13806859412055517,-0.11155314052214962,-0.5041060161974645,0.3783543666197648,0.007694481996830274,-0.006779332581868642,0.10873220780070451
0.11393762079143316
