0.4103700965321743,0.4144395095843495,0.4220293981050203,-1.3536386465101653,-1.4820289055283864,0.4008334505294653,-1.1473188932534493,0.524942682071555,-1.6574842803592476,0.20574327128720524,-0.5208300933169987,-0.7133042169003945,0.5807061778498727,-1.4803339678582779,0.5606581880282466,-1.3978196202120727,-0.2938706854864665,-1.576620621232969,-0.23659620535289985,-0.947015126019305,-0.12695657524599388,0.3985333283518798,-0.6125224434655162,0.8566969609132675,-0.7028843422582896,-0.33626139235676566,-0.8778698675552411,0.5305133427406117,0.2771751313994489,-0.3955135410395966,-1.5888528012481247,-0.09427412966845228,-0.23340817956933718,0.8778227250089633,-1.7202530803793588,-1.0207756339936216,-0.09823299263676988,-0.07202789461534924,0.14626692688023457,1.0520525010913913,0.06356852099746009,-0.22892466259931227,0.7571327396426724,-1.1585334533600467,0.5494512740185055,-1.2331831300433316,0.040306355862406926,0.5396131614087272,-0.08445043495838264,-0.2833407857133994,-0.19706838099721358,0.8583637844781286,-0.2827986918511658,0.018767031973319127,-0.27403240261836187,0.045666034916470005,1.3729547274564589,0.12773814491236551,0.9884615771284255,0.3850607919247845,-1.115050138761691,0.34393934636466367,-0.19758511044936222,-0.8099921401494748,-2.1629143609053543,-0.9668887826102934,0.6079473153134772,0.488266866744188,-1.0522801059041624,-0.15117949914699974
-0.5939003924066261
0.5401850996127238,-0.3465880272156389,-1.8255317432841538,-1.0941415605334497,-0.9914924112746926,-1.086840627998656,1.6521500170567383,-1.0669838845879906,-1.3832086587969832,0.19119993576313182,-1.0045153571779628,-1.7239108039286315,0.8566940144373869,1.0419857746169865,1.1562060025635843,0.6408420221532308,0.2275322708602485,1.3127686271051644,-0.5441011004231683,-2.059635974689288,-1.56404858494322,-0.35957167307950755,-1.9403544064867537,1.2368162566413665,-1.327643415724982,-0.608497397820798,-1.7240171416259236,-0.5914721128959455,0.9655727916150546,0.3320506203184065,-0.8428091923671855,-0.47295966517485377,-0.8240378548319298,-0.49769346507657775,0.39779561798856594,0.20741077717228854,-0.44475783701288674,-1.3801282615323305,2.045238431934234,1.3907680819998327,-0.8259051101776335,-0.5593354026379894,-0.4478186004136855,0.41702263976776316,-0.31592213314616174,0.31577876635851254,0.1295022579735914,1.3300465923627387,0.2580631129362004,-1.2147370797816242,-0.5730556581966169,-0.4814266860268394,0.7572048810902966,0.5816491332323244,-0.29226910282738383,-0.054326965270860145,-1.2237692622152485,-1.6320132045043718,-1.550099275467398,0.9593619923988201,1.161209067411455,-1.9109327483549654,-0.4163467660143361,0.8702405392848888,-0.6955458030537994,-1.8938843276959882,-0.1544630529321226,0.13003807781685933,1.6077834883698328,-0.5415965096270359
-0.685367729723568
-1.0909849803917318,0.08327947263970259,-0.5676818036123026,0.4092313742131562,0.7275104615862528,0.062332812366736094,-0.13464179757228176,0.8191887758830716,0.665561660724745,-2.214016081450372,0.5599478776032587,1.5110888194871037,0.115624753135622,-0.8091761088780582,-1.415180197240839,-0.4757803723733177,0.04399653664452709,-0.5275772910330256,-0.2391891940308671,1.219812248768897,0.5628526478425413,0.07360158221961516,-0.7064801238040925,0.6005172569512816,-0.5681750275267125,-0.2266004297322893,-1.0286436360450693,0.14888596013491462,0.13200837357441195,0.07041455631149847,-0.888401621667127,-0.17842596155161722,0.1818164298989017,-0.21011039598845774,0.7606388661696818,0.17678267522918586,-0.44510263674428785,0.48228114411623013,-1.2626415187007436,-2.13623703809035,-0.8066191741339636,-0.2892224860644346,-0.313042748197047,-0.020141318983782113,-0.14439012747522215,-1.9664817199356015,-0.7184437910758843,0.5062126191861304,0.10729246852262461,-0.41893655466917384,-0.13718126801673627,-0.22749565421088,0.2876740441026822,-2.0987405427730508,-0.34759377699127203,0.7224260360630667,-1.1905006441373813,0.8104345989766445,-2.221854855285069,0.34287818021207467,0.49941700589497673,1.3143259765247488,-0.07077503473154508,-2.081776042707269,0.3094608860628866,-0.7503707311386117,0.09310192248426985,-1.9364607900823176,-1.8189697656846877,-0.21883160855589678
-0.3460643039404757
1.6700217102270667,-1.4006393364992553,-1.104496477026231,-0.4353145496137615,-0.13437150008255025,-0.051983242866959725,0.10654665586345088,-0.027879763476001917,-0.2721093866204817,1.5489458974999446,0.3884087792400872,-3.172311482471835,0.4374911493294554,-2.147370759223307,-0.8688466739613186,0.35481761954283747,-0.7344612949368411,0.3436231004413984,-0.3116665816852176,-0.03466071036669608,0.8567270154468438,-0.2662546339375267,0.7149550276972223,0.09294778912602046,-0.9483007895723907,-0.33387077790821656,-0.8585433244426796,-0.3536136998168602,-1.8127918581770766,-0.341118373674424,-0.6064657292196514,-0.029322100797687215,0.6049524644059386,-0.21629286640195994,-0.010584001844075873,0.7089822857167101,-0.16738656130121152,0.9654708286034496,1.29961583227014,0.2530578194531347,-2.281067978749731,-0.35440097915568836,-0.2732703089375799,-0.2984666528302194,-0.13215333006277447,0.9129505586000389,-1.0098974982803872,-2.0906679742078933,-0.2251282899478011,-0.40887901629815715,-0.5715757021721606,-0.3191914993547995,1.0894381695560178,-2.010525003473137,-0.1338494160699503,0.5216585856735972,0.031552532472142014,-0.849534718181372,0.8184874420021043,0.9744161237210376,0.27152159275903953,-1.4720090431427038,-0.29305374318633026,0.969136464690876,0.013672197792190751,-2.03979736193377,0.39120502963140924,-0.6732933240831863,0.5104604397131047,-0.12985832969327457
-0.4155995625555284
0.10966918748971628,0.3964986540390506,-2.8777418941114172,1.1094574606902587,-0.8416869120581787,-0.2930833444605432,2.443354732309301,-1.8949504389617233,-0.3845468811809233,0.39582312452391666,0.20375476474312879,-1.3534726809433164,1.813425220179856,0.9050694862961256,0.793077964993305,1.2883668822040917,-0.2902830750974768,0.19030556203651477,-0.5431624619235811,-0.3844045827250233,0.14084413719136923,-0.08656753209083218,-1.0750110839649574,-0.31697373929961825,-0.9160063718254994,-0.5372224757859864,-0.8513713436986272,-0.6006375316209881,-0.06677528776663358,-0.11140298652392276,-0.2749392919395684,-0.31030298350631047,0.4703365150409645,-0.4433570077158424,1.457859000894208,0.8068288636612861,-0.4324645981945211,-2.9666817188854493,-2.200177463067373,-2.7865020707125354,0.34812823229922624,-0.5063400580660887,-0.48356533846607014,-0.2766955347259775,-0.34629484726461424,-1.7123613548753298,-1.0847495404190806,1.116308516825678,0.27868872117491905,-0.38930062706502216,-0.49338892846306803,-0.4872634036086934,0.1182570073721608,1.7102110067946183,-1.2846378206370175,0.3677018213694069,-0.5774525656292504,-2.6394211681002337,-0.9726369167666686,-0.04599679139895002,0.7369142071595237,0.9588459032502098,-0.6023248562620563,-1.0794389809180263,-0.2467449252590684,0.18097014571261752,-0.32136288552297726,-0.6788318241117124,-2.1665548132271253,-0.5726336857254479
-0.5944543944179833
-1.7464928404508346,1.4685889573444615,3.008410748938474,0.601039034272821,0.7269293480928003,-0.3298369985351683,-2.5221730202815165,1.8917515543225094,-0.6295450352883708,-0.16861300576740468,0.5078912180870235,-1.0070074224087942,-1.9825487529965804,0.6463036443794259,-0.9408502833918169,0.22955975747029014,-0.6289800377131046,-0.16936727732061405,-0.6343450422471476,-1.1964775780225916,0.9748288249701845,0.5364951742464318,-1.2851401496349781,-1.1813722788987993,-0.7966070505343337,-0.5833766773222239,-2.27323805705569,-0.17918926824390247,-0.31008257893720015,0.6824666976046981,-0.3952057793986911,0.5462655297707111,1.8182211768941208,-0.24745132275662832,-0.26399773696838447,-0.0773442795830771,0.09920947324633393,-2.344292547557124,-2.4520730033260687,-2.179210609722937,1.7892704435329343,-0.5861982502983374,-0.49780485780989475,0.09032238212866718,-0.396114172532442,-0.9518500842059829,-0.5171524051886717,0.9924867559052325,0.094614130625162,-0.39968940724022484,-0.5987210012888422,-0.48009981782549366,0.11789866752195888,0.9250441155287576,0.3500960759302738,0.08643071712102346,-0.6165177664111974,-1.0144331328591527,-1.2167564540941114,0.43531956643478265,-1.6765292989504441,1.0619361129635896,0.04168520938492293,1.3152936258647143,0.1258038805481758,-0.7974693166767057,-0.3417054516776481,0.1947366808830445,-1.8550142754223111,-0.4420566389042737
-0.703000459918093
-1.6595176873068687,0.682508231704978,-0.755783224918623,0.13661645530180225,-2.730903405531799,-0.4648381359721207,-0.536931283645206,0.4511402993701296,-1.300590270425122,-1.9064924810236377,0.47426369800026547,0.6972672941812647,-0.05854909376996096,-1.1377537910093216,-0.8510494481372154,-0.597932723784943,0.0245050016424061,0.12022154987863909,-0.4982869370838817,-2.006732599298375,0.3686617919102801,0.14160885807954693,-1.6095886295350872,0.849614994432358,-1.197067488118427,-0.6444865086158282,-1.1304763459628793,-0.4517834224228956,-0.8051800124888149,0.650050643087002,-2.2751041255262616,-0.4990357112404155,0.6720128400721742,-0.41452444879082195,0.04056673331602566,-0.5281986630145145,-0.6639597002100296,0.5809284794201608,-1.0246995095886176,0.2302163578525499,1.2923009107073549,-0.5256422085420157,-0.37164406397317007,0.05986922411982792,0.07066580526031024,1.2793905874902591,-0.9427560852541355,1.8485407586318499,-0.025067110952348846,-0.9111966545448564,-0.5347177127323536,-0.20060180797169164,0.43423054059245564,2.2916818914477926,-0.2196604946964761,0.10233486400412863,-1.2804531843946105,1.0338652437703841,1.2478518389693347,0.23685241300481766,1.3435744290042053,-0.5214473927466027,-0.43638439896970044,-0.11706102219084172,0.7063280725710854,-0.05314572101378681,0.23266480046947904,-1.8826076570458916,0.7277034038910986,-0.6358032296256779
-0.7392874390304451
0.19310676134058577,1.0008992091917852,0.7843549197814921,0.038974632061467444,-1.8279843536106886,-0.18716618565058896,-0.007124784945628552,0.6768478820292436,-0.678182720392992,0.09851823935719745,-1.8817817134746708,-1.851262613621575,0.28069455741049243,-0.15506586818910348,-1.256222445065836,-0.8437297306881867,0.6478257793655933,0.0137724281770325,-0.32814030070943706,-0.04492850413143076,-1.643790352489723,-0.18060022284383015,1.0059012435572592,-0.45527493604176417,-1.219664592404914,-0.25967203215075885,-0.8091994853423314,0.7325478769313063,-1.3185221859980583,-1.9416765960679776,-0.35113334315646,1.1691533035566546,-1.1855568035639705,0.42133745083846796,0.43086873728589437,0.4367929593154079,-0.026899038643718853,-1.4345069216316533,-0.008172630338631127,0.06627780029641132,0.7876460417023604,-0.2329429568944339,-0.3069974383222436,0.5042778773959276,-0.06956337160081733,0.4355359114519063,-2.0040911414899383,1.3960232117450728,-0.545970024718913,-0.24314134278461477,-0.36993867971641836,-0.31990010701695476,-2.0089518811045255,1.6864136269798038,-0.2851099507747198,-1.4736185700178597,-1.0970543063221205,-1.8020143053542272,0.09713503451539754,-2.267646068018579,-0.146063882841383,-0.17637532323580607,0.10721262288247176,1.3071423901800712,-0.015877609893107377,-0.31553632175379803,0.09321366442762312,0.24048476490871942,-0.0631271466751412,0.2552828489836572
-0.5006579611879384
0.05324780295929172,-1.7901457826557776,1.3457818512954618,-3.204071775778558,1.0697640397834816,0.06087701785387113,2.0538235936220937,-0.28466133833335877,-1.2890800080127638,-1.6939460221969107,-0.6257691729117212,-0.8163757597695517,1.1986536491534132,-0.9964679442139767,0.5704395294098675,-2.0206156767543533,-0.09809312754905204,0.7002952797370836,-0.11319088636305141,-2.4458373845163477,0.3042655443573316,-2.0749178902510983,-0.6687988804213351,-1.0802442565535537,0.09390455486162536,-0.22498211933286758,-1.2397551472662,0.8193041192589515,0.2188900902405236,-0.07743851983076998,1.1563253237908655,-0.7607225532373832,-0.044399564390347486,-0.06277637710181426,-1.865503602599077,1.580346191644258,1.9377802413245564,0.11205620742773979,-0.8741559034615927,0.6339619223067847,0.9803749287814126,-0.24261721590738114,0.07821397600078729,-0.14438570150369964,0.09292655620489816,-0.7827040658796783,1.598232681879097,-2.0681706788622236,-0.5739815459800078,-0.270007671035308,-0.1586440456564899,-0.17759938717229287,0.28646350915157165,-0.15291753618794285,-1.123039193751968,0.9147631506753733,1.1033087555077183,0.4205404298695211,-0.7326618825173874,-0.28168012128603315,-0.8422100070831124,0.5239056041226682,-1.0728361636684987,-2.4118171242746347,-1.5739933206092753,0.3386648471487391,0.09040383485981855,-1.7371210443043366,-1.187053140744208,-0.27174441411481276
-0.37600685023838376
0.5735204265177999,-2.2407315400941044,-1.0493634398216158,-1.9218758600574033,0.22142923610164855,-0.036253404720442986,-2.772099493242167,1.1291366465347223,0.4494719544667816,-0.18749850031044915,-0.27127649558222955,0.3817649596642508,-1.8279328754377333,0.6879848648602651,0.6725574905794284,0.23420846788309277,-0.40134746962811246,0.5247267960906786,-0.2788262079134004,0.1771646578829967,-0.8892510072092675,1.5711309253744328,-0.6605130385529395,-0.6752414576149588,-1.1472466087046027,-0.3370669457887479,0.7898879049645449,0.22252283696321698,-0.2795616152885343,0.08102796127867404,-1.159806018952798,0.23427602717272963,0.5214058784602554,-0.05847239976810341,-0.33274255029335426,-1.9351491935954843,0.0040490677724482485,0.7766126622939024,-1.129457895963139,1.6294719624301357,-2.6703137386534364,-0.3219191048059479,0.0030131986449946735,0.4135040373846346,0.048488446774106166,-0.5370035487580841,-1.1114256902849085,-0.4230605415665389,0.6423723416373075,-0.276567469375628,-0.3034859208920969,-0.14430225420637793,0.17709899403464394,-0.18599335650227364,1.3481892473058656,-0.15663752997605745,1.4005589540698893,0.8700366836637964,-1.3443224726550327,0.5097841783329496,-0.6247729116020104,-1.198387265853684,-0.12170650277520927,1.2382989224212864,-2.681582471898951,0.27236251594643796,0.09231294284298111,-1.6223679314973507,-0.08161929994988941,-0.26649614497689195
-0.4778603971852601
0.13421959754779783,1.3222309174483513,0.23991007083871588,1.5215554840244452,-0.3746118859983451,-0.3950286630665008,0.8186026749918599,-1.500040678410879,0.19570378523925339,-0.129573819053959,-1.215476931226175,-0.2477204674460545,0.9206553959710627,-1.070032929456885,-1.832611503141988,-0.31870272512541603,-0.28638981633738225,-0.7819587500109361,-0.44054324547117363,0.06109993038589404,-0.33274449636310716,0.21228474356898397,0.6800288709150093,2.27347243001015,-0.01702695335741843,-0.4603532288601827,1.2341129904305306,1.0525027697794769,-0.13072271536624944,-0.0032411674779263713,0.22679956837476978,-0.60428553295688,0.844173836621408,-0.4420355717360252,-1.8642156060720083,-1.9070395519651193,-0.4891642549649656,0.3428198667136499,0.015368408119125198,-1.3684502431271903,0.7021234776975619,-0.4192135328031117,-0.5396368896305443,1.753465258502217,-0.0814141130154809,-1.0705768271247948,-0.6736440894882216,0.8181012402261073,-0.14560059033537015,-0.3560097057889281,-0.36235416701343853,-0.39987661287779297,-2.0684270157983926,-0.03533640684581364,0.28270555010148135,0.2961670178240912,-2.488186846794798,-1.6923023171406308,-0.5679139236074096,1.0291336825950892,-1.6582281741700073,-0.7667805732677372,-0.46705201985905587,-1.7180448641557602,0.2296670279212257,0.591325413735735,0.014876552248835762,0.19906716553427417,-1.7051001535954207,-0.53669359932775
-0.5041357739645774
0.218020653253734,0.583516453372543,-1.5640963838148014,0.023790958651832558,-1.5851545517877488,-0.35060464932022156,0.4883547146954106,-1.8848533518488149,-1.2062371941790695,1.132938681749729,-0.3053853582475107,-1.14136219719555,-1.2334942370913902,-0.24511673537681616,0.3249412143025828,-3.0701958980504527,-0.13635272117786126,0.5868360033463655,-0.4389631428549294,0.1457393706481883,0.37601908660477645,0.4312506786952557,1.2166272076376485,-0.6704123611191543,1.030269481322457,-0.4055882134549195,-1.5250428690202862,0.05284072057879628,-0.05233500861909866,0.04167396260229009,0.12642276435406533,0.04329954842907497,0.170696591925683,-0.16774655493215646,0.6865490044632461,-0.0583667436936831,-0.05822781518502974,1.708712071830596,-1.3349192264258924,-1.3275900285492424,0.6384241013010843,-0.4148469606992536,-0.45319002180897666,-0.0015310389501493158,-0.22984291984577487,-1.186509603970868,-0.4305648890980151,-0.5876932251188086,0.2129688711211909,-0.4242256888782009,-0.3694372040792312,-0.348011529553904,0.518040999241815,-0.5586670969618643,0.3351743554333453,-1.5515478613914258,-1.3443972915713236,2.6791027355264108,-0.8444765585319999,0.4428326826142149,-0.3289111684799283,0.4793946366122713,-0.16837511980596595,-1.6330566147189554,-0.9190026169273989,-0.5502742793762764,-0.18986147004442191,1.7603969388621534,-1.4870499084268527,-0.30823987051109986
-0.5457571298466485
-0.7097750367798469,0.25108391183114737,0.34725203910992025,0.1645190548033133,0.7042905849764258,-0.15871444800683426,-0.4933998871258706,-0.2669034494552553,-0.4840149848592907,0.1583028122720186,-1.0559508814430483,-0.4222175027982948,0.19129008421299457,0.23578610416880186,0.7581709026414288,-0.07373170437382413,-1.5590320694924684,0.334358282329156,-0.41568327722096066,0.4320230880787404,-1.0966632822907831,-0.2601785404352943,-0.3035493741330664,0.544621497470963,1.3336669161454857,-0.49547048694374846,0.4598900557095285,-0.38274546360477196,0.45928197426646983,-1.479450592264037,0.4517692901748141,-2.2156830871135993,-0.7412976763333113,-1.4531736203930503,-0.771091584002784,0.008783319283608041,-0.3369637784370619,-1.313371982277874,0.937540121033068,0.8166548225142665,0.08074430904818956,-0.5182397666489391,-0.17986672540484347,-0.5668397212353985,0.19522712897717087,1.3322996889741798,1.4320840116823763,-0.4791951280679936,-1.094648184804792,-0.42440409859629213,-0.27941180186529313,0.1635235231592452,-1.5734643760823748,-0.514332671342288,-0.06236175082681238,0.07877890805326702,0.7558626284522503,-0.0959013498047509,1.4502349674992512,-0.9372827210368578,0.564827780177643,-4.7922272084749006E-4,-1.2471654025929242,0.7840944431242691,-0.1115968160182908,-0.6234257718159268,-1.467900374781931,0.44776729174547386,0.955465345676988,-1.6172103801541946
-0.023198586803605814
-0.003994783550614777,0.3519396690736172,0.3288343186700611,0.7784077738586219,-1.2285685037887393,-0.3155396434281154,0.44344697878970163,-0.10928571957145332,-0.15234205582210236,-0.1323854505817495,0.5128369462519032,0.7685053551071345,-0.06389427094794506,-1.200623604817281,-1.2368591512744913,-0.02832090914515996,0.23811164599557474,-1.1242587179386814,-0.31373110808977656,-0.8158037644764224,0.042150034515687426,0.24946331959277693,0.38311248145293436,0.4458829277770989,-0.8890465800531371,-0.27726267307833424,-0.024106697292982572,-1.5221769582327274,-1.902616964385655,-0.3601999979983977,-1.0152898548107685,0.003409516286143404,-1.2534487138415646,0.39818191416712434,0.4993715973653621,-1.0866021533326096,-0.6030623351887218,0.9905771568340271,-0.16776419333962966,0.3663146972256534,0.18361012137980204,-0.20083333638941644,0.3389602961485742,-1.7860524744829487,-1.7314360483542481,0.5645681409282413,1.1237394832068723,-2.184916962952165,0.819501796499044,-0.14804312156690191,-0.3125312900862893,0.06205389637194171,-0.9196398163707339,0.5100197173918624,-0.02191803731842944,0.46182127102895393,-0.14034466200892098,-0.958582799046468,0.30105276140545156,-1.4067672557069009,0.6744387936305576,-0.6877200651638874,-0.17649191836609626,-1.6795786945525197,0.35860456190977796,0.29275594937174865,-1.6275940192663618,0.41345522743312946,0.4667470758632251,0.13247380781001952
-0.43415766992068644
-2.4239291618352565,0.27261727073746966,-0.49483086357189,0.5823199032910474,1.442020682656762,-1.179597349617211,-0.21203273758499477,-0.2897210987188365,0.7016313795129915,-3.1708405255183685,-0.3149801041902497,1.6221289560959753,0.07701375872642605,1.9778007071340895,-0.8485656382860118,0.1023979738490469,-0.3454086995004115,0.4284186323904892,-0.3704734038604959,0.39703709056235265,-1.594693518771166,0.6735390662133469,-2.385651302011979,-0.6131537689103236,-0.5182104311235446,-0.4762963496469927,-1.0310999912189622,0.2821423844320872,-1.7854557287370283,0.0026809500224962237,0.15355657817567467,-0.8605941785557926,-1.148910981454732,-0.024251968130004495,0.12118816463502227,0.4426627771875573,-0.7173066857730926,-0.1715913964148706,0.3107391533944478,1.0212683931500517,-3.068311489024489,-0.4219233176385122,0.04112696433549584,0.0915191749595286,-0.2819703669652336,1.2267644220955551,0.1812427866090902,-1.8001787775850284,-0.570734057785122,-0.5981296959486446,-0.40037816821683386,-0.10636025339623613,0.4273906048883649,-2.2614820077782523,0.09644419659617279,1.3192091811310922,-1.2672783140327601,0.9554010206481128,0.8445435346972604,-0.0883855860738677,0.2912807073006018,0.5144721937972244,-0.34659752368744434,1.8133087040912723,-0.2881984748279294,0.2058717679649403,-0.9992570233975486,-1.481489881353845,0.8201963105259581,-0.43512224729926413
-0.5929907410193347
-0.7716795753584034,0.43049226995891926,1.0214580612535888,0.31425147365102496,1.8362623589798397,-0.3489918227855215,-1.4463675609325244,0.010522609501301622,0.0418865192059828,0.04325545469981837,0.006032279473253265,-1.2315419673997199,-1.716501904603204,0.817940776798911,0.042251142415159905,-0.007138821322840737,0.3977884944832872,0.259813573321508,-0.28881118802041644,-0.15893952215024768,0.2690394243143507,-0.041245017175441656,-0.7505024802166492,0.37032744938336803,0.42856913379113976,-0.32147314596472076,-0.6124623011667701,-0.24191252454721832,0.26028370494994724,-1.8581747441873768,0.07437811997101988,-0.16221555546609986,-1.8193603278331116,-0.08983221293694986,-0.6420350828686345,0.4148527813956024,-0.18838832196944316,-0.8323168430536378,1.4521639576853047,0.7615929724885593,-2.875016167172272,-0.306752796784925,-0.20015750705713165,0.0784482227809838,-0.10855296048093405,-0.015369521175187703,-1.1242896581001123,-0.12713083250102333,-3.011466679326313,-0.39589806855082715,-0.40403546638896837,-0.25633505492219055,0.5202692297700964,-0.9290638500551568,-0.23449310719294933,0.5623625333032254,-0.8444525927781315,-0.9418219188387842,-0.6513966417933541,0.6575222533802002,0.7926886161940533,0.9887137550890229,0.26194703661256125,0.857517075453684,-0.7332425861061408,-1.0889209104189492,0.2682497887543464,0.3003038620791006,-0.1513429616611557,-0.2028624805205621
-0.41655702309959797
-0.03788236171469361,-0.8635125882324495,-1.1432110146865244,-0.051810944093918385,0.36669400524777174,-0.2437955370093224,-0.6998090436049195,-0.05728770715637948,-0.19374809392311512,-1.5948520069720553,-0.01202162010597682,0.051518436758570485,-0.08991298500046017,-1.1609783675851508,-0.5212356340371391,-0.4231357195319547,-2.162792201535075,-1.1537954853464363,-0.2068881925394455,1.0141566863333467,0.8076553447653129,-2.611757914312847,-0.3225945170586111,0.6541878564001059,0.7270294870589333,-0.3275680289707516,1.2271112961563824,-1.2991394332763706,-0.9859765811197938,1.073519266756202,0.044660263592439124,-0.656311790873231,0.13567995003987962,0.2764546481477589,0.6391266879609357,0.4210338656324515,0.07856563773994221,0.03600618697870385,1.0619747033188396,0.20609972924197856,0.927436119899912,-0.42188713004712364,-0.08448292472622042,0.02985442263276905,-0.031738806575490476,-0.027248195743684256,2.016623934856633,0.5777780774322179,-0.08798018750912466,-0.19739482242299244,-0.6661633994075608,-0.24857475873506377,-0.6189445149609724,-1.5565357050986086,-2.313201724156262,-1.0460196242654745,-0.27986540993311254,0.5638101920447829,0.842812593430451,0.9985841870200982,0.6853356850924524,-1.2395392937305407,0.24447547597661615,-2.3368601911056195,-0.04700039265519652,0.489493221075615,0.32215484677048284,-1.725361286308833,1.32812624489679,0.17795523636589528
-0.3733649903939758
-0.5312193555929634,-0.37399618298322657,-0.10894267112337574,0.6744628897084077,-1.5994835943088281,-0.6574313245730115,-2.9816412387251443,-0.1729123358881906,1.063681714871369,-0.24341726662764987,0.8162457209521895,-0.5391330650027238,0.6242080106110379,-1.8762989110618942,-0.4051866289562443,0.2679398475300022,-0.10009757170332582,-2.4421879192415776,-0.5445734355540439,0.9143354106787802,1.0943418833811676,-0.7214951753435768,0.35017881787886435,-0.286800702859943,-0.26126470639628147,-0.5062763829595107,0.9324518273136269,-0.0749316154476829,0.31295445946778927,0.10203155686588251,-0.4626688280144981,0.06556918413315062,-2.107573407943668,-0.5173176378995975,0.6504411994527998,-2.635521544750494,-0.6105321410956953,-0.9260367349238611,0.4505031526883662,1.7714352624741678,0.6573513625583216,-0.5653317096423865,-0.5201602539797852,1.288723154686705,-0.15501167825163972,-1.3797191355902019,-1.2744080423011364,0.2666832843482831,0.5141556325011553,-0.41202295367761654,-0.49193846897778043,-0.45704223476700695,2.211560327109349,-0.10064342797558065,-0.7677092763579765,0.4547067355525531,-1.9534163532897253,-1.088410011759245,-0.21017839664263097,1.4353200409581996,0.9919440270212662,-2.383630073488256,-0.2983463753109304,0.46811994782558747,-0.15857220841808264,-1.822290054245774,0.016254979572833575,0.5531791989421604,0.9356291481213624,-0.39026811043327236
-0.5989725394238664
-1.559609457999889,1.438565456232833,-0.1687392352961953,-0.37466498944755194,-1.2957522551003202,-0.16267518934521025,0.025919798701025284,-0.8250215475312401,-0.2814719140308905,0.18576497376631795,0.4411165852216296,0.5951049917236175,0.41514519461934596,-0.933387758674566,0.7079705790949786,1.0505851036317018,-0.3991172041965378,-0.2601572086467941,-0.2767463186517163,-1.7428560027210351,0.32675375924730565,0.5115565566099023,-0.9220777914447905,-2.2424220773781043,-1.476449749907848,-0.30575547543185677,-0.7527933044208757,-0.2824081241425563,0.4819780354935163,0.10003810320802348,-0.8937259618457412,-0.18978179907577677,0.5253666378343432,-0.059182015238447426,1.1059236306980236,-0.19115648136838714,-0.04665571650060224,0.6688884154803281,-0.9931764301006614,1.773617797492094,0.6067268605710152,-0.2826091792911363,-0.021804758543595263,0.12822245899532408,0.03102390699487873,-0.9821442166359992,0.4270980248853117,-2.824133367372263,2.646029715612453E-4,-0.35447092688429144,-0.2780404764823067,-0.2502906436707937,0.7773877342823088,7.667427969887222E-4,0.4130353852234073,0.38622103004227826,-1.3396271182871637,-0.9627063970228944,-1.9520288886456143,-1.1978124868205977,-1.6817165981363107,-1.506585486369671,-0.1799217063564318,-0.9667221578530395,0.020534606738722802,1.3377058833284783,0.0014658127338028277,-0.5480153017698113,0.7137469855553721,-0.2561846995365572
-0.5283217863914856
-0.7054678252142742,-1.5000493793459482,1.7943079765290566,1.2053795453291667,0.9311199418820619,-0.2618285663512614,0.025991852215474974,1.4981260402217402,0.9477953971220702,-0.4833150207203774,0.645187337639276,0.6730274687637081,-1.8528440613963328,0.5643343139285408,-1.3189918841435697,1.7264748476530853,0.11040811491902328,-1.858497642506179,-0.16658039559075818,-2.034674303768243,0.44952088354590847,-1.4766922705772976,1.0172260771510993,-1.17012524096939,-0.37497412055544366,-0.2381425158595222,0.7158800123159236,-1.2029674550721938,-0.1417068711705114,-0.0811656154611271,0.08824667752527778,0.3654445576513956,0.12303094585998028,-0.43969015583994064,-0.7067990116263471,1.0144818534398101,-2.0782009093035554,1.1917674367253368,-0.8810114663162628,-1.3247468305333114,-0.559686681231195,-0.27608470117830053,-0.18008360870528475,0.23481428549011613,-0.11134488470532908,-0.35565964274432743,-1.8804231665068234,-0.02033299769256389,0.08119190729568437,-0.32226626215088805,-0.2200869494969624,-0.2998489107914325,0.3461528493878393,-0.653683095544656,-1.2627595339287245,0.10036840901621613,0.339003022392021,-1.1885585777034982,-0.36756189039287795,-0.15328511916339066,-0.8935979762846405,-0.06205914285571429,-0.3141209537926434,-0.7935832512936238,1.5834233709280132,0.04535804166075882,-0.508326895363547,-2.0435675072633086,-0.21246268893768658,-0.2568480960603327
-0.32110574401229797
-0.39540341957777775,-1.930696233874588,-2.325537064766754,-0.37828192097958935,-0.20489453706118144,-0.14788435140142847,0.525416732884947,0.4009945365075653,0.2507698332865097,0.471000699785369,-0.9606566037109444,0.8169125985671719,0.534819781621425,0.9066604440937844,-1.7108845050134835,-0.12610631375099732,-0.37829365579351576,0.26303096427686196,-0.17588369504439436,0.3525316029647489,-1.7584072998639155,0.730695181081146,0.642527042016671,0.04677908484891446,-1.3045706143277118,-0.3625172094354554,-1.4920212159276225,0.29092331497421525,-1.9998819264003702,-0.8845797912074829,-0.9637236358965844,0.18636124511551463,0.31656170540458534,0.05837096195488182,0.0995908195610489,0.26128915136568814,-0.3273901322519164,1.1422540298668353,-1.8159523124068764,-0.37202549196680607,0.8984734069260741,-0.201954353314312,-0.2576372039495446,0.142925392748182,-0.15033746518030225,0.8879508571290344,-1.223756283885588,-0.9162518257687715,-0.5455878351490059,-0.234316114441087,-0.36202264271416396,-0.24713165333927425,-1.232250259493237,-1.741103171299,0.6624968000372178,-2.4258265686343,-1.6349398986584909,1.1790191823965814,0.549821140573574,-1.6290207280786766,0.0696358971116306,-0.9198276261258398,0.22523061815694165,-0.8659484295532485,0.08266629520010683,-0.5057868854388724,0.30213995856947257,1.206492497690778,0.41067486583179663,-0.03630254041625383
-0.45442712640554755
0.21372602232476254,-1.187708498493288,0.4824648610873628,0.2816281076758555,-0.10221204760937896,-0.08271333923704076,-1.618870024269546,1.7174270866288819,-0.17645233238497696,-0.07078877969592337,-1.028811056432038,0.3253185460860067,-1.7134196415800096,0.08164094062984859,0.5330380120809664,-0.2896666077426864,-1.8682366514167403,-1.0654307124410765,-0.07840583523365718,-0.22892987872340237,-1.0181809553164647,-0.05582356068849828,0.17414030744742254,1.0488072992023691,0.8874723493004315,-0.2405980248913819,0.6387929077540452,0.4637097492730179,0.47835532105034007,0.3802079860943539,-1.786151290980829,-1.0313240019854397,0.9213382501728956,0.4139779341958007,0.5322798766380433,0.07009992968798491,-0.1945558309396541,-1.2156218469575988,-1.4380236221020075,-1.4339267623783274,0.29003382703562053,-0.05336499232378975,-0.14115298215945132,-0.1868058992504399,0.014874949372977583,-1.8375968609807303,-0.8140739721062088,0.04939973344980342,-1.213684565345428,-0.2846687818598425,-0.1592983796982716,-0.2799561663873584,0.28589652116731795,-0.9969208003949908,0.5223031368375508,-1.5700609065455997,0.5589000955261263,0.9581402519880544,-1.6832640314831697,-0.6699156119970431,0.6851346575360621,-0.9266976638260243,1.059860974056581,-1.748561540998748,-0.4941708419711583,-1.5636502753672248,0.5529775400399785,0.5271020756824673,-1.2631850382593768,0.4686543674205192
-0.5585403088697445
-0.37500328172620373,0.2046629721719566,-0.30940349538351497,-0.9138043972319807,-0.005860592819481567,-0.6113372965944938,-0.2228691401186723,-0.6830200816698453,-0.056239526824803,0.24976777791647617,0.22382683231154318,0.57212001333242,0.5066682030833606,0.6420461040877767,-0.8267944642885847,-1.1900911700117005,0.08177924535161576,0.9282075423726398,-0.4890327317186853,-0.1936543909027029,0.3070233253117976,-0.7361645366474578,0.007363016591234061,-0.3166165655958471,0.5107183289351674,-0.3703463337050649,0.3949682068734993,0.5152738222567266,1.1169751244833122,0.3998946540845308,0.14199777294274837,0.2534133178298421,-0.23002188285363917,-1.9057222612280547,0.49401408429165033,-0.73479060284629,8.207220666620503E-4,0.2116534443382082,0.478129401870784,0.5847261444208945,-0.13603879941104804,-0.3990811515389648,-2.7787220220540485,-0.7723335199015282,-1.896520243377196,0.886253827640514,-0.05077813301844527,-0.2728956111498156,0.4437002795281946,-0.1946341550994256,-0.2782684183787391,-1.9436653292364219,-1.111832497189369,0.5698845907933557,0.06970289567931037,-0.28115516556730835,-0.021306001537567596,0.7556307510234949,0.4181428188154775,0.03141728382921242,-0.09397327313880181,-0.21679903732227654,0.10905719026530489,1.263552492791574,-0.8155087899155308,0.7705468382807538,-0.702311979633781,0.0935560782319086,0.3952997338859345,0.17433139548024282
-0.041141443629307585
0.16440323667329992,1.009341152275213,-0.3652008416060805,-2.277122847757843,-0.961286585129567,-0.21908899388848235,-0.5334385741193728,-1.3661458456545144,-0.7178053377218325,-0.012535825263786129,-0.02978697166624611,0.39816080968261813,-1.1218043815497205,-1.9201526254825123,0.9381101035553528,0.7122175902441736,-0.03949408425281155,-1.1226602331776079,-0.3493463118557471,0.35243209666298825,0.7722085788121499,-0.3797378254034264,0.7314184145437803,-1.6849916848845472,0.029339290689170502,-0.21220032113049533,0.4132762132643047,-1.0927081531093399,0.3660616153582363,-0.11291205912721494,1.104432238251217,1.0330062730681053,-0.45223924218629735,-0.19967036656868517,-1.1795362833396164,-2.1639973623447397,-0.11822893737411187,-1.3530110280814993,0.24959589032949947,-1.420144680062669,0.7117978073232518,-0.17047154590047794,-0.13764421906989358,-2.339462365201749,-0.12105516267024997,-1.0299119838941309,0.8954003544848236,-0.8488312364613921,0.42626489860599875,-0.09065045565476824,-0.23856556519790112,-0.12349645887248452,-0.7640043097291084,-0.05173129121910895,0.015006096216057354,0.3435497332448215,1.4056602935373712,-1.3338267004486775,-1.17572943963497,-1.7199365289809883,-0.7274187413393652,0.2953397250374512,0.5833856868976041,-0.027756532786867946,0.6847301767941448,0.26218889073992846,0.16168029597171432,0.6708796741849049,-0.7682075850711887,-0.21619432185386617
-0.2932875409755712
-0.058938095166383195,-1.3798983320418112,0.1727722805718929,0.9916311406055339,-0.01946655197515398,-0.11549826211145284,0.2508508937914256,-2.375356173502462,0.1834806593019767,-0.1590998394618656,-0.28590494093691915,0.22622841386945725,-1.009340990037457,0.8089392232578574,0.07807444782935118,0.0570008272324694,0.7683318319014847,0.5038685701258536,-0.16624029612280586,1.1056228851606937,-1.7728458215275222,1.0551932582578851,0.278590697675198,-2.4633245587087265,0.1654265823177139,-0.32448085408792976,0.0803862937562166,-0.3571096449156942,-0.08003306723378158,0.3187504006266283,0.8612337763019686,-1.1420779528907272,0.27354571329970306,-0.25031352026095965,-0.930531370457512,0.6688339876093007,-0.5905969006467952,-1.638914130845506,-1.4800916513489415,-0.9687033391849829,0.5029892818737366,-0.29227786790192184,-0.2806349705302029,0.2217387935302674,-0.12362648900393965,-0.7122179542019605,0.030290229184662565,-0.8442142252337225,-1.695509779421588,-0.16196302452096276,-0.3435833585218017,-0.24823805835395657,0.8486743725241007,0.7273983966688489,0.18646831335868044,-1.685911300953556,0.1897918658581523,-2.0500030514756626,-0.7695130293887267,-1.1864280544695585,-1.4395238660158645,-0.09058042461035379,-1.7329059057176337,-0.09947813527346513,0.08741677491575899,1.0767899318746705,-0.27661560282040454,1.288032358023048,-0.6218098721815308,-0.32059389413063927
-0.45155636181632874
0.42397199531953766,-2.06279644762103,-2.6664768732780675,-1.76953623049559,0.6880399877692481,-0.38101707209318675,0.6436893358572321,-1.9244812980328687,0.014098518684523194,-0.26549026162709555,-0.019806998075546714,-0.8539428024111162,-0.41353799936295504,-0.39236751708317374,0.2925671933618464,0.40064882259187007,-0.037537686826628565,0.4434870123450361,-0.19426182386924123,2.088209280036055,-0.20953801902707953,-0.7249778875136778,-1.1390955291004117,-1.3867222779635437,-0.003954760335457714,-0.1983295612667657,0.6209777758952759,0.2452608046874577,0.055372269647856055,-0.15807257042716308,1.299081205543237,0.12996264188541853,-0.3328376389489907,-0.14090420730313874,-1.604688712204348,-0.4331748497267405,-0.37106675646247134,-0.07498009899753541,-0.09453785673535073,-1.1181795189091928,-1.9139206807550315,-0.23464725387519472,-0.089759240287249,0.20446701894954217,-0.023506034812794285,-0.5482407483661383,-0.3151425970542441,1.5314310311315784,0.26366191438418807,-0.3774115548025767,-0.16040405424956036,-0.06032015980865202,0.21913579521048626,0.01662467670948975,-1.313736964577328,-0.22882671703166435,-1.3188232462703098,-0.8536672281369511,-0.39285866599829145,0.3064161781145063,-0.6847025045358746,0.41415976284989836,0.20506476076970345,2.011592279818911,0.34878964495076653,0.5428360040155636,-0.03137259970082602,-1.4076811383971148,-0.5338457747266644,-0.3245592776572837
-0.2666324751765286
