-0.29080733683332577,0.2919787209344484,-0.36684965065760305,-0.01680857085701102,0.003054277200506109,0.2446516295606446,0.7078821717886562,0.9593432733441084,0.9969298219409674,0.07819720242937071,0.16614463694893863,0.05089260542334915,-0.05001603961831936,-0.2901690277918742,0.28910586149041245,0.1311844054434644,0.3725974569045351,0.1392226777272895,0.2543315743632884,1.3253081534081095,1.2811889770000544,0.5016671639049891,-0.038384953769503426,-0.012544576822949505,0.0019995913527209633,0.3462517707030403,-0.08120147214184835,0.12669301593061746,0.569078181915072,0.4688848289077104,0.8889666019237666,1.1325441515517705,0.8560057373884361,0.17792105178327375,0.10923430048299311,-0.019865596686890544,-0.011477980908628768,0.3242567440469813,0.0245571419097007,-0.2019866250592703,-0.7659480617225728,-0.15703649578641835,0.11924190662059093,-0.41185891986922135,0.3315773191977966,0.1754394708998668,0.16845882708145413,-0.017792403598923926,-0.015290413478227375,0.30074085270227896,0.25500285634218595,0.7888292304561925,-0.2071520338689544,0.007762939041258039,0.23942316741337757,0.09119104645676428,-0.21393808911270815,0.4246106308410306,0.12316671401803536,0.04625939869498245,-0.04695901188167343,0.16859546800955102,0.40612787854151383,0.738334001867094,-0.03136888739578722,0.18549296008865004,0.022695753183204825,-0.44233223288633167,-0.5342806917766273,-0.44143233112710684,0.02161481441959165,0.024116724144853004,-0.02944229311996694,0.47374755250924777,0.10511874929602226,0.1441787692389955,0.2970825073359425,-0.12488419525411458,-0.44533242272043,-1.1676213883223268,-1.4134073824155409,-0.7291175483024909,-0.027879107307372218,0.016363990104785987,-0.04628699475388048,0.3298946161375718,-0.029214560271390647,0.06258488133974813,0.3080499823449168,0.06710190326691333,-0.4658238099537955,-0.37452479273206035,-0.5365449687480014,-0.623664115494304,-0.07734677193665647,-0.05137176146036284,-0.4055424433624755,-0.19507348498924001,-0.46206264175531025,0.05571318327123064,-0.021285983318297952,-0.6197853946445112,-0.38826268316883,-0.4007412349709975,-0.16879797311373004,0.10569847405160838,0.3049135373790883,-0.024929418358090476,-0.44124465692637066,-0.7996371937501826,-0.38036495036623136,-0.4600970123970681,-0.39909373090437145,-0.08359683343564824,-0.3963839375248724,-0.056359808070185806,0.3077266991161158,0.3838368350912225,-0.17574977744363332,-0.009709997293822922
0.023891150911772956
0.07441620014858204,0.3273400251098517,0.008824234220064156,0.2941127067384932,0.20524255777222403,-0.34630562609188564,-0.5275358052727477,0.027967860107007237,-0.24067936855926206,-0.1707741227347074,0.14391599901383753,0.03104453462355513,0.029348973204463714,-0.13591728543197681,0.29712787743684743,0.5894614354269208,0.4957327625517767,-0.004959629926421481,-0.46616418880366617,-0.014575151116593686,-0.2685160756658157,-0.129234128162768,-0.12884546148539158,0.024855954171951692,-0.07674932667597979,-0.06212842265705525,0.2584081153567628,0.200859523011834,0.27570206070060765,0.1370954125729519,-0.09886662483139431,0.11516946687758144,-0.2624079270043367,-0.24724381803343734,-0.18071019546259268,0.08491828069008377,-0.0026159975315140074,-0.1640020916513377,-0.3388674664256921,0.02594662124612891,-0.028937828949284452,0.24144118412385315,-0.4043343899818498,-0.39865721111305297,-0.38768617546466144,-0.012134294504877583,-0.020928352591345716,0.0516068708202402,-0.018097938439124234,-0.39185696004380033,-0.5532230887283631,-0.34851691999212675,0.3350154180888407,1.2600839467488965,-0.13326033612694124,-0.025225492313924857,-0.3730820513341485,0.19699228514812075,0.20774946344341758,0.07890484713490366,0.033694666549627196,-0.5635128283589439,-0.40043505314394967,-0.404950706107164,0.18012468271554624,0.7400616467987642,-0.04766905232763805,-0.31039829015183873,-0.15540100154185374,0.004498025741080849,0.22005770927435617,0.11582477189699657,0.042298982569538894,-0.6754915843430085,-0.6393346456304714,-0.3400689075338367,-0.08988251009452893,-0.2509112801610057,-0.38653418345422796,-0.1777275105452716,-0.011937204911560926,0.480049149041337,0.18342089963907146,0.12137115938302832,0.036106889597306756,-0.3169903712341279,-0.27178262693022803,-0.18645853522573344,-0.7185514770326058,-0.6470649883866288,0.2560020672604101,0.0668246416272021,0.36647535109327956,0.41430777867759283,0.00911742811951455,0.1372652555369124,0.09498272082553232,0.3393670308069655,0.45612599066000126,0.2115091748317464,0.15552028835986356,0.4720724388915917,1.3284788569937627,0.6436296421966152,-0.1578776904032342,-0.23486467487559723,-0.018418791077442796,0.05208861472938756,0.11704854859835402,0.34587923145370025,0.378357563930695,0.3228273461218717,-0.20803220708504952,-0.12343316257756697,1.2903025450490477,1.2872384904842407,0.399998536054196,0.2200589696900543,0.015964449540525314,0.12388657196364374
0.1081327828179195
0.034416827967446474,-0.26228096907100307,-0.4199396561651142,-0.11880696990905097,0.036135869987789136,0.275450389085115,0.28777985436231357,-0.12305894965305954,-0.18376893317103987,-0.46530488527443925,-0.05305865646437787,0.16191225597749026,0.5191586293191127,0.2103100150268612,-0.10414421049395213,-0.28450105574275975,-0.2873086541448939,-0.20009398238726722,0.03889399337500637,-0.32640021836513866,-0.5289457872281814,-0.3101810524502505,0.5058357584089905,0.23068332442994116,0.44907091390479126,0.2040371047329389,0.22951882965714382,-0.18173274695795,-0.442300115403955,-0.34144430504694157,0.13129615820123036,0.16081852825641652,-0.24739268651067187,0.0846141168924333,0.56135365541325,-0.03281283929930014,0.23259020626177968,0.03183478949611417,-0.07914676487209464,0.14798809643194427,-0.18725774658799776,-0.14410566022284732,-0.09490311826206328,-0.15330672471288748,0.4210294123207262,0.24216709318826934,0.3608812890130205,-0.1696105929084507,0.03676821675455357,0.02122123313041258,0.11240493740587108,-0.1870237762391771,-0.1591592996791346,0.6147052221950494,0.021396878045588156,-0.12043727544792678,0.2404683533637963,0.4132440060069643,0.15854478565356195,-0.2010978458449721,-0.09181149169760695,0.041480508337255494,0.02662395778918934,-0.13992406725526868,-0.2072375814742849,0.18348437979048765,0.031148529546519397,-0.7687426543585943,-0.13328116918673288,0.13586706333317727,0.11722829513110965,-0.1935934424727211,-0.04259285885570415,0.20772496410969582,-0.1745791548293142,-0.09961109777922615,0.6611276417635507,-0.23416790329226517,0.23464187812165233,0.09896999551275305,-0.39015787637233257,0.07691429878247356,-0.12304415212203453,-0.1662046680773095,-0.010691019324538585,0.33492130872154313,-0.13316451113493455,-0.06395788640332635,0.7928779459383323,0.33864475990889986,0.1284898923231026,0.12736652485685693,-0.28002804906394096,0.033208726543802226,-0.15424642849559644,-0.18827034357830286,-0.017560091279818082,0.12831480529853007,0.07202369691291317,0.2702818620527687,0.11270656754620832,0.3067807020502159,0.4280372306077822,-0.14340026637925446,-0.021922399484530095,0.2240352793753176,-0.15436363670354436,-0.195301250470998,-0.07942631609544025,-0.11073544749286938,-0.3958435635920128,0.14816488081218332,-0.32456777072663,-0.29595139542663595,0.1899537638327365,0.2985951922657424,-0.39471050146986686,0.4106966197969524,-0.06969397833194126,-0.17774656115832416
-0.17426215139668388
-0.1916493171391536,-0.2598718340134884,-0.022083370235033206,0.06000298843208437,0.03331624460307151,-0.1475207549550888,-0.03979460664658,-0.21077592914808677,-0.0909110002297214,0.048546690783809694,-0.07659442203041936,-0.1508530114048887,-0.018007382565101905,0.11187071919485006,0.16609127980889812,-0.2662810566309682,0.2615061057771411,0.3175116559740085,0.21404952311902706,0.0029227751572609875,-0.4113534332513848,-0.12804453360898246,-0.057686006470223726,-0.0564202358728634,-0.04926102740880716,0.07465248693425547,-0.257837770215073,0.16816237739628512,0.4903459402117249,0.14276963989938238,0.08494637992282633,0.05379970847017609,-0.07214009092977125,0.31510091875355833,-0.18284631519396652,-0.16315298034620915,-0.04160257073765739,0.12124596423270662,-0.09277801639690916,-0.14959999298657442,0.26307756264203724,-0.3798516027681496,-0.6535827152926933,-0.04283600809007978,0.034505647519477704,-0.019868731464758975,-0.312115336135895,-0.09671128301101475,0.05292253010654272,0.3324720284465574,0.09762469564680701,-0.1716966291989688,0.08276968020307465,0.360417302507509,1.0387714636643814,0.6078213770113517,-0.23145558037312688,-0.03876454887712429,-0.09390407886965199,-0.0983977410056962,0.08570069463492297,0.4252209665389521,0.40446652226849594,0.36529039551527037,0.22636549481771742,-0.18784866806478226,0.5384943688607858,0.7017708871046143,0.3252237544915843,0.16351095301819799,-0.12406805946000664,-0.17128758054558027,-0.10420553950779862,0.5585211283366552,0.383227342651356,0.5165225044886673,0.673095654999525,0.10922880386912595,0.9629421255631315,0.5791496394228769,0.5660313172715558,-0.03984411094061175,-0.0786047456749723,-0.12817475271029535,-0.09029920097506489,0.3368116970939156,0.22248785099579463,0.44962833406229036,0.4086955354172977,-0.4333515916744432,-0.8410760941867313,-0.10215230364976169,0.08055075181443616,0.24452960483651728,-0.03111097879890222,-0.13321650509380287,0.009846572338925452,0.3089433565992184,0.1320613199666611,-0.26969504087003743,-0.4587251383736965,-1.1330426331920436,-0.4934664409351444,0.05013370015585152,0.20417891190401158,0.5915030226109971,-0.031296683301220464,-0.15321070080556756,-0.031870098309617186,0.14398421500671557,-0.09759470952145108,-0.07372387967771155,-0.5141279939778977,-0.7465321220521538,-0.631860564815128,-0.02022249959446945,0.3669714774925548,0.4119124509623541,0.05600011059211666,-0.10724981024991395
-0.1786417269001511
-0.036470534984062344,0.13742543108352187,0.06680475206330411,0.0869587075113969,0.27942010031069,0.5935735771420787,0.21910469284924014,0.4517421825074234,0.28288052388350593,0.29961980790626164,-0.023077606415072033,0.05056504752776696,-0.13003690149235284,0.026224497828216432,0.3121659950744664,-0.1240272409603618,0.1666807939615819,0.1430769369508418,0.2711461849202804,-0.27948843441509597,0.4824076856913395,0.5180515359078228,-0.20106873197169498,0.00682036586049117,-0.16340948756593796,-0.34933380586405094,0.06797144322724619,0.001260590659943592,-0.15355637480962983,0.2773292833608467,0.38809248160335086,-0.3284224804400967,0.13429894395833678,0.14763669496678636,-0.4034051031878455,0.06997600011012814,-0.0010665321863571027,-0.1941614727992589,0.11274324728113683,-0.08390266900849136,-0.3171625234919352,0.41810324293700585,0.5142842869583728,-0.3691823210894378,-0.5508582871712455,-0.5716138759256493,-0.3057870719791286,0.21062613682600137,-8.595318054086724E-4,-0.30977756441214777,-0.18561725769807083,0.12964588641746574,0.2697641480718982,-0.09237233554454005,0.2750762661369772,-0.19905111342712653,-0.6147262320876234,-0.7486452418686933,-0.20392047664617588,0.25099696991327247,0.1008429394588245,-0.2858403040219578,-0.5864862922347764,0.15238667818653942,0.3026461728071044,0.4050990519309834,0.1991712515247002,-0.4996853988716152,-1.1743753449272682,-1.3184909388169268,-0.1628021680902169,0.22757335643165807,0.11631819356115192,-0.4149473411521174,-0.4752651347243144,-0.3963887798525684,-0.35331970895033793,0.2876808461142869,0.25924043388711804,-0.5802298129333967,-1.1831495067339313,-0.5430198623237701,-0.06756458387235595,0.2675099828626327,0.11223322515300638,-0.16588908168404928,-0.24707816512670974,-0.3561834521700725,0.20428770105820285,0.15483771137597815,-0.06022829109051382,-0.07375818716039581,-0.1821114968515495,-0.3826421402346134,0.06757395479966452,0.2390036881059369,0.0908048415764516,0.14937254195526337,-0.03172608442305951,0.18583358221608012,0.07423113659188388,0.24976481704177145,-0.2500059501557782,0.08416747610916134,0.24688434253343536,0.07338127312767717,0.2893049701309838,0.18536361082778222,0.07922418596888145,0.2563037380905706,0.15378460710335354,-0.03199585688202987,0.41972714632164665,0.4461174402444532,-0.041164232961356614,-0.6272135903742957,0.10516667520545853,0.007731403147903019,0.08557560758154606,0.21756924068341807
0.19882024369820364
-0.3125182610374206,-0.31811590223487857,-0.8887336792669067,-0.6644464932072047,0.272975207450401,0.8005415647222605,0.9885028175723192,0.37310026293609483,0.1798930141391706,0.20937327157708943,0.3142803069412124,0.14500149719284225,0.0756944438222633,-0.5338222829892068,-0.4929556171852861,-0.5868008424363054,0.07318859399727869,0.4668895158810112,0.43029560899865554,0.7111022739212856,-0.21295007499089483,-0.022120769748399383,-0.1398924770496929,0.10923305739198856,0.03456507325731965,-0.02983428099494236,-0.45511052639365773,-0.231185100874605,-0.09257907142750828,0.6947321136747453,0.5126414926821437,0.00958259993647486,-0.16604159416043526,-0.43686191268234204,-0.1088990113379772,0.09346589286631408,0.09530335421336857,-0.1560764786701986,-0.07542244306868419,0.17443538667521494,-0.426606028954614,-0.21590078322973486,0.1734501312157576,-0.6226487076188687,-0.540646967409026,-0.16059682635763875,-0.26417991648847,0.26065827947814574,0.08608868012460057,0.08468745549778599,0.17074501439016684,0.1576146912244916,-0.3965548916749137,-0.07886333099634184,-0.13613127897293345,-0.32389304206495123,-0.5815692510575756,-0.35773466677532834,-0.1202722557907182,0.2642828153994375,0.12373424936418972,0.13644240484869133,0.08811243164567271,-0.7265838497097747,-0.8769911460869293,0.6435526609066118,-0.1680568723306831,-0.70655783110173,0.24696409073144013,-0.07776613164538664,-0.12710945462316683,0.2051497800276655,0.09301986474860698,-0.06998326387014571,0.2321006604531005,-1.1838154103828884,-0.4730131188880475,0.11071075146004548,-0.6446243930188442,-0.06787598310055669,-0.4669750370363093,-0.01875170746031099,-0.13049808071412536,0.18805922917782023,0.0983151398605026,0.06997720284105376,-0.28587119958722856,-0.6323636857401551,0.0766469910543018,0.1130181546662619,-0.13043436296692032,-0.29238900493653625,-0.5092886877683713,-0.19828614409973258,0.1668848811839815,0.19857296385073273,-0.3817126372048974,-0.24535006372847054,-0.7636702101354158,-0.5243809218698017,0.6319464362864844,1.1615546614941648,0.08552813965315335,-0.05453083945586551,0.3955426202447229,0.1586597705526668,0.12705582479530877,0.2411476360643475,-0.1363647285498716,-0.30203924971090507,-0.5505030698828224,-0.5805053969495848,0.45200315314970324,0.9677935752015285,0.6236668295508192,0.5788073351094307,0.16493054232862323,0.09948837104988996,0.1288626422260203,0.27492799082129254
0.2546387041520379
0.3689138857793848,-0.1354170937649942,0.021272999388974177,0.5990838034172703,0.5022265162509377,-0.10803528039528729,-0.4171307789835216,-0.1021652314002641,-0.40084588358454887,-0.298665476317988,-0.2339541810142852,-0.12158817397145746,-0.13691106265187533,0.05901341324136393,0.2603717159636151,-0.12748463540582314,0.3957137773279844,0.05676827395757254,-0.25402307240801436,0.14944703014200625,-0.7062377512905562,-0.7942772577170631,-0.5018224576510976,-0.08656172619175376,-0.06692670999128456,-0.21331834165826805,-0.06475923280809107,0.592141321295717,0.3597268564269237,0.2448637157748588,0.21234784912385232,-0.1797126715511532,-0.68625910947121,-0.42366612975852525,-0.4215930547776058,-0.12753281182436685,-0.1743736677105747,0.05296033943760099,0.3426964074287979,-0.6145239721892937,0.7390280954274078,-0.3710756620143305,-1.0885413101805057,-1.27913185277941,-0.6207444006007459,-0.6216649414077524,-0.21404077159500004,-0.10364733138794563,0.2215181966929601,-0.04918236870579634,-0.4883635744820849,-0.04230171698697224,1.058890145571896,0.6841742837361573,0.2149163242814612,-0.5442529322493626,-0.6180433537166607,0.3451863965861468,0.17476929557141843,-0.12143506027623116,0.15244377770566178,-0.187655063944873,-0.26008797117287175,0.4161597020190364,0.6946678056342039,-0.08868982687030633,0.6512925991426388,0.9577252475710443,0.6773417251330407,0.2721028288377455,0.1752012311430917,-0.16847801119370956,-0.19861896654167197,-0.21581633908827327,-0.21676878270269198,0.6620598226168053,0.3123661560235903,-0.003908301078169964,0.604716697719573,0.9588599966220319,0.7368984471278439,0.30905955639770244,0.016581942547329694,-0.12382993796470984,-0.18174858536616242,-0.1339087283787551,0.11827546377094883,0.027582369992958256,-0.6436951300857618,-0.7686087722223294,-0.1821648906357217,0.46610222578048266,0.3510939660278043,0.039756570897320945,-0.20623066046377567,-0.1229763497545214,0.2844322361371697,1.3937546215338272,1.1069092475691693,0.23352418383350307,-0.02691205286002536,-0.20611771661056497,0.38855622474096685,0.43696160040531207,-0.05860225788253606,0.5403084491360532,-0.13142113109715695,-0.1334784094545209,-0.10310929608418681,0.30374169484765445,1.4049760922569063,0.4600185143368902,-0.12830863926644726,-0.42746732634152584,-0.25603312459436744,0.6086520823907868,0.679823154577889,0.0570768463827602,-0.2104848369611053,-0.14109542956568502
-0.13117147848018626
-0.15002548114120115,-0.5380302110792015,-0.4165827084546866,0.4437900480168542,0.3363654298722013,-0.16845940608677865,0.742189379309151,0.22485725984499685,0.16964664070051697,0.16947927993248016,0.08762660229388629,-0.016014485451304926,-0.15109330589413603,-0.3869448960331425,0.042677127270231104,-0.05520292812197484,0.951260012092837,0.48115716108811746,0.47344608212095485,0.5453372037522737,0.5683354193491557,0.02672103333182686,-0.008139503189571662,-0.05523358187270421,-0.09642708141080077,0.08112112388937813,-0.22918586398251864,0.116155749357069,0.4578350131423769,0.9502992178109628,0.7328392068341243,0.5606873059284767,0.15344145028413872,0.4061470583302148,-0.0027136670361393713,-0.030335465374223904,-0.008196292375109259,-0.00855125644766277,0.03093525526626955,0.07825502469557348,-0.28969673733648393,0.7656960135242092,-0.3018265564057665,-0.3591082595423105,0.07905966872442137,0.20963249171090495,-0.013966991380165309,0.13405076687845027,-0.04251970296568262,0.19608034546488154,0.45208296283566163,0.12899000454347606,-1.1686323466734732,-0.8610251536468159,-0.9500142526721909,-0.4847416471352858,0.16819287231039717,0.40163645851084007,-0.019791266788791225,0.09121440905122095,2.8168845266408176E-5,0.3097943303841779,0.6559586034042169,0.07056585699033356,-0.7300107193751888,-0.1108149931572862,-1.2071240854095397,-0.966916843694394,0.4407592530422292,0.6013226170631298,0.11272562408009372,0.10763123048319222,-0.055202298877211224,0.258422625191432,0.03240013301560777,-0.026440360126637186,0.07993402860952599,-0.4357747066283293,-0.623646516500197,-0.2901430642099466,0.7511195976740288,0.0807656174986371,0.15159452103726792,0.08886558075743205,0.020052555428913568,0.030320496904664224,0.07952911407525064,-0.7979099437720332,-0.5546631379730718,0.4017212881156238,-0.7395482515897929,0.16153528796859382,-0.04741329722608286,0.05279776118125703,0.12491530326293393,0.16146698206354784,-0.25837866164897316,-0.3205963870795602,-0.9995895047800853,-0.7035266558688524,0.36483615759480903,0.1874214089913879,0.24486119721156527,-0.45077685262056433,-0.4378070227380778,0.27337673215655744,0.01429548888584706,0.17420809139262486,-0.09039063584836075,-0.6329796876921365,-0.0696538760147553,-0.03722791357819199,-0.9097010905381282,-0.07600476886957482,1.1422579879365937,0.07882651647854698,-1.1998931142426557,-0.05164842809046146,-0.013074507528011882,0.10286927222253965
0.17426917496933644
0.09976528772002236,0.11568456917190054,0.060202154140139665,0.09519881305626274,0.07501374948352237,0.029023255667773022,0.0026949224516805838,0.11791488909915898,0.054113697328861836,0.061787763689426255,0.15132852102903674,0.16224799526334546,0.16497682710745734,0.04479523819293229,0.06519195582683895,-0.02956018630556137,-0.004493629188645523,0.0013429565933223292,0.0033556687250898653,-0.007320405907627814,-0.08286231702746177,0.08683789493170446,0.13963206800933506,0.18561053889215703,0.15752193541762008,0.06809314227072052,0.04666792619118663,-0.026221297116828864,0.03431831880970857,0.03606851102695946,0.07095573574467448,0.06089772909688224,-0.012629447252412124,0.003497561949299071,0.05321044925086093,0.11477072673280553,0.07643871102106267,0.006206043834329993,0.07423187785029167,-0.024840479560543617,0.004660673062470626,0.13337075667092027,0.10389519643219841,0.022975406865181812,0.0650055224513822,0.03866414894386929,0.07574107995061502,0.14500801428388407,0.057741109075415985,0.001831987697829852,0.06624895645691187,-0.041918941856396046,-0.008903779786909507,0.10322124354204884,0.09433654145472611,0.04232679231485815,0.03151269040499192,0.018080087365529948,0.08190290561755703,0.16516889459580716,0.11094159306036513,0.0025887662878347115,0.05523805911031488,0.04387792669354088,-0.006683708131720542,0.07763999123597978,0.02804173901243677,0.006591045322685721,0.04040209374690761,0.039233669202168954,0.0811525863953895,0.18481408218621162,0.08879117882327064,-0.005674665083200382,0.020956585193021106,-0.04996701641454456,-0.0033017326292174537,0.029125038098533985,0.012244422177259896,0.06005825993943736,0.051906926438251795,0.0032894933442889633,0.15843702906456034,0.18642394367052714,0.16626242748669676,0.06886176195364843,-0.06210997430330963,-0.01625154483611963,0.028839855409708088,0.08657199119762093,-0.0456667099094164,0.028320166194444593,0.004927859799874967,0.0015856591822898905,0.0957584830309137,0.22650308716962494,0.13290173840835776,0.06561808440065095,-0.043666685066635395,-0.02385263381171998,0.0041193281650606746,-8.480860363273301E-5,-0.04780845566211057,-0.039300534740352965,0.02782885428750359,0.10904847164321421,0.11352518084862137,0.136129536248189,0.16050265811424316,0.019551745826168226,0.038399123062750076,0.015614909719244636,0.08130381903254122,-0.03514221524338357,-3.6652409858507545E-4,0.04027972635890196,0.0629560456192139,0.06488028345025845,0.14670617902624103,0.14589448636331068
0.19369011597745492
-0.0055075087985281025,0.23189623747283797,0.040845551929048395,0.17188258315601865,0.3602828830989069,-0.3424722714092664,-0.6181450983185941,0.0824130558208026,0.10396753302345499,0.37015087704056315,0.1966010873957255,0.2467206609653761,0.1596894170322876,0.2325937666621212,0.4238463429882623,-0.0806722598381242,0.3648293172684831,-0.3772335836375299,-0.7719618646421149,-0.5419626504692558,0.4378433526333747,0.3655005912366027,0.3767131126788189,0.18866604548773522,0.16049737863221178,0.3412455869217056,0.6811476331501272,-0.16273398504562256,-0.5637538438641769,0.2866015397605033,-0.43866515124804584,-0.6911003095525654,0.012044813673181755,0.35309382561569835,0.14156766442205163,0.28652441963780106,0.14026096268926017,0.020214697199725486,0.23443177353574998,0.11046823229406286,-0.19209300369108936,0.23636530753556165,-0.7150457344211931,-0.7669075579225597,0.07062941812727952,-0.27467504115926056,-0.18273763872864082,0.26995304643445617,0.15636992924570012,-0.06741608338988506,0.6068399500322434,0.42992686833866334,-0.4900324901681665,-0.3223906586903683,-0.3165416007037116,-0.36959832923019553,-0.2815675186436519,-0.530640142680421,-0.23072509050145443,0.3047647286392655,0.09097425591064176,-0.19056900618575043,0.13396983153380068,0.4571158439834414,-0.33920148822146157,-0.3210691715133873,-0.9301421734485877,-0.5320618763419924,-0.7938325525855758,-0.8399339496664577,-0.10093822341187492,0.27848871428256505,0.19210211026477056,0.1565217367915123,-0.07761898986484128,-0.21679013124419758,0.3589208177637948,-0.03821009714038597,0.3799268568567037,-0.20943981417501314,-0.2557675539783901,-0.90951698950247,0.09472065399020543,0.2401591116265688,0.2525485201753491,-0.03615811353268566,-0.5775889410625707,-0.7980354224850663,0.08813609622234281,0.9358443263297296,-0.27732387369431,0.2204413347772691,-0.5198400397466172,-0.6898828784023794,0.16091746981029306,0.250392331296087,0.08852639682546798,-0.9351111533445049,-0.9499195499661168,-0.4657087120300716,0.4837213860336915,0.7730472704378377,0.4235704762567125,0.28084181750961634,-0.0116736765079523,0.260662371859276,0.0896974639864834,0.25320999242045084,0.06187056332844016,-0.45709719655439407,-0.8051805903420386,-0.32050880061982157,-0.08303528223284687,0.47756235095722044,1.2491866193542607,0.1379792168434353,-0.055819209489413955,0.14378769717896636,0.17344131141002864,0.22923442903812571
0.23104082689472974
0.156962534432771,0.19685844317938325,0.07918834598845857,-0.24935984162351751,-0.3604679898902421,-0.4743910950464497,-0.5221416884957476,0.06156009742291221,0.19200212698531652,0.4339481819320401,0.041571713600793314,0.13129913121770134,-0.16063988707788798,-0.4111281642707926,0.144881338002287,-0.030810728774009612,0.07818634412768878,-0.4272038640619493,-0.6017694625735898,0.10807138003047405,0.24974550031727374,-0.005959072662057169,-0.2602768408361027,0.025159809512043607,-0.18814444610262723,-0.12901102757784053,0.11810054627692033,0.21015095299364386,-0.11955932670754142,-0.22340533303235274,-0.23085790490871025,0.22987662653814714,0.15838385083963022,0.167931333435943,-0.31308079012830115,0.13857235027653594,-0.07700062530795347,-0.18235787572981818,-0.17138563385804392,0.06569219639929341,0.13130142453488694,1.7679643501497113,0.6770873957473346,-0.5751398727645326,-0.553099205651869,-0.4893152298950014,-0.30534799913179766,0.1701974585431066,0.03926974004397411,-0.23128196361507433,-0.4736076463559692,-0.2036499774304468,0.3718135400516658,1.1656227416286955,-0.28922559422891914,-0.6867990002590981,-0.9006381063845673,-0.13144534022674983,0.027547207219594652,0.20700616022998755,0.024114394210627554,-0.4667428913025421,-0.7572047923327124,-0.6405084697098619,-0.44519795406742446,0.89046277763383,-0.4027540897916507,-0.8032354186728604,-0.38046109464114886,-0.3695481862490153,0.09733494973556751,0.19741456577621216,0.11611367405255059,-0.4995726257085934,-0.5000831071636741,-0.9624899879856387,-0.4072453877411123,1.022703664255608,-0.42815980365647277,0.2776000515889161,0.10595108335152699,0.13407380154437035,0.09701466282469777,0.2515013001728204,0.1734603859944893,5.572098984867656E-4,0.18735014929391966,-0.35905007028592095,-0.5725319690032363,0.5291717960804968,-0.07077845864451394,0.09294463994073403,0.8037800698589285,-0.11714220555308823,0.15033766697947173,0.23488595868323195,0.1806324307723026,0.2669830186721146,0.2796682149430202,0.04414890720102603,-0.498234608296243,-0.30270005375456677,-0.07996808551829131,0.09903427035240255,0.4055526967563028,0.028325152270037172,0.08814171558337226,0.1866485022996153,0.39919370287358014,0.2229937435967169,0.20674053154747832,0.13369101007651402,-0.31599111829778026,-0.1894450198573163,0.4987282907783269,-0.0014310879103053367,0.15213526420342396,0.05265714298540487,-0.09091587279700099,0.23751160757060621
0.2238827587848863
-0.022285951463843913,-0.01396513851908666,-0.004623637317873817,0.7719747253525885,0.5625817857785124,0.4471536476166137,0.12503947743899213,0.2976941673134451,0.3751643444839001,-0.12731360618949636,-0.10078473879154161,0.03351628323811055,-0.21290859916512128,-0.6657285131834777,-0.41835242958151997,0.20426016332673524,0.08325728727550953,0.46346764856599576,-0.30066958253642584,0.2597378064680502,0.03462288808736691,-0.06769839626697265,-0.3827359447808121,-0.05430748115923699,-0.12348020688465193,-0.23489829361388403,-0.1694620119381483,-0.44314286971947603,0.2641497079586175,0.10221178369196864,0.06128476869322886,-0.5975901107966647,-0.3256760602452752,0.041542435024788826,-0.23101099698123317,0.11892916087178833,-0.06478404259213029,-0.10514174937988342,-0.12235939287651863,-0.6292776497031097,-0.0361983148506374,-0.740075213273569,-0.3062351134444389,-0.16242065113089477,-0.18876858440752703,-0.08956462137990194,-0.22526095947454583,0.2545794016891898,0.04232288783118825,-0.17904226159254621,0.48650502332232715,0.05070022879690542,-0.12507655756955197,-1.5717338495996063,0.08291751817814676,0.06585386373606716,-0.3207004141747687,-0.2541686755073823,-0.06424261431735148,0.25732086784181507,0.02077470890082117,-0.2554617443204087,0.3733726870645556,0.6983109210768833,0.280797984070432,-1.1697649938899621,-0.42709053404198805,0.8810254380424182,-0.007635858051013064,-0.5081199340926169,-0.3263499924447457,0.2778013963785728,0.011326370746659589,0.05938096193275756,0.18034110290462724,0.9357807931722603,-0.059121920849426496,0.06125925738389597,0.2758879747175965,-0.13195218373816892,-0.05621996277889631,-0.48810643946822285,-0.17085856696964197,0.3281395342431046,-0.016096682697445158,-0.2214002537079825,-0.232986710626975,0.5604982462832254,0.7915987396027567,-0.017479911468486334,0.2266097297233567,-0.3290244818355411,-0.9219031372101972,-0.37249573985198237,-0.08189183599370124,0.2659843285824246,-0.09397045747560574,-0.061519218901321795,0.08678532288323872,0.2063756512160293,0.24389073848975962,0.3099961694747375,-0.32147111346220403,-0.298466624553853,-0.5936430084302212,-0.10660316438923566,0.11746520409114501,0.3169604718388549,-0.0030906306426745117,-0.1532974028859681,-0.2667517181268666,0.17630490281118055,-0.03555289880337609,0.4472694933307124,0.6004943803758226,0.06410118088563015,0.5855562169236838,0.045030931930629556,-0.15000932671008899,0.29027015543925483
0.28391839305452393
0.06918027963190461,-0.01760526487114486,-0.49897760017228,-0.3405598404227288,-0.13315523935080398,-0.03732164466706672,0.20617029631342726,-0.018172083811017377,-0.1332201244472096,0.07788883667342826,0.24440979071941105,0.17641433458828348,0.3399812486259145,-0.021686396145828887,-0.7115665044048081,-0.46189411389452795,0.15925938485642827,-0.1398769491906367,0.08602923216693155,0.019782824102544207,-0.017516318778593644,-0.09440104005105766,0.017570837579204975,0.4014948757664254,0.2885055612767994,0.454911462644912,-4.464538552356477E-4,-0.25768644668911034,0.2167832786470721,-0.07733545908831914,-0.45679362521899347,-4.527323247221311E-4,-0.5939163127304838,-0.07461073914922593,-0.05736708892897535,0.1164948428746712,0.2566078837320298,0.49410500173748917,0.052712452383159886,0.4011759659095181,0.6646262036242947,0.1058184266994704,-0.301544698914859,-0.6628612164683234,-0.3468823908310261,-0.3943532127643463,-0.1960121759897528,0.005255013187980182,0.22734636267821878,0.78235614146272,0.387502022156609,-0.1497298020266627,-0.4666748811305157,0.9008022684533068,-0.3928410593644507,-0.5949988351609186,-0.19699247424651617,-0.13696225395492317,0.11201201785167138,0.028412031137944813,0.07913675264097005,0.43180457797722915,0.3292603112202499,-0.543797292553212,-1.1119576517035128,0.31302433497355775,-0.026095922241533884,-0.0560987137675784,0.6597204904189138,0.5235066655027995,-0.042562174144543566,-1.2087498187160313E-4,-0.026849332777888195,0.2428832151303934,0.12557243785776614,-0.4731391200902997,-0.4395841612058189,-0.11346975528286678,0.6877532075342443,0.6990310310814489,0.24155310403552743,0.7063229266027506,-0.1021898936584842,-0.017154920101250463,-0.029308785295001177,0.145155797290545,0.508410258769038,0.2502632517122151,0.24568452691213372,0.3859725235138214,0.16220061930803448,0.6901800669294031,0.19770706558748408,0.35563875876071116,-0.007450244155183908,0.01795202256982937,-0.32939757415119986,-0.7101244605016701,-0.6216984834273203,-0.02451324643181048,-0.03400322723162322,0.3191266457793669,-0.09756425131250938,0.758007208919784,0.0023980750973306105,0.10224573268129951,-0.29918572553919465,0.050260261377639545,0.13655830206550607,-0.6893302034710036,-0.5656157754688613,-0.3560452862434349,-0.0831658115527809,-0.4485626895704725,0.5710080691209645,0.4322548888636082,-0.21348640420522003,0.06423342860064689,-0.10506406538980324,-0.028457487583506663
0.01717698813125357
0.01958765073615534,0.4782970150634249,-0.08236919731796193,0.3698762549555674,0.26314535910540693,-0.44514367460182336,-0.24924811051479212,-0.1856790690370127,-0.4866948709505734,-0.17001133046954253,0.031871362972449316,-0.19106670604861353,-0.2744314726989031,-0.17309806719657866,0.15095342646672305,0.0938426159601675,0.22971206804104471,-0.12560706891168244,-0.3983739028113664,0.11132459414568034,0.16377186715748288,-0.32177440812198,-0.1595955853042671,-0.30038657491362397,-0.3153808525800742,-0.3453872964205029,0.27433039822088634,-0.11113248330207613,0.10167205953516313,-0.3978978873004231,-0.03413298999725774,0.5619996955088227,0.242715317879043,-0.1717946655506563,0.33592859383769047,-0.20230800772169127,-0.2823614455036434,-0.14621305832114018,0.12346314406265844,0.011261120056786878,-0.6176406375683694,0.3223413495370111,0.19288063588278054,1.710034549794004,1.8214223046507119,1.1268673567588618,0.24231919096049404,-0.10286598351219005,-0.4623959416490385,-0.3734265634941045,0.2118299493257479,0.41881351832647706,0.1795680823639884,-0.2096686309776049,-0.6948290072053318,0.08169885064719616,1.3135260533635562,1.1745773288986041,0.01249139087555858,-0.1224608631136148,-0.4644683742061486,-0.1979074613348195,0.18778907154682606,0.6276455460353838,0.6311037633091783,-0.2686107801627311,-0.24262831770135745,0.4706928666412862,-0.0064713181534271635,0.8152357763890781,0.21661959657684332,-0.0883747888154149,-0.07286071245297697,0.06523679957102137,-0.22185227805046964,-0.09343611341931295,-0.0674672578602918,-0.2991026609442856,0.019823923268871915,-0.28210637209024725,0.33114804423625144,0.12853412073322917,0.1370855298301471,-0.07414736296421452,-0.09756761113289274,-0.32085740518050476,-0.37250559687729956,-0.13969604633360722,-0.590398091609059,0.19354594289246546,0.6556264529709417,0.36967041924910604,8.894213667544736E-4,0.7942940919013497,-0.024487503931063543,-0.11728667147117046,-0.36723782916184633,-0.16639767339185985,0.14053535481642082,-0.21321817449506342,-0.3573030121753201,-0.17061622166407375,-0.2991401234623895,0.3182427685850868,-0.2334837879181378,0.05179920635141695,0.15286157882351792,-0.05313616376724402,-0.18388600283843537,-0.4166551825043018,-0.14284451591410324,-0.17646772282942152,-0.2055102341316638,-0.5230655389976235,-0.07476721854932734,-0.027773095111095134,0.21403668095273026,-0.02861271437969137,0.07579237161445347,-0.08716968892225362
-0.03843033661780612
0.03588029810428609,-0.36052621180453487,0.2239244763666982,0.5395756426603144,0.10533816775195125,0.16274554697545313,-0.23115929511896,-0.15477948640965777,-0.4762613263360758,-0.3803090322812452,-0.10183736698749361,-7.048126065208607E-5,-0.21732711032017477,0.06724883389949755,0.48674303188238416,-7.811250906441063E-4,-0.33646750739822834,-0.5188481945176846,-0.0752168617168958,0.1710955115720894,-0.10634594961006301,-0.45836472979141313,0.025692845388167712,-0.05298332941215803,-0.22435933388954515,-0.2630221683531801,-0.2500073868239159,-0.11380208916558184,-0.40285450205239,-0.34982959452503076,-0.4484545708596462,0.7344353422641496,-0.3585373209176756,-0.05059066141178901,-0.0025958069627006436,0.035435474504438465,-0.24063498819746726,-0.3273285477108138,-0.49891213461013967,-0.5184197797685091,-0.42425372592140237,-0.3436859808780252,0.1956503826941866,0.16162159658776748,0.6213923228536695,-0.2904590727853403,-0.08770567878711648,0.07386517202345445,-0.05874009505504927,-0.3114773277256611,-0.544960640696134,-1.1294748571318278,-0.1646896428465312,0.020433188848538543,0.15475545332485124,0.4327522910783454,0.1978875385637347,0.06483762148676939,-0.08286121018455032,0.13033788683086067,0.032366743376506336,-0.45008978916532744,-0.8317297117028668,-0.3544095381414651,-0.2774514299223127,0.4739709317198492,0.02112435421337866,-0.2137969805585444,0.449639054948718,0.09632339827233229,-0.05408064659937934,0.1839848961835831,0.0866379333533314,-0.47214347894985337,0.04289256026888701,0.6191364139028936,0.7988470967713932,0.1915489398001302,-0.3310513444483712,0.037970242246750614,0.9150661331390264,-0.10060265876247663,0.05105275130354261,0.19889538182337302,0.12883263386070598,0.24839102811005725,0.4489208524048684,-0.12511258166671038,-0.012366167492445597,0.07940751741318573,-0.5332730258854579,0.4419820468393461,0.15736870106594475,-0.14826458283970578,0.09875293457897659,0.15859017718832957,0.7850213608449894,1.3941869738582602,0.10975374605634729,-0.4687383885659268,0.013058396361120774,0.012026247519745749,-0.19355331097825457,-0.14302764949890412,0.3234536081586526,0.1144103433629959,0.07297762176711255,0.17701224073482252,0.22785801319911025,0.446809972775203,0.29837580109992595,0.07347857876090717,-0.32039116831897435,-0.17346064675982842,0.058685854196053995,0.3407205564810137,-0.10472607792860929,-0.14250314308430617,0.18217681898880805,0.201284125901604
0.20881138366284951
0.14913445067876668,0.23782263460226089,0.23623010400453687,0.2630015470955902,0.1773664391004362,0.0013084915421341598,0.06842639988910593,0.2681903353718752,0.2196587323020197,0.04643687265562544,0.009166317131290657,0.05021361818616656,-0.0033934930231491467,0.09097906850354301,0.10396322506721006,0.195762390889686,-0.021731098409799615,-0.0013984702688713772,-0.07327880956912206,-0.17640642234227122,-0.253956663096531,-0.07793399842181642,-0.05843516283127826,0.08680448389231854,0.005508462079529995,0.0565076512653245,0.31110889227308214,0.09327475578345429,0.25378657268510185,0.199385636942081,-0.015909951877614154,0.007109036744168324,-0.06043813912934417,0.011863379238341501,-0.08553481377814567,0.040682300546828344,-0.030956398701127385,-0.012684105172189533,0.198025202177727,0.02662916333999788,0.08339428886853359,-0.04175089690892661,0.03602929397412522,-0.14920406886125337,-0.14506858266959533,-0.24618685162651482,-0.021247202161034207,0.1133593366759007,0.03840429446577557,-0.05939580198296398,0.08419221482727193,0.11387916895452815,-0.277980509876089,-0.0385310584037911,-0.10216869666172373,0.008317482525834962,0.03326752063409086,0.027057239751216648,0.03569149374139965,0.1810438584506962,0.05875079591935973,-0.10897386003172624,0.11130766830419953,0.17150299805862318,-0.33740861368440356,-0.25839972052320304,-0.2519641053800412,-0.2039993316734499,0.08361584655871421,0.005352431608027774,0.07945751814889296,0.16749824191324197,0.0802104775323027,-0.14191726258401666,0.06023023053043811,-0.06490291718488675,-0.08167682985814168,-0.10614894730808758,-0.03100671812736829,0.22186180144792172,-0.10781590764718926,0.20943220759332448,0.1369441166636517,0.17111165244574594,0.05730745314504745,-0.031981653684878916,-0.011594134817668732,-0.08017313172375057,-0.169958002209252,-0.14048973826226835,-0.021519502285306337,0.01453652140922579,0.041626727860902844,0.03305129274357311,0.11815867028617527,0.18510704158752073,0.12217717943790529,0.20343258989745672,0.3422039881492227,0.027527187146799567,-0.17701518005972844,-0.16453035922128395,-0.036841933839974715,-0.07717517694039733,-0.11911106121012074,-0.043458687352078106,0.06607723602399798,0.1890724280897096,0.09901671612477903,-0.011429034249250037,0.09708207896989868,0.12261383396772887,0.021376491574460796,-0.005364548016634868,-0.10527620876822041,-0.23643361105866117,-0.2585772064622177,-0.10742689452287399,0.0041711727627778,0.16777617393796979
0.1530456166983939
0.41770478223504637,0.42465211899707256,0.2886417556308615,-0.141611804778653,-0.20797610847358025,-0.44740812334106894,-0.4821400662407941,-0.7477797983955454,-0.10425005497507406,0.21184199599933182,0.3523225426804978,0.21648380311762408,0.10139721660127338,0.15972926142514407,-0.27457878751652665,-0.4387157720805046,0.04634106516636234,-0.604251778340394,0.0824206546364567,-0.6955213512901273,0.39134586196895793,0.20694258803191626,0.15695003289812334,0.15862282867022512,0.15032635464109004,0.5291607674869832,0.5399704469492517,0.3486703239169687,0.11647074610096611,-0.508740413334414,-0.3044241544967192,-0.5526350961295767,0.5096604903748965,0.04727034704617704,0.0845031627763253,0.219920172337803,0.3946820989402924,0.26695545029291273,0.13656805313782747,0.14420839003453942,-0.044527755401217006,-0.5010223779402684,0.033372390310964284,0.03028569542675724,-0.2669521280962517,0.057074107251314496,-0.04182249167047736,0.2761034758174927,0.21108102467322606,-0.135203414776804,0.3274467227957112,0.5936672033137664,0.5198888419931103,-0.9330145508145111,-0.4342903537635172,-0.29657979679255164,0.5258879589446139,-0.01140922263144371,-0.19451831976808145,0.21532536962368062,0.2683560330155136,0.1287202961076583,0.06131296180042353,0.6217909730983842,0.9342620784938749,-0.657457202031807,-1.1093289071282078,0.16380907315858026,0.2027727205987068,-0.039583585280144565,-0.05594432719246829,0.23252672519095854,0.21403748336111542,0.062368065746787826,-0.0816360735258109,-0.1825272067099056,-0.10158515094616369,-0.06773692941720869,-1.2561225165978671,-0.6756844945114318,-0.6560476679618805,-0.06839482567481128,0.1116596348745007,0.22304786764972293,0.23048487272424037,0.01979978795069821,-0.17883220368992644,-0.44548690881205133,0.08778693072059332,-0.9301118833059743,-0.4696846424536345,-0.7122109622307053,-0.20394929460458236,0.18647691630788124,0.18889933449908416,0.2298697037293063,0.21324836677294154,-0.670338002382147,0.09297422449595488,0.5917033704595906,0.5326796759964412,-0.0016118736723566038,-0.58438329378333,-0.1703276786843649,-0.8081422484770036,-1.1174033031233281,0.2666890044449709,0.25518532949380757,0.02776162381236218,-0.39099791659064487,-0.3303840866178269,0.06164817361455212,1.0302135043972784,0.08651205441720122,-0.8806585905946698,-0.9167366072566241,-0.3146615672634038,-0.4041299343747251,-0.14712840830840165,0.2884292137504665
0.2999978290986186
0.19894705620694822,0.407483766303072,-0.15824456195061457,-0.18133652303660394,0.1106997657435374,-0.37655434186591435,0.12976209444368214,0.3163984190340993,0.005976172149871849,-0.1454976413360993,-0.09721675077505246,0.08442774210798978,-0.0502456191918714,-0.3470939946305545,-0.14095897672871552,0.09688879985943741,0.05283195287659406,0.09656130926623846,-0.2735322545897621,0.5971955404186281,0.2910494614361831,-0.2391469954728447,-0.10685332769368544,0.025716908043448644,-0.025568381317750216,0.09057962439991715,-0.05427094085226487,-0.18784417345048535,0.28873520961091964,-0.231213127474425,0.3323072290779004,0.43002194575474845,0.15102727076009106,-0.01979901986482508,-0.01926899605522739,0.05119148453036988,-0.059581460081276794,0.2845515171932939,0.10258965901400588,0.5944284631215412,-0.4894072657754847,-0.02973852928166553,-0.05122067845821074,0.6465955363148069,0.2338491498375296,0.233383398595481,-0.07623154411821872,0.05579774860633194,0.01652723554310754,0.3230546542942549,0.3378886176181624,0.8760542032054291,-0.24271837672770372,-0.40683539328024115,-0.7330283100367906,-0.45233445221246144,-0.10392999627348709,0.31315830755912216,-0.017975214242546292,0.08294278216748807,-0.04827712177072192,0.5024300356762839,0.727108717918247,0.4978255467569494,-0.2189699972222167,-0.1046761252698595,-0.2241827146141311,-0.2722059159242743,0.009375096069794007,-0.05385872658108608,-0.039297023024303754,0.09550311411703638,-0.009760504144019386,0.5356199702922547,0.03273695248590293,-0.4908839478050086,-1.0448803219106475,-0.09058541741153306,0.3427591081185694,0.2271018099466471,-0.2737516519534641,-1.3521528100561615E-4,0.05240246928178316,0.10154298838032791,0.05220667421697554,-0.3092298890399751,-0.22360930093900053,0.24116973366104846,-0.8764594744056907,-0.1829574044398005,1.1160063472086805,0.9354874387285911,0.0615385264033449,-0.07391291658671412,0.007322661103008533,0.041527081532466426,-0.48360088579504285,-0.4813153146025348,-0.2096127401405903,0.009142858328412282,0.0916071235991569,-0.020962795351019997,0.4468396055845349,0.9388361387564267,0.20790014180716523,0.007380005619725563,0.29402469549079463,0.03736927659355853,-0.17495979014668187,-0.5247037511806986,-0.46812431411650607,0.18504497384928867,0.571071260759786,0.09270097350330231,0.07661464709980303,0.14540521150748684,0.668464865425978,0.19260739889641196,0.18609252618459057,0.09537332970684184
0.046228580217838364
0.022951399836382783,-0.021680951255756493,-0.054978952884478516,0.383676035943819,0.10258525093220099,-0.408146144611011,-0.422246821311053,-0.1357714457753648,-0.47630004372089546,-0.36460091883492435,0.11152699579190482,0.05957527210012996,-0.08474180958606532,-0.3475364289901736,0.013406918345809843,-0.07784161170652547,-0.15671226907861033,0.18623641004627853,0.0590968414671601,0.030304965952588,0.1716794729243106,-0.15319364088088513,-0.07428770659088792,-0.006391150764783614,-0.04225042706110327,-0.20756559090904916,-0.337090191087461,-0.625774735714527,-0.17236327886609074,0.22776907159746837,-0.5132426867222509,-0.13749969043852114,-0.1466007808846562,-0.47290482260299055,0.1575755921805426,0.050521339771316454,0.051611558290123524,-0.0018051046773925336,-0.2567884664244728,-0.5840110807131677,-0.790624255270436,-0.45023407303071045,-0.9249623773177978,0.61924714582402,0.5993593844596371,0.33781979062811246,0.07298547080469785,0.10027896279737446,0.08764415875118893,-0.0015271355590059394,0.2842501580502714,-0.48329079656275803,-0.5242793777073194,-0.636150717509585,0.1456250315660367,0.3740591351052767,0.49826036001989443,0.21023506708070896,-0.09557160613166123,0.11809549156495085,0.053620522608278404,0.10837005014131997,0.6509288028576795,0.354496686650333,-0.4670367031063158,-0.2617113928853109,-0.232609783069998,0.05286039228574228,-0.4722960060143399,0.4085013557601332,0.012290598843601848,0.15560456903032968,-0.017370327607690913,0.31706383786316955,0.7153534848247082,1.212850484428643,0.36097028622328325,-0.2883740246562653,-0.9603241144588833,-0.5890547325671712,-0.4861803395893934,-0.15187315616463595,0.024179671624642834,0.1155699497414326,-0.008661249747869408,0.047699534136826524,-0.019115888678435087,0.562792641832032,-0.19888326285453214,-1.1202111315577077,-0.9548802058018092,-0.048868629689319876,0.03626442038069683,-0.1078733526741139,0.01695881970841195,0.13483325853372038,-0.2017085157945502,0.18654742463807658,-0.010587724491889872,0.14723141713890756,1.0231568508374353,0.8462402465139461,0.887283500639975,0.7780123536900391,-0.04322136067668879,0.23725398481176177,-2.2155257976822594E-4,0.1694049099390589,-0.1642111535955795,-0.17348610568568593,-0.5962562663990948,-0.3378814648353648,0.3562021518506186,0.9195739822472832,0.9076499611335432,1.255585968819502,0.8743472853842057,0.2389528453672141,-0.11595143008938309,0.09620109417158752
0.15463583718435434
0.051686089920889904,-0.20562476554977033,-0.18794361175959284,-0.1304344024395348,-0.1459443702023891,-0.34871051725968705,0.03370836657579992,-0.14203013949074306,-0.38717702915332586,-0.2193767177976484,0.04559531324173783,-0.035403323014143236,0.20149336047208638,-0.07911172970452963,-0.24688872811939044,0.06779714276174593,-0.09826647205021537,-0.2491727357772338,-0.3506949565639407,-0.024260859036052112,-0.30602100372168306,-0.28424354299092003,0.1999858894004577,0.08484864904577936,0.1521271333210883,0.11606053242407084,0.07104337294896866,0.23514738299543797,0.5518799180809637,0.12871698450435415,-0.418941695670042,0.133925821843576,0.0014477441255681938,0.09056678774478676,0.15065945164496564,-0.021508660006330196,0.07006214970663703,0.3095551865027304,0.1961449201251238,0.48432917093987593,0.6462429744915009,-0.31565370623327493,-0.6277710118076253,0.10868577013073359,0.054616354973350816,0.35160750949681163,0.09289890796570525,-0.08007458405854063,-0.0035770747838678144,0.25549743875787767,0.32421227623076,0.0989454315334465,-0.033155384926542346,0.06841377079566695,-0.22050683894779355,-0.3364454254076268,-0.34019384358913585,0.2246282689309444,0.08583206967892797,-0.051468839962170616,-0.02498806026806755,0.3346917059094874,0.31616423908740654,-0.35053709659918697,-0.3812422781619954,-0.3846553724354207,-0.3487009610526952,0.010762437212982204,0.4906231440890111,0.5773633258148246,0.12701478314801123,-0.11690789584572296,-0.03373847327226397,0.2698447669435232,0.07325224872822912,-0.3407289237192791,-0.3563058146290139,-0.551416240547192,-0.7146083043661146,0.5601338796114097,1.1671732961721304,0.5030506503157405,0.08490474299805108,-0.11126532924072975,0.006500627923102855,0.12290916940256717,0.08148013903523317,-0.1615426739229972,-0.6593076132440584,-0.4100940475337488,-0.06722757079321444,0.21886495662546285,0.6246228246867865,0.5184897618914676,0.08404174454802442,-0.11181711560024994,-0.09774162629060275,-0.39209354049158296,-0.23891917474370683,-0.10226703619557649,0.05578441775015327,0.29341835056563426,0.164568810058491,-0.2527767356228321,-0.32789309926578525,-0.08443095347333242,-0.2134956503044253,-0.06027207997074734,0.03737520408286254,-0.19360731762890088,-0.011688804190046448,0.14261981709456278,0.07966617291044308,0.19006631938005258,0.21101144580812542,0.18165113501149155,-0.17935271083556564,-0.03813466189635078,-0.10777506505379565,-0.09352691491928854
-0.10311029027562692
0.05170403604111422,-0.09716023275395168,0.32590542666925987,0.07536378605406903,-0.023171497470201828,0.12344038471393969,-0.6028794265558319,0.4333666047076485,0.23826037815112291,0.22713927027074962,-0.11716041410381008,0.041523150389475835,-0.323160368295673,-0.3791024853823067,0.024784997791589637,0.09846176855686727,0.22802126614395393,0.26959801881339734,0.12017536385915038,-0.05906312139510571,0.08377630779083055,0.2969507745807471,-0.1510800747396703,-0.11996284336645403,-0.1917907253669294,-0.5287624276237295,-0.5572107935088215,-0.3772461465424018,-0.3628317145532645,0.2063558762032318,-0.12900851119315312,-0.3404116685295853,0.03948575188107298,0.08051913556543257,-0.27454190266517725,0.007194979152950687,-0.1095929541390152,-0.23935937960910683,-0.3384586473275079,-0.6365160848289024,-0.7922453644570884,-0.027870376696525243,0.07930374204000239,0.17716766050250252,0.026235350338149395,-0.10242098564008383,-0.155122273309119,0.1843587020355685,-0.017028579062746477,-0.2581039045468703,-0.30954369850062363,0.028721574703795813,0.7614231228271411,-0.673451865484634,-0.05096149721542288,0.2530985496116001,-0.45283078666663085,-0.7228633770240738,-0.24494638923145448,0.13860104775735102,0.07120211311537032,-0.10271202448769119,-0.1547758648134205,0.5883086616302564,0.7649505376343511,-0.38237982023811173,0.5144681052221467,0.42191527383757527,-0.5831547721786079,-0.9034507783268493,-0.08288117669192456,0.16981182242451323,0.05396609894920559,-0.1157908564254251,0.25973125906850286,0.6280601020508207,0.32816179506051196,-0.34423250278938716,-0.2609645642835187,-0.6853438551242244,-0.8204802060587078,-0.5646683446394511,-0.010934488066074312,0.23939228810787386,0.03974967729415135,-0.04105715503256986,0.0980301453292889,0.45282937674069706,0.3738012957797265,-1.0349142384383048,0.2880504542443882,-0.8109749075474182,-0.22655103214629915,-0.10326432248815216,0.05977054478475785,0.2124593921870588,0.09786973311385151,0.559548250888092,0.39569777048120053,0.4971278001009894,-0.24036915473132267,-0.7537162840697123,-0.4947830152437341,-0.32332271863414613,0.12466273374328593,0.271076795581733,0.27242709999612674,0.19944865581953172,0.033442003889666325,0.5028779714008911,0.2669337360937359,0.055347506893236684,-0.07020881378259373,0.033804176838819214,-0.6173755122944689,-0.1929323360925522,1.016500150371925,0.15226933975511894,0.1493481444791774,0.24722281813444327
0.24744815510866333
-0.08032590915867062,-0.019697127319956848,-0.013145528172774314,-0.3765169607724082,0.012310627427985813,-0.6578668614262767,-0.1791143923373695,-0.5791847469786463,0.1435121312708257,-0.15819824845941713,0.13885347830888736,0.05866742155352639,0.07737105756509836,0.07388389799330196,-0.4503002415839205,-0.5218261495395456,0.29904916738206194,-0.7459118615520016,-0.27001788042811187,-0.20421476596016594,-0.09667120450168985,0.1347705350320664,0.24796858986064643,0.04679779544257939,6.549308662270971E-4,-0.06354629136611288,0.06115504819997927,0.05148411646701355,-0.520961597940227,-0.7304694667471602,-0.045497551792653454,0.7132458429572807,0.6960368059320153,0.07720627356145814,0.9047857441093513,0.13843210198736308,0.18068812245595137,-0.3062680060340615,-0.03178419057189671,-0.03685252707548349,-0.12753333886910725,-0.08441642348943652,0.3800673176804164,1.1342238764641088,1.202375031824729,0.5280081666552863,0.5199723631584592,0.12951202722054092,0.05885758887915837,-0.1378297436400043,0.21239668334082998,-0.054331671545971086,-0.11481436467390473,-0.5066458515668679,0.04564368571368044,0.17750453346305142,0.6380605602564181,0.22690407541447175,0.20445352911008444,0.11794489332640766,0.1702830425947993,0.0785716811563633,0.11762498074108126,0.03674120050156236,0.3350227807406208,0.1998560141520507,-0.4977926385435078,0.08299883446157706,0.38580221495817674,0.27098873199682966,0.19847250960761217,0.15504815282522824,0.10753846433407942,0.1306087778674588,0.6181548845285795,-0.20937663426193162,0.0834375121322725,0.8814369194876458,-0.9740565841864023,-0.4619596857184403,0.09898679594889408,-0.15627193588266988,0.27043614060323934,0.1650985940996126,0.1923611241478079,-0.054551877708941085,0.5166209971965224,0.32138273835771886,-0.4211223578975843,-0.44238302829784165,-1.444450885558421,-0.5628326740931745,-0.43793006533949813,0.18668475333407267,0.26887254839794,0.20247951134029132,-1.3583644472937973E-4,-0.09936899396117001,-0.14570254640726818,0.6489547929346321,0.240031773037134,-0.2231167744209239,-0.46618790938099824,-0.8746949619004564,-0.3568845540171602,-0.37107754919661334,0.2404996940818573,0.1300120350431023,0.10809371634234653,0.19541347202561735,-0.3493498403699186,-0.49441275951747515,0.382620574420465,-0.21191075580275062,-0.9284633315184257,-0.1986435527165115,-0.5813229755746768,0.10119091492490025,0.1452205899708828,0.1803737769131644
0.17044009835078275
0.032017235088691365,-0.28592801442684446,-0.6431812301792097,-0.45763679130669443,0.1003520855400964,0.38834930028721026,0.10943626237984348,-0.26938471794341734,-0.07471861093176012,-0.07463856026041386,-0.03549912677044757,0.11605013593325501,0.1610012022832228,0.3055969343029895,-0.3530967510658437,-0.2672833328704215,0.10614153153868326,0.5423746195577588,-0.2695343273085652,-0.3147505422355451,-0.4065981904191114,0.0014447117160209778,0.09320946114080116,0.1647892732112744,0.18849222431823331,0.27890031337818477,-0.25749977134947,-0.6470614432686814,-0.37127257124835666,0.6323466572786476,0.3956226092330275,-0.5943517131617262,-0.47127725754637817,-0.08000967774411331,0.0028285618968101845,0.14365717998833893,0.15762411864883513,0.16801016525753426,-0.335958251440013,-0.9458309461043104,-0.20902341236183242,1.0356348429297517,0.5386415815818224,-0.16551606451006312,-0.383131573617396,-0.20574135882145927,0.05414634837623633,0.07526899538596123,0.04010141285768415,0.02480056339691201,-0.46623053658024427,-0.8451260724023273,0.06046894954570562,0.18148446840476418,-0.42885444948932405,0.4278030650467072,0.11065541123317925,-0.19436063502052836,-0.02064321117184806,0.07392667592463652,0.09272374131866105,-0.09817424263665396,-0.1688383548798159,-0.672714832859634,0.4369021737356016,0.07866771200230009,-0.3552697170309024,0.5737325700343467,-0.046992739419294105,-0.20043954761890787,0.03941536888148775,0.11210613280723143,0.1104189223222324,-0.011492977174286389,0.19245852138411063,0.11621299466489747,-0.08421910380935675,0.2691781754080159,0.23325494842211947,0.4633217212622486,0.15046008076572298,-0.10225618603533275,0.05124009209149216,0.059481942762905846,0.12999765945994546,0.1677629712297104,0.18668062757360232,-0.08593704610638721,0.1770405812409861,0.6608594101989083,0.13836640535319056,0.1325945204929102,0.06652119763440618,-0.24891480761499313,0.013530020894431491,0.11822080018733823,0.21060208487250548,0.02772895394782623,0.44213551344104085,-0.7815836809675945,-0.5181603459701796,-0.01113250170603107,0.05314939552849825,-0.31728430701589605,-0.3562907356021008,0.10421026271901614,-0.02710886091640764,0.05159682074194685,0.27848040865408885,0.13057558214492254,0.17135917777652165,-0.16889127386552893,0.03242327254820944,0.1964733404875318,0.33052614035947614,-0.08185563699354752,-0.2430718746447459,0.1246269844935767,0.10744618162644502,0.11136716376568746
0.08365114088120294
0.07815226984650955,0.26424396453545734,-0.13541213855217482,4.933137581895383E-4,0.11714587083270142,0.07581180475497235,-0.3558159809854979,-0.1144895423112316,-0.38563696098778705,-0.29749487101254796,-0.3125748632074002,0.02665132127512586,0.21278971378166128,0.013154117876798875,-0.04745034632196501,-0.0877188601434725,-0.09243510242333217,-0.090076258974048,-0.1998789740688151,-0.3463327839528569,-0.7474878271647973,-0.5986058222658661,0.03803961584204175,0.19474385085803358,0.12351426762424622,-0.2297282594071241,-0.43890145904204175,-0.18356910933823084,-0.5927441121049979,-0.3790059703415431,-0.07041512144715553,0.5803634369636645,-0.7650648567479259,-0.3745792987440146,0.05553283408274561,0.0372069643724734,0.018903916323048452,0.09058236224184335,-0.3156622493884433,-0.5454333725683189,-0.8765268603918406,0.8706504443014584,0.676301378295449,0.7207191470647565,0.05104858144215516,-0.3449176452156117,0.023452220065785536,-0.04135476495819485,-0.053674028040469286,-0.05599282386309578,-0.40185648119303136,-0.7485129776174391,0.21424036651960215,-0.517507314974475,-0.45161935990148655,-0.15712816044864014,-0.43964647729819056,-0.015086261238751517,0.004050743651116753,0.01571972027616261,-0.059583371810512605,-0.0031899598290022644,-0.38087608035017445,-0.15482618055921865,-0.21055812618396474,-0.02418112543262015,-0.013606355017413365,-0.5655273081608383,-0.44003796375911924,-0.08244126982724256,-0.005214243573063611,0.021127048246303366,-0.06830543065730088,-0.03514643084168503,-0.0354433260118668,0.4247533341409973,0.2608566951773626,0.0893673475103331,-0.15437047295500655,0.1937984489873314,-0.3732190100222929,-0.15941315141306706,-0.04053540017251551,-0.011432032985136427,-0.01569151976015746,0.2544024074908226,0.42250093831880314,0.7292357378408068,0.6831297440313588,0.19029419606358577,0.8152229814873346,0.6959209125460333,-0.10553967478920454,-0.008753940291112145,-0.08979205159281042,-0.04053337422498101,0.25634785328625015,1.0446618612245735,0.7392615981530786,0.7802025408042028,-0.40689386982276016,0.0188399549688525,0.5037646839114034,0.5019300737212663,-0.024398062499617717,0.20204506582309467,0.15350672523135145,0.03062758922257037,-0.08390852829460876,0.34569048578517886,0.07311258791161765,0.5799407519036959,-0.009873548288048874,-0.10926184863725638,-0.34024742259893265,0.5312911506825468,0.6937593479811419,0.16038489164350428,-0.058036740475250544,0.007490272443111037
-0.013927040097156387
-0.0628916286366834,0.009847693437133143,0.04880771165978561,0.17626687776402983,0.3252046226947231,0.4454665265879388,0.26284601808275204,0.04980776038239925,-0.4416151054700584,-0.9008882088927561,-0.2881080739798369,-0.18307229764244792,0.28880840126983204,0.49022286802513876,0.12704551528052163,-0.016145177004304605,-0.06822301745096507,0.790680909999145,0.40684218932080524,0.18607197047026214,-0.6347712621307164,-0.4702022689668543,0.03166264241061472,-0.09146694443194611,0.19847040712121594,0.1240261088765803,-0.1402171797253638,-0.36187015365061254,0.3119443197548953,-0.033412606670165455,0.9186156898536066,0.643152987484392,0.5324623226323686,0.17685182149552764,0.5083207994621425,-0.1687004911848305,0.04810515597675156,-0.1494929483564978,-0.03380298129647572,0.411639364259265,0.3630758751549759,-0.33976173783156277,0.6793632555011677,1.2822324054345848,1.0634783170786595,1.0080687662373904,0.49435978929019525,-0.285751161348688,-0.27329037024923936,-0.020482270074329574,0.03717803207781407,-0.40620601653969385,-0.7258020557143907,0.05225623137306656,-0.046833860014571065,0.1603149922569183,0.9566853772171522,0.8535865148740254,0.29263994016444256,-0.3059741241268367,-0.15364164308754769,0.176995249934015,0.01759612575708682,-0.22875932498865648,0.10919103971085536,0.0975167931003953,0.5699470887735252,-0.6408987228149683,0.004689116102255387,0.4690489339620398,0.2421102639653609,-0.310834130486983,0.017058683052208673,-0.26652848686619696,-0.24684777320388912,-0.09323449744897352,0.2866236070198905,-0.41493373310859155,-0.21193510436096769,0.005302556458572151,-0.4086726581005557,0.7166499358830392,0.16515415307967307,-0.22799587025115103,-0.003663363551219643,-0.09428015076658477,-0.15459010619626345,0.18115087861839219,0.21514694704515647,-0.3539789341878508,0.22149347027853594,-0.1554734554351465,0.3944904983331517,0.4900743770166806,-0.08381255844784793,-0.2656257500659271,0.2319852829331957,0.3626331598877777,-0.31219459919088083,0.01277270597120066,-0.47163717560902635,-0.35941096696829206,0.48177351341838764,-0.3000132442624596,-0.4817554895539273,-0.8475779025243197,-0.01991921052064135,-0.31475030434830403,0.06519099459554129,0.2588955944550633,0.2771765406525271,0.08345448843977316,-0.3034812060769823,-0.3211314299085751,-0.23496356090835913,0.07723040745976117,-1.0276712054226904,-0.7387711061242284,0.07723738534724645,-0.23766885566485307
-0.27071530410695527
-0.012921084320120589,0.19749843761299382,-0.26668145011963457,-0.06929733803912942,-0.26555718656236665,-0.721870717839192,-0.49428800055795313,-0.4995589254377017,0.06650898867465228,0.28533933649556137,0.09737723710034883,-0.03169134301319035,-0.11958371469719652,0.058549252426754406,-0.15474811337625036,-0.061939269921683054,-0.23711992691539033,-0.9351780671698412,-0.7560586838294882,0.2836495581330584,0.3535079726293093,0.4612766513389646,0.13248157528174911,-0.04367284820984366,-0.22247897130699337,0.21287978065064153,0.2315309377862322,-0.12275908295663525,-0.015083940330033938,-0.14288350952542897,-0.5523316461105087,0.1374288630692159,0.1292264741396464,0.3944554105458386,0.07250483478429424,-0.004117864073157538,-0.1885319218032179,0.11692964472041072,0.46414273089362806,0.4082079088110682,-0.14655647600834779,-0.21655325871437128,-0.25997730823627335,-0.35906598653064153,0.19529753525449664,0.1367306332433537,-0.1586083117671361,0.06174821875242585,-0.10113158378578367,0.28808256164291796,0.6959636500530416,0.14304086133202107,-0.5705586901406435,-0.15708311935255878,-0.44988324945981867,0.1385521311010018,0.4866581873820362,0.06143293548436678,-0.12910844049620804,-0.004206451792687937,-0.05625496640423122,0.33174520750588615,0.32322230620740905,0.05519830452914212,-0.46105786814701283,-0.4937215243931981,-0.24905504401931483,0.37743768267896055,0.1363216205981506,0.4097302234576852,0.012152605751740635,0.053521851609845336,-0.00485346187436524,0.4650424618170325,-0.23184266903753972,-0.12689715711857258,-0.14430728889167008,-0.07951425961159721,0.15969146615467802,0.290771248900854,0.16538936303073123,0.19467349155315586,-0.03834218697510157,0.031975079499338754,0.06661692166295848,0.48393251158105416,0.05776187731256312,-0.06480028773478975,0.11080507729456425,0.7625699860472345,0.04801656687088944,-8.860521259024763E-4,0.5038908306767781,0.03586130280101105,0.037512065973185627,0.09186027899036615,-0.013441096430903899,-0.20899720122434787,-0.5455331551383128,-0.5373993137781657,0.03326957024840535,0.03651660528887114,-0.3643854901092826,0.047395343788600885,0.4194149490692472,0.12778531516277178,0.07523901346355082,0.04454895787853219,0.10426087275078678,-0.020101934555066713,-0.7815183980778512,-0.6428384259767491,-0.6990681177643953,-0.3377043479548411,-0.22280343876480815,0.3726784174096431,0.6524903845071922,0.4994675609357747,-0.005847586178247559,0.05230908493060342
0.0017871625926124777
-0.0098135294314366,-0.1257458744919386,-0.005642379574378464,-0.076170489482119,0.15092862644823188,0.1843397785002551,0.41984081494867376,-0.30256405306621814,-0.47351037015808695,-1.006976465229787,-0.29622108680870285,-0.0032001163395245806,0.14050894875561612,9.88092973178968E-4,-0.28018387455210925,-0.6596494305902105,-0.44985948786675,0.8470045694588448,0.7829553645317753,-0.37840181562277664,-0.8199030387604189,-0.6122579829721937,-0.22664581740031817,0.042987074526511924,0.04955383530119648,-0.15369142070243005,-0.21070834147955195,-0.5188540294887505,-0.22486676173972328,0.6389329323323238,0.15428446018588685,0.2335694310410293,-0.33513404492436827,-0.08223568636621133,0.11287325746744996,0.05313307371855853,0.030529450895189613,-0.47924877364434026,-0.29679121923214646,-0.20622042734604076,-0.17857514425225982,0.06639677401706547,0.4563435792678442,0.715979838831281,1.170993425108814,-0.009117607902716027,0.1439848341718584,0.015517291784176126,-0.007066209373059067,-0.26418354861618076,-0.4435607930075989,0.11028934204048925,-0.3131379854140195,-0.5028097782236326,-0.2281332662946952,-0.030520122310843518,0.5014533925584455,0.037761873932423994,0.16789888197628264,0.025106110050308512,0.0333982343863567,-0.38845018990105706,-0.31034127317887616,-0.2739321079323499,-0.57861437941429,-0.10448923634284628,0.15259428019825963,0.259575833343348,0.6437956074271496,0.38418303681415733,0.036082800630924415,-0.012364306911253974,-0.03355539637896252,2.139939701978193E-5,0.18793794528734611,-0.06793389888230338,-0.4632160353004898,-0.22475038874951106,-0.13563032609470846,0.8643940322434245,0.46927196141745275,0.6431172236391629,0.1644505258526119,0.06327762440242311,0.006116815157003644,0.17956854897448202,0.9325047624474514,0.06242206521302182,-0.2451352335118556,-0.19111448009852314,0.3126986690554363,0.7345822432085145,0.26777063377814914,1.0369472616629412,-0.028728080581311603,0.011730339007668164,0.0010755355436487108,0.14955486042887386,0.9632874592521226,0.6926508079297455,0.30810665198664566,-0.18847958399330586,-0.5724949058055444,0.5343951344987412,-0.2560956403157866,-0.7717532273022902,-0.24032151155222195,0.003586485496304497,0.014217297396558106,0.17794284142780445,0.44474210858327146,0.8452968326305306,0.5430826112679781,-0.4198615014662146,-0.5364735915459333,-0.13803383412256273,-0.48596952864120013,-0.9928069581359258,0.09832179507357448,0.03802644149350854
0.07112825106726063
0.17188026771817175,0.2236613823294291,0.44643227605864233,0.4893613580063185,-0.05181126932512595,-0.6055252132962758,-0.4995628448917865,0.24902365181184963,0.38878065560680364,0.3740796383289827,0.39947592970122947,0.18130123380702282,-0.12313917104248281,0.02623301162997442,1.0011213400433132,0.5667854593691657,-0.0279125268082229,-0.3888229278313544,-0.33912768212804534,0.26179715316420105,0.5886840726006772,0.5288234272242578,0.30663101190953834,0.17894640307160778,-0.13813576257623358,-0.24579753493275266,0.5213146456122899,0.6367234304217864,0.02742147908538252,0.5300559373761033,-0.3497859308894661,0.4853590930797157,0.2965264845251039,0.5155241624230587,0.05107062703669249,0.23241074413908622,0.0064391668530134555,-0.5411009197157155,-0.2739427137816288,0.8582760023162628,0.32877000156193226,-0.6049687010967653,-0.9568710088645094,-0.8167815713708282,0.0714495162624591,0.1429131901371771,-0.06550138061523883,0.2761151414916998,0.07132005339166092,-0.36013054303115277,-0.1992819022137642,0.0927580854270049,0.7591450942373823,1.237988379897061,0.6290035662649043,-0.07106918080596045,0.05681321562964439,-0.050300634627021626,-0.17501728104378447,0.30741263150138654,-0.025492108837607615,-0.5205424331815329,-0.3266940865963639,-0.2531713207385554,0.28800640506874686,0.48150791010973304,0.6554917547494257,0.5325066888443457,0.04882717345210416,-0.5186487801484747,-0.14323322163538285,0.30062382054409376,0.09918774433181521,-0.6720022500703384,-0.26899915744402425,-0.4151482494599037,-0.21945602641449516,0.006739825635522144,0.3161557515597546,0.6616783532193873,0.24305147910389915,-0.28658991638085574,-0.06910832553384119,0.2721870435478331,0.07663513996791269,-0.3619886740572875,-0.010647114385786447,-0.3568468692026018,-1.0370704097563328,-0.6661783155443615,-0.48364416342477967,0.2018559815625496,-0.024652507824088836,0.11145579198376637,-0.011081241023066107,0.23295362038158043,0.18972481439868513,-0.5206051379965806,-0.4754862766688617,-0.32182049151767145,-0.16094437998185415,-0.7743298964348524,-0.17550490531917892,-0.44829078854645543,-0.3796955253722136,-0.28880133696459587,0.07755519119190146,0.2892718329192523,-0.03477043334730735,-0.26155193667964705,-0.2666232635479383,0.015642701811200962,-0.17426898689556122,-0.35092118382061566,0.047676654687820286,-0.4939104454204055,-0.6011819481748448,-0.35586418287669885,0.03671039129556776,0.30916568146323686
0.2735625228291074
-0.29558851102178413,-0.45828085475125485,-0.2532719454911265,0.5182813151721869,0.3886233471410477,0.7192900716298414,0.8797928556623218,0.30141760995763817,0.1418574162237069,-0.12289577383057874,-0.2949042231104107,-0.09452455326156227,-0.2691323524306292,0.044261043056477836,0.3424038405824204,0.09630201264643863,0.1199272416775529,1.1834499722806464,0.7761420685419578,0.18462521257523712,-0.3888955810949361,-0.4398820140479171,-0.34017369469222786,-0.09976335978815361,-0.2620709244758029,-0.02910032280702749,0.19952383859754624,-0.4699061584658289,0.35831419823841565,0.822952125622233,0.2038204004648726,0.13540317340005253,0.21198196337781738,0.6620995067577851,-0.3050753945564349,9.527939046422515E-4,-0.22813170559725665,-0.16839954875724777,-0.09771331203450152,-0.9855075492227476,-0.6479007366953067,-0.17058076309411996,0.5554852647114146,0.015459423999432528,0.012268333731954571,0.2710307455190932,-0.25942057861902473,0.10095724720965148,-0.027134723139967606,-0.4057896319481618,-0.08732774528253508,-0.4218276837762737,-0.9320146131654752,-0.7441593767736574,-0.008205419346391593,0.44611902181004287,0.6483839885813885,0.43363596913257724,-0.03198540302796184,0.15227951883965685,0.01573353303369971,-0.3941904066333752,-0.5452070062121128,0.15296671655577643,-0.42151839895756843,-0.40294230385177027,-0.17772887643578916,0.5865462957273777,0.4276965034116161,0.017618979323757937,-0.12555968081227153,0.2666008882410544,0.014240139017929634,-0.20848854346471424,-0.1062568858995195,0.9066885414667167,0.029194417922506502,0.10384431505269108,0.8033336982451613,0.0848302105147687,-0.19788773276092392,-0.2792829750943729,-0.030431346948241088,0.19628652499723376,-0.014559039348339213,-0.19466020115291394,-0.22136314012230285,-0.18396016255720493,0.8375289461836097,0.7345845838067211,0.4286278853135587,-0.11346981546189529,-0.6294286389180983,-0.4360793484144075,-0.02129384685622647,0.2486898363575517,0.1665924930625841,0.1214741399241142,0.40860460851268626,-0.1915980707412086,-0.453400199401718,-0.3548387343971448,-1.049012908315276,-0.5712770731091965,-0.3324244935664202,-0.40479191923432484,0.09978628640827585,0.19487038283507957,0.02686012193737871,-0.24768169588179717,0.16666015725026206,0.1650038949540118,-0.4138633743136198,-0.03552111135043244,-0.5502433897917958,-1.1957590487633374,-0.3753499877998013,-0.2647688890576834,0.1432504123637171,0.26462429631352274
0.18068144181153578
-0.0063602986425305786,0.31236057400208156,-0.01589448876642683,-0.07105224290354532,-0.24939133987105647,-0.3209190939815784,0.09796641024178825,0.43703424907272853,0.6131945232116602,0.2101083751569418,0.07323201345363135,-0.006657627803585295,-0.17710157600389137,-0.009601856822714378,0.10081258092852517,-0.2673945775584023,-0.023983679303716525,-0.2844925204721978,-0.0399587550268654,0.45175186070931656,0.3147892173811225,-0.0932616374003389,-0.0356628336948142,-0.13501937981581907,-0.12744119679053628,-0.12480676463463827,0.14932162257713477,-0.0593373278142276,-0.07800126554179827,-0.14540921465606338,-0.22572374879178064,0.44319299204217616,-0.0922664311303694,-0.12374010351614899,-0.37079634426424074,-0.03069474045347218,-0.06988931953741136,-0.22499799230579448,-0.09936179753620296,0.2197288186025244,-0.45940159573968337,-0.565044522076638,-0.376628019722376,-0.8310144391227503,-0.5311628620556612,-0.5774395382275799,-0.3207368573740183,0.13901898220243197,0.12225850763843003,-0.05341360655954629,-0.6326671997095199,0.10803959770830161,0.15821885174304645,0.9093327665473792,1.3919689858148923,0.47851176292082537,-0.9673114274779484,-0.659648903959775,-0.12121257578419024,0.20049725421155346,0.21460081356149674,-0.09237395785366125,-0.2323655716408939,-0.3052068146498043,-0.0016921649898729524,0.15938384269324013,1.0465584065568432,0.7826216985233851,0.05087523663035645,-0.3621327141377924,-0.04743494906399974,0.23157825923522246,0.020326190766196177,-0.07031575678268771,-0.23317630368766873,-0.5714749181723349,-0.5861206703971042,-0.13021191019865508,0.2804782732835887,0.8516746007402034,0.645227563960258,-0.18095540980283148,0.02238799073194339,0.13729813731109264,-0.023896785674251568,-0.11248097361597854,-0.12269626084701203,-0.013849692331372353,-0.6821349332087991,-0.2906020430534117,-0.5105627937863628,0.291904054130569,0.16367526871335986,0.15057707040422658,0.1390856490054868,0.2053747430918198,0.06744183254248805,0.20633999006237524,-0.20944870435256502,-0.1079123368542229,0.5793575644539934,0.3643732968105234,0.16478226718672,0.18530644207835167,0.307594224024948,0.43441030186101964,0.1331706523880105,0.1691772409283569,-0.0629511738422694,0.14055207854040658,-0.07351990598055884,0.17081555765479817,0.6469989562559828,0.4028655114914073,0.1857649318654569,0.4630837481659192,-0.2351544123601778,0.19253198957419776,0.09384576433439394,0.1976225183122336
0.19297619065069316
8.12536898814375E-4,-0.3102011877869944,-0.05580762487833131,0.029030607256293566,0.39850999880619004,0.8092491607218097,0.5176904227622047,0.6279387636095937,0.14048509221167282,-8.420818312787614E-5,-0.14074585759562858,0.057596068587617635,-0.15837715730442886,-0.30486052676642256,0.15014721013822968,-0.06654076839331712,0.41057515244226334,0.7132286393695115,0.3511662116819622,-0.10693274449455543,-0.10033354665981926,-0.3665481676164391,-0.27712813419238685,-0.04804861778260215,-0.11828407926977892,-0.2508429328273812,-0.0015209608161742582,0.05892442943656155,0.27104566882870057,0.6697450734419734,0.24589030148187602,-0.12648670093374775,-0.02544542806996915,-0.08540487427931363,-0.26605635482361073,0.06397070362723382,-0.030889544915027888,-0.14754520938672078,-0.418248692134275,-0.2582192969320521,0.12942730052611523,0.14774901960468517,-0.18597806318869542,-0.34486421238477466,-0.23505926820216722,-0.06041612974517513,-0.08708425932401577,0.20790837800906226,0.07062588786917114,-0.18866356170920562,-0.4846848593659892,-0.0243743615509496,0.26384792273926133,0.21336761599967208,0.3232563707899044,0.28879040200273215,-0.5119062518504115,-0.3465544767750986,0.012347215788389671,0.2278418228130053,0.14493992223140617,-0.2260352398349107,-0.2659569685412823,-0.20183755983220086,-0.13440577242122304,0.3411295268964963,-0.35747677349488144,0.023414520871449736,0.11984663735076333,-0.5075678292886029,-0.04965111959726294,0.21292814067721721,0.13017476839201708,-0.6227629838685289,0.2540501931872301,-0.3370623783679199,-0.17024387110429035,0.4409082736239614,-0.7814616177510314,-0.3323075142729209,-0.1335775924741256,0.24856258520310237,0.1009930044120773,0.2863718653487796,0.1264865732806451,-0.2489357958839565,-0.25332036885324666,-0.17903964067276068,-0.45299287639068114,-0.5574911084574619,-0.6195448071132308,-0.6703548000200299,-0.2587735046465757,-0.0646315764902967,0.15438768842218575,0.2920105264769914,0.32404349001036153,-0.0888552501821966,-0.08785143368712896,0.08668148107868297,0.1322194294614844,0.05508340726137792,0.338659742856062,-0.4681761416461853,-0.603789999379148,-0.26967599673841386,-0.14027012478628892,0.25491375635139224,0.14305609125332308,0.20065244102173885,0.2548415885521554,0.6702810163232762,0.8411522134248091,0.6166241764858917,0.030346843091945717,-0.759505991497271,-0.740221625083626,-0.5196797327401643,0.07449969712879782,0.27767704983769076
0.2669206565161361
-0.06262093207811868,0.34945832698623247,0.14433923868658594,0.2156912334708861,0.1307691731506465,0.046683452266659174,-0.06845066026409723,-0.1075157640655999,-0.40358433539373384,-0.3332243246639863,0.1943983905972449,-0.18370612630306304,-0.44890137707419553,0.09223776537247735,0.5827780636442246,0.05691604026276612,0.1418153642462569,0.05378750141292419,0.26532511208828025,-0.04586409316214441,-0.39804981376595805,-0.1218726070121442,-0.22102793503548218,-0.3222490452901926,-0.53390266826236,-0.11334665808024988,0.10248197745343746,0.17455459434719767,0.8219060398031186,-0.025668819025143032,-0.061574838043715274,-0.18039900779111495,-0.12905079575061257,0.2455844476626008,-0.3253592859209872,-0.1030477084883838,-0.4390907606139044,-0.2612525176713655,-0.14520794287833383,0.3408716639559929,0.7193610530448915,-0.49881123686861484,-0.03545764677154271,0.36099868164031557,0.3984770397818478,0.25980883844541314,-0.2992838009037009,0.11407491038967643,-0.3120937551162355,-0.30879019715772504,-0.14972202833087683,-0.6559065090064244,-0.35356057842597277,-0.4792828683090934,-0.012161636812169783,0.38104502430495457,0.4238988701332651,0.27620350560372253,-0.1442633436372628,0.15113033873707432,-0.12893623834927576,-0.302963348817499,-0.5182060695655102,-0.5457341345055806,-0.206266212126065,-0.08796661949237267,0.06505978566367936,-0.0668307628940494,0.1316475999612876,0.157038047983388,0.03623049538235581,0.1014622128074392,0.14511808670563225,-0.6349542276044391,-0.34534494001997607,-0.14172898593772248,0.06809558333548384,0.13810731486722433,0.1439475778086886,-0.12305302885479402,0.04954609344200709,-0.0740128306974302,0.22308621229782327,0.09297723666414165,0.09529032789929845,0.021839673626205588,0.07654165205973099,-0.10004101085716535,-0.14863151551054327,0.7802779257926673,0.21917804598538648,0.4994186566060188,0.23347768987806244,0.0226318410012491,0.23686775517679387,0.14932335368487082,0.5360706946322655,0.9537354849268915,0.09217946436267188,-0.4260228101658913,-0.8608752404411575,-0.6321935133708116,0.09733385535901651,0.3207231281178281,0.8338782205462298,0.5293035383480973,0.46856562836266935,0.1058756959577914,0.21712413473953307,0.46816037960305956,0.2575947269376123,-0.3971059683669266,-0.5215407587223011,-0.6757830277653696,-0.7570479040426816,-0.3506936549453935,0.5523773987513969,0.13592340317221335,0.49898019692054973,0.08405412002534601
0.13509774014904335
0.07489422130907457,-0.2365489012656768,-0.9158459812327803,-1.2052117321707063,0.038992990332242704,-0.23820815102150084,0.316748827235317,-0.17263825582879283,-0.38739099244300795,-0.6872124299421897,-0.29712689792092667,0.19163818410707878,0.37598048270590984,0.022196180817562028,-1.3823202918667732,-1.1970517321150183,-0.06697443936545154,-0.012118725373195596,0.664288846024191,0.05429116929480946,-1.3589903830366084,-0.8431546348225044,0.05475901973497197,0.36994866315160574,0.36598837355960295,0.1593617184381737,-0.6893411526672922,-0.4194941318753998,0.04704815650412187,-0.6176779868617387,-0.1977077289505242,0.08786184319520833,-1.4805901591965458,-0.48077756057984616,0.3582166187296811,0.19319966103686903,0.2775532822782057,0.10823727674065194,0.40495136814660976,0.06196370514264946,0.7267067172405434,-0.01173630462626199,-0.1899939003821956,-0.23307336292943515,-0.5362688674855983,-0.3787438057863827,0.22414406352145239,0.1928126092104081,0.1513227034163791,0.3023084757241347,0.23186048567366757,0.23512688678220406,0.5106644857316995,0.023317608175652448,-0.1952623979042441,-0.3309963318058489,-0.4848999056778011,-0.5833276200551464,0.35136865766221975,0.15267130519089417,0.1727777435093445,0.19128887820498985,0.22279095454511522,0.055349070707043944,-0.6208519971776038,0.18974167100954853,-0.35155805147343194,0.1563084885943044,-0.19713549652422735,-0.1797691078423817,0.023375778127927287,0.1943123283774642,0.1846067704774319,0.022679170027413514,0.2354522004107547,-0.02595622387773578,-0.30956660665347296,0.016044448521309092,-0.07099853013189751,0.7738388571753948,0.7779506398312678,0.18885879986857845,0.1814672779215551,0.12247312787247376,0.17274909816528394,0.21418421575066837,-0.001446088655363114,-0.18744942644581242,0.3995287568658293,0.2987749330086476,-1.2337621441293771,0.7095082840237515,0.5811006538274847,0.35670555603099147,0.09439142100622512,0.14382500229566436,0.11288447645806964,-0.02440309025707265,0.05934074673593138,0.271689241676033,0.1845977235366993,1.1613557062250275,0.13410551261539702,0.8340094396284928,0.4270752976334699,0.3487728794779132,0.041277375085141864,0.1300208202160397,0.3336196027587596,-0.12284695203181818,0.12030240841336011,-0.20171640577772743,-0.42045954311837547,-0.09316558780398677,1.2792217816832954,0.2900694545793125,-0.4193398998314773,-0.28857223794361847,-0.08159878896291765,0.14524719491194493
0.13499652280522884
-0.11311969276029354,-0.09287640439027789,-0.1981249890566274,-0.3275716953342553,-0.07835730621117501,0.24984497171650863,-0.20905195448849506,0.23937978990951714,0.33435803770231515,-0.056508054348405126,-0.10362625646230988,0.06782941951076252,0.015666291390013794,0.1578266220960015,-0.09151229050311813,0.26899652246990463,-0.43186938488469845,-0.5239986803472408,-0.6296277493414112,0.05042677888895725,0.18032946109149156,0.3307466820709724,0.13739915920741413,0.026227678760037582,-0.05427674461755225,0.137527604779975,0.08542235257304157,-0.04800047164539399,0.33498355170441635,-1.0237888188413085,-0.10810942931337264,0.3877010242647841,-0.19626996136797875,0.22932569277093484,0.20373375206859368,0.03859189440235254,-0.02337313355983216,-0.34238300950006545,0.41074766065776086,0.10313522702648228,0.5814360066655379,-0.6915033096316118,0.3922449973005599,0.7049095974390426,0.05020274493025639,-0.2161145246795632,0.24940728497929138,0.043008166612220164,0.001811431202668707,-0.025659641821496253,0.32570901936805935,-0.12348545256878382,0.24957368577525577,-0.9137662679516622,0.19099939184516523,0.5910556614916328,0.05574428449589772,-0.11405755837684248,0.29292970149443803,0.04419684968313564,0.025458848695233762,-0.03244499023419163,-0.10925463031865748,-0.22974330341566845,0.08040888309861177,-0.04462834081839097,0.0785513349934579,-0.20711892656873854,0.03732687206945255,0.036294601938449716,0.17520123113210329,0.12252833651539438,0.0871498046479037,-0.02153344640006247,-0.010919733508188397,-0.24792998295173585,0.009888936137434969,0.10102759382112711,0.16416762646463773,0.03142263937590552,0.24887955630333786,0.15803117417904894,0.16933794368290267,0.12512446058409554,0.09632886587979345,-0.07244233925522259,-0.41349349417411024,-0.1155755971678753,0.20543816811847,1.1241623174821331,0.5889408339794736,-0.21871877690498848,0.07198223309320606,-0.04661829595794195,0.15222949897850746,0.09178024172249505,-0.0167711664633307,-0.2401575252553182,-0.3340111883185068,-0.44019217654107007,0.027963836295499696,0.5865328262696717,0.07555925450870674,-0.3165751968697364,0.3432702282404931,0.2586047438288465,0.03505680275344247,0.08364330339876663,-0.09329220646177483,0.11547628298926371,-0.07667062434800098,0.041239804065048194,-0.30626431624279976,0.23612788359574177,0.006032220610698779,-0.37229250270384523,-0.2937361116595753,0.03678864796546662,0.2100483982726294,0.054786131558028264
0.1134362697539649
0.10407998497105515,0.29234453866484356,0.4694122351692317,0.15798254723272884,-0.06199418557228983,-0.5428764647704425,-0.8752404043383029,-0.22994431814747915,-0.05160635572905186,0.4046880975319841,0.4239375352964021,0.12973102083438656,0.04296071385855094,0.14415390492061744,0.2632112964631945,-0.056233290639003085,-0.027060392911937528,-1.1468602318730252,-0.609833483027773,-0.46955834233984084,0.0016855005799591707,0.09387333319123396,0.23124896128807101,0.040903237512216715,0.027352299973030632,-0.07144997348340186,0.1763447347670021,0.5520305066701723,-0.023641201990672024,-1.0723772656460102,-0.5936659722085209,0.3139187913374579,0.2275625702741387,0.31072834952684425,0.2491952309490911,0.1667922368459788,0.10567660118136078,-0.09441967583390011,0.13741067501408596,0.13879011537108618,0.23108172329193197,-0.09043365917281158,0.20441244498046754,0.45863943230006055,0.17571603830894653,0.160692391180527,0.1510661867827812,0.15322497508305535,0.05280831025442976,-0.16580884680013572,0.04478733635548201,-0.2136429592127396,0.38455655767645647,-0.5190673341779599,0.04077417942817805,0.25592336570352425,-0.1557812656804791,-0.025730359025110165,0.07169978153488628,0.12508613527363585,0.12274178781143437,-0.06084327923736669,-0.2870610470931426,0.03510398985373995,0.5970333075859777,-0.5668080726055,0.047153001051591516,0.09509225069973133,0.01093114770748242,-0.003480722756285662,0.12855177238414342,0.15990563274199396,0.10667937060963685,-0.07644575831897367,-0.08999996874264636,0.11565991383385373,0.2368757351917856,0.26090351218796815,-0.6304472455300385,-0.24263583114588236,-0.04650805105140119,-0.08263367975388143,0.09337782740974236,0.1957292154751237,0.09396190477807816,0.08520370537476794,-0.04216649877021641,-0.219577674367014,-0.13329415251452217,0.1318781169725635,-0.6428229322591565,-0.9511148430648928,-0.4562098123950389,-0.14083889829783072,0.18749420439334472,0.1283678893128226,0.4128666721028976,0.05301013325719176,-0.230515979856915,-0.03472521775379132,-0.1890829932241703,-0.8847676583050728,-0.5056764821841371,-0.4662708028515753,-0.4969141318771533,0.09618372780429597,0.26848934673106095,0.21537987355760282,-0.07246914439256812,0.0512220299365013,0.16029083840668498,-0.07733583959523306,-0.21057468694944267,-0.6731711954688857,-0.6090542634560878,-0.4383241033123789,-0.6297796439561758,-0.16508700287511444,0.14880355476511456,0.13316075612344055
0.216661945565385
-0.05686859596985604,-0.3513314973511681,-0.46563238780485194,-0.3320088324583732,-0.39149376735132735,-0.08175512565809112,-0.26764451908612585,-0.2759326350914084,0.29945267910231443,0.09385816448617645,0.25088093624936814,0.2676170613035451,0.424148119184078,-0.06678996924709396,-0.6579735764527084,-0.5592034352877078,-0.3016578576873946,0.08023167042360901,-0.24252082827886748,-0.08795291419745965,0.2672001711982832,-0.3492204069175848,0.04263690696295455,0.4241808454325674,0.41019849734416347,0.2999277547047696,-0.38897058935756457,-0.3078115534060617,-0.402604698708504,0.01226246731667613,0.09751091213308885,-0.23318566544461874,0.2101196648500823,-0.2773112221858628,0.026997838004137787,0.2401171876495262,0.43368854152148073,0.08996682835586306,0.0881454483949643,0.1878610755036452,-0.7223354748282329,-0.4402495622269501,-0.6732411764706994,-0.7191635292551113,-0.8140403975084496,-0.10917227594215825,-0.04243167230985784,0.19333306870821873,0.28864888799932653,0.3629557132551914,0.10545478521402737,0.21286183575939352,-0.18203075250151582,0.5863667651395763,0.18729764394573253,-0.29422216867593876,-0.6105149630585944,-0.027899519993179505,0.0869968974752881,0.15287591825363953,0.2985599425351847,0.3906998646166676,0.11806226446070636,-0.2525054224979811,-0.09326675076215793,-0.1079866544487611,0.7581001249762729,0.5412446427375237,0.7499531982208232,0.5702030478329909,-0.03868731728957314,0.20998384213355722,0.07167776940075585,0.313742357743227,0.05996598026569731,-0.3332430918714263,-0.32533118802396654,-0.0872752134700357,0.30999256330425873,0.7595351220723905,0.20019096762557312,0.18043778577029448,0.05566537124424058,0.18606744098403702,0.15208554553567358,0.23252517506191048,0.21483187235630938,-0.06374814475049494,0.030474203617943115,-0.47047670325312096,-0.056683893253720724,-0.3129988769646801,0.2198012643590224,0.3185348455804463,0.032659752197385955,0.23740606977043652,-0.33405968385760476,-0.5971590655484968,-0.0981067582578363,0.5661611103327031,-0.04541132556589288,-0.26426439416005254,-0.20688368148031164,-0.2297508733929642,-0.48574051390790873,-0.30031029471313697,0.08545642050346278,0.18575228203869396,0.0018280507779187473,-0.37153095223120214,-0.28784986878212837,0.15584115526399836,0.5490666836014559,0.12728958571238205,-0.5153502355162991,-0.24425455500377655,-0.5962742585436556,-0.2561413887861635,-8.896583956854724E-4,0.19369798321035672
0.14817201467802862
-0.07081270023202743,0.047982072578326714,0.02115959205055861,-0.027140668353175523,-0.14737939611868217,-0.17943383285106912,-0.2379732627396982,-0.035665065837063255,0.40873324347415085,0.29136553258353737,0.03910423991947993,-0.004274704299814453,0.11256845655183767,0.34155862166985695,0.5705238942111068,0.3257739009004452,-0.14926487398232247,-0.39406680729582944,-0.11329714657823994,-0.10292928511209204,0.2596486419706704,0.38589085328998274,0.16240452025423097,-0.03368067922939056,0.02018450318649389,0.03790830286981007,0.3899913512177635,0.07474698178695482,0.027253901354044194,0.10412959896612467,0.2969877805635859,0.17437151823147884,-0.16349031020437144,0.3931820648328874,0.06947715041828009,-0.04581911700920007,-0.014679083507912664,-0.23417678803210956,0.03380962126943526,-0.09335064904312196,-0.06863113601461313,0.7195022754053326,0.0016155001984828816,0.19567488184025006,0.23744080710677307,0.17621782093011412,0.06889526806889226,0.046235883746694593,0.049924913240681816,-0.04254147584619016,-0.17525018038261148,-0.5159998848380515,-0.19242464683113242,0.13829291474759553,-0.01922300108238892,0.15570131780025187,0.09488106244173058,0.31652304237737017,0.0868303960522668,0.05778589506347321,-0.025388558211151768,-0.048079013226628976,-0.7353851757030896,-0.7402420570350174,0.3207815721555267,0.0566928765210381,0.3230848429362352,0.24433223450110936,-0.25945857704478753,0.11514527309264402,0.07428757094496455,0.0509927346155734,0.04113453929447402,-0.1387829247963152,-0.37338600305881064,-0.44419033821210296,-0.2073733121234908,0.02796860681450427,0.46247864098259917,0.19133098470212856,-0.24186229308099155,0.20544437543688598,0.010704265285580645,0.02024730342837372,0.017578581451515744,0.006749979332807992,-0.7544343311316652,-0.2720348341227032,0.18013877386845517,0.4448651438064957,0.4712597878409137,-0.31297867790232137,-0.580369610096473,0.2855586274961211,0.030081035747264603,0.07411210495967879,0.14808116362359314,-0.09336643662562674,-0.18172714425074893,-0.27514341047865865,0.05601742019610723,0.06532238687454833,-0.0651175458453615,-0.4670668229203456,-0.3542732205735668,0.10023969031034835,0.06417420733586815,0.08532298819075096,-0.0805328729752812,-0.014329295893940346,-0.19157284380311995,-0.1927740511155291,0.19520897906861412,0.31494864857586413,-0.18427376888693814,-1.3559690515134506,-1.3084268422294338,0.06175380762650249,0.12770663243816638,0.0028194883799285957
0.046190099949691
0.3990843983486547,0.6272910484299492,0.2626957393266457,0.42131596638861435,-0.3321710638489094,-0.7429377747303378,-0.9476301961558078,0.0491192475455632,0.4446493949459689,0.017700517145619453,0.20514032476071486,0.16309662904918748,-0.0172755387382912,-0.055236146094518115,0.6720421577574605,0.5858851753064072,0.5202381627591415,-0.30839256449305075,-1.1650981638952373,-0.7073367895321827,0.4813295112640268,0.1511404724457881,0.06384405152281296,0.2213602915499429,-0.043886013005724964,0.04807427168271801,0.466492380055335,0.25227117530205573,-0.2932303080372922,0.09874251558613932,-0.8959536083398296,-0.5577055545652279,-0.21168669357472147,-0.29034490597703944,-0.049650777297995344,0.1487475108738503,-0.14287756525511158,0.07170090210287376,0.024397705547718626,-0.41186091134783365,0.1324173394035295,0.43940998068286363,-0.33512638421893204,-0.8373335736244358,0.04890243808625662,-0.22388122650454312,0.03523964526257979,0.16489860622184305,-0.15809785097314666,-0.4866765235431436,0.19162300201826676,0.4055475974524476,-0.11830993251200371,0.13557257236483683,-1.0410647534074482,-0.7115669500281665,0.23594004352786968,0.3695182517895468,0.15918183713875822,0.23292150136114714,-0.26147169022444616,-0.7033781506748904,-0.19786422704370943,0.3884760695735615,-0.009032657148981249,-0.3251541871292153,-0.0522865253075499,-0.24649720314062035,0.2819339182255901,-0.15489519372392901,-0.062130013652888866,0.24061222140867872,-0.020218907116425003,-0.291453586838894,-0.447763647554542,-0.0027966496185095144,0.1033963844626044,0.0068931437904581686,0.011202238779877747,0.11219224432613827,-0.02583349173972011,-0.2965248171466115,-0.03855861485562927,0.22169813441979247,-0.025243228974880308,-0.1670737076637278,-0.31756711641571156,-0.1567637029511434,-0.3149222156640912,0.05564327669478286,0.8235971853388009,1.00120960624027,0.05209712256502044,-0.6547537850148604,-0.049668687049707644,0.2130390444754527,0.06816494083132867,-0.5900849888125228,0.3485391910665313,0.20817089911817638,-0.10009275967316629,-0.325734229824141,1.040026756426417,0.5779938653782795,-0.033649858296108004,-0.2308318583793031,-0.007113825567463661,0.21585450562453662,-0.10572088479286092,-0.7584231008239581,0.2743612941180841,0.14259674811405693,-0.3090637467808244,-0.4596844941669269,0.43577332724783857,0.49370669406250456,1.0297371018553982,0.8061516809985274,-0.15153869861114694,0.1637373124937469
0.2009496127101722
0.12993640810558713,0.18351480445991572,0.4407554609513703,-0.16121638219904008,-0.05339258181958022,-0.17318846034234173,-0.23820586120926887,0.15892586145609536,-0.3456936371233853,-0.3695858439595945,-0.0823059780727476,0.13463621600873318,0.28425987468977365,-0.16954406645073392,-0.20366498556509463,-0.20297766131467807,0.0345176150032131,-0.4911507371513196,0.24183951741330997,0.19656539419143224,-0.1132551198779707,-0.6554674286812173,0.24560186161022105,0.22001187031560634,0.26261131243635716,0.07771633797251408,0.07672820066705725,0.4565012264716336,0.10621488540526745,-0.8146555676007413,-0.13757061886564595,0.38527331849501945,-0.13034786324995687,-0.07639207281724923,0.26026526603505573,0.0944809652741224,0.11148577206363759,0.13385388073848445,0.052253836944401805,0.3397301029015304,-0.09141106305601181,-0.159016154064578,-0.8003578379273485,-0.07308639136510857,0.25808973439568106,0.09933671440859172,0.1597186169712099,-0.004490244303863711,0.07193084392611405,0.2828339372069988,-0.12229021496122475,0.3293207088498922,1.0983858620013531,1.3788275416955875,1.0502992548504533,0.7773670985923903,-0.07511422708510461,-0.42942095860507945,0.16650945647090168,-0.006847620749195346,0.030581760747345667,0.11239073061270673,0.23440174977554154,0.28394698928211837,0.42574159335109896,0.7442201677029247,1.006678151597961,0.5148681490279042,0.07264622050268936,-0.1874573519257611,0.17386686944227228,-0.053297185967879177,0.00440226763573844,-0.021153947534742718,0.12504677690433647,-0.16713871187298387,0.6775405785058949,-0.2927958932536059,0.48963191956637364,-0.0041346892394626585,-0.16195919328973732,-0.22240904369048523,0.07968752102888048,-0.02687833454835974,0.03298927572097961,-0.021650975651012285,0.010944635229054377,-0.17541714638021874,0.02486072229156706,-0.30749141371876365,-0.7615840062554239,-0.6994634085846284,-0.44913091181606135,0.3171433718618041,0.09771041151722838,-0.05204592597976475,0.19165992484877017,0.024000361723453437,-0.19218987338123408,-0.17173616483399076,-0.30064964708594144,0.2528140081597648,-0.10462570518254725,-0.49305898742696086,-0.7511221776290341,-0.013453188235611542,0.0785129089821056,-0.029132984797774857,-0.04268901442456645,0.1553084612306543,0.023285715199727785,0.44592973121691615,-0.27187772847251646,-0.23691785628611797,0.45204690745062304,0.03560588693692346,-1.008373493422868,0.018105780034335838,0.10220882362570967,0.025002533051860943
0.006002063345856189
0.07927954371643751,0.09249223663075413,0.02890822769955617,0.12666253979585593,0.14122472070067682,-0.014805079801777048,0.06303230691096677,0.08815043236158059,0.1276917468026642,0.11797292238115918,0.10879204387765783,0.171440489214653,0.1068859694232236,0.017629310535074466,-0.04933279423303543,-0.008516019607282566,0.05914978217363697,0.016887058505496634,-0.10448885653876862,-0.020494394396235738,-0.12118485590429966,0.04015421099074764,0.02951868456216314,0.13275393600932062,0.06661721117329646,0.0767180683483238,0.027526413475050568,0.01120457000252093,0.01655236303075362,0.17209066532901546,0.05292883083973438,-0.003718520797497386,-0.1057741706970922,0.008511532812637198,0.05404604504168994,0.12959872040820797,0.021369159660288503,0.008645125492535684,0.04223607885322022,-0.015623186981100531,-0.004082585514560017,0.10599722932343038,0.0765997127402933,0.0164533282161946,0.052227947825875636,-0.05595616701818997,-0.026156945167903428,0.16717413430342826,0.10664416731221672,-0.01876706938616929,0.03848100811639197,0.02442632964526193,-0.043596304755802014,0.0020063219520849674,0.024359354026040538,0.07487166950728234,0.10222132274813085,0.014737857662161622,0.06321788753465411,0.1965939406435679,0.10449000125691056,-0.0565818625866368,0.138365770596912,0.0830817996639799,-0.07784305787426342,-0.050184281890119094,-0.012406991413149602,-0.0130726576670103,0.05403413014718945,-0.022620730232557437,0.12611284027154515,0.24206771209036704,0.10114198005541648,-0.059812843830905744,0.09392618718097649,0.06861138032374182,0.006878319907068785,0.08006138874940018,0.01060042920471394,0.014907289714298664,-6.434634607617487E-4,-0.0018026928680830723,0.18329241255441076,0.19672843254174205,0.10148170152494963,0.01850364410686782,0.041700867416980626,0.04294855701226535,0.06462601066526068,0.031481524338810206,-0.045562154628252464,0.05510644572558331,0.04134537080117363,0.016958919846658024,0.17242849312552183,0.21350816001367878,0.13694100392437103,0.05222900898487263,0.03571883606118006,-0.07624402370138815,-0.035074425867058244,0.015511172513694141,0.017351985131162248,0.0346227668778182,-0.038280938199142085,0.10827277323795335,0.12721478083849316,0.16918261273117713,0.13506308694380886,0.10385411713699876,0.09956518057812604,0.06742830110364702,0.12609952605320873,0.06335574004635326,0.058738699403837906,0.03697200903254871,-0.021177321642546626,0.01607013637017861,0.12861480337771677,0.20424924502866687
0.2052248180169406
