-0.25249914604811163,-0.43461705084076546,-0.6332434460464514,-0.7940918837404151,0.2346307247242826,0.1028844528551851,0.40967091106326087,-0.20747595569201122,0.15666920725111427,0.01728998875623358,0.15886113247350625,0.23886700806234645,0.35370797376734403,-0.37581616726051265,-0.822029757790781,-0.1493312921485685,0.06259021626881767,-0.061751566864638265,-0.03654538676067686,0.45344881079404903,0.1791600274162914,-0.2122555190122492,0.19817480661072084,0.2537413948662942,0.26292556916558046,0.34223406860973365,0.06537046676598846,0.05672116294820382,0.5143877383639949,0.29073358643377295,0.24442612699202942,0.46692567892041054,0.4444003159973378,-0.08362833780787218,0.12396677533918299,0.20273725100080198,0.3511169232891694,0.18763023517279304,0.30384127583070814,0.8354565398831771,0.3102988096442563,-0.3865853884397438,-0.8099159125198164,-0.3319330640533806,-0.7476702396373861,-0.17780421156730442,-0.20575770295358498,0.2740027740154259,0.28263646226728883,0.3219497361348524,0.23240381620230782,0.3022309467441339,-0.1800676796510864,-0.030307975456095693,-0.14299054623181434,-0.6134481038729377,-0.3558660931375129,-0.20931625504715712,-0.2691354456471024,0.2630779300719807,0.37247838161751373,0.5675682623594752,0.46236718733556964,-0.27791626544723796,-0.17275623996411577,-0.23954288514252642,0.028006956694445185,0.38624663208274485,0.3965225116394678,0.06269436297438413,-0.24126730992128592,0.32924439084146634,0.17908084810134584,0.5523679305799948,-0.2684203113884566,-0.7628756109288403,-0.2967806913856175,-0.16801324936817824,0.17341707269960516,0.7410927686752576,-0.12387038875254153,0.2182206959643197,0.19344690653750873,0.3021167649387118,0.1762871068207174,0.3288985139734388,0.3821303939426856,0.12990744371047197,0.20358511997661477,-0.1808604411889843,-0.3370826090458107,-0.202383838000661,0.13457185627951535,0.2836220023722437,0.25226585275826446,0.3031582101633626,-0.34805513561713936,-0.6954517782925514,-1.0925100468604436,-0.024993238169284632,-0.37252327236012434,-0.17131034543145507,-0.5778685659403572,0.014365013083146153,-0.1553654711063755,0.11615731192966827,0.25228278874035764,0.32380920492918525,0.055973514721014035,-0.4006643422420471,-0.5542148829938284,-0.4500290820161182,0.24731983152488302,0.08767324289748998,-0.45736083070628714,-0.6955710467974235,-0.9421480236627694,-0.39600437547015416,0.26384193947968343,0.27334383417655755
0.27720992324705124
0.19508473681445365,0.3188770517273657,0.4833816112354786,0.6386967252056263,-0.04373855137369174,-0.1318926680857797,0.402039004198783,-0.011851731760429534,0.21509980113061083,0.1408404450594289,-0.06626396530922574,0.222656867848597,0.01833946849385057,0.32480691497254177,0.47775588798448265,0.6518215790025509,-0.24710522852750386,-0.39619675984889,0.6240612065966379,-0.23573457634921446,0.20880250956887614,0.4302507174023401,0.04108187808716964,0.22998563416226286,0.06747093121074518,-0.08725630570208695,0.26362962439265114,-0.0407188708812525,-0.9666639716688553,0.34028963955752456,0.0844006903434282,0.3082209631129418,-0.036885380136853226,0.23708764346553368,0.01866040773064072,0.18112625514748282,0.008018521144816843,-0.5038592474547987,-0.17398557700554157,-0.826751525438811,-1.4494697383779702,0.35172096489321647,1.0306327052788198,0.6663220294259026,0.40773989290321677,-0.17344048038074927,0.01791970618225669,0.25377545750939445,-0.012150571920244923,-0.6300970275696779,0.09073703945282774,-0.47551250089634145,-1.1409854068932035,-0.21084227577224512,-0.38681241933290367,-0.08077450822503301,0.22504292627321043,0.028010310977205286,0.03446198500833233,0.22240325975025121,-0.07288177164524828,-0.8287349780716479,-0.47794058882134605,-0.2739232848319699,-1.0184988613083195,0.10286661149208212,-0.559087184216808,-0.7513589251348797,-0.019612474570626717,-0.43922443851734416,0.04662929092696278,0.27581695659204686,0.06462031908702759,-0.5662581174069484,0.008979052331247716,0.05397283142141838,-0.20117085942217894,-0.41419029765542814,-0.09910005039148995,-0.4153967995672627,-0.03635240550342043,-0.3532180061341271,0.15261613085772108,0.2031691028352739,0.04257836204644443,-0.3171122139841692,-0.4564298230056635,-0.37672370838347957,0.015489929734253218,0.6680612510313976,0.3377480600011771,0.12432080774245957,-0.6425646321682529,-0.3679127915540956,-0.04207621736507914,0.27656399335019854,0.12931551003431518,-0.2684809612861689,0.11965311074719118,-0.062725454375052,0.8942939334513392,0.38023257410457734,0.05890450161474859,-0.2717268907187911,-0.40084522630862585,-0.5058058654069566,-0.0064784045918326915,0.28164510022651623,-0.10679662157015263,-0.07075487496482069,-0.3055384318038631,0.3072192265427619,0.5923785478509963,0.5709664436541565,0.7366708873379341,-0.398189618101646,-0.3833520438424367,0.052701884533241546,0.10573544565028764,0.24102915835547323
0.231168812329481
-0.08143456541775874,0.051314052831172435,-0.2853047178333261,-0.2066657193608637,0.2085776470946128,0.28199272185016766,-0.13014179579633306,0.2737652657753161,-0.5404851921214715,-0.1744339140385041,0.0428232963402357,0.05707814893557232,0.08062288870268132,-0.5298018783655478,-0.39113104426404177,0.15729201749095334,-0.21486112534884272,0.1077899799562509,0.201513342818326,0.20863190683059968,-0.43342817911524967,-0.2424127244267425,-0.0024373662412141882,0.13505881113190615,0.0892812792450856,-0.2618777294467809,-0.5506417114379425,-0.3161828729087941,-0.2649805210933338,-0.35327264817238635,-0.49059931563351955,0.08093318564241166,-0.2314166619943805,-0.8197993770114849,-0.02464927250901017,0.07524353012751904,0.10089994972602191,-0.06792633179531292,-0.5196310141909111,-0.3182738469301125,-0.0561650272965013,-0.5425362348517986,-0.34486033153984696,0.5763438964303347,-0.18449731383064155,-0.2012133445174878,0.020264997828530456,0.08487293473776823,0.14473625511080618,-0.022821132730844396,-0.25319811675187665,-0.7100321749300345,-0.19866389790854222,-0.39688942378504,-0.38956606338607536,0.1153601275655219,-0.2718512613307791,-0.25779525593616814,0.02811659656524212,0.10790096823630678,0.0693359180995257,0.004872758040271883,0.20687762234381268,-0.2772037507572209,0.10229141822545428,-0.417964537627729,-0.2466395781495117,-0.42772866922070907,-0.29383326968584045,0.2226195877448206,0.02065404659123789,0.14361020411580816,0.08922638358183184,0.10980068312841261,0.40969715977761145,0.3005529630183703,0.22995301446337663,-0.6222874354474413,-0.9147831973629101,0.09863738766967546,-0.3377601956513778,0.20165564828691246,0.023110876625174668,0.13957919891552634,0.11971202346833322,-0.005018693250990731,0.4407377524501014,0.9396868252158397,-0.5232427300115806,-1.064192219164724,-0.2569922602515655,0.7290166531064941,0.14595555124749165,0.13148607715496047,-0.0021673263802263615,0.16900975707314714,-0.017544942128437272,0.11090466158711497,-0.008975757635736431,0.7638298995494128,0.8381356732287588,1.3222906659447755,1.5857991559249944,1.0356934166371654,0.04283811970910445,0.24827265255945835,-0.09987484994982891,0.17657187712871447,0.04708484313689845,0.18871240706375647,-0.1130575913996159,0.08255506826898597,0.9153757247072007,0.884185522730188,1.5710396031953966,1.8740530348786657,0.570819478068751,0.22322299464920065,-0.015697231900303806,0.09252906616102195
0.13718274076425968
0.1349335623517854,-0.12327919727454158,-0.04031479189048083,-0.48734818902678056,-0.698808659707525,-0.11679091508938468,0.05975227830549763,-0.5361889646503336,-0.5187854706711893,-0.1841356165743047,-0.25701568509472184,0.1598715090311333,0.20814080308338292,-0.12049767643030394,-0.4333366605264648,-0.35248752266553185,-0.4845800096006535,-0.1428126457527947,0.05341110237908289,-0.27880224960766564,-1.4436101749723003,-0.5284230686449453,0.015100965582294349,0.21102289798734994,0.13659301168148383,-0.14678004717583823,-0.8048396179948832,-0.6951828404530765,-0.939612467028636,-0.46840506810022675,-0.4744741805900178,0.23448373229127925,-0.6997845085270816,0.0011255194085011545,0.06148379407402091,0.1660152646051257,0.07917623928342295,-0.02537264688392598,-0.5800321871463606,-0.7907908142522414,-0.26781580518263937,0.2783786104600744,0.245829438271658,0.24477260347729377,-0.31771443126361676,-0.10213263922352041,-0.013343577621988525,0.15287068110908716,0.13470165889944127,-0.15229417075594984,-0.7819534890191594,-1.6725968596591416,-0.19338256873102191,0.10889621662942019,-0.42766892951320135,-0.31294399561688546,-0.5777642304461376,-0.09486445386646868,0.02424611030784199,0.17020986642520977,0.08217980192523218,-0.24599721063217103,-0.9275690229717598,-0.827095141376822,-0.4294071270694979,0.2532369986463175,0.2432719465056479,-0.03299858838078713,-0.2729709436474135,-0.15470536046295216,0.10534495661246844,0.15548493891814066,0.13886566167757733,-0.16233285192820615,0.23101623167707516,0.4471459517730275,0.23845875636224959,0.3065125532988937,-0.08855895092491163,0.8379425902386947,-0.025316664407573186,0.046616536186441265,0.13332655145562353,0.18391750705633877,0.1685411684707623,0.27299287449706133,0.5884944845927617,0.08819304813055888,0.3946767658416813,-0.16552188810140836,-0.24537674413525803,0.7487674719321639,0.5064152772523768,-0.022122105514725578,0.05027717037428649,0.1594241092003347,0.5104953616423106,1.4361386032528793,1.1523955791651859,1.1817352865805235,0.09628661870016635,0.3747250931325078,0.9100431836778607,0.281131453106199,0.1459020341376119,0.28493864902165467,0.034467457886290756,0.19835934327487395,0.44111346781769634,0.5812627687370825,0.8205415185610313,1.3742574205713232,-0.14112588354123226,-0.12352865734098167,0.21703752924008615,-0.09985874618640385,-0.7408679493620259,0.12164793291714217,0.14616508964498184,0.17596405108809285
0.14251180901324775
-0.07798265802135378,0.1523891924089888,0.03548817577907322,-0.04598853588933324,0.1579996818254661,-0.3165673409340906,-1.013580051978514,-0.07435420812093783,-0.08714551964796906,0.3179936507846954,-0.07241023357813316,-0.09251062106781081,-0.5474175962928484,-0.25575842183120395,0.47117965732898065,0.11629289840132502,-0.08678452931793469,-0.19400238754283144,-0.8876372789037567,-0.46627613475210666,-0.4199286861619174,-0.4511605623706046,-0.416736849523552,-0.284835356021155,-0.46948317418057656,-0.416587758884509,0.3901213174647344,0.31493473785471154,0.20155159405663314,-0.0534710665251632,-0.7097384977377691,-0.5880481003220811,-0.25610143986199335,-0.3898753296885083,-0.36015984282104924,0.07401760883552698,-0.2864555997661267,-0.10612670586147958,0.1444779935025644,-0.07153339572063565,0.4208605554288281,-0.33563857469578445,-1.1863881201558244,-0.9440948630318434,-1.0679847647046068,-0.6182510807129383,-0.3705539828281333,0.12601445071441547,-0.055153955702745616,-0.28725249082613474,-0.38018425119682026,-0.17665394775987198,0.669865112485044,0.6119243560249498,0.2621630214587006,0.8229790797776445,-0.5844259509148199,-0.5205353967489915,-0.06765363794021613,0.18195863147663455,0.2243043956674609,-0.10704319447816647,-0.13172094975279336,0.06817857962231257,0.37554175599747547,0.32735434992052087,0.5291967044706279,0.8788901981975589,0.11101382017559462,-0.10784477335729271,-0.11639553490727962,0.2437088133721994,0.0892743702470435,-0.08722708620503382,-0.2958841878121115,-0.213901856138417,-0.12382788720855313,0.10405840544105409,0.5706913080759811,0.6445823816589747,0.48473201483020906,-0.006494830758295033,0.14662950599890945,0.17558092462735275,0.12783912132134437,-0.029058783632536084,0.3240764813444212,0.17208103645165523,-0.34989137338293047,-0.4978257327079702,0.4980568092991176,0.8925123555486302,0.3389773366198762,0.3230463668310369,0.2009175539904005,0.2610055488726552,0.06700640316222516,0.21977940137368873,0.38302683104912266,-0.10802629604130697,-0.16790379693867463,-0.10530427821881365,0.6782500608291983,0.8860649126986645,0.40791367828094477,0.47582905658295555,0.1980745195489707,0.2787050402250623,0.1593320489592624,-0.01137742299640438,0.06982298738530913,0.030469086070145507,0.17083735988345017,-0.1980448844523719,-0.3087663484660352,1.1301986262902635,0.7878343521760779,0.37746475408663077,0.13460970954496426,0.17466200416927524
0.18825296104560119
-0.018852899945778143,-0.11987479637606345,-0.11578980808002672,0.043212755460401535,0.20163418530380053,0.14269649269195203,0.03091061468300768,-0.0467113735145643,-9.160772955623252E-4,-0.0762706886700711,0.06787339344225207,0.03423133567960305,0.13439553256038286,-0.11836358801531276,-0.2953595825188242,-0.09297470614698046,0.09552111477861923,0.07502551875533535,0.04051123465601291,0.014486113350029615,-0.20718226317253904,-0.04651954763690266,0.04442098160356576,0.1900849646437441,0.1853927720326596,0.06245548412221323,-0.044174675617261676,0.047527163437344304,0.15070711968447262,0.20725839252356135,0.1259730658027257,0.16016402518465503,0.012944720454971307,0.07935048175187899,0.12199083585088223,0.06807770717334148,0.18912540008229048,-0.0056652266897464125,-0.11854208528973197,-0.10009558982103307,0.1384820538085305,0.09071889609021484,0.04358872149914115,0.02010992748014513,0.273578893125518,0.21544617886604447,0.1040861478999703,0.14662851808820102,0.08805004079673152,0.050851733365141254,-0.04816447756868938,-0.34955933093418357,-0.08947821232901453,0.3189645462003642,0.18596115531046517,-0.14613636462930976,0.24083243575984045,0.12872269988500043,0.04443628833938213,0.12022139689711801,0.02909733999151641,0.1874711079113365,-0.03351490631292393,-0.24051443361764238,0.13559212278644858,-0.048567569901245215,0.1088679006208517,-0.17746433446771084,-0.1422796627226903,0.2861614941474113,0.11935795868297773,0.12908093392643283,0.045148121102273876,0.1388012383219552,-0.16366359849628417,-0.285064779867506,0.19523063062331072,-0.129980369478135,0.07530254199750026,0.08095115440010515,-0.1801776097468202,0.00721965588684255,0.16158280156251234,0.13840704004261653,0.043618257349998156,0.011730757467800002,-0.09865929824009244,0.1599715663728372,0.05211098252750008,-0.14801560143068523,-0.15509845830787292,0.03364934138796782,0.09588113397125529,0.3371717950649301,0.0289061554496699,0.09378689854355378,-0.09035998121281062,-0.14732988997823324,-0.062367651945228454,0.17604164033643196,-0.05956293949778473,-0.33985796131536483,-0.3459588377230456,0.2083501371304932,0.09116100905388931,0.017743121075033133,0.08016839797558585,0.07732123471375242,0.04150516292779916,-0.19687956436448953,-0.347424145803202,0.12930401668648742,0.289537824185387,0.45795552062267253,0.07333509846966156,0.40278267221827035,-0.024683881887088234,-0.11753780425899375,0.09512356083786118,0.06064787239393412
0.0797406948080248
0.15702673490328983,-0.3747370750350022,-0.003330421473479511,0.15844949894877147,0.2788701645520504,1.0710808143145745,0.15865520610881784,0.5763560217317837,-0.1821105145855294,-0.16098225093672114,-0.23000786533293516,0.1273858031056641,-0.028664482089593962,0.39314670686563613,0.1849887325344447,0.14031869810858572,-0.38000002153354184,0.5510262337043509,1.0255150430705828,-0.1417031139476403,-0.8212665436630734,-0.19277831486097596,-0.11520903611891112,0.010288604863114099,0.062221539931860914,-0.024681986165230194,-0.19107261819802646,-0.2932905302109,0.5567996869163215,0.2299481931416364,0.10602692176297154,0.09173642801154952,-0.26499822371759363,0.615353318697018,-0.12469372351363447,0.06594131498276318,0.09237316271020221,-0.3015936389092877,-0.13511475527036904,-0.5147162457175694,0.6229997034320419,-0.15736213901236573,0.4476606638955588,0.3198561875184752,0.05617640584161497,0.15784345945779416,-0.05763658150703821,0.1713304990189125,0.16215861645713497,-0.21357083536473814,0.013051102472925328,-0.5175383018276335,-0.015824382349896724,-1.3992314834398278,0.7467048693036481,1.0223350170499141,0.7665913380264929,0.09510552742769834,-0.07441737101174922,0.26823007996602444,0.10214748242386956,-0.09128785197711428,-0.30998519522698587,0.26920696641227926,0.4499343620583891,-0.4862933074895466,1.1824666945242603,1.0777809360872823,0.5011271318931976,-0.36682234467738895,-0.10075353240700202,0.2653643535838046,0.11433678165302538,-0.025824264060002725,0.09902345519121969,0.12960970842157027,0.11349862582633127,0.4864787773113046,1.2737350199899897,0.11210494323277595,-0.8155653800173758,-0.5778329447993519,-0.008411038038231239,0.25607396128495075,0.1810845636579303,0.08923584994999084,0.21754323928197833,-0.25287949213989214,1.0607122417890023,0.2626099172244696,0.9108722543074662,-0.5540910476102671,-0.5274967974847838,-0.283554665398806,-0.0010333026443348494,0.23110582134208424,0.18899511021398163,0.5223895626712497,0.6355966709099065,0.44941691601139544,-0.806091540007119,-1.7772872656214898,-1.4459730356330713,-1.2447968264395433,-0.3019599013574378,-0.007522749072289572,0.1540831765209788,0.2223484550130697,0.1021456518239135,0.339403212405864,0.14028899736201822,0.31115518181977464,0.1462209734790884,-1.811052215737088,-1.922132298848836,-1.5795023212239647,-0.7492130580463591,-0.2828359454688034,0.14321337672883588,0.2473023193641975
0.2617648015061399
0.13290762621904934,0.7683038763505762,0.48894256748832066,-0.01892684144261845,-0.07902351203509085,-0.3597404720657088,-0.6728022524128506,0.3357670673658344,-0.5373718918356304,-0.09361650677291881,-0.15796315065365335,0.11697560454825258,0.13512132827250117,-0.31274787204995125,0.5218484288321369,-0.05137801930181676,-0.02792910060232321,-0.26451177682867766,-0.5513295413995832,0.054674117832807706,-0.34079971058768543,-0.3718299818451932,0.08412726352033793,0.14765386367281874,0.12072090292228112,-0.05257726762967259,-0.25874107893437226,0.25677684574991444,-0.5335467122532699,-0.9069533115636027,-0.15883429630322687,0.6428758770408277,-0.5241352449891133,-0.6902166828199664,0.13295424568331554,0.19381477523181484,0.19785253382039353,-0.12241318431865435,-0.5045216243104081,0.39182831408260865,-0.06443552993946593,0.03657276281285729,0.005618375625130142,0.3592713962501355,-0.27172031536967545,-0.4789888813880816,0.12551546706322225,0.10429282540512892,0.1418729799173457,-0.10987340106197259,-0.5430657144258625,-0.12291093504708804,1.1574934485473882,1.0912165695875382,0.1458572387731779,0.1650245195546272,-0.7241966590214545,-0.4970468677173171,0.24455413001815152,0.13445397719696356,0.2096382971546017,-0.1236862290510263,-0.07672931519713606,-0.25025530189694334,0.42286038609024335,0.8465798016131175,0.8443475563863737,-0.9112403248025293,-0.7946975563431277,-0.08042197281812356,0.21302880792162837,0.1050263574662942,0.22848277236763004,-0.22203270864777636,-0.19707043800823382,-0.3118057656245016,0.4937555564705324,0.06757560038388018,-0.5629340167835523,-0.8763252268534453,-0.5520824109874601,0.022045572615589364,0.14894255959245312,0.10842369847279536,0.2105955654574725,-0.09854507637036165,0.046887229596714125,0.008312671315350944,-0.8278375964165409,-0.7965449826275929,-0.6288293099576147,-0.48789366691615077,0.44672871626174737,0.343581111526405,0.16014170599134508,0.1824682948790437,0.08651255990310096,0.5380405434219243,0.5463976522734596,0.07403215113469132,0.04172729343128159,0.5483749500991589,0.7864765352810547,0.9998436144940192,0.36200677260491143,0.11181430540085131,0.19549241693402547,0.0793551169616266,0.1547471846713097,0.2903636586081506,0.12242652822110374,0.3948180766416408,0.43222358768699354,0.06352969179329214,0.848099540721669,1.4703197438411926,0.29343735571781193,-0.1238987441516813,0.1578395831837215,0.12701054232918302
0.18208995824888685
0.030457071652650054,-0.3373399267308334,-0.33684458164553793,-0.4253065385712906,-0.1406262025882588,-0.20183312995369984,-0.2282315632801471,-0.5946430841929979,-0.4254804261347614,-0.2724867073094323,-0.2019237535886544,0.05225705932609409,0.049248365371076436,-0.24427516482351702,-0.2946564810207039,-0.035349765535863664,0.3417038527802801,-0.09131225800721605,-0.3822031420871492,-0.5746491307013091,-0.7488094774237206,-0.742439813101782,0.05010094133302244,0.1131444287036845,0.06805451913432047,0.2295868384097428,-0.19616842090878306,-0.4320373235557891,-0.0658754757146938,-0.12096154473436284,-0.23252852375286492,-0.5883272890012841,-0.4676319049344299,-0.12202302955661719,-1.1515263579805854E-4,0.09785978616713921,0.004318833491473715,0.19293444853791225,0.042668017587596765,-0.3191840353662118,0.2866036396354928,0.022016953222784963,-0.22184695182499475,0.10582649985224281,-0.6402989646201063,-0.4024384775976279,-0.013317736088164351,0.0610252440610073,0.2392948634697763,0.09719268860212908,-0.1116408212007778,-0.665572560286614,0.49236032993422246,0.5596142134238853,0.3352369439756357,-0.24055088542317138,-0.6786699296785288,-0.4114853975008879,0.08821120256764432,0.03912039903037896,0.22267287721567308,0.16017269947272672,0.0449347281266856,-0.07404381449393425,-0.10577336054405849,-0.0603182466406937,-0.14863031759994672,1.115323744914757,0.28872453592081954,0.04900830289454375,0.034978794193662024,0.054126824911940694,0.07228944893031962,0.0471840620676693,0.16808295079082558,0.4577691453689447,0.45865385089279803,0.07747087579702609,-0.3010734361284653,0.7536372412791807,1.1296623069958596,0.3697489847176975,-0.004249184405189593,0.024550143946043178,-0.012822163494157133,0.1399343661822337,0.11320158153237546,0.022850349778896085,-0.10385846353992668,0.07548840255368551,-0.6076330514645136,0.1599997320571424,0.6013474607367815,0.30050840759322545,0.06317327407844846,0.10791567030433018,0.09570384609129191,0.25726216987387124,0.4449020484866702,-0.14857362283657538,0.11904629954009734,0.4803034128584725,0.6825465596843565,0.04145284039738667,0.10145695319150035,0.23994618926155975,-0.2902474425586434,0.054041592812602304,0.06061316760479969,0.079614494531577,0.5686343542158692,-0.3866267589920634,-0.39283350594863936,0.6763169357904408,0.19997827035489957,0.7751460454189798,-0.17269796602342397,0.10854061276413503,0.09412880570830505,0.09382815423579673
0.07683820652182975
-0.0948815597176798,-0.19704837432501862,-0.6210769461551044,-0.42262830898652987,0.011634676627870103,0.40337524503066796,0.963558662032812,0.1152649499725135,0.3276884009459417,-0.008779715229782093,0.0012211581026992846,0.17689217862531695,0.06664669123272367,-0.3018613651776429,-1.0628800152890892,-0.6871484064133833,-0.17172183810249783,-0.15642466142252157,0.8143184185714132,0.4779527518545585,0.21000081169610593,-0.29490202682683203,-0.059998432106687885,0.135620693235579,0.13980634730661393,0.19799310413799623,-0.5472648469197794,-0.34108734374208854,0.393052023691911,-0.02452059210064744,0.4351780974481902,0.5442627664441801,-0.03578079452264539,-0.09350403976802958,0.03618551213896638,0.18291689754377813,0.18616667327634492,0.3119242502743442,0.2213078217610381,0.23218578149126987,0.01755646998097164,-0.5561685203065365,0.08723648552285378,0.0020167190103321866,-0.22529203541407497,-0.10335305891403,-0.10547039869434784,0.2509984659212792,0.1476721619668188,0.4893257542242671,0.42500891391431067,0.006032220844191828,-0.6292501527868368,-0.7815970689060878,-0.46839686480638715,-0.3561367686581269,-0.33698467866923437,-0.24238126339329605,-0.10207903316772964,0.24082070696882577,0.10128970456858803,0.7032530508683004,0.622165202646799,-0.5463839715590459,-1.1110692728241023,-0.3563478983174226,-0.3204155211397414,-0.1275991655781785,0.12679187649133536,0.41913679046030955,-0.1566564943633034,0.22220944147893848,0.12283301649367627,0.669348472271958,0.37707298847385323,-0.0765652289128426,-0.3163714343111364,-0.021703414813379795,0.568008250042441,0.019178428024164838,-0.10375045699697989,0.055981087230394785,-0.08145786863299372,0.18483244763999937,0.21208029958117294,0.3646081580795803,0.19221410163534022,0.18511268551357343,0.4904524426053461,0.5051930347653896,0.41554524294834533,-0.17032649942607384,-0.15149182790448454,-0.12673543511243435,0.08704546650573451,0.20194670645888366,-0.024544689352166252,-0.46720526494529585,-1.1511745546436087,-0.6322835408845591,-0.49798920138782005,0.0626450810057647,0.3897210671741052,0.5956202657130796,0.37278325898677517,0.1596644072284474,0.1442386745839858,0.25283858217482696,0.03160298186711111,-0.5210614171736379,-1.048131040326389,-0.9095836216470483,0.10577117525096368,0.1580583008664231,0.4962137858527055,0.34263323147037233,-0.04377394427503249,-0.025865200944968966,0.07398447070600932,0.2088199437109903
0.2670160450243008
0.0795510703253836,0.248038762148564,0.3032200709476392,0.015867880146307516,-0.3513038622241334,-0.8913590181439327,-0.4923628437318783,-0.12459719584803976,-0.1995994765700889,0.18906770274343485,0.014453874579948444,0.014917783025212654,-0.04362133775102945,0.1596434346289299,-0.07159230416965863,-0.30115547600638853,-0.2421573578881905,-1.1495966438763048,-0.4078022767827431,0.021870137109083376,-0.16613158207071413,-0.08604561629988232,0.28665212552204183,-0.029313873375009677,0.0031455931887942198,3.84790027377253E-4,-0.15662419145459391,-0.13785941847830044,-0.5258982220291294,-0.9934801305458735,-0.21569907336634883,0.083764658484951,-0.11323136733737112,0.019228913897174457,0.17694300483642508,-0.008075412317502572,0.02761446721739048,-0.11869626669446874,-0.03756600619949186,-0.05333936636804105,-0.6069892601401982,-0.13983758477402278,0.33893613676688256,0.708114374117543,0.27728293181078884,0.0075193252840137234,0.1729699954572307,0.0812604294656855,0.012842136651194514,-0.1175807808596298,0.11613820174712285,0.21946716560534937,0.5401590025905024,0.0038943652566480807,0.24691443048896553,0.14840143416756288,-0.1320483375676502,-0.24260756610803227,-0.010453358581447124,0.13850344766227138,0.0673245834311365,-0.012822601648142919,0.07719719539457194,0.17988159257190398,0.7049458008989161,-0.04707133687846247,-0.044610632207473015,0.6218688561418165,0.022685871071560348,0.05590104268259918,0.0056773630547234276,0.09881677453461314,0.11488095186982465,0.17212287089361747,0.16820488067860215,0.1389604527369562,0.009851911568854755,0.18220320999903125,-0.6101938422944041,-0.25816653198234746,0.32349359709194186,-0.15671244019893568,0.09726895724813071,0.13248220036347277,0.06527302050676027,-0.0064813823147817995,-0.10234429021998732,-0.15583641794688904,-0.31005529456665043,0.4255655887097621,-0.17043313192485474,-0.25457730454087274,0.10033602405288823,-0.05263889306468408,0.1358900011224329,0.10006993814367755,0.008209635282356171,-0.19565039197815184,-0.17173910493524028,-0.5305292645435845,0.09540048681688419,0.18108458768154675,-0.19448778760090538,-0.3942792659274123,-0.266916805746471,0.027264526212781397,0.041415271811818456,0.0730069652080138,0.0748882443591352,0.023133554019199244,-0.12450009578897712,-0.1335425386330368,0.12256614796758665,-0.010430919829890728,-0.044082036475721974,0.05548361421141341,0.02587982190175524,0.08296608627472545,0.1333695075193436,0.15650487691879514
0.09220512662072465
0.16477277216401445,0.03119723639833278,0.2630949729257734,0.6344350663199978,0.32259794450011176,-0.18086354559119214,-0.10528366464922018,-0.04082932131012917,-0.4811087846482695,-0.41640773034735684,-0.1386819266862531,0.06088838212957063,-0.048563418792969416,-2.782630608811778E-4,0.18039433051449236,0.5225212988788164,0.4777674415959216,0.4838393908626493,0.1644387913187366,-0.5904763107824287,-0.6861437571980158,-0.9965389306309254,-0.3318568963799983,-0.04224574383667171,-0.05407076889419709,-0.3178845481176931,-0.060195649664390276,0.14516982762065636,0.35010068128879296,0.4319765380620299,0.11359112422123191,-0.34142361927986603,0.2346683265843815,-0.06911724504090874,0.138095766753049,0.05290671164093647,0.0010164078274768173,-0.14187096903749583,-0.3042267557393759,-1.0333426667628307,-0.4810787833442745,-0.5828714212586847,-0.151002760593993,0.2693946881645444,0.2472792253044667,0.23640880444972087,0.29549022794005037,0.08404584651649427,0.04844821238716531,-0.46195251303382384,-0.4493949990047655,-0.18975368498531106,0.43317815910757523,-0.3828043571522745,1.0985439872783733,0.7442242212173067,0.4505731116756077,0.18973366130220917,0.17493691010145476,0.07613696929403399,0.10305852064773022,-0.54182628743334,-0.2989389856076767,0.8502935846039441,0.7322687617031456,-0.23457741645623922,-0.4384369138050715,0.07319924472800124,0.07771769363100195,-0.0785858292157007,0.29195590853548786,0.10139086089396854,0.07229631930362618,-0.46550069341826733,-0.14916119195140567,0.6436231966037975,0.7181010537955754,0.012049504608998798,-0.7597337302401159,-0.7509003546135631,-0.10721237452692367,-0.3692478072212126,0.22215648225132587,0.08393363725386904,0.11911398733658621,-0.44873269544242916,-0.605677146052163,-0.16536494506153795,-0.30662458990475877,-0.5726757795953308,-0.5524638336992647,-0.2871211703764938,-0.020705601610138003,0.021020370450425385,0.10349004294517575,0.07579768964220915,0.020690050476876973,0.6193824869249811,1.3204446503030842,0.7650770886413396,-0.07670601659303594,-0.05807541694052467,0.24646533647191973,0.0874687397583882,-0.3726574207051286,-0.13268972242250995,0.029606131849247454,0.09936595806312279,0.10875536077082945,0.3804563913787066,1.047559586662625,0.9809936557143537,-0.23262081828473238,-0.19698314643067336,-0.5381792611446479,0.3746296038512283,0.9508559180387934,-0.014425525347345983,0.07099674691537897,0.12844708990707207
0.10811339490156263
0.10968811188326165,0.10534706354814787,0.5430990810077989,0.36330422844568394,0.4963205107775048,0.7952550342743536,-1.028288858833624,0.026346703630307312,0.42809590489495036,0.31962354419143274,0.15304463835340965,0.1484292656545721,0.05246074830340568,0.16775062819754305,0.7773470647260459,0.75465446385213,0.35023029519298493,-0.13742720935943764,-0.5779289770431701,-0.12423011502151719,0.26976749757210733,0.3274261456297806,0.1428965772210571,0.17882949136935483,0.10172694946794496,0.02162145219171635,-0.08454466235905554,0.2968194004488816,0.5014905743884917,-0.02831228719024212,-0.13892519293303146,-0.07649277355312938,0.5812446595524283,0.32032638705260125,0.14135605800851192,0.20718484603312398,0.1798102917540758,-0.18004532654132582,-0.31021181875281406,-0.16966484790955305,0.2588923709213,0.6497755267379972,0.6252648037581543,0.13120250406250517,-0.023032307940609814,-0.09472004255928275,0.09436869865696061,0.2181571356262016,0.17924378532769042,-0.1895300293862261,-0.43645315302777304,-0.653644690345762,-0.515243097907186,-1.105624748548324,0.015621315823147412,0.1993083110289558,-0.23010212543143232,-0.14164060555280927,0.1096862519771289,0.2299152172091531,0.16032259567457768,-0.24690306771365922,-0.7534001302262747,-0.42577317563256073,0.2424826719007751,-1.01882859955559,0.23566648203235768,-0.3114192279979791,-0.14673164539880373,-0.3578225963352673,0.08988306242176235,0.23518639555302745,0.21125460433074073,-0.17462460247402545,-0.25219726299380724,-0.1238288054312014,-0.0555224276237611,0.42266634412726506,0.19669754364591452,-0.1326295326378426,-0.6524887536673027,-0.3413607088704485,0.10875314928562334,0.276774107622019,0.2374236533254841,-0.11447777716568412,-0.3992155711077056,-0.0906167976216715,0.46645740186392576,-0.0947626773115869,0.42522210024309365,-0.9009280865457698,-0.768998389394917,-0.4573024296642619,0.17940081051848045,0.24355566582202165,0.2575951938461995,0.1545261618949944,0.027423699400384097,0.5324211558260152,-0.4636341406640258,-0.9284600470110598,-0.5861605431109289,-1.4464519615825953,-0.7791524052249164,-0.5211937808877665,0.23649980387254343,0.2255483747951289,0.11066036459589625,0.10016531851594564,0.1392075467796669,-0.056562271327540714,0.10012501029271297,0.4052411819011024,-0.9363068078471206,-1.1369201998935765,-0.7410883034970639,-0.5365384547522718,0.2073313627534058,0.2801114261912651
0.2295435902525757
0.2898305925240893,0.20475976847483723,-0.10757367899860408,0.04336665226504623,0.13309247320117118,0.6533778216981705,0.4415123156783946,-0.0031457666785340275,-0.5015601187014687,-0.3991635314668969,-0.3131248039232602,-0.04239827127503684,-0.29314713502491113,0.13563862396382265,0.04984892985031057,-0.0032983455632059166,0.5299776688299089,-0.0827547838172384,-0.27461781427305215,0.07715394055159945,-0.39055831490629095,-0.460768499412228,-0.2989206105285898,-0.21345861896463697,-0.34637988764288447,-0.347779634021337,0.11594386400739841,0.44267217783409946,0.2740367870360814,0.17503713336593324,0.021598497742888644,0.28938159347576314,-0.35409533464133786,-0.08628850360287037,-0.3785424262221679,-0.0216210739395947,-0.2922685284545326,-0.25554909503231854,-0.11104481404404719,-0.04291377057149219,0.4536885867497043,0.28664933090644024,0.4508373437362277,0.08779544843857547,-0.2810133361697234,-0.1864400830492744,-0.2015793578741209,0.047050577561762216,-0.21326233634489494,-0.45174961675990005,-0.15671723132840853,0.05515499367146397,-0.21980898734463694,-0.7200375029077217,-1.3689262414499732,-0.999218747197335,-0.17882197869447747,0.00786167189938768,-0.011732294093821122,0.052964229952617875,-0.020265258005971915,-0.5032805026109116,-0.6311639506362929,0.20718170738141273,-0.12633910570532642,-0.13722541531773708,-0.5446017623005059,-0.870393812090871,-0.19635574323666632,-0.5247076864211235,0.04553246712195114,0.07059016379220605,0.06772527328100163,-0.41805209061376264,-0.2712143241990587,0.10961297362103202,-0.07608448843446523,0.18799381541693183,-0.1323246784744136,0.10795035312541777,0.13657075728343432,0.08079104067907815,0.06848846685238406,0.12501509911208403,0.10207866699420838,-0.10569028544207797,0.15698387010403347,-0.5798617982694538,-0.3085244506057017,0.5596681340337617,0.8705702556013193,1.3348583037362018,0.38254002343124444,-0.1731728241001791,0.027790155760237956,0.13008647809251528,0.4909150863199015,1.0881678021515,0.9637989737053829,0.06716602999272821,-0.7591874730467156,-0.45182251035385285,0.4862959194822842,0.5175385827659655,1.3599695198250152,1.0756420849032529,0.26685148968193867,0.13146185492860685,0.14772109678161877,0.2556050131038196,1.012100452055577,0.13968876851707362,-0.21916076198320456,-1.6648793987597938,0.283542505027138,0.14913238863791334,1.2609946678565171,0.7153436533860822,0.24106736725824196,0.09679783504122698
0.09199898907992872
0.11567513100056655,0.11613998642883684,-0.1610386765157024,-0.10417749077967188,-0.47413364117856677,-0.6589776522567424,0.005625759175419213,-0.07168371304818809,0.2972828615816782,0.09684966831830709,0.11780361343123279,0.11406596703887488,0.10220077344762911,-0.10762877411009446,-0.539922771885054,-0.11378483120009482,0.3030083059322601,0.08627822914756768,-0.3400557394866948,0.4369275712424619,0.6689003773204442,0.165409917963131,-0.059184807348569526,0.1572299258517519,0.14870891534378447,0.028531841559790303,0.4703578695595591,0.27452210436910435,0.4078196247469171,0.46185414265714547,0.3873740614920916,0.10225388663089248,0.5737030975559266,0.23174576411600437,0.023221520842129906,0.10709388748947453,0.11465606273063765,0.4408277459230641,0.007802168737366265,0.046830007325833464,-0.4518209417491135,0.28389247716538657,-0.18067240353930356,-0.8442896949180178,-0.4455712774678035,0.1518125997326771,0.0186087598549495,0.15688076694212885,0.0692788315953655,0.4440220368897186,0.552076191190343,0.5690992297761325,-0.3162952728958824,-0.09800092204377105,-0.7705540807913159,-0.8807498713848833,0.14578866151472444,0.3215797562629579,0.06815043313616688,0.04542046458148488,-0.066440361761526,0.33495450115540387,0.8520477126590501,0.26031949804917365,-0.7642822848401066,-0.20578653009627765,-0.8276432771667618,-0.2649647249753133,0.4721975194234385,0.3524894940869007,0.0896355120655672,0.0903668070718558,-0.10053174742881192,0.3749006059671927,0.2841316038732666,-0.12170758806891672,-0.14799102278141693,-0.09511302211163326,0.12395730063004591,-0.11942792210374258,0.32240494896274546,0.01634249811204073,0.012636471851164852,0.05796905839368714,-0.09801972670494037,-0.26461573985679154,0.0966851787661714,0.11543228650540606,-0.17804040619121167,-0.37216120872508046,0.13825927345216296,0.371851149140837,0.2888586362780729,-0.12138900164552834,-0.029350978776394154,0.0634426714564,-0.5970474757113063,-0.8859086824659513,-0.6462532600996348,-0.1313245686765854,-0.1165353310466384,-0.4957500919984182,0.11812151387450069,0.3974927990278651,-0.024990569093927512,0.3223705920096563,0.10449217201316273,0.04195286986923523,-0.08065743736193627,-0.5398332309953101,-0.5030725762277853,-0.2871708896899798,-0.2254473844662793,-0.7641760598909545,-0.36874566344009757,0.16448733592967416,0.5156649219951458,0.1262708934968678,-0.18189042054881752,0.055832260592398195
0.078955912911078
0.16874250606259517,-0.15788755107820307,-0.49410301588561256,-0.2860441526794095,-0.1007995582902003,-0.015599755391352553,-0.2340398294123357,-1.11943963921823,-0.2748373263406778,-0.307696281776481,-0.12636684514676955,0.18952421931700908,0.22344993801294222,-0.1467709771900248,-0.7675408502780073,-0.6092234401042348,0.08042421635081652,-0.1043211750996944,-0.17986744770905427,-1.0951808537368792,-0.37858075640134814,-0.42574035416430944,0.03362545389623546,0.20449114475040053,0.242929317554739,0.1964387895558226,-0.13933162621752276,-0.396036690122777,-0.607219737498239,0.23492714451563912,-0.2906227682960415,-1.2061309193738,-0.6139935909653352,-0.15481842550369945,0.022620230555504953,0.21876805452875914,0.14153061597512667,0.2431142407065136,0.16835178595177408,-0.4911684931510598,-0.2733415630062159,0.40315255020217067,0.1289143946762913,-0.486558619939339,-0.5757701685760993,-0.5159649256468358,-0.07643745016256702,0.17024724439128736,0.16346005072737907,0.3245603386873921,0.33711559156186843,-0.12343692567328772,0.08141498462446024,-0.11107870890121065,-0.6398771887494848,-0.7943717583929534,0.024759520276348493,-0.5973776991097083,-0.17463410137262864,0.11626113200277237,0.14124236231191278,0.26633757437174477,0.293648855036058,0.049183056496920036,-0.6368388624376528,-0.037226683213245654,-0.8296850296274733,0.02110586994027054,0.6753475297301405,-0.3422843343004881,-0.0442686418044613,0.14889378332208048,0.08328212112505455,0.42301676548256606,0.5201639546521301,0.569920226124694,0.15721250312496027,0.08471445841685589,-0.22410624057785616,0.45008108606643393,0.6354032298506905,-0.2309597565960958,-0.004409617786323329,0.17588709601516828,0.13116242929354666,0.4113293785282872,0.4020421656971753,0.1349690250248899,0.644467018558074,0.4795498903401516,-0.33142706092452034,0.32603832562798385,0.36092636944804724,-0.25484351005354344,0.041455668356895015,0.12668980826115123,0.06643761951760908,-0.12820035868068436,0.49841552873516803,0.11506505682465949,0.0722357836315456,-0.010128594017786211,0.6526906320930196,0.8374250662736605,0.18826540418342258,0.531661589859033,0.06964827305131939,0.1474476990147499,0.13129246462051303,-0.04582860568570729,0.09890027575188974,0.001588904283069594,-0.10491963091006017,-0.008565765136011014,1.0436449653552724,0.32305512383899215,0.20033227067645792,0.08949862463553883,0.07553951062899987,0.18810179335479404
0.09644323906042583
-0.1907876937876172,-0.15687890248406963,0.05006472619810721,0.16089187279381081,0.016029232648695067,0.08356644612163928,-0.06400654366502016,0.15301008636610544,0.35712193645328605,-0.04105136487723624,-0.03213105924905812,-0.03543441627251021,0.018024487168846977,0.0507569870730566,-0.2266259509633717,0.46926948657563206,-0.06529495413706453,-0.26100770042580024,-0.4107094321652912,0.11900176174395875,0.11505312930959462,0.2143355352990172,0.1311428364657833,-0.004583118041120723,0.0019330826207402502,0.12176380110689251,0.084492011552588,-0.137189130877412,-0.3018211336122757,-0.40496482492986474,-0.019785464459474794,0.09011960173163007,-0.06818847435635035,0.3041547249481127,0.38565709706251206,0.0191972830872775,-0.18910132519290765,-0.056424211797470904,0.4270237456819266,0.09630430375320688,-0.18094834738038804,-0.2477458047535314,0.0163567693734597,0.4742740743653987,0.37110084878997085,0.3425575093974168,0.2892692692979564,0.05359108111486203,-0.1700593877858785,-0.12087179184209194,0.4195632987744856,-0.01987242454648895,-0.4819459568459028,-0.5175405394678525,-0.26219655224454064,0.4004308586669537,0.08277209941362591,0.3315396533834113,0.37699104473684686,0.022278551304567733,-0.18260545642171908,0.0997244987580606,-0.19554725464095832,0.034017897646565716,0.1666962971800108,-0.5202123359087691,-0.49130741301498404,0.2862465136701209,-0.06992610071906484,0.21572038570772398,0.10177378597585283,0.025665129345285566,0.03272124093937736,0.06148495214304255,-0.4617408690648681,0.32507065457775,0.04653610617934819,-0.09728028653766559,0.1790797431153319,0.1508979434255376,-0.14692572030329779,0.037544424123282315,0.19333472965663215,0.07489950427739499,0.021011541298411568,0.07832910350340257,-0.5734649363199773,0.14604989922249792,0.5388134236922568,0.9789346749917034,0.6343566335222426,0.22548775675455437,-0.23885519710304057,-0.012836600179409657,0.0429969288460536,0.07749590174559769,0.08593666703937432,0.1405429128926056,-0.28651748697553836,-0.10717384891173896,0.1544318607630278,0.6426130801657661,0.6116206291987145,-0.7998153866250239,0.07593813570539255,0.2064904494659501,0.039688925286483205,0.0018758837820500413,-0.0011973102033062926,-0.037152639147032464,-0.13788174810739942,-0.23297469731185458,-0.5273171113416351,-0.2596548602971612,0.23455558059091977,-0.060761778175752824,-0.07753579651210689,0.647162609743855,0.24250229015917754,0.052044734312086026
0.01965475691596906
-0.09606242839186488,0.2119184673361403,-0.10785491893404561,0.6213778458964916,0.03865082716330784,0.1900941626512476,0.016693754212444973,0.3347335138283386,0.5736243586322947,0.024773269987172285,-0.010911051803260676,-0.07253348393017467,-0.3244284597228252,0.04242632795865163,0.3512983114570807,0.6587312066876856,0.5871712107800349,0.7862389922655422,0.44100852125197876,0.7275686424606009,0.3408908734004267,0.5021227765346745,-0.331044987607363,-0.15374308417950974,-0.3363981399700351,-0.14306079028582178,0.236187669417358,0.10599675240095216,0.5006809802882177,0.6761992827241154,0.22895011502220883,-0.5226239096705987,-0.12256079495072975,0.05754810987657474,-0.2435719556262043,0.031160168927096363,-0.27431383346508165,-0.21438881330505558,-0.17149076300389074,0.022847597934813123,0.2690083649965942,0.11290134501219001,0.2314756916850769,-0.3912148528604473,-0.5464149379741396,-0.1124392125275937,-0.21108827231545538,0.15284893095495153,-0.18524582605336734,-0.248341856588122,-0.1379688539956275,-0.20853889670067752,0.09144032832193053,0.12438168533459523,-0.48566473426130674,0.22104873412502204,-0.467400363526315,-0.055134315373120316,0.017439443576591118,0.15844824718082343,0.039051399881964224,-0.44740060413666993,-0.2650450194642764,0.12573494777335534,0.03173759862490273,-0.15442039371034708,0.2058035747593213,-0.22577881746155268,-0.14234732723474267,-0.3268522353156982,-0.10369452791856762,0.1610272718328458,0.17373294979307793,-0.40735005619549525,-0.18175740199925192,0.12548913832546674,-0.03145028164982615,0.7078270992512905,0.8418828648758945,0.2961370757987313,0.07839561278073529,-0.3385279898345407,0.03728539901558968,0.23706711746840595,0.15186699485693475,-0.29935768019301146,-0.11814586903802171,0.21013326796954399,0.019706584967033407,0.3176911986402525,0.6652568459267849,0.9538394282637341,0.3547342125056766,-0.15952695603518538,0.14563628538438386,0.25326985309138367,0.16693896555188417,0.13351426426952942,-0.6053287431068224,-0.7950948727889804,-0.8435534032245364,-1.1100439612671222,-0.14016513236969372,0.35762337431028834,1.2783178411556502,0.8829321908059902,0.33157878366454596,0.21659467707121663,0.14084154302361832,-0.054314973088408214,0.08884622052059374,-0.337900835678272,-0.6287865404415911,-1.7416507083692176,0.10434235166832609,-0.47747653879164154,0.8418713549085999,0.49977279005783676,0.19481070146299959,0.23635580774042733
0.2231121111860689
0.09250754486825537,0.047234420667082895,0.12550990103247833,0.09988182667855931,0.05021002250346809,0.0250906110900253,0.07356943062322578,0.10599017830382525,0.10807632809300692,0.12089966701496473,0.11609915703436767,0.08344287285201656,0.04911012571442081,0.08760343349228027,-0.028836383897503114,0.029420911586057245,0.0652238550515927,0.0015979774163177184,-0.04382036918803097,0.013110960077422795,0.015919028015854028,0.050550668118988985,0.08007769020351298,0.17189356673261674,0.11516587994916054,0.09039265381734653,0.021643607630453865,-0.03138290633179897,0.10104462857484385,5.203935840876638E-4,0.012147706656097115,0.04490688271047485,-0.015775537052284887,0.12668250366797634,0.08307393323124006,0.10997446910114876,0.12413768582205358,0.0650406445407835,0.029795832847894957,0.03165809601277078,0.0686584701795966,0.09242357097892805,0.02184960205256268,0.07375237045283416,0.021611796868869763,0.031063962111045576,0.013296773265904019,0.18178353104773992,0.12144990839156654,0.055784897548500786,0.06799073490091333,-0.05930821174060489,0.0010364929716301272,0.09325185252120115,0.02756022507803104,0.04818073567857251,0.058691185719309626,0.03063567182700315,0.036504171917249646,0.2337233883197316,0.0992841748291587,-9.065037359662734E-5,0.10575188235882922,0.009735431199602271,0.07585320071078407,0.021593745518807952,-0.01747022125732243,-0.004649498939064227,0.07453587068011223,-0.010189960458660937,0.11833195031145592,0.21787433696082892,0.1933196848275998,0.035412500785745905,-0.03464303005872665,0.03344296476667756,0.07171468790150178,0.03144207854335549,0.034016689334190074,-0.0268438071510435,-0.037970441310849416,0.021707942588661343,0.1187668162181081,0.20662997246689685,0.10342196025358079,0.04890215112394441,-0.025476021131630847,0.05029136893043728,0.11088460260480702,0.06674642646181354,0.03691011703299963,0.0387749504573257,-0.029985068439001637,0.06035219392198129,0.17397906464145618,0.2599158406546273,0.11825437276403268,0.08508080109674258,0.051857576518650604,0.04060462626179837,-0.0031059500126911993,-0.012324142612646426,0.0791237841497791,-0.07834761803068487,-0.011676499730807744,0.07600695622537883,0.1694419258873313,0.23320733640987745,0.12303012818927468,0.11664321477947585,0.053654632412302,0.12063593037210281,0.03915993029149426,-0.005329549436437555,-0.020299366380291298,0.037989921588362556,0.03392264342007529,0.043918557411992194,0.1573063441231115,0.16677995801762158
0.1833199918886595
0.0719677173534155,-0.4922076893504457,-0.7513546256278152,-0.4291778320444922,0.4766298665296703,0.5260645850617096,0.4939314493299375,-0.22479514168258916,0.17435477825449705,-0.15083851653918248,-0.1467345400178335,0.09917308172533529,0.17667209831294664,-0.008972295769997692,-0.48057259704583766,0.08513835557083455,0.9113960105837651,1.3568256976978998,-0.16685187436999152,0.27568645808646186,-0.15165225795582601,-0.5889735900961206,-0.025705946395892652,0.16487613860241154,0.1312621579032016,0.3244384966426319,8.086861280518994E-4,-0.23358920776800082,0.1259230424639813,1.1380008679121427,0.8218215474777746,-0.17671244052370846,-0.3058845501873526,-0.10344198789701373,-0.16361206294441719,0.1150766641902701,0.10469603029729868,0.23163206084106427,0.2628757444190518,-0.3718599344597078,-0.2502719954820506,0.3439725869045783,-0.8110919611707468,-1.0750011535713606,-0.6755915965159156,-0.17025745563321107,-0.18179564607642248,0.09685040377546983,0.2966954619199694,0.22893633896475798,-0.36865134014659373,0.2671039897941794,-0.0573433234212503,1.367363951366223,0.6052406176703278,-0.42778671304708527,-0.5947025603993066,-0.07634194108204698,0.09931862694550739,0.14804379264536835,0.2719171681753272,0.019957619449595454,0.041563981862439814,-0.1760566518859941,0.14428398472020573,0.14259179114905932,0.577807266542052,1.050789261005132,0.6593315954289887,0.07650711282663794,0.12591220778914125,0.056218396663708384,0.12173940897704522,-0.1371646047189394,-0.3758918342206894,-0.2892703034433256,-0.7991041317994256,-0.15838416308976475,0.46777287814943924,0.9599413653355133,1.3911415166982797,0.41135382020222,0.04555665041165949,0.06751104515824191,0.1260346347320224,-0.3117080298174235,-0.24212998122718185,-0.1290145494484841,-0.7009300930841693,-0.0610623189408909,-0.2684845262968737,-0.04115171097045861,0.02549539048803294,0.4815848360990238,0.01350068658905157,0.11709477498231202,0.026893589078807872,-0.5934851599520319,-0.06249113921145986,-0.8674114946149032,-0.07208676400443778,0.3843608886341452,-0.2330272980376696,-0.8075490652026964,-0.45058866298480493,-0.1949947627797368,-0.38114569600895243,0.09394287084525563,0.15622432420264779,-0.133536104802746,0.5748163255184631,0.18585318354416966,0.11434452663190553,1.6967013721236677,-0.39511041192293095,-0.03023542717223486,-0.8967583192545765,-0.258833006868215,-0.038979289744041884,0.09158283966448974
0.09157143492522068
-0.08779939527407062,0.015246866958191474,0.2858494338917969,-0.4519793221970884,-0.4900784171017665,-0.9849600693277059,-0.625451018094624,-0.5324122775057596,-0.049587081559420126,0.06262633411938699,0.3139082709439614,0.16624237731530736,0.12027320041978752,0.29191269182540375,-0.0026133912511691576,-0.029070520848506386,-0.34142574391470953,-0.9129818295216892,-0.31882269751788533,0.3568975155571819,0.2679388190218052,0.6264988753209255,0.30144480562086845,0.09349296922070126,0.10839201032014208,-0.14713169391946887,-0.11464006421620333,0.20558003789863646,-0.05645523292178051,-1.1106334360676848,-0.1492083779373886,0.5593356385412478,-0.073290143013809,0.7078727355166374,0.45523824828138987,0.12713833979854874,0.3166419803624155,-0.7603013469726785,-0.22267654159400643,0.21010382867974378,-0.4209046807275631,-0.837131865576171,-0.09621332196819492,0.7295048554928469,0.44319258218572116,0.34838588529432096,0.2084061795885048,0.20594434799231523,0.19735621857266897,-0.04764807537488455,0.125405035018855,-0.01874081098793913,0.3754529111380586,-0.55609800617863,0.8550740512807169,0.5878735660073342,-0.04865070045371206,-0.2634958330441995,-0.20621931336727875,0.19468406353345738,0.18131407075479136,-0.004231260390372006,0.3186389600810438,0.14992951994253131,0.3330049289442993,0.05931822151785496,0.03370220573848877,0.7444538224995632,-0.04334007893812103,0.3331471811320819,-0.07250078447000098,0.21567023861728826,0.202991684215839,0.1805632285023108,0.42972167113108334,-0.3853561690679335,-0.21155419538749173,0.06489812176069386,-0.9006826121356355,0.17723514322613662,0.729688467886529,0.4056103986423953,0.31969133366955,0.26637284209920115,0.20493583554720815,-0.03549508455589402,-0.06325644590908626,0.24418560265684627,-0.5506319046697044,-0.020290006267760903,-0.023829501093845476,-0.406243003106527,0.1633553257317145,0.5625503185390941,0.24430879268358682,0.2342762819455522,-0.053659909159136904,-0.6107237267870413,-0.6084208869919401,-0.29387778793981173,0.6940938828011476,0.2447742452601002,-0.19675423741752898,-0.1999286347108475,-0.5469878501807168,-0.42057117802730976,0.02403447429595293,0.17981791471690659,-0.09606082518552962,-0.11288550867904597,-0.5200284934119417,-0.2288192005221166,0.2461601278151481,0.22148261550267287,-0.44781793960516886,-0.08962407788522427,-0.19872512767459308,-0.32992905458625127,0.1414150055542874,0.23068326770074196
0.22329699260012895
0.08020065079986301,-0.06436172568691283,-0.36378770146519984,0.8104147536810336,0.319868339630839,-0.2203224828575783,0.4701583341937768,0.1764129485714163,0.15469052587189,-0.1087683686469917,0.06212303492195084,0.18105843359249083,0.3014003914704377,0.219342605861063,0.11410761809707244,0.053943161043487765,0.744807127577596,0.03788847645390684,0.15467471624063675,0.30015202257540124,0.10376501253170249,-0.0023300805653521215,0.33166428531701003,0.3057277554266084,0.2839023152113613,0.3649206145459623,-0.2316560156039408,-0.510094561360845,-0.5393798272938031,0.003544905140288155,0.5336578418399741,0.5240821340184451,-0.4604903436690653,-0.12974230073532586,0.39266115751449054,0.13562251416496715,0.03923364243521784,0.38581690023509535,-0.2774376615225171,-0.6699491171372969,-0.8772364296378321,-0.19459633219505204,-0.2532861649704893,-0.16367757622145943,0.3740401818727988,0.24372901854319587,0.3613137882694694,0.044017043489209685,-0.014455031145317177,-0.13533717491580335,0.15587203255530693,-0.49592727271742304,-0.06480296439686316,0.4851867978712238,-0.6032827280512907,-0.4228512251456084,0.2404835761519877,0.18321426709047348,0.3025129709058056,0.005973267245984438,-0.02700082424261869,-0.056446488856642794,0.14232859840386017,-0.14241224973506209,0.13112607573166277,0.35394150394252827,-0.7903890385663721,-0.2004096203835646,-0.1458400742977707,0.050930646918696816,0.19589665055562241,0.013250882252634611,-0.05714589990689719,0.09137640463047829,-0.040158328843732514,0.23071722768878108,0.49590650278214593,-0.3553624304518154,-0.07733116503491692,0.11776311171350652,-0.4506435375462314,-0.2594478667631062,-0.04045614615603014,-0.06848045616962732,-0.05357428877992353,0.19639036570636478,-0.2737206925426144,-0.6447850202246113,-0.23617635930978717,1.0276990341020742,-0.47190233559605493,0.2354408589124443,-0.557843955858784,-0.4775521858485912,-0.08967631440133876,-0.030641395569857004,-0.1096438838070012,0.0075094019633854476,-0.3276741353983718,-1.617172658292251,-0.4966800494304308,0.5265131194732846,0.268069743204749,-0.276226268021796,-0.5453844937132561,-0.21560866307719326,-0.07762266902398264,-0.04425936050567492,-0.10458639745675448,-0.26167655885027014,-0.1446423792744039,-0.5501407492098851,-0.9259889772851204,0.09554374797496591,1.2166046647455513,1.1036496949259746,0.4074631705764213,0.6816386216932635,0.051966190952903314,-0.022644650339087406
-0.02422318988907078
-0.27161630823239635,-0.43159040273150384,-0.5302327787401842,-0.9862149743094677,-0.13457042720590506,0.6615481959230685,0.9265780381148276,0.23334256450793306,-0.22546749178885112,-0.5043201502483545,-0.2540355335121262,0.15843026049958497,0.27405681442178376,-0.38899001564387725,-0.9441062490422507,-0.33476913066909364,-0.3882275516153453,0.34465262634743155,0.8486499848600464,1.2102039170286967,0.01674803637909434,-0.754806683428676,-0.18731450427455176,0.25821653122201416,0.2045611416400629,0.04407113154852622,-0.6938561042963676,-0.39915022452101667,0.7575282025386476,0.3097841873219014,0.8099280876476866,0.6034376920338451,-0.09735724566356703,-0.4916634687709407,0.09409787483714326,0.18387794906068128,0.4006051113737922,-0.0971658323780558,-0.11675380815894242,-0.2798022239562144,0.05284509293714764,-0.8514553787372978,-0.2737402354673462,0.0630926851784623,-0.27648524404196484,-0.014613667957894453,0.0678180087179928,0.16633343478146306,0.29170135795703866,0.30960958824587625,-0.1479796339210097,-0.4154287491421388,0.30705914876400503,0.02135441496486907,1.1236085768131205,0.628319992993964,-0.7098412257706974,-0.22571041510877393,-0.030748999821482048,0.16833497904950168,0.4008153451458535,0.10000828606283037,0.4530496035601771,-0.31773008015495485,-0.007985839454821104,-0.1556475600619398,0.5141855391906314,0.5865746119672555,0.05369696175130024,0.2486744635710476,-0.06450726267765426,0.1852639827913019,0.15021830754262183,0.36914082731912556,0.5201139247410684,0.0731325138233279,-0.20961018743618076,-0.5352776172498557,-0.10410595225436202,0.056749531951579966,0.31330805777079895,0.44310113771524096,-0.03625252746819644,0.12956661150115034,0.14976005266716969,0.285793379221148,0.4197965578975804,0.33660769002063395,0.10289048381704873,-0.3823794979707674,-0.9142159281502027,-0.6132060400524029,0.10357608107219611,0.6627066350266781,0.09480944350311919,0.15665858983324216,-0.2904045739676895,0.07035720335844929,-0.1863954226306493,0.5551174584616014,-0.09172835620824916,0.19639631940695845,-0.4914459256285221,-0.18785608436732565,-0.09049681667114194,-0.06488701760125486,-0.12174576032016181,0.113119250722109,0.10158738527451942,0.08603050333104813,-0.24218292454985846,0.39713511036424853,-0.012286819713805996,-0.17559917072521003,-0.17712076440937724,-0.038318234372605446,-0.6880533077089561,-0.659411148794127,-0.006140434064845158,0.1554907143282891
0.1808983470147983
0.037345934477489615,-0.16355494457512354,0.40291606542145164,-0.3426121885365895,-0.21379995165651372,0.31154021285342826,0.4925371591801855,0.31642894230121166,-0.05164978616735062,-0.014754624939341003,0.06067855394944527,0.21871967320167707,0.3247932022702563,0.002951337668496389,0.8601483739369905,-0.06554340463215094,0.06533509886522859,0.33620716448444943,0.2977360257107001,-0.38617018127494496,-0.36818854682417823,-0.3025513010790345,0.16099894081493688,0.30267409108048104,0.25401751132470674,-0.0827977760836637,-0.09817598531770969,-0.032242112064136366,-0.21997529251880898,0.05702260940482165,-0.0221963092821628,0.5358851883027153,-0.08276310877504134,0.0038238505349739477,0.14977635356600505,0.23121813423202808,0.25214223878676334,-0.22796061236508225,-0.28744997641479186,-0.1507666114295751,-0.24569126432279048,-0.06914782911613043,0.2109082721534491,-1.1581511087661112,-0.561600127623551,-0.25821824682471184,0.15861845122038298,0.25919420482017275,0.24703723463041038,-0.29747768365783755,-0.5697786497701706,-0.8229080460397905,0.26999925351042864,0.9537226821784427,0.619942721877388,-0.3213891916735766,-0.9342885688425634,-0.07238352149346086,0.25011644208327577,0.2087835596778695,0.17882611773308044,-0.2641158350485239,-0.79954373600538,-0.8495427089764346,-0.16588063443834422,0.8609906807607243,0.1726347736602124,-0.8450938784063683,-0.5879649548789726,-0.17454139421098036,0.2778733117756139,0.27082063509265775,0.13167236771838176,-0.5069238394163952,-0.3723436431341801,-1.137476861775646,-0.2802946637414755,0.09357365440918272,-0.6169486652192081,-0.2433111185390372,-0.5374931265295174,-4.045669834514424E-4,0.15918872620061497,0.2325199378502047,0.20043971249741105,-0.1159429520361415,0.14412092388799247,-0.6787389407346606,-0.17222231335682225,-0.20885309844208721,-0.4408027752940318,-0.11374094533636728,0.19257604743533696,-0.2126681607887667,0.17771833011429378,0.23465918955616066,0.3376769278940356,0.27042957469806306,0.15919954369668649,-0.13789257461223337,0.010801590383024398,-0.16229688792323937,-0.28598988142530457,-0.09956713973793513,-0.06665836201471839,-0.4797505635865553,0.13327140294678042,0.21535443477691824,-0.02222064264261504,-0.01572286052990045,0.5789643428802572,0.20212446848805526,0.13113438406753708,0.47054199729532686,-0.14840517772613393,-0.1451812892457391,-0.7822955060726372,-0.03238389417678493,0.2323956450993374,0.2107048674349436
0.24235333753589455
0.06375473839355232,0.09083107563111766,0.23070343576492874,-0.27914886214154755,0.08844928302958667,0.2221610487682889,0.4171664796398731,-0.010991298620069376,0.2785185376157071,0.4674384328909853,0.21166813595514034,-0.09186646397805621,-0.3081007341993067,-0.31491212995640483,-0.2350621077144644,-0.17447679104088443,0.1181911833785657,-0.14357219073436356,0.2271914736803412,0.2698707463158907,-0.0060212132011002095,0.2927140625414484,-0.3376053161140896,-0.12985109630939656,-0.2264652910017636,-0.31734654652013194,0.1379423434610934,-0.12326794332263623,0.3974385796486283,0.2371556877290109,-0.24217411263269917,0.2483468796887795,-0.07150650999568038,0.3671576598256252,-0.43202728999384366,0.024230758990799788,-0.1953566867482034,-0.19601717478136083,-0.27297924557438025,-0.05786488838059558,0.03714044745446377,-0.4237481240650345,-1.02502040850588,-0.5672931009733733,-0.5486581582944825,0.0705218459643722,-0.43109029246304886,0.23463342227711692,-0.12561984270062126,-0.2345198206629664,-0.42244091855084054,0.44310077351293076,-0.13334006684837268,1.087317579724973,0.47474297889126615,-0.04125391250027428,-0.36799124896016255,-0.25711897363181674,-0.3334034841058727,0.225559713108562,0.07322974534093114,-0.3349365493769928,-0.09963695625482667,-0.09375661297331832,0.048187466198503996,-0.3203501260512167,0.3472120277360021,1.2975340308537056,0.5983267626881057,-0.17216131714411786,-0.12205622040449472,0.28938008762088696,0.06140038261427485,-0.058373772193126,0.1720243483777048,-0.26568275588549695,-0.7465973902563099,-0.44177996113673235,-0.3407749817654404,0.877647921700293,0.642257512258879,-0.034393931066585635,0.15716217588134956,0.2979525225795805,0.08657285980319042,-0.1760792691300268,0.1837292428241517,-0.3066830569046165,-0.6354722648377518,-0.7905845843446795,-0.45593019020359715,0.527007271310002,0.5144524327148791,0.5722132441792289,0.19798916073164508,0.22676008369826944,0.06179503451047618,-0.08347642806095738,0.22647498567180513,0.3442034810215776,0.1228155456862615,-0.008275300389854785,-0.04117170345151288,0.11844488385852252,-0.15976562553342455,0.252292800917699,0.15757730690081756,0.23252509204626592,0.12692401105884765,0.22417885371686946,0.3127073635840828,-0.19122184926028696,0.4452731476283376,0.9410765153625928,-0.20870015454145563,-0.288783413147626,-0.1845383888260872,-0.340319801197856,0.0378053476697958,0.30989247622245053
0.28383183855961247
0.08922292183532858,0.05434158829844839,0.1068901089828032,0.11386399196400458,0.13870233838042337,0.024936357027656456,0.024076368930485845,0.0974636800514888,0.14903646886827132,0.10273102029194521,0.10373409017404299,0.16767339900624953,0.03353196066598517,0.047941227836300684,0.011382055915566004,-0.006003975392411431,0.038351133980368934,-0.06693230913514257,0.006259536218113128,0.03125504038591175,-0.07330353905657162,0.09928754747503436,0.10758727576400172,0.17573427783238907,0.13554838942960776,-0.0013018135803468237,0.048550014328418115,-0.026208103746715877,0.054947418322883024,0.08323862623590077,0.07969132532930419,0.13473384132497118,-0.06274035938989998,0.11038385942674354,0.03775495912011842,0.15662608239331863,0.11645697691567987,0.05079561684178209,0.038378470247128704,0.06496890405249535,0.10190571076016876,0.04711863575289822,0.027363204786393983,0.04356197319887255,0.057490818307806335,0.06848753282699958,0.03172877341022992,0.21891727401038816,0.14629992994104227,0.04281925685693136,0.09979111858170141,-0.06831146141389537,-0.029906213867079246,0.07506967561475711,0.02760894086792701,0.04350556073296995,0.06965139681345665,0.03498546046237333,0.09932674123314032,0.2598458989999744,0.08515492159232275,-0.012878553928129394,0.055808690092138805,0.018347219502245587,-0.01410141651153763,0.060649366753047274,-0.011882882921717242,0.0010350083784757113,0.1043073557301495,-0.03147671323475428,0.14177864025447776,0.24215344836691485,0.17845586119043574,-0.027943996201708367,0.04571922806847156,0.02756241603199033,0.03219420602745844,0.14000453470591057,0.025700727298394396,0.03852572084240828,0.0012240135143765925,0.00418365818496841,0.13895805568002587,0.24041078917440864,0.08061454877318512,0.01409665026353744,-0.03870314104110645,0.04478552951354704,0.05051468249894908,0.10664805657654898,0.01181578765997119,-0.018074425829048658,0.054001999216892804,0.03337514919274419,0.16665283783600363,0.2846809273864368,0.04486081900109061,0.022311102487113012,-0.04129381041973934,0.05976906175219407,0.10795804099492527,0.07904090087715927,0.001694015425114406,-0.04008596783846591,-0.07155233820160943,0.045060231161092854,0.13197598690266804,0.18314729026640042,0.10378804745368754,0.007368130978193213,0.03439429552223941,0.11448270403908418,0.12841445940669313,0.09489511242328456,0.042164780980085956,0.07431355025459822,0.02568239748118024,0.018966015450420783,0.11218999859764124,0.20524723059300934
0.2004947408118957
0.13312343809655458,-0.24819655854745154,-0.055620824126035105,-0.463901558884216,0.4664600305607529,0.20036888759662252,-0.03475184416595257,-0.5088878608641058,-0.5796523624533877,-0.0601294889285724,0.11605038774761557,0.08713033843832986,0.06461710288347823,-0.3064461324012592,-0.34927570042011,0.11496350173802077,0.3802819848987662,0.648980957575204,0.07806058069107184,-0.4521855745308072,-0.6972616585962327,-0.6307337801262726,-0.09457824436607172,0.15840214630441396,0.10832495198454047,-0.20157290595228106,0.05796176622066162,0.09922015310418102,0.37405234206998794,0.7269349596052882,-0.4611883526912963,-0.48610178780463875,-0.349885102893582,0.11271168882045927,-0.32583667596821064,0.1812702568306379,0.22775253941742862,-0.08324518017286743,-0.07552160969402442,0.014491201462603616,0.764357841580139,-0.4260667382311222,-1.0188021679478403,-0.717129841070688,-0.6891214672347487,0.032486813262638324,-0.3100033249623363,0.2307497643843619,0.22900135751573802,0.18477644836003065,0.037540663502297476,0.4467642421420931,0.25887548656176296,-0.4495817310939464,0.2306575444989178,-0.4771078808109305,-0.17486747249730022,-0.45095323058689607,-0.38803946072500606,0.24373310005645032,0.4202174054405561,0.06109459692925328,0.4015202760939225,0.7529069036854873,-0.4796826145359059,-0.6705869106059771,-0.6091799546447699,0.7013767467767501,0.6053242318115014,-0.09848823017090284,-0.1618908169176398,0.28377508084062886,0.23495130522057028,0.4002626663659754,0.28996047674398673,0.17130047947569893,-0.3227695043648926,-0.49629512615881444,-0.7556996318548824,0.2908228063858216,0.47563956416992914,0.11398811097876131,0.12616659929664398,0.3135369480349516,0.2856722608415133,0.40781798322314533,0.281744072946428,-0.5881795894290124,-0.19621503850630806,-0.5834120300518909,-1.1377022767946745,-0.005438087169510088,-0.2720399343511358,0.3058079836268415,0.20165500397747022,0.32086104310834307,0.2776851942497749,0.23005115885474953,0.1158744865211546,0.8131020466835351,0.5025754745098886,0.37789633488717156,0.49559553728329586,-0.025241028723715343,-0.5233461802658671,-0.15467006508345044,-0.01972736015746327,0.30093723472403644,0.24969693332742,0.4583294970655688,-0.015759033893292633,0.39941069176941246,0.29390279721249446,1.1244309072080745,-0.2786459340240999,-0.3546842814663336,-0.7555108488491026,-1.0721722922624408,-0.07457476643335943,0.27146909105403516
0.2440686982427548
-0.11920896928379343,0.09226508995821991,0.3321010830151961,0.6973743240315035,0.2117083537807915,0.2767549531216686,0.19789385057133901,0.3907874787924726,0.2229135077659089,0.04056211951838428,0.10627339538714325,0.02069371911282366,-0.08023706457459223,-0.0893870257381632,0.7216488763632803,0.8553265130368489,-0.10166000163274183,-0.4151400041625705,-0.5229690021660028,-0.4356227098454721,0.1750537656201091,-0.012726961740603053,0.07177419759192147,-0.010112452811087438,-0.09488818272745148,-0.05346409376619079,0.15687364067561355,0.643573311846226,0.7292122995285387,0.03654492454996975,-0.037851078031011946,0.13266357173211452,0.4208797528469744,4.903992215502158E-4,0.062174186942213376,-0.002995766113527131,-0.162259214738192,-0.024692339516934447,-0.037619250089256644,0.2429111737511646,0.9378622433666918,0.1078077093750634,-0.052363514135109444,0.19357618857661596,0.2995045314666341,-0.002991046688227002,0.03432265155596278,0.009964566761359067,-0.033806999891432564,-0.07381953583346107,-0.13146275045420291,-0.6344000726467348,-0.11902396606444185,0.3443750107897681,0.006727032911460299,0.2649674162548616,0.13540044452892847,0.351697064304996,0.1938586818801148,0.022059083837946303,-0.14000861602485593,-0.19501709016229452,-0.09872559358523542,-0.4725138739315439,-0.23892231711431478,-0.05182022774342083,-0.15052809552787838,-0.1835546422428816,0.07587125563613928,0.12750079088916294,0.0754552092806213,0.017203850725426358,-0.027428687271733636,-0.3174858264741795,-0.12106891799444361,-0.30760534721132443,-0.3570727805712119,0.3463874386350236,0.5080797809960275,-0.2664883104762705,0.05383326840977933,0.15278954943693202,0.04707738991369447,0.022086378213491117,0.05370259961680391,-0.17714052147305226,-0.31606069731797565,0.03276006569562787,-0.27065714605324215,0.24559916863295533,0.48201020881376994,0.29750167374949416,0.0959079869889288,-0.23542554154052275,-0.0323025772109388,-0.008411661274304674,0.11087322000352076,-0.03597104543104513,-0.31025987017122164,-0.7911124013405447,-0.35755007697376623,0.2238799579961377,0.08667817427909433,-0.21267891970029068,-0.010732707714047333,-0.19424515312326662,-0.10158519023018797,-0.009335796475821286,-0.058495874235223046,-0.2684551494848428,0.18900876793065174,-0.5249108298660458,-0.40703778909560434,0.46921819381087443,0.10218105904788652,0.20199735100238364,0.12709798398261407,0.4165766403152695,0.24711544372948363,-0.006868909334709215
-0.007431582595124496
0.012088840819434064,0.17420575128800522,0.05333087612690052,0.20889194412219472,-0.11530235997052553,-0.702503623445403,-0.15125064108303468,-0.30836538162747956,-0.04000762295345657,0.1313284012924674,0.21484118782364828,0.11708303827627962,-0.11283655841494576,-0.05785266290498228,0.12498604695019416,0.3034967289182619,0.013621851993392607,-0.36340448581022905,-0.052113082128363575,0.243077533980013,-0.20325978755788507,-0.1529501429886159,-0.11737049768960518,0.13387032842294153,-0.050819597354645085,0.03477661227089279,0.41442511354325456,0.1750014969335891,0.29531680172709146,-0.034014111320495755,-0.3236256485455557,0.1526985558621237,0.07397326955612936,0.09915848594416708,0.16020996164715187,0.2154346432389895,-0.09392146715765425,0.19876166980802304,-0.15737743874915142,0.16379751776650706,0.17063606106656512,0.0754659409574538,-0.3466847869745365,-0.42825497135366447,0.091293608149542,0.29853147265959595,0.11546061466532177,0.2779043788670696,0.006940269159068297,0.08693928045853057,0.07800414423147191,-0.0655452953380657,-0.7125142704077354,-0.23723974257851269,-0.7684820052403547,0.14868334362651095,0.360480333165418,0.31482897932532156,0.2207458172381855,0.241424048299091,0.003294891816399018,-0.061862272186091805,0.026519694740120014,-0.30290784267620946,-0.7973122980510403,-0.13683190749255866,-0.9671599147759218,-0.05119001281785013,0.6785355952542882,0.7108951868036126,0.37353267321737477,0.2558469760027747,0.026594602704236203,0.15829085462939926,0.08150744960551874,-0.25098391729799824,-0.9631911943436269,0.043217689520371555,-0.23977485073074387,0.48097935232115624,0.621806330661141,0.25572887608311806,0.31695354588686225,0.30792351980581084,0.03221070667559593,0.06717274342486483,0.2379467226525084,0.07911854023646349,-0.9713838116024063,-0.183320545748527,-0.28027729564046505,0.7234285085457983,0.2535899329323324,0.03451752857257542,0.24753821424389574,0.3254576253647506,-0.08393804408472612,-0.22779246816317553,-0.15409665283035892,-0.05769472191764459,-0.12371671362236793,0.09998320156176145,-0.03386027617899444,0.1497843682668293,-0.01656559628113934,-0.1674525909768216,0.16114828346927387,0.2977260806595637,-0.0015140392980975174,-0.28216669214214635,0.14753550248580807,0.030838761889542227,-0.10092299675696186,-0.3358871798748599,-0.3254347450331893,0.09921031316198893,0.15023743537995474,-0.12661841695771983,0.07507973768229224,0.26003440724125465
0.31031302892848484
0.05161065389880317,0.2123881436979359,0.155190892186093,0.04417020723651959,-0.09924551955433696,-0.5702574949294316,-0.34823546905509795,-0.17939210975879566,-0.16728761009227017,-0.06250394038033448,0.09300992730959755,0.006905001306169305,-0.0817493376051965,0.23734185915996758,0.16710773924577677,-0.22251710638301353,0.22963197364902221,-0.5581018222532522,-0.16413048204117825,0.16954618795894166,-0.2134668582624914,-0.24493278156662346,0.19710273759946828,-0.04028065731840962,-0.1237784866142307,-0.043572515125698826,-0.009898379435100581,0.09531538596039653,0.034754495779473225,-0.15843812005401825,0.04350215328623685,0.4097949048502284,0.37501624528022004,0.05846300100441457,0.26399884510906346,0.03521076733673726,-0.01329494439479832,0.07732023646734797,-0.047408716970101995,0.0057205615372628695,0.1452809287068751,-0.1849718076836857,0.11969355261785074,0.45213879450611993,1.002293878108261,0.44702610992093383,0.1287214420989713,0.1150785163225488,-0.04832550034804376,-0.1177006603379334,-0.06135083473740414,-0.1651581558557803,0.04277874258232856,-0.44514938528294434,-0.43994094995469046,0.2408600168051352,0.7904818247059248,0.27891121632624316,0.023812362277149668,0.041653796102545666,0.08754993158943523,0.07996317886680775,0.019424284718256433,0.15911919995395107,0.3198757913401109,-0.38379223897304315,-0.29847580122308737,0.22222383083120834,0.2610978123515204,0.26515977511576927,0.08133022034399183,0.1357152151020381,0.08502819532594753,0.08543517249004672,0.21724270784138583,-0.12087717991159322,0.08589394495620582,0.11891386450321402,-0.1560721529478451,-0.33101063606874137,0.11389714441288286,-0.11388740843103463,0.17536161802451522,0.12356015153357151,0.050490232185498786,0.09622025262465876,0.27182378931748696,0.02810538700203015,-0.47381095950762353,-0.5014636566140884,-0.669553429347496,-0.1392041381271007,-0.23088263098554074,-0.17872969031143632,0.17447895432657307,0.08807869738150197,0.17073782346057176,0.4531295150216892,0.16455110884052432,-0.1045733239572791,-0.18510207380769822,-0.2966230941359229,-0.2849625772361941,-0.47148050990519674,-0.1806197540310685,0.07653506818586021,0.24651731808837923,0.125378501398489,0.16870359928584827,0.07445512996694027,-0.09473724613696972,0.0037948183898467813,-0.1686566525284086,-0.4525921085839528,-0.8030500117569851,-0.3356463647022273,0.08582114888821905,0.050274387352838144,0.18801784658503518,0.1169866726776596
0.09865873569662663
0.15304069573779358,0.05935897041251183,0.2382488494148459,0.3599402327374658,-0.08750084538755627,0.36336361218585855,0.3126231931801665,0.058178868543683065,0.1726133701571341,0.21602239219409738,-0.07983218265077553,-0.005140373559380386,-0.3416798356280778,-0.09126753006745912,0.09607096154009638,0.2086095756264751,-0.3307308561056298,0.22845511970735252,-0.3553717123845872,0.2787855386549114,0.09577931269240798,-0.06924869168615554,-0.2372286932206922,-0.06399210682832933,-0.24420625013284578,-0.29850345894938446,0.7388316294748807,-0.139421232439934,-0.5876206157928583,0.3618712552021047,-0.07190151829266168,-0.6458587690590416,-0.1740770667711606,0.01186161451044284,-0.5572217351895838,0.12903743541019883,-0.21715782630015376,-0.10790733786319477,0.25689153499428874,-0.10949643618551323,-0.25280512160796875,-0.22980009155526973,-0.2597333734577751,0.3109558725858327,-0.22629559439264227,-0.4427816100018096,-0.554094726674415,0.16326161734113423,-0.022181281727066748,-0.1724083715828749,0.3033609380163328,0.5935769692056001,-0.9076098181811267,-0.7462764599287601,-0.40410757842181977,0.07913144810836457,-0.07180778584406498,-0.7520810332204959,-0.3774129603323607,0.2848310678893611,-0.06619200055592221,-0.02399481739699583,0.21572488437252782,0.6776714597141367,-0.5381404136678927,-0.7973595028939244,-0.40258059819023595,1.0145465676032688,0.34820180038070503,-0.3503932956841841,-0.17373842089853211,0.29146365029739596,0.034410715453918425,-0.007645113777601693,0.029918274014617708,0.5612061755238456,-0.4135571490858455,0.02048779624115914,1.117911623252997,0.8264932545702453,0.213837162997739,-0.11755406176497478,0.10472320838284312,0.32371254824369644,0.004511385675452947,-0.06434791169653785,-0.14075535167000183,0.057743268095354336,-0.1263809005093041,0.16407082804429127,0.8727777583963174,0.12272151007800093,0.08913948301830797,0.01622366040336001,0.04174769062570202,0.30400343408425545,0.09277249818965295,-0.08753793857006424,-0.09108650421158355,-0.1685505475544495,-0.6056041354648249,-0.2499743249976894,-0.03858249175269675,-0.34612040050596526,-0.03603767470874225,-0.2740651673969199,-0.13993073752597454,0.31191448200364524,0.04339585575189285,-0.11504322353401313,0.2093056292338332,0.16530480383324483,0.23638348874202533,0.2106170942196601,-0.5548899883112403,-0.3455355223849992,0.2816091835198057,-0.05909340284253238,-0.0843983637297016,0.3168620724581753
0.3282262488862713
-0.09758396540632565,-0.09967010096518801,-0.10542088874602935,-0.2001026528024522,0.025290136200486153,0.036830888515169684,-0.07642084833966602,-0.013726324621526079,-0.12717490305948356,-0.1974385299732525,-0.02334682469242294,0.0479518986045289,0.024630093210393993,0.2596878437866795,-0.2848660673551076,0.09843996350088428,-0.18207241694383186,-0.4702157753190573,-0.19202334133465232,0.274652436533892,-0.07632743627665704,0.10645197482214737,0.21247012157074802,0.03159161662983121,0.08463601463947602,0.3427178204713078,-0.004496799315360902,-0.010625759843026404,0.571178086554052,-1.0092748413738934,0.08117495068004717,0.5494323175844052,0.21392056658655456,0.1342789214011455,0.2627193365552805,0.02241639276722783,0.07646329145549151,-0.14451036712717824,0.4350411026139633,0.4593632607014598,0.44493094289771745,-0.6772231968716976,0.359504954501596,1.0001181447406478,0.37793471633523085,-0.2114988169912025,0.24739156241799592,0.06286486621623204,0.03485196682699198,0.05387096313168594,0.40928811937094883,0.19187630849212056,0.20321548009126378,-0.23781517658054185,0.36689016477257635,0.35650438319523553,-0.0032926648250382637,-0.1870338955591057,0.21613525596245875,0.10304873691002851,2.987050216908473E-4,0.19289585044270657,0.21658355232185783,0.10112819377080427,0.24200645774135954,0.21986844731764799,0.3066779493995451,-0.031774776058540434,-0.24478255202498705,-0.021904241881281213,0.21873434417032817,0.024575457051413112,0.02936592735606528,0.12123794288928198,-0.1966179586797766,-0.1703246684692879,-0.051558876831370885,0.3232866329072656,0.2670056629567655,-0.3041450480438201,0.12361546999103694,0.154109142512602,0.21636098147651261,0.10581305415592308,0.10626316452065689,0.0039131764164032365,-0.4424243500407668,-0.23194900157444764,0.11536181136779917,0.8723672003801329,0.2564924406703704,-0.28296959666839433,0.1853181046273571,0.18289087912479285,0.15386831324513206,0.11195480157008532,-0.04204977847091212,-0.2605315442179945,-0.3117152670263447,-0.6769207187758953,0.2685097200220345,0.6036477573346967,0.003819404918251645,-0.19214439468744687,-0.18076852490027073,0.02182773189415406,0.10510958943508893,0.020198727755214467,-0.14343129832762197,-0.00760986328932172,0.002182290857026764,-0.22861924376943282,-0.33330560700606277,0.4093530423630503,-0.00477937814968813,-0.2143194133773605,-0.4882191174092961,-0.05793309362931078,0.2475424906730147,0.08914530242608572
0.10667128253194776
-0.2347032646229867,-0.015336077781400361,0.11685385646326772,0.3842811904628041,0.21270704445363606,0.12653923062880662,-0.024423737554596456,-0.38375787069311634,-0.2712312972592004,-0.30184677806905175,0.174055347314815,-0.12156080853375377,-0.2724873133342844,0.029480995690277702,0.0705039719691729,-0.04458263765079646,0.2943732581996243,0.0898621449326973,0.18403301049195323,0.017960830360266928,-0.3373203318431914,-0.11861846470421684,0.12868960843675234,-0.20983147205970096,-0.1353659901048073,-0.3010342542913093,0.008341120442524795,0.4613571556833386,0.21438308404802772,0.26296243210334264,-0.11871199244019047,0.514864021784508,0.5230087669838568,0.20031782103955434,0.18026570978149767,-0.08757213574880447,-0.004966363409357734,-0.23213769044830376,0.05160348111061649,0.2877450981745289,-0.040754317207586384,-0.34338998446997243,-0.43579492984835405,1.435376181749844,1.428661119027461,0.8021112113443711,0.047236345955902766,-0.0653660586428718,-0.021602476612248688,-0.2475018224908703,0.019758071309310284,-0.35466046164815895,-0.37309388065850707,0.31374551720011173,0.49686934622094464,0.6259201767968317,0.8613425225075153,0.2956759974619491,-0.10398563700490081,-0.02137075861861974,0.008029227363793426,0.02935886621256299,0.38304704614577295,-0.25894000681810975,0.24132318864553784,0.2972631571584044,0.43370389378140456,-0.03992490528107618,0.05829524877619006,0.267615746329623,-0.053332509374382615,0.027628833689538248,-0.019005688928950926,-0.07612913341564405,-0.002388298928761411,-0.7608088815450091,0.25853830530237604,0.54146001875811,0.36106012956063943,-0.44304460765229464,-0.001517696149987667,-0.15329797211914256,0.1480365130757629,0.021548600436591122,0.025302551809482297,-0.14065055333570933,-0.16504201711513253,0.21168351772569158,-0.12409415908014827,-0.1644371709992479,-0.11053055304350833,0.08567707652468788,0.04209540815540618,0.6201885542474312,0.08030968592980335,-0.04857478238318672,-0.15050092666223755,0.3664778116340838,-0.25017545398675006,-0.06899398370161293,-0.6407725021637927,-0.9033535882406813,-0.7271793128552031,0.025808246618048526,0.4791862414648645,0.35527005869563816,0.10234111596401967,-0.032515894275852726,0.042548544010758825,0.09907214091535789,-0.33602152700612425,-0.09279823432378777,-0.08147998131225072,-0.47992490979125496,-0.7893363361837409,-0.07140827371000923,0.6297108572216992,0.09019580536978646,0.1121409718181663,-0.047174627518327066
-0.023114368385352083
0.1611356834885988,-0.07209479889407269,-0.275731682675997,-0.457489153261063,-0.24592544283438023,-0.21095237561402091,-0.1294325210694624,-0.31119394410757495,-0.21005984482348306,-0.1674829943577933,0.003548318905514808,0.08992585832560127,0.392630817413012,0.33025120502054117,0.15285451031676184,-0.2561432758802168,-0.16160856440748989,-0.09821759241091976,-0.12562856105077716,-0.31832035894620847,-0.21409880382740393,0.03369835515591005,0.35309861096141115,0.19225520615231567,0.32869096230223205,0.2493871918605881,0.00801672652880546,0.1374793273703382,-0.14530616188642576,-0.10188218243740446,0.5648534632116904,0.3635685102039359,0.19383417553632948,0.17397364581032349,0.40124503783919063,-0.022271407651823907,0.21145172535556056,0.06514118320530504,0.069246323090977,0.42660932509099747,0.04498069216790855,-0.21577238407065602,0.2182441186911534,0.28206278594537926,0.4170777146017326,0.15668270399696405,0.35743329541686675,-0.061652389373997765,0.16955978422543555,0.2480417821857706,0.14883081504447676,0.020921060944182168,0.13312165372292362,0.3263915570730823,0.35493366401279514,-0.04180991088142824,0.16570277190425398,0.1952674862217828,0.15986079736719738,-0.11682190712617052,0.0472541516539388,0.2915675900461199,0.14799039957748328,0.3273376534883451,0.04610508922492877,0.05325317378256199,0.3911068232575833,-0.2660171098420985,-0.06707267493313857,0.16975077476399525,0.1369606002030806,-0.03501960012702063,0.058320440913987345,0.15957908865426662,-0.0996637307764171,0.12055301136412838,0.35154328605099794,-0.0871359084581251,0.2834071482569205,0.12962659484385247,-0.14592724677757335,0.11979695833595308,0.013161236815843028,-0.11468463899758308,0.052639169327203056,0.15130966133872026,-0.06459620600722077,0.18894982860419252,0.38607500698473185,0.051308425701837995,0.4121100511022461,0.01330525136143934,-0.10603764655717465,0.0884982389645387,-0.008871001888886298,-0.05602660902112297,0.13617452226742177,0.027895543899601832,0.022464837728477766,0.2964703591760063,-0.1147812983058058,-0.12318230969810257,0.2308021042598325,-0.12279614872169484,-0.2500789102122324,0.1371342489705173,-0.02353067727515877,-0.06708471481380393,-0.020562140420351614,-0.1391069271492057,-0.2971390752933163,0.009201261071550036,-0.06483910744315075,-0.029426734141602823,-0.17908283896804206,0.123610066555677,-0.3377531442696363,-0.045567406101081884,0.031180317805604922,-0.11005420975503488
-0.067878496211313
-0.03508018916146897,0.15210441194563695,0.04444345258280651,0.5137072919094504,-0.09288919511530196,-0.25206365078641474,0.311233917746594,-0.11387183254028828,0.054699010746335784,0.05704792948441056,-0.0062557636206261695,0.06922215206575989,-0.11045307228745206,-0.044980283560480276,0.2793378859844668,0.11298718788897484,-0.09451391667716759,-0.29114093955289394,0.5726596674569966,0.3494088462618092,-0.1867436125894293,-0.15544599835174627,-0.14415654932334082,-0.14218825195182838,-0.17153884567599925,-0.2707454541666153,0.016237409912125068,-0.32378353384488084,-0.19994783434997487,-0.06263721720126286,0.3832921583524726,0.8254958424451182,0.17328343601625645,-0.16074533852146422,-0.23191363626865302,-0.02892165475392289,-0.10889544844283268,-0.29039605733457047,-0.1650530386586624,-0.24355413329194614,-0.3126028644585171,1.0634800858109714,1.4194734033642895,0.32331019701075076,-0.06592130248101487,-0.2730430883833221,-0.24720114751564137,0.08376058418779188,-0.07400239003359645,-0.27782047069554755,-0.2506906751576449,-0.3029873766802444,0.008997270463714036,0.058632181043353014,-0.10306248321172833,-0.22616214952253272,-0.3666935761871957,-0.22206974121584283,-0.1749858180909719,0.18879567676603232,0.008784546094460515,-0.26515000466669486,-0.22281354977575712,0.11364574604592471,-0.5732303631633322,0.7325542142429773,0.06470605135443876,-0.9626486041874662,-0.14724141504434707,-0.30129356595441054,-0.05754529927967609,0.18590277738198752,0.13252160672553737,-0.18862788011677956,0.01343766589261028,0.228163956389615,0.38042234125279356,1.0262107226884187,-0.39717838887189866,-0.18534863708835114,0.10684506940519185,-0.4227062988357108,0.1394806620207648,0.16166142964993302,0.06897946423248406,-0.006213722143676626,0.23848308222892467,-0.03739461486696457,0.5067977849242258,0.4246875730905299,-0.6031173995055839,-0.5694577769125446,-0.06288614853740009,-0.1441878020843701,0.15241812846945446,0.20366950645345838,0.3094441102495256,0.5779362173882114,0.33072148760238723,-0.17079004236197226,-0.19061216123898,-0.8889958006670327,-0.41199394171880294,-0.292379458327296,0.13314161374601213,0.20724958140898836,0.24636962309615917,0.17251369825928375,0.20624219819060896,0.4522428375420255,0.5161508741615881,0.44929691170682634,-0.4488886960904032,-0.9001254314672291,-0.3393599102418747,-0.4604193900916164,-0.33831583104671353,0.0015102591398390237,0.1678130710765947,0.18691973403493245
0.1854580554690562
0.05875717101325507,-0.010352941825782277,-0.21364026403747113,-0.24518561996600405,-0.45715983840877933,0.8154483570763452,-0.16636178512978347,-0.18526520413596928,0.05027635943991921,-0.12372497281866855,0.057980456720871716,0.05023832200785849,0.053945909595618076,-0.2397569372138156,-0.11471862008550392,-0.472800444863462,-0.9244458318605123,0.411080825818204,-0.1083885911438995,-0.12631014441433216,0.03792665054686228,0.04963420594106436,-0.03765414723886575,0.059356856075753826,-0.040471139715769995,-0.038633538162323657,-0.49898453485612243,-0.007101034136766645,-0.17242285632243096,0.16484920944732293,0.2400519216758271,0.2047703467582531,0.15900790065659312,-0.0659313801664012,-0.14634753013365212,0.08089954597572001,0.041162597105982766,0.02042915337246792,-0.45156789964372285,-0.010041902327234668,-0.19362553573668592,0.7083411010039976,0.6906789996703729,-0.04366079946093774,-0.42085190704791037,-0.22348746324411864,-0.1842828895950995,0.09550316206240127,-0.043353301930220585,-0.04714554623640981,-0.5347219030611706,-0.5065389840216497,0.2541463890570889,0.5846726466874038,-0.1903866628350517,-0.388641211724228,-0.3417016735937424,0.02297103133487399,-0.05097490473617663,0.05807212255436426,0.03330231673695724,0.03180286802588019,-0.31728302684495474,0.06248378065848775,0.24213891649511268,-0.15980949146478943,0.07090847512067357,-0.587913404776912,-0.6237672215387168,-0.3456898206628803,0.02089934687329618,0.03459347644661969,0.07962711633074847,-0.18396883623236512,-0.057625092781783245,0.1528370525983684,-0.19925901615544575,0.3241107222931015,0.6318204162064277,0.47972927189071085,-0.4879715353964816,-0.3304529575899093,0.017292396875506735,0.08686274460379052,0.03629375978811949,0.027360756749314142,1.1492703896970313,0.7250277247984226,0.5293239761411025,-0.14363328620609941,0.8548051888757081,0.8000188744378814,0.22411690461105263,-0.0228485939793495,0.038284338471993466,0.07938914947843918,0.0172155896283062,0.8675298057092568,0.7974761644187595,1.0066641521138822,-1.3322598230184648,-0.827694927371799,0.050422879715846254,0.3686837243492282,0.940410778813226,0.28874667443040375,0.24188563968629498,0.08949712574025408,0.11858360623058718,0.2056916426125374,0.2521327114741716,0.5464846885355639,0.14384911958288496,-1.0935339340566312,-0.9479884166183249,0.09995604041649188,0.8309600099461653,0.5080378337767486,0.05594974702945046,0.0928782635742242
0.09194805024004755
0.016394250888456325,0.13068857301591197,0.14447382592887736,0.6017811195375937,0.2712942764744303,0.5432470945198875,0.2680230688381168,0.3062619442694986,0.16291676199453825,0.16243542018925117,0.26182144536339946,0.10193959527923854,0.019688664647754654,0.1447366998607903,0.6383030427808125,0.5534149314245572,0.10760112878399627,0.5944582493737353,0.2185283425479716,0.3069024345385225,0.5827105071997123,0.6487237812303204,0.09815079990781947,0.08746175384585941,0.10978801212845682,0.13868216235366787,0.0971827866441553,-0.2313861665391655,-0.14771249033579803,0.8270508720959147,0.3189873803439346,-0.4191846130714164,0.07546841019505071,0.23442950175056598,-0.009646472075833676,0.16685264314171472,0.15751298738656483,0.07522867023044125,-0.057331654689759405,-0.1638930064735753,-0.25481995161295823,0.4674639721189042,0.022986786978762382,-0.4215070851363626,-0.20113576010243395,0.15316000708631355,0.03204406530750018,0.15140283299287394,0.1379547272145089,0.08127494960197232,-0.0018895481547808572,-0.10276749109715877,-0.24376362745163405,0.12960080896746923,0.06547662781402444,-0.2262476228294673,-0.12646429579578639,0.07462037542852903,0.061740574359701365,0.187635768660686,0.1104804514405702,-0.0032783549630225313,0.060623798986703954,-0.07353160224255073,0.19990153851390974,-0.24552241463559515,0.5141919562850283,-0.31711738982738136,-0.045425892775716036,0.010045272481665753,0.057047201000339616,0.24565973812893616,0.08779494250978223,0.10119543641354428,-0.11357987967815583,-0.29142172034622216,0.045476048009371876,-0.09059797830881464,-0.05837635506954505,-0.08072078796687038,-0.12567270257475643,0.07601724870704424,0.09545874293280757,0.22136065410117733,0.12308794689284111,-0.0052350654809667505,-0.22705083308867174,-0.3541227880393427,-0.41960201550215215,-0.2847954038554703,-0.19530937930006292,-0.2977325430608746,-0.003239039215876642,0.03449257191169842,0.1395241381154032,0.17435875513517812,-0.03190265870866447,-0.16324417476468622,-0.4911165522605473,-0.7776651772134748,-0.20698190685321627,-0.44431163098482096,-0.40811700234395154,-0.5674289745803489,-0.10126301950713329,0.023164706964574285,0.11678522784628176,0.21373438687601587,0.10873818688601677,-0.10450037671446752,-0.2390606364726875,-0.2671770112189264,0.08132187993760659,0.3275411674641435,-0.2946047590312195,-0.13840451033941192,-0.16278156017850726,0.06287463350318923,0.08592431843486437,0.2093321177893313
0.1936739859561849
0.18402687274302984,0.0021560116831938953,0.3863088790886855,-0.0956512033404156,-0.2192924512029065,-0.23097133291621733,-0.1125479579440416,0.2778187644760375,-0.2133750109829867,0.10240959371486394,0.05902911745837596,-0.01972990279239097,-0.040277462818032385,0.09182101760428169,0.45141008453494147,-0.05914565362418809,-0.2881905573411138,-0.48070497983593524,0.37828774115574715,-0.1681218601591936,0.11789196913776542,0.009995624624967551,0.13014108328149107,-0.14739222109298747,-0.040343003576255705,-0.18768973507494144,0.0877311584219479,0.4648689275802601,0.23029166129024245,-0.14528516328662386,-0.3058719209376658,0.17403565864788892,0.22442340024842808,0.4225014128686878,0.23553166536033185,-0.06494817450764906,-0.03373901916047967,-0.3056257332034866,-0.11018290614510845,0.442165972626833,-0.36946898237066944,-0.822970127479966,-1.1459710735901827,0.37053706522840746,0.4293524161112048,0.03822595787671836,0.14527389802890076,0.04772169672525969,0.014153304444920599,-0.08705400957350448,-0.15941358139446546,0.13105028630748042,0.7928062365238154,0.6295869561361386,1.8409153514912302,1.273407655821932,0.4837897984242714,-0.223268196771206,0.010976436106615372,-0.006040185334254147,0.10090682562511502,0.09298921790352749,-0.11945355467530114,0.4335008192946548,1.1049235703761346,0.4289283953110091,1.4764653168101578,0.9141301221491119,-0.09591365804643426,-0.19377744892828233,-0.011418682395889852,0.06070807567097437,0.10655985149146968,0.18351811255403902,0.031910074907765845,0.5718440595071096,0.8662019038179903,0.07485917257124344,-0.011242744575714572,-1.0417576149451762,-0.7375225775024276,-0.242194392883937,0.08238301044062832,-0.009108960794933126,0.07491432700403786,0.021524907922833608,-0.2035415345865981,-0.04119145172251406,0.13240433338696875,0.26878037004349087,-0.6367955839687188,-0.7870894991837115,-0.6165261545854605,0.22136842592422765,0.10729434487310721,-0.010120361078085786,0.39878668656047156,0.4650428107915323,-0.20303913072971044,-0.2522084322675179,-0.35770295806002395,-0.20284285970682317,-0.13312377289056962,-0.4885149182170476,-0.28789572170845557,0.0778231327808046,0.280823967262923,-0.0033002928771795506,0.026993074733760874,0.34027012222947706,-0.14324454099684178,0.1145577525276939,-0.44422361193060433,-0.32080949960110916,-0.35044159118647067,-0.05563543443903248,-0.6987279824847782,0.0059702646262611864,0.28035447239207256,0.01723970354288892
-0.013690462588436116
0.13994212311365128,0.33300730057264516,0.1710490279186635,-0.5104764945931511,-0.5086711406472278,-0.5254169637023581,-0.5035201254469999,0.20772255729259614,0.6981833329533159,0.6329418570324988,0.2345690987209592,0.32351738869568003,0.0941000273526389,-0.03755631850507757,0.06061398344506065,-0.2572459075406898,0.11868690969008702,-0.6589324965123201,-0.4877918548453327,-0.061955695467119154,0.5370231733619663,0.571358903973472,0.11488094507080504,0.3110259054116423,0.0785715818456933,0.2275671600002912,0.13070033755402455,0.22523148796471654,-0.20371941174317876,-0.21518863334638816,-0.3617890424893304,-0.5392862098507883,0.16583507538952363,0.008149053988194979,-0.34116786614114936,0.28433134565775464,0.2107606245365819,-0.02808219043977648,0.2720847673394461,0.18972215958060196,0.16319365294733384,-0.2167632152338877,-0.6935386308174044,-1.7724906778472427,-1.1543917623542823,-0.8995197053638505,-0.36248479067673345,0.368204941713445,0.3293470337809059,0.16151773150039977,0.2790722067064877,0.5990270556100284,0.18521689759608445,-0.14502776401402423,0.5422052915810399,-0.011012245205433072,-0.6842246756188529,-0.7684097397413628,-0.36954645381090334,0.41836420675485575,0.3164141344784319,0.10016794326549347,0.039519142585435374,0.21175271219578623,-0.3942498006788694,-0.4685731839912858,0.011514235964905297,0.5073346963905815,0.1044455994515055,-0.521304822445752,-0.32846919180599476,0.45000559387846606,0.21742518376316888,0.06891207247162351,0.07513091702774846,-0.7996056645868533,-0.4905849732478867,0.15343455303371073,-0.10588823797902477,-0.005374471096645818,-0.6511524830773542,-0.45424650350576756,-0.035230188085686814,0.4094301531246215,0.20242786824277348,-0.14625403000209158,-0.11627828693429273,-0.6018364311833243,0.13467432003098995,-0.19557990538984865,-0.44218674214790876,-0.6422622017358349,-0.1820219699101024,-0.6631971026971398,0.2489813198192169,0.36752971384623656,0.011359066565920563,-0.4147988231123858,-0.1813248269135186,0.49087065496658433,0.26637894476016966,0.9926287805802113,0.004324547038697874,-0.25753499451349404,-0.0556335505866717,-0.34181187734087526,0.19819020411459554,0.3753982224035457,0.10666915806593774,-0.1851425954717948,-0.8188855751057508,-0.07891845439940356,0.4586311725595219,1.0497253221914145,0.23069121188633523,-0.3151647375276292,-0.22310520182905136,0.21340514122145715,-1.911948579472418E-5,0.38806253133622237
0.4001994353945084
0.09461072407036168,0.3202766213460475,0.6649407100795972,-0.4389236285470991,-0.15564374258360802,-0.5792302509348348,-0.2918297938634107,0.5664488058135269,0.8259743942094242,0.8359663977097458,0.36565465184737134,0.24062201312346626,0.023612698446287,0.059482727636024905,0.22415329357225283,0.6635370134341798,0.04075297639974882,-0.8989973077267404,-0.4883034607368526,0.4686942761966356,0.9980535439659033,0.9025389927623286,0.21312451892176099,0.23733435757250054,0.13280755435693736,0.31020202115419326,0.40964265956223045,0.7771281848081573,0.3514674949801927,0.10052158059936005,-0.059260741712166574,0.026567325012680113,0.3795629059105884,0.5992201924768292,-0.1571239166751628,0.3173152384756921,0.12400789158520105,-0.1886362807449154,0.061979405935807384,-0.28512892117534205,0.008167144874803871,0.3283943374878845,0.2269199922978296,-0.8863039574276448,-1.0236917436301574,-0.5880733847960773,-0.15303170113623354,0.26449463242798366,0.1799123524658221,-0.10041214498413141,0.07400196722126455,0.001889024920649945,0.2129266112224215,-0.43414741895781617,-0.09502362101560217,0.24159571858296544,-1.1078668774162468,-0.7318103453270541,-0.22342060699988447,0.3171544434558199,0.2115154795326628,-0.2573630129706209,0.08187219300570488,0.43186130963330027,0.41628371144687004,0.11976694355812743,-0.1580005773552925,-0.7616735168041062,-0.9706777095362682,-0.9462805192611496,-0.2339208650508235,0.2926803882301394,0.16171528745342667,-0.11876541385815818,-0.2917098418722308,0.3924111774481318,0.8921046330312088,-0.2568644923169049,-0.3918359938007735,-1.0370961396256955,-1.4040544578921517,-0.8274629337986321,-0.1248549639603003,0.367942514303484,0.1437353592985291,-0.048772130779535065,-0.36041637145666217,-0.027125685490477027,0.4772498216911616,-0.3024340080186029,-0.2170898757276643,-0.698632238492223,-0.5636062340556318,-0.7987125622158908,0.1608149315748768,0.35032564443664194,0.06984653819487392,-0.14794336196473112,-0.46297617998678564,0.011892517926704036,0.4402703924334236,0.1808669031217684,0.5262877354529139,-0.12438776253655301,0.12745981786981772,0.049340322515915476,0.3694004737709614,0.27960141102145575,0.1837780441014828,-0.22322828296145508,-0.20950072416079768,-0.4967844806715702,0.524976029051271,0.35227548392530506,0.4338785152966965,0.011977808195032769,0.3946065689755154,0.29378463537995625,-0.10925319123950243,0.2836986830401006
0.31992405178166217
0.09059994771996972,0.01280405015961818,0.3605776328931193,0.015286602492431177,0.46602981961510015,0.6788054709130338,0.3536537655727584,0.34786222641005127,-0.07783604311123916,-0.3523762820053059,-0.0448032981107349,0.1292354926209825,0.08833198039087627,-0.02798264571859633,-0.3248524653055479,-0.17014203775208847,0.16668714787474204,0.9175647708143311,0.9621699219429627,0.1680910592918689,-0.5067951764503882,-0.34939043239324774,-0.12497199723332926,0.12642182201838553,0.10628161516518002,-0.2518933585012251,-0.5444876938146526,-0.5957233648774227,0.4248425938065039,0.8388516254849512,1.0820741133133691,0.3925530146087248,0.9023336699935962,0.1885094225105034,0.5488262565581403,0.1007130991189402,0.20659326222248914,-0.6602282713259842,-0.41630072335384294,-0.48634603613799055,-0.6166490715490853,0.4270892125455672,1.5203728183432184,1.5199900259511236,1.205592298946365,0.8133483831475872,0.39002569862348513,0.14457110738925294,0.009002015689629318,0.006508409821755594,-0.7680442142409747,-0.3578067248787228,-1.2041104018409523,-0.8439732199241552,-0.31326371571506995,0.021979423862761062,0.6399432676768633,0.5960984113538788,0.09198079212762482,0.1991204727593066,0.1643586790839564,-0.4755809267588291,-0.24295990604061113,-0.14893722706719914,-0.6462145634090342,-0.6745333739208768,-0.5589619618726294,-0.4528306771007887,-0.12165016665153623,0.6121990780536082,0.10584999164182556,0.19197029223988193,0.1242462537011292,-0.2406654110274164,0.21192591266632516,-0.0652124215937084,-0.2773691602494589,-0.09215564027689956,-1.3380850280070338,-0.4062435508325245,-0.3540538166743371,0.3754571510997162,0.19393690557106902,0.19830570946627946,0.11491060580528921,-0.44487492194935707,0.20083527523821382,0.018716860412150732,0.007356443021775868,-1.0284503443507533,-0.5525796440812072,-0.7086443285400355,0.06174507591302807,0.3779558568257829,0.1916330960010636,0.1740278051497563,0.04192381830055103,0.47421064617206254,0.4925948773326909,0.45749646054755244,0.14312452112109647,0.12373394165571902,-0.3258673760981343,-0.682127958457134,-0.5698353116692831,-0.8860014077821359,0.11016808902463178,0.21729133872404238,0.09306757183677537,0.1575703274607289,0.8356526556575721,0.521347495999535,0.9619754320315825,-0.13010886806474684,-1.0300366462742037,-0.6537060746985077,-0.9422267017610075,-1.0246657537369435,0.024419057656854808,0.14001202558756015
0.1482831739779673
