1.2188288681536823,0.7170706428393921,0.8879648218294159,-2.13020942028282,-0.695975779836892,0.7512410657544603,-1.3145804892602566,0.29422323370851317,-0.3494355419254255,-0.13013616541571524,-1.103114864716936,-0.6912381353367723,0.08916323822721435,-0.2699717056768669,-1.403317270953326,-0.38163074183581613,0.6931807671931357,0.8812587497640165,0.7427001651761487,0.8657545718350842,-1.3688350654207084,-0.4943434593615048,-2.7763742854412214,-0.9177366831749955,0.3941894609825818,-0.31573972331963857,-1.267284621466889,0.5954054280553934,-1.7631692600249356,-0.7401691792738166,-0.7273477499486344,-1.9510981240138132,-2.0032016593902506,0.020646971524045717,0.41948229208735216,0.4094737787098091,0.6515716444007073,0.05406878397590877,0.6644703154468702,-0.5735086313693054
-0.5919646359841277
1.2256659807809014,-1.6774308532370752,-0.09751870296780796,-0.9827676823037897,0.9565322608088996,1.3387343968953105,-0.8487952123644937,-0.06935403972724455,-0.337605695149432,0.20534724149392247,1.3134786451762883,-1.4910699094508086,0.981454952786812,-1.7534103467369266,-0.9663399881553874,-0.3767136804987103,0.6801557378172717,-0.48997456162396147,-2.3038888235282164,-1.6381312446800746,-1.2396859926863126,0.6460596168622397,0.22434165779870438,-0.1663754151416412,-0.9614144690101005,0.9903882531261716,-1.7845875260578274,-1.8434418251241067,0.14282070851427792,-2.2446193595589903,-1.5302417944487678,1.0515687859745548,-0.9149225920312274,-0.2487382076372168,0.09084964599117291,-0.10487969013107684,-0.4648065102609045,1.2901267556088625,-2.17891554097715,-0.4034280192836051
-0.4467921678138263
-2.511383918179152,1.2219236713810955,0.35921823495117255,0.06407649185424373,-2.599776179895668,-1.534884772298168,1.0963725946303,-2.2396009352251984,-0.5600422007600733,-2.2567258382043622,0.31045037833196515,-1.2071533373302117,-0.48806918988606446,1.047215416590693,0.5033555484874723,-0.6752391967862835,-1.949183116784246,-1.129369917116898,-0.9675497047564898,-0.49728787098727895,-1.3599425116198984,-0.2885782958294458,0.7259965067203555,0.8164732305964713,0.4830128037368182,-0.03233819550399981,-0.1595284792716977,0.8486644858854386,0.22943647008115475,-0.037751642302291555,-1.6436355957105548,-0.4775058642466955,-1.357046415746941,-0.44902261708780106,0.2833880188500547,0.5263924914195438,0.7842494931507428,0.14390092950101455,0.7563747979834567,-0.6475005476751029
-0.7300245723909795
0.14433659172467014,-1.1406615748207576,-0.5147664329193257,1.549387329962715,0.8467334729659868,1.8720139800587228,-2.030133611949277,-2.405916183975633,-0.47284956281458657,1.253940319326227,-0.09317289536571356,-0.427910852630525,1.6730413774786599,-1.7822948199404514,-0.9735691597266211,-1.5304896151277536,-1.9851513812517274,-0.9597422774219901,-1.3244760073162747,-2.057532624359161,-0.04771311426692945,0.2825503419807057,0.009698007049048076,-0.6517620025800314,-1.541705003592007,1.292426937280065,-1.2489565142368886,0.834204605731855,-1.3551763423512513,1.0645872515972548,-1.0809873593416586,-0.41352011331988997,-0.3476227809654423,0.06481258622747063,0.3487004821596547,1.1373884232646279,-0.5240916536001602,-1.2311793615881097,0.9565672377742257,-0.7110452691981128
-0.6336556749492769
-1.972821617904814,-2.5714362079122366,-0.52656502200815,-0.30065732999044326,-1.6086426856411677,-1.5559946506986282,-1.5785831810094952,-0.13375944267325277,-0.613053894074499,0.4156633426787,1.0880454576557126,-1.170140027672025,0.4486975483641315,1.1889916456110732,0.5456807354143377,-0.8697525667299675,-1.3491525725239781,0.26460092196579504,-3.469304946638707,0.9449214131068241,-1.1653405413346307,0.3742143149537112,-0.05883921659364349,1.1923728439878984,0.5065695423283395,-0.0042204858081950234,1.4374898074730602,-1.3951953151649563,1.6792294922520228,-1.8944101237259507,-0.8854959550403061,-0.20950149733038004,0.0440574299130197,-0.18436003195589867,0.9708760916632392,-0.5241146921291229,0.2852749286899849,-0.5186795186712182,-2.3214233325144393,-0.6698001715002351
-0.7753639896959915
-1.4117409378834709,0.8358780611213533,-0.5681908734177297,-1.8616899272718055,-1.222355832380964,0.34790685802282856,-2.033527850588486,0.2836066834567755,-0.742461750914149,0.34508172452044644,-0.14920278160564776,-1.4882412880652467,-0.7329926720658633,2.5653619765358284,0.593212470374398,-0.806038304955601,-1.7257635393674302,0.3745794083994596,2.456731823914299,-0.026423349932709218,-0.5894217862375146,1.3218274088484405,-0.8195175681450793,0.3018454954504083,1.2095363458837913,-0.14516446608756806,1.4225776182103067,-1.798417044723799,-3.0586930816601825,-0.3663380509812414,-1.3771680423062163,0.8003707721812237,-0.1927376673334438,-0.229162085373529,-1.4849337314203674,-1.9966140020437873,-0.38731218721250926,0.29520080594119974,-1.2567288730434172,-0.7115804302798518
-0.9666719987960299
0.4398798559862193,0.7445717027259892,0.39093101409133235,-1.6905967729792373,1.3700141041448095,-1.172623590814967,-2.2442969894053664,-2.3162558548969496,-0.464283863212541,-0.07033143239996847,0.5727889544865589,-1.6254094179683074,-1.6175563559569606,1.4399922690591873,-0.036621485843972866,-0.441677116258686,0.8800556547236249,-0.6196216750304651,-1.076013791441517,-1.2667395376006885,0.022894517085704554,0.5182187365013368,0.3376149646698535,0.3952948205571312,1.0211996279091289,-0.5500098355367381,-0.4245986324658961,1.1008102014801255,-0.9234952047468317,-2.739681333734972,-0.0016812532599817527,-0.2260080319014636,-0.9890350525192281,-0.36392228297826723,0.12637191630920971,-1.7705467179801584,0.26411405775207875,0.18888542234497988,0.7606727171262965,-0.5445762856360689
-0.710261465703264
0.34791610383789345,0.34660804457687644,0.33665645437639513,-2.068266101655065,0.5565084875142327,-0.09876941094755771,-2.344748461983497,0.817746008996607,-0.4868287290280973,0.6308241066125222,1.2577297115958717,0.39242498638168033,0.7547366429285733,-0.6479284923401071,-1.695390612359427,-0.38499476531111804,-1.4764474619353751,0.1913703851271041,-1.2795543254282598,-1.1206875227009765,-1.570160944139203,-2.085959827258508,-0.12482799908950196,0.43984083983448363,1.3019061569882948,-2.0968417438381013,-0.1765281392104635,-1.667252938993929,0.24628453509792272,-0.6541408143617772,0.8431173714650388,-1.22867332014179,0.3092677481992314,1.103252586329867,-1.5944569939114723,-0.7899057026777705,1.036471944882651,-1.8009336489803345,-0.2769672080750241,-0.45156817449430203
-0.6619950066935872
0.980764969165902,-0.5348120196898482,-1.1263574481265741,0.40668043396361575,-0.7132692497692147,-1.0987496276249664,0.5497810355972061,-2.646274022827036,-0.27254212590560684,-1.8568194390054538,-1.4844729060191948,0.12727229253545283,-0.7248445985615979,0.2946300667769877,-0.7981829346660881,-0.2741198645138974,1.0678900226877157,0.48201543303103656,0.05747425796572293,0.6572294654128328,2.0061336942455523,0.5487141984667409,-1.6121969481802383,-0.6958531394754499,0.37161886117038634,0.024523837287930013,0.23960402949356435,1.1111597514358529,-0.951969290870408,-0.16874855397257563,-0.7871940047157631,0.14888578521691428,-4.4351700457623595,-0.3673990010990355,0.6704204540847567,-0.22855031308448562,-1.4799338468087329,0.9271771355974966,-2.005896087248696,-0.303260730908305
-0.3407379690789443
1.0469015906232932,1.0763156809359196,-0.33410959276062235,0.8589647364418979,-0.2603727368416644,-1.8107199380390637,1.8494994110029155,2.059112452031933,-0.46209598702962923,1.3706547315615303,0.49538307334024184,-0.6195100805406926,0.40496623456298986,-0.1703279611684033,0.032865663958240705,-0.4317035056251873,-0.9143722578391291,-0.8614307484270657,0.22591564082877116,-0.1066871969406233,-1.451843610171377,-0.7991440761283508,-1.8196926099605142,-2.4041023697275308,-0.20099015670777468,0.057477916173499906,-2.919363048814224,0.39635138965288114,-1.8055626176711095,-1.1805178551783642,-0.8753363179604747,0.7273384730739971,-0.04737989445529816,-0.689978475337657,0.25263367265763664,-1.7986920880706208,-2.0788532291505697,0.01646970868327501,1.3037845077088535,-0.493556112278028
-0.6433466681998568
-2.5434250485245946,-0.28969526822894337,-0.1587583079063611,-0.44167153135286047,-1.260390479408049,0.7091770938506029,-0.7943356470948001,-0.39712314088180833,-0.537610293858172,0.3794589874184905,-3.2424268611020497,-0.6766502901422612,-0.19555773856147493,-1.6240601279152975,1.813354776965841,-0.5200786193522469,-0.7847644541449372,-2.3659625306197696,1.070187531450092,0.9664447874925093,-1.1142665861418828,-0.4450269887228035,-0.1799475212296798,-1.7475837820399431,0.22693872778808297,-0.3799997272597469,1.701254151411798,0.9164508648332648,1.622341717319349,0.27992658931410264,0.5542091441010527,1.1750638191502627,-0.4299086855053186,0.061706452276472944,-0.4830577606149311,-0.011648722501943447,0.7167056752315237,-1.674182421466216,-0.4550559919746144,-0.5452605570458093
-0.6761001150627484
2.2017026006733147,-1.1402463649204986,-0.1331262895255911,0.13342817829301593,-1.0345384243057767,-0.576349766248496,-1.5038525398662153,1.3361899884207449,-0.4768306795861304,-2.5644967555259175,-0.43430953739258427,-0.9738967901193399,-0.3369517526675742,0.5981211556956796,0.1524382399697816,-0.6422028523632854,-1.5337990007508457,0.24041685605578839,-2.309982209622002,-0.4834332838087118,-1.0451280930196878,0.25872225667351706,-0.6039284512269469,-1.3794349312927112,0.33163603882533454,0.09736898629614596,0.6407891915683256,1.1030880547150341,1.4430485059322984,1.384082443854707,-1.1142235628325625,0.08500090020322093,-1.0188797888228067,-0.1542079636571869,-1.0590714989982366,0.04943224600531584,0.2714761859653879,-1.7932468424662515,0.5097128258998684,-0.5818530862277146
-0.7464644764947035
0.07980851506982614,0.07769155310389012,-1.1089947360349184,-1.15536487068943,1.4042100815973042,0.7117611426747807,0.572857934114588,0.13532590567365424,-0.6455749597955673,-0.19783925612350284,0.519910727102698,1.2043263988699877,0.5037710799788713,-1.2018861658539652,-0.6756978896754771,-0.2322494831557165,0.028481397930614858,-0.08004176332036352,0.3856819032213224,-1.1912402394993973,0.6323272519693391,-1.391537517124528,-0.20179850315684292,-0.34291751264954806,-2.394778039066549,-1.2361280483107393,0.12317816083759668,0.5392516465380971,0.793641563969391,0.3567665657365467,0.849643878074354,-1.8039903438564608,-0.07357371572762451,-2.333808783322576,-1.3779992028711439,0.3970135745466389,-1.5596176764099416,1.0262657254764398,-1.389804284282271,-0.45093149461520154
-0.2244177035241751
0.6845327533103788,-1.3235891531114135,0.15682407800435097,-0.9009706005869818,0.426757417561896,0.5027299653178022,-1.0466322526086316,-0.3102275888969126,-0.5408498526938962,0.4616100521774731,-2.183624214662478,1.1134398710321296,-2.656616003698172,-1.5430879338871344,0.20355973593376642,-0.8061374636361678,0.9196933860796315,-1.2494300565591596,1.0221007196882494,-1.030829072251384,1.077191249796683,0.4200011324722518,0.1547232962419778,0.6606234023677294,0.09597370312522725,-1.8686005017608303,-0.5374232675575313,-1.2716576799656627,-0.46398241275406615,-0.2484262376781292,0.3855539002881678,-2.194476493695704,0.26421465243975806,-0.18644106225595733,0.26879650216259643,0.27213896735139353,-0.11853630317855374,-1.7161404711888664,0.4638250413160096,-0.5250402048997016
-0.6438068751685541
-0.929640279236176,-0.09900239546507074,-0.10493790449678227,0.1632379035545592,0.7575994699020271,-1.7391533072451675,2.456987131528094,-1.2905779415726237,-0.4005001440786346,1.2549920301948505,-0.38346526316253443,0.14901846597892668,-1.8133590788800313,-1.255943064315168,0.6144453875844654,-0.39569813586270347,-2.044892292714129,-1.0128443878917268,-0.9366014667259314,-0.8579563709902085,0.8154856103627144,-1.9313598275983732,0.09222086540333195,0.44920172790368423,-2.836655866149612,-0.7326792293003992,-1.6158123885220486,0.6683204453842726,-0.5983717480883588,0.9561167341372032,-0.42836823986496714,0.20093807836535857,-1.9263424428660054,-0.35598770029697036,0.38055499902104656,-1.391518293945264,-0.08701723896852057,2.4606331323753556,-0.09910253724687704,-0.43061260548197966
-0.6531683497175526
-1.1138049841683282,1.0316232562270269,2.9831218368278335E-4,-0.5673853316837725,-0.5185145513495002,0.17119468365791618,-0.3985586505491965,-0.48833523507142984,-0.20874403387314522,0.6720664920095581,0.6874300018684169,-1.1201158433533998,0.025133850828095827,-1.9955923591013134,-0.20203735218807647,-0.3365403329669335,-1.4960770988980845,1.0471582069673775,-0.28294523343071193,0.30580014251623305,-0.5311800177644259,-2.4563969557733767,-0.045876882574936995,0.23812328154621915,-2.63769311901851,0.8338554636857758,-1.3795048257242815,-0.8954288694178097,-1.804687917321611,1.6123544122364453,-1.6619486615098886,0.12053193070381538,0.5327786049650517,0.1232176757858587,-1.985383500334097,-0.13103169067242304,-0.3308792084463258,1.0630235485777622,-0.758029906710562,-0.31808504105173024
-0.42205621095129786
-1.484335872941513,-0.5749474234881671,-1.7594183257076903,0.5238140020897316,0.7322736097360706,-2.0689659331994874,0.7197816710472668,-1.2582251435308385,-0.29743801904430794,-1.5696593593977126,0.22070722101745668,-1.0325437273049924,-1.022456225800927,-1.4960614547907605,-0.502415138412202,-0.1514968222302433,2.812496288695853,-1.071053756407778,-0.574180896900226,-0.720401722800007,0.756572728337486,1.09647709653767,-0.44696267753531477,-0.5990417616068364,-0.38012436763810437,-1.3425523818552774,0.9664649022430992,0.6986768504240013,-0.16500974529892007,0.6837287907258559,1.348031581358473,-0.19003288618344896,0.08640604782830498,-1.527802036179592,0.4777656096480574,0.5002225885765201,-0.3833574907521662,-1.8756779960484873,-0.052011601562803,-0.3236990141123779
-0.40525235634750106
-1.3501748952707193,0.31125839958668006,-0.43889914495668214,-1.6814337229306622,-1.5860358888692505,0.383796111840357,-1.323916665766843,0.3859479826637027,-0.5463519831435522,0.1461006927351772,1.8557803821934864,-1.45469517384907,0.23561485038963842,-2.3249067182079295,0.3483266446583765,-0.4048396581854647,0.4020688369062991,-3.17858743024142,0.06489671163165277,1.2151886952808364,-1.1333769345165468,1.6993059651147635,1.122532227755012,-1.3176590437917899,-0.6189090876096003,0.2849542200055798,-1.230677615861741,-0.23940930970626118,-2.0790569373094505,-0.4353972499694684,0.5833805553906083,-3.0539163964779212,1.0728730739485404,-0.05482660169365559,0.45441275125809044,-0.25053646575668126,-0.005531760282569715,-0.6949941037728724,-0.026986987249110285,-0.46837450679703635
-0.6761805980948549
0.9188509479620255,-1.7099611556721317,-0.11609826128235784,1.0222069288291302,-1.5114248549201568,-1.9994872992807646,-1.7980879324139947,0.46989727002815834,-0.4194010432220335,0.3366045537416876,-2.062425684854687,0.3552459146468797,-1.115046385962083,0.38635447617345337,0.5932235244041664,-0.48976497966474786,0.4313766314806371,-0.45849649644300633,1.3530438662123707,-1.119397385129429,0.02670504460907272,0.02787125086323619,0.8067848604753546,0.6517099926416792,-0.22141115109936038,0.35951003174377955,-1.6820741584197725,-2.4023115085613838,0.6794221440044739,-1.1827811864232278,-1.3800353401461392,0.25880869097557674,-1.5489086321363414,0.2599606584135216,0.6601574780061391,-1.3655774623200412,-0.06951675776360325,-0.3798366298729008,-0.6081834920671213,-0.34661762251884404
-0.6059517527305308
-2.859297627151945,-0.4311693274753304,-0.009155056964918513,-0.08113265654509322,-0.7400680829311554,-1.403696168233084,0.26905853561288073,-2.250757793266681,-0.6422923543924451,-1.3480504942881029,-1.0899256494131107,-0.14793433738885153,0.8688635632467012,-0.012783841192450482,0.23295526446863266,-0.722639810778919,0.08917289529420244,-0.2771541063128613,0.6340034467723489,-0.3089801076949258,-0.29405040285303075,-0.139395167242352,-2.3970217175870787,1.4227935066052564,-0.8217680280712755,0.02256686675527829,1.8554399485616426,-1.1811974378360715,-1.7946284555493235,-0.5995830286549925,-0.8751168925981286,-0.09692209183769276,2.7261854936352283,0.9386339043358422,0.637418140909028,-0.5876021676040308,-1.5108427893512195,-0.5518398234382192,1.201261982289999,-0.5430974603531452
-0.6479802894198163
0.4498438640091934,-0.22245026346860636,0.3531121088873674,1.3620176188904283,0.5332936656226097,1.2446799812015847,1.526871650824012,-1.3115240889089717,-0.40552665191551923,-2.203569569468102,-0.5130378936518019,-1.401806048561404,-0.11737153695290112,-0.7786615010171815,-0.2788811691573548,-0.49970461505698993,-2.1368670219265926,-1.4006302462869131,-1.4645929244822538,-1.2329081263744708,0.5964060266235796,-2.408803567228702,0.09041876958163939,-0.0914493978803502,1.3347765681637593,-2.085427265993133,-0.9904729357585849,-1.6277070738970565,0.6319191628481245,-1.1917283744710732,0.6694370716563456,1.1210665358204064,0.5166667502700899,0.010276060727541942,-0.6280228229287818,-0.8334170647512689,0.7499204466769406,-1.6783627161819903,0.2525958082219462,-0.4497739046929284
-0.6477677955696922
0.14076488866417414,-0.10037895658580696,0.3310778482828381,0.6813247687398758,-2.0291011951170383,0.7479552550475069,0.5982781417709898,0.7354202238860317,-0.13275970654539598,-1.9220894109623763,0.25115431905744423,-2.6711850097738354,0.2718424149298753,-0.46379602770640005,0.3920869373661419,-0.1352651997721858,-0.8153562109680559,0.33647545570136056,-0.152487638448193,1.3044152045659232,-0.713206589460727,0.24701018181413503,-0.5514441759522527,-0.04580185982517815,0.8578701333085758,-1.7892487906994299,0.2751634384665291,-0.601026133157595,-1.8359049216163164,0.18024161489215743,1.623515769561215,-0.11666648428080019,0.13892596230897214,-2.171458128403767,-1.604379255701922,-0.11367137310956543,-2.25608699080236,-0.8839261397513432,-0.06569171782633501,-0.2831939224173417
-0.48401776240566174
0.11709794166284171,0.1717086270197807,-2.699668855367932,-1.3219724908438302,1.3199553449868113,0.7381393531534017,-1.0201097487232076,1.1094700227571574,-0.6401005210804234,-0.43655639549108577,0.811647236648159,0.6252885874078858,-1.7756013852899448,0.08077717611767926,-0.22621209935976883,-0.21303913318646955,0.16267368023599368,0.04194897061800958,0.3679356525396695,-0.3630988300464097,0.2603799849957347,0.06504984397838527,-1.2736390388883159,-1.5477428056228062,-0.9162133259467371,0.09837121802845401,-0.6691132944139878,-0.15699897757565837,0.10280345893737197,0.4299752657309714,0.9367897895395702,1.0797541214980346,-0.5528491789992243,0.6542058309658403,0.3557860159802455,-2.3424447780104263,-0.0487681633774359,-1.0564060099117263,-0.8470107438945955,-0.6242231254779638
-0.2329301252246076
0.1887511782113166,-1.265652273753343,-1.0004804130843359,-0.4213258674309276,-1.1968164287225003,0.7958090165954832,-1.7496885500329593,-0.23674473509067473,-0.4368019107607682,0.29594716002053617,-1.241017127219001,1.6069435605505376,-0.45608613914275703,1.3197338845243156,-2.3855095420809533,-0.2567629183293073,1.0362789299480082,1.3446930200878302,0.6327263166988284,0.5225273151170703,-1.2664425499553675,0.14641802099087015,-0.3672811225206122,-2.422205045390476,-0.1475985433934236,0.6312619713773032,1.0652337265439336,-1.9973260063538536,0.15890275397972295,-0.016527374826863766,-0.3854580730790729,-1.8303857968930346,0.8041237085182303,0.04331347210795783,-1.6529794377127065,-0.1414155070270774,-0.7152270330314577,-1.685886444043386,-0.9749815305908546,-0.28951087611205994
-0.526712984462225
-0.5006434982150356,-0.16509886549296926,0.03658296669789909,0.34678314010222555,-0.7968729887249578,-2.11822041671637,1.3650615773043704,0.7078055886016307,-0.5585411359150387,-1.2039611663507201,-1.8314731921998526,1.8402325762224923,-0.20500486041936714,0.7676304684954434,-0.5744438839813791,-0.5553636764693709,-1.0480042117790436,0.012736711034595559,0.22254250477240312,0.15100342771549052,-0.4177580712819928,-0.558423295428773,1.55688438226607,0.641204930327836,-0.09909315525522328,0.6728571326754055,0.3185163819402248,-1.831060525207555,0.9915325420129093,-1.3711309364708943,-1.956959850204582,-0.25557661358318945,0.7069109722808381,-2.266854302822222,-2.1117878127939798,0.0051223300817642365,-1.5032591061846248,0.008232767649348695,-1.5757528043960776,-0.3960132307435537
-0.635540375113071
-1.8635817320979096,-1.3539780285967034,-0.16405125458885075,0.7411681305993577,-0.6408577190240817,-1.6445519568779743,-0.06971483955297378,-0.5128402852879652,-0.33671648636218166,0.5775014564016051,-1.932534401389334,-0.6976114053274317,0.5083909780850043,0.4476644601737848,-3.2268174871340443,-0.35672895531046184,0.39829214878957414,0.9734974669306796,-2.1645596808217555,0.5910376332921677,-1.379057119649242,-0.6232482329457102,0.6296136036455773,-1.9604369080345665,-0.5047559788103713,-0.013360240897932155,-0.6427169817060149,1.0855123631455699,-0.527725434115457,-0.5430677525744663,-0.9263450809338156,0.46140754057757694,0.471814990565891,0.07286212191545594,-0.07240639571251793,0.47423105587755593,1.3459077881722032,0.5405485485595178,0.05479947025136572,-0.3362357684212629
-0.4670803389825812
